SVM-light Version V5.01-TK-1.2
5 # kernel type
3 # kernel parameter -d 
1 # kernel parameter -g 
1 # kernel parameter -s 
1 # kernel parameter -r 
empty# kernel parameter -u 
0.4 # kernel parameter -L 
1 # kernel parameter -T 
T # kernel parameter -C 
1 # kernel parameter -F 
1 # kernel parameter -S 
1.000000 # kernel parameter -D 
3 # kernel parameter -N 
S # kernel parameter -V 
S # kernel parameter -W 
0 # highest feature index 
16257 # number of training documents 
550 # number of support vectors plus 1 
1.1554034 # threshold b, each following line is a SV (starting with alpha*y)
-0.090867061846990601625684291775542  |BT| (NP (ADJP (JJ little)(S (VP (TO to)(VP (VB hide)(NP (PRP$ their)(JJ obvious)(NN dismay))(PP (IN with)(NP (NP (NNP Friday)(POS 's))(CD 4-3)(NN state)(NNP Supreme)(NNP Court)(NN ruling)(NNS favoring)))))))(NNP Democrat)(NNP Al)(NNP Gore)) |BT| (BOW (state *)(Supreme *)(Court *)(ruling *)(favoring *)(Democrat *)) |BT| (BOP (NN *)(NNP *)(NNP *)(VBG *)(VBG *)(NNP *)) |ET| 
-0.066476003097810126840627731326094  |BT| (NP (PRP$ His)(JJ leftist)(NN coalition)) |BT| (BOW (His *)(leftist *)(coalition *)) |BT| (BOP (PRP$ *)(JJ *)(NN *)) |ET| 
-0.07673766482428451274344638477487  |BT| (NP (JJ retired)(NN army)(NNS generals)) |BT| (BOW (army *)(generals *)) |BT| (BOP (JJ *)(NNS *)) |ET| 
-0.042541887761062310846504885830655  |BT| (NP (DT the)(JJ provincial)(NN capital)(NNP Banda)(NNP Aceh)) |BT| (BOW (capital *)(Banda *)(Aceh *)) |BT| (BOP (NN *)(NNP *)(NNP *)) |ET| 
-0.070882714084994316583454576630174  |BT| (NP (NP (NNP Britain)(POS 's))(JJ top)(NN law)(NN enforcement)(NN officer)) |BT| (BOW (Britain *)('s *)(top *)(law *)(enforcement *)(officer *)) |BT| (BOP (NNP *)(POS *)(JJ *)(NN *)(NN *)(NN *)) |ET| 
0.33333333333351461424953754431044  |BT| (NP (NP (PRP$ his)(NN nation)(POS 's))(NN bureaucracy)) |BT| (BOW (nation *)('s *)(bureaucracy *)) |BT| (BOP (NN *)(POS *)(NN *)) |ET| 
0.33333333333351461424953754431044  |BT| (NP (NP (NNP Syria)(POS 's))(NN government)(NN -run)(NNS media)) |BT| (BOW (government *)(-run *)(media *)) |BT| (BOP (NN *)(JJ *)(NN *)) |ET| 
0.33333333333351461424953754431044  |BT| (NP (NP (NNP Indonesia)(POS 's))(JJ legal)(NN system)) |BT| (BOW (Indonesia *)('s *)(legal *)(system *)) |BT| (BOP (NNP *)(POS *)(JJ *)(NN *)) |ET| 
0.33333333333351461424953754431044  |BT| (NP (DT a)(NNP Georgia)(NNS appeals)(NN court)) |BT| (BOW (Georgia *)(appeals *)(court *)) |BT| (BOP (NNP *)(NNS *)(NN *)) |ET| 
0.33333333333351461424953754431044  |BT| (NP (DT the)(NNP GOP)(JJ -controlled)(NNP Senate)(NNP Foreign)(NNPS Relations)(NNP Committee)) |BT| (BOW (Senate *)(Foreign *)(Relations *)(Committee *)) |BT| (BOP (NNP *)(NNP *)(NNPS *)(NNP *)) |ET| 
-0.1808911703196991738185062104094  |BT| (NP (NP (NNP Syria)(POS 's))(NN government)(NN -run)(NNS media)) |BT| (BOW (Syria *)('s *)(government *)(-run *)(media *)) |BT| (BOP (NNP *)(POS *)(NN *)(JJ *)(NN *)) |ET| 
0.33333333333351461424953754431044  |BT| (NP (DT the)(NNP New)(NNP York)(NNP State)(NNP Parole)(NNP Board)) |BT| (BOW (New *)(York *)(State *)(Parole *)(Board *)) |BT| (BOP (NNP *)(NNP *)(NNP *)(NNP *)(NNP *)) |ET| 
-0.2625945555006348186566356162075  |BT| (NP (DT the)(NNP GOP)(JJ -controlled)(NNP Senate)(NNP Foreign)(NNPS Relations)(NNP Committee)) |BT| (BOW (GOP *)(-controlled *)(Senate *)(Foreign *)(Relations *)(Committee *)) |BT| (BOP (NNP *)(VBD *)(NNP *)(NNP *)(NNPS *)(NNP *)) |ET| 
0.33333333333351461424953754431044  |BT| (NP (NP (PRP$ its)(NN acquisition))(PP (IN of)(NP (NNP Honeywell)))) |BT| (BOW (its *)(acquisition *)(of *)(Honeywell *)) |BT| (BOP (PRP$ *)(NN *)(IN *)(NNP *)) |ET| 
-0.11624427585823274289289486205234  |BT| (NP (NP (PRP$ his)(NN nation)(POS 's))(NN bureaucracy)) |BT| (BOW (his *)(nation *)('s *)(bureaucracy *)) |BT| (BOP (PRP$ *)(NN *)(POS *)(NN *)) |ET| 
0.33333333333351461424953754431044  |BT| (NP (NNP U.N.)(NNP Security)(NNP Council)(NNS resolutions)) |BT| (BOW (U.N. *)(Security *)(Council *)) |BT| (BOP (NNP *)(NNP *)(NNP *)) |ET| 
-0.079462443225153917003567016763554  |BT| (NP (NNP Social)(NNP Security)(NNP Commissioner)(NNP Kenneth)(NNP Apfel)) |BT| (BOW (Social *)(Security *)(Commissioner *)) |BT| (BOP (NNP *)(NNP *)(NNP *)) |ET| 
-0.086724674910469617961084054513776  |BT| (NP (DT the)(NNP New)(NNP York)(JJ -bound)(NN jetliner)) |BT| (BOW (New *)(York *)(-bound *)(jetliner *)) |BT| (BOP (NNP *)(NNP *)(NN *)(NN *)) |ET| 
0.33333333333351461424953754431044  |BT| (NP (NP (NNP Britain)(POS 's))(NNP High)(NNP Court)) |BT| (BOW (Britain *)('s *)(High *)(Court *)) |BT| (BOP (NNP *)(POS *)(NNP *)(NNP *)) |ET| 
-0.097910755626870918377768759910396  |BT| (NP (NP (NNP Indonesia)(POS 's))(JJ second-largest)(NN city)) |BT| (BOW (Indonesia *)('s *)(second-largest *)(city *)) |BT| (BOP (NNP *)(POS *)(JJ *)(NN *)) |ET| 
0.33333333333351461424953754431044  |BT| (NP (NN government)(JJ -controlled)(NN creditor)(NNS banks)) |BT| (BOW (government *)(-controlled *)(creditor *)(banks *)) |BT| (BOP (NN *)(VBD *)(NN *)(NNS *)) |ET| 
-0.012937924618092722789386428416947  |BT| (NP (DT the)(JJ fashionable)(NNP Dallas)(NN suburb)) |BT| (BOW (Dallas *)(suburb *)) |BT| (BOP (NNP *)(NN *)) |ET| 
0.33333333333351461424953754431044  |BT| (NP (NP (NNP Tabasco)(POS 's))(JJ electoral)(NN institute)) |BT| (BOW (Tabasco *)('s *)(electoral *)(institute *)) |BT| (BOP (NNP *)(POS *)(JJ *)(NN *)) |ET| 
-0.16887469140284033786159056944598  |BT| (NP (NP (NNP Pinochet)(POS 's))(JJ legal)(NN team)) |BT| (BOW (Pinochet *)('s *)(legal *)(team *)) |BT| (BOP (NNP *)(POS *)(JJ *)(NN *)) |ET| 
0.33333333333351461424953754431044  |BT| (NP (DT the)(NNP Texas)(NNP House)) |BT| (BOW (Texas *)(House *)) |BT| (BOP (NNP *)(NNP *)) |ET| 
-0.052383119892703368380981743257507  |BT| (NP (NNP Texas)(NNP Gov)) |BT| (BOW (Texas *)(Gov *)) |BT| (BOP (NNP *)(NNP *)) |ET| 
0.33333333333351461424953754431044  |BT| (NP (NP (NNP Iran)(POS 's))(JJ 290-seat)(NN parliament)) |BT| (BOW (Iran *)('s *)(290-seat *)(parliament *)) |BT| (BOP (NNP *)(POS *)(JJ *)(NN *)) |ET| 
-0.023710997913754382204754023177884  |BT| (NP (NP (DT the)(JJ sole)(JJ Jewish)(NN representative))(PP (IN in)(NP (NP (NNP Iran)(POS 's))(JJ 290-seat)(NN parliament)))) |BT| (BOW (representative *)(in *)(Iran *)('s *)(290-seat *)(parliament *)) |BT| (BOP (NN *)(IN *)(NNP *)(POS *)(JJ *)(NN *)) |ET| 
0.33333333333351461424953754431044  |BT| (SBAR (WHNP (WDT that))(S (VP (VBD owned)(S (NP (NNP Road)(CC &)(NNP Track))(VP (TO to)(VP (VB become)(NP (NNP Bond)(NNP Publishing)))))))) |BT| (BOW (that *)(owned *)(Road *)(& *)(Track *)) |BT| (BOP (WDT *)(VBD *)(NNP *)(CC *)(NNP *)) |ET| 
-0.085796627082852294776671442377847  |BT| (NP (NP (DT another)(NN company))(SBAR (WHNP (WDT that))(S (VP (VBD owned)(S (NP (NNP Road)(CC &)(NNP Track))(VP (TO to)(VP (VB become)(NP (NNP Bond)(NNP Publishing))))))))) |BT| (BOW (company *)(that *)(owned *)(Road *)(& *)(Track *)) |BT| (BOP (NN *)(WDT *)(VBD *)(NNP *)(CC *)(NNP *)) |ET| 
0.33333333333351461424953754431044  |BT| (NP (NP (NP (NN owner))(PP (IN of)(NP (DT the)(NNP Chicago)(NNP Sun-Times))))(CC and)(NP (NP (DT the)(NNP Daily)(NNP Southtown))(PP (IN in)(NP (NNP Tinley)(NNP Park))))) |BT| (BOW (owner *)(of *)(the *)(Chicago *)(Sun-Times *)(and *)(the *)(Daily *)(Southtown *)) |BT| (BOP (NN *)(IN *)(DT *)(NNP *)(NNPS *)(CC *)(DT *)(JJ *)(NN *)) |ET| 
-0.11900561926784537780665829131976  |BT| (NP (NP (NP (NN owner))(PP (IN of)(NP (DT the)(NNP Chicago)(NNP Sun-Times))))(CC and)(NP (NP (DT the)(NNP Daily)(NNP Southtown))(PP (IN in)(NP (NNP Tinley)(NNP Park))))) |BT| (BOW (Chicago *)(Sun-Times *)(and *)(the *)(Daily *)(Southtown *)) |BT| (BOP (NNP *)(NNPS *)(CC *)(DT *)(JJ *)(NN *)) |ET| 
0.33333333333351461424953754431044  |BT| (NP (PRP$ our)(NNS courts)) |BT| (BOW (our *)(courts *)) |BT| (BOP (PRP$ *)(NNS *)) |ET| 
-0.056758148294647238485399753926686  |BT| (NP (PRP$ our)(NNS martyrs)) |BT| (BOW (our *)(martyrs *)) |BT| (BOP (PRP$ *)(NNS *)) |ET| 
0.33333333333351461424953754431044  |BT| (NP (DT a)(NN state)(NN -run)(NN power)(NN company)) |BT| (BOW (state *)(-run *)(power *)(company *)) |BT| (BOP (NN *)(JJ *)(NN *)(NN *)) |ET| 
-0.0074420174179289678983995059979861  |BT| (NP (NP (DT a)(NN state)(NN -run)(NN power)(NN company))(SBAR (WHNP (WDT which))(S (NP (DT the)(NN government))(VP (VBZ plans)(S (VP (TO to)(VP (VP (VB break)(PP (IN into)(NP (JJ several)(NNS units))))(CC and)(VP (VB sell))))))))) |BT| (BOW (state *)(-run *)(power *)(company *)(which *)(the *)(government *)) |BT| (BOP (NN *)(JJ *)(NN *)(NN *)(WDT *)(DT *)(NN *)) |ET| 
0.33333333333351461424953754431044  |BT| (NP (DT the)(JJ other)(NNP Copley)(NNP Press)(NNS papers)) |BT| (BOW (Copley *)(Press *)(papers *)) |BT| (BOP (NNP *)(NNP *)(NNS *)) |ET| 
-0.26813904775794211721162696449028  |BT| (NP (NNP Supreme)(NNP Court)(NNS justices)) |BT| (BOW (Supreme *)(Court *)(justices *)) |BT| (BOP (NNP *)(NNP *)(NNS *)) |ET| 
0.33333333333351461424953754431044  |BT| (NP (PRP$ their)(JJ combined)(NN business)) |BT| (BOW (their *)(combined *)(business *)) |BT| (BOP (PRP$ *)(JJ *)(NN *)) |ET| 
-0.15695559770286027223562541621504  |BT| (NP (PRP$ their)(JJ new)(NN government)) |BT| (BOW (their *)(new *)(government *)) |BT| (BOP (PRP$ *)(JJ *)(NN *)) |ET| 
0.33333333333351461424953754431044  |BT| (NP (NP (NNP Friday)(POS 's))(NNP Florida)(NNP Supreme)(NNP Court)(NN order)) |BT| (BOW (Florida *)(Supreme *)(Court *)) |BT| (BOP (NNP *)(NNP *)(NNP *)) |ET| 
-0.044677872107034277693315971191623  |BT| (NP (NP (NNP ABC)(POS 's))(NNP Sam)(NNP Donaldson)) |BT| (BOW (ABC *)('s *)(Sam *)(Donaldson *)) |BT| (BOP (NNP *)(POS *)(NNP *)(NNP *)) |ET| 
-0.10677869761000913229054276598617  |BT| (NP (NP (DT the)(NN state))(PP (IN of)(NP (NP (NNP Florida)(POS 's))(CD 25)(JJ electoral)(NNS votes)))) |BT| (BOW (state *)(of *)(Florida *)) |BT| (BOP (NN *)(IN *)(NNP *)) |ET| 
0.33333333333351461424953754431044  |BT| (NP (NP (DT the)(NNP EU)(POS 's))(JJ policy-setting)(NNS councils)) |BT| (BOW (EU *)('s *)(policy-setting *)(councils *)) |BT| (BOP (NNP *)(POS *)(JJ *)(NNS *)) |ET| 
-0.17335840577981337373714154637128  |BT| (NP (NP (DT the)(NNP EU)(POS 's))(JJ current)(NN chairman)) |BT| (BOW (EU *)('s *)(current *)(chairman *)) |BT| (BOP (NNP *)(POS *)(JJ *)(NN *)) |ET| 
0.33333333333351461424953754431044  |BT| (NP (NP (NN owner))(PP (IN of)(NP (DT the)(NNP Chicago)(NNP Sun-Times)))) |BT| (BOW (owner *)(of *)(the *)(Chicago *)(Sun-Times *)) |BT| (BOP (NN *)(IN *)(DT *)(NNP *)(NNPS *)) |ET| 
-0.033712638073778937453095494447552  |BT| (S (NP (DT a)(NNP Dow)(NNP Jones))(ADJP (JJ industrial))) |BT| (BOW (Dow *)(Jones *)(industrial *)) |BT| (BOP (NNP *)(NNP *)(NNP *)) |ET| 
0.33333333333351461424953754431044  |BT| (NP (NP (DT the)(NNP EU)(POS 's))(JJ executive)(NN body)) |BT| (BOW (EU *)('s *)(executive *)(body *)) |BT| (BOP (NNP *)(POS *)(NN *)(NN *)) |ET| 
-0.011554840451507045542833829188112  |BT| (NP (NN airport)(NN manager)(NNP George)(NNP Larson)) |BT| (BOW (manager *)(George *)(Larson *)) |BT| (BOP (NN *)(NNP *)(NNP *)) |ET| 
0.33333333333351461424953754431044  |BT| (NP (NNP Warren)(NN police)(NNP Chief)(NNP James)(NNP Vohs)) |BT| (BOW (Warren *)(police *)) |BT| (BOP (NNP *)(NNP *)) |ET| 
-0.16730248937529568209470198780764  |BT| (NP (NNP Warren)(NN police)(NNP Chief)(NNP James)(NNP Vohs)) |BT| (BOW (police *)(Chief *)) |BT| (BOP (NNP *)(NNP *)) |ET| 
0.33333333333351461424953754431044  |BT| (NP (NP (DT the)(NN state)(POS 's))(JJ 100,000-strong)(NN police)(NN force)) |BT| (BOW (state *)('s *)(100,000-strong *)(police *)(force *)) |BT| (BOP (NN *)(POS *)(JJ *)(NN *)(NN *)) |ET| 
-0.1541980137856683030772586562307  |BT| (NP (NP (NNP Gallup)(POS 's))(JJ executive)(NN editor)) |BT| (BOW (Gallup *)('s *)(executive *)(editor *)) |BT| (BOP (NNP *)(POS *)(NN *)(NN *)) |ET| 
0.33333333333351461424953754431044  |BT| (NP (NNP State)(NNP Senate)(NNS candidates)) |BT| (BOW (State *)(Senate *)) |BT| (BOP (NNP *)(NNP *)) |ET| 
-0.20688220618442404452608229803445  |BT| (NP (NNP State)(NNP Senate)(NNS candidates)) |BT| (BOW (State *)(Senate *)(candidates *)) |BT| (BOP (NNP *)(NNP *)(VBZ *)) |ET| 
0.33333333333351461424953754431044  |BT| (NP (NP (NNP Serbia)(POS 's))(NN police)) |BT| (BOW (Serbia *)('s *)(police *)) |BT| (BOP (NNP *)(POS *)(NN *)) |ET| 
-0.095226930044199534219906411181  |BT| (NP (NN police)(NNS headquarters)) |BT| (BOW (police *)(headquarters *)) |BT| (BOP (NN *)(NNS *)) |ET| 
0.33333333333351461424953754431044  |BT| (S (S (VP (VB ``From)(NP (DT a)(JJ small)(NN election))(PP (IN in)(NP (CD one)(NN state)))))(NP (NNP Senate)(NN race))(VP (VBZ comes)(NP (DT a)(NN lot)(NN ,'')))) |BT| (BOW (state *)(Senate *)) |BT| (BOP (NN *)(NNP *)) |ET| 
-0.12986582474013480537067266595841  |BT| (NP (JJ Democratic)(NN state)(NNP Sen.)(NNP Ellen)(NNP Anderson)) |BT| (BOW (state *)(Sen. *)) |BT| (BOP (NN *)(NNP *)) |ET| 
0.33333333333351461424953754431044  |BT| (NP (DT The)(NNP BOJ)(NN board)) |BT| (BOW (BOJ *)(board *)) |BT| (BOP (NNP *)(NN *)) |ET| 
-0.055750808099344711932232598883274  |BT| (NP (DT The)(NNP Gore)(NN campaign)) |BT| (BOW (Gore *)(campaign *)) |BT| (BOP (NNP *)(NN *)) |ET| 
0.33333333333351461424953754431044  |BT| (NP (PRP$ its)(JJ legal)(NN department)) |BT| (BOW (its *)(legal *)(department *)) |BT| (BOP (PRP$ *)(JJ *)(NN *)) |ET| 
-0.14624844120204438802090862736804  |BT| (NP (PRP$ its)(JJ substantial)(NN customer)(NN base)) |BT| (BOW (its *)(substantial *)(customer *)) |BT| (BOP (PRP$ *)(JJ *)(NN *)) |ET| 
0.33333333333351461424953754431044  |BT| (NP (DT The)(JJ Israeli)(NN army)) |BT| (BOW (Israeli *)(army *)) |BT| (BOP (NNP *)(NN *)) |ET| 
-0.062390270857202896614968068433882  |BT| (NP (DT a)(JJ Milosevic)(NN wing)) |BT| (BOW (Milosevic *)(wing *)) |BT| (BOP (NNP *)(NN *)) |ET| 
0.33333333333351461424953754431044  |BT| (NP (DT an)(NNP Army)(NNPS Reserves)(NN office)) |BT| (BOW (Army *)(Reserves *)(office *)) |BT| (BOP (NNP *)(NNPS *)(NN *)) |ET| 
-0.10725048395577831128466783638942  |BT| (NP (NP (DT a)(NN clerk))(PP (IN in)(NP (DT an)(NNP Army)(NNPS Reserves)(NN office)))) |BT| (BOW (clerk *)(in *)(an *)(Army *)(Reserves *)) |BT| (BOP (NN *)(IN *)(DT *)(NNP *)(NNPS *)) |ET| 
0.33333333333351461424953754431044  |BT| (NP (DT a)(JJ parliamentary)(NN committee)) |BT| (BOW (parliamentary *)(committee *)) |BT| (BOP (JJ *)(NN *)) |ET| 
-0.13833346701788218346962366922526  |BT| (NP (DT the)(JJ Egyptian)(NN delegation)) |BT| (BOW (Egyptian *)(delegation *)) |BT| (BOP (JJ *)(NN *)) |ET| 
0.33333333333351461424953754431044  |BT| (NP (DT The)(NNP News)(NNP Sun)(CC and)(JJ other)(JJ northern)(NNP Illinois)(NNP Copley)(NNS newspapers)) |BT| (BOW (Copley *)(newspapers *)) |BT| (BOP (NNP *)(NNS *)) |ET| 
-0.13764886682358334901721264031949  |BT| (NP (DT The)(NNP News)(NNP Sun)(CC and)(JJ other)(JJ northern)(NNP Illinois)(NNP Copley)(NNS newspapers)) |BT| (BOW (Illinois *)(Copley *)(newspapers *)) |BT| (BOP (NNS *)(NNP *)(NNS *)) |ET| 
0.33333333333351461424953754431044  |BT| (NP (DT the)(JJ Egyptian)(NN army)) |BT| (BOW (Egyptian *)(army *)) |BT| (BOP (JJ *)(NN *)) |ET| 
-0.037913282049574004162195706157945  |BT| (NP (DT the)(JJ American)(NN public)) |BT| (BOW (American *)(public *)) |BT| (BOP (JJ *)(NN *)) |ET| 
0.33333333333351461424953754431044  |BT| (NP (NP (DT The)(NN court))(PP (IN of)(NP (NNS appeals)(NN panel)))) |BT| (BOW (court *)(of *)(appeals *)(panel *)) |BT| (BOP (NN *)(IN *)(NNS *)(NN *)) |ET| 
-0.037310151304679031736277750042063  |BT| (NP (NP (DT some)(NNS members))(PP (IN of)(NP (DT a)(JJ parliamentary)(NN committee)))) |BT| (BOW (members *)(of *)(a *)(parliamentary *)(committee *)) |BT| (BOP (NNS *)(IN *)(DT *)(JJ *)(NN *)) |ET| 
0.33333333333351461424953754431044  |BT| (NP (DT the)(NNP U.N.)(NNP Sanctions)(NNP Committee)(NNP .'')) |BT| (BOW (U.N. *)(Sanctions *)(Committee *)) |BT| (BOP (NNP *)(NNPS *)(NNP *)) |ET| 
-0.10187613984588414495213726240763  |BT| (NP (DT the)(NNP Yugoslav)(NNP Parliament)) |BT| (BOW (Yugoslav *)(Parliament *)) |BT| (BOP (NNP *)(NNP *)) |ET| 
0.33333333333351461424953754431044  |BT| (NP (DT a)(JJ congressional)(NN commission)) |BT| (BOW (congressional *)(commission *)) |BT| (BOP (JJ *)(NN *)) |ET| 
-0.019229168928540547878203170739653  |BT| (NP (DT The)(JJ Syrian)(NN leader)(POS 's)) |BT| (BOW (Syrian *)(leader *)) |BT| (BOP (JJ *)(NN *)) |ET| 
0.33333333333351461424953754431044  |BT| (NP (DT the)(NNP [U.S)(NNP .])(NNP Supreme)(NNP Court)(NNP ,'')) |BT| (BOW ((U.S *)(.)*)(Supreme *)(Court *)) |BT| (BOP (NNP *)(NNP *)(NNP *)(NNP *)) |ET| 
-0.087393147981599930695928435397946  |BT| (NP (DT the)(NNP White)(NNP House)(NNP Rose)(NNP Garden)) |BT| (BOW (White *)(House *)(Rose *)(Garden *)) |BT| (BOP (NNP *)(NNP *)(NNP *)(NNP *)) |ET| 
0.33333333333351461424953754431044  |BT| (NP (PRP$ its)(NNP Oldsmobile)(NN division)) |BT| (BOW (its *)(Oldsmobile *)(division *)) |BT| (BOP (PRP$ *)(JJ *)(NN *)) |ET| 
-0.022314042092036467934690335823689  |BT| (NP (PRP$ its)(NNP Oldsmobile)(NN division)) |BT| (BOW (its *)(Oldsmobile *)) |BT| (BOP (PRP$ *)(JJ *)) |ET| 
0.33333333333351461424953754431044  |BT| (NP (DT the)(NNP Texas)(NNP Senate)) |BT| (BOW (Texas *)(Senate *)) |BT| (BOP (NNP *)(NNP *)) |ET| 
-0.14221673678782847938251165942347  |BT| (NP (DT the)(NNP GOP)(JJ -controlled)(NNP Senate)(NNP Foreign)(NNPS Relations)(NNP Committee)) |BT| (BOW (GOP *)(-controlled *)(Senate *)) |BT| (BOP (NNP *)(VBD *)(NNP *)) |ET| 
0.33333333333351461424953754431044  |BT| (NP (PRP$ its)(JJ profitable)(JJ cut-price)(NN subsidiary)) |BT| (BOW (its *)(profitable *)(cut-price *)(subsidiary *)) |BT| (BOP (PRP$ *)(JJ *)(NN *)(NN *)) |ET| 
-0.33333333333351461424953754431044  |BT| (NP (DT the)(NN court)(NN building)) |BT| (BOW (court *)(building *)) |BT| (BOP (NN *)(NN *)) |ET| 
0.33333333333351461424953754431044  |BT| (NP (PRP$ his)(NNP Senate)(NNP Armed)(NNP Services)(NNP Committee)(NN membership)) |BT| (BOW (Senate *)(Armed *)(Services *)(Committee *)) |BT| (BOP (JJ *)(JJ *)(NNS *)(NNP *)) |ET| 
-0.21116874532671714437270793496282  |BT| (NP (PRP$ his)(NNP Senate)(NNP Armed)(NNP Services)(NNP Committee)(NN membership)) |BT| (BOW (his *)(Senate *)(Armed *)(Services *)(Committee *)) |BT| (BOP (PRP$ *)(JJ *)(JJ *)(NNS *)(NNP *)) |ET| 
0.33333333333351461424953754431044  |BT| (NP (DT the)(NN league)(NN office)) |BT| (BOW (league *)(office *)) |BT| (BOP (NN *)(NN *)) |ET| 
-0.15412971380886242300789490400348  |BT| (NP (DT a)(JJ parole)(NN board)(NN spokesman)) |BT| (BOW (board *)(spokesman *)) |BT| (BOP (NN *)(NN *)) |ET| 
0.33333333333351461424953754431044  |BT| (NP (NNP Security)(NNP Council)(JJ fact-finding)(NN team)) |BT| (BOW (Security *)(Council *)(fact-finding *)(team *)) |BT| (BOP (NNP *)(NNP *)(JJ *)(NN *)) |ET| 
-0.054583835295483870697630379709153  |BT| (NP (NNP Arizona)(NNP State)(JJ athletic)(NN director)(NNP Gene)(NNP Smith)) |BT| (BOW (Arizona *)(State *)(athletic *)(director *)) |BT| (BOP (NNP *)(NNP *)(JJ *)(NN *)) |ET| 
0.33333333333351461424953754431044  |BT| (NP (NP (DT the)(NN nation)(POS 's))(JJS highest)(NN court)) |BT| (BOW (nation *)('s *)(highest *)(court *)) |BT| (BOP (NN *)(POS *)(JJS *)(NN *)) |ET| 
-0.083643473182935398901882706468314  |BT| (NP (NP (DT the)(NNP Arapahoe)(NNP County)(NN district)(NN attorney)(POS 's))(NN office)) |BT| (BOW (attorney *)('s *)(office *)) |BT| (BOP (NN *)(POS *)(NN *)) |ET| 
0.33333333333351461424953754431044  |BT| (NP (DT the)(NAC (NNP Bank)(PP (IN of)(NP (NNP Japan))))(NN policy)(NN board)) |BT| (BOW (Bank *)(of *)(Japan *)(policy *)(board *)) |BT| (BOP (NNP *)(IN *)(NNP *)(NN *)(NN *)) |ET| 
-0.24514998906377771792364228531369  |BT| (NP (NP (DT the)(NNP EU)(POS 's))(JJS biggest)(NN nation)) |BT| (BOW (EU *)('s *)(biggest *)(nation *)) |BT| (BOP (NNP *)(POS *)(JJS *)(NN *)) |ET| 
0.33333333333351461424953754431044  |BT| (NP (JJ German)(NN police)(NNS raids)) |BT| (BOW (German *)(police *)) |BT| (BOP (NNP *)(NN *)) |ET| 
-0.062183252974020740422300690397606  |BT| (NP (JJ Israeli)(NN rocket)(NNS attacks)) |BT| (BOW (Israeli *)(rocket *)) |BT| (BOP (NNP *)(NN *)) |ET| 
0.33333333333351461424953754431044  |BT| (NP (NP (NNP Germany)(POS 's))(JJS highest)(NN court)) |BT| (BOW (Germany *)('s *)(highest *)(court *)) |BT| (BOP (NNP *)(POS *)(JJS *)(NN *)) |ET| 
-0.0033723468114719139937518477267986  |BT| (NP (NNP Home)(NNP Secretary)(NNP Jack)(NNP Straw)) |BT| (BOW (Secretary *)(Jack *)(Straw *)) |BT| (BOP (NNP *)(NNP *)(NNP *)) |ET| 
0.33333333333351461424953754431044  |BT| (NP (NP (NP (DT the)(NNP SEC)(POS 's))(NN division))(PP (IN of)(NP (NN investment)(NN management)))) |BT| (BOW (SEC *)('s *)(division *)(of *)(investment *)(management *)) |BT| (BOP (NNP *)(POS *)(NN *)(IN *)(NN *)(NN *)) |ET| 
-0.11555371154953611445570516025327  |BT| (NP (NP (DT the)(NN director))(PP (IN of)(NP (NP (NP (DT the)(NNP SEC)(POS 's))(NN division))(PP (IN of)(NP (NN investment)(NN management)))))) |BT| (BOW (director *)(of *)(the *)(SEC *)('s *)(division *)(of *)(investment *)(management *)) |BT| (BOP (NN *)(IN *)(DT *)(NNP *)(POS *)(NN *)(IN *)(NN *)(NN *)) |ET| 
-0.10066534291516544830091817175344  |BT| (NP (PRP$ his)(JJ nine-member)(JJ inaugural)(NN committee)) |BT| (BOW (nine-member *)(inaugural *)(committee *)) |BT| (BOP (NN *)(JJ *)(NN *)) |ET| 
0.33333333333351461424953754431044  |BT| (NP (DT the)(NN state)(NNP Supreme)(NNP Court)(NN ruling)) |BT| (BOW (state *)(Supreme *)(Court *)) |BT| (BOP (NN *)(NNP *)(NNP *)) |ET| 
-0.18191769643830099645320785839431  |BT| (NP (NP (DT the)(JJ chief)(NN justice))(PP (IN of)(NP (DT the)(NNP Supreme)(NNP Court)))) |BT| (BOW (justice *)(of *)(the *)(Supreme *)(Court *)) |BT| (BOP (NN *)(IN *)(DT *)(NNP *)(NNP *)) |ET| 
0.33333333333351461424953754431044  |BT| (NP (DT The)(NN court)(NN panel)) |BT| (BOW (court *)(panel *)) |BT| (BOP (NN *)(NN *)) |ET| 
-0.067645321374872807718148237654532  |BT| (NP (DT The)(NN opposition)(NN alliance)) |BT| (BOW (opposition *)(alliance *)) |BT| (BOP (NN *)(NN *)) |ET| 
0.33333333333351461424953754431044  |BT| (NP (NP (DT the)(NNP SEC)(POS 's))(NN enforcement)(NN division)) |BT| (BOW (SEC *)('s *)(enforcement *)(division *)) |BT| (BOP (NNP *)(POS *)(NN *)(NN *)) |ET| 
-0.1782629076560410530394307215829  |BT| (NP (DT the)(NNP SEC)(NNP East)) |BT| (BOW (SEC *)(East *)) |BT| (BOP (NNP *)(NNP *)) |ET| 
0.33333333333351461424953754431044  |BT| (NP (DT the)(NNP Florida)(JJ high)(NN court)) |BT| (BOW (Florida *)(high *)(court *)) |BT| (BOP (NNP *)(JJ *)(NN *)) |ET| 
-0.077328116272137092934713109571021  |BT| (NP (NP (DT a)(NN court))(VP (ADVP (RB still))(VBG finding)(NP (PRP$ its)(JJ constitutional)(NN role)))) |BT| (BOW (court *)(still *)(finding *)(its *)) |BT| (BOP (NN *)(RB *)(VBG *)(PRP$ *)) |ET| 
0.33333333333351461424953754431044  |BT| (NP (DT the)(NNP BOJ)(NN board)) |BT| (BOW (BOJ *)(board *)) |BT| (BOP (NNP *)(NN *)) |ET| 
-0.13563199355404834123284274483012  |BT| (NP (JJ oil-rich)(NNP Tabasco)(NN state)) |BT| (BOW (Tabasco *)(state *)) |BT| (BOP (NNP *)(NN *)) |ET| 
0.33333333333351461424953754431044  |BT| (NP (DT the)(NN state)(NNP Senate)) |BT| (BOW (state *)(Senate *)) |BT| (BOP (NN *)(NNP *)) |ET| 
-0.10324659922184591109850515522339  |BT| (NP (DT the)(NNP Finland)(JJ -based)(NN company)) |BT| (BOW (Finland *)(-based *)(company *)) |BT| (BOP (NNP *)(JJ *)(NN *)) |ET| 
0.33333333333351461424953754431044  |BT| (NP (NP (NNP Friday)(POS 's))(CD 4-3)(NN state)(NNP Supreme)(NNP Court)(NN ruling)(NNS favoring)) |BT| (BOW (state *)(Supreme *)(Court *)) |BT| (BOP (NN *)(NNP *)(NNP *)) |ET| 
-0.034936954873930017861916041965742  |BT| (NP (DT the)(JJ German)(NN magazine)(NNP Das)(NNP Motorrad)) |BT| (BOW (magazine *)(Das *)(Motorrad *)) |BT| (BOP (NN *)(NNP *)(NNP *)) |ET| 
-0.073113201054409840407011245133617  |BT| (S (S (NP (NN ``We))(VP (VBP 're)(ADJP (JJ prepared)(PRN (, ,)(SBAR (IN if)(S (VP (MD need)(VP (VB be)))))(, ,))(S (VP (TO to)(VP (VB take)(NP (PRP$ our)(NN case))(PRT (RP back))(PP (TO to)(NP (DT the)(NNP [U.S)(NNP .])(NNP Supreme)(NNP Court)(NNP ,'')))))))))(NP (PRP he))(VP (VBD told)(NP (NNS reporters)))(. .)) |BT| (BOW ((U.S *)(.)*)(Supreme *)(Court *)(,'' *)(he *)) |BT| (BOP (NNP *)(NNP *)(NNP *)(NNP *)(, *)(PRP *)) |ET| 
-0.021083704241333340451136635351759  |BT| (NP (NP (DT the)(NNP Mediterranean)(NN island))(PP (IN of)(NP (NNP Malta)))) |BT| (BOW (Mediterranean *)(island *)(of *)(Malta *)) |BT| (BOP (NNP *)(NN *)(IN *)(NNP *)) |ET| 
-0.059978008481380129524040967226028  |BT| (NP (DT the)(NNP Attica)(NN state)(NN prison)) |BT| (BOW (Attica *)(state *)) |BT| (BOP (NNP *)(NN *)) |ET| 
-0.10677611855157956299855470660987  |BT| (NP (NP (DT a)(JJ former)(NN lawyer))(PP (IN for)(NP (NP (DT the)(NNP SEC)(POS 's))(NN enforcement)(NN division)))) |BT| (BOW (lawyer *)(for *)(the *)(SEC *)('s *)(enforcement *)(division *)) |BT| (BOP (NN *)(IN *)(DT *)(NNP *)(POS *)(NN *)(NN *)) |ET| 
-0.058908925197194844658454826458183  |BT| (S (NP (DT the)(NNP Florida)(JJ high)(NN court))(VP (MD could)(VP (VB rule)(PP (IN against)(NP (PRP him)))))) |BT| (BOW (Florida *)(high *)(court *)(could *)(rule *)(against *)(him *)) |BT| (BOP (NNP *)(JJ *)(NN *)(MD *)(VB *)(IN *)(PRP *)) |ET| 
-0.064453462576399792038905900426471  |BT| (S (NP (NP (DT The)(NN court))(PP (IN of)(NP (NNS appeals)(NN panel))))(VP (VBD voted)(NP (CD 3-0))(S (VP (TO to)(VP (VB suspend)(NP (NP (NNP Guzman)(POS 's))(NN arrest)(NN order))(SBAR (IN until)(S (NP (PRP it))(VP (VBZ decides)(SBAR (IN whether)(S (VP (TO to)(VP (VB uphold)(CC or)(VB repeal)(NP (NP (PRP$ his)(NN indictment))(PP (IN of)(NP (DT the)(JJ 85-year-old)(NN general)))))))))))))))(. .)) |BT| (BOW (court *)(of *)(appeals *)(panel *)(voted *)(3-0 *)(to *)(suspend *)(Guzman *)) |BT| (BOP (NN *)(IN *)(NNS *)(NN *)(VBD *)(CD *)(TO *)(VB *)(NNP *)) |ET| 
-0.17246914841966770604031466973538  |BT| (NP (NNP Warren)(NN police)(NNP Chief)(NNP James)(NNP Vohs)) |BT| (BOW (Warren *)(police *)(Chief *)) |BT| (BOP (NNP *)(NNP *)(NNP *)) |ET| 
-0.066560520717094742715325139670313  |BT| (NP (NP (NNP Yugoslavia)(POS 's))(JJR smaller)(NN republic)) |BT| (BOW (Yugoslavia *)('s *)(smaller *)(republic *)) |BT| (BOP (NNP *)(POS *)(NN *)(NN *)) |ET| 
-0.090688593500285644144476293604384  |BT| (NP (NP (NNP Go))(, ,)(NP (NP (PRP$ its)(JJ profitable)(JJ cut-price)(NN subsidiary))(VP (VBN launched)(ADVP (NP (CD two)(NNS years))(RB ago))))) |BT| (BOW (Go *)(, *)(its *)(profitable *)(cut-price *)(subsidiary *)) |BT| (BOP (NNP *)(, *)(PRP$ *)(JJ *)(NN *)(NN *)) |ET| 
-0.2895927348650889632253324634803  |BT| (NP (PRP$ its)(NNP Oldsmobile)(NN division)) |BT| (BOW (Oldsmobile *)(division *)) |BT| (BOP (JJ *)(NN *)) |ET| 
-0.054519995301929344289071366347343  |BT| (NP (DT the)(JJ radical)(JJ Islamic)(NN group)(NN Hamas)) |BT| (BOW (group *)(Hamas *)) |BT| (BOP (NN *)(NNP *)) |ET| 
-0.15659895301623621977071820765559  |BT| (NP (DT the)(NNP Indonesian)(NN state)) |BT| (BOW (Indonesian *)(state *)) |BT| (BOP (JJ *)(NN *)) |ET| 
-0.057813093515573468761381548119971  |BT| (S (NP (DT a)(NNP Georgia)(NNS appeals)(NN court))(VP (VBD ruled)(SBAR (IN that)(S (NP (PRP he))(VP (VBD was)(RB not)(ADJP (IN out)(PP (IN of)(NP (NN touch))))(PP (IN with)(NP (NN reality)))(PP (IN at)(NP (NP (DT the)(NN time))(PP (IN of)(NP (DT the)(NNS shootings)))))))))) |BT| (BOW (Georgia *)(appeals *)(court *)(ruled *)(that *)(he *)) |BT| (BOP (NNP *)(NNS *)(NN *)(VBD *)(IN *)(PRP *)) |ET| 
-0.088105147236307537750299445633573  |BT| (NP (DT The)(ADJP (RB heavily)(JJ wooded))(NNP Senate)(NN district)) |BT| (BOW (Senate *)(district *)) |BT| (BOP (NNP *)(VB *)) |ET| 
-0.083990723015888349434199255938438  |BT| (NP (NP (DT The)(NN country)(POS 's))(JJS best-known)(NN opposition)(NN candidate)) |BT| (BOW (country *)('s *)(best-known *)(opposition *)(candidate *)) |BT| (BOP (NN *)(POS *)(JJ *)(NN *)(NN *)) |ET| 
-0.0017750303019572677074022770682404  |BT| (NP (NNP Geneva)(NNP County)(NNP Emergency)(NNP Management)(NNP Agency)(NN director)(NNP Margaret)(NNP Mixon)) |BT| (BOW (director *)(Margaret *)(Mixon *)) |BT| (BOP (NN *)(NNP *)(NNP *)) |ET| 
-0.048848010512845249642133182987891  |BT| (VP (VP (VBZ ``presents)(NP (NP (DT an)(JJ important)(NN issue))('' '')(SBAR (WHNP (WDT that))(S (VP (VBZ has)(VP (VBN divided)(NP (JJ federal)(NNS appeals)(NNS courts))))))))(CC and)(VP (MD should)(VP (VB be)(VP (VBN resolved)(PP (IN by)(NP (NP (DT the)(NN nation)(POS 's))(JJS highest)(NN court))))))) |BT| (BOW (courts *)(and *)(should *)(be *)(resolved *)(by *)(the *)(nation *)('s *)(highest *)(court *)) |BT| (BOP (NNS *)(CC *)(MD *)(VB *)(VBN *)(IN *)(DT *)(NN *)(POS *)(JJS *)(NN *)) |ET| 
-0.11189802485488876959696113999598  |BT| (NP (DT the)(CD 189)(NNP U.N.)(NN member)(NNS states)) |BT| (BOW (U.N. *)(member *)) |BT| (BOP (NNP *)(NN *)) |ET| 
-0.042245725377789131171901715333661  |BT| (NP (JJ Rangers)(NN owner)(NNP Tom)(NNP Hicks)) |BT| (BOW (Rangers *)(owner *)) |BT| (BOP (NNPS *)(NN *)) |ET| 
-0.058219320764506282683825588719628  |BT| (NP (DT the)(JJ other)(CD 14)(NNP EU)(NNS leaders)) |BT| (BOW (EU *)(leaders *)) |BT| (BOP (NNP *)(NNS *)) |ET| 
-0.087205074534503781991112703053659  |BT| (NP (NP (NNP Germany)(POS 's))(ADJP (RBS most)(JJ populous))(NN state)) |BT| (BOW (Germany *)('s *)(most *)(populous *)(state *)) |BT| (BOP (NNP *)(POS *)(JJS *)(JJ *)(NN *)) |ET| 
-0.079802655323695015354701354226563  |BT| (S (PP (IN In)(NP (CD 1962)))(, ,)(NP (DT the)(NN court))(VP (VBD abandoned)(NP (PRP$ its)(NN caution)))(. .)) |BT| (BOW (court *)(abandoned *)(its *)) |BT| (BOP (NN *)(VBD *)(PRP$ *)) |ET| 
-0.12437886919121005080413056020916  |BT| (NP (DT the)(JJ German)(NN star)) |BT| (BOW (German *)(star *)) |BT| (BOP (NNP *)(NN *)) |ET| 
-0.10247482232580774896835151821506  |BT| (NP (NP (DT The)(NN commission)(POS 's))(NN staff)) |BT| (BOW (commission *)('s *)(staff *)) |BT| (BOP (NN *)(POS *)(NN *)) |ET| 
-0.072299317140898683442529204512539  |BT| (NP (NNP Palestine)(NNP National)(NNP Council)(NNP Speaker)(NNP Salim)(NNP Zaanoun)) |BT| (BOW (Palestine *)(National *)(Council *)(Speaker *)) |BT| (BOP (NNP *)(NNP *)(NNP *)(NNP *)) |ET| 
-0.072299670922062214684089553884405  |BT| (NP (DT The)(JJ twin-engine)(NNP Hawker)(JJ corporate)(NN jet)) |BT| (BOW (Hawker *)(corporate *)(jet *)) |BT| (BOP (NNP *)(JJ *)(NN *)) |ET| 
-0.049904095654877293763984624774821  |BT| (NP (DT a)(NAC (NNP University)(PP (IN of)(NP (NNP Kansas))))(NN paleontologist)) |BT| (BOW (University *)(of *)(Kansas *)(paleontologist *)) |BT| (BOP (NNP *)(IN *)(NNP *)(NN *)) |ET| 
-0.13233644851632031524957255896879  |BT| (NP (NP (DT the)(NNP Taliban)(POS 's))(JJ supreme)(NN leader)) |BT| (BOW (Taliban *)('s *)(supreme *)(leader *)) |BT| (BOP (NNP *)(POS *)(NN *)(NN *)) |ET| 
-0.036883530225999397456071449141746  |BT| (NP (PRP$ His)(NN office)) |BT| (BOW (His *)(office *)) |BT| (BOP (PRP$ *)(NN *)) |ET| 
-0.071557248670886974828420079575153  |BT| (NP (NP (NNP Wahid)(POS 's))(JJ political)(NNS opponents)) |BT| (BOW (Wahid *)('s *)(political *)(opponents *)) |BT| (BOP (NNP *)(POS *)(JJ *)(NNS *)) |ET| 
-0.063313877600423021374531629135163  |BT| (NP (NP (NNP Britain)(POS 's))(JJ unofficial)(NN flag)(NN carrier)) |BT| (BOW (Britain *)('s *)(unofficial *)(flag *)(carrier *)) |BT| (BOP (NNP *)(POS *)(JJ *)(NN *)(NN *)) |ET| 
-0.04894763427376205844332446304179  |BT| (SINV (S (S (VP (VB ``From)(NP (DT a)(JJ small)(NN election))(PP (IN in)(NP (CD one)(NN state)))))(NP (NNP Senate)(NN race))(VP (VBZ comes)(NP (DT a)(NN lot)(NN ,''))))(VP (VBD said))(NP (NP (NNP Bob)(NNP Stein))(, ,)(NP (NP (NN professor))(PP (IN of)(NP (NP (JJ political)(NN science))(PP (IN at)(NP (NP (NNP Rice)(NNP University))(PP (IN in)(NP (NNP Houston)))))))))(. .)) |BT| (BOW (state *)(Senate *)(race *)(comes *)(a *)(lot *)(,'' *)(said *)(Bob *)(Stein *)) |BT| (BOP (NN *)(NNP *)(NN *)(VBZ *)(DT *)(NN *)(NN *)(VBD *)(NNP *)(NNP *)) |ET| 
-0.096116570744825449712500642363011  |BT| (VP (VB hide)(NP (PRP$ their)(JJ obvious)(NN dismay))(PP (IN with)(NP (NP (NNP Friday)(POS 's))(CD 4-3)(NN state)(NNP Supreme)(NNP Court)(NN ruling)(NNS favoring)))) |BT| (BOW (their *)(obvious *)(dismay *)(with *)(Friday *)('s *)(4-3 *)(state *)(Supreme *)(Court *)) |BT| (BOP (PRP$ *)(JJ *)(NN *)(IN *)(NNP *)(POS *)(JJ *)(NN *)(NNP *)(NNP *)) |ET| 
-0.037395587859268233921206103786972  |BT| (NP (NP (NNP House))(PP (IN of)(NP (NNP Commons)(NN speaker)(NNP Michael)(NNP Martin)))) |BT| (BOW (House *)(of *)(Commons *)(speaker *)) |BT| (BOP (NNP *)(IN *)(NNPS *)(NN *)) |ET| 
-0.070374377160404177899977185006719  |BT| (NP (NN ``our)(JJ friendly)(NN neighbor)) |BT| (BOW (``our *)(friendly *)(neighbor *)) |BT| (BOP (PRP$ *)(JJ *)(NN *)) |ET| 
-0.043247841502509445921198505402572  |BT| (NP (NN space)(NN shuttle)(NNP Discovery)) |BT| (BOW (shuttle *)(Discovery *)) |BT| (BOP (NN *)(NNP *)) |ET| 
-0.02533889831696896702273313906062  |BT| (NP (NP (NNP Indonesia)(POS 's))(JJ reformist-minded)(NNP President)(NNP Abdurrahman)(NNP Wahid)) |BT| (BOW (President *)(Abdurrahman *)(Wahid *)) |BT| (BOP (NN *)(NNP *)(NNP *)) |ET| 
-0.047342081181068723649829621535901  |BT| (NP (JJ Network)(NN equipment)(NN maker)(NNP Cisco)) |BT| (BOW (maker *)(Cisco *)) |BT| (BOP (NN *)(NNP *)) |ET| 
-0.025809333521085414675511060522695  |BT| (NP (NNP Chicago)(NNP Enforcers)(NN coach)(NNP Ron)(NNP Meyer)) |BT| (BOW (coach *)(Ron *)(Meyer *)) |BT| (BOP (NN *)(NNP *)(NNP *)) |ET| 
-0.10744622380191046207009719637426  |BT| (NP (NP (NNP Japan)(POS 's))(JJ central)(NN bank)) |BT| (BOW (Japan *)('s *)(central *)(bank *)) |BT| (BOP (NNP *)(POS *)(JJ *)(NN *)) |ET| 
-0.033129497596527571201541206846741  |BT| (NP (NNP Texas)(NNP [AP)(NNP ])) |BT| (BOW (Texas *)((AP *)) |BT| (BOP (NNP *)(NNP *)) |ET| 
-0.059275910956653195260646072028976  |BT| (NP (NP (DT the)(NN league)(POS 's))(NNS coaches)) |BT| (BOW (league *)('s *)(coaches *)) |BT| (BOP (NN *)(POS *)(NNS *)) |ET| 
-0.039892255174112024873611659359085  |BT| (NP (DT the)(NNP Suharto)(NN clan)) |BT| (BOW (Suharto *)(clan *)) |BT| (BOP (NNP *)(NN *)) |ET| 
-0.043702770085285745638170595839256  |BT| (NP (NN state)(NN utility)(NN labor)(NNS unions)) |BT| (BOW (state *)(utility *)(labor *)) |BT| (BOP (NN *)(NN *)(NN *)) |ET| 
-0.10244036379675136583244920984725  |BT| (NP (DT the)(NNP Wisconsin)(NNP Progressive)) |BT| (BOW (Wisconsin *)(Progressive *)) |BT| (BOP (NNP *)(NNP *)) |ET| 
-0.066359729741033809946593180484342  |BT| (NP (NP (DT the)(NNP Supreme)(NNP Court))(, ,)(SBAR (WHNP (WDT which))(S (VP (VBD overturned)(NP (DT an)(JJR earlier)(NN acquittal))(PP (IN by)(NP (DT a)(JJR lower)(NN court))))))) |BT| (BOW (Supreme *)(Court *)(, *)(which *)) |BT| (BOP (NNP *)(NNP *)(, *)(WDT *)) |ET| 
-0.07838819149105577532843369681359  |BT| (NP (NP (NNS Critics))(PP (IN of)(NP (NP (NNP Indonesia)(POS 's))(JJ legal)(NN system)))) |BT| (BOW (Critics *)(of *)(Indonesia *)('s *)(legal *)(system *)) |BT| (BOP (NNS *)(IN *)(NNP *)(POS *)(JJ *)(NN *)) |ET| 
-0.059589774332669723233557590447163  |BT| (NP (DT a)(JJ PFLP-GC)(NN hide-out)) |BT| (BOW (PFLP-GC *)(hide-out *)) |BT| (BOP (JJ *)(NN *)) |ET| 
-0.031338795647457548532166526911169  |BT| (NP (DT the)(NNP Florida)(CC and)(NNP New)(NNP Jersey)(NNS races)) |BT| (BOW (Florida *)(and *)(New *)(Jersey *)) |BT| (BOP (NNP *)(CC *)(NNP *)(NNP *)) |ET| 
-0.11724043335971248702698233046249  |BT| (NP (DT the)(NN board)(NNS members)) |BT| (BOW (board *)(members *)) |BT| (BOP (NN *)(NNS *)) |ET| 
-0.013674429155549120556978337504006  |BT| (S (NP (DT The)(NNP Serbian)(NN presidency))(VP (VBZ has)(NP (NP (JJ sweeping)(NNS powers))(, ,)(PP (VBG including)(NP (NP (JJ direct)(NN control))(PP (IN over)(NP (NP (DT the)(NN state)(POS 's))(JJ 100,000-strong)(NN police)(NN force)))))))(. .)) |BT| (BOW (Serbian *)(presidency *)(has *)(sweeping *)(powers *)(, *)(including *)(direct *)(control *)(over *)(the *)(state *)('s *)(100,000-strong *)(police *)(force *)) |BT| (BOP (JJ *)(NN *)(VBZ *)(VBG *)(NNS *)(, *)(VBG *)(JJ *)(NN *)(IN *)(DT *)(NN *)(POS *)(JJ *)(NN *)(NN *)) |ET| 
-0.073439016231589632210940976619895  |BT| (NP (NP (DT the)(NN state)(POS 's))(JJ rural)(JJ southeastern)(NN corner)) |BT| (BOW (state *)('s *)(rural *)(southeastern *)(corner *)) |BT| (BOP (NN *)(POS *)(JJ *)(JJ *)(NN *)) |ET| 
-0.053627666907381299488122294860659  |BT| (NP (PRP$ its)(JJS closest)(NN rival)) |BT| (BOW (its *)(closest *)(rival *)) |BT| (BOP (PRP$ *)(NN *)(NN *)) |ET| 
-0.05653881881679758553138626098189  |BT| (S (CC But)(NP (NP (DT the)(JJ 9th)(NNP U.S.)(NNP Circuit)(NNP Court))(PP (IN of)(NP (NNP Appeals))))(VP (VBD reinstated)(NP (NP (NNP Duncan)(POS 's))(NN lawsuit))(NP (JJ last)(NNP April)))(. .)) |BT| (BOW (9th *)(U.S. *)(Circuit *)(Court *)(of *)(Appeals *)(reinstated *)(Duncan *)) |BT| (BOP (JJ *)(NNP *)(NNP *)(NNP *)(IN *)(NNPS *)(VBD *)(NNP *)) |ET| 
-0.088982154495351087342136509050761  |BT| (NP (DT The)(NNP News)(NNP Sun)(CC and)(JJ other)(JJ northern)(NNP Illinois)(NNP Copley)(NNS newspapers)) |BT| (BOW (Illinois *)(Copley *)) |BT| (BOP (NNS *)(NNP *)) |ET| 
-0.072316817931708993194561685413646  |BT| (NP (NP (DT a)(JJ former)(NN secretary))(PP (IN of)(NP (NN state)))) |BT| (BOW (secretary *)(of *)(state *)) |BT| (BOP (NN *)(IN *)(NN *)) |ET| 
-0.024775752530195788159161907060479  |BT| (S (NP (NP (DT The)(NN question))(WHPP (IN of)(WHNP (WDT which)(NN party))))(VP (VP (VBZ controls)(SBAR (S (NP (DT the)(NNP Texas)(NNP Senate))(VP (VBZ is)(ADJP (RB especially)(JJ important))(SBAR (NP (DT this)(NN year))(IN because)(S (NP (DT the)(NNP Senate))(VP (MD will)(VP (VB redraw)(NP (JJ congressional)(CC and)(JJ legislative)(NNS districts))))))))))(CC and)(VP (MD could)(VP (VB elect)(NP (DT the)(JJ next)(NN lieutenant)(NN governor))(PP (IN if)(NP (NNP Gov))))))(. .)) |BT| (BOW (party *)(controls *)(the *)(Texas *)(Senate *)) |BT| (BOP (NN *)(VBZ *)(DT *)(NNP *)(NNP *)) |ET| 
-0.097303196584800494273181925564131  |BT| (NP (NP (NNP Syria)(POS 's))(NN government)(NN -run)(NNS media)) |BT| (BOW (Syria *)('s *)(government *)) |BT| (BOP (NNP *)(POS *)(NN *)) |ET| 
-0.087899048357933370900774150413781  |BT| (NP (NNP U.N.)(NNS arms)(NNS inspectors)) |BT| (BOW (U.N. *)(arms *)) |BT| (BOP (NNP *)(NNS *)) |ET| 
-0.062155258396678084165110078629368  |BT| (NP (NP (DT the)(NNP Supreme)(NNP Court)(POS 's))(NN decision)(S (VP (TO to)(VP (VB imprison)(NP (NNP Tommy)))))) |BT| (BOW (Supreme *)(Court *)('s *)(decision *)(to *)(imprison *)(Tommy *)) |BT| (BOP (NNP *)(NNP *)(POS *)(NN *)(TO *)(VB *)(NNP *)) |ET| 
-0.0205642905853825226636377720979  |BT| (NP (PRP$ its)(NNS soldiers)) |BT| (BOW (its *)(soldiers *)) |BT| (BOP (PRP$ *)(NNS *)) |ET| 
-0.051117575202796652900083529402764  |BT| (VP (VBD proposed)(NP (JJ overriding)(DT the)(NN court))(PP (IN by)(NP (DT a)(JJ two-thirds)(JJ congressional)(NN majority)))) |BT| (BOW (court *)(by *)(a *)(two-thirds *)(congressional *)) |BT| (BOP (NN *)(IN *)(DT *)(JJ *)(JJ *)) |ET| 
-0.016713669236566065789961754717297  |BT| (NP (NNP Florida)(NN developer)(NNP Al)(NNP Hoffman)) |BT| (BOW (Florida *)(developer *)(Al *)(Hoffman *)) |BT| (BOP (NNP *)(NN *)(NNP *)(NNP *)) |ET| 
-0.096251286700151109099188317941298  |BT| (NP (NP (DT the)(NN sheriff)(POS 's))(NN department)) |BT| (BOW (sheriff *)('s *)(department *)) |BT| (BOP (NN *)(POS *)(NN *)) |ET| 
-0.043976570382087326605002886026341  |BT| (NP (JJ Republican)(NN nominee)(NNP Texas)(NNP Gov)) |BT| (BOW (nominee *)(Texas *)) |BT| (BOP (NNP *)(NNP *)) |ET| 
-0.073053164335396214568163486546837  |BT| (VP (VB state)(NP (PRP$ our)(NN case))(PP (IN in)(NP (NN court)(NN tomorrow)(NNS .'')))) |BT| (BOW (our *)(case *)(in *)(court *)) |BT| (BOP (PRP$ *)(NN *)(IN *)(NN *)) |ET| 
-0.038399113247148279615128529940193  |BT| (NP (DT the)(NNP Clinton)(NN administration)) |BT| (BOW (Clinton *)(administration *)) |BT| (BOP (NNP *)(NN *)) |ET| 
-0.067462458454282059339135457776138  |BT| (NP (NP (NNP Indonesia)(POS 's))(NN government)) |BT| (BOW (Indonesia *)('s *)(government *)) |BT| (BOP (NNP *)(POS *)(NN *)) |ET| 
-0.066719629607163113971246559685824  |BT| (NP (DT The)(JJ Palestinian)(NN representative)) |BT| (BOW (Palestinian *)(representative *)) |BT| (BOP (JJ *)(NN *)) |ET| 
-0.063595932313356862142228465017979  |BT| (NP (NP (NP (DT the)(NNP EU)(POS 's))(JJ executive)(NN body))(, ,)(NP (DT the)(NNP European)(NNP Commission))) |BT| (BOW (EU *)('s *)(executive *)(body *)(, *)(the *)(European *)(Commission *)) |BT| (BOP (NNP *)(POS *)(NN *)(NN *)(, *)(DT *)(NNP *)(NNP *)) |ET| 
-0.04990670528766642105589212974337  |BT| (NP (DT a)(JJ Jewish)(NN seminary)) |BT| (BOW (Jewish *)(seminary *)) |BT| (BOP (JJ *)(NN *)) |ET| 
-0.13643480012043798788035076086089  |BT| (NP (NP (NNP Bush)(POS 's))(JJ legal)(NN team)) |BT| (BOW (Bush *)('s *)(legal *)(team *)) |BT| (BOP (NNP *)(POS *)(JJ *)(NN *)) |ET| 
-0.045584909038253920710026534379722  |BT| (NP (DT the)(NN county)(NN jail)) |BT| (BOW (county *)(jail *)) |BT| (BOP (NN *)(NN *)) |ET| 
-0.045148860246941403817633187145475  |BT| (SBAR (WHNP (WP who))(S (ADVP (RB still))(VP (VBP control)(NP (NP (NNP Serbia)(POS 's))(NN police))))) |BT| (BOW (who *)(still *)(control *)(Serbia *)('s *)(police *)) |BT| (BOP (WP *)(RB *)(VB *)(NNP *)(POS *)(NN *)) |ET| 
-0.030824142170526497991334125003959  |BT| (NP (NNP Israeli)(NNP Prime)(NNP Minister)(NNP Ehud)(NNP Barak)(POS 's)) |BT| (BOW (Israeli *)(Prime *)(Minister *)) |BT| (BOP (NNP *)(NNP *)(NNP *)) |ET| 
-0.048619644687331833865506780512078  |BT| (S (NP (DT The)(NN attempt)(S (VP (TO to)(VP (VB weaken)(NP (NP (NP (DT the)(NN court)(POS 's))(NN freedom))(PP (IN of)(NP (NN action))))))))(VP (VBD collapsed)(SBAR (WHADVP (WRB when))(S (NP (NNP Chase))(VP (VBD was)(VP (VBN acquitted)(PP (IN after)(NP (NP (DT a)(NN trial))(PP (IN in)(NP (DT the)(NNP Senate))))))))))(. .)) |BT| (BOW (court *)('s *)(freedom *)(of *)(action *)(collapsed *)(when *)(Chase *)) |BT| (BOP (NN *)(POS *)(NN *)(IN *)(NN *)(NN *)(WRB *)(NNP *)) |ET| 
-0.066310333745626101609182967422385  |BT| (NP (NNP Texas)(NN governor)) |BT| (BOW (Texas *)(governor *)) |BT| (BOP (NNP *)(NN *)) |ET| 
-0.044054096788579327759194370628393  |BT| (NP (NNP Phoenix)(NN radio)(NN station)(NNS KMVP)) |BT| (BOW (station *)(KMVP *)) |BT| (BOP (NN *)(NNP *)) |ET| 
-0.040162521212895652134022839163663  |BT| (NP (NP (PRP$ their)(JJ combined)(NN business))(, ,)(NP (NNP GlaxoSmithKline))) |BT| (BOW (their *)(combined *)(business *)(, *)(GlaxoSmithKline *)) |BT| (BOP (PRP$ *)(JJ *)(NN *)(, *)(NNP *)) |ET| 
-0.02512612423159197791444618985679  |BT| (NP (DT an)(JJ Israeli)(NN border)(NN policeman)) |BT| (BOW (Israeli *)(border *)(policeman *)) |BT| (BOP (NNP *)(NN *)(NN *)) |ET| 
-0.072635643709501207521128662847332  |BT| (NP (NNP Washington)(NN state)(NN law)) |BT| (BOW (Washington *)(state *)) |BT| (BOP (NNP *)(NN *)) |ET| 
-0.048191154795625232298839080158359  |BT| (S (NP (NN ambassador))(ADVP (RB sharply))(VP (VBZ criticizes)(NP (NP (NNP Indonesia)(POS 's))(NN reform)(NNS efforts)))(. .)) |BT| (BOW (ambassador *)(sharply *)(criticizes *)(Indonesia *)) |BT| (BOP (JJ *)(JJ *)(NNS *)(NNP *)) |ET| 
-0.045700766874016779395262233265385  |BT| (NP (DT the)(NNP Alpine)(NN region)) |BT| (BOW (Alpine *)(region *)) |BT| (BOP (NNP *)(NN *)) |ET| 
-0.056800924249659011378010831094798  |BT| (NP (DT the)(NNP Alabama)(JJ -Florida)(NN line)) |BT| (BOW (Alabama *)(-Florida *)) |BT| (BOP (NNP *)(NNP *)) |ET| 
-0.074509751243655844565871859686013  |BT| (NP (NP (DT the)(NNP NHL)(POS 's))(JJ winningest)(NN goalie)) |BT| (BOW (NHL *)('s *)(winningest *)(goalie *)) |BT| (BOP (NNP *)(POS *)(JJS *)(NN *)) |ET| 
-0.055505287604853265071014334353094  |BT| (NP (NP (NP (NN owner))(PP (IN of)(NP (DT the)(NNP Chicago)(NNP Sun-Times))))(CC and)(NP (NP (DT the)(NNP Daily)(NNP Southtown))(PP (IN in)(NP (NNP Tinley)(NNP Park))))) |BT| (BOW (Chicago *)(Sun-Times *)(and *)(the *)(Daily *)(Southtown *)(in *)(Tinley *)(Park *)) |BT| (BOP (NNP *)(NNPS *)(CC *)(DT *)(JJ *)(NN *)(IN *)(NNP *)(NNP *)) |ET| 
-0.097720065039969689069110359014303  |BT| (NP (NP (DT a)(NN state)(NN -run)(NN power)(NN company))(SBAR (WHNP (WDT which))(S (NP (DT the)(NN government))(VP (VBZ plans)(S (VP (TO to)(VP (VP (VB break)(PP (IN into)(NP (JJ several)(NNS units))))(CC and)(VP (VB sell))))))))) |BT| (BOW (state *)(-run *)(power *)(company *)(which *)) |BT| (BOP (NN *)(JJ *)(NN *)(NN *)(WDT *)) |ET| 
-0.057524394256960126314837111749512  |BT| (NP (NNP Dallas)(NNPS Cowboys)(NN owner)(NNP Jerry)(NNP Jones)) |BT| (BOW (owner *)(Jerry *)(Jones *)) |BT| (BOP (NN *)(NNP *)(NNP *)) |ET| 
-0.03696579762494017762364251211693  |BT| (S (NP (NP (NNP Gore))(PP (IN that)(NP (DT the)(NN court))))(NP (PRP itself))(VP (VBD weighed)(NP (DT the)(NNS remedies))(PP (IN in)(NP (DT a)(JJ disputed)(JJ presidential)(NN election))))(. .)) |BT| (BOW (court *)(itself *)) |BT| (BOP (NN *)(PRP *)) |ET| 
-0.058678363134525790556494939664844  |BT| (NP (NP (NNP Florida)(POS 's))(NNP 22nd)(NNP District)) |BT| (BOW (Florida *)('s *)(22nd *)(District *)) |BT| (BOP (NNP *)(POS *)(JJ *)(NNP *)) |ET| 
-0.024505575459085195133557277813452  |BT| (NP (NP (DT the)(NNS Broncos)(POS '))(NN training)(NN camp)) |BT| (BOW (Broncos *)(' *)(training *)(camp *)) |BT| (BOP (NNPS *)(POS *)(NN *)(NN *)) |ET| 
-0.042805399871913840659232164398418  |BT| (NP (NP (NNP Egypt)(POS 's))(NNP Suzanne)(NNP Mubarak)) |BT| (BOW (Egypt *)('s *)(Suzanne *)(Mubarak *)) |BT| (BOP (NNP *)(POS *)(NNP *)(NNP *)) |ET| 
-0.033579213452791599470170780250555  |BT| (VP (VBN decided)(PP (IN by)(NP (DT the)(JJ same)(NN court)))(SBAR (IN that)(S (NP (JJ last)(NN week))(VP (VBD dismissed)(NP (NN graft)(NNS charges))(PP (IN against)(NP (PRP$ his)(NN father))))))) |BT| (BOW (court *)(that *)) |BT| (BOP (NN *)(IN *)) |ET| 
-0.039486050733491442898959178364748  |BT| (NP (NNP Notre)(NNP Dame)(NN offensive)(NN coordinator)(NNP Kevin)(NNP Rogers)) |BT| (BOW (Notre *)(Dame *)(offensive *)(coordinator *)) |BT| (BOP (NNP *)(NNP *)(JJ *)(NN *)) |ET| 
-0.075663512568178672990093502903619  |BT| (NP (PRP$ his)(JJ inaugural)(NN committee)) |BT| (BOW (his *)(inaugural *)(committee *)) |BT| (BOP (PRP$ *)(JJ *)(NN *)) |ET| 
-0.058042548797716184139083850368479  |BT| (NP (NNP Oklahoma)(NNP State)(JJ athletic)(NN director)(NNP Terry)(NNP Don)(NNP Phillips)) |BT| (BOW (Oklahoma *)(State *)(athletic *)(director *)) |BT| (BOP (NNP *)(NNP *)(JJ *)(NN *)) |ET| 
-0.04769485492147380878424911543334  |BT| (NP (DT a)(JJ military)(NN party)) |BT| (BOW (military *)(party *)) |BT| (BOP (JJ *)(NN *)) |ET| 
-0.031533745245947701618671743517552  |BT| (NP (DT the)(NNPS Lords)(NNP Baroness)(NNP Young)) |BT| (BOW (Baroness *)(Young *)) |BT| (BOP (NNP *)(NNP *)) |ET| 
-0.078427871913401350778549669939821  |BT| (NP (NP (DT the)(NN nation)(POS 's))(NN president)) |BT| (BOW (nation *)('s *)(president *)) |BT| (BOP (NN *)(POS *)(NN *)) |ET| 
-0.03721552409219393287020949401267  |BT| (S (NP (DT The)(NNP New)(NNP York))(VP (VBD -based)(SBAR (S (NP (NNP College)(NNP Board))(VP (VBZ is)(NP (NP (DT a)(JJ nonprofit)(NN organization))(SBAR (WHNP (WDT that))(S (VP (VP (VBZ administers)(NP (DT the)(NNPS SATs)))(CC and)(VP (VBZ promotes)(NP (JJR higher)(NN education)))))))))))(. .)) |BT| (BOW (New *)(York *)(-based *)(College *)(Board *)) |BT| (BOP (NNP *)(NNP *)(JJ *)(NNP *)(NNP *)) |ET| 
-0.055377467120786401377774410548227  |BT| (NP (DT the)(JJ gay)(NNS rights)(NN group)(NN Stonewall)) |BT| (BOW (group *)(Stonewall *)) |BT| (BOP (NN *)(NNP *)) |ET| 
-0.061785599072806729470386244429392  |BT| (NP (NP (NNP Gore)(POS 's))(NN press)(NN secretary)) |BT| (BOW (Gore *)('s *)(press *)(secretary *)) |BT| (BOP (NNP *)(POS *)(NN *)(NN *)) |ET| 
-0.03431606352353316208292355327103  |BT| (NP (NP (DT an)(NN army))(PP (IN of)(NP (NNS lawyers)))) |BT| (BOW (army *)(of *)(lawyers *)) |BT| (BOP (NN *)(IN *)(NNS *)) |ET| 
-0.048292616965647648663573221483603  |BT| (NP (NP (NNP Yugoslavia)(POS 's))(JJ prime)(NN minister)) |BT| (BOW (Yugoslavia *)('s *)(prime *)(minister *)) |BT| (BOP (NNP *)(POS *)(JJ *)(NN *)) |ET| 
-0.031470744755791070501604878018043  |BT| (NP (PRP$ its)(NNS suburbs)) |BT| (BOW (its *)(suburbs *)) |BT| (BOP (PRP$ *)(NNS *)) |ET| 
-0.039031996366852825253168646213453  |BT| (NP (NP (NNP Britain)(POS 's))(NNP Labor)(NN government)) |BT| (BOW (Britain *)('s *)(Labor *)(government *)) |BT| (BOP (NNP *)(POS *)(NNP *)(NN *)) |ET| 
-0.031651777281317884649158855836504  |BT| (NP (NP (NP (NNP Cheney)(POS 's))(JJ foreign)(NN policy)(NN experience))(PP (IN with)(NP (PRP$ his)(NNP Senate)(NNP Armed)(NNP Services)(NNP Committee)(NN membership)))) |BT| (BOW (Cheney *)('s *)(foreign *)(policy *)(experience *)(with *)(his *)(Senate *)(Armed *)(Services *)(Committee *)) |BT| (BOP (NNP *)(POS *)(JJ *)(NN *)(NN *)(IN *)(PRP$ *)(JJ *)(JJ *)(NNS *)(NNP *)) |ET| 
-0.042790309414558247436133342489484  |BT| (S (PP (IN In)(NP (NP (DT a)(JJ wide-ranging)(NN report))(PP (IN on)(NP (NP (DT the)(NN outlook))(PP (IN for)(NP (DT the)(JJ troubled)(NN economy)))))))(, ,)(NP (DT the)(NAC (NNP Bank)(PP (IN of)(NP (NNP Japan))))(NN policy)(NN board))(VP (VBD said)(SBAR (S (NP (DT the)(NN country))(VP (MD would)(VP (VB continue)(NP (DT a)(JJ gradual)(JJ private)(JJ demand-led)(NN recovery))(PRT (RP over))(NP (DT this)(NN year)(CC and)(JJ next)))))))(. .)) |BT| (BOW (Bank *)(of *)(Japan *)(policy *)(board *)(said *)(the *)(country *)) |BT| (BOP (NNP *)(IN *)(NNP *)(NN *)(NN *)(VBD *)(DT *)(NN *)) |ET| 
-0.020069604565705084775473210356722  |BT| (NP (NN manager)(NNP Johnny)(NNP Oates)) |BT| (BOW (manager *)(Johnny *)(Oates *)) |BT| (BOP (NN *)(NNP *)(NNPS *)) |ET| 
-0.028552277030531311025063345709896  |BT| (NP (NNP Army)(NNS officials)) |BT| (BOW (Army *)(officials *)) |BT| (BOP (NNP *)(NNS *)) |ET| 
-0.012699598667182192615610070163257  |BT| (NP (NP (NP (DT The)(JJ disgraced)(NN autocrat)(POS 's))(NNP Socialist)(NNP Party))(CC and)(NP (PRP$ its)(JJ neo-communist)(NNS allies))) |BT| (BOW (Socialist *)(Party *)(and *)(its *)) |BT| (BOP (NN *)(NNP *)(CC *)(PRP$ *)) |ET| 
-0.038986112193698657657492390171683  |BT| (NP (DT The)(NNP Sporting)(NNP News)(NN player)) |BT| (BOW (Sporting *)(News *)(player *)) |BT| (BOP (JJ *)(NNP *)(NN *)) |ET| 
-0.09439658740895419397620713652941  |BT| (NP (NNP State)(NNP Senate)(NNS candidates)) |BT| (BOW (Senate *)(candidates *)) |BT| (BOP (NNP *)(VBZ *)) |ET| 
-0.034186317523690973319006047859148  |BT| (NP (NP (NNP Herblock)(POS 's))(NN assistant)) |BT| (BOW (Herblock *)('s *)(assistant *)) |BT| (BOP (NNP *)(POS *)(NN *)) |ET| 
-0.042758850561433532633248688625827  |BT| (NP (DT the)(NN airline)(NN industry)) |BT| (BOW (airline *)(industry *)) |BT| (BOP (NN *)(NN *)) |ET| 
-0.035914735077844817112691089278087  |BT| (NP (NP (NNP Hollinger)(NNP International))(, ,)(NP (NP (NP (NN owner))(PP (IN of)(NP (DT the)(NNP Chicago)(NNP Sun-Times))))(CC and)(NP (NP (DT the)(NNP Daily)(NNP Southtown))(PP (IN in)(NP (NNP Tinley)(NNP Park)))))(, ,)) |BT| (BOW (Hollinger *)(International *)(, *)(owner *)(of *)(the *)(Chicago *)(Sun-Times *)) |BT| (BOP (NNP *)(NNP *)(, *)(NN *)(IN *)(DT *)(NNP *)(NNPS *)) |ET| 
-0.026913713203502491466689860999395  |BT| (NP (ADJP (JJ well-known))(JJ Egyptian)(NN actress)(NNP Madeha)(NNP Yusri)) |BT| (BOW (actress *)(Madeha *)(Yusri *)) |BT| (BOP (NN *)(NNP *)(NNP *)) |ET| 
-0.040006982715631002334166765876944  |BT| (SINV (MD Should)(NP (DT the)(NN court))(VP (VB override)(NP (NP (DT the)(NN station)(POS 's))(NNP First)(NNP Amendment)(NN privilege))(ADVP (RB here)))) |BT| (BOW (court *)(override *)(the *)(station *)) |BT| (BOP (NN *)(IN *)(DT *)(NN *)) |ET| 
-0.018299660318782679652160894079316  |BT| (NP (NP (NNP Iran)(NNP [AP)(NNP ]))(: -)(NP (NP (NP (NNP Iran)(POS 's))(JJ only)(JJ Jewish)(NN legislator))(PP (IN on)(NP (NNP Sunday))))) |BT| (BOW (Iran *)((AP *)()*)(- *)(Iran *)) |BT| (BOP (NNP *)(NNP *)(NNP *)(NNP *)(NNP *)) |ET| 
-0.043837177649459067863002559306551  |BT| (PP (IN from)(NP (DT the)(JJ presidential)(NN palace))) |BT| (BOW (Jakarta *)('s *)(main *)(park *)) |BT| (BOP (NNP *)(POS *)(NN *)(NN *)) |ET| 
-0.026582418704875463572046001559102  |BT| (NP (JJ two-time)(VBG defending)(NN champion)(NNP Mika)(NNP Hakkinen)) |BT| (BOW (champion *)(Mika *)(Hakkinen *)) |BT| (BOP (NN *)(NNP *)(NNP *)) |ET| 
-0.03944985974353999030883599630215  |BT| (NP (DT a)(NNP California)(NN investor)) |BT| (BOW (California *)(investor *)) |BT| (BOP (NNP *)(NN *)) |ET| 
-0.040548447326740268137346134835752  |BT| (NP (DT a)(NNP Bush)(NNP Cabinet)) |BT| (BOW (Bush *)(Cabinet *)) |BT| (BOP (NNP *)(NNP *)) |ET| 
-0.0038920094146850147190375146522001  |BT| (NP (DT the)(JJ Arab)(NN world)(POS 's)) |BT| (BOW (Arab *)(world *)) |BT| (BOP (NNP *)(NN *)) |ET| 
-0.024039457661358287765551722259261  |BT| (NP (NP (NNP ,'')(NNP Nokia)(POS 's))(NNP Chief)(NNP Executive)(NNP Jorma)(NNP Ollila)) |BT| (BOW (Executive *)(Jorma *)(Ollila *)) |BT| (BOP (NNP *)(NNP *)(NNP *)) |ET| 
-0.035985393840328096237701771542561  |BT| (NP (PRP$ his)(JJ 79-year-old)(NN father)) |BT| (BOW (his *)(79-year-old *)(father *)) |BT| (BOP (PRP$ *)(JJ *)(NN *)) |ET| 
-0.043357470124151434309744956863142  |BT| (NP (DT the)(JJ former)(JJ communist)(NNS East)) |BT| (BOW (communist *)(East *)) |BT| (BOP (NN *)(NNP *)) |ET| 
-0.032668251636750099409223224711241  |BT| (NP (DT The)(NNP News)(NNP Sun)(CC and)(JJ other)(JJ northern)(NNP Illinois)(NNP Copley)(NNS newspapers)) |BT| (BOW (The *)(News *)(Sun *)(and *)(other *)(northern *)(Illinois *)(Copley *)(newspapers *)) |BT| (BOP (DT *)(NNP *)(NNP *)(CC *)(JJ *)(JJ *)(NNS *)(NNP *)(NNS *)) |ET| 
-0.038734810544490037853559982750085  |BT| (NP (DT a)(NNP Rochester)(NN journalist)) |BT| (BOW (Rochester *)(journalist *)) |BT| (BOP (NNP *)(NN *)) |ET| 
-0.031480666118868974590050413553399  |BT| (NP (PRP$ its)(NNS weapons)) |BT| (BOW (its *)(weapons *)) |BT| (BOP (PRP$ *)(NNS *)) |ET| 
-0.025519106437002149478932011561483  |BT| (NP (DT The)(JJ somber)(NNP Colorado)(NNP Avalanche)(NN goalie)) |BT| (BOW (Colorado *)(Avalanche *)(goalie *)) |BT| (BOP (NNP *)(NNP *)(NN *)) |ET| 
-0.025294656717803686712953137316617  |BT| (NP (DT the)(JJ Republican)(JJ presidential)(NN nominee)) |BT| (BOW (Republican *)(presidential *)(nominee *)) |BT| (BOP (NNP *)(JJ *)(NN *)) |ET| 
-0.013467501574522939417066780265486  |BT| (NP (DT the)(JJ Iraqi)(NNS people)) |BT| (BOW (Iraqi *)(people *)) |BT| (BOP (NNP *)(NNS *)) |ET| 
-0.024389850257361598423466730878317  |BT| (NP (DT the)(NN motorcycle)(NN magazine)(NNP Cycle)(NNP World)) |BT| (BOW (motorcycle *)(magazine *)(Cycle *)(World *)) |BT| (BOP (NN *)(NN *)(NN *)(NNP *)) |ET| 
-0.032576813026898639169548488325745  |BT| (S (NP (DT the)(NNP Texas)(NNP Senate))(VP (VBZ is)(ADJP (RB especially)(JJ important))(SBAR (NP (DT this)(NN year))(IN because)(S (NP (DT the)(NNP Senate))(VP (MD will)(VP (VB redraw)(NP (JJ congressional)(CC and)(JJ legislative)(NNS districts)))))))) |BT| (BOW (Texas *)(Senate *)(is *)(especially *)(important *)(this *)(year *)(because *)(the *)(Senate *)) |BT| (BOP (NNP *)(NNP *)(VBZ *)(RB *)(JJ *)(DT *)(NN *)(IN *)(DT *)(NNP *)) |ET| 
-0.061979462594884661419403215631974  |BT| (NP (PRP$ His)(JJ first)(NN team)) |BT| (BOW (His *)(first *)(team *)) |BT| (BOP (PRP$ *)(JJ *)(NN *)) |ET| 
-0.043949162164439600775089900253079  |BT| (NP (NP (NNP NBC)(POS 's))(NNP Tim)(NNP Russert)) |BT| (BOW (NBC *)('s *)(Tim *)(Russert *)) |BT| (BOP (NNP *)(POS *)(NNP *)(NNP *)) |ET| 
-0.029330400495790550502439586466608  |BT| (S (PP (IN With)(S (NP (DT the)(NNPS Republicans))(VP (VBG clinging)(PP (TO to)(NP (NP (DT a)(JJ one-vote)(NN majority))(PP (IN in)(NP (DT the)(NN state)(NNP Senate))))))))(, ,)(NP (NP (NN control))(PP (IN of)(NP (DT the)(NN chamber))))(VP (MD could)(VP (VB hinge)(PP (IN on)(NP (NP (DT a)(JJ single)(NN race))(PP (IN in)(NP (NNP East)(NNP Texas)))))))) |BT| (BOW (state *)(Senate *)(, *)(control *)(of *)(the *)(chamber *)) |BT| (BOP (NN *)(NNP *)(, *)(NN *)(IN *)(DT *)(NN *)) |ET| 
-0.02816309052920999006497382310954  |BT| (NP (NNP Chancellor)(NNP Gerhard)(NNP Schroeder)(POS 's)) |BT| (BOW (Chancellor *)(Gerhard *)(Schroeder *)) |BT| (BOP (NNP *)(NNP *)(NNP *)) |ET| 
-0.034463696838425206259159949695459  |BT| (NP (PRP$ his)(JJ central)(NNP Texas)(NN ranch)) |BT| (BOW (Texas *)(ranch *)) |BT| (BOP (NNP *)(NN *)) |ET| 
-0.037882612870576239105790961048115  |BT| (NP (NP (NNS doctors)(POS '))(NN office)) |BT| (BOW (doctors *)(' *)(office *)) |BT| (BOP (NNS *)(POS *)(NN *)) |ET| 
-0.074338039095979274728520636017493  |BT| (NP (NNP Warren)(NN police)(NNP Chief)(NNP James)(NNP Vohs)) |BT| (BOW (Warren *)(police *)(Chief *)(James *)(Vohs *)) |BT| (BOP (NNP *)(NNP *)(NNP *)(NNP *)(NNP *)) |ET| 
-0.033861810604362808929668204882546  |BT| (NP (NP (DT the)(NN state)(POS 's))(JJ main)(NN food)(NN supply)(NN agency)) |BT| (BOW (state *)('s *)(main *)(food *)(supply *)(agency *)) |BT| (BOP (NN *)(POS *)(NN *)(VBD *)(VB *)(NN *)) |ET| 
-0.02484950110032420333983083082785  |BT| (NP (JJ outgoing)(NNP Tabasco)(NNP Gov.)(NNP Roberto)(NNP Madrazo)) |BT| (BOW (Tabasco *)(Gov. *)) |BT| (BOP (NNP *)(NNP *)) |ET| 
-0.043308659461114971944706297790617  |BT| (NP (NP (NNP Brownsville)(POS 's))(NN shopping)(NN district)) |BT| (BOW (Brownsville *)('s *)(shopping *)(district *)) |BT| (BOP (NNP *)(POS *)(JJ *)(NN *)) |ET| 
-0.019035151435843937484104770874183  |BT| (NP (NN commission)(NN chairman)(NNP Ananta)(NNP Baharuddin)) |BT| (BOW (commission *)(chairman *)(Ananta *)(Baharuddin *)) |BT| (BOP (NN *)(NN *)(NNP *)(NNP *)) |ET| 
-0.027276839293927969409825351476684  |BT| (NP (NP (DT A)(NN court))(PP (IN of)(NP (NP (NNS appeals))(PP (IN on)(NP (NNP Tuesday)(NNP suspended)(NNP Gen)))))) |BT| (BOW (court *)(of *)(appeals *)(on *)(Tuesday *)(suspended *)(Gen *)) |BT| (BOP (NN *)(IN *)(NNS *)(IN *)(NNP *)(VBD *)(NNP *)) |ET| 
-0.038052730063516747305296661352259  |BT| (NP (NP (DT the)(NNP Taliban)(POS 's))(NNP Interior)(NNP Minister)(NNP Abdul)) |BT| (BOW (Taliban *)('s *)(Interior *)(Minister *)) |BT| (BOP (NNP *)(POS *)(NNP *)(NNP *)) |ET| 
-0.044248199552903905162892783664574  |BT| (NP (DT the)(JJ British)(NN government)) |BT| (BOW (British *)(government *)) |BT| (BOP (JJ *)(NN *)) |ET| 
-0.025529829259359641813187380421368  |BT| (S (NP (NP (NP (NNP Britain)(POS 's))(NNP High)(NNP Court))(PP (IN on)(NP (NNP Wednesday))))(VP (VBD approved)(NP (PRP$ their)(NN plan)(S (VP (TO to)(VP (VB begin)(NP (NN trading)(NNS shares))(PP (IN in)(NP (NP (PRP$ their)(JJ combined)(NN business))(, ,)(NP (NNP GlaxoSmithKline)))))))))(. .)) |BT| (BOW (High *)(Court *)(on *)(Wednesday *)(approved *)(their *)) |BT| (BOP (NNP *)(NNP *)(IN *)(NNP *)(VBN *)(PRP$ *)) |ET| 
-0.030076805370959917157458463066178  |BT| (NP (PRP$ its)(JJ core)(JJ trans-Atlantic)(NNS flights)) |BT| (BOW (its *)(core *)(trans-Atlantic *)) |BT| (BOP (PRP$ *)(NN *)(JJ *)) |ET| 
-0.021841706519242738010477822285793  |BT| (NP (NNP GOP)(JJ national)(NN committeewoman)(NNP Julie)(NNP Finley)) |BT| (BOW (committeewoman *)(Julie *)(Finley *)) |BT| (BOP (NN *)(NNP *)(NNP *)) |ET| 
-0.07827336519082257748625153226385  |BT| (NP (PRP$ his)(NNP Senate)(NNP Armed)(NNP Services)(NNP Committee)(NN membership)) |BT| (BOW (his *)(Senate *)) |BT| (BOP (PRP$ *)(JJ *)) |ET| 
-0.01721392831374890519668952038046  |BT| (NP (NNP Boise)(NNP State)(NN coach)(NNP Dirk)(NNP Koetter)) |BT| (BOW (coach *)(Dirk *)(Koetter *)) |BT| (BOP (NN *)(NNP *)(NNP *)) |ET| 
-0.020162763498502381948052075699707  |BT| (NP (NP (JJ German)(NN police)(NNS raids))(PP (IN of)(NP (NP (DT an)(JJ alleged)(JJ Palestinian)(JJ terrorist)(NN base)(NNS months))(PP (IN before)(NP (DT the)(NN bombing)))))) |BT| (BOW (German *)(police *)(raids *)(of *)(an *)(alleged *)(Palestinian *)(terrorist *)(base *)) |BT| (BOP (NNP *)(NN *)(NNS *)(IN *)(DT *)(VBN *)(JJ *)(NN *)(NN *)) |ET| 
-0.026648996788614022490637722739848  |BT| (S (NP (NNP Georgia)(NNP Tech))(VP (VBD beat)(NP (NNP Georgia))(PP (IN for)(NP (NP (DT the)(JJ third)(JJ straight)(NN year))(, ,)(NP (NP (DT the)(NNPS Bulldogs)(POS '))(JJS longest)(NN losing)(NN streak))))(PP (IN in)(NP (NP (DT the)(JJ bitter)(NN rivalry))(PP (IN since)(NP (DT the)(JJ early)(NNS 1960s))))))) |BT| (BOW (Georgia *)(Tech *)(beat *)(Georgia *)) |BT| (BOP (NNP *)(NNP *)(NN *)(NNP *)) |ET| 
-0.028168006240182463101318077747237  |BT| (NP (NP (NNP Germany)(POS 's))(JJ other)(JJ far-right)(NNS parties)) |BT| (BOW (Germany *)('s *)(other *)(far-right *)(parties *)) |BT| (BOP (NNP *)(POS *)(JJ *)(JJ *)(NNS *)) |ET| 
-0.045763981651912755133082555403234  |BT| (NP (DT a)(JJ three-term)(NN state)(NN representative)) |BT| (BOW (state *)(representative *)) |BT| (BOP (NN *)(NN *)) |ET| 
-0.035519564038729259380922087530053  |BT| (NP (PRP$ its)(NN population)) |BT| (BOW (its *)(population *)) |BT| (BOP (PRP$ *)(NN *)) |ET| 
-0.028280353011212507746696687149779  |BT| (NP (NP (DT the)(NNP Democratic)(NNP National)(NNP Committee)(POS 's))(JJ national)(NN chairman)) |BT| (BOW (Democratic *)(National *)(Committee *)('s *)(national *)(chairman *)) |BT| (BOP (JJ *)(NNP *)(NNP *)(POS *)(JJ *)(NN *)) |ET| 
-0.026705117766125777839514299216717  |BT| (NP (NP (NN court)(NN ruling))(PP (IN in)(NP (NNP Duncan)))) |BT| (BOW (court *)(ruling *)(in *)(Duncan *)) |BT| (BOP (NN *)(VBG *)(IN *)(NNP *)) |ET| 
-0.020039201317514711980782848854687  |BT| (NP (NN moderator)(NNP Bernie)(NNP Shaw)) |BT| (BOW (moderator *)(Bernie *)(Shaw *)) |BT| (BOP (NN *)(NNP *)(NNP *)) |ET| 
-0.04013317101913813078617465635034  |BT| (NP (DT a)(JJ go-cart)(NN magazine)) |BT| (BOW (go-cart *)(magazine *)) |BT| (BOP (JJ *)(NN *)) |ET| 
-0.026517345698674987114484835615258  |BT| (NP (DT The)(NNP Dick)(NNP Cheney)(NNP -Joe)(NNP Lieberman)(NN debate)) |BT| (BOW (Dick *)(Cheney *)(-Joe *)(Lieberman *)) |BT| (BOP (NNP *)(NNP *)(NNP *)(NNP *)) |ET| 
-0.037013513021103727762550761326565  |BT| (VP (VP (VB modernize)(NP (NP (PRP$ his)(NN nation)(POS 's))(NN bureaucracy)))(CC and)(VP (VB revive)(NP (PRP$ its)(JJ stagnant)(NN economy)))) |BT| (BOW (nation *)('s *)(bureaucracy *)(and *)(revive *)(its *)) |BT| (BOP (NN *)(POS *)(NN *)(CC *)(VB *)(PRP$ *)) |ET| 
-0.027450445390333550604866630351353  |BT| (NP (DT the)(JJ fisheries)(NN section)) |BT| (BOW (fisheries *)(section *)) |BT| (BOP (NNS *)(NN *)) |ET| 
-0.038078450542236644271731904609624  |BT| (VP (VBN gleaned)(PP (IN from)(NP (PRP$ his)(NNS lawyers)))(SBAR (IN that)(S (NP (DT the)(NNP Florida)(JJ high)(NN court))(VP (MD could)(VP (VB rule)(PP (IN against)(NP (PRP him)))))))) |BT| (BOW (lawyers *)(that *)(the *)(Florida *)(high *)(court *)) |BT| (BOP (NNS *)(IN *)(DT *)(NNP *)(JJ *)(NN *)) |ET| 
-0.033305616002147125920274106647412  |BT| (NP (NP (NNP Roy)(POS 's))(NN residence)) |BT| (BOW (Roy *)('s *)(residence *)) |BT| (BOP (NNP *)(POS *)(NN *)) |ET| 
-0.028886086426079451289217203679982  |BT| (S (NP (NNPS Democrats))(VP (VBP have)(VP (VBN controlled)(NP (NP (DT the)(NNP Texas)(NNP House))(PP (IN since)(NP (DT the)(CD 1870s))))))) |BT| (BOW (Democrats *)(have *)(controlled *)(the *)(Texas *)(House *)) |BT| (BOP (NNPS *)(VBP *)(VBN *)(DT *)(NNP *)(NNP *)) |ET| 
-0.033587600870670225594594171525387  |BT| (NP (NP (NNP Lennon)(POS 's))(NN widow)) |BT| (BOW (Lennon *)('s *)(widow *)) |BT| (BOP (NNP *)(POS *)(NN *)) |ET| 
-0.034149613351566923680202592095156  |BT| (NP (NP (NP (NN owner))(PP (IN of)(NP (DT the)(NNP Chicago)(NNP Sun-Times))))(CC and)(NP (NP (DT the)(NNP Daily)(NNP Southtown))(PP (IN in)(NP (NNP Tinley)(NNP Park))))) |BT| (BOW (owner *)(of *)(the *)(Chicago *)(Sun-Times *)(and *)(the *)(Daily *)(Southtown *)(in *)(Tinley *)(Park *)) |BT| (BOP (NN *)(IN *)(DT *)(NNP *)(NNPS *)(CC *)(DT *)(JJ *)(NN *)(IN *)(NNP *)(NNP *)) |ET| 
-0.033276338069259191188020707841133  |BT| (NP (NP (NNP Yugoslavia)(POS 's))(JJ dominant)(NN republic)) |BT| (BOW (Yugoslavia *)('s *)(dominant *)(republic *)) |BT| (BOP (NNP *)(POS *)(JJ *)(NN *)) |ET| 
-0.016641315928796435869019276765357  |BT| (NP (JJ local)(NN hospital)(NNS officials)(CC and)(NNS police)) |BT| (BOW (hospital *)(officials *)(and *)(police *)) |BT| (BOP (NN *)(NNS *)(CC *)(NN *)) |ET| 
-0.022504310920203881435375237174412  |BT| (NP (DT the)(NNP poet)(NNP Henry)(NNP Wadsworth)(NNP Longfellow)) |BT| (BOW (poet *)(Henry *)(Wadsworth *)(Longfellow *)) |BT| (BOP (JJ *)(NNP *)(NNP *)(NNP *)) |ET| 
-0.028683793383005782434702624072997  |BT| (NP (NNP neighbor)(NNP Mexico)) |BT| (BOW (neighbor *)(Mexico *)) |BT| (BOP (NN *)(NNP *)) |ET| 
-0.030489680772178062717614466237137  |BT| (NP (PRP$ its)(NNS competitors)) |BT| (BOW (its *)(competitors *)) |BT| (BOP (PRP$ *)(NNS *)) |ET| 
-0.01944025170598528973187057999894  |BT| (NP (NNP Egyptian)(NNP President)(NNP Hosni)(NNP Mubarak)) |BT| (BOW (Egyptian *)(President *)) |BT| (BOP (NNP *)(NNP *)) |ET| 
-0.028979928125503033597976099144944  |BT| (VP (VB hide)(NP (PRP$ their)(JJ obvious)(NN dismay))(PP (IN with)(NP (NP (NNP Friday)(POS 's))(CD 4-3)(NN state)(NNP Supreme)(NNP Court)(NN ruling)(NNS favoring)))) |BT| (BOW (their *)(obvious *)(dismay *)(with *)(Friday *)('s *)(4-3 *)(state *)) |BT| (BOP (PRP$ *)(JJ *)(NN *)(IN *)(NNP *)(POS *)(JJ *)(NN *)) |ET| 
-0.023006444856264303411297333923358  |BT| (NP (DT a)(NN party)(NN spokeswoman)) |BT| (BOW (party *)(spokeswoman *)) |BT| (BOP (NN *)(NN *)) |ET| 
-0.017825217706086651792141140049353  |BT| (NP (DT the)(NNP Dallas-Fort)(NNP Worth)(NN area)) |BT| (BOW (Dallas-Fort *)(Worth *)(area *)) |BT| (BOP (NNP *)(NNP *)(NN *)) |ET| 
-0.052627974586390034728022868648623  |BT| (NP (NP (DT the)(NN state))(PP (IN of)(NP (NNP Texas)(NNP .'')))) |BT| (BOW (state *)(of *)(Texas *)) |BT| (BOP (NN *)(IN *)(NNP *)) |ET| 
-0.020073002637831516281607946439181  |BT| (NP (NNP Broncos)(NNPS Sports)(NNP Bar)) |BT| (BOW (Broncos *)(Sports *)(Bar *)) |BT| (BOP (NNPS *)(NNPS *)(NNP *)) |ET| 
-0.028009740279932266587836764415442  |BT| (NP (NP (DT the)(NN world)(POS 's))(JJS largest)(JJ pharmaceutical)(NN company)) |BT| (BOW (world *)('s *)(largest *)(pharmaceutical *)(company *)) |BT| (BOP (NN *)(POS *)(JJS *)(JJ *)(NN *)) |ET| 
-0.029395495382362225866845761856894  |BT| (NP (NP (DT an)(NN association))(PP (IN of)(NP (JJ retired)(NN army)(NNS generals)))) |BT| (BOW (association *)(of *)(retired *)(army *)) |BT| (BOP (NN *)(IN *)(JJ *)(JJ *)) |ET| 
-0.021483707211059466235525405863882  |BT| (S (NP (NNP ,'')(NNP Mark)(NNP David)(NNP Chapman))(VP (VBD told)(NP (DT the)(NNP New)(NNP York)(NNP State)(NNP Parole)(NNP Board))(PP (IN at)(NP (NP (DT a)(JJ closed)(NN hearing))(PP (IN at)(NP (DT the)(NNP Attica)(NN state)(NN prison)))))(PP (IN on)(NP (NNP Oct))))) |BT| (BOW (Mark *)(David *)(Chapman *)(told *)(the *)(New *)(York *)(State *)(Parole *)(Board *)) |BT| (BOP (NNP *)(NNP *)(NNP *)(VBD *)(DT *)(NNP *)(NNP *)(NNP *)(NNP *)(NNP *)) |ET| 
-0.04062026120051955707657143079814  |BT| (NP (NP (NNP Britain)(POS 's))(NNP Labor)(NN government)) |BT| (BOW (Labor *)(government *)) |BT| (BOP (NNP *)(NN *)) |ET| 
-0.018445297193579297811982797838937  |BT| (NP (DT the)(JJ liberal)(NNP Yabloko)(NN faction)) |BT| (BOW (Yabloko *)(faction *)) |BT| (BOP (NNP *)(NN *)) |ET| 
-0.015059630309632938277575320284996  |BT| (NP (NN state)(NN health)(CC and)(JJ environmental)(NNS experts)) |BT| (BOW (state *)(health *)(and *)(environmental *)(experts *)) |BT| (BOP (NN *)(NN *)(CC *)(JJ *)(NNS *)) |ET| 
-0.021632963690793038935566983127501  |BT| (NP (NNP Miami)(JJ defensive)(NN coordinator)(NNP Greg)(NNP Schiano)) |BT| (BOW (Miami *)(defensive *)(coordinator *)) |BT| (BOP (NNP *)(JJ *)(NN *)) |ET| 
-0.022310360324462288200697557272179  |BT| (NP (DT the)(JJ German)(NN market)(NN leader)) |BT| (BOW (German *)(market *)(leader *)) |BT| (BOP (NNP *)(NN *)(NN *)) |ET| 
-0.041525135786213716870829415483968  |BT| (NP (NNP Texas)(NNP Gov.)(NNP George)(NNP W.)(NNP Bush)) |BT| (BOW (Texas *)(Gov. *)) |BT| (BOP (NNP *)(NNP *)) |ET| 
-0.02596166614395327768005650170835  |BT| (NP (NP (DT the)(ADJP (RB congressionally)(JJ appointed))(JJ electoral)(NN commission))(SBAR (WHNP (WDT that))(S (VP (VBD examined)(NP (DT the)(ADJP (JJ deadlocked)(NP (CD 1876)))(JJ presidential)(NN election)))))) |BT| (BOW (commission *)(that *)) |BT| (BOP (NN *)(WDT *)) |ET| 
-0.023425172975545173470468540699585  |BT| (NP (DT the)(NN court)(S (VP (TO to)(VP (VB suit)(NP (PRP$ their)(JJ own)(NNS views)))))) |BT| (BOW (court *)(to *)(suit *)(their *)) |BT| (BOP (NN *)(TO *)(VB *)(PRP$ *)) |ET| 
-0.019846653024085156302724897159351  |BT| (NP (NN linebacker)(NNP Craig)(NNP Powell)) |BT| (BOW (linebacker *)(Craig *)(Powell *)) |BT| (BOP (NN *)(NNP *)(NNP *)) |ET| 
-0.027111106781537577109508774242386  |BT| (SBAR (WHNP (WDT that))(S (VP (VBD owned)(S (NP (NNP Road)(CC &)(NNP Track))(VP (TO to)(VP (VB become)(NP (NNP Bond)(NNP Publishing)))))))) |BT| (BOW (that *)(owned *)(Road *)(& *)(Track *)(to *)(become *)(Bond *)(Publishing *)) |BT| (BOP (WDT *)(VBD *)(NNP *)(CC *)(NNP *)(TO *)(VB *)(NNP *)(NNP *)) |ET| 
-0.017598140207476929697261169849298  |BT| (NP (NNP Computer)(NN giant)(NNP Hewlett-Packard)(NNP Corp)) |BT| (BOW (giant *)(Hewlett-Packard *)(Corp *)) |BT| (BOP (NN *)(NNP *)(NNP *)) |ET| 
-0.040689032227512800243829360624659  |BT| (NP (ADJP (JJ little)(S (VP (TO to)(VP (VB hide)(NP (PRP$ their)(JJ obvious)(NN dismay))(PP (IN with)(NP (NP (NNP Friday)(POS 's))(CD 4-3)(NN state)(NNP Supreme)(NNP Court)(NN ruling)(NNS favoring)))))))(NNP Democrat)(NNP Al)(NNP Gore)) |BT| (BOW (state *)(Supreme *)(Court *)(ruling *)(favoring *)(Democrat *)(Al *)(Gore *)) |BT| (BOP (NN *)(NNP *)(NNP *)(VBG *)(VBG *)(NNP *)(NNP *)(NNP *)) |ET| 
-0.02453137682879470010677280811251  |BT| (UCP (NP (NNS reforms))(CC and)(PRN (: -)(PP (IN through)(NP (NP (NNS proxies))(SBAR (WHNP (WP who))(S (ADVP (RB still))(VP (VBP control)(NP (NP (NNP Serbia)(POS 's))(NN police)))))))(: -))(PP (NP (NP (NNP Yugoslavia)(POS 's))(NN reintegration))(IN into)(NP (DT the)(NN world)))) |BT| (BOW (Serbia *)('s *)(police *)(- *)(Yugoslavia *)) |BT| (BOP (NNP *)(POS *)(NN *)(IN *)(NNP *)) |ET| 
-0.019394253419088819390125877362152  |BT| (NP (NP (NNP Arizona)(NNP State)(POS 's))(JJ top)(NN choice)) |BT| (BOW (Arizona *)(State *)('s *)(top *)(choice *)) |BT| (BOP (NNP *)(NNP *)(POS *)(JJ *)(NN *)) |ET| 
-0.030281473720492349532840137271705  |BT| (NP (NP (NNP Kostunica)(POS 's))(JJ 18-party)(NN opposition)(NN block)) |BT| (BOW (Kostunica *)('s *)(18-party *)(opposition *)) |BT| (BOP (NNP *)(POS *)(JJ *)(NN *)) |ET| 
-0.036349388958410486227812441484275  |BT| (NP (NP (DT a)(NN clerk))(PP (IN in)(NP (DT an)(NNP Army)(NNPS Reserves)(NN office)))) |BT| (BOW (clerk *)(in *)(an *)(Army *)(Reserves *)(office *)) |BT| (BOP (NN *)(IN *)(DT *)(NNP *)(NNPS *)(NN *)) |ET| 
-0.016026837847308836315640689917927  |BT| (NP (NNP ,'')(NNP Justice)(NNP Felix)(NNP Frankfurter)) |BT| (BOW (Justice *)(Felix *)(Frankfurter *)) |BT| (BOP (NNP *)(NNP *)(NNP *)) |ET| 
-0.028912766360430421086480379244676  |BT| (NP (NP (DT the)(NN debate)(NN commission)(POS 's))(NN director)) |BT| (BOW (commission *)('s *)(director *)) |BT| (BOP (NN *)(POS *)(NN *)) |ET| 
-0.033943813325871846631187622733705  |BT| (NP (NP (DT The)(JJ disgraced)(NN autocrat)(POS 's))(NNP Socialist)(NNP Party)) |BT| (BOW (autocrat *)('s *)(Socialist *)(Party *)) |BT| (BOP (NN *)(POS *)(NN *)(NNP *)) |ET| 
-0.0396123541685863625461117010218  |BT| (NP (DT the)(NNP Attica)(NN state)(NN prison)) |BT| (BOW (state *)(prison *)) |BT| (BOP (NN *)(NN *)) |ET| 
-0.01472859167692486606626722789315  |BT| (NP (QP (CD 137)(CD Shiite))(JJ Muslim)(NNS prisoners)) |BT| (BOW (Shiite *)(Muslim *)) |BT| (BOP (NNP *)(NNP *)) |ET| 
-0.025409936673855305910851853923305  |BT| (NP (DT the)(JJ Italian)(NN team)) |BT| (BOW (Italian *)(team *)) |BT| (BOP (JJ *)(NN *)) |ET| 
-0.026652566251621490067691411240958  |BT| (NP (PRP$ their)(NN division)(NN series)) |BT| (BOW (their *)(division *)) |BT| (BOP (PRP$ *)(NN *)) |ET| 
-0.020183807579056765868497080873567  |BT| (NP (DT the)(JJ former)(NNP Coca-Cola)(NN executive)) |BT| (BOW (Coca-Cola *)(executive *)) |BT| (BOP (NNP *)(NN *)) |ET| 
-0.028588530285477746495370610091413  |BT| (NP (NP (NNP Florida)(POS 's))(JJ presidential)(NNS votes)) |BT| (BOW (Florida *)('s *)(presidential *)) |BT| (BOP (NNP *)(POS *)(JJ *)) |ET| 
-0.023346372875072893271486407229531  |BT| (NP (DT The)(NNP Texas)(NN governor)(CC and)(JJ Republican)(NN nominee)) |BT| (BOW (Texas *)(governor *)(and *)(Republican *)(nominee *)) |BT| (BOP (NNP *)(NN *)(CC *)(NNP *)(NN *)) |ET| 
-0.023767670412846830796382846529013  |BT| (NP (NP (NNP Iran)(POS 's))(JJ only)(JJ Jewish)(NN legislator)) |BT| (BOW (Iran *)('s *)(only *)(Jewish *)(legislator *)) |BT| (BOP (NNP *)(POS *)(JJ *)(JJ *)(NN *)) |ET| 
-0.017064392544575257559813508123625  |BT| (NP (NP (PRP$ its)(CD 1990)(NN invasion))(PP (IN of)(NP (NNP Kuwait)))) |BT| (BOW (its *)(1990 *)(invasion *)(of *)(Kuwait *)) |BT| (BOP (PRP$ *)(CD *)(NN *)(IN *)(NNP *)) |ET| 
-0.026689141876169702322085797163709  |BT| (NP (NNP ex-dictator)(NNP Suharto)) |BT| (BOW (ex-dictator *)(Suharto *)) |BT| (BOP (NN *)(NNP *)) |ET| 
-0.030717280616611459392872873763736  |BT| (NP (PRP$ its)(NNS players)) |BT| (BOW (its *)(players *)) |BT| (BOP (PRP$ *)(NNS *)) |ET| 
-0.019660243922870822286252945332308  |BT| (NP (NN prosecutor)(NNP Alan)(NNP Turnbull)) |BT| (BOW (prosecutor *)(Alan *)(Turnbull *)) |BT| (BOP (NN *)(NNP *)(NNP *)) |ET| 
-0.030705620375237163699466691468842  |BT| (NP (PRP$ its)(NNS citizens)) |BT| (BOW (its *)(citizens *)) |BT| (BOP (PRP$ *)(NNS *)) |ET| 
-0.012364136726927895879035723680772  |BT| (NP (JJ Israeli)(NN government)(NN spokesman)(NNP Nahman)(NNP Shai)) |BT| (BOW (Israeli *)(government *)(spokesman *)(Nahman *)(Shai *)) |BT| (BOP (NNP *)(NN *)(NN *)(NNP *)(NNP *)) |ET| 
-0.021714003578242695863265154798682  |BT| (NP (NP (DT The)(NN state))(CC and)(NP (DT the)(NNP Army))) |BT| (BOW (state *)(and *)(the *)(Army *)) |BT| (BOP (NN *)(CC *)(DT *)(NNP *)) |ET| 
-0.022239594612909103360509632807407  |BT| (NP (DT a)(NN fund)(NN shareholder)(NN advocacy)(NN group)) |BT| (BOW (shareholder *)(advocacy *)(group *)) |BT| (BOP (NN *)(NN *)(NN *)) |ET| 
-0.01709722215175644988160996717852  |BT| (NP (JJ postwar)(NNP Franco)(JJ -German)(NN parity)) |BT| (BOW (Franco *)(-German *)) |BT| (BOP (NNP *)(NNP *)) |ET| 
-0.013606385538844856242235437093768  |BT| (NP (JJ Israeli)(NNS soldiers)) |BT| (BOW (Israeli *)(soldiers *)) |BT| (BOP (NNP *)(NNS *)) |ET| 
-0.020652450481303364498986141484238  |BT| (SINV (S (S (VP (VB ``From)(NP (DT a)(JJ small)(NN election))(PP (IN in)(NP (CD one)(NN state)))))(NP (NNP Senate)(NN race))(VP (VBZ comes)(NP (DT a)(NN lot)(NN ,''))))(VP (VBD said))(NP (NP (NNP Bob)(NNP Stein))(, ,)(NP (NP (NN professor))(PP (IN of)(NP (NP (JJ political)(NN science))(PP (IN at)(NP (NP (NNP Rice)(NNP University))(PP (IN in)(NP (NNP Houston)))))))))(. .)) |BT| (BOW (Senate *)(race *)(comes *)(a *)(lot *)(,'' *)(said *)(Bob *)(Stein *)) |BT| (BOP (NNP *)(NN *)(VBZ *)(DT *)(NN *)(NN *)(VBD *)(NNP *)(NNP *)) |ET| 
-0.040789988191177989351743349288881  |BT| (NP (NNP Florida)(NN developer)(NNP Al)(NNP Hoffman)) |BT| (BOW (Florida *)(developer *)) |BT| (BOP (NNP *)(NN *)) |ET| 
-0.019066537209416901943459521362456  |BT| (NP (NP (NNP Bush)(POS 's))(JJ chief)(NN strategist)) |BT| (BOW (Bush *)('s *)(chief *)(strategist *)) |BT| (BOP (NNP *)(POS *)(JJ *)(NN *)) |ET| 
-0.034382932318178134611930119035605  |BT| (NP (DT the)(NNP Kostunica)(NN camp)) |BT| (BOW (Kostunica *)(camp *)) |BT| (BOP (NNP *)(NN *)) |ET| 
-0.014737037523679941131149462307803  |BT| (NP (NP (JJR lower)(NN house))(PP (IN of)(NP (NN parliament)))) |BT| (BOW (house *)(of *)(parliament *)) |BT| (BOP (NN *)(IN *)(NN *)) |ET| 
-0.016037596805883656131408443457076  |BT| (NP (JJ North)(JJ -South)(NNS divisions)) |BT| (BOW (North *)(-South *)) |BT| (BOP (NNP *)(NNP *)) |ET| 
-0.018211820126639587796857355783686  |BT| (NP (DT the)(JJ Israeli)(JJ -Palestinian)(NN violence)) |BT| (BOW (Israeli *)(-Palestinian *)) |BT| (BOP (NNP *)(JJ *)) |ET| 
-0.01941102595993639615135073483998  |BT| (NP (NNP Junta)(NN leader)(NNP Gen.)(NNP Robert)(NNP Guei)) |BT| (BOW (leader *)(Gen. *)) |BT| (BOP (NN *)(NNP *)) |ET| 
-0.019072547550521429249315019660571  |BT| (NP (NP (DT a)(JJ strong)(NN supporter))(PP (IN of)(NP (NNP International)(NNP Monetary)(NNP Fund)(NN aid)))) |BT| (BOW (supporter *)(of *)(International *)(Monetary *)(Fund *)) |BT| (BOP (NN *)(IN *)(NNP *)(NNP *)(NNP *)) |ET| 
-0.040059056395688949492317476597236  |BT| (NP (DT the)(NNP Attica)(NN state)(NN prison)) |BT| (BOW (Attica *)(state *)(prison *)) |BT| (BOP (NNP *)(NN *)(NN *)) |ET| 
-0.045421014292439554349556374290842  |BT| (NP (NN league)(NN president)(NNP Basil)(NNP DeVito)) |BT| (BOW (league *)(president *)(Basil *)(DeVito *)) |BT| (BOP (NN *)(NN *)(NNP *)(NNP *)) |ET| 
-0.019540047592522834241091089779729  |BT| (NP (NP (NNP Germany)(POS 's))(NNS neighbors)) |BT| (BOW (Germany *)('s *)(neighbors *)) |BT| (BOP (NNP *)(POS *)(NNS *)) |ET| 
-0.016089133773996629195313090576747  |BT| (NP (JJ Conservative)(NN commentator)(NNP Bill)(NNP Kristol)) |BT| (BOW (commentator *)(Bill *)(Kristol *)) |BT| (BOP (NN *)(NNP *)(NNP *)) |ET| 
-0.0147828399740049173938238880055  |BT| (NP (JJ 19th-century)(NN composer)(NNP Mikhail)(NNP Glinka)) |BT| (BOW (composer *)(Mikhail *)(Glinka *)) |BT| (BOP (NN *)(NNP *)(NNP *)) |ET| 
-0.018165869605039991485639916390937  |BT| (S (NP (DT the)(NNPS Republicans))(VP (VBG clinging)(PP (TO to)(NP (NP (DT a)(JJ one-vote)(NN majority))(PP (IN in)(NP (DT the)(NN state)(NNP Senate))))))) |BT| (BOW (Republicans *)(clinging *)(to *)(a *)(one-vote *)(majority *)(in *)(the *)(state *)(Senate *)) |BT| (BOP (NNPS *)(VBG *)(TO *)(DT *)(JJ *)(NN *)(IN *)(DT *)(NN *)(NNP *)) |ET| 
-0.013960291604442381235839931719056  |BT| (NP (NNP College)(NNP Board)(NNP President)(NNP Gaston)(NNP Caperton)) |BT| (BOW (College *)(Board *)(President *)) |BT| (BOP (NNP *)(NNP *)(NNP *)) |ET| 
-0.022579411075984677503836195455733  |BT| (NP (DT the)(NN shuttle)(NN cargo)(NN bay)) |BT| (BOW (shuttle *)(cargo *)(bay *)) |BT| (BOP (NN *)(NN *)(NN *)) |ET| 
-0.023855118160416247802269040789724  |BT| (NP (NP (DT The)(NNP Supreme)(NNP Court))(: -)(SBAR (WHNP (WDT which))(S (VP (VBZ has)(NP (DT the)(NN authority)(S (VP (TO to)(VP (VB remove)(NP (NNP Guzman))(PP (IN from)(NP (DT the)(NN case))))))))))(: -)) |BT| (BOW (Supreme *)(Court *)(- *)(which *)) |BT| (BOP (NNP *)(NNP *)(, *)(WDT *)) |ET| 
-0.02755425617185588288426956182775  |BT| (NP (JJ Rangers)(NN owner)(NNP Tom)(NNP Hicks)) |BT| (BOW (Rangers *)(owner *)(Tom *)(Hicks *)) |BT| (BOP (NNPS *)(NN *)(NNP *)(NNS *)) |ET| 
-0.014826727208495904183904734452426  |BT| (NP (NP (NNP Indonesia)(POS 's))(JJ war-torn)(JJ Aceh)(NN province)) |BT| (BOW (Aceh *)(province *)) |BT| (BOP (NNP *)(NN *)) |ET| 
-0.017489285244251039780349898933309  |BT| (NP (JJ former)(JJ deputy)(NN commissioner)(NNP Sunil)(NNP Gulati)) |BT| (BOW (commissioner *)(Sunil *)(Gulati *)) |BT| (BOP (NN *)(NNP *)(NNP *)) |ET| 
-0.030569251829010081478177340841285  |BT| (NP (DT the)(JJ Milosevic)(NN regime)) |BT| (BOW (Milosevic *)(regime *)) |BT| (BOP (NNP *)(NN *)) |ET| 
-0.016152156181039108162611483976434  |BT| (S (NP (DT The)(JJ Israeli)(NN army))(VP (VBN evacuated)(NP (DT the)(NN outpost))(PP (IN before)(NP (NN dawn)))(PP (IN on)(NP (NNP Saturday)))(, ,)(SBAR (IN after)(S (NP (NNS clashes))(NP (RB there)(JJ last)(NN week))(VP (VBD killed)(NP (NP (CD six)(NNPS Palestinians))(CC and)(NP (DT an)(JJ Israeli)(NN border)(NN policeman)))))))(. .)) |BT| (BOW (Israeli *)(army *)(evacuated *)(the *)(outpost *)) |BT| (BOP (NNP *)(NN *)(VBD *)(DT *)(NN *)) |ET| 
-0.012452680380842216095738095305023  |BT| (NP (NP (DT the)(NNP Chicago)(NNP White)(NNPS Sox))(, ,)(NP (NNP Los)(NNP Angeles)(NNPS Dodgers))(, ,)(NP (NNP New)(NNP York)(NNP Mets))(CC and)(NP (NNP Atlanta)(NNPS Braves))) |BT| (BOW (New *)(York *)(Mets *)(and *)(Atlanta *)(Braves *)) |BT| (BOP (NNP *)(NNP *)(NNPS *)(CC *)(NNP *)(NNPS *)) |ET| 
-0.0116418991659977752450849664001  |BT| (NP (DT A)(JJ Danish)(NN couple)) |BT| (BOW (Danish *)(couple *)) |BT| (BOP (JJ *)(NN *)) |ET| 
-0.014051783738790197403334403247754  |BT| (NP (NNP Gelbard)(NN ``persona)(NN non)(NN grata)(NNS .'')) |BT| (BOW (Gelbard *)(``persona *)) |BT| (BOP (NNP *)(NNP *)) |ET| 
-0.027490797615544217136207549856408  |BT| (NP (NP (DT the)(NN president))(PP (IN of)(NP (NP (NP (NNP Tabasco)(POS 's))(JJ electoral)(NN institute))(PP (IN of)(S (VP (VP (VBG favoring)(NP (DT the)(NNP PRI)))(CC and)(VP (VBG pressuring)(NP (NN election)(NNS officials))(S (VP (TO to)(VP (VB close)(ADVP (NP (DT the)(JJ preliminary)(NNS results))(RB early))(S (VP (TO to)(VP (VB benefit)(NP (NNP Andrade))))))))))))))) |BT| (BOW (president *)(of *)(Tabasco *)('s *)(electoral *)(institute *)) |BT| (BOP (NN *)(IN *)(NNP *)(POS *)(JJ *)(NN *)) |ET| 
-0.037592512688419295330266578503142  |BT| (NP (DT the)(NNP Mediterranean)(NN island)) |BT| (BOW (Mediterranean *)(island *)) |BT| (BOP (NNP *)(NN *)) |ET| 
-0.014889730717443981286574050670879  |BT| (NP (DT a)(JJ .357-caliber)(NNP Magnum)(NN revolver)) |BT| (BOW (Magnum *)(revolver *)) |BT| (BOP (NNP *)(NN *)) |ET| 
-0.019159838655036315335777885593416  |BT| (NP (NP (NP (NNP Indonesia)(POS 's))(JJ first)(ADJP (RB democratically)(VBN chosen))(NN head))(PP (IN of)(NP (NP (NN state))(PP (IN in)(NP (CD four)(NNS decades)))))) |BT| (BOW (head *)(of *)(state *)) |BT| (BOP (NN *)(IN *)(NN *)) |ET| 
-0.018063396882586263414438576546672  |BT| (NP (DT The)(NNP News)(NNP Sun)(CC and)(JJ other)(JJ northern)(NNP Illinois)(NNP Copley)(NNS newspapers)) |BT| (BOW (The *)(News *)(Sun *)(and *)(other *)(northern *)(Illinois *)(Copley *)) |BT| (BOP (DT *)(NNP *)(NNP *)(CC *)(JJ *)(JJ *)(NNS *)(NNP *)) |ET| 
-0.019983203392218963634352490998936  |BT| (NP (NN research)(NN group)(NNP Gartner)) |BT| (BOW (group *)(Gartner *)) |BT| (BOP (NN *)(NNP *)) |ET| 
-0.016238382321621766535280073640024  |BT| (NP (NN football)(NN coach)(NNP Jim)(NNP Donnan)(NNP Monday)) |BT| (BOW (coach *)(Jim *)(Donnan *)) |BT| (BOP (NN *)(NNP *)(NNP *)) |ET| 
-0.014100872785383111382429000002503  |BT| (NP (NN hospital)(NN spokeswoman)(NNP Rebecca)(NNP O'Grady)) |BT| (BOW (spokeswoman *)(Rebecca *)(O'Grady *)) |BT| (BOP (NN *)(NNP *)(NNP *)) |ET| 
-0.015055180499787912049014515503131  |BT| (NP (NP (DT the)(NNS people))(PP (IN of)(NP (NNP Serbia)))) |BT| (BOW (people *)(of *)(Serbia *)) |BT| (BOP (NNS *)(IN *)(NNP *)) |ET| 
-0.012444070055345521352840876261325  |BT| (S (PP (RB Even)(IN before)(NP (DT the)(NN court)(NN setback)))(, ,)(NP (NNP Bush))(VP (VBD was)(ADJP (JJR more))(NP (JJ muted)(NNP Friday))(SBAR (IN than)(S (NP (PRP he))(VP (VBZ has)(VP (VBN been)(PP (IN in)(NP (NNS days)))(, ,)(ADVP (RB perhaps))(VP (VBG reflecting)(NP (NP (DT an)(NN understanding))(VP (VBN gleaned)(PP (IN from)(NP (PRP$ his)(NNS lawyers)))(SBAR (IN that)(S (NP (DT the)(NNP Florida)(JJ high)(NN court))(VP (MD could)(VP (VB rule)(PP (IN against)(NP (PRP him)))))))))))))))(. .)) |BT| (BOW (court *)(setback *)(, *)(Bush *)) |BT| (BOP (NN *)(NN *)(, *)(NNP *)) |ET| 
-0.014436239177252913751248186713383  |BT| (NP (NNP General)(NN manager)(NNP Steve)(NNP Phillips)) |BT| (BOW (manager *)(Steve *)(Phillips *)) |BT| (BOP (NN *)(NNP *)(NNPS *)) |ET| 
-0.014183175798007366039121812661961  |BT| (NP (DT That)(NNP Gore)(JJ -Bush)(NN audience)) |BT| (BOW (Gore *)(-Bush *)(audience *)) |BT| (BOP (NNP *)(JJ *)(NN *)) |ET| 
-0.0094257826950708452351523902734698  |BT| (NP (NNP minority)(NNP Shiite)(NNPS Muslims)) |BT| (BOW (Shiite *)(Muslims *)) |BT| (BOP (NNP *)(NNP *)) |ET| 
-0.024065444861351967253959571735322  |BT| (NP (NP (NNP Indonesia)(POS 's))(JJ reformist-minded)(NNP President)(NNP Abdurrahman)(NNP Wahid)) |BT| (BOW (Indonesia *)('s *)(reformist-minded *)(President *)) |BT| (BOP (NNP *)(POS *)(JJ *)(NN *)) |ET| 
-0.011613614846072983777247600301052  |BT| (NP (DT a)(NNP Division)(NNP IAA)(NN program)) |BT| (BOW (Division *)(IAA *)(program *)) |BT| (BOP (NNP *)(NNP *)(NN *)) |ET| 
-0.012247921583538915260569446274985  |BT| (S (NP (NNP Security)(NNP Council)(JJ fact-finding)(NN team))(VP (VBD arrived)(NP (NNP Sunday))(PP (IN in)(NP (NP (NNP East)(NNP Timor))(, ,)(SBAR (WHNP (WDT which))(S (VP (VBD won)(ADVP (RB broke))(PP (IN from)(NP (NNP Indonesia)))(NP (JJ last)(NN year))))))))(. .)) |BT| (BOW (Security *)(Council *)(fact-finding *)(team *)(arrived *)(Sunday *)(in *)(East *)(Timor *)) |BT| (BOP (NNP *)(NNP *)(JJ *)(NN *)(VBD *)(NN *)(IN *)(NNP *)(NNP *)) |ET| 
-0.011309446148383717548058235990993  |BT| (VP (VBZ calls)(PP (TO to)(NP (NNP Mulcahy)(CC and)(NNP Rutgers)(NNS sports)))(SBAR (S (NP (NP (NN information)(NN director)(NNP John)(NNP Wooding))(PP (IN by)(NP (DT The)(NNP Associated)(NNP Press))))(VP (VBD were)(RB not)(VP (ADVP (RB immediately))(VBN returned)))))) |BT| (BOW (Rutgers *)(sports *)(information *)(director *)(John *)(Wooding *)) |BT| (BOP (NNPS *)(NNS *)(NN *)(NN *)(NNP *)(NNP *)) |ET| 
-0.016901994489332657772839851872959  |BT| (NP (NN composer)(NNP Alexander)(NNP Alexandrov)) |BT| (BOW (composer *)(Alexander *)(Alexandrov *)) |BT| (BOP (NN *)(NNP *)(NNP *)) |ET| 
-0.021275188312958038389099968412665  |BT| (NP (DT the)(JJ 15-nation)(NN EU)(POS 's)) |BT| (BOW (15-nation *)(EU *)) |BT| (BOP (JJ *)(NNP *)) |ET| 
-0.011266572963794140721516257030999  |BT| (S (NP (DT the)(NN agency))(VP (VBZ issues)(NP (PRP$ its)(JJ final)(NN decision)))) |BT| (BOW (agency *)(issues *)(its *)) |BT| (BOP (NN *)(NNS *)(PRP$ *)) |ET| 
-0.014529037731858360227299442613003  |BT| (NP (NNP West)(NNP Bank)(NNP [AP)(NNP ])) |BT| (BOW (West *)(Bank *)((AP *)) |BT| (BOP (NNP *)(NNP *)(NNP *)) |ET| 
-0.014283242552895099308774007340617  |BT| (NP (NP (DT the)(NN world)(POS 's))(JJ fourth-biggest)(NN airline)) |BT| (BOW (world *)('s *)(fourth-biggest *)(airline *)) |BT| (BOP (NN *)(POS *)(JJ *)(NN *)) |ET| 
-0.021625406388884736708089207013472  |BT| (NP (NP (NNP Eisenhower)(POS 's))(NN administration)) |BT| (BOW (Eisenhower *)('s *)(administration *)) |BT| (BOP (NNP *)(POS *)(NN *)) |ET| 
-0.011911649035837744078913935652508  |BT| (S (NP (DT the)(NNP Senate))(VP (MD will)(VP (VB redraw)(NP (JJ congressional)(CC and)(JJ legislative)(NNS districts))))) |BT| (BOW (Senate *)(will *)(redraw *)(congressional *)(and *)(legislative *)(districts *)) |BT| (BOP (NNP *)(MD *)(VB *)(JJ *)(CC *)(JJ *)(NNS *)) |ET| 
-0.015041350242161468167556570563193  |BT| (NP (NP (NP (DT the)(NNP EU)(POS 's))(JJ executive)(NN body))(, ,)(NP (DT the)(NNP European)(NNP Commission))) |BT| (BOW (body *)(, *)(the *)(European *)(Commission *)) |BT| (BOP (NN *)(, *)(DT *)(NNP *)(NNP *)) |ET| 
-0.034152177441312492334191119880415  |BT| (NP (NN state)(NN utility)(NN labor)(NNS unions)) |BT| (BOW (state *)(utility *)(labor *)(unions *)) |BT| (BOP (NN *)(NN *)(NN *)(NNS *)) |ET| 
-0.0096152239616346425743476089564865  |BT| (NP (DT the)(JJ senior)(NNP U.S.)(NN official)) |BT| (BOW (U.S. *)(official *)) |BT| (BOP (NNP *)(NN *)) |ET| 
-0.013765625231150791299428171043928  |BT| (NP (NP (DT The)(NNP Senate)(NN seat))(PP (IN in)(NP (DT the)(RB traditionally)(JJ Democratic)(NN region)))) |BT| (BOW (Senate *)(seat *)(in *)(the *)(traditionally *)(Democratic *)(region *)) |BT| (BOP (NNP *)(NN *)(IN *)(DT *)(RB *)(JJ *)(NN *)) |ET| 
-0.0084265784515697578216375518422865  |BT| (S (NP (NNP Road)(CC &)(NNP Track))(VP (TO to)(VP (VB become)(NP (NNP Bond)(NNP Publishing))))) |BT| (BOW (Road *)(& *)(Track *)(to *)(become *)(Bond *)(Publishing *)) |BT| (BOP (NNP *)(CC *)(NNP *)(TO *)(VB *)(NNP *)(NNP *)) |ET| 
-0.015054789496195470840933516853966  |BT| (S (NP (DT the)(NNP Texas)(NNP Senate))(VP (VBZ is)(ADJP (RB especially)(JJ important))(SBAR (NP (DT this)(NN year))(IN because)(S (NP (DT the)(NNP Senate))(VP (MD will)(VP (VB redraw)(NP (JJ congressional)(CC and)(JJ legislative)(NNS districts)))))))) |BT| (BOW (Senate *)(is *)(especially *)(important *)(this *)(year *)(because *)(the *)(Senate *)) |BT| (BOP (NNP *)(VBZ *)(RB *)(JJ *)(DT *)(NN *)(IN *)(DT *)(NNP *)) |ET| 
-0.011979685337955217963590293095422  |BT| (NP (NP (NNP North)(NNP Rhine-Westphalia)(POS 's))(NN capital)(NNP Duesseldorf)) |BT| (BOW (North *)(Rhine-Westphalia *)('s *)(capital *)(Duesseldorf *)) |BT| (BOP (NNP *)(NNP *)(POS *)(NN *)(NN *)) |ET| 
-0.014930402330436187696705019334331  |BT| (NP (DT some)(NNP Arizona)(NNP State)(NNS boosters)) |BT| (BOW (Arizona *)(State *)(boosters *)) |BT| (BOP (NNP *)(NNP *)(NNS *)) |ET| 
-0.012508256536685472687375764166973  |BT| (NP (DT The)(NNP Texas)(NN governor)(CC and)(JJ Republican)(NN nominee)) |BT| (BOW (Texas *)(governor *)) |BT| (BOP (NNP *)(NN *)) |ET| 
-0.012763490327671652563301663008133  |BT| (NP (JJ incumbent)(NNP Democratic)(NNP Rep)) |BT| (BOW (Democratic *)(Rep *)) |BT| (BOP (NNP *)(NNP *)) |ET| 
-0.011060774306640394279432904056648  |BT| (NP (NP (DT the)(NNP Socialist)(NNP People's)(NNP Party))(PP (IN of)(NP (NP (NNP Montenegro))(, ,)(NP (DT the)(JJR smaller)(NNP Yugoslav)(NN republic))))) |BT| (BOW (Socialist *)(People's *)(Party *)(of *)(Montenegro *)) |BT| (BOP (NN *)(NNPS *)(NNP *)(IN *)(NNP *)) |ET| 
-0.020292756067429008892677444464425  |BT| (NP (PRP$ its)(NNS people)) |BT| (BOW (its *)(people *)) |BT| (BOP (PRP$ *)(NNS *)) |ET| 
-0.020586306108067588260812641465236  |BT| (NP (NP (NNP House))(PP (IN of)(NP (NNP Commons)(NN speaker)(NNP Michael)(NNP Martin)))) |BT| (BOW (House *)(of *)(Commons *)(speaker *)(Michael *)(Martin *)) |BT| (BOP (NNP *)(IN *)(NNPS *)(NN *)(NNP *)(NNP *)) |ET| 
-0.012436359600304551856209123172903  |BT| (NP (DT a)(JJ longtime)(NNS Broncos)(NN fan)) |BT| (BOW (Broncos *)(fan *)) |BT| (BOP (NNP *)(NN *)) |ET| 
-0.015580688013514780096424594546534  |BT| (NP (NP (NP (NNP Cheney)(POS 's))(JJ foreign)(NN policy)(NN experience))(PP (IN with)(NP (PRP$ his)(NNP Senate)(NNP Armed)(NNP Services)(NNP Committee)(NN membership)))) |BT| (BOW (Cheney *)('s *)(foreign *)(policy *)(experience *)(with *)(his *)(Senate *)) |BT| (BOP (NNP *)(POS *)(JJ *)(NN *)(NN *)(IN *)(PRP$ *)(JJ *)) |ET| 
-0.013743323161444082058935123313859  |BT| (NP (NNP Hakkinen)(CC and)(NNP McLaren)(NNP teammate)(NNP David)(NNP Coulthard)) |BT| (BOW (teammate *)(David *)(Coulthard *)) |BT| (BOP (NN *)(NNP *)(NNP *)) |ET| 
-0.012219563773853742497110808074012  |BT| (NP (NP (NN spokesman))(PP (IN for)(NP (DT the)(NNP GOP)(JJ -controlled)(NNP Senate)(NNP Foreign)(NNPS Relations)(NNP Committee)))) |BT| (BOW (spokesman *)(for *)(the *)(GOP *)(-controlled *)(Senate *)(Foreign *)(Relations *)(Committee *)) |BT| (BOP (NN *)(IN *)(DT *)(NNP *)(VBD *)(NNP *)(NNP *)(NNPS *)(NNP *)) |ET| 
-0.011534554955419780430947440663658  |BT| (NP (NP (NNP Kostunica)(POS 's))(JJ pro-democracy)(NNS forces)) |BT| (BOW (Kostunica *)('s *)(pro-democracy *)(forces *)) |BT| (BOP (NNP *)(POS *)(NN *)(NNS *)) |ET| 
-0.011323016756205971089510597948902  |BT| (NP (DT the)(JJ European)(NN aircraft)(NN consortium)) |BT| (BOW (European *)(aircraft *)(consortium *)) |BT| (BOP (JJ *)(NN *)(NN *)) |ET| 
-0.013236645213154128036814327629145  |BT| (VP (VBD said)(NP (NNP CBS)(NNP anchor)(NNP Dan))(ADVP (RB Rather))) |BT| (BOW (anchor *)(Dan *)(Rather *)) |BT| (BOP (NN *)(NNP *)(NNP *)) |ET| 
-0.010043799664178676422920943878125  |BT| (NP (DT an)(NNP Algerian)(NN asylum-seeker)) |BT| (BOW (Algerian *)(asylum-seeker *)) |BT| (BOP (JJ *)(NN *)) |ET| 
-0.019239991583188228302381261869414  |BT| (NP (NP (NNP Rodriguez)(POS 's))(NN team)) |BT| (BOW (Rodriguez *)('s *)(team *)) |BT| (BOP (NNP *)(POS *)(NN *)) |ET| 
-0.008657016548675906808529845193334  |BT| (NP (NN drug)(NN maker)(NNP Johnson)(CC &)(NNP Johnson)) |BT| (BOW (maker *)(Johnson *)(& *)(Johnson *)) |BT| (BOP (NN *)(NNP *)(CC *)(NNP *)) |ET| 
-0.014944780092473870097835586534529  |BT| (NP (NNP Gov.)(NNP Jesse)(NNP Ventura)(POS 's)) |BT| (BOW (Gov. *)(Jesse *)(Ventura *)) |BT| (BOP (NNP *)(NNP *)(NNP *)) |ET| 
-0.012496500453454961743204876256641  |BT| (NP (JJ Israeli)(NNS officials)) |BT| (BOW (Israeli *)(officials *)) |BT| (BOP (NNP *)(NNS *)) |ET| 
-0.020229032617659542525601068518881  |BT| (NP (NP (DT the)(JJ sole)(JJ Jewish)(NN representative))(PP (IN in)(NP (NP (NNP Iran)(POS 's))(JJ 290-seat)(NN parliament)))) |BT| (BOW (Jewish *)(representative *)(in *)(Iran *)('s *)(290-seat *)(parliament *)) |BT| (BOP (JJ *)(NN *)(IN *)(NNP *)(POS *)(JJ *)(NN *)) |ET| 
-0.011363343334611338344974917902164  |BT| (NP (NN protest)(NN coordinator)(NNP Adam)(NNP Eidinger)) |BT| (BOW (coordinator *)(Adam *)(Eidinger *)) |BT| (BOP (NN *)(NNP *)(NNP *)) |ET| 
-0.011456411247981766743375686701256  |BT| (VP (VBG retreating)(PP (TO to)(NP (NP (DT the)(NN solitude))(PP (IN of)(NP (PRP$ his)(JJ central)(NNP Texas)(NN ranch)))))(PP (IN after)(NP (NP (DT a)(JJ stunning)(NN court)(NN setback))(PP (IN in)(NP (DT the)(JJ long)(JJ drawn-out)(JJ presidential)(NN contest)))))) |BT| (BOW (Texas *)(ranch *)(after *)(a *)(stunning *)(court *)) |BT| (BOP (NNP *)(NN *)(IN *)(DT *)(NN *)(NN *)) |ET| 
-0.012370617268451603379397774062909  |BT| (NP (NP (DT The)(NNP Record))(PP (IN of)(NP (NNP Hackensack)))) |BT| (BOW (Record *)(of *)(Hackensack *)) |BT| (BOP (NNP *)(IN *)(NNP *)) |ET| 
-0.0074186205636546593070179689277666  |BT| (NP (NNP Chicago)(NN favorite)(NNP Dick)(NNP Butkus)) |BT| (BOW (Chicago *)(favorite *)(Dick *)(Butkus *)) |BT| (BOP (NNP *)(JJ *)(NNP *)(NNP *)) |ET| 
-0.010196447980254886786499746165191  |BT| (NP (NP (NNS proxies))(SBAR (WHNP (WP who))(S (ADVP (RB still))(VP (VBP control)(NP (NP (NNP Serbia)(POS 's))(NN police)))))) |BT| (BOW (proxies *)(who *)(still *)(control *)(Serbia *)('s *)(police *)) |BT| (BOP (NNS *)(WP *)(RB *)(VB *)(NNP *)(POS *)(NN *)) |ET| 
-0.0099746474043054828700904934635219  |BT| (NP (DT A)(NN car)(NN bomb)) |BT| (BOW (car *)(bomb *)) |BT| (BOP (NN *)(NN *)) |ET| 
-0.038334566062392314012008398549369  |BT| (NP (DT the)(JJ Arab)(NN world)) |BT| (BOW (Arab *)(world *)) |BT| (BOP (NNP *)(NN *)) |ET| 
-0.0082756026971491820909410108697557  |BT| (NP (NNP Mayor)(NNP Warren)(NNP Beck)) |BT| (BOW (Mayor *)(Warren *)(Beck *)) |BT| (BOP (NNP *)(NNP *)(NNP *)) |ET| 
-0.010579158299804840639990466399922  |BT| (NP (NP (NNP Afghanistan)(POS 's))(JJ central)(JJ Bamyan)(NN province)) |BT| (BOW (Bamyan *)(province *)) |BT| (BOP (NNP *)(NN *)) |ET| 
-0.010259628881242094725068092486708  |BT| (S (NP (DT the)(NNP Security)(NNP Council))(VP (VBD indicated)(SBAR (S (NP (PRP it))(VP (VBD did)(RB not)(VP (VB want)(NP (DT another)(JJ contentious)(NN session))(SBAR (IN while)(S (NP (JJ diplomatic)(NNS efforts))(VP (VBD were)(PP (IN under)(NP (NN way)))(S (VP (TO to)(VP (VB end)(NP (NP (NP (DT the)(NN violence))(SBAR (WHNP (WDT that))(S (VP (VBD cost)(NP (NP (DT the)(NNS lives))(PP (IN of)(NP (CD 96)(NNS people))))))))(, ,)(ADJP (RBS most)(JJ Palestinians))))))))))))))) |BT| (BOW (Security *)(Council *)(indicated *)(it *)) |BT| (BOP (NNP *)(NNP *)(VBD *)(PRP *)) |ET| 
-0.0080600317599797861867205739372366  |BT| (NP (PRP$ its)(NN coach)) |BT| (BOW (its *)(coach *)) |BT| (BOP (PRP$ *)(NN *)) |ET| 
-0.021710583591514058532379038979343  |BT| (NP (NNP Social)(NNP Security)(NNP Commissioner)(NNP Kenneth)(NNP Apfel)) |BT| (BOW (Social *)(Security *)(Commissioner *)(Kenneth *)(Apfel *)) |BT| (BOP (NNP *)(NNP *)(NNP *)(NNP *)(NNP *)) |ET| 
-0.011420832605132602566300192847848  |BT| (NP (CD two)(JJ Israeli)(NNS soldiers)) |BT| (BOW (Israeli *)(soldiers *)) |BT| (BOP (NNP *)(NNS *)) |ET| 
-0.0085282726106890825723549909298526  |BT| (NP (DT a)(NNP Tokyo)(NN subway)(NN attack)) |BT| (BOW (Tokyo *)(subway *)) |BT| (BOP (NNP *)(NN *)) |ET| 
-0.012529706756784985202668458725839  |BT| (NP (DT the)(NNPS Lords)(NNP Baroness)(NNP Young)) |BT| (BOW (Lords *)(Baroness *)) |BT| (BOP (NNPS *)(NNP *)) |ET| 
-0.0084143962216022966105199998310127  |BT| (S (NP (NP (NNP Indonesia)(POS 's))(JJ reformist-minded)(NNP President)(NNP Abdurrahman)(NNP Wahid))(VP (VBZ has)(VP (VBN blamed)(NP (NP (DT the)(NN army)(CC and)(NN police))(PP (IN for)(NP (DT the)(NNS deaths))))))(. .)) |BT| (BOW (President *)(Abdurrahman *)(Wahid *)(has *)(blamed *)(the *)(army *)(and *)(police *)) |BT| (BOP (NN *)(NNP *)(NNP *)(VBZ *)(VBN *)(DT *)(NN *)(CC *)(NN *)) |ET| 
-0.021095476195204174163499999394844  |BT| (NP (NNP Iran)(NNP [AP)(NNP ])) |BT| (BOW (Iran *)((AP *)) |BT| (BOP (NNP *)(NNP *)) |ET| 
-0.013774103961336717910635130124319  |BT| (NP (ADJP (JJ well-known))(JJ Egyptian)(NN actress)(NNP Madeha)(NNP Yusri)) |BT| (BOW (Egyptian *)(actress *)(Madeha *)(Yusri *)) |BT| (BOP (JJ *)(NN *)(NNP *)(NNP *)) |ET| 
-0.008780536670605344068407660529374  |BT| (NP (NP (NNP DJB)(NNPS Associates)(NNP LLC))(PP (IN of)(NP (NNP Irvine)))) |BT| (BOW (DJB *)(Associates *)(LLC *)(of *)(Irvine *)) |BT| (BOP (NNP *)(NNPS *)(NNP *)(IN *)(NNP *)) |ET| 
-0.010423432926227518130479765545715  |BT| (NP (NP (JJ German)(NN police)(NNS raids))(PP (IN of)(NP (NP (DT an)(JJ alleged)(JJ Palestinian)(JJ terrorist)(NN base)(NNS months))(PP (IN before)(NP (DT the)(NN bombing)))))) |BT| (BOW (German *)(police *)(raids *)(of *)(an *)(alleged *)(Palestinian *)(terrorist *)) |BT| (BOP (NNP *)(NN *)(NNS *)(IN *)(DT *)(VBN *)(JJ *)(NN *)) |ET| 
-0.017336895533439720951118800940094  |BT| (NP (NP (NNP Gore)(POS 's))(NN campaign)(NN chairman)) |BT| (BOW (Gore *)('s *)(campaign *)(chairman *)) |BT| (BOP (NNP *)(POS *)(NN *)(NN *)) |ET| 
-0.010632692072244254860580170429785  |BT| (NP (NNP Embassy)(NN spokeswoman)(NNP Lela)(NNP Margiou)) |BT| (BOW (spokeswoman *)(Lela *)(Margiou *)) |BT| (BOP (NN *)(NNP *)(NNP *)) |ET| 
-0.0083811771115607364146526947479288  |BT| (S (NP (NP (NNP Marc)(NNP Thiessen))(, ,)(NP (NP (NN spokesman))(PP (IN for)(NP (DT the)(NNP GOP)(JJ -controlled)(NNP Senate)(NNP Foreign)(NNPS Relations)(NNP Committee))))(, ,))(VP (VBD said)(SBAR (S (NP (NN administration)(NNS officials))(VP (VP (VBD told)(NP (NP (NNS members))(PP (IN of)(NP (NNP Congress))))(PP (IN in)(NP (DT a)(NN briefing)))(NP (NNP Wednesday))(SBAR (IN that)(S (NP (NNP Clinton))(VP (VBD sent)(NP (DT a)(NN letter))(PP (TO to)(NP (NP (NNP Russian)(NNP President)(NNP Vladimir)(NNP Putin))(ADVP (NP (CD three)(NNS weeks))(RB ago))))(S (VP (VBG ``asking)(S (NP (PRP him))(VP (TO to)(VP (VB step)(PRT (RP in)))))))))))(CC and)(VP (VBP do)(SBAR (WHADJP (RB exactly)(WP what))(S (NP (NNP Bush))(VP (VP (VBD suggested))('' '')(CC and)(VP (PP (IN on)(NP (NNP Saturday)))(ADVP (RB personally))(VBD urged)(NP (NNP Putin))(PP (IN by)(NP (NN phone)))(S (VP (TO to)(VP (VB intervene)))))))))))))(. .)) |BT| (BOW (Senate *)(Foreign *)(Relations *)(Committee *)(, *)(said *)(administration *)) |BT| (BOP (NNP *)(NNP *)(NNPS *)(NNP *)(, *)(VBD *)(NN *)) |ET| 
-0.0092021769363941352537494822172448  |BT| (S (S (NP (NN ``We))(VP (VBP 're)(ADJP (JJ prepared)(PRN (, ,)(SBAR (IN if)(S (VP (MD need)(VP (VB be)))))(, ,))(S (VP (TO to)(VP (VB take)(NP (PRP$ our)(NN case))(PRT (RP back))(PP (TO to)(NP (DT the)(NNP [U.S)(NNP .])(NNP Supreme)(NNP Court)(NNP ,'')))))))))(NP (PRP he))(VP (VBD told)(NP (NNS reporters)))(. .)) |BT| (BOW (Supreme *)(Court *)(,'' *)(he *)) |BT| (BOP (NNP *)(NNP *)(, *)(PRP *)) |ET| 
-0.010804228772019240992219302199828  |BT| (NP (NP (NNP Ouattara)(POS 's))(NN party)) |BT| (BOW (Ouattara *)('s *)(party *)) |BT| (BOP (NNP *)(POS *)(NN *)) |ET| 
-0.0083108461358380267963719134627354  |BT| (NP (NP (NNP Norway)(POS 's))(NNP Foreign)(NNP Minister)(NNP Thorbjoern)(NNP Jagland)(CC and)(NNP Mladjan)(NNP Dinkic)) |BT| (BOW (Minister *)(Thorbjoern *)(Jagland *)) |BT| (BOP (NNP *)(NNP *)(NNP *)) |ET| 
-0.0094493822537106818976182509572936  |BT| (NP (NNP Duma)(NN speaker)(NNP Gennady)(NNP Seleznyov)) |BT| (BOW (speaker *)(Gennady *)(Seleznyov *)) |BT| (BOP (NN *)(NNP *)(NNP *)) |ET| 
-0.0094436829863180672683942162848325  |BT| (NP (DT a)(NNP South)(NNP Carolina)(NN hospital)) |BT| (BOW (South *)(Carolina *)(hospital *)) |BT| (BOP (JJ *)(NNP *)(NN *)) |ET| 
-0.0069457322389029716586117402243872  |BT| (NP (NP (DT the)(NNP New)(NNP York)(NNP Stock)(NNP Exchange))(SBAR (WHADVP (WRB where))(S (NP (NN volume))(VP (VBD was)(NP (QP (CD 493.10)(CD million))(NNS shares)))))) |BT| (BOW (New *)(York *)(Stock *)(Exchange *)(where *)) |BT| (BOP (NNP *)(NNP *)(NNP *)(NNP *)(WRB *)) |ET| 
-0.0084036254564954643297980396710045  |BT| (NP (NP (PRP$ its)(NN number))(PP (IN of)(NP (NN premium)(NNS passengers)))) |BT| (BOW (its *)(number *)(of *)(premium *)(passengers *)) |BT| (BOP (PRP$ *)(NN *)(IN *)(JJ *)(NNS *)) |ET| 
