SVM-light Version V5.01-TK-1.2
5 # kernel type
3 # kernel parameter -d 
1 # kernel parameter -g 
1 # kernel parameter -s 
1 # kernel parameter -r 
empty# kernel parameter -u 
0.4 # kernel parameter -L 
1 # kernel parameter -T 
T # kernel parameter -C 
1 # kernel parameter -F 
1 # kernel parameter -S 
1.000000 # kernel parameter -D 
3 # kernel parameter -N 
S # kernel parameter -V 
S # kernel parameter -W 
0 # highest feature index 
16257 # number of training documents 
423 # number of support vectors plus 1 
1.0622692 # threshold b, each following line is a SV (starting with alpha*y)
-0.04400655488978628265828163534934  |BT| (SBAR (WHNP (WP who))(S (VP (VBD vandalized)(NP (DT the)(NN tomb))(PP (IN with)(NP (PRP$ his)(NNS friends)))))) |BT| (BOW (who *)(vandalized *)(the *)(tomb *)(with *)(his *)(friends *)) |BT| (BOP (WP *)(VBD *)(DT *)(NN *)(IN *)(PRP$ *)(NNS *)) |ET| 
-0.076835553394934405502247898311907  |BT| (S (PP (IN From)(PP (IN inside)(NP (DT the)(NN shuttle))))(, ,)(NP (NNP Michael)(NNP Lopez-Alegria))(VP (VBD used)(NP (DT the)(NN robot)(NN arm))(S (VP (TO to)(VP (VB give)(NP (NNP Chiao))(NP (DT a)(NN lift))))))(. .)) |BT| (BOW (shuttle *)(, *)(Michael *)(Lopez-Alegria *)(used *)(the *)(robot *)(arm *)(to *)(give *)(Chiao *)) |BT| (BOP (NN *)(, *)(NNP *)(NNP *)(VBD *)(DT *)(NN *)(NN *)(TO *)(VB *)(NNP *)) |ET| 
-0.099351062088355590606880696213921  |BT| (NP (NP (NN actress))(SBAR (S (NP (NP (NNP Sandra)(NNP Bullock))(CC and)(NP (CD three)(JJ other)(NNS people)))(VP (VP (VBD missed)(NP (DT a)(NN runway)))(CC and)(VP (VBD crashed)(PP (IN at)(NP (DT the)(NNP Jackson)(NNP Hole)(NNP Airport)))(NP (JJ early)(NNP Wednesday))))))) |BT| (BOW (actress *)(Sandra *)(Bullock *)) |BT| (BOP (NN *)(NNP *)(NNP *)) |ET| 
-0.014251875423560822486734878111747  |BT| (NP (DT the)(JJ senior)(NNP U.S.)(NN official)) |BT| (BOW (U.S. *)(official *)) |BT| (BOP (NNP *)(NN *)) |ET| 
-0.011739592146171394515530295166172  |BT| (S (NP (NP (NNP WARREN)(, ,)(NNP Mich.)(NNP [AP)(NNP ]))(: -)(NP (NP (DT A)(NN drug)(NN suspect))(VP (VBG being)(VP (VBN booked)(PP (IN at)(NP (NN police)(NNS headquarters)))))))(VP (VP (VBD shot)(NP (DT a)(JJ veteran)(NN detective))(PP (TO to)(NP (NN death))))(CC and)(VP (ADVP (RB then))(VBD turned)(NP (DT the)(NN gun))(PP (IN on)(NP (PRP himself)))))(. .)) |BT| (BOW (headquarters *)(shot *)(a *)(veteran *)(detective *)(to *)(death *)(and *)(then *)(turned *)(the *)(gun *)) |BT| (BOP (NNS *)(VBD *)(DT *)(NN *)(JJ *)(TO *)(VB *)(CC *)(RB *)(VBD *)(DT *)(NN *)) |ET| 
0.33333333333351461424953754431044  |BT| (NP (NP (DT the)(NN city)(POS 's))(NN stock)(NN exchange)(NN building)) |BT| (BOW (city *)('s *)(stock *)(exchange *)(building *)) |BT| (BOP (NN *)(POS *)(NN *)(NN *)(NN *)) |ET| 
0.33333333333351461424953754431044  |BT| (SBAR (WHADVP (WRB where))(S (NP (PRP he))(VP (VBD was)(VP (VBG campaigning))))) |BT| (BOW (where *)(he *)) |BT| (BOP (WRB *)(PRP *)) |ET| 
0.33333333333351461424953754431044  |BT| (SBAR (WHADVP (WRB where))(S (NP (QP (RB about)(CD 30))(NNS students))(VP (MD would)(VP (VB study)(PP (IN during)(NP (DT the)(NN day))))))) |BT| (BOW (where *)(about *)(30 *)(students *)) |BT| (BOP (WRB *)(IN *)(CD *)(NNS *)) |ET| 
0.33333333333351461424953754431044  |BT| (VP (VBD vandalized)(NP (DT the)(NN tomb))(PP (IN with)(NP (PRP$ his)(NNS friends)))) |BT| (BOW (tomb *)(with *)(his *)(friends *)) |BT| (BOP (NN *)(IN *)(PRP$ *)(NNS *)) |ET| 
0.33333333333351461424953754431044  |BT| (S (NP (NP (NNP WARREN)(, ,)(NNP Mich.)(NNP [AP)(NNP ]))(: -)(NP (NP (DT A)(NN drug)(NN suspect))(VP (VBG being)(VP (VBN booked)(PP (IN at)(NP (NN police)(NNS headquarters)))))))(VP (VP (VBD shot)(NP (DT a)(JJ veteran)(NN detective))(PP (TO to)(NP (NN death))))(CC and)(VP (ADVP (RB then))(VBD turned)(NP (DT the)(NN gun))(PP (IN on)(NP (PRP himself)))))(. .)) |BT| (BOW (headquarters *)(shot *)(a *)(veteran *)(detective *)) |BT| (BOP (NNS *)(VBD *)(DT *)(NN *)(JJ *)) |ET| 
-0.29159140607166100789271467874642  |BT| (SBAR (WHADVP (WRB where))(S (NP (PRP he))(VP (VBD was)(NP (DT a)(JJ former)(NN assistant))))) |BT| (BOW (where *)(he *)) |BT| (BOP (WRB *)(PRP *)) |ET| 
0.33333333333351461424953754431044  |BT| (S (PP (IN From)(PP (IN inside)(NP (DT the)(NN shuttle))))(, ,)(NP (NNP Michael)(NNP Lopez-Alegria))(VP (VBD used)(NP (DT the)(NN robot)(NN arm))(S (VP (TO to)(VP (VB give)(NP (NNP Chiao))(NP (DT a)(NN lift))))))(. .)) |BT| (BOW (shuttle *)(, *)(Michael *)(Lopez-Alegria *)) |BT| (BOP (NN *)(, *)(NNP *)(NNP *)) |ET| 
-0.091080231833505609362333643730381  |BT| (S (NP (NP (NNP WARREN)(, ,)(NNP Mich.)(NNP [AP)(NNP ]))(: -)(NP (NP (DT A)(NN drug)(NN suspect))(VP (VBG being)(VP (VBN booked)(PP (IN at)(NP (NN police)(NNS headquarters)))))))(VP (VP (VBD shot)(NP (DT a)(JJ veteran)(NN detective))(PP (TO to)(NP (NN death))))(CC and)(VP (ADVP (RB then))(VBD turned)(NP (DT the)(NN gun))(PP (IN on)(NP (PRP himself)))))(. .)) |BT| (BOW (police *)(headquarters *)(shot *)(a *)(veteran *)(detective *)) |BT| (BOP (NN *)(NNS *)(VBD *)(DT *)(NN *)(JJ *)) |ET| 
0.33333333333351461424953754431044  |BT| (SBAR (WHADVP (WRB where))(S (NP (PRP he))(VP (VBZ has)(VP (VBN spent)(NP (NP (RB much))(PP (IN of)(NP (PRP$ his)(NN time))))(PP (IN since)(NP (DT the)(NN election))))))) |BT| (BOW (where *)(he *)) |BT| (BOP (WRB *)(PRP *)) |ET| 
-0.25552094462118174478248988634732  |BT| (SBAR (WHADVP (WRB where))(S (NP (PRP he))(VP (VBZ has)(VP (VBN toiled)(PP (IN for)(NP (CD 54)(NNS years))))))) |BT| (BOW (where *)(he *)) |BT| (BOP (WRB *)(PRP *)) |ET| 
0.33333333333351461424953754431044  |BT| (S (PP (IN In)(NP (JJ northern)(NNP Alabama)))(, ,)(S (NP (QP (RB about)(CD eight))(NNS homes))(VP (VBD were)(VP (VBN reported)(S (VP (VBN destroyed))))))(CC and)(S (NP (NNS trees)(CC and)(NN power)(NNS lines))(VP (VBD were)(VP (VBN toppled)(PP (IN in)(NP (NNP Limestone)(NNP County))))))(. .)) |BT| (BOW (Alabama *)(, *)(about *)(eight *)(homes *)) |BT| (BOP (NNP *)(, *)(IN *)(JJ *)(NNS *)) |ET| 
-0.099283587047890586863019279917353  |BT| (VP (VBD vandalized)(NP (DT the)(NN tomb))(PP (IN with)(NP (PRP$ his)(NNS friends)))) |BT| (BOW (tomb *)(with *)(his *)) |BT| (BOP (NN *)(IN *)(PRP$ *)) |ET| 
-0.097432252068154256985366146182059  |BT| (VP (VBD was)(ADVP (RB home))(PP (TO to)(NP (DT a)(JJ Jewish)(NN seminary)))(, ,)(SBAR (WHADVP (WRB where))(S (NP (QP (RB about)(CD 30))(NNS students))(VP (MD would)(VP (VB study)(PP (IN during)(NP (DT the)(NN day)))))))) |BT| (BOW (seminary *)(, *)(where *)(about *)(30 *)(students *)) |BT| (BOP (NN *)(, *)(WRB *)(IN *)(CD *)(NNS *)) |ET| 
0.33333333333351461424953754431044  |BT| (NP (DT a)(NNP Tokyo)(NN subway)(NN attack)) |BT| (BOW (Tokyo *)(subway *)) |BT| (BOP (NNP *)(NN *)) |ET| 
-0.08182624673717600605193922547187  |BT| (S (PP (IN From)(PP (IN inside)(NP (DT the)(NN shuttle))))(, ,)(NP (NNP Michael)(NNP Lopez-Alegria))(VP (VBD used)(NP (DT the)(NN robot)(NN arm))(S (VP (TO to)(VP (VB give)(NP (NNP Chiao))(NP (DT a)(NN lift))))))(. .)) |BT| (BOW (Michael *)(Lopez-Alegria *)(used *)(the *)(robot *)(arm *)(to *)(give *)(Chiao *)) |BT| (BOP (NNP *)(NNP *)(VBD *)(DT *)(NN *)(NN *)(TO *)(VB *)(NNP *)) |ET| 
0.33333333333351461424953754431044  |BT| (VP (VBG carrying)(PRT (RP out))(NP (NP (DT a)(JJ terrorist)(NN attack))(PP (IN in)(NP (NNP Denmark))))(PP (IN in)(NP (NP (CD 1985))(SBAR (WHNP (WDT that))(S (VP (VBD killed)(NP (DT a)(JJ Jewish)(JJ civilian)))))))) |BT| (BOW (Denmark *)(in *)(1985 *)(that *)(killed *)(a *)(Jewish *)(civilian *)) |BT| (BOP (NNP *)(IN *)(CD *)(IN *)(VBD *)(DT *)(JJ *)(NN *)) |ET| 
-0.16990728539679061936951143252372  |BT| (NP (NP (DT a)(NNP Tokyo)(NN subway)(NN attack))(PP (IN in)(NP (CD 1995)))(SBAR (WHNP (WDT that))(S (VP (VBD killed)(NP (CD 12)(NNS people)))))) |BT| (BOW (subway *)(attack *)(in *)(1995 *)(that *)(killed *)(12 *)(people *)) |BT| (BOP (NN *)(NN *)(IN *)(CD *)(IN *)(JJ *)(CD *)(NNS *)) |ET| 
0.33333333333351461424953754431044  |BT| (S (CC But)(NP (NP (DT the)(JJ 2,000-mile)(NN frontier))(PP (IN between)(NP (NP (NNP Mexico))(CC and)(NP (DT the)(NNP United)(NNPS States)))))(VP (VBZ is)(VP (VBN delineated)(PP (IN by)(NP (NP (NN steel)(NNS walls))(CC and)(NP (NP (JJ barbed)(NN wire))(, ,)(VP (VBN watched)(PRT (RP over))(PP (IN by)(NP (JJ uniformed)(NNS guards)))(PP (IN from)(NP (DT the)(NNP Border)(NNP Patrol)))))))))(. .)) |BT| (BOW (frontier *)(between *)(Mexico *)(and *)(the *)(United *)(States *)(is *)(delineated *)(by *)(steel *)(walls *)(and *)(barbed *)(wire *)(, *)(watched *)(over *)(by *)(uniformed *)(guards *)) |BT| (BOP (NN *)(IN *)(NNP *)(CC *)(DT *)(NNP *)(NNPS *)(VBZ *)(VBN *)(IN *)(JJ *)(NNS *)(CC *)(JJ *)(NN *)(, *)(VBD *)(IN *)(IN *)(JJ *)(NNS *)) |ET| 
-0.075909580178778024439623095531715  |BT| (S (PP (IN In)(NP (JJ northern)(NNP Alabama)))(, ,)(S (NP (QP (RB about)(CD eight))(NNS homes))(VP (VBD were)(VP (VBN reported)(S (VP (VBN destroyed))))))(CC and)(S (NP (NNS trees)(CC and)(NN power)(NNS lines))(VP (VBD were)(VP (VBN toppled)(PP (IN in)(NP (NNP Limestone)(NNP County))))))(. .)) |BT| (BOW (homes *)(were *)(reported *)(destroyed *)(and *)(trees *)(and *)(power *)(lines *)(were *)(toppled *)(in *)(Limestone *)(County *)) |BT| (BOP (NNS *)(VBD *)(VBN *)(VBN *)(CC *)(NNS *)(CC *)(NN *)(NNS *)(VBD *)(VBN *)(IN *)(NNP *)(NNP *)) |ET| 
0.33333333333351461424953754431044  |BT| (NP (NP (DT a)(NNP Tokyo)(NN subway)(NN attack))(PP (IN in)(NP (CD 1995)))(SBAR (WHNP (WDT that))(S (VP (VBD killed)(NP (CD 12)(NNS people)))))) |BT| (BOW (Tokyo *)(subway *)(attack *)(in *)(1995 *)(that *)(killed *)(12 *)(people *)) |BT| (BOP (NNP *)(NN *)(NN *)(IN *)(CD *)(IN *)(JJ *)(CD *)(NNS *)) |ET| 
-0.047887418164771378137345436698524  |BT| (VP (VBG carrying)(PRT (RP out))(NP (NP (DT a)(JJ terrorist)(NN attack))(PP (IN in)(NP (NNP Denmark))))(PP (IN in)(NP (NP (CD 1985))(SBAR (WHNP (WDT that))(S (VP (VBD killed)(NP (DT a)(JJ Jewish)(JJ civilian)))))))) |BT| (BOW (terrorist *)(attack *)(in *)(Denmark *)(in *)(1985 *)(that *)(killed *)(a *)(Jewish *)(civilian *)) |BT| (BOP (JJ *)(NN *)(IN *)(NNP *)(IN *)(CD *)(IN *)(VBD *)(DT *)(JJ *)(NN *)) |ET| 
0.33333333333351461424953754431044  |BT| (S (NP (DT The)(JJ Russian)(, ,)(JJ Ukrainian)(CC and)(JJ Turkish)(NNS planes))(VP (VBD carried)(NP (NNS businessmen)(CC and)(NNS doctors)))(. .)) |BT| (BOW (planes *)(carried *)(businessmen *)(and *)(doctors *)) |BT| (BOP (NNS *)(VBD *)(NNS *)(CC *)(NNS *)) |ET| 
-0.13264914262377971998496661854006  |BT| (S (NP (DT The)(JJ Russian)(, ,)(JJ Ukrainian)(CC and)(JJ Turkish)(NNS planes))(VP (VBD carried)(NP (NNS businessmen)(CC and)(NNS doctors)))(. .)) |BT| (BOW (Turkish *)(planes *)(carried *)(businessmen *)(and *)(doctors *)) |BT| (BOP (JJ *)(NNS *)(VBD *)(NNS *)(CC *)(NNS *)) |ET| 
0.33333333333351461424953754431044  |BT| (VP (VBD traveled)(PP (TO to)(NP (NNP Houston)))(PP (IN in)(NP (JJ late)(NNP September)))(S (VP (TO to)(VP (VB attack)(NP (NP (NNP Bush)(POS 's))(JJ environmental)(NN record))(PP (IN at)(NP (NP (DT a)(NN park))(PP (IN in)(NP (NP (DT the)(NN shadow))(PP (IN of)(NP (DT an)(NN oil)(NN refinery))))))))))) |BT| (BOW (Houston *)(in *)(late *)(September *)(to *)(attack *)(Bush *)('s *)(environmental *)(record *)(at *)(a *)(park *)) |BT| (BOP (NNP *)(IN *)(JJ *)(NNP *)(TO *)(VB *)(NNP *)(POS *)(JJ *)(NN *)(IN *)(DT *)(NN *)) |ET| 
-0.0615971756331783817928204882719  |BT| (VP (VB attack)(NP (NP (NNP Bush)(POS 's))(JJ environmental)(NN record))(PP (IN at)(NP (NP (DT a)(NN park))(PP (IN in)(NP (NP (DT the)(NN shadow))(PP (IN of)(NP (DT an)(NN oil)(NN refinery)))))))) |BT| (BOW (Bush *)('s *)(environmental *)(record *)(at *)(a *)(park *)) |BT| (BOP (NNP *)(POS *)(JJ *)(NN *)(IN *)(DT *)(NN *)) |ET| 
0.33333333333351461424953754431044  |BT| (S (NP (DT The)(JJ Russian)(, ,)(JJ Ukrainian)(CC and)(JJ Turkish)(NNS planes))(VP (VBD carried)(NP (NNS businessmen)(CC and)(NNS doctors)))(. .)) |BT| (BOW (planes *)(carried *)(businessmen *)) |BT| (BOP (NNS *)(VBD *)(NNS *)) |ET| 
-0.14893880065260667322490917285904  |BT| (S (NP (DT The)(JJ Russian)(, ,)(JJ Ukrainian)(CC and)(JJ Turkish)(NNS planes))(VP (VBD carried)(NP (NNS businessmen)(CC and)(NNS doctors)))(. .)) |BT| (BOW (Turkish *)(planes *)(carried *)(businessmen *)) |BT| (BOP (JJ *)(NNS *)(VBD *)(NNS *)) |ET| 
0.33333333333351461424953754431044  |BT| (SBAR (WHADVP (WRB where))(S (NP (DT a)(JJ black)(NN man))(VP (VBD was)(VP (VBN dragged)(PP (TO to)(NP (PRP$ his)(NN death)))(PP (IN from)(NP (DT a)(NN pickup)(NN truck)))(PP (IN by)(NP (NP (CD three)(JJ white)(NNS men))(PP (IN in)(NP (CD 1998))))))))) |BT| (BOW (where *)(a *)(black *)(man *)) |BT| (BOP (WRB *)(DT *)(JJ *)(NN *)) |ET| 
-0.082517144754833057773701909809461  |BT| (SBAR (WHADVP (WRB where))(S (NP (DT a)(JJ black)(NN man))(VP (VBD was)(VP (VBN dragged)(PP (TO to)(NP (PRP$ his)(NN death)))(PP (IN from)(NP (DT a)(NN pickup)(NN truck)))(PP (IN by)(NP (NP (CD three)(JJ white)(NNS men))(PP (IN in)(NP (CD 1998))))))))) |BT| (BOW (where *)(a *)(black *)(man *)(was *)(dragged *)(to *)(his *)) |BT| (BOP (WRB *)(DT *)(JJ *)(NN *)(VBD *)(VBN *)(TO *)(PRP$ *)) |ET| 
0.33333333333351461424953754431044  |BT| (NP (NP (DT A)(NN plane))(VP (VBG carrying)(NP (NP (NN actress))(SBAR (S (NP (NP (NNP Sandra)(NNP Bullock))(CC and)(NP (CD three)(JJ other)(NNS people)))(VP (VP (VBD missed)(NP (DT a)(NN runway)))(CC and)(VP (VBD crashed)(PP (IN at)(NP (DT the)(NNP Jackson)(NNP Hole)(NNP Airport)))(NP (JJ early)(NNP Wednesday))))))))) |BT| (BOW (plane *)(carrying *)(actress *)(Sandra *)(Bullock *)) |BT| (BOP (NN *)(VBG *)(NN *)(NNP *)(NNP *)) |ET| 
-0.14168706111920884027632894230919  |BT| (NP (NP (DT A)(NN plane))(VP (VBG carrying)(NP (NP (NN actress))(SBAR (S (NP (NP (NNP Sandra)(NNP Bullock))(CC and)(NP (CD three)(JJ other)(NNS people)))(VP (VP (VBD missed)(NP (DT a)(NN runway)))(CC and)(VP (VBD crashed)(PP (IN at)(NP (DT the)(NNP Jackson)(NNP Hole)(NNP Airport)))(NP (JJ early)(NNP Wednesday))))))))) |BT| (BOW (plane *)(carrying *)(actress *)) |BT| (BOP (NN *)(VBG *)(NN *)) |ET| 
0.33333333333351461424953754431044  |BT| (SBAR (WHADVP (WRB where))(S (NP (DT a)(JJ black)(NN man))(VP (VBD was)(VP (VBN dragged)(PP (TO to)(NP (PRP$ his)(NN death)))(PP (IN from)(NP (DT a)(NN pickup)(NN truck)))(PP (IN by)(NP (NP (CD three)(JJ white)(NNS men))(PP (IN in)(NP (CD 1998))))))))) |BT| (BOW (where *)(a *)(black *)(man *)(was *)(dragged *)(to *)(his *)(death *)(from *)(a *)(pickup *)(truck *)(by *)(three *)(white *)(men *)) |BT| (BOP (WRB *)(DT *)(JJ *)(NN *)(VBD *)(VBN *)(TO *)(PRP$ *)(NN *)(IN *)(DT *)(NN *)(NN *)(IN *)(CD *)(JJ *)(NNS *)) |ET| 
-0.1007404888645559992710332153365  |BT| (S (CC But)(NP (NP (DT the)(JJ 2,000-mile)(NN frontier))(PP (IN between)(NP (NP (NNP Mexico))(CC and)(NP (DT the)(NNP United)(NNPS States)))))(VP (VBZ is)(VP (VBN delineated)(PP (IN by)(NP (NP (NN steel)(NNS walls))(CC and)(NP (NP (JJ barbed)(NN wire))(, ,)(VP (VBN watched)(PRT (RP over))(PP (IN by)(NP (JJ uniformed)(NNS guards)))(PP (IN from)(NP (DT the)(NNP Border)(NNP Patrol)))))))))(. .)) |BT| (BOW (United *)(States *)(is *)(delineated *)(by *)(steel *)(walls *)) |BT| (BOP (NNP *)(NNPS *)(VBZ *)(VBN *)(IN *)(JJ *)(NNS *)) |ET| 
-0.076653941261875566115513436216133  |BT| (SBAR (WHADVP (WRB where))(S (NP (DT a)(JJ black)(NN man))(VP (VBD was)(VP (VBN dragged)(PP (TO to)(NP (PRP$ his)(NN death)))(PP (IN from)(NP (DT a)(NN pickup)(NN truck)))(PP (IN by)(NP (NP (CD three)(JJ white)(NNS men))(PP (IN in)(NP (CD 1998))))))))) |BT| (BOW (where *)(a *)(black *)(man *)(was *)(dragged *)(to *)(his *)(death *)(from *)(a *)(pickup *)(truck *)) |BT| (BOP (WRB *)(DT *)(JJ *)(NN *)(VBD *)(VBN *)(TO *)(PRP$ *)(NN *)(IN *)(DT *)(NN *)(NN *)) |ET| 
0.33333333333351461424953754431044  |BT| (PP (IN from)(NP (DT the)(JJ presidential)(NN palace))) |BT| (BOW (Jakarta *)('s *)(main *)(park *)) |BT| (BOP (NNP *)(POS *)(NN *)(NN *)) |ET| 
-0.040252564819879835256166700219183  |BT| (NP (DT the)(NNP Attica)(NN state)(NN prison)) |BT| (BOW (Attica *)(state *)) |BT| (BOP (NNP *)(NN *)) |ET| 
0.33333333333351461424953754431044  |BT| (NP (NP (DT a)(NN location))(PP (IN for)(NP (DT a)(NNS sports)(NN bar)))(, ,)(VP (VBG using)(NP (NP (DT the)(NNS Broncos)(POS '))(NN name)(CC and)(NNS colors)))) |BT| (BOW (location *)(for *)(a *)(sports *)(bar *)) |BT| (BOP (NN *)(IN *)(DT *)(NNS *)(NN *)) |ET| 
-0.10952128152817466877344543263462  |BT| (NP (NP (DT the)(JJ perfect)(NN place))(PP (IN for)(NP (DT a)(NNS sports)(NN bar)))) |BT| (BOW (place *)(for *)(a *)(sports *)(bar *)) |BT| (BOP (NN *)(IN *)(DT *)(NNS *)(NN *)) |ET| 
0.33333333333351461424953754431044  |BT| (NP (PRP$ his)(JJ central)(NNP Texas)(NN ranch)) |BT| (BOW (Texas *)(ranch *)) |BT| (BOP (NNP *)(NN *)) |ET| 
-0.027734118646409736813618351902733  |BT| (NP (NNP Texas)(NN governor)) |BT| (BOW (Texas *)(governor *)) |BT| (BOP (NNP *)(NN *)) |ET| 
0.33333333333351461424953754431044  |BT| (SBAR (WHADVP (WRB where))(S (NP (DT the)(NNS bomblets))(VP (VBD were)(VP (VBN found))))) |BT| (BOW (where *)(the *)(bomblets *)) |BT| (BOP (WRB *)(DT *)(NNS *)) |ET| 
-0.11602597662154558177949326136513  |BT| (VP (ADVP (RB extensively))(VB search)(NP (DT the)(NN area))(SBAR (WHADVP (WRB where))(S (NP (DT the)(NNS bomblets))(VP (VBD were)(VP (VBN found)))))) |BT| (BOW (area *)(where *)(the *)(bomblets *)) |BT| (BOP (NN *)(WRB *)(DT *)(NNS *)) |ET| 
0.33333333333351461424953754431044  |BT| (NP (DT the)(NN county)(NN jail)) |BT| (BOW (county *)(jail *)) |BT| (BOP (NN *)(NN *)) |ET| 
-0.070177504401400941924649146130832  |BT| (NP (DT the)(NN court)(NN building)) |BT| (BOW (court *)(building *)) |BT| (BOP (NN *)(NN *)) |ET| 
0.33333333333351461424953754431044  |BT| (NP (NP (DT A)(NN plane))(VP (VBG carrying)(NP (NP (NN actress))(SBAR (S (NP (NP (NNP Sandra)(NNP Bullock))(CC and)(NP (CD three)(JJ other)(NNS people)))(VP (VP (VBD missed)(NP (DT a)(NN runway)))(CC and)(VP (VBD crashed)(PP (IN at)(NP (DT the)(NNP Jackson)(NNP Hole)(NNP Airport)))(NP (JJ early)(NNP Wednesday))))))))) |BT| (BOW (plane *)(carrying *)(actress *)(Sandra *)(Bullock *)(and *)(three *)(other *)(people *)) |BT| (BOP (NN *)(VBG *)(NN *)(NNP *)(NNP *)(CC *)(CD *)(JJ *)(NNS *)) |ET| 
-0.056699198490519006621290998282348  |BT| (NP (NP (NN actress))(SBAR (S (NP (NP (NNP Sandra)(NNP Bullock))(CC and)(NP (CD three)(JJ other)(NNS people)))(VP (VP (VBD missed)(NP (DT a)(NN runway)))(CC and)(VP (VBD crashed)(PP (IN at)(NP (DT the)(NNP Jackson)(NNP Hole)(NNP Airport)))(NP (JJ early)(NNP Wednesday))))))) |BT| (BOW (actress *)(Sandra *)(Bullock *)(and *)(three *)(other *)(people *)) |BT| (BOP (NN *)(NNP *)(NNP *)(CC *)(CD *)(JJ *)(NNS *)) |ET| 
0.33333333333351461424953754431044  |BT| (S (CC But)(NP (NP (DT the)(JJ 2,000-mile)(NN frontier))(PP (IN between)(NP (NP (NNP Mexico))(CC and)(NP (DT the)(NNP United)(NNPS States)))))(VP (VBZ is)(VP (VBN delineated)(PP (IN by)(NP (NP (NN steel)(NNS walls))(CC and)(NP (NP (JJ barbed)(NN wire))(, ,)(VP (VBN watched)(PRT (RP over))(PP (IN by)(NP (JJ uniformed)(NNS guards)))(PP (IN from)(NP (DT the)(NNP Border)(NNP Patrol)))))))))(. .)) |BT| (BOW (frontier *)(between *)(Mexico *)(and *)(the *)(United *)(States *)(is *)(delineated *)(by *)(steel *)(walls *)) |BT| (BOP (NN *)(IN *)(NNP *)(CC *)(DT *)(NNP *)(NNPS *)(VBZ *)(VBN *)(IN *)(JJ *)(NNS *)) |ET| 
-0.081000188882734650008821120081848  |BT| (S (CC But)(NP (NP (DT the)(JJ 2,000-mile)(NN frontier))(PP (IN between)(NP (NP (NNP Mexico))(CC and)(NP (DT the)(NNP United)(NNPS States)))))(VP (VBZ is)(VP (VBN delineated)(PP (IN by)(NP (NP (NN steel)(NNS walls))(CC and)(NP (NP (JJ barbed)(NN wire))(, ,)(VP (VBN watched)(PRT (RP over))(PP (IN by)(NP (JJ uniformed)(NNS guards)))(PP (IN from)(NP (DT the)(NNP Border)(NNP Patrol)))))))))(. .)) |BT| (BOW (Mexico *)(and *)(the *)(United *)(States *)(is *)(delineated *)(by *)(steel *)(walls *)) |BT| (BOP (NNP *)(CC *)(DT *)(NNP *)(NNPS *)(VBZ *)(VBN *)(IN *)(JJ *)(NNS *)) |ET| 
-0.064727762972001237629093850500794  |BT| (S (CC But)(NP (NP (DT the)(JJ 2,000-mile)(NN frontier))(PP (IN between)(NP (NP (NNP Mexico))(CC and)(NP (DT the)(NNP United)(NNPS States)))))(VP (VBZ is)(VP (VBN delineated)(PP (IN by)(NP (NP (NN steel)(NNS walls))(CC and)(NP (NP (JJ barbed)(NN wire))(, ,)(VP (VBN watched)(PRT (RP over))(PP (IN by)(NP (JJ uniformed)(NNS guards)))(PP (IN from)(NP (DT the)(NNP Border)(NNP Patrol)))))))))(. .)) |BT| (BOW (frontier *)(between *)(Mexico *)(and *)(the *)(United *)(States *)(is *)(delineated *)(by *)(steel *)(walls *)(and *)(barbed *)(wire *)(, *)(watched *)(over *)(by *)(uniformed *)(guards *)(from *)(the *)(Border *)(Patrol *)) |BT| (BOP (NN *)(IN *)(NNP *)(CC *)(DT *)(NNP *)(NNPS *)(VBZ *)(VBN *)(IN *)(JJ *)(NNS *)(CC *)(JJ *)(NN *)(, *)(VBD *)(IN *)(IN *)(JJ *)(NNS *)(IN *)(DT *)(NNP *)(NNP *)) |ET| 
0.33333333333351461424953754431044  |BT| (S (CC But)(NP (NP (DT the)(JJ 2,000-mile)(NN frontier))(PP (IN between)(NP (NP (NNP Mexico))(CC and)(NP (DT the)(NNP United)(NNPS States)))))(VP (VBZ is)(VP (VBN delineated)(PP (IN by)(NP (NP (NN steel)(NNS walls))(CC and)(NP (NP (JJ barbed)(NN wire))(, ,)(VP (VBN watched)(PRT (RP over))(PP (IN by)(NP (JJ uniformed)(NNS guards)))(PP (IN from)(NP (DT the)(NNP Border)(NNP Patrol)))))))))(. .)) |BT| (BOW (frontier *)(between *)(Mexico *)(and *)(the *)(United *)(States *)(is *)(delineated *)(by *)(steel *)(walls *)(and *)(barbed *)(wire *)) |BT| (BOP (NN *)(IN *)(NNP *)(CC *)(DT *)(NNP *)(NNPS *)(VBZ *)(VBN *)(IN *)(JJ *)(NNS *)(CC *)(JJ *)(NN *)) |ET| 
-0.073437405603122049568831641863653  |BT| (S (CC But)(NP (NP (DT the)(JJ 2,000-mile)(NN frontier))(PP (IN between)(NP (NP (NNP Mexico))(CC and)(NP (DT the)(NNP United)(NNPS States)))))(VP (VBZ is)(VP (VBN delineated)(PP (IN by)(NP (NP (NN steel)(NNS walls))(CC and)(NP (NP (JJ barbed)(NN wire))(, ,)(VP (VBN watched)(PRT (RP over))(PP (IN by)(NP (JJ uniformed)(NNS guards)))(PP (IN from)(NP (DT the)(NNP Border)(NNP Patrol)))))))))(. .)) |BT| (BOW (United *)(States *)(is *)(delineated *)(by *)(steel *)(walls *)(and *)(barbed *)(wire *)) |BT| (BOP (NNP *)(NNPS *)(VBZ *)(VBN *)(IN *)(JJ *)(NNS *)(CC *)(JJ *)(NN *)) |ET| 
-0.047547740900188720236663186824444  |BT| (S (NP (NNS Officers))(VP (VBD said)(SBAR (S (NP (NNS investigators))(VP (VBD were)(VP (VBG reviewing)(NP (NP (DT a)(NN videotape))(PP (IN of)(NP (DT the)(NN lockup)(NN area))))(PP (IN in)(NP (DT an)(NN effort)))(S (VP (TO to)(VP (VB figure)(PRT (RP out))(NP (NP (DT the)(NN sequence))(PP (IN of)(NP (NP (NNS events))(SBAR (WHNP (WDT that))(S (VP (VBD led)(PP (TO to)(NP (DT the)(NN shooting)))(NP (NNP Wednesday))))))))(NP (NN evening))))))))))(. .)) |BT| (BOW (Officers *)(said *)(investigators *)) |BT| (BOP (NNS *)(VBD *)(NNS *)) |ET| 
-0.083994250410339907353396426969994  |BT| (NP (NP (DT a)(NN blast))(PP (IN at)(NP (NP (DT the)(NN city)(POS 's))(NN stock)(NN exchange)(NN building)))(SBAR (WHPP (IN in)(WHNP (WDT which)))(S (NP (CD 15)(NNS people))(VP (VBD were)(VP (VBN killed)))))) |BT| (BOW (city *)('s *)(stock *)(exchange *)(building *)(in *)(which *)(15 *)(people *)) |BT| (BOP (NN *)(POS *)(NN *)(NN *)(NN *)(IN *)(WDT *)(CD *)(NNS *)) |ET| 
-0.10310967072158383484037358357455  |BT| (NP (PRP$ his)(JJ central)(NNP Texas)(NN ranch)) |BT| (BOW (his *)(central *)(Texas *)(ranch *)) |BT| (BOP (PRP$ *)(JJ *)(NNP *)(NN *)) |ET| 
-0.032431234406522138624673345930205  |BT| (VP (VBN watched)(PRT (RP over))(PP (IN by)(NP (JJ uniformed)(NNS guards)))(PP (IN from)(NP (DT the)(NNP Border)(NNP Patrol)))) |BT| (BOW (guards *)(from *)(the *)(Border *)(Patrol *)) |BT| (BOP (NNS *)(IN *)(DT *)(NNP *)(NNP *)) |ET| 
-0.025283759664845070758154577106325  |BT| (NP (NP (DT a)(JJ two-hour)(NN drive)(NN north))(PP (IN of)(NP (RB here)))(, ,)(SBAR (WHADVP (WRB where))(S (NP (PRP he))(VP (VBZ has)(VP (VBN spent)(NP (NP (RB much))(PP (IN of)(NP (PRP$ his)(NN time))))(PP (IN since)(NP (DT the)(NN election)))))))) |BT| (BOW (here *)(, *)(where *)) |BT| (BOP (RB *)(, *)(WRB *)) |ET| 
-0.034345542577874983714014689439864  |BT| (NP (NP (DT the)(NNP SEC)(POS 's))(NN enforcement)(NN division)) |BT| (BOW (SEC *)('s *)(enforcement *)(division *)) |BT| (BOP (NNP *)(POS *)(NN *)(NN *)) |ET| 
-0.064781000998905532983762611820566  |BT| (NP (NP (DT a)(NN location))(PP (IN for)(NP (DT a)(NNS sports)(NN bar)))(, ,)(VP (VBG using)(NP (NP (DT the)(NNS Broncos)(POS '))(NN name)(CC and)(NNS colors)))) |BT| (BOW (location *)(for *)(a *)(sports *)(bar *)(, *)(using *)(the *)(Broncos *)) |BT| (BOP (NN *)(IN *)(DT *)(NNS *)(NN *)(, *)(VBG *)(DT *)(NNPS *)) |ET| 
-0.067078983448090781505079860380647  |BT| (NP (NP (DT the)(JJ 2,000-mile)(NN frontier))(PP (IN between)(NP (NP (NNP Mexico))(CC and)(NP (DT the)(NNP United)(NNPS States))))) |BT| (BOW (frontier *)(between *)(Mexico *)) |BT| (BOP (NN *)(IN *)(NNP *)) |ET| 
-0.020899598286446132572313771902373  |BT| (NP (NP (NNP Jefferson)(POS 's))(NNS friends)) |BT| (BOW (Jefferson *)('s *)(friends *)) |BT| (BOP (NNP *)(POS *)(NNS *)) |ET| 
-0.062763724204704426923306925800716  |BT| (S (CC But)(NP (NP (DT the)(JJ 2,000-mile)(NN frontier))(PP (IN between)(NP (NP (NNP Mexico))(CC and)(NP (DT the)(NNP United)(NNPS States)))))(VP (VBZ is)(VP (VBN delineated)(PP (IN by)(NP (NP (NN steel)(NNS walls))(CC and)(NP (NP (JJ barbed)(NN wire))(, ,)(VP (VBN watched)(PRT (RP over))(PP (IN by)(NP (JJ uniformed)(NNS guards)))(PP (IN from)(NP (DT the)(NNP Border)(NNP Patrol)))))))))(. .)) |BT| (BOW (Mexico *)(and *)(the *)(United *)(States *)(is *)(delineated *)(by *)(steel *)(walls *)(and *)(barbed *)(wire *)(, *)(watched *)(over *)(by *)(uniformed *)(guards *)(from *)(the *)(Border *)(Patrol *)) |BT| (BOP (NNP *)(CC *)(DT *)(NNP *)(NNPS *)(VBZ *)(VBN *)(IN *)(JJ *)(NNS *)(CC *)(JJ *)(NN *)(, *)(VBD *)(IN *)(IN *)(JJ *)(NNS *)(IN *)(DT *)(NNP *)(NNP *)) |ET| 
-0.063828808395363187400128879289696  |BT| (VP (VBN dragged)(PP (TO to)(NP (PRP$ his)(NN death)))(PP (IN from)(NP (DT a)(NN pickup)(NN truck)))(PP (IN by)(NP (NP (CD three)(JJ white)(NNS men))(PP (IN in)(NP (CD 1998)))))) |BT| (BOW (truck *)(by *)(three *)(white *)(men *)) |BT| (BOP (NN *)(IN *)(CD *)(JJ *)(NNS *)) |ET| 
-0.016241497510181033409049078386488  |BT| (NP (NP (DT the)(NN world)(POS 's))(ADJP (RBS most)(JJ populous))(JJ Muslim)(NN country)) |BT| (BOW (Muslim *)(country *)) |BT| (BOP (NNP *)(NN *)) |ET| 
-0.077745660503824365328284784482094  |BT| (VP (VBZ is)(ADVP (RB home))(PP (TO to)(NP (NNP Jasper)))(, ,)(SBAR (WHADVP (WRB where))(S (NP (DT a)(JJ black)(NN man))(VP (VBD was)(VP (VBN dragged)(PP (TO to)(NP (PRP$ his)(NN death)))(PP (IN from)(NP (DT a)(NN pickup)(NN truck)))(PP (IN by)(NP (NP (CD three)(JJ white)(NNS men))(PP (IN in)(NP (CD 1998)))))))))) |BT| (BOW (Jasper *)(, *)(where *)(a *)(black *)(man *)) |BT| (BOP (NNP *)(, *)(WRB *)(DT *)(JJ *)(NN *)) |ET| 
-0.080705756514482945851440831575019  |BT| (NP (NP (DT the)(JJ same)(NN chemical))(VP (VBN used)(PP (IN in)(NP (NP (DT a)(NNP Tokyo)(NN subway)(NN attack))(PP (IN in)(NP (CD 1995)))(SBAR (WHNP (WDT that))(S (VP (VBD killed)(NP (CD 12)(NNS people))))))))) |BT| (BOW (chemical *)(used *)(in *)(a *)(Tokyo *)(subway *)) |BT| (BOP (NN *)(VBN *)(IN *)(DT *)(NNP *)(NN *)) |ET| 
-0.041206181953679164864379202981581  |BT| (NP (NP (DT every)(NN one))(PP (IN of)(NP (PRP$ my)(JJ teammates)(NN .'')))) |BT| (BOW (one *)(of *)(my *)(teammates *)) |BT| (BOP (NN *)(IN *)(PRP$ *)(NNS *)) |ET| 
-0.043068752018427754191254308580028  |BT| (NP (NP (DT the)(NN property))(PP (IN as)(NP (NP (DT a)(NN location))(PP (IN for)(NP (DT a)(NNS sports)(NN bar)))(, ,)(VP (VBG using)(NP (NP (DT the)(NNS Broncos)(POS '))(NN name)(CC and)(NNS colors)))))) |BT| (BOW (property *)(as *)(a *)(location *)) |BT| (BOP (NN *)(IN *)(DT *)(NN *)) |ET| 
-0.019243769110088047163964475316789  |BT| (NP (NP (PRP$ his)(NN father))(, ,)(NP (NNP Hafez)(NNP Assad))(, ,)) |BT| (BOW (father *)(, *)(Hafez *)(Assad *)) |BT| (BOP (NN *)(, *)(NNP *)(NNP *)) |ET| 
-0.076410927046455023869953038229141  |BT| (S (PP (IN In)(NP (JJ northern)(NNP Alabama)))(, ,)(S (NP (QP (RB about)(CD eight))(NNS homes))(VP (VBD were)(VP (VBN reported)(S (VP (VBN destroyed))))))(CC and)(S (NP (NNS trees)(CC and)(NN power)(NNS lines))(VP (VBD were)(VP (VBN toppled)(PP (IN in)(NP (NNP Limestone)(NNP County))))))(. .)) |BT| (BOW (Alabama *)(, *)(about *)(eight *)(homes *)(were *)(reported *)(destroyed *)(and *)(trees *)(and *)(power *)(lines *)(were *)(toppled *)(in *)(Limestone *)(County *)) |BT| (BOP (NNP *)(, *)(IN *)(JJ *)(NNS *)(VBD *)(VBN *)(VBN *)(CC *)(NNS *)(CC *)(NN *)(NNS *)(VBD *)(VBN *)(IN *)(NNP *)(NNP *)) |ET| 
-0.027081146094847217270507044872829  |BT| (NP (DT the)(NN league)(NN office)) |BT| (BOW (league *)(office *)) |BT| (BOP (NN *)(NN *)) |ET| 
-0.035409457000117362801550058293287  |BT| (SBAR (WHADVP (WRB where))(S (NP (NNP Michele)(NNP Roy))(VP (VBD told)(NP (PRP them))(SBAR (S (NP (DT the)(CD two))(VP (VBD had)(VP (VBN been)(VP (VBG arguing))))))))) |BT| (BOW (where *)(Michele *)(Roy *)) |BT| (BOP (WRB *)(NNP *)(NNP *)) |ET| 
-0.020409363707759850536938017739885  |BT| (S (NP (NN administration)(NNS officials))(VP (VP (VBD told)(NP (NP (NNS members))(PP (IN of)(NP (NNP Congress))))(PP (IN in)(NP (DT a)(NN briefing)))(NP (NNP Wednesday))(SBAR (IN that)(S (NP (NNP Clinton))(VP (VBD sent)(NP (DT a)(NN letter))(PP (TO to)(NP (NP (NNP Russian)(NNP President)(NNP Vladimir)(NNP Putin))(ADVP (NP (CD three)(NNS weeks))(RB ago))))(S (VP (VBG ``asking)(S (NP (PRP him))(VP (TO to)(VP (VB step)(PRT (RP in)))))))))))(CC and)(VP (VBP do)(SBAR (WHADJP (RB exactly)(WP what))(S (NP (NNP Bush))(VP (VP (VBD suggested))('' '')(CC and)(VP (PP (IN on)(NP (NNP Saturday)))(ADVP (RB personally))(VBD urged)(NP (NNP Putin))(PP (IN by)(NP (NN phone)))(S (VP (TO to)(VP (VB intervene))))))))))) |BT| (BOW (officials *)(told *)(members *)) |BT| (BOP (NNS *)(VBD *)(NNS *)) |ET| 
-0.024327332124765000537225390075946  |BT| (SBAR (WHNP (WP who))(S (VP (VBD vandalized)(NP (DT the)(NN tomb))(PP (IN with)(NP (PRP$ his)(NNS friends)))))) |BT| (BOW (who *)(vandalized *)(the *)(tomb *)) |BT| (BOP (WP *)(VBD *)(DT *)(NN *)) |ET| 
-0.050278780793477320654183415626903  |BT| (NP (NNS businessmen)(CC and)(NNS doctors)) |BT| (BOW (businessmen *)(and *)(doctors *)) |BT| (BOP (NNS *)(CC *)(NNS *)) |ET| 
-0.062591928531060686546894089588022  |BT| (S (CC But)(NP (NP (DT the)(JJ 2,000-mile)(NN frontier))(PP (IN between)(NP (NP (NNP Mexico))(CC and)(NP (DT the)(NNP United)(NNPS States)))))(VP (VBZ is)(VP (VBN delineated)(PP (IN by)(NP (NP (NN steel)(NNS walls))(CC and)(NP (NP (JJ barbed)(NN wire))(, ,)(VP (VBN watched)(PRT (RP over))(PP (IN by)(NP (JJ uniformed)(NNS guards)))(PP (IN from)(NP (DT the)(NNP Border)(NNP Patrol)))))))))(. .)) |BT| (BOW (Mexico *)(and *)(the *)(United *)(States *)(is *)(delineated *)(by *)(steel *)(walls *)(and *)(barbed *)(wire *)(, *)(watched *)(over *)(by *)(uniformed *)(guards *)) |BT| (BOP (NNP *)(CC *)(DT *)(NNP *)(NNPS *)(VBZ *)(VBN *)(IN *)(JJ *)(NNS *)(CC *)(JJ *)(NN *)(, *)(VBD *)(IN *)(IN *)(JJ *)(NNS *)) |ET| 
-0.069194929005788580189673098175263  |BT| (VP (VBG carrying)(PRT (RP out))(NP (NP (DT a)(JJ terrorist)(NN attack))(PP (IN in)(NP (NNP Denmark))))(PP (IN in)(NP (NP (CD 1985))(SBAR (WHNP (WDT that))(S (VP (VBD killed)(NP (DT a)(JJ Jewish)(JJ civilian)))))))) |BT| (BOW (Denmark *)(in *)(1985 *)(that *)(killed *)(a *)(Jewish *)) |BT| (BOP (NNP *)(IN *)(CD *)(IN *)(VBD *)(DT *)(JJ *)) |ET| 
-0.025172875655779247683341282026959  |BT| (VP (VBD said)(PP (IN in)(NP (NNP Florida)))(, ,)(SBAR (WHADVP (WRB where))(S (NP (PRP he))(VP (VBD was)(VP (VBG campaigning)))))) |BT| (BOW (Florida *)(, *)(where *)) |BT| (BOP (NNP *)(, *)(WRB *)) |ET| 
-0.07459679648944729513093676587232  |BT| (S (NP (DT The)(JJ Russian)(, ,)(JJ Ukrainian)(CC and)(JJ Turkish)(NNS planes))(VP (VBD carried)(NP (NNS businessmen)(CC and)(NNS doctors)))(. .)) |BT| (BOW (Ukrainian *)(and *)(Turkish *)(planes *)(carried *)(businessmen *)(and *)(doctors *)) |BT| (BOP (JJ *)(CC *)(JJ *)(NNS *)(VBD *)(NNS *)(CC *)(NNS *)) |ET| 
-0.012968369379914895106464811647129  |BT| (NP (DT the)(NNP Suharto)(NN clan)) |BT| (BOW (Suharto *)(clan *)) |BT| (BOP (NNP *)(NN *)) |ET| 
-0.029464607913903474029071460904561  |BT| (S (NP (NP (DT The)(JJ <ORG-e6)(JJ type="NOM"><FAC-e25)(NN type="NOM">embassy<))(VP (VBN located)(PP (IN across)(NP (NP (NNP Jakarta)(POS 's))(JJ main)(NN park)))(PP (IN from)(NP (DT the)(JJ presidential)(NN palace)))))(, ,)(VP (VBD suspended)(NP (PRP$ its)(JJ public)(NNS functions))(PP (IN for)(ADVP (IN at)(JJS least)))(NP (DT a)(NN week))(PP (IN after)(NP (NP (DT a)(NN series))(PP (IN of)(NP (NNS protests)(CC and)(NNS threats))))))(. .)) |BT| (BOW (Jakarta *)('s *)(main *)(park *)(from *)(the *)(presidential *)) |BT| (BOP (NNP *)(POS *)(NN *)(NN *)(IN *)(DT *)(JJ *)) |ET| 
-0.054751446760099853339198716639658  |BT| (NP (NP (DT A)(NN plane))(VP (VBG carrying)(NP (NP (NN actress))(SBAR (S (NP (NP (NNP Sandra)(NNP Bullock))(CC and)(NP (CD three)(JJ other)(NNS people)))(VP (VP (VBD missed)(NP (DT a)(NN runway)))(CC and)(VP (VBD crashed)(PP (IN at)(NP (DT the)(NNP Jackson)(NNP Hole)(NNP Airport)))(NP (JJ early)(NNP Wednesday))))))))) |BT| (BOW (plane *)(carrying *)(actress *)(Sandra *)(Bullock *)(and *)(three *)(other *)(people *)(missed *)(a *)(runway *)) |BT| (BOP (NN *)(VBG *)(NN *)(NNP *)(NNP *)(CC *)(CD *)(JJ *)(NNS *)(VBD *)(DT *)(NN *)) |ET| 
-0.028830183168139660726536632751049  |BT| (VP (VBD traveled)(PP (TO to)(NP (NNP Houston)))(PP (IN in)(NP (JJ late)(NNP September)))(S (VP (TO to)(VP (VB attack)(NP (NP (NNP Bush)(POS 's))(JJ environmental)(NN record))(PP (IN at)(NP (NP (DT a)(NN park))(PP (IN in)(NP (NP (DT the)(NN shadow))(PP (IN of)(NP (DT an)(NN oil)(NN refinery))))))))))) |BT| (BOW (Houston *)(in *)(late *)(September *)(to *)(attack *)(Bush *)) |BT| (BOP (NNP *)(IN *)(JJ *)(NNP *)(TO *)(VB *)(NNP *)) |ET| 
-0.036202404308760455231563923916838  |BT| (VP (VBD was)(ADVP (IN aboard)(NP (DT the)(NN plane)))(PP (IN with)(NP (NP (CD two)(NN crew)(NNS members))(CC and)(NP (DT another)(NN person))))) |BT| (BOW (plane *)(with *)(two *)(crew *)(members *)) |BT| (BOP (NN *)(IN *)(CD *)(NN *)(NNS *)) |ET| 
-0.043410058207109886163621581545158  |BT| (S (NP (DT a)(JJ black)(NN man))(VP (VBD was)(VP (VBN dragged)(PP (TO to)(NP (PRP$ his)(NN death)))(PP (IN from)(NP (DT a)(NN pickup)(NN truck)))(PP (IN by)(NP (NP (CD three)(JJ white)(NNS men))(PP (IN in)(NP (CD 1998)))))))) |BT| (BOW (man *)(was *)(dragged *)(to *)(his *)(death *)(from *)(a *)(pickup *)(truck *)(by *)(three *)(white *)(men *)) |BT| (BOP (NN *)(VBD *)(VBN *)(TO *)(PRP$ *)(NN *)(IN *)(DT *)(NN *)(NN *)(IN *)(CD *)(JJ *)(NNS *)) |ET| 
-0.022406241304207309000817716082565  |BT| (NP (DT the)(NNP Alabama)(JJ -Florida)(NN line)) |BT| (BOW (-Florida *)(line *)) |BT| (BOP (NNP *)(NN *)) |ET| 
-0.044384324432560393058899705920339  |BT| (SBAR (WHADVP (WRB where))(S (NP (PRP he))(VP (VBZ has)(VP (VBN spent)(NP (NP (RB much))(PP (IN of)(NP (PRP$ his)(NN time))))(PP (IN since)(NP (DT the)(NN election))))))) |BT| (BOW (where *)(he *)(has *)(spent *)(much *)(of *)(his *)) |BT| (BOP (WRB *)(PRP *)(VBZ *)(JJ *)(JJ *)(IN *)(PRP$ *)) |ET| 
-0.051758608887624436845076303370661  |BT| (NP (NP (NN steel)(NNS walls))(CC and)(NP (NP (JJ barbed)(NN wire))(, ,)(VP (VBN watched)(PRT (RP over))(PP (IN by)(NP (JJ uniformed)(NNS guards)))(PP (IN from)(NP (DT the)(NNP Border)(NNP Patrol)))))) |BT| (BOW (walls *)(and *)(barbed *)(wire *)) |BT| (BOP (NNS *)(CC *)(JJ *)(NN *)) |ET| 
-0.017691849526384695323599771654699  |BT| (S (NP (CD Two)(JJ major)(NNP South)(JJ Korean)(NN labor)(NNS groups))(VP (VBD rallied)(NP (NP (QP (RB about)(CD 15,000))(NNS workers))(PP (IN in)(NP (JJ central)(NNP Seoul))))(PP (IN on)(NP (NNP Sunday)))(S (VP (TO to)(VP (VB protest)(NP (NP (NN government)(JJ -led)(JJ corporate)(NN restructuring))(SBAR (S (NP (PRP they))(VP (VBP fear)(SBAR (S (VP (MD will)(VP (VB lead)(PP (TO to)(NP (JJ mass)(NNS layoffs)))))))))))))))) |BT| (BOW (groups *)(rallied *)(about *)(15,000 *)(workers *)) |BT| (BOP (NNS *)(VBD *)(IN *)(CD *)(NNS *)) |ET| 
-0.038491423028280867535411147173363  |BT| (NP (NP (NNP JACKSON)(, ,)(NNP Wyo.)(NNP [AP)(NNP ]))(: -)(NP (NP (DT A)(NN plane))(VP (VBG carrying)(NP (NP (NN actress))(SBAR (S (NP (NP (NNP Sandra)(NNP Bullock))(CC and)(NP (CD three)(JJ other)(NNS people)))(VP (VP (VBD missed)(NP (DT a)(NN runway)))(CC and)(VP (VBD crashed)(PP (IN at)(NP (DT the)(NNP Jackson)(NNP Hole)(NNP Airport)))(NP (JJ early)(NNP Wednesday)))))))))(. .)) |BT| (BOW ((AP *)()*)(- *)(A *)(plane *)(carrying *)(actress *)(Sandra *)(Bullock *)) |BT| (BOP (NNP *)(NNP *)(, *)(DT *)(NN *)(VBG *)(NN *)(NNP *)(NNP *)) |ET| 
-0.062459976407390073449565903729308  |BT| (S (CC But)(NP (NP (DT the)(JJ 2,000-mile)(NN frontier))(PP (IN between)(NP (NP (NNP Mexico))(CC and)(NP (DT the)(NNP United)(NNPS States)))))(VP (VBZ is)(VP (VBN delineated)(PP (IN by)(NP (NP (NN steel)(NNS walls))(CC and)(NP (NP (JJ barbed)(NN wire))(, ,)(VP (VBN watched)(PRT (RP over))(PP (IN by)(NP (JJ uniformed)(NNS guards)))(PP (IN from)(NP (DT the)(NNP Border)(NNP Patrol)))))))))(. .)) |BT| (BOW (United *)(States *)(is *)(delineated *)(by *)(steel *)(walls *)(and *)(barbed *)(wire *)(, *)(watched *)(over *)(by *)(uniformed *)(guards *)(from *)(the *)(Border *)(Patrol *)) |BT| (BOP (NNP *)(NNPS *)(VBZ *)(VBN *)(IN *)(JJ *)(NNS *)(CC *)(JJ *)(NN *)(, *)(VBD *)(IN *)(IN *)(JJ *)(NNS *)(IN *)(DT *)(NNP *)(NNP *)) |ET| 
-0.038829262397439230636297935461698  |BT| (SBAR (WHADVP (WRB where))(S (NP (NN veteran)(NNP GOP)(NNP Rep)))) |BT| (BOW (where *)(veteran *)(GOP *)) |BT| (BOP (WRB *)(NN *)(NNP *)) |ET| 
-0.073449125986224883533282081771176  |BT| (S (NP (DT The)(JJ Russian)(, ,)(JJ Ukrainian)(CC and)(JJ Turkish)(NNS planes))(VP (VBD carried)(NP (NNS businessmen)(CC and)(NNS doctors)))(. .)) |BT| (BOW (Ukrainian *)(and *)(Turkish *)(planes *)(carried *)(businessmen *)) |BT| (BOP (JJ *)(CC *)(JJ *)(NNS *)(VBD *)(NNS *)) |ET| 
-0.025574186585311006747467388322548  |BT| (VP (VBD recalled)(NP (NNS interviews))(PP (IN with)(NP (NP (NNP Barbara)(NNP Walters))(CC and)(NP (NNP Larry)(NNP King))))(SBAR (WHADVP (WRB when))(S (NP (NP (DT a)(NN book))(PP (IN about)(NP (PRP him))))(VP (VBD was)(VP (VBN published)(PP (IN in)(NP (CD 1992)))))))) |BT| (BOW (Larry *)(King *)(when *)(a *)(book *)(about *)(him *)) |BT| (BOP (NNP *)(NNP *)(WRB *)(DT *)(NN *)(IN *)(PRP *)) |ET| 
-0.062510317274148616273343748162006  |BT| (S (CC But)(NP (NP (DT the)(JJ 2,000-mile)(NN frontier))(PP (IN between)(NP (NP (NNP Mexico))(CC and)(NP (DT the)(NNP United)(NNPS States)))))(VP (VBZ is)(VP (VBN delineated)(PP (IN by)(NP (NP (NN steel)(NNS walls))(CC and)(NP (NP (JJ barbed)(NN wire))(, ,)(VP (VBN watched)(PRT (RP over))(PP (IN by)(NP (JJ uniformed)(NNS guards)))(PP (IN from)(NP (DT the)(NNP Border)(NNP Patrol)))))))))(. .)) |BT| (BOW (United *)(States *)(is *)(delineated *)(by *)(steel *)(walls *)(and *)(barbed *)(wire *)(, *)(watched *)(over *)(by *)(uniformed *)(guards *)) |BT| (BOP (NNP *)(NNPS *)(VBZ *)(VBN *)(IN *)(JJ *)(NNS *)(CC *)(JJ *)(NN *)(, *)(VBD *)(IN *)(IN *)(JJ *)(NNS *)) |ET| 
-0.044496202341302408533874057638968  |BT| (VP (VBZ is)(ADVP (RB home))(PP (TO to)(NP (NNP Jasper)))(, ,)(SBAR (WHADVP (WRB where))(S (NP (DT a)(JJ black)(NN man))(VP (VBD was)(VP (VBN dragged)(PP (TO to)(NP (PRP$ his)(NN death)))(PP (IN from)(NP (DT a)(NN pickup)(NN truck)))(PP (IN by)(NP (NP (CD three)(JJ white)(NNS men))(PP (IN in)(NP (CD 1998)))))))))) |BT| (BOW (home *)(to *)(Jasper *)(, *)(where *)(a *)(black *)(man *)) |BT| (BOP (NN *)(TO *)(NNP *)(, *)(WRB *)(DT *)(JJ *)(NN *)) |ET| 
-0.032151381757866956401237246154778  |BT| (NP (NP (DT the)(NNP Taliban)(POS 's))(JJ supreme)(NN leader)) |BT| (BOW (Taliban *)('s *)(supreme *)(leader *)) |BT| (BOP (NNP *)(POS *)(NN *)(NN *)) |ET| 
-0.055007682935985423300362384679829  |BT| (SBAR (WHADVP (WRB where))(S (NP (PRP they))(VP (VBP are)(VP (VBG allied)(PP (IN with)(NP (DT the)(JJ ultranationalist)(NNP Radical)(NNP Party))))))) |BT| (BOW (where *)(they *)) |BT| (BOP (WRB *)(PRP *)) |ET| 
-0.030037703506769881933724519740281  |BT| (NP (NP (DT the)(NNP EU)(POS 's))(JJ executive)(NN body)) |BT| (BOW (EU *)('s *)(executive *)(body *)) |BT| (BOP (NNP *)(POS *)(NN *)(NN *)) |ET| 
-0.069648876035868098610670529069466  |BT| (VP (VBD was)(ADVP (RB home))(PP (TO to)(NP (DT a)(JJ Jewish)(NN seminary)))(, ,)(SBAR (WHADVP (WRB where))(S (NP (QP (RB about)(CD 30))(NNS students))(VP (MD would)(VP (VB study)(PP (IN during)(NP (DT the)(NN day)))))))) |BT| (BOW (Jewish *)(seminary *)(, *)(where *)(about *)(30 *)(students *)) |BT| (BOP (JJ *)(NN *)(, *)(WRB *)(IN *)(CD *)(NNS *)) |ET| 
-0.01652683884653530221875428196654  |BT| (NP (NP (CD 55)(NNS victims))(SBAR (WHNP (WP$ whose)(NX (NNS bodies)))(S (VP (VBD were)(VP (VBN recovered)))))) |BT| (BOW (victims *)(whose *)(bodies *)) |BT| (BOP (NNS *)(WP$ *)(NNS *)) |ET| 
-0.029622642993790988114044537837799  |BT| (NP (DT a)(JJ recreational)(NN vehicle)(NN park)) |BT| (BOW (vehicle *)(park *)) |BT| (BOP (NN *)(NN *)) |ET| 
-0.034043555471702853509885500216114  |BT| (NP (NP (NN director))(PP (IN of)(NP (NP (DT the)(JJ fisheries)(NN section))(PP (IN of)(NP (DT the)(NNP Gulf)(NNP Coast)(NNP Research)(NNP Laboratory)))))(PP (IN in)(NP (NNP Mississippi)))) |BT| (BOW (director *)(of *)(the *)(fisheries *)(section *)) |BT| (BOP (NN *)(IN *)(DT *)(NNS *)(NN *)) |ET| 
-0.012026194578346301872207035899009  |BT| (NP (DT The)(NNP Bush)(CC and)(NNP Gore)(NNS campaigns)) |BT| (BOW (Gore *)(campaigns *)) |BT| (BOP (NNP *)(NN *)) |ET| 
-0.036543693329626293631040567788659  |BT| (S (NP (NP (NNP WARREN)(, ,)(NNP Mich.)(NNP [AP)(NNP ]))(: -)(NP (NP (DT A)(NN drug)(NN suspect))(VP (VBG being)(VP (VBN booked)(PP (IN at)(NP (NN police)(NNS headquarters)))))))(VP (VP (VBD shot)(NP (DT a)(JJ veteran)(NN detective))(PP (TO to)(NP (NN death))))(CC and)(VP (ADVP (RB then))(VBD turned)(NP (DT the)(NN gun))(PP (IN on)(NP (PRP himself)))))(. .)) |BT| (BOW (suspect *)(being *)(booked *)(at *)(police *)(headquarters *)(shot *)(a *)(veteran *)(detective *)) |BT| (BOP (NN *)(VBG *)(VBN *)(IN *)(NN *)(NNS *)(VBD *)(DT *)(NN *)(JJ *)) |ET| 
-0.024396035953863182826895084076568  |BT| (NP (DT the)(JJ Milosevic)(NN regime)) |BT| (BOW (Milosevic *)(regime *)) |BT| (BOP (NNP *)(NN *)) |ET| 
-0.034390630667312120649636852931508  |BT| (VP (VBG retreating)(PP (TO to)(NP (NP (DT the)(NN solitude))(PP (IN of)(NP (PRP$ his)(JJ central)(NNP Texas)(NN ranch)))))(PP (IN after)(NP (NP (DT a)(JJ stunning)(NN court)(NN setback))(PP (IN in)(NP (DT the)(JJ long)(JJ drawn-out)(JJ presidential)(NN contest)))))) |BT| (BOW (Texas *)(ranch *)(after *)(a *)(stunning *)(court *)) |BT| (BOP (NNP *)(NN *)(IN *)(DT *)(NN *)(NN *)) |ET| 
-0.032461028595049137845940379065723  |BT| (NP (PRP$ his)(NNS friends)) |BT| (BOW (his *)(friends *)) |BT| (BOP (PRP$ *)(NNS *)) |ET| 
-0.067519783571211550166069059741858  |BT| (S (CC But)(NP (NP (DT the)(JJ 2,000-mile)(NN frontier))(PP (IN between)(NP (NP (NNP Mexico))(CC and)(NP (DT the)(NNP United)(NNPS States)))))(VP (VBZ is)(VP (VBN delineated)(PP (IN by)(NP (NP (NN steel)(NNS walls))(CC and)(NP (NP (JJ barbed)(NN wire))(, ,)(VP (VBN watched)(PRT (RP over))(PP (IN by)(NP (JJ uniformed)(NNS guards)))(PP (IN from)(NP (DT the)(NNP Border)(NNP Patrol)))))))))(. .)) |BT| (BOW (Mexico *)(and *)(the *)(United *)(States *)(is *)(delineated *)(by *)(steel *)(walls *)(and *)(barbed *)(wire *)) |BT| (BOP (NNP *)(CC *)(DT *)(NNP *)(NNPS *)(VBZ *)(VBN *)(IN *)(JJ *)(NNS *)(CC *)(JJ *)(NN *)) |ET| 
-0.019163337578279801554081984704681  |BT| (NP (NP (NNP God)(NNP ,'')(NNP Lieberman))(VP (VBN told)(NP (QP (RB about)(CD 500))(NNS people))(PP (IN at)(NP (NNP Bluegill)(NNP Bay)(NNP Park))))) |BT| (BOW (Lieberman *)(told *)(about *)(500 *)(people *)) |BT| (BOP (NNP *)(VBD *)(IN *)(CD *)(NNS *)) |ET| 
-0.030636159932238275771521074375414  |BT| (NP (NP (NNP JACKSON)(, ,)(NNP Wyo.)(NNP [AP)(NNP ]))(: -)(NP (NP (DT A)(NN plane))(VP (VBG carrying)(NP (NP (NN actress))(SBAR (S (NP (NP (NNP Sandra)(NNP Bullock))(CC and)(NP (CD three)(JJ other)(NNS people)))(VP (VP (VBD missed)(NP (DT a)(NN runway)))(CC and)(VP (VBD crashed)(PP (IN at)(NP (DT the)(NNP Jackson)(NNP Hole)(NNP Airport)))(NP (JJ early)(NNP Wednesday)))))))))(. .)) |BT| (BOW (Wyo. *)((AP *)()*)(- *)(A *)(plane *)(carrying *)(actress *)(Sandra *)(Bullock *)) |BT| (BOP (NNP *)(NNP *)(NNP *)(, *)(DT *)(NN *)(VBG *)(NN *)(NNP *)(NNP *)) |ET| 
-0.043852576225910148977060742936374  |BT| (NP (NP (DT the)(JJ same)(NN chemical))(VP (VBN used)(PP (IN in)(NP (NP (DT a)(NNP Tokyo)(NN subway)(NN attack))(PP (IN in)(NP (CD 1995)))(SBAR (WHNP (WDT that))(S (VP (VBD killed)(NP (CD 12)(NNS people))))))))) |BT| (BOW (chemical *)(used *)(in *)(a *)(Tokyo *)(subway *)(attack *)(in *)(1995 *)(that *)(killed *)(12 *)(people *)) |BT| (BOP (NN *)(VBN *)(IN *)(DT *)(NNP *)(NN *)(NN *)(IN *)(CD *)(IN *)(JJ *)(CD *)(NNS *)) |ET| 
-0.041160680448170783307659803540446  |BT| (S (NP (DT The)(JJ Russian)(, ,)(JJ Ukrainian)(CC and)(JJ Turkish)(NNS planes))(VP (VBD carried)(NP (NNS businessmen)(CC and)(NNS doctors)))(. .)) |BT| (BOW (Russian *)(, *)(Ukrainian *)(and *)(Turkish *)(planes *)(carried *)(businessmen *)(and *)(doctors *)) |BT| (BOP (JJ *)(, *)(JJ *)(CC *)(JJ *)(NNS *)(VBD *)(NNS *)(CC *)(NNS *)) |ET| 
-0.025255877995217466958077778826919  |BT| (NP (NP (DT A)(NN plane))(VP (VBG carrying)(NP (NP (NN actress))(SBAR (S (NP (NP (NNP Sandra)(NNP Bullock))(CC and)(NP (CD three)(JJ other)(NNS people)))(VP (VP (VBD missed)(NP (DT a)(NN runway)))(CC and)(VP (VBD crashed)(PP (IN at)(NP (DT the)(NNP Jackson)(NNP Hole)(NNP Airport)))(NP (JJ early)(NNP Wednesday))))))))) |BT| (BOW (plane *)(carrying *)(actress *)(Sandra *)(Bullock *)(and *)(three *)(other *)(people *)(missed *)(a *)(runway *)(and *)(crashed *)(at *)(the *)(Jackson *)(Hole *)(Airport *)) |BT| (BOP (NN *)(VBG *)(NN *)(NNP *)(NNP *)(CC *)(CD *)(JJ *)(NNS *)(VBD *)(DT *)(NN *)(CC *)(VBD *)(IN *)(DT *)(NNP *)(NNP *)(NNP *)) |ET| 
-0.070105737867779543970314648504427  |BT| (NP (NP (DT the)(NN property))(PP (IN as)(NP (NP (DT a)(NN location))(PP (IN for)(NP (DT a)(NNS sports)(NN bar)))(, ,)(VP (VBG using)(NP (NP (DT the)(NNS Broncos)(POS '))(NN name)(CC and)(NNS colors)))))) |BT| (BOW (property *)(as *)(a *)(location *)(for *)(a *)(sports *)(bar *)) |BT| (BOP (NN *)(IN *)(DT *)(NN *)(IN *)(DT *)(NNS *)(NN *)) |ET| 
-0.024203737283041398820060408070276  |BT| (NP (NP (NNP Yugoslavia)(POS 's))(JJR smaller)(NN republic)) |BT| (BOW (Yugoslavia *)('s *)(smaller *)(republic *)) |BT| (BOP (NNP *)(POS *)(NN *)(NN *)) |ET| 
-0.023401285462708820012123211995458  |BT| (NP (NP (NNS troops))(PP (IN from)(NP (DT the)(NN tomb)))) |BT| (BOW (troops *)(from *)(the *)(tomb *)) |BT| (BOP (NNS *)(IN *)(DT *)(NN *)) |ET| 
-0.012237082874866637288713278053365  |BT| (S (NP (NP (NNP WARREN)(, ,)(NNP Mich.)(NNP [AP)(NNP ]))(: -)(NP (NP (DT A)(NN drug)(NN suspect))(VP (VBG being)(VP (VBN booked)(PP (IN at)(NP (NN police)(NNS headquarters)))))))(VP (VP (VBD shot)(NP (DT a)(JJ veteran)(NN detective))(PP (TO to)(NP (NN death))))(CC and)(VP (ADVP (RB then))(VBD turned)(NP (DT the)(NN gun))(PP (IN on)(NP (PRP himself)))))(. .)) |BT| (BOW (Mich. *)((AP *)()*)(- *)(A *)(drug *)(suspect *)(being *)(booked *)(at *)(police *)(headquarters *)(shot *)(a *)(veteran *)(detective *)) |BT| (BOP (NNP *)(NNP *)(NNP *)(, *)(DT *)(JJ *)(NN *)(VBG *)(VBN *)(IN *)(NN *)(NNS *)(VBD *)(DT *)(NN *)(JJ *)) |ET| 
-0.030410210925845209545270719786458  |BT| (VP (VBD was)(ADVP (RB home))(PP (TO to)(NP (DT a)(JJ Jewish)(NN seminary)))(, ,)(SBAR (WHADVP (WRB where))(S (NP (QP (RB about)(CD 30))(NNS students))(VP (MD would)(VP (VB study)(PP (IN during)(NP (DT the)(NN day)))))))) |BT| (BOW (home *)(to *)(a *)(Jewish *)(seminary *)(, *)(where *)(about *)(30 *)(students *)) |BT| (BOP (NN *)(TO *)(DT *)(JJ *)(NN *)(, *)(WRB *)(IN *)(CD *)(NNS *)) |ET| 
-0.024413880386713743275706178792461  |BT| (S (PP (IN with)(NP (DT the)(JJ American)(NNS people)))(NP (NNP ,'')(NNP Bush))(VP (VBD said)(PP (IN in)(NP (NNP Florida)))(, ,)(SBAR (WHADVP (WRB where))(S (NP (PRP he))(VP (VBD was)(VP (VBG campaigning))))))) |BT| (BOW (people *)(,'' *)(Bush *)) |BT| (BOP (NNS *)(NNP *)(NNP *)) |ET| 
-0.017705978676257706772023681196515  |BT| (NP (DT the)(JJ radical)(JJ Islamic)(NN group)(NN Hamas)) |BT| (BOW (Islamic *)(group *)) |BT| (BOP (NNP *)(NN *)) |ET| 
-0.074320533803488464386077794188168  |BT| (VP (ADVP (RB extensively))(VB search)(NP (DT the)(NN area))(SBAR (WHADVP (WRB where))(S (NP (DT the)(NNS bomblets))(VP (VBD were)(VP (VBN found)))))) |BT| (BOW (area *)(where *)) |BT| (BOP (NN *)(WRB *)) |ET| 
-0.022193241963549870804373043142732  |BT| (S (SBAR (IN If)(S (VP (VBN convicted))))(, ,)(NP (PRP he))(VP (VBZ faces)(NP (NP (DT a)(NN maximum))(PP (IN of)(NP (NP (CD one)(NN year))(PP (IN in)(NP (NP (DT the)(NN county)(NN jail))(CC and)(NP (DT a)(CD $1,000)(NN fine))))))))) |BT| (BOW (he *)(faces *)(a *)(maximum *)(of *)(one *)(year *)(in *)(the *)(county *)(jail *)) |BT| (BOP (PRP *)(VBZ *)(DT *)(NN *)(IN *)(CD *)(NN *)(IN *)(DT *)(NN *)(NN *)) |ET| 
-0.01141523744325293777956975560528  |BT| (VP (VBN distributed)(PP (IN by)(NP (NNP GEMA)))(PP (TO to)(NP (NN copyright)(NNS owners)))(PP (IN through)(NP (NN recording)(NNS houses)(CC and)(NN music)(NNS distributors)))) |BT| (BOW (owners *)(through *)(recording *)(houses *)) |BT| (BOP (NNS *)(IN *)(VBG *)(NNS *)) |ET| 
-0.020132614449019554242470420035716  |BT| (NP (NP (DT this)(NN city)(POS 's))(JJ new)(NN Capitol)) |BT| (BOW (city *)('s *)(new *)(Capitol *)) |BT| (BOP (NN *)(POS *)(JJ *)(NN *)) |ET| 
-0.026143546694082548526028020319245  |BT| (S (NP (NNP Phillips))(VP (VBD said)(SBAR (S (NP (NNS players))(VP (VBD asked)(NP (NNP Dooley))(SBAR (IN if)(S (NP (NNP Donnan))(VP (MD could)(VP (VB coach)(NP (NP (DT the)(NN team))(PP (IN in)(NP (DT the)(NN bowl)(NN game))))))))))))(. .)) |BT| (BOW (Phillips *)(said *)(players *)) |BT| (BOP (NNS *)(VBD *)(NNS *)) |ET| 
-0.024614298139830573936004398660771  |BT| (VP (VBD traveled)(PP (TO to)(NP (NNP Houston)))(PP (IN in)(NP (JJ late)(NNP September)))(S (VP (TO to)(VP (VB attack)(NP (NP (NNP Bush)(POS 's))(JJ environmental)(NN record))(PP (IN at)(NP (NP (DT a)(NN park))(PP (IN in)(NP (NP (DT the)(NN shadow))(PP (IN of)(NP (DT an)(NN oil)(NN refinery))))))))))) |BT| (BOW (Houston *)(in *)(late *)(September *)(to *)(attack *)(Bush *)('s *)(environmental *)(record *)(at *)(a *)(park *)(in *)(the *)(shadow *)(of *)(an *)(oil *)(refinery *)) |BT| (BOP (NNP *)(IN *)(JJ *)(NNP *)(TO *)(VB *)(NNP *)(POS *)(JJ *)(NN *)(IN *)(DT *)(NN *)(IN *)(DT *)(NN *)(IN *)(DT *)(NN *)(NN *)) |ET| 
-0.02329538774773878134771720738172  |BT| (NP (NP (NN steel)(NNS walls))(CC and)(NP (NP (JJ barbed)(NN wire))(, ,)(VP (VBN watched)(PRT (RP over))(PP (IN by)(NP (JJ uniformed)(NNS guards)))(PP (IN from)(NP (DT the)(NNP Border)(NNP Patrol)))))) |BT| (BOW (walls *)(and *)(barbed *)(wire *)(, *)(watched *)(over *)(by *)(uniformed *)(guards *)(from *)(the *)(Border *)(Patrol *)) |BT| (BOP (NNS *)(CC *)(JJ *)(NN *)(, *)(VBD *)(IN *)(IN *)(JJ *)(NNS *)(IN *)(DT *)(NNP *)(NNP *)) |ET| 
-0.043918020599229508349470307848605  |BT| (VP (VBG carrying)(PRT (RP out))(NP (NP (DT a)(JJ terrorist)(NN attack))(PP (IN in)(NP (NNP Denmark))))(PP (IN in)(NP (NP (CD 1985))(SBAR (WHNP (WDT that))(S (VP (VBD killed)(NP (DT a)(JJ Jewish)(JJ civilian)))))))) |BT| (BOW (terrorist *)(attack *)(in *)(Denmark *)(in *)(1985 *)(that *)(killed *)(a *)(Jewish *)) |BT| (BOP (JJ *)(NN *)(IN *)(NNP *)(IN *)(CD *)(IN *)(VBD *)(DT *)(JJ *)) |ET| 
-0.035736986120535454980462475305103  |BT| (NP (DT the)(NN opposition)(NN alliance)) |BT| (BOW (opposition *)(alliance *)) |BT| (BOP (NN *)(NN *)) |ET| 
-0.025392262693695800968018971843776  |BT| (S (NP (NP (NNP Sandra)(NNP Bullock))(CC and)(NP (CD three)(JJ other)(NNS people)))(VP (VP (VBD missed)(NP (DT a)(NN runway)))(CC and)(VP (VBD crashed)(PP (IN at)(NP (DT the)(NNP Jackson)(NNP Hole)(NNP Airport)))(NP (JJ early)(NNP Wednesday))))) |BT| (BOW (Sandra *)(Bullock *)(and *)(three *)(other *)(people *)(missed *)(a *)(runway *)) |BT| (BOP (NNP *)(NNP *)(CC *)(CD *)(JJ *)(NNS *)(VBD *)(DT *)(NN *)) |ET| 
-0.023494287407765598180153787666313  |BT| (VP (VBN marred)(PP (IN by)(NP (NP (DT a)(NN series))(PP (IN of)(NP (NP (NNS bombings))(PP (IN in)(NP (NNP Jakarta)))))))(, ,)(PP (VBG including)(NP (NP (DT a)(NN blast))(PP (IN at)(NP (NP (DT the)(NN city)(POS 's))(NN stock)(NN exchange)(NN building)))(SBAR (WHPP (IN in)(WHNP (WDT which)))(S (NP (CD 15)(NNS people))(VP (VBD were)(VP (VBN killed)))))))) |BT| (BOW (Jakarta *)(, *)(including *)(a *)(blast *)(at *)(the *)(city *)('s *)(stock *)(exchange *)(building *)) |BT| (BOP (NNP *)(, *)(VBG *)(DT *)(NN *)(IN *)(DT *)(NN *)(POS *)(NN *)(NN *)(NN *)) |ET| 
-0.01769339779434740342334286822279  |BT| (NP (DT the)(CD 189)(NNP U.N.)(NN member)(NNS states)) |BT| (BOW (U.N. *)(member *)) |BT| (BOP (NNP *)(NN *)) |ET| 
-0.014547329519887386081733460230225  |BT| (NP (NP (DT the)(NN sheriff)(POS 's))(NN department)) |BT| (BOW (sheriff *)('s *)(department *)) |BT| (BOP (NN *)(POS *)(NN *)) |ET| 
-0.021604835983797796017391590339685  |BT| (SBAR (WHADVP (WRB where))(S (NP (NP (DT the)(JJ apparent)(NNS losers))(VP (VBG refusing)(S (VP (TO to)(VP (VP (VB concede))(CC and)(VP (VBZ recounts)))))))(VP (VP (VBP have)(RB either)(VP (VBN begun)))(CC or)(VP (VBP are)(ADJP (JJ likely)))))) |BT| (BOW (where *)(the *)(apparent *)(losers *)) |BT| (BOP (WRB *)(DT *)(JJ *)(NNS *)) |ET| 
-0.035132726663236218955788103812665  |BT| (NP (DT the)(NN airline)(NN industry)) |BT| (BOW (airline *)(industry *)) |BT| (BOP (NN *)(NN *)) |ET| 
-0.026739829245035290350429590944259  |BT| (SBAR (WHADVP (WRB where))(S (NP (NNP Kostunica))(VP (VBD took)(NP (NN office))))) |BT| (BOW (where *)(Kostunica *)) |BT| (BOP (WRB *)(NNP *)) |ET| 
-0.011833149338474298339907164745455  |BT| (NP (NP (DT the)(NNS passes))(PP (IN between)(NP (NP (DT the)(NN barrier)(NNS islands))(SBAR (WHNP (WDT that))(S (VP (VBP separate)(NP (DT the)(NNP Mississippi)(NNP Sound))(PP (IN from)(NP (NP (DT the)(NNP Gulf))(PP (IN of)(NP (NNP Mexico))))))))))) |BT| (BOW (passes *)(between *)(the *)(barrier *)(islands *)(that *)) |BT| (BOP (NNS *)(IN *)(DT *)(NN *)(NNS *)(WDT *)) |ET| 
-0.014369661182114528905073846942742  |BT| (NP (PRP$ Her)(NN family)) |BT| (BOW (Her *)(family *)) |BT| (BOP (NNP *)(NN *)) |ET| 
-0.037116071071790664170908513597169  |BT| (S (NP (DT a)(JJ black)(NN man))(VP (VBD was)(VP (VBN dragged)(PP (TO to)(NP (PRP$ his)(NN death)))(PP (IN from)(NP (DT a)(NN pickup)(NN truck)))(PP (IN by)(NP (NP (CD three)(JJ white)(NNS men))(PP (IN in)(NP (CD 1998)))))))) |BT| (BOW (man *)(was *)(dragged *)(to *)(his *)(death *)(from *)(a *)(pickup *)(truck *)) |BT| (BOP (NN *)(VBD *)(VBN *)(TO *)(PRP$ *)(NN *)(IN *)(DT *)(NN *)(NN *)) |ET| 
-0.022002225094721734183211836466398  |BT| (NP (NP (DT the)(VBN isolated)(JJ 1,600-acre)(NN ranch))(PP (IN about)(NP (NP (DT a)(JJ two-hour)(NN drive)(NN north))(PP (IN of)(NP (RB here)))(, ,)(SBAR (WHADVP (WRB where))(S (NP (PRP he))(VP (VBZ has)(VP (VBN spent)(NP (NP (RB much))(PP (IN of)(NP (PRP$ his)(NN time))))(PP (IN since)(NP (DT the)(NN election)))))))))) |BT| (BOW (ranch *)(about *)(a *)(two-hour *)(drive *)(north *)(of *)(here *)(, *)(where *)) |BT| (BOP (NN *)(IN *)(DT *)(JJ *)(JJ *)(NN *)(IN *)(RB *)(, *)(WRB *)) |ET| 
-0.015829922855656795160905758734771  |BT| (VP (VBD damaged)(PP (IN about)(NP (DT a)(JJ half-dozen)(NNS homes)))(PP (IN in)(NP (NNP Dale)(NNP County)))(, ,)(S (VP (VP (VBG destroying)(NP (DT a)(NN peanut)(NN mill))(PP (IN at)(NP (NNP Abbeville))))(CC and)(VP (VBG damaging)(NP (DT a)(JJ textile)(NN mill)))))) |BT| (BOW (homes *)(in *)(Dale *)(County *)) |BT| (BOP (NNS *)(IN *)(NNP *)(NNP *)) |ET| 
-0.016571752781677981380958897261735  |BT| (VP (VBN sentenced)(PP (TO to)(NP (NP (CD six)(NNS months))(PP (IN in)(NP (NN jail)))))(PP (IN for)(S (VP (VBG propositioning)(NP (NP (DT a)(NN policewoman))(VP (VBG posing)(PP (IN as)(NP (DT a)(NN prostitute))))))))) |BT| (BOW (jail *)(for *)(propositioning *)(a *)(policewoman *)) |BT| (BOP (NN *)(IN *)(VBG *)(DT *)(JJ *)) |ET| 
-0.018077402730884453013748824901086  |BT| (NP (NP (NNP JACKSON)(, ,)(NNP Wyo.)(NNP [AP)(NNP ]))(: -)(NP (NP (DT A)(NN plane))(VP (VBG carrying)(NP (NP (NN actress))(SBAR (S (NP (NP (NNP Sandra)(NNP Bullock))(CC and)(NP (CD three)(JJ other)(NNS people)))(VP (VP (VBD missed)(NP (DT a)(NN runway)))(CC and)(VP (VBD crashed)(PP (IN at)(NP (DT the)(NNP Jackson)(NNP Hole)(NNP Airport)))(NP (JJ early)(NNP Wednesday)))))))))(. .)) |BT| (BOW ((AP *)()*)(- *)(A *)(plane *)(carrying *)(actress *)(Sandra *)(Bullock *)(and *)(three *)(other *)(people *)) |BT| (BOP (NNP *)(NNP *)(, *)(DT *)(NN *)(VBG *)(NN *)(NNP *)(NNP *)(CC *)(CD *)(JJ *)(NNS *)) |ET| 
-0.016031879259682670080255917355316  |BT| (NP (DT the)(NN shuttle)(NN cargo)(NN bay)) |BT| (BOW (shuttle *)(cargo *)(bay *)) |BT| (BOP (NN *)(NN *)(NN *)) |ET| 
-0.015816075784987719543561723867242  |BT| (NP (NP (DT the)(NNPS Mets)(POS '))(NNS pitchers)) |BT| (BOW (Mets *)(' *)(pitchers *)) |BT| (BOP (NNS *)(POS *)(NNS *)) |ET| 
-0.013945919307188688746057536604894  |BT| (NP (NP (DT the)(JJ next)(JJS highest)(NN vote-getter))(, ,)(NP (NP (NNP Frank)(NNP Thomas))(PP (IN of)(NP (DT the)(NNP Chicago)(NNP White)(NNPS Sox))))) |BT| (BOW (vote-getter *)(, *)(Frank *)(Thomas *)) |BT| (BOP (NN *)(, *)(NNP *)(NNP *)) |ET| 
-0.025116411400099548922870695832898  |BT| (S (PP (IN In)(NP (NP (DT the)(NN appeal))(VP (VBN acted)(PP (IN on)(NP (NNP Monday))))))(, ,)(NP (NP (NNP Northwest)(POS 's))(NNS lawyers))(VP (VBD said)(SBAR (S (NP (NNS airlines))(VP (MD should)(RB not)(VP (VB have)(S (VP (TO to)(VP (VB ``tailor)(NP (PRP$ their)(NNS operations))('' '')(S (VP (TO to)(VP (VB comply)(PP (IN with)(NP (NP (NNS laws))(PP (IN in)(NP (JJ various)(NNS states))))))))))))))))(. .)) |BT| (BOW (lawyers *)(said *)(airlines *)) |BT| (BOP (NNS *)(VBD *)(NNS *)) |ET| 
-0.031444700781244720733109687671458  |BT| (NP (NP (DT the)(JJ same)(NN chemical))(VP (VBN used)(PP (IN in)(NP (NP (DT a)(NNP Tokyo)(NN subway)(NN attack))(PP (IN in)(NP (CD 1995)))(SBAR (WHNP (WDT that))(S (VP (VBD killed)(NP (CD 12)(NNS people))))))))) |BT| (BOW (chemical *)(used *)(in *)(a *)(Tokyo *)) |BT| (BOP (NN *)(VBN *)(IN *)(DT *)(NNP *)) |ET| 
-0.027889498850764832260651360229531  |BT| (NP (NP (DT the)(NN league)(POS 's))(NNS coaches)) |BT| (BOW (league *)('s *)(coaches *)) |BT| (BOP (NN *)(POS *)(NNS *)) |ET| 
-0.0090560771394025598585164615883514  |BT| (S (NP (NP (NNP WARREN)(, ,)(NNP Mich.)(NNP [AP)(NNP ]))(: -)(NP (NP (DT A)(NN drug)(NN suspect))(VP (VBG being)(VP (VBN booked)(PP (IN at)(NP (NN police)(NNS headquarters)))))))(VP (VP (VBD shot)(NP (DT a)(JJ veteran)(NN detective))(PP (TO to)(NP (NN death))))(CC and)(VP (ADVP (RB then))(VBD turned)(NP (DT the)(NN gun))(PP (IN on)(NP (PRP himself)))))(. .)) |BT| (BOW (headquarters *)(shot *)(a *)(veteran *)(detective *)(to *)(death *)(and *)(then *)(turned *)(the *)(gun *)(on *)(himself *)) |BT| (BOP (NNS *)(VBD *)(DT *)(NN *)(JJ *)(TO *)(VB *)(CC *)(RB *)(VBD *)(DT *)(NN *)(IN *)(PRP *)) |ET| 
-0.021556737942448611633494692796376  |BT| (NP (DT the)(JJ German)(NN star)) |BT| (BOW (German *)(star *)) |BT| (BOP (NNP *)(NN *)) |ET| 
-0.028157550707619813379345430348621  |BT| (VP (VBN dragged)(PP (TO to)(NP (PRP$ his)(NN death)))(PP (IN from)(NP (DT a)(NN pickup)(NN truck)))(PP (IN by)(NP (NP (CD three)(JJ white)(NNS men))(PP (IN in)(NP (CD 1998)))))) |BT| (BOW (his *)(death *)(from *)(a *)(pickup *)(truck *)(by *)(three *)(white *)(men *)) |BT| (BOP (PRP$ *)(NN *)(IN *)(DT *)(NN *)(NN *)(IN *)(CD *)(JJ *)(NNS *)) |ET| 
-0.016280105692424058638767547790849  |BT| (NP (NNP Hakkinen)(CC and)(NNP McLaren)(NNP teammate)(NNP David)(NNP Coulthard)) |BT| (BOW (McLaren *)(teammate *)) |BT| (BOP (NNP *)(NN *)) |ET| 
-0.01732348332070677079941312115352  |BT| (S (NP (ADJP (ADJP (JJ ``Stay)(PP (PP (IN in)(NP (NP (PRP$ your)(NNS homes))(, ,)(NP (NN play)(NN soccer))(, ,)))(CC or)(PP (IN till)(NP (DT the)(NNS fields)))(, ,)))(CC but)(ADJP (JJ don't)))(NN vote)(NN ,'')(NN party)(NN representative)(NNP Lacina)(NNP Coulibaly))(VP (VBD told)(NP (NP (QP (RB about)(CD 30))(NNS youths))(VP (VBN gathered)(PP (IN in)(NP (NP (DT the)(JJ northern)(NN village))(PP (IN of)(NP (NNP Lanviara))))))(, ,)(PP (IN near)(NP (NNP Korhogo)))))(. .)) |BT| (BOW (Lacina *)(Coulibaly *)(told *)(about *)(30 *)(youths *)) |BT| (BOP (NNP *)(NNP *)(VBD *)(IN *)(CD *)(NNS *)) |ET| 
-0.021254111550720964501914878042044  |BT| (NP (DT A)(NN car)(NN bomb)) |BT| (BOW (car *)(bomb *)) |BT| (BOP (NN *)(NN *)) |ET| 
-0.013305590609858031214685070153791  |BT| (VP (VB delegate)(NP (DT the)(NNS attacks))(PP (TO to)(NP (PRP$ his)(NNS aides)))(SBAR (IN so)(S (NP (PRP he))(VP (MD can)(VP (VB maintain)(NP (PRP$ his)(NN pledge)(S (VP (TO to)(VP (VB remain)(PP (IN above)(NP (DT the)(NN fray)))))))))))) |BT| (BOW (aides *)(so *)(he *)) |BT| (BOP (NNS *)(IN *)(PRP *)) |ET| 
-0.014799453101337062613240824759941  |BT| (NP (DT the)(JJ fashionable)(NNP Dallas)(NN suburb)) |BT| (BOW (Dallas *)(suburb *)) |BT| (BOP (NNP *)(NN *)) |ET| 
-0.018256822426048820162680641487896  |BT| (VP (VBD scored)(NP (DT a)(NN victory))(PP (IN over)(NP (PRP$ its)(NNS players)))(PP (IN on)(NP (NNP Monday)))(SBAR (WHADVP (WRB when))(S (NP (DT a)(NN jury))(VP (VBD decided)(SBAR (IN that)(S (NP (DT the)(NN league))(VP (VBD was)(RB not)(NP (NP (DT a)(NN monopoly))(PP (IN with)(NP (DT the)(NN power)(S (VP (TO to)(VP (VB depress)(NP (NNS salaries))))))))))))))) |BT| (BOW (players *)(on *)(Monday *)(when *)(a *)(jury *)) |BT| (BOP (NNS *)(IN *)(NNP *)(WRB *)(DT *)(NN *)) |ET| 
-0.024923161428271549400204065705111  |BT| (NP (NP (NN steel)(NNS walls))(CC and)(NP (NP (JJ barbed)(NN wire))(, ,)(VP (VBN watched)(PRT (RP over))(PP (IN by)(NP (JJ uniformed)(NNS guards)))(PP (IN from)(NP (DT the)(NNP Border)(NNP Patrol)))))) |BT| (BOW (walls *)(and *)(barbed *)(wire *)(, *)(watched *)(over *)(by *)(uniformed *)(guards *)) |BT| (BOP (NNS *)(CC *)(JJ *)(NN *)(, *)(VBD *)(IN *)(IN *)(JJ *)(NNS *)) |ET| 
-0.015435117847255168735398633828027  |BT| (S (NP (PRP He))(VP (VBD admitted)(S (VP (VBG carrying)(PRT (RP out))(NP (NP (DT a)(JJ terrorist)(NN attack))(PP (IN in)(NP (NNP Denmark))))(PP (IN in)(NP (NP (CD 1985))(SBAR (WHNP (WDT that))(S (VP (VBD killed)(NP (DT a)(JJ Jewish)(JJ civilian))))))))))(. .)) |BT| (BOW (He *)(admitted *)(carrying *)(out *)(a *)(terrorist *)(attack *)(in *)(Denmark *)(in *)(1985 *)(that *)(killed *)(a *)(Jewish *)(civilian *)) |BT| (BOP (PRP *)(VBD *)(VBG *)(RP *)(DT *)(JJ *)(NN *)(IN *)(NNP *)(IN *)(CD *)(IN *)(VBD *)(DT *)(JJ *)(NN *)) |ET| 
-0.013728527379140384803712926498065  |BT| (S (NP (NN state)(NN health)(CC and)(JJ environmental)(NNS experts))(VP (MD would)(VP (VB meet)(PP (IN with)(NP (NNP Army)(NNS officials)))(NP (JJ next)(NN week))(S (VP (TO to)(VP (VB ensure)(SBAR (S (NP (DT the)(NN plan))(VP (VBZ is)(ADJP (JJ sound))))))))))) |BT| (BOW (experts *)(would *)(meet *)(with *)(Army *)(officials *)) |BT| (BOP (NNS *)(MD *)(VB *)(IN *)(NNP *)(NNS *)) |ET| 
-0.018269069041653082652310047251376  |BT| (S (NP (PRP He))(VP (VBD traveled)(PP (TO to)(NP (NNP Houston)))(PP (IN in)(NP (JJ late)(NNP September)))(S (VP (TO to)(VP (VB attack)(NP (NP (NNP Bush)(POS 's))(JJ environmental)(NN record))(PP (IN at)(NP (NP (DT a)(NN park))(PP (IN in)(NP (NP (DT the)(NN shadow))(PP (IN of)(NP (DT an)(NN oil)(NN refinery)))))))))))(. .)) |BT| (BOW (He *)(traveled *)(to *)(Houston *)(in *)(late *)(September *)(to *)(attack *)(Bush *)('s *)(environmental *)(record *)(at *)(a *)(park *)) |BT| (BOP (PRP *)(VBD *)(TO *)(NNP *)(IN *)(JJ *)(NNP *)(TO *)(VB *)(NNP *)(POS *)(JJ *)(NN *)(IN *)(DT *)(NN *)) |ET| 
-0.013013168698098764863857468299102  |BT| (VP (VBN postmarked)(PP (IN in)(NP (NNP Shaw)(NNP Island)))(, ,)(PP (NP (CD 50)(NNS miles))(IN from)(SBAR (WHADVP (WRB where))(S (NP (PRP$ his)(NN wife))(VP (VBD mailed)(NP (PRP it))(PP (IN in)(NP (NNP Bellevue)))))))) |BT| (BOW (Shaw *)(Island *)(, *)(50 *)(miles *)(from *)(where *)) |BT| (BOP (NNP *)(NNP *)(, *)(CD *)(NNS *)(IN *)(WRB *)) |ET| 
-0.014253436575474688272069379024742  |BT| (NP (DT a)(NNP Pennsylvania)(NN radio)(NN station)) |BT| (BOW (Pennsylvania *)(radio *)(station *)) |BT| (BOP (NNP *)(NN *)(NN *)) |ET| 
-0.01618860657133103578275701295297  |BT| (S (PP (IN In)(NP (NP (PRP$ his)(JJ foreign)(NN policy)(NN debut))(PP (IN as)(NP (NP (NNP Syria)(POS 's))(NN president)))))(, ,)(NP (NNP Bashar)(NNP Assad))(VP (VBD met)(NP (NNP Sunday))(PP (IN with)(NP (NP (NP (NNP Egyptian)(NNP President)(NNP Hosni)(NNP Mubarak))(PP (IN in)(NP (NP (NNS talks))(PP (IN on)(NP (JJ Mideast)(NN peace))))))(CC and)(NP (NP (DT the)(VBG escalating)(NN violence))(PP (IN in)(NP (DT the)(JJ Palestinian)(NNS territories)))))))) |BT| (BOW (president *)(, *)(Bashar *)(Assad *)) |BT| (BOP (NN *)(, *)(NNP *)(NNP *)) |ET| 
-0.014963617697496411559909823552061  |BT| (NP (NP (DT a)(CD 1999)(NN school)(NN shooting))(SBAR (WHNP (WDT that))(S (VP (VBD left)(NP (NP (CD six)(JJ fellow)(NNS students))(VP (VBN wounded))))))) |BT| (BOW (school *)(shooting *)(that *)(left *)(six *)(fellow *)(students *)) |BT| (BOP (NN *)(VBG *)(IN *)(VBD *)(CD *)(NNS *)(NNS *)) |ET| 
-0.042579861984188081824864724467261  |BT| (NP (PRP$ his)(JJ central)(NNP Texas)(NN ranch)) |BT| (BOW (his *)(central *)(Texas *)) |BT| (BOP (PRP$ *)(JJ *)(NNP *)) |ET| 
-0.016482419711314474225494208781129  |BT| (NP (NP (DT the)(NN property))(PP (IN as)(NP (NP (DT a)(NN location))(PP (IN for)(NP (DT a)(NNS sports)(NN bar)))(, ,)(VP (VBG using)(NP (NP (DT the)(NNS Broncos)(POS '))(NN name)(CC and)(NNS colors)))))) |BT| (BOW (property *)(as *)(a *)(location *)(for *)(a *)(sports *)(bar *)(, *)(using *)(the *)(Broncos *)) |BT| (BOP (NN *)(IN *)(DT *)(NN *)(IN *)(DT *)(NNS *)(NN *)(, *)(VBG *)(DT *)(NNPS *)) |ET| 
-0.0051690837652848941469185817254584  |BT| (NP (DT The)(NNP Texas)(NN governor)(CC and)(JJ Republican)(NN nominee)) |BT| (BOW (Republican *)(nominee *)) |BT| (BOP (NNP *)(NN *)) |ET| 
-0.016027505171762952002056934475149  |BT| (S (NP (DT The)(NN district))(ADVP (RB also))(VP (VBZ is)(ADVP (RB home))(PP (TO to)(NP (NNP Jasper)))(, ,)(SBAR (WHADVP (WRB where))(S (NP (DT a)(JJ black)(NN man))(VP (VBD was)(VP (VBN dragged)(PP (TO to)(NP (PRP$ his)(NN death)))(PP (IN from)(NP (DT a)(NN pickup)(NN truck)))(PP (IN by)(NP (NP (CD three)(JJ white)(NNS men))(PP (IN in)(NP (CD 1998))))))))))(. .)) |BT| (BOW (district *)(also *)(is *)(home *)(to *)(Jasper *)(, *)(where *)(a *)(black *)(man *)) |BT| (BOP (NN *)(RB *)(VBZ *)(NN *)(TO *)(NNP *)(, *)(WRB *)(DT *)(JJ *)(NN *)) |ET| 
-0.035836342890854633314035027069622  |BT| (NP (NP (DT a)(NN blast))(PP (IN at)(NP (NP (DT the)(NN city)(POS 's))(NN stock)(NN exchange)(NN building)))(SBAR (WHPP (IN in)(WHNP (WDT which)))(S (NP (CD 15)(NNS people))(VP (VBD were)(VP (VBN killed)))))) |BT| (BOW (building *)(in *)(which *)(15 *)(people *)) |BT| (BOP (NN *)(IN *)(WDT *)(CD *)(NNS *)) |ET| 
-0.030900933516007034196348968180246  |BT| (VP (VBD said)(PP (IN in)(NP (NNP Florida)))(, ,)(SBAR (WHADVP (WRB where))(S (NP (PRP he))(VP (VBD was)(VP (VBG campaigning)))))) |BT| (BOW (Florida *)(, *)(where *)(he *)) |BT| (BOP (NNP *)(, *)(WRB *)(PRP *)) |ET| 
-0.010750743885482439213263639032903  |BT| (S (NP (NP (NNP WARREN)(, ,)(NNP Mich.)(NNP [AP)(NNP ]))(: -)(NP (NP (DT A)(NN drug)(NN suspect))(VP (VBG being)(VP (VBN booked)(PP (IN at)(NP (NN police)(NNS headquarters)))))))(VP (VP (VBD shot)(NP (DT a)(JJ veteran)(NN detective))(PP (TO to)(NP (NN death))))(CC and)(VP (ADVP (RB then))(VBD turned)(NP (DT the)(NN gun))(PP (IN on)(NP (PRP himself)))))(. .)) |BT| (BOW (police *)(headquarters *)(shot *)(a *)(veteran *)(detective *)(to *)(death *)(and *)(then *)(turned *)(the *)(gun *)) |BT| (BOP (NN *)(NNS *)(VBD *)(DT *)(NN *)(JJ *)(TO *)(VB *)(CC *)(RB *)(VBD *)(DT *)(NN *)) |ET| 
-0.034891788701496929958612014388564  |BT| (S (NP (DT The)(JJ Russian)(, ,)(JJ Ukrainian)(CC and)(JJ Turkish)(NNS planes))(VP (VBD carried)(NP (NNS businessmen)(CC and)(NNS doctors)))(. .)) |BT| (BOW (Russian *)(, *)(Ukrainian *)(and *)(Turkish *)(planes *)(carried *)(businessmen *)) |BT| (BOP (JJ *)(, *)(JJ *)(CC *)(JJ *)(NNS *)(VBD *)(NNS *)) |ET| 
-0.0189880890648535700926391456278  |BT| (NP (DT a)(NN party)(NN spokeswoman)) |BT| (BOW (party *)(spokeswoman *)) |BT| (BOP (NN *)(NN *)) |ET| 
-0.009810573537816698677649362991815  |BT| (S (S (NP (CD one)(NN man))(VP (VBD died)))(CC and)(S (NP (NNS dozens))(VP (VBD were)(VP (VBN injured))))) |BT| (BOW (man *)(died *)(and *)(dozens *)) |BT| (BOP (NN *)(VBD *)(CC *)(NNS *)) |ET| 
-0.014765846332904860802037738665149  |BT| (NP (NP (DT the)(NNS estuaries))(SBAR (WHNP (WDT that))(S (VP (VBP serve)(PP (IN as)(NP (NP (NNS nurseries))(PP (IN for)(NP (DT the)(NN baby)(NN fish))))))))) |BT| (BOW (estuaries *)(that *)) |BT| (BOP (NNS *)(IN *)) |ET| 
-0.032282223012340849344070647930494  |BT| (VP (VBZ is)(ADVP (RB home))(PP (TO to)(NP (NNP Jasper)))(, ,)(SBAR (WHADVP (WRB where))(S (NP (DT a)(JJ black)(NN man))(VP (VBD was)(VP (VBN dragged)(PP (TO to)(NP (PRP$ his)(NN death)))(PP (IN from)(NP (DT a)(NN pickup)(NN truck)))(PP (IN by)(NP (NP (CD three)(JJ white)(NNS men))(PP (IN in)(NP (CD 1998)))))))))) |BT| (BOW (Jasper *)(, *)(where *)) |BT| (BOP (NNP *)(, *)(WRB *)) |ET| 
-0.016120200984876580790894351480347  |BT| (NP (DT the)(NNP Bush)(JJ -Cheney)(NN transition)(NN headquarters)) |BT| (BOW (-Cheney *)(transition *)(headquarters *)) |BT| (BOP (NNP *)(NN *)(NNS *)) |ET| 
-0.017875520490841730752995530906446  |BT| (VP (VBN stabbed)(PP (IN in)(NP (NP (DT the)(NN arm))(PP (VBG following)(NP (NP (DT an)(NN argument))(PP (IN about)(NP (NNS Germans)(CC and)(NNS foreigners)))))))(PP (IN with)(NP (NP (CD two)(NNS men))(, ,)(VP (VBN aged)(NP (CD 19)(CC and)(CD 20)))))) |BT| (BOW (foreigners *)(with *)(two *)(men *)) |BT| (BOP (NNS *)(IN *)(CD *)(NNS *)) |ET| 
-0.028232760403709131202809601290937  |BT| (NP (NP (NN actress))(SBAR (S (NP (NP (NNP Sandra)(NNP Bullock))(CC and)(NP (CD three)(JJ other)(NNS people)))(VP (VP (VBD missed)(NP (DT a)(NN runway)))(CC and)(VP (VBD crashed)(PP (IN at)(NP (DT the)(NNP Jackson)(NNP Hole)(NNP Airport)))(NP (JJ early)(NNP Wednesday))))))) |BT| (BOW (actress *)(Sandra *)(Bullock *)(and *)(three *)(other *)(people *)(missed *)(a *)(runway *)) |BT| (BOP (NN *)(NNP *)(NNP *)(CC *)(CD *)(JJ *)(NNS *)(VBD *)(DT *)(NN *)) |ET| 
-0.021720935639447363357801279448722  |BT| (NP (NP (DT the)(VBN isolated)(JJ 1,600-acre)(NN ranch))(PP (IN about)(NP (NP (DT a)(JJ two-hour)(NN drive)(NN north))(PP (IN of)(NP (RB here)))(, ,)(SBAR (WHADVP (WRB where))(S (NP (PRP he))(VP (VBZ has)(VP (VBN spent)(NP (NP (RB much))(PP (IN of)(NP (PRP$ his)(NN time))))(PP (IN since)(NP (DT the)(NN election)))))))))) |BT| (BOW (ranch *)(about *)(a *)(two-hour *)(drive *)(north *)(of *)(here *)) |BT| (BOP (NN *)(IN *)(DT *)(JJ *)(JJ *)(NN *)(IN *)(RB *)) |ET| 
-0.014611202735004420391606849705113  |BT| (NP (NP (NNP JACKSON)(, ,)(NNP Wyo.)(NNP [AP)(NNP ]))(: -)(NP (NP (DT A)(NN plane))(VP (VBG carrying)(NP (NP (NN actress))(SBAR (S (NP (NP (NNP Sandra)(NNP Bullock))(CC and)(NP (CD three)(JJ other)(NNS people)))(VP (VP (VBD missed)(NP (DT a)(NN runway)))(CC and)(VP (VBD crashed)(PP (IN at)(NP (DT the)(NNP Jackson)(NNP Hole)(NNP Airport)))(NP (JJ early)(NNP Wednesday)))))))))(. .)) |BT| (BOW (Wyo. *)((AP *)()*)(- *)(A *)(plane *)(carrying *)(actress *)(Sandra *)(Bullock *)(and *)(three *)(other *)(people *)) |BT| (BOP (NNP *)(NNP *)(NNP *)(, *)(DT *)(NN *)(VBG *)(NN *)(NNP *)(NNP *)(CC *)(CD *)(JJ *)(NNS *)) |ET| 
-0.014991640292456330507686601549722  |BT| (NP (NP (NNP Gore)(POS 's))(NN campaign)(NN chairman)) |BT| (BOW (Gore *)('s *)(campaign *)(chairman *)) |BT| (BOP (NNP *)(POS *)(NN *)(NN *)) |ET| 
-0.021953943859557921436387317726258  |BT| (NP (DT the)(JJ Arab)(NN world)) |BT| (BOW (Arab *)(world *)) |BT| (BOP (NNP *)(NN *)) |ET| 
-0.022206225228406612642872985929898  |BT| (S (NP (NP (DT The)(JJ <ORG-e6)(JJ type="NOM"><FAC-e25)(NN type="NOM">embassy<))(VP (VBN located)(PP (IN across)(NP (NP (NNP Jakarta)(POS 's))(JJ main)(NN park)))(PP (IN from)(NP (DT the)(JJ presidential)(NN palace)))))(, ,)(VP (VBD suspended)(NP (PRP$ its)(JJ public)(NNS functions))(PP (IN for)(ADVP (IN at)(JJS least)))(NP (DT a)(NN week))(PP (IN after)(NP (NP (DT a)(NN series))(PP (IN of)(NP (NNS protests)(CC and)(NNS threats))))))(. .)) |BT| (BOW (Jakarta *)('s *)(main *)(park *)(from *)(the *)(presidential *)(palace *)) |BT| (BOP (NNP *)(POS *)(NN *)(NN *)(IN *)(DT *)(JJ *)(NN *)) |ET| 
-0.013188652736549968946810906800238  |BT| (NP (DT the)(NNP Alpine)(NN region)) |BT| (BOW (Alpine *)(region *)) |BT| (BOP (NNP *)(NN *)) |ET| 
-0.01180016403877755595819287748327  |BT| (NP (NP (QP (IN at)(JJS least)(CD one)))(PP (IN of)(NP (NP (DT the)(NNS bomblets))(VP (VBN found))))) |BT| (BOW (one *)(of *)(the *)(bomblets *)) |BT| (BOP (CD *)(IN *)(DT *)(NNS *)) |ET| 
-0.011789432596228655719672318014091  |BT| (NP (JJ Golan)(NN land)) |BT| (BOW (Golan *)(land *)) |BT| (BOP (NNP *)(NN *)) |ET| 
-0.013692728863952214821142483458516  |BT| (S (NP (PRP He))(VP (VBD admitted)(S (VP (VBG carrying)(PRT (RP out))(NP (NP (DT a)(JJ terrorist)(NN attack))(PP (IN in)(NP (NNP Denmark))))(PP (IN in)(NP (NP (CD 1985))(SBAR (WHNP (WDT that))(S (VP (VBD killed)(NP (DT a)(JJ Jewish)(JJ civilian))))))))))(. .)) |BT| (BOW (He *)(admitted *)(carrying *)(out *)(a *)(terrorist *)(attack *)(in *)(Denmark *)(in *)(1985 *)(that *)(killed *)(a *)(Jewish *)) |BT| (BOP (PRP *)(VBD *)(VBG *)(RP *)(DT *)(JJ *)(NN *)(IN *)(NNP *)(IN *)(CD *)(IN *)(VBD *)(DT *)(JJ *)) |ET| 
-0.013595750520623679780118919779852  |BT| (VP (VBZ is)(ADVP (RB home))(PP (TO to)(NP (NNP Jasper)))(, ,)(SBAR (WHADVP (WRB where))(S (NP (DT a)(JJ black)(NN man))(VP (VBD was)(VP (VBN dragged)(PP (TO to)(NP (PRP$ his)(NN death)))(PP (IN from)(NP (DT a)(NN pickup)(NN truck)))(PP (IN by)(NP (NP (CD three)(JJ white)(NNS men))(PP (IN in)(NP (CD 1998)))))))))) |BT| (BOW (Jasper *)(, *)(where *)(a *)(black *)(man *)(was *)(dragged *)(to *)(his *)(death *)(from *)(a *)(pickup *)(truck *)(by *)(three *)(white *)(men *)) |BT| (BOP (NNP *)(, *)(WRB *)(DT *)(JJ *)(NN *)(VBD *)(VBN *)(TO *)(PRP$ *)(NN *)(IN *)(DT *)(NN *)(NN *)(IN *)(CD *)(JJ *)(NNS *)) |ET| 
-0.020037970410560507900088467181376  |BT| (NP (NP (NNP Gallup)(POS 's))(JJ executive)(NN editor)) |BT| (BOW (Gallup *)('s *)(executive *)(editor *)) |BT| (BOP (NNP *)(POS *)(NN *)(NN *)) |ET| 
-0.012252523155999717890951572485392  |BT| (VP (VBZ is)(ADVP (RB home))(PP (TO to)(NP (NNP Jasper)))(, ,)(SBAR (WHADVP (WRB where))(S (NP (DT a)(JJ black)(NN man))(VP (VBD was)(VP (VBN dragged)(PP (TO to)(NP (PRP$ his)(NN death)))(PP (IN from)(NP (DT a)(NN pickup)(NN truck)))(PP (IN by)(NP (NP (CD three)(JJ white)(NNS men))(PP (IN in)(NP (CD 1998)))))))))) |BT| (BOW (home *)(to *)(Jasper *)(, *)(where *)(a *)(black *)(man *)(was *)(dragged *)(to *)(his *)(death *)(from *)(a *)(pickup *)(truck *)(by *)(three *)(white *)(men *)) |BT| (BOP (NN *)(TO *)(NNP *)(, *)(WRB *)(DT *)(JJ *)(NN *)(VBD *)(VBN *)(TO *)(PRP$ *)(NN *)(IN *)(DT *)(NN *)(NN *)(IN *)(CD *)(JJ *)(NNS *)) |ET| 
-0.013353975049107994280128686170883  |BT| (NP (DT a)(JJ longtime)(NNS Broncos)(NN fan)) |BT| (BOW (Broncos *)(fan *)) |BT| (BOP (NNP *)(NN *)) |ET| 
-0.011121634498201223364977074936633  |BT| (NP (NP (JJ Republican)(NN vice))(SBAR (S (NP (NP (JJ presidential)(NN candidate)(NNP Dick)(NNP Cheney))(, ,)(VP (VBN said)(PP (IN by)(NP (PRP$ his)(NN doctor)(S (VP (TO to)(VP (VB be)(VP (VBG recovering)(ADVP (RB well))(PP (IN from)(NP (DT a)(JJ mild)(NN heart)(NN attack))))))))))(, ,))(VP (VBD was)(VP (VBG being)(VP (VBN released)(PP (IN from)(NP (DT the)(NN hospital)))(NP (NNP Friday)))))))) |BT| (BOW (Republican *)(vice *)(presidential *)(candidate *)(Dick *)(Cheney *)) |BT| (BOP (NNP *)(NN *)(JJ *)(NN *)(NNP *)(NNP *)) |ET| 
-0.013572469457558482622272499895644  |BT| (VP (VB follow)(NP (NP (PRP$ his)(NN father)(POS 's))(NN course))(PP (IN in)(NP (DT any)(NNS negotiations)))(PP (IN with)(NP (NNP Israel)))) |BT| (BOW (father *)('s *)(course *)(in *)(any *)(negotiations *)(with *)(Israel *)) |BT| (BOP (NN *)(POS *)(NN *)(IN *)(DT *)(NNS *)(IN *)(NNP *)) |ET| 
-0.014321195480378773323693053498573  |BT| (SBAR (WHADVP (WRB where))(S (NP (PRP$ his)(NN wife))(VP (VBD mailed)(NP (PRP it))(PP (IN in)(NP (NNP Bellevue)))))) |BT| (BOW (where *)(his *)(wife *)) |BT| (BOP (WRB *)(PRP$ *)(NN *)) |ET| 
-0.012293668514425299884140763140294  |BT| (S (NP (NP (NNP WARREN)(, ,)(NNP Mich.)(NNP [AP)(NNP ]))(: -)(NP (NP (DT A)(NN drug)(NN suspect))(VP (VBG being)(VP (VBN booked)(PP (IN at)(NP (NN police)(NNS headquarters)))))))(VP (VP (VBD shot)(NP (DT a)(JJ veteran)(NN detective))(PP (TO to)(NP (NN death))))(CC and)(VP (ADVP (RB then))(VBD turned)(NP (DT the)(NN gun))(PP (IN on)(NP (PRP himself)))))(. .)) |BT| (BOW ((AP *)()*)(- *)(A *)(drug *)(suspect *)(being *)(booked *)(at *)(police *)(headquarters *)(shot *)(a *)(veteran *)(detective *)) |BT| (BOP (NNP *)(NNP *)(, *)(DT *)(JJ *)(NN *)(VBG *)(VBN *)(IN *)(NN *)(NNS *)(VBD *)(DT *)(NN *)(JJ *)) |ET| 
-0.012137705498130473003026708056495  |BT| (NP (NP (DT the)(NN country)(POS 's))(VBN elected)(NNS lawmakers)) |BT| (BOW (country *)('s *)(elected *)(lawmakers *)) |BT| (BOP (NN *)(POS *)(VBD *)(NNS *)) |ET| 
-0.011460554135715339540979584853631  |BT| (NP (NP (DT a)(NN plaintiff))(PP (IN against)(NP (NNP Pinochet)))(SBAR (WHADVP (WRB when))(S (NP (PRP he))(VP (VBD was)(VP (VBN stripped)(PP (IN of)(NP (PRP$ his)(JJ congressional)(NN immunity)))))))) |BT| (BOW (plaintiff *)(against *)(Pinochet *)(when *)(he *)) |BT| (BOP (NN *)(IN *)(NNP *)(WRB *)(PRP *)) |ET| 
-0.0099995311146741303054419347517978  |BT| (NP (DT The)(NNP News)(NNP Sun)(CC and)(JJ other)(JJ northern)(NNP Illinois)(NNP Copley)(NNS newspapers)) |BT| (BOW (Illinois *)(Copley *)(newspapers *)) |BT| (BOP (NNS *)(NNP *)(NNS *)) |ET| 
-0.013281718211043106250834888726331  |BT| (NP (NP (DT A)(NN detective))(CC and)(NP (DT a)(NN drug)(NN suspect))) |BT| (BOW (detective *)(and *)(a *)(drug *)(suspect *)) |BT| (BOP (NN *)(CC *)(DT *)(JJ *)(NN *)) |ET| 
-0.014572409179839864931671478132102  |BT| (VP (VBN gleaned)(PP (IN from)(NP (PRP$ his)(NNS lawyers)))(SBAR (IN that)(S (NP (DT the)(NNP Florida)(JJ high)(NN court))(VP (MD could)(VP (VB rule)(PP (IN against)(NP (PRP him)))))))) |BT| (BOW (lawyers *)(that *)(the *)(Florida *)) |BT| (BOP (NNS *)(IN *)(DT *)(NNP *)) |ET| 
-0.013393281459093556509665212672644  |BT| (NP (NP (DT a)(NN location))(PP (IN for)(NP (DT a)(NNS sports)(NN bar)))(, ,)(VP (VBG using)(NP (NP (DT the)(NNS Broncos)(POS '))(NN name)(CC and)(NNS colors)))) |BT| (BOW (bar *)(, *)(using *)(the *)(Broncos *)) |BT| (BOP (NN *)(, *)(VBG *)(DT *)(NNPS *)) |ET| 
-0.0099909591900763459332290850056779  |BT| (VP (VBD was)(ADJP (JJR busier))(PP (IN than)(NP (JJ usual)(NNP Saturday)))(PP (IN with)(NP (NP (DT the)(JJS largest)(NN movement))(PP (IN of)(NP (NNS planes)))))(SBAR (IN since)(S (NP (DT the)(NNP United)(NNPS States))(VP (VBD imposed)(NP (NNS sanctions))(PP (IN on)(NP (NNP Iraq)))(PP (IN in)(NP (CD 1990))))))) |BT| (BOW (planes *)(since *)(the *)(United *)(States *)) |BT| (BOP (NNS *)(IN *)(DT *)(NNP *)(NNPS *)) |ET| 
-0.017121556562535344275799431557061  |BT| (NP (NP (DT the)(NN pilot))(, ,)(NP (NNP Richard)(NNP Campbell))(, ,)) |BT| (BOW (pilot *)(, *)(Richard *)(Campbell *)) |BT| (BOP (NN *)(, *)(NNP *)(NNP *)) |ET| 
-0.021957639883737809644026484079404  |BT| (S (NP (NP (CD Ten))(PP (IN of)(NP (NP (DT the)(JJ Arab)(NN world)(POS 's))(JJ first)(NNS ladies))))(VP (VBD joined)(NP (NP (NNS activists))(PP (IN in)(NP (DT an)(JJ unusual)(NN gathering))))(NP (NNP Saturday))(S (VP (TO to)(VP (VB push)(PP (IN for)(NP (NP (DT the)(VBN improved)(NN status))(PP (IN of)(NP (NP (NNS women))(PP (IN in)(NP (PRP$ their)(JJ male-dominated)(NNS societies)))))))))))) |BT| (BOW (ladies *)(joined *)(activists *)) |BT| (BOP (NNS *)(VBD *)(NNS *)) |ET| 
-0.014113117651239390215600622013881  |BT| (NP (DT the)(JJ liberal)(NNP Yabloko)(NN faction)) |BT| (BOW (Yabloko *)(faction *)) |BT| (BOP (NNP *)(NN *)) |ET| 
-0.012758100613001976952887162042316  |BT| (S (NP (DT The)(NN compound))(VP (VBD was)(ADVP (RB home))(PP (TO to)(NP (DT a)(JJ Jewish)(NN seminary)))(, ,)(SBAR (WHADVP (WRB where))(S (NP (QP (RB about)(CD 30))(NNS students))(VP (MD would)(VP (VB study)(PP (IN during)(NP (DT the)(NN day))))))))(. .)) |BT| (BOW (compound *)(was *)(home *)(to *)(a *)(Jewish *)(seminary *)(, *)(where *)(about *)(30 *)(students *)) |BT| (BOP (NN *)(VBD *)(NN *)(TO *)(DT *)(JJ *)(NN *)(, *)(WRB *)(IN *)(CD *)(NNS *)) |ET| 
-0.013757517534448170104521835810374  |BT| (S (NP (PRP He))(VP (VBD traveled)(PP (TO to)(NP (NNP Houston)))(PP (IN in)(NP (JJ late)(NNP September)))(S (VP (TO to)(VP (VB attack)(NP (NP (NNP Bush)(POS 's))(JJ environmental)(NN record))(PP (IN at)(NP (NP (DT a)(NN park))(PP (IN in)(NP (NP (DT the)(NN shadow))(PP (IN of)(NP (DT an)(NN oil)(NN refinery)))))))))))(. .)) |BT| (BOW (He *)(traveled *)(to *)(Houston *)(in *)(late *)(September *)(to *)(attack *)(Bush *)('s *)(environmental *)(record *)(at *)(a *)(park *)(in *)(the *)(shadow *)(of *)(an *)(oil *)(refinery *)) |BT| (BOP (PRP *)(VBD *)(TO *)(NNP *)(IN *)(JJ *)(NNP *)(TO *)(VB *)(NNP *)(POS *)(JJ *)(NN *)(IN *)(DT *)(NN *)(IN *)(DT *)(NN *)(IN *)(DT *)(NN *)(NN *)) |ET| 
-0.023018648496129955755007401307921  |BT| (SBAR (WHADVP (WRB where))(S (NP (NN veteran)(NNP GOP)(NNP Rep)))) |BT| (BOW (where *)(veteran *)(GOP *)(Rep *)) |BT| (BOP (WRB *)(NN *)(NNP *)(NNP *)) |ET| 
-0.014751858535484588599850930279445  |BT| (NP (NP (NNP Sandra)(NNP Bullock))(CC and)(NP (CD three)(JJ other)(NNS people))) |BT| (BOW (Sandra *)(Bullock *)(and *)(three *)(other *)(people *)) |BT| (BOP (NNP *)(NNP *)(CC *)(CD *)(JJ *)(NNS *)) |ET| 
-0.0098037763726738537395366535065477  |BT| (NP (NN police)(NNS headquarters)) |BT| (BOW (police *)(headquarters *)) |BT| (BOP (NN *)(NNS *)) |ET| 
-0.012268077660270899215122497594166  |BT| (NP (DT the)(NNP BOJ)(NN board)) |BT| (BOW (BOJ *)(board *)) |BT| (BOP (NNP *)(NN *)) |ET| 
-0.011446892014824367606040667055822  |BT| (S (S (NP (PRP He))(VP (VBD said)(SBAR (S (NP (NNS vehicles))(VP (VBD were)(VP (VBN overturned)))))))(CC and)(S (NP (NNS homes))(VP (VBD were)(VP (VBN destroyed))))(. .)) |BT| (BOW (vehicles *)(were *)(overturned *)(and *)(homes *)) |BT| (BOP (NNS *)(VBD *)(JJ *)(CC *)(NNS *)) |ET| 
-0.01361023491609868879548272957436  |BT| (NP (DT the)(JJ German)(NN magazine)(NNP Das)(NNP Motorrad)) |BT| (BOW (German *)(magazine *)) |BT| (BOP (NNP *)(NN *)) |ET| 
-0.016060281261570618499545659574324  |BT| (NP (NP (DT the)(VBN isolated)(JJ 1,600-acre)(NN ranch))(PP (IN about)(NP (NP (DT a)(JJ two-hour)(NN drive)(NN north))(PP (IN of)(NP (RB here)))(, ,)(SBAR (WHADVP (WRB where))(S (NP (PRP he))(VP (VBZ has)(VP (VBN spent)(NP (NP (RB much))(PP (IN of)(NP (PRP$ his)(NN time))))(PP (IN since)(NP (DT the)(NN election)))))))))) |BT| (BOW (ranch *)(about *)(a *)(two-hour *)(drive *)(north *)(of *)(here *)(, *)(where *)(he *)) |BT| (BOP (NN *)(IN *)(DT *)(JJ *)(JJ *)(NN *)(IN *)(RB *)(, *)(WRB *)(PRP *)) |ET| 
-0.0032822147978805588097728218599514  |BT| (NP (NNP Texas)(NNP Gov)(. .)) |BT| (BOW (Texas *)(Gov *)) |BT| (BOP (NNP *)(NNP *)) |ET| 
-0.018145489343776761287374554854068  |BT| (NP (NP (DT a)(JJ two-hour)(NN drive)(NN north))(PP (IN of)(NP (RB here)))(, ,)(SBAR (WHADVP (WRB where))(S (NP (PRP he))(VP (VBZ has)(VP (VBN spent)(NP (NP (RB much))(PP (IN of)(NP (PRP$ his)(NN time))))(PP (IN since)(NP (DT the)(NN election)))))))) |BT| (BOW (here *)(, *)(where *)(he *)) |BT| (BOP (RB *)(, *)(WRB *)(PRP *)) |ET| 
-0.017870046387018025807469356891488  |BT| (S (NP (NP (NNP Sandra)(NNP Bullock))(CC and)(NP (CD three)(JJ other)(NNS people)))(VP (VP (VBD missed)(NP (DT a)(NN runway)))(CC and)(VP (VBD crashed)(PP (IN at)(NP (DT the)(NNP Jackson)(NNP Hole)(NNP Airport)))(NP (JJ early)(NNP Wednesday))))) |BT| (BOW (people *)(missed *)(a *)(runway *)) |BT| (BOP (NNS *)(VBD *)(DT *)(NN *)) |ET| 
-0.011834945977298423971935115162069  |BT| (S (NP (NP (DT The)(JJ first))(PP (IN of)(NP (DT the)(JJ grapefruit-size)(NNS bomblets))))(VP (VBD was)(VP (VBN found)(PP (IN by)(NP (NP (NNS workers))(VP (VBG removing)(NP (JJ industrial)(NN waste))(PP (IN from)(NP (DT a)(NN scrap)(NN pile)))(PP (IN on)(NP (NNP Oct))))))))(. .)) |BT| (BOW (bomblets *)(was *)(found *)(by *)(workers *)) |BT| (BOP (NNS *)(VBD *)(VBN *)(IN *)(NNS *)) |ET| 
-0.010652508592948696855562396024197  |BT| (NP (NP (NN sarin))(, ,)(NP (NP (DT the)(JJ same)(NN chemical))(VP (VBN used)(PP (IN in)(NP (NP (DT a)(NNP Tokyo)(NN subway)(NN attack))(PP (IN in)(NP (CD 1995)))(SBAR (WHNP (WDT that))(S (VP (VBD killed)(NP (CD 12)(NNS people)))))))))) |BT| (BOW (sarin *)(, *)(the *)(same *)(chemical *)(used *)(in *)(a *)(Tokyo *)(subway *)(attack *)(in *)(1995 *)(that *)(killed *)(12 *)(people *)) |BT| (BOP (NN *)(, *)(DT *)(JJ *)(NN *)(VBN *)(IN *)(DT *)(NNP *)(NN *)(NN *)(IN *)(CD *)(IN *)(JJ *)(CD *)(NNS *)) |ET| 
-0.011375686799709435262362156038307  |BT| (S (CC But)(NP (NNP Herblock))(VP (VBD offered)(NP (DT a)(NN truce))(SBAR (WHADVP (WRB when))(S (NP (NNP Nixon))(VP (VBD was)(VP (VBN elected)(NP (NP (NN president))(PP (IN in)(NP (CD 1968)))))))))(. .)) |BT| (BOW (Herblock *)(offered *)(a *)(truce *)(when *)(Nixon *)) |BT| (BOP (NNP *)(VBD *)(DT *)(NN *)(WRB *)(NNP *)) |ET| 
-0.01074345544159244388027207861569  |BT| (VP (VBZ is)(ADVP (RB home))(PP (TO to)(NP (NNP Jasper)))(, ,)(SBAR (WHADVP (WRB where))(S (NP (DT a)(JJ black)(NN man))(VP (VBD was)(VP (VBN dragged)(PP (TO to)(NP (PRP$ his)(NN death)))(PP (IN from)(NP (DT a)(NN pickup)(NN truck)))(PP (IN by)(NP (NP (CD three)(JJ white)(NNS men))(PP (IN in)(NP (CD 1998)))))))))) |BT| (BOW (Jasper *)(, *)(where *)(a *)(black *)(man *)(was *)(dragged *)(to *)(his *)(death *)(from *)(a *)(pickup *)(truck *)) |BT| (BOP (NNP *)(, *)(WRB *)(DT *)(JJ *)(NN *)(VBD *)(VBN *)(TO *)(PRP$ *)(NN *)(IN *)(DT *)(NN *)(NN *)) |ET| 
-0.010857597094974883941698173828172  |BT| (S (NP (DT The)(NN plane))(VP (VBD landed)(PP (IN between)(NP (NP (DT a)(NN runway)(CC and)(NN taxiway))(PP (IN at)(NP (DT the)(NN airport)))))(PP (IN in)(NP (NP (NNP northwestern)(NNP Wyoming))(PP (IN about)(NP (CD 1:30)(RB a.m))))))(. .)) |BT| (BOW (plane *)(landed *)(between *)(a *)(runway *)) |BT| (BOP (NN *)(VBD *)(IN *)(DT *)(NN *)) |ET| 
-0.012073232670540456207275425981607  |BT| (NP (DT the)(NNP Mediterranean)(NN island)) |BT| (BOW (Mediterranean *)(island *)) |BT| (BOP (NNP *)(NN *)) |ET| 
-0.0083909205720756000618232306464961  |BT| (S (NP (NP (NNP WARREN)(, ,)(NNP Mich.)(NNP [AP)(NNP ]))(: -)(NP (NP (DT A)(NN drug)(NN suspect))(VP (VBG being)(VP (VBN booked)(PP (IN at)(NP (NN police)(NNS headquarters)))))))(VP (VP (VBD shot)(NP (DT a)(JJ veteran)(NN detective))(PP (TO to)(NP (NN death))))(CC and)(VP (ADVP (RB then))(VBD turned)(NP (DT the)(NN gun))(PP (IN on)(NP (PRP himself)))))(. .)) |BT| (BOW (WARREN *)(, *)(Mich. *)((AP *)()*)(- *)(A *)(drug *)(suspect *)(being *)(booked *)(at *)(police *)(headquarters *)(shot *)(a *)(veteran *)(detective *)) |BT| (BOP (NNP *)(, *)(NNP *)(NNP *)(NNP *)(, *)(DT *)(JJ *)(NN *)(VBG *)(VBN *)(IN *)(NN *)(NNS *)(VBD *)(DT *)(NN *)(JJ *)) |ET| 
-0.0093779587181050203664733899699968  |BT| (NP (NNP TCU)(NN coach)(NNP Dennis)(NNP Franchione)) |BT| (BOW (TCU *)(coach *)) |BT| (BOP (NNP *)(NN *)) |ET| 
-0.011123462484997570509648312508943  |BT| (NP (NP (DT a)(NN population))(PP (IN of)(NP (QP (RB about)(CD 4.1)(CD million))(NNS people)))) |BT| (BOW (population *)(of *)(about *)(4.1 *)(million *)(people *)) |BT| (BOP (NN *)(IN *)(IN *)(CD *)(CD *)(NNS *)) |ET| 
-0.0068721436239172753110415747812567  |BT| (NP (JJ Israeli)(NN government)(NN spokesman)(NNP Nahman)(NNP Shai)) |BT| (BOW (Israeli *)(government *)) |BT| (BOP (NNP *)(NN *)) |ET| 
-0.015367386974947886552067544130296  |BT| (NP (NP (DT no)(NN objection))(PP (TO to)(NP (PRP$ your)(NN advertising)))(SBAR (S (NP (NP (DT the)(NN property))(PP (IN as)(NP (NP (DT a)(NN location))(PP (IN for)(NP (DT a)(NNS sports)(NN bar)))(, ,)(VP (VBG using)(NP (NP (DT the)(NNS Broncos)(POS '))(NN name)(CC and)(NNS colors))))))(VP (VBZ gives)(NP (DT the)(JJ false)(NN impression)))))) |BT| (BOW (your *)(advertising *)(the *)(property *)(as *)(a *)(location *)(for *)(a *)(sports *)(bar *)) |BT| (BOP (PRP$ *)(VBG *)(DT *)(NN *)(IN *)(DT *)(NN *)(IN *)(DT *)(NNS *)(NN *)) |ET| 
-0.017474451991039769566116390819843  |BT| (NP (NP (NNP Gore)(POS 's))(NN press)(NN secretary)) |BT| (BOW (Gore *)('s *)(press *)(secretary *)) |BT| (BOP (NNP *)(POS *)(NN *)(NN *)) |ET| 
-0.018408642393903437012303569986216  |BT| (NP (NP (DT the)(NNS passes))(PP (IN between)(NP (NP (DT the)(NN barrier)(NNS islands))(SBAR (WHNP (WDT that))(S (VP (VBP separate)(NP (DT the)(NNP Mississippi)(NNP Sound))(PP (IN from)(NP (NP (DT the)(NNP Gulf))(PP (IN of)(NP (NNP Mexico))))))))))) |BT| (BOW (passes *)(between *)(the *)(barrier *)(islands *)) |BT| (BOP (NNS *)(IN *)(DT *)(NN *)(NNS *)) |ET| 
-0.011200376314710540348595912973906  |BT| (VP (VBD responded)(PP (TO to)(NP (DT the)(CD 911)(JJ hang-up)(NN call)))(PP (IN at)(NP (NP (NNP Roy)(POS 's))(NN residence)))(, ,)(SBAR (WHADVP (WRB where))(S (NP (NNP Michele)(NNP Roy))(VP (VBD told)(NP (PRP them))(SBAR (S (NP (DT the)(CD two))(VP (VBD had)(VP (VBN been)(VP (VBG arguing)))))))))) |BT| (BOW (Roy *)('s *)(residence *)(, *)(where *)) |BT| (BOP (NNP *)(POS *)(NN *)(, *)(WRB *)) |ET| 
-0.01041462658574106650566371001787  |BT| (NP (PRP$ his)(NNP Pirate)(NNS teammates)) |BT| (BOW (Pirate *)(teammates *)) |BT| (BOP (NNP *)(NNS *)) |ET| 
-0.011487309065373688468647550564583  |BT| (NP (DT the)(NNP Clinton)(NN administration)) |BT| (BOW (Clinton *)(administration *)) |BT| (BOP (NNP *)(NN *)) |ET| 
-0.010456583568428767794245004552067  |BT| (NP (DT a)(JJ .357-caliber)(NNP Magnum)(NN revolver)) |BT| (BOW (Magnum *)(revolver *)) |BT| (BOP (NNP *)(NN *)) |ET| 
-0.0073469038386017255018445304415309  |BT| (NP (NN space)(NN shuttle)(NNP Discovery)) |BT| (BOW (shuttle *)(Discovery *)) |BT| (BOP (NN *)(NNP *)) |ET| 
-0.0053850601408566376587794266583842  |BT| (S (PP (IN Of)(NP (CD 1,944)(NNS donors)))(, ,)(NP (CD 19))(VP (VBP are)(PP (IN from)(NP (JJ outside)(NNP Texas))))(. .)) |BT| (BOW (donors *)(, *)(19 *)) |BT| (BOP (NNS *)(, *)(CD *)) |ET| 
-0.013501473065544031953999493111951  |BT| (S (NP (PRP He))(VP (VBD admitted)(S (VP (VBG carrying)(PRT (RP out))(NP (NP (DT a)(JJ terrorist)(NN attack))(PP (IN in)(NP (NNP Denmark))))(PP (IN in)(NP (NP (CD 1985))(SBAR (WHNP (WDT that))(S (VP (VBD killed)(NP (DT a)(JJ Jewish)(JJ civilian))))))))))(. .)) |BT| (BOW (He *)(admitted *)(carrying *)(out *)(a *)(terrorist *)(attack *)(in *)(Denmark *)) |BT| (BOP (PRP *)(VBD *)(VBG *)(RP *)(DT *)(JJ *)(NN *)(IN *)(NNP *)) |ET| 
-0.010298744844009473722867831213534  |BT| (S (NP (NNS crowds))(VP (VP (VBG vandalizing)(NP (DT the)(NN tomb)))(, ,)(VP (VBG setting)(NP (NNS fires)))(CC and)(VP (VBG hammering)(PRT (RP away))(PP (IN at)(NP (DT the)(NN stone)(NNS buildings)))))) |BT| (BOW (crowds *)(vandalizing *)(the *)(tomb *)) |BT| (BOP (NNS *)(VBG *)(DT *)(NN *)) |ET| 
-0.017505203212462832479401342311576  |BT| (VP (VBN dragged)(PP (TO to)(NP (PRP$ his)(NN death)))(PP (IN from)(NP (DT a)(NN pickup)(NN truck)))(PP (IN by)(NP (NP (CD three)(JJ white)(NNS men))(PP (IN in)(NP (CD 1998)))))) |BT| (BOW (his *)(death *)(from *)(a *)(pickup *)(truck *)) |BT| (BOP (PRP$ *)(NN *)(IN *)(DT *)(NN *)(NN *)) |ET| 
-0.0071575325760296470284371750381069  |BT| (NP (NP (NP (DT The)(NN team)(POS 's))(NN bid))(PP (IN for)(NP (NP (NNP Rodriguez)(NNP hasn't))(VP (VBN been)(VP (VBN slowed)(PP (IN by)(NP (NP (DT the)(VBN expected)(NN demand))(PP (IN of)(NP (ADVP (IN at)(JJS least))(DT a)(JJ 10-year)(NN contract)))))))))(, ,)(PP (IN in)(NP (NP (DT the)(NN range))(PP (IN of)(NP (NP (QP (CD $20)(CD million)))(NP (DT a)(NN year))))))(, ,)(VP (VBN loaded)(PP (IN with)(NP (NN fringe)(NNS benefits))))(. .)) |BT| (BOW (team *)('s *)(bid *)(for *)(Rodriguez *)) |BT| (BOP (NN *)(POS *)(NN *)(IN *)(NNP *)) |ET| 
-0.011770577100349047597327434289127  |BT| (NP (NNS co-workers)(CC and)(NNS friends)) |BT| (BOW (co-workers *)(and *)(friends *)) |BT| (BOP (NNS *)(CC *)(NNS *)) |ET| 
-0.011596604070574620740097238069666  |BT| (NP (NP (NNP JACKSON)(, ,)(NNP Wyo.)(NNP [AP)(NNP ]))(: -)(NP (NP (DT A)(NN plane))(VP (VBG carrying)(NP (NP (NN actress))(SBAR (S (NP (NP (NNP Sandra)(NNP Bullock))(CC and)(NP (CD three)(JJ other)(NNS people)))(VP (VP (VBD missed)(NP (DT a)(NN runway)))(CC and)(VP (VBD crashed)(PP (IN at)(NP (DT the)(NNP Jackson)(NNP Hole)(NNP Airport)))(NP (JJ early)(NNP Wednesday)))))))))(. .)) |BT| (BOW (JACKSON *)(, *)(Wyo. *)((AP *)()*)(- *)(A *)(plane *)(carrying *)(actress *)(Sandra *)(Bullock *)) |BT| (BOP (NNP *)(, *)(NNP *)(NNP *)(NNP *)(, *)(DT *)(NN *)(VBG *)(NN *)(NNP *)(NNP *)) |ET| 
-0.0076081498880689046870884340023622  |BT| (NP (NP (DT the)(NN state)(POS 's))(JJ main)(NN food)(NN supply)(NN agency)) |BT| (BOW (state *)('s *)(main *)(food *)(supply *)(agency *)) |BT| (BOP (NN *)(POS *)(NN *)(VBD *)(VB *)(NN *)) |ET| 
-0.014088388089534760114207578851619  |BT| (NP (NP (DT the)(JJ 2,000-mile)(NN frontier))(PP (IN between)(NP (NP (NNP Mexico))(CC and)(NP (DT the)(NNP United)(NNPS States))))) |BT| (BOW (frontier *)(between *)(Mexico *)(and *)(the *)(United *)(States *)) |BT| (BOP (NN *)(IN *)(NNP *)(CC *)(DT *)(NNP *)(NNPS *)) |ET| 
-0.0089098256986306599569669373295255  |BT| (NP (NNP Duma)(NN speaker)(NNP Gennady)(NNP Seleznyov)) |BT| (BOW (Duma *)(speaker *)) |BT| (BOP (NNP *)(NN *)) |ET| 
-0.010025726392903777650644769892097  |BT| (NP (DT The)(JJ Russian)(, ,)(JJ Ukrainian)(CC and)(JJ Turkish)(NNS planes)) |BT| (BOW (Turkish *)(planes *)) |BT| (BOP (JJ *)(NNS *)) |ET| 
-0.0031523336664822099173477454314707  |BT| (S (NP (NP (JJS Most)(NNS candidates))(: -)(PP (VBG including)(NP (NP (DT those))(PP (IN from)(NP (NP (DT the)(NN country)(POS 's))(CD two)(JJS largest)(JJ political)(NNS parties)))))(: -))(VP (VBD were)(VP (VBN excluded)(PP (IN from)(NP (DT the)(NN vote)))(PP (IN by)(NP (DT the)(NNP Supreme)(NNP Court)))))(. .)) |BT| (BOW (candidates *)(- *)(including *)(those *)(from *)(the *)(country *)('s *)(two *)(largest *)(political *)(parties *)(- *)(were *)(excluded *)(from *)(the *)(vote *)(by *)(the *)(Supreme *)(Court *)) |BT| (BOP (NNS *)(, *)(VBG *)(DT *)(IN *)(DT *)(NN *)(POS *)(CD *)(JJS *)(JJ *)(NNS *)(, *)(VBD *)(VBN *)(IN *)(DT *)(NN *)(IN *)(DT *)(NNP *)(NNP *)) |ET| 
-0.012750522011597813232253173509889  |BT| (NP (DT a)(JJ great)(NN family)(NN man)(NN .'')) |BT| (BOW (family *)(man *)) |BT| (BOP (NN *)(NN *)) |ET| 
-0.011410206713975599990273934736251  |BT| (VP (VBG helping)(NP (NP (NP (NNP conduct)(NNP Saturday)(POS 's))(JJ first)(CD 10)(NNS rounds))(PP (IN of)(NP (DT the)(NN draft))))(PP (IN before)(NP (QP (RB about)(CD 100))(NNS fans)))(PP (IN at)(NP (NP (DT a)(NN hotel))(PP (IN near)(NP (NNP O'Hare)(NNP International)(NNP Airport)))))) |BT| (BOW (fans *)(at *)(a *)(hotel *)) |BT| (BOP (NNS *)(IN *)(DT *)(NN *)) |ET| 
-0.0080314230978301287544596220868698  |BT| (NP (NNP CBS)(NNP anchor)(NNP Dan)) |BT| (BOW (CBS *)(anchor *)) |BT| (BOP (NNP *)(NN *)) |ET| 
-0.012213039771020627738407071660731  |BT| (NP (NP (NN sarin))(, ,)(NP (NP (DT the)(JJ same)(NN chemical))(VP (VBN used)(PP (IN in)(NP (NP (DT a)(NNP Tokyo)(NN subway)(NN attack))(PP (IN in)(NP (CD 1995)))(SBAR (WHNP (WDT that))(S (VP (VBD killed)(NP (CD 12)(NNS people)))))))))) |BT| (BOW (sarin *)(, *)(the *)(same *)(chemical *)(used *)(in *)(a *)(Tokyo *)(subway *)) |BT| (BOP (NN *)(, *)(DT *)(JJ *)(NN *)(VBN *)(IN *)(DT *)(NNP *)(NN *)) |ET| 
-0.013439051871462675061263958298241  |BT| (S (NP (CD Two)(JJ major)(NNP South)(JJ Korean)(NN labor)(NNS groups))(VP (VBD rallied)(NP (NP (QP (RB about)(CD 15,000))(NNS workers))(PP (IN in)(NP (JJ central)(NNP Seoul))))(PP (IN on)(NP (NNP Sunday)))(S (VP (TO to)(VP (VB protest)(NP (NP (NN government)(JJ -led)(JJ corporate)(NN restructuring))(SBAR (S (NP (PRP they))(VP (VBP fear)(SBAR (S (VP (MD will)(VP (VB lead)(PP (TO to)(NP (JJ mass)(NNS layoffs)))))))))))))))) |BT| (BOW (labor *)(groups *)(rallied *)(about *)(15,000 *)(workers *)) |BT| (BOP (NN *)(NNS *)(VBD *)(IN *)(CD *)(NNS *)) |ET| 
-0.014770368058091771709672279655479  |BT| (NP (NP (NNP JACKSON)(, ,)(NNP Wyo.)(NNP [AP)(NNP ]))(: -)(NP (NP (DT A)(NN plane))(VP (VBG carrying)(NP (NP (NN actress))(SBAR (S (NP (NP (NNP Sandra)(NNP Bullock))(CC and)(NP (CD three)(JJ other)(NNS people)))(VP (VP (VBD missed)(NP (DT a)(NN runway)))(CC and)(VP (VBD crashed)(PP (IN at)(NP (DT the)(NNP Jackson)(NNP Hole)(NNP Airport)))(NP (JJ early)(NNP Wednesday)))))))))(. .)) |BT| (BOW ((AP *)()*)(- *)(A *)(plane *)(carrying *)(actress *)) |BT| (BOP (NNP *)(NNP *)(, *)(DT *)(NN *)(VBG *)(NN *)) |ET| 
-0.008413775403986044343351835550493  |BT| (VP (VBZ is)(ADVP (RB home))(PP (TO to)(NP (NNP Jasper)))(, ,)(SBAR (WHADVP (WRB where))(S (NP (DT a)(JJ black)(NN man))(VP (VBD was)(VP (VBN dragged)(PP (TO to)(NP (PRP$ his)(NN death)))(PP (IN from)(NP (DT a)(NN pickup)(NN truck)))(PP (IN by)(NP (NP (CD three)(JJ white)(NNS men))(PP (IN in)(NP (CD 1998)))))))))) |BT| (BOW (home *)(to *)(Jasper *)(, *)(where *)(a *)(black *)(man *)(was *)(dragged *)(to *)(his *)(death *)(from *)(a *)(pickup *)(truck *)) |BT| (BOP (NN *)(TO *)(NNP *)(, *)(WRB *)(DT *)(JJ *)(NN *)(VBD *)(VBN *)(TO *)(PRP$ *)(NN *)(IN *)(DT *)(NN *)(NN *)) |ET| 
-0.0082798188592027796572914155603939  |BT| (NP (NP (NP (DT the)(NNP Democratic)(NNP National)(NNP Committee)(POS 's))(JJ national)(NN chairman))(, ,)(NP (NNP Joe)(NNP Andrew))) |BT| (BOW (chairman *)(, *)(Joe *)(Andrew *)) |BT| (BOP (NN *)(, *)(NNP *)(NNP *)) |ET| 
-0.010251762799992273147986487913386  |BT| (VP (VB attack)(NP (NP (NNP Bush)(POS 's))(JJ environmental)(NN record))(PP (IN at)(NP (NP (DT a)(NN park))(PP (IN in)(NP (NP (DT the)(NN shadow))(PP (IN of)(NP (DT an)(NN oil)(NN refinery)))))))) |BT| (BOW (Bush *)('s *)(environmental *)(record *)(at *)(a *)(park *)(in *)(the *)(shadow *)(of *)(an *)(oil *)(refinery *)) |BT| (BOP (NNP *)(POS *)(JJ *)(NN *)(IN *)(DT *)(NN *)(IN *)(DT *)(NN *)(IN *)(DT *)(NN *)(NN *)) |ET| 
-0.0073891116170824860942545342368248  |BT| (S (NP (NNS People))(VP (MD can)(VP (VB communicate)(PP (IN with)(NP (JJ international)(NNS friends)))(PP (IN without)(NP (DT the)(JJ hefty)(NN phone)(NNS bills)))))(. .)) |BT| (BOW (People *)(can *)(communicate *)(with *)(international *)(friends *)) |BT| (BOP (NNP *)(MD *)(VB *)(IN *)(JJ *)(NNS *)) |ET| 
-0.018800289484563009051454329778608  |BT| (VP (VBG retreating)(PP (TO to)(NP (NP (DT the)(NN solitude))(PP (IN of)(NP (PRP$ his)(JJ central)(NNP Texas)(NN ranch)))))(PP (IN after)(NP (NP (DT a)(JJ stunning)(NN court)(NN setback))(PP (IN in)(NP (DT the)(JJ long)(JJ drawn-out)(JJ presidential)(NN contest)))))) |BT| (BOW (ranch *)(after *)(a *)(stunning *)(court *)) |BT| (BOP (NN *)(IN *)(DT *)(NN *)(NN *)) |ET| 
-0.0070983481897115563441502672503702  |BT| (NP (NNS churches)(, ,)(NNS hospitals)(CC and)(NN nursing)(NNS homes)) |BT| (BOW (hospitals *)(and *)(nursing *)(homes *)) |BT| (BOP (NNS *)(CC *)(VBG *)(NNS *)) |ET| 
-0.0079187610720466601599287770341107  |BT| (NP (NP (DT a)(NN bar))(SBAR (WHNP (WDT that))(S (VP (MD would)(VP (VB celebrate)(NP (DT the)(NNS Broncos))))))) |BT| (BOW (bar *)(that *)) |BT| (BOP (NN *)(WDT *)) |ET| 
-0.0050480430088617883610524472715042  |BT| (NP (NP (NNP Bush)(POS 's))(ADJP (NNP Texas)(JJ -style))(JJ environmental)(NN regulation)(NNS .'')) |BT| (BOW (Bush *)('s *)(Texas *)) |BT| (BOP (NNP *)(POS *)(NNP *)) |ET| 
-0.0074692105439764233665300707798451  |BT| (NP (DT the)(JJ central)(NNP Javanese)(NN city)) |BT| (BOW (Javanese *)(city *)) |BT| (BOP (JJ *)(NN *)) |ET| 
-0.012760197298438824900501664671992  |BT| (VP (VBZ is)(ADVP (RB home))(PP (TO to)(NP (NNP Jasper)))(, ,)(SBAR (WHADVP (WRB where))(S (NP (DT a)(JJ black)(NN man))(VP (VBD was)(VP (VBN dragged)(PP (TO to)(NP (PRP$ his)(NN death)))(PP (IN from)(NP (DT a)(NN pickup)(NN truck)))(PP (IN by)(NP (NP (CD three)(JJ white)(NNS men))(PP (IN in)(NP (CD 1998)))))))))) |BT| (BOW (home *)(to *)(Jasper *)(, *)(where *)) |BT| (BOP (NN *)(TO *)(NNP *)(, *)(WRB *)) |ET| 
