SVM-light Version V5.01-TK-1.2
5 # kernel type
3 # kernel parameter -d 
1 # kernel parameter -g 
1 # kernel parameter -s 
1 # kernel parameter -r 
empty# kernel parameter -u 
0.4 # kernel parameter -L 
1 # kernel parameter -T 
T # kernel parameter -C 
1 # kernel parameter -F 
1 # kernel parameter -S 
1.000000 # kernel parameter -D 
3 # kernel parameter -N 
S # kernel parameter -V 
S # kernel parameter -W 
0 # highest feature index 
16257 # number of training documents 
432 # number of support vectors plus 1 
1.0679722 # threshold b, each following line is a SV (starting with alpha*y)
-0.030887811552487154376223088547704  |BT| (NP (NP (NP (DT The)(NNP College)(NNP Board)(POS 's))(NNS figures)(NN concern))(NP (NP (DT the)(NNS costs))(PP (IN for)(NP (NP (QP (CD 6.4)(CD million))(JJ full-time)(NNS undergraduates))(: -)(NP (NP (CD 54)(NN percent))(VP (VBG attending)(NP (NP (NP (JJ four-year)(JJ public)(NNS institutions))(, ,)(NP (NP (CD 27)(NN percent))(PP (IN at)(NP (JJ four-year)(JJ private)(NNS schools)))))(, ,)(NP (NP (CD 17)(NN percent))(PP (IN at)(NP (JJ two-year)(NN community)(NNS colleges))))(CC and)(NP (NP (CD 1)(NN percent))(PP (IN at)(NP (JJ private)(JJ two-year)(NNS schools))))))))))(. .)) |BT| (BOW (College *)(Board *)('s *)(figures *)(concern *)(the *)(costs *)(for *)(6.4 *)(million *)(full-time *)(undergraduates *)(- *)(54 *)(percent *)(attending *)(four-year *)(public *)(institutions *)(, *)(27 *)(percent *)) |BT| (BOP (NNP *)(NNP *)(POS *)(NNS *)(NN *)(DT *)(NNS *)(IN *)(CD *)(CD *)(JJ *)(NNS *)(IN *)(CD *)(JJ *)(NN *)(JJ *)(JJ *)(NNS *)(, *)(CD *)(JJ *)) |ET| 
-0.029412302671879067550442243828002  |BT| (S (NP (CD Four)(JJ other)(NN committee)(NNS members))(VP (VBD raised)(NP (QP (IN at)(JJS least)(CD $100,000)))(PP (IN for)(NP (NP (NNP Bush)(POS 's))(NN campaign)))(: :)(NP (NP (NP (NNP Bill)(NNP DeWitt))(CC and)(NP (NNP Mercer)(NNP Reynolds)))(, ,)(NP (NP (NNS co-chairs))(PP (IN of)(NP (NP (DT the)(ADJP (JJ Ohio-based))(NN investment)(NN firm))(PP (IN of)(NP (NNP Reynolds,)(NNP DeWitt)(CC and)(NNP Company))))))(: ;)(NP (NP (NNP Brad)(NNP Freeman))(, ,)(NP (DT a)(NNP California)(NN investor)))(: ;)(CC and)(NP (NP (NNP Florida)(NN developer)(NNP Al)(NNP Hoffman))(, ,)(SBAR (WHNP (WP who))(S (VP (VBD was)(NP (NP (NP (NN finance)(NN chairman))(PP (IN for)(NP (NP (NNP Jeb)(NNP Bush)(POS 's))(JJ gubernatorial)(NN campaign))))(CC and)(NP (NP (NN chairman))(PP (IN of)(NP (PRP$ his)(JJ inaugural)(NN committee)))))))))))(. .)) |BT| (BOW (members *)(raised *)(at *)(least *)($100,000 *)(for *)(Bush *)('s *)(campaign *)(: *)(Bill *)(DeWitt *)(and *)(Mercer *)(Reynolds *)(, *)(co-chairs *)(of *)(the *)(Ohio-based *)(investment *)(firm *)) |BT| (BOP (NNS *)(VBD *)(IN *)(JJS *)(CD *)(IN *)(NNP *)(POS *)(NN *)(: *)(NNP *)(NNP *)(CC *)(NNP *)(NNPS *)(, *)(VBZ *)(IN *)(DT *)(JJ *)(NN *)(NN *)) |ET| 
-0.012568406487353191505751404122293  |BT| (NP (NP (JJ Arab)(NNS states))(CC and)(NP (VBG developing)(NNS nations))) |BT| (BOW (Arab *)(states *)(and *)(developing *)(nations *)) |BT| (BOP (DT *)(NNS *)(CC *)(VBG *)(NNS *)) |ET| 
-0.26330542580363924809461195764015  |BT| (NP (NP (JJ Many))(PP (IN of)(NP (NP (NNP Germany)(POS 's))(NNS neighbors)))(, ,)(PP (VBG including)(NP (NNP France)(, ,)(NNP Italy)(CC and)(NNP Greece)))(, ,)) |BT| (BOW (neighbors *)(, *)(including *)(France *)) |BT| (BOP (NNS *)(, *)(VBG *)(NNP *)) |ET| 
-0.19942390218834243897916280729987  |BT| (NP (NNP Microsoft)(, ,)(NNP AT&AMP;T)(CC and)(NNP ExciteAtHome)) |BT| (BOW (Microsoft *)(, *)(AT&AMP;T *)) |BT| (BOP (NNP *)(, *)(NNP *)) |ET| 
0.33333333333351461424953754431044  |BT| (NP (NP (NNS commissions))(PP (IN with)(NP (JJ key)(NNS countries)))(, ,)(PP (VBG including)(NP (NP (CD one))(PP (IN with)(NP (JJ former)(NNP Russian)(NNP Prime)(NNP Minister)(NNP Viktor)(NNP Chernomyrdin)))))) |BT| (BOW (commissions *)(with *)(key *)(countries *)(, *)(including *)(one *)) |BT| (BOP (NNS *)(IN *)(JJ *)(NNS *)(, *)(VBG *)(CD *)) |ET| 
0.33333333333351461424953754431044  |BT| (NP (NP (NP (DT the)(NN violence))(SBAR (WHNP (WDT that))(S (VP (VBD cost)(NP (NP (DT the)(NNS lives))(PP (IN of)(NP (CD 96)(NNS people))))))))(, ,)(ADJP (RBS most)(JJ Palestinians))) |BT| (BOW (people *)(, *)(most *)) |BT| (BOP (NNS *)(, *)(RBS *)) |ET| 
0.33333333333351461424953754431044  |BT| (NP (NP (QP (CD 6.4)(CD million))(JJ full-time)(NNS undergraduates))(: -)(NP (NP (CD 54)(NN percent))(VP (VBG attending)(NP (NP (NP (JJ four-year)(JJ public)(NNS institutions))(, ,)(NP (NP (CD 27)(NN percent))(PP (IN at)(NP (JJ four-year)(JJ private)(NNS schools)))))(, ,)(NP (NP (CD 17)(NN percent))(PP (IN at)(NP (JJ two-year)(NN community)(NNS colleges))))(CC and)(NP (NP (CD 1)(NN percent))(PP (IN at)(NP (JJ private)(JJ two-year)(NNS schools)))))))) |BT| (BOW (undergraduates *)(- *)(54 *)(percent *)) |BT| (BOP (NNS *)(IN *)(CD *)(JJ *)) |ET| 
0.33333333333351461424953754431044  |BT| (NP (NP (QP (CD 6.4)(CD million))(JJ full-time)(NNS undergraduates))(: -)(NP (NP (CD 54)(NN percent))(VP (VBG attending)(NP (NP (NP (JJ four-year)(JJ public)(NNS institutions))(, ,)(NP (NP (CD 27)(NN percent))(PP (IN at)(NP (JJ four-year)(JJ private)(NNS schools)))))(, ,)(NP (NP (CD 17)(NN percent))(PP (IN at)(NP (JJ two-year)(NN community)(NNS colleges))))(CC and)(NP (NP (CD 1)(NN percent))(PP (IN at)(NP (JJ private)(JJ two-year)(NNS schools)))))))) |BT| (BOW (undergraduates *)(- *)(54 *)(percent *)(attending *)(four-year *)(public *)(institutions *)(, *)(27 *)(percent *)) |BT| (BOP (NNS *)(IN *)(CD *)(JJ *)(NN *)(JJ *)(JJ *)(NNS *)(, *)(CD *)(JJ *)) |ET| 
0.33333333333351461424953754431044  |BT| (NP (NP (QP (CD 6.4)(CD million))(JJ full-time)(NNS undergraduates))(: -)(NP (NP (CD 54)(NN percent))(VP (VBG attending)(NP (NP (NP (JJ four-year)(JJ public)(NNS institutions))(, ,)(NP (NP (CD 27)(NN percent))(PP (IN at)(NP (JJ four-year)(JJ private)(NNS schools)))))(, ,)(NP (NP (CD 17)(NN percent))(PP (IN at)(NP (JJ two-year)(NN community)(NNS colleges))))(CC and)(NP (NP (CD 1)(NN percent))(PP (IN at)(NP (JJ private)(JJ two-year)(NNS schools)))))))) |BT| (BOW (undergraduates *)(- *)(54 *)(percent *)(attending *)(four-year *)(public *)(institutions *)(, *)(27 *)(percent *)(at *)(four-year *)(private *)(schools *)(, *)(17 *)(percent *)) |BT| (BOP (NNS *)(IN *)(CD *)(JJ *)(NN *)(JJ *)(JJ *)(NNS *)(, *)(CD *)(JJ *)(IN *)(JJ *)(JJ *)(NNS *)(, *)(CD *)(JJ *)) |ET| 
-0.20589993947922316519516527932865  |BT| (NP (NP (QP (CD 6.4)(CD million))(JJ full-time)(NNS undergraduates))(: -)(NP (NP (CD 54)(NN percent))(VP (VBG attending)(NP (NP (NP (JJ four-year)(JJ public)(NNS institutions))(, ,)(NP (NP (CD 27)(NN percent))(PP (IN at)(NP (JJ four-year)(JJ private)(NNS schools)))))(, ,)(NP (NP (CD 17)(NN percent))(PP (IN at)(NP (JJ two-year)(NN community)(NNS colleges))))(CC and)(NP (NP (CD 1)(NN percent))(PP (IN at)(NP (JJ private)(JJ two-year)(NNS schools)))))))) |BT| (BOW (undergraduates *)(- *)(54 *)(percent *)(attending *)(four-year *)(public *)(institutions *)) |BT| (BOP (NNS *)(IN *)(CD *)(JJ *)(NN *)(JJ *)(JJ *)(NNS *)) |ET| 
0.33333333333351461424953754431044  |BT| (NP (NP (PRP$ their)(NNS counterparts))(PP (IN in)(NP (ADJP (RBR more)(JJ liberal))(NNS countries)))(, ,)(PP (VBG including)(NP (NNP Jordan)(, ,)(NNP Egypt)(CC and)(NNP Lebanon)))(, ,)) |BT| (BOW (countries *)(, *)(including *)(Jordan *)(, *)(Egypt *)(and *)(Lebanon *)) |BT| (BOP (NNS *)(, *)(VBG *)(NNP *)(, *)(NNP *)(CC *)(NNP *)) |ET| 
-0.16894581480774159554236746316747  |BT| (NP (NP (NNS commissions))(PP (IN with)(NP (JJ key)(NNS countries)))(, ,)(PP (VBG including)(NP (NP (CD one))(PP (IN with)(NP (JJ former)(NNP Russian)(NNP Prime)(NNP Minister)(NNP Viktor)(NNP Chernomyrdin)))))) |BT| (BOW (countries *)(, *)(including *)(one *)) |BT| (BOP (NNS *)(, *)(VBG *)(CD *)) |ET| 
0.33333333333351461424953754431044  |BT| (NP (NP (CD two)(JJ instant)(NN messaging)(NNS competitors))(: -)(NP (NP (NN iCAST))(CC and)(NP (NNP Tribal)(NNP Voice)))(: -)) |BT| (BOW (competitors *)(- *)(iCAST *)(and *)(Tribal *)(Voice *)) |BT| (BOP (NNS *)(IN *)(NNP *)(CC *)(NNP *)(NNP *)) |ET| 
-0.15232408518496320937174459686503  |BT| (NP (NP (NP (DT the)(NN violence))(SBAR (WHNP (WDT that))(S (VP (VBD cost)(NP (NP (DT the)(NNS lives))(PP (IN of)(NP (CD 96)(NNS people))))))))(, ,)(ADJP (RBS most)(JJ Palestinians))) |BT| (BOW (people *)(, *)(most *)(Palestinians *)) |BT| (BOP (NNS *)(, *)(RBS *)(NNPS *)) |ET| 
0.33333333333351461424953754431044  |BT| (NP (NP (DT The)(NNP News)(NNP Sun)(CC and)(JJ other)(JJ northern)(NNP Illinois)(NNP Copley)(NNS newspapers))(, ,)(PP (VBG including)(NP (NP (NP (DT The)(NNP Courier)(NNP News))(PP (IN in)(NP (NNP Elgin))))(, ,)(NP (NP (DT The)(NNP Beacon)(NNP News))(PP (IN in)(NP (NNP Aurora))))(CC and)(NP (NP (DT The)(NNP Herald)(NNP News))(PP (IN in)(NP (NNP Joliet))))))) |BT| (BOW (newspapers *)(, *)(including *)(The *)(Courier *)(News *)(in *)(Elgin *)(, *)(The *)(Beacon *)(News *)) |BT| (BOP (NNS *)(, *)(VBG *)(DT *)(NNP *)(NNP *)(IN *)(NNP *)(, *)(DT *)(NNP *)(NNP *)) |ET| 
-0.094143778233536951072224496783747  |BT| (NP (NP (DT The)(NNP News)(NNP Sun)(CC and)(JJ other)(JJ northern)(NNP Illinois)(NNP Copley)(NNS newspapers))(, ,)(PP (VBG including)(NP (NP (NP (DT The)(NNP Courier)(NNP News))(PP (IN in)(NP (NNP Elgin))))(, ,)(NP (NP (DT The)(NNP Beacon)(NNP News))(PP (IN in)(NP (NNP Aurora))))(CC and)(NP (NP (DT The)(NNP Herald)(NNP News))(PP (IN in)(NP (NNP Joliet))))))) |BT| (BOW (newspapers *)(, *)(including *)(The *)(Courier *)(News *)(in *)(Elgin *)) |BT| (BOP (NNS *)(, *)(VBG *)(DT *)(NNP *)(NNP *)(IN *)(NNP *)) |ET| 
0.33333333333351461424953754431044  |BT| (S (PP (IN Of)(NP (NP (CD 1,400)(NNS contributors))(PP (TO to)(NP (PRP$ his)(NN campaign)))))(, ,)(NP (QP (JJR fewer)(IN than)(CD 20)))(VP (VBP are)(PP (IN from)(NP (NP (NN out))(PP (IN of)(NP (NNP Texas))))))) |BT| (BOW (contributors *)(to *)(his *)(campaign *)(, *)(fewer *)(than *)(20 *)) |BT| (BOP (NNS *)(TO *)(PRP$ *)(NN *)(, *)(JJR *)(IN *)(CD *)) |ET| 
-0.031559346309689782772434085700297  |BT| (NP (NP (PRP$ their)(NNS counterparts))(PP (IN in)(NP (ADJP (RBR more)(JJ liberal))(NNS countries)))(, ,)(PP (VBG including)(NP (NNP Jordan)(, ,)(NNP Egypt)(CC and)(NNP Lebanon)))(, ,)) |BT| (BOW (counterparts *)(in *)(more *)(liberal *)(countries *)) |BT| (BOP (NNS *)(IN *)(JJR *)(JJ *)(NNS *)) |ET| 
0.33333333333351461424953754431044  |BT| (NP (NP (DT The)(NNP News)(NNP Sun)(CC and)(JJ other)(JJ northern)(NNP Illinois)(NNP Copley)(NNS newspapers))(, ,)(PP (VBG including)(NP (NP (NP (DT The)(NNP Courier)(NNP News))(PP (IN in)(NP (NNP Elgin))))(, ,)(NP (NP (DT The)(NNP Beacon)(NNP News))(PP (IN in)(NP (NNP Aurora))))(CC and)(NP (NP (DT The)(NNP Herald)(NNP News))(PP (IN in)(NP (NNP Joliet))))))) |BT| (BOW (newspapers *)(, *)(including *)(The *)(Courier *)(News *)) |BT| (BOP (NNS *)(, *)(VBG *)(DT *)(NNP *)(NNP *)) |ET| 
-0.12368269484926655565892872346012  |BT| (NP (NP (DT The)(NNP News)(NNP Sun)(CC and)(JJ other)(JJ northern)(NNP Illinois)(NNP Copley)(NNS newspapers))(, ,)(PP (VBG including)(NP (NP (NP (DT The)(NNP Courier)(NNP News))(PP (IN in)(NP (NNP Elgin))))(, ,)(NP (NP (DT The)(NNP Beacon)(NNP News))(PP (IN in)(NP (NNP Aurora))))(CC and)(NP (NP (DT The)(NNP Herald)(NNP News))(PP (IN in)(NP (NNP Joliet))))))) |BT| (BOW (Copley *)(newspapers *)(, *)(including *)(The *)(Courier *)(News *)) |BT| (BOP (NNP *)(NNS *)(, *)(VBG *)(DT *)(NNP *)(NNP *)) |ET| 
0.33333333333351461424953754431044  |BT| (NP (NP (NP (NNP Gore)(POS 's))(NNS surrogates))(, ,)(PP (VBG including)(NP (NP (PRP$ his)(JJ running)(NN mate))(, ,)(NP (NNP Sen.)(NNP Joseph)(NNP Lieberman))(, ,)(CC and)(NP (NP (NP (DT the)(NNP Democratic)(NNP National)(NNP Committee)(POS 's))(JJ national)(NN chairman))(, ,)(NP (NNP Joe)(NNP Andrew)))))(, ,)) |BT| (BOW (surrogates *)(, *)(including *)(his *)(running *)(mate *)(, *)(Sen. *)(Joseph *)(Lieberman *)(, *)(and *)(the *)(Democratic *)(National *)(Committee *)('s *)(national *)(chairman *)) |BT| (BOP (NNS *)(, *)(VBG *)(PRP$ *)(NN *)(NN *)(, *)(NNP *)(NNP *)(NNP *)(, *)(CC *)(DT *)(JJ *)(NNP *)(NNP *)(POS *)(JJ *)(NN *)) |ET| 
-0.17126503091242589738030233093014  |BT| (NP (NP (NP (NNP Gore)(POS 's))(NNS surrogates))(, ,)(PP (VBG including)(NP (NP (PRP$ his)(JJ running)(NN mate))(, ,)(NP (NNP Sen.)(NNP Joseph)(NNP Lieberman))(, ,)(CC and)(NP (NP (NP (DT the)(NNP Democratic)(NNP National)(NNP Committee)(POS 's))(JJ national)(NN chairman))(, ,)(NP (NNP Joe)(NNP Andrew)))))(, ,)) |BT| (BOW (surrogates *)(, *)(including *)(his *)) |BT| (BOP (NNS *)(, *)(VBG *)(PRP$ *)) |ET| 
0.33333333333351461424953754431044  |BT| (NP (NP (PRP$ their)(NNS counterparts))(PP (IN in)(NP (ADJP (RBR more)(JJ liberal))(NNS countries)))(, ,)(PP (VBG including)(NP (NNP Jordan)(, ,)(NNP Egypt)(CC and)(NNP Lebanon)))(, ,)) |BT| (BOW (countries *)(, *)(including *)(Jordan *)(, *)(Egypt *)) |BT| (BOP (NNS *)(, *)(VBG *)(NNP *)(, *)(NNP *)) |ET| 
-0.12278561243817356918306415991538  |BT| (NP (NP (NN iCAST))(CC and)(NP (NNP Tribal)(NNP Voice))) |BT| (BOW (iCAST *)(and *)(Tribal *)(Voice *)) |BT| (BOP (NNP *)(CC *)(NNP *)(NNP *)) |ET| 
0.33333333333351461424953754431044  |BT| (NP (NP (NP (NNP Gore)(POS 's))(NNS surrogates))(, ,)(PP (VBG including)(NP (NP (PRP$ his)(JJ running)(NN mate))(, ,)(NP (NNP Sen.)(NNP Joseph)(NNP Lieberman))(, ,)(CC and)(NP (NP (NP (DT the)(NNP Democratic)(NNP National)(NNP Committee)(POS 's))(JJ national)(NN chairman))(, ,)(NP (NNP Joe)(NNP Andrew)))))(, ,)) |BT| (BOW (surrogates *)(, *)(including *)(his *)(running *)(mate *)) |BT| (BOP (NNS *)(, *)(VBG *)(PRP$ *)(NN *)(NN *)) |ET| 
-0.094225621071726411992486305280181  |BT| (NP (NP (NP (NNP Gore)(POS 's))(NNS surrogates))(, ,)(PP (VBG including)(NP (NP (PRP$ his)(JJ running)(NN mate))(, ,)(NP (NNP Sen.)(NNP Joseph)(NNP Lieberman))(, ,)(CC and)(NP (NP (NP (DT the)(NNP Democratic)(NNP National)(NNP Committee)(POS 's))(JJ national)(NN chairman))(, ,)(NP (NNP Joe)(NNP Andrew)))))(, ,)) |BT| (BOW (surrogates *)(, *)(including *)(his *)(running *)(mate *)(, *)(Sen. *)) |BT| (BOP (NNS *)(, *)(VBG *)(PRP$ *)(NN *)(NN *)(, *)(NNP *)) |ET| 
0.33333333333351461424953754431044  |BT| (SINV (PP (IN Among)(NP (NP (DT those))(VP (VBN designated))))(VP (VBD were)(NP (JJ former)(NNP NFL)(NNS first-rounders)))(NP (NP (NNP Mike)(NNP Croel))(, ,)(NP (NP (NNP Alvin)(NNP Harper))(, ,)(NP (NNP Tommy)(NNP Maddox))(CC and)(NP (NNP Marcus)(NNP Nash))))(. .)) |BT| (BOW (those *)(designated *)(were *)(former *)(NFL *)(first-rounders *)) |BT| (BOP (DT *)(VBN *)(VBD *)(JJ *)(NNP *)(NNS *)) |ET| 
-0.086922797742149504607311882864451  |BT| (SINV (PP (IN Among)(NP (NP (DT those))(VP (VBN designated))))(VP (VBD were)(NP (JJ former)(NNP NFL)(NNS first-rounders)))(NP (NP (NNP Mike)(NNP Croel))(, ,)(NP (NP (NNP Alvin)(NNP Harper))(, ,)(NP (NNP Tommy)(NNP Maddox))(CC and)(NP (NNP Marcus)(NNP Nash))))(. .)) |BT| (BOW (those *)(designated *)(were *)(former *)(NFL *)) |BT| (BOP (DT *)(VBN *)(VBD *)(JJ *)(NNP *)) |ET| 
0.33333333333351461424953754431044  |BT| (NP (NP (JJ instant)(VBG messaging)(NNS rivals))(PP (IN like)(NP (NNP Microsoft)(, ,)(NNP AT&AMP;T)(CC and)(NNP ExciteAtHome)))) |BT| (BOW (rivals *)(like *)(Microsoft *)(, *)(AT&AMP;T *)) |BT| (BOP (NNS *)(IN *)(NNP *)(, *)(NNP *)) |ET| 
-0.10403835183451676238419736364449  |BT| (S (PP (IN Of)(NP (NP (CD 1,400)(NNS contributors))(PP (TO to)(NP (PRP$ his)(NN campaign)))))(, ,)(NP (QP (JJR fewer)(IN than)(CD 20)))(VP (VBP are)(PP (IN from)(NP (NP (NN out))(PP (IN of)(NP (NNP Texas))))))) |BT| (BOW (his *)(campaign *)(, *)(fewer *)(than *)(20 *)) |BT| (BOP (PRP$ *)(NN *)(, *)(JJR *)(IN *)(CD *)) |ET| 
0.33333333333351461424953754431044  |BT| (S (NP (CD Four)(JJ other)(NN committee)(NNS members))(VP (VBD raised)(NP (QP (IN at)(JJS least)(CD $100,000)))(PP (IN for)(NP (NP (NNP Bush)(POS 's))(NN campaign)))(: :)(NP (NP (NP (NNP Bill)(NNP DeWitt))(CC and)(NP (NNP Mercer)(NNP Reynolds)))(, ,)(NP (NP (NNS co-chairs))(PP (IN of)(NP (NP (DT the)(ADJP (JJ Ohio-based))(NN investment)(NN firm))(PP (IN of)(NP (NNP Reynolds,)(NNP DeWitt)(CC and)(NNP Company))))))(: ;)(NP (NP (NNP Brad)(NNP Freeman))(, ,)(NP (DT a)(NNP California)(NN investor)))(: ;)(CC and)(NP (NP (NNP Florida)(NN developer)(NNP Al)(NNP Hoffman))(, ,)(SBAR (WHNP (WP who))(S (VP (VBD was)(NP (NP (NP (NN finance)(NN chairman))(PP (IN for)(NP (NP (NNP Jeb)(NNP Bush)(POS 's))(JJ gubernatorial)(NN campaign))))(CC and)(NP (NP (NN chairman))(PP (IN of)(NP (PRP$ his)(JJ inaugural)(NN committee)))))))))))(. .)) |BT| (BOW (members *)(raised *)(at *)(least *)($100,000 *)(for *)(Bush *)('s *)(campaign *)(: *)(Bill *)(DeWitt *)(and *)(Mercer *)(Reynolds *)) |BT| (BOP (NNS *)(VBD *)(IN *)(JJS *)(CD *)(IN *)(NNP *)(POS *)(NN *)(: *)(NNP *)(NNP *)(CC *)(NNP *)(NNPS *)) |ET| 
-0.095312826382974849548368467822002  |BT| (S (NP (CD Four)(JJ other)(NN committee)(NNS members))(VP (VBD raised)(NP (QP (IN at)(JJS least)(CD $100,000)))(PP (IN for)(NP (NP (NNP Bush)(POS 's))(NN campaign)))(: :)(NP (NP (NP (NNP Bill)(NNP DeWitt))(CC and)(NP (NNP Mercer)(NNP Reynolds)))(, ,)(NP (NP (NNS co-chairs))(PP (IN of)(NP (NP (DT the)(ADJP (JJ Ohio-based))(NN investment)(NN firm))(PP (IN of)(NP (NNP Reynolds,)(NNP DeWitt)(CC and)(NNP Company))))))(: ;)(NP (NP (NNP Brad)(NNP Freeman))(, ,)(NP (DT a)(NNP California)(NN investor)))(: ;)(CC and)(NP (NP (NNP Florida)(NN developer)(NNP Al)(NNP Hoffman))(, ,)(SBAR (WHNP (WP who))(S (VP (VBD was)(NP (NP (NP (NN finance)(NN chairman))(PP (IN for)(NP (NP (NNP Jeb)(NNP Bush)(POS 's))(JJ gubernatorial)(NN campaign))))(CC and)(NP (NP (NN chairman))(PP (IN of)(NP (PRP$ his)(JJ inaugural)(NN committee)))))))))))(. .)) |BT| (BOW (members *)(raised *)(at *)(least *)($100,000 *)(for *)(Bush *)) |BT| (BOP (NNS *)(VBD *)(IN *)(JJS *)(CD *)(IN *)(NNP *)) |ET| 
0.33333333333351461424953754431044  |BT| (NP (NP (DT The)(NNP News)(NNP Sun)(CC and)(JJ other)(JJ northern)(NNP Illinois)(NNP Copley)(NNS newspapers))(, ,)(PP (VBG including)(NP (NP (NP (DT The)(NNP Courier)(NNP News))(PP (IN in)(NP (NNP Elgin))))(, ,)(NP (NP (DT The)(NNP Beacon)(NNP News))(PP (IN in)(NP (NNP Aurora))))(CC and)(NP (NP (DT The)(NNP Herald)(NNP News))(PP (IN in)(NP (NNP Joliet))))))) |BT| (BOW (newspapers *)(, *)(including *)(The *)(Courier *)(News *)(in *)(Elgin *)(, *)(The *)(Beacon *)(News *)(in *)(Aurora *)(and *)(The *)(Herald *)(News *)) |BT| (BOP (NNS *)(, *)(VBG *)(DT *)(NNP *)(NNP *)(IN *)(NNP *)(, *)(DT *)(NNP *)(NNP *)(IN *)(NNP *)(CC *)(DT *)(NNP *)(NNP *)) |ET| 
-0.11207377128531528787114268652658  |BT| (NP (NP (DT The)(NNP News)(NNP Sun)(CC and)(JJ other)(JJ northern)(NNP Illinois)(NNP Copley)(NNS newspapers))(, ,)(PP (VBG including)(NP (NP (NP (DT The)(NNP Courier)(NNP News))(PP (IN in)(NP (NNP Elgin))))(, ,)(NP (NP (DT The)(NNP Beacon)(NNP News))(PP (IN in)(NP (NNP Aurora))))(CC and)(NP (NP (DT The)(NNP Herald)(NNP News))(PP (IN in)(NP (NNP Joliet))))))) |BT| (BOW (Illinois *)(Copley *)(newspapers *)(, *)(including *)(The *)(Courier *)(News *)) |BT| (BOP (NNS *)(NNP *)(NNS *)(, *)(VBG *)(DT *)(NNP *)(NNP *)) |ET| 
0.33333333333351461424953754431044  |BT| (NP (NP (NNS clusters))(PP (IN of)(NP (CD 368)))) |BT| (BOW (clusters *)(of *)(368 *)) |BT| (BOP (NNS *)(IN *)(CD *)) |ET| 
-0.062221928047404076456139421225089  |BT| (NP (NP (DT a)(NN battlefield)(JJ tactical)(NN missile))(PP (IN in)(NP (NP (NNS clusters))(PP (IN of)(NP (CD 368)))))) |BT| (BOW (missile *)(in *)(clusters *)(of *)(368 *)) |BT| (BOP (NN *)(IN *)(NNS *)(IN *)(CD *)) |ET| 
0.33333333333351461424953754431044  |BT| (S (NP (CD Four)(JJ other)(NN committee)(NNS members))(VP (VBD raised)(NP (QP (IN at)(JJS least)(CD $100,000)))(PP (IN for)(NP (NP (NNP Bush)(POS 's))(NN campaign)))(: :)(NP (NP (NP (NNP Bill)(NNP DeWitt))(CC and)(NP (NNP Mercer)(NNP Reynolds)))(, ,)(NP (NP (NNS co-chairs))(PP (IN of)(NP (NP (DT the)(ADJP (JJ Ohio-based))(NN investment)(NN firm))(PP (IN of)(NP (NNP Reynolds,)(NNP DeWitt)(CC and)(NNP Company))))))(: ;)(NP (NP (NNP Brad)(NNP Freeman))(, ,)(NP (DT a)(NNP California)(NN investor)))(: ;)(CC and)(NP (NP (NNP Florida)(NN developer)(NNP Al)(NNP Hoffman))(, ,)(SBAR (WHNP (WP who))(S (VP (VBD was)(NP (NP (NP (NN finance)(NN chairman))(PP (IN for)(NP (NP (NNP Jeb)(NNP Bush)(POS 's))(JJ gubernatorial)(NN campaign))))(CC and)(NP (NP (NN chairman))(PP (IN of)(NP (PRP$ his)(JJ inaugural)(NN committee)))))))))))(. .)) |BT| (BOW (members *)(raised *)(at *)(least *)($100,000 *)(for *)(Bush *)('s *)(campaign *)(: *)(Bill *)(DeWitt *)) |BT| (BOP (NNS *)(VBD *)(IN *)(JJS *)(CD *)(IN *)(NNP *)(POS *)(NN *)(: *)(NNP *)(NNP *)) |ET| 
-0.039890244657090422053524747525444  |BT| (S (NP (CD Four)(JJ other)(NN committee)(NNS members))(VP (VBD raised)(NP (QP (IN at)(JJS least)(CD $100,000)))(PP (IN for)(NP (NP (NNP Bush)(POS 's))(NN campaign)))(: :)(NP (NP (NP (NNP Bill)(NNP DeWitt))(CC and)(NP (NNP Mercer)(NNP Reynolds)))(, ,)(NP (NP (NNS co-chairs))(PP (IN of)(NP (NP (DT the)(ADJP (JJ Ohio-based))(NN investment)(NN firm))(PP (IN of)(NP (NNP Reynolds,)(NNP DeWitt)(CC and)(NNP Company))))))(: ;)(NP (NP (NNP Brad)(NNP Freeman))(, ,)(NP (DT a)(NNP California)(NN investor)))(: ;)(CC and)(NP (NP (NNP Florida)(NN developer)(NNP Al)(NNP Hoffman))(, ,)(SBAR (WHNP (WP who))(S (VP (VBD was)(NP (NP (NP (NN finance)(NN chairman))(PP (IN for)(NP (NP (NNP Jeb)(NNP Bush)(POS 's))(JJ gubernatorial)(NN campaign))))(CC and)(NP (NP (NN chairman))(PP (IN of)(NP (PRP$ his)(JJ inaugural)(NN committee)))))))))))(. .)) |BT| (BOW (members *)(raised *)(at *)(least *)($100,000 *)(for *)(Bush *)('s *)(campaign *)(: *)(Bill *)(DeWitt *)(and *)(Mercer *)(Reynolds *)(, *)(co-chairs *)) |BT| (BOP (NNS *)(VBD *)(IN *)(JJS *)(CD *)(IN *)(NNP *)(POS *)(NN *)(: *)(NNP *)(NNP *)(CC *)(NNP *)(NNPS *)(, *)(VBZ *)) |ET| 
0.33333333333351461424953754431044  |BT| (NP (NP (CD six)(NNS ``bomblets))(VP (VBG ,'')(NP (QP (IN at)(JJS least)(PDT half)))(S (VP (VBG containing)(NP (NP (JJ deadly)(NN sarin)(NN nerve)(NN gas))(, ,)(SBAR (WHNP (WDT that))(S (VP (VBD were)(VP (VBN found)(PP (IN in)(NP (DT a)(NN scrap)(NN metal)(NN heap)))(PP (IN at)(NP (DT the)(NNP Rocky)(NNP Mountain)(NNP Arsenal)))))))))))) |BT| (BOW (``bomblets *)(,'' *)(at *)(least *)(half *)) |BT| (BOP (NNS *)(, *)(IN *)(JJS *)(NN *)) |ET| 
-0.069341582148423702713913030493131  |BT| (NP (NP (CD six)(NNS ``bomblets))(VP (VBG ,'')(NP (QP (IN at)(JJS least)(PDT half)))(S (VP (VBG containing)(NP (NP (JJ deadly)(NN sarin)(NN nerve)(NN gas))(, ,)(SBAR (WHNP (WDT that))(S (VP (VBD were)(VP (VBN found)(PP (IN in)(NP (DT a)(NN scrap)(NN metal)(NN heap)))(PP (IN at)(NP (DT the)(NNP Rocky)(NNP Mountain)(NNP Arsenal)))))))))))) |BT| (BOW (``bomblets *)(,'' *)(at *)(least *)(half *)(containing *)(deadly *)(sarin *)(nerve *)(gas *)) |BT| (BOP (NNS *)(, *)(IN *)(JJS *)(NN *)(VBG *)(RB *)(VB *)(JJ *)(NNS *)) |ET| 
0.33333333333351461424953754431044  |BT| (S (NP (CD Four)(JJ other)(NN committee)(NNS members))(VP (VBD raised)(NP (QP (IN at)(JJS least)(CD $100,000)))(PP (IN for)(NP (NP (NNP Bush)(POS 's))(NN campaign)))(: :)(NP (NP (NP (NNP Bill)(NNP DeWitt))(CC and)(NP (NNP Mercer)(NNP Reynolds)))(, ,)(NP (NP (NNS co-chairs))(PP (IN of)(NP (NP (DT the)(ADJP (JJ Ohio-based))(NN investment)(NN firm))(PP (IN of)(NP (NNP Reynolds,)(NNP DeWitt)(CC and)(NNP Company))))))(: ;)(NP (NP (NNP Brad)(NNP Freeman))(, ,)(NP (DT a)(NNP California)(NN investor)))(: ;)(CC and)(NP (NP (NNP Florida)(NN developer)(NNP Al)(NNP Hoffman))(, ,)(SBAR (WHNP (WP who))(S (VP (VBD was)(NP (NP (NP (NN finance)(NN chairman))(PP (IN for)(NP (NP (NNP Jeb)(NNP Bush)(POS 's))(JJ gubernatorial)(NN campaign))))(CC and)(NP (NP (NN chairman))(PP (IN of)(NP (PRP$ his)(JJ inaugural)(NN committee)))))))))))(. .)) |BT| (BOW (members *)(raised *)(at *)(least *)($100,000 *)(for *)(Bush *)('s *)(campaign *)(: *)(Bill *)(DeWitt *)(and *)(Mercer *)(Reynolds *)(, *)(co-chairs *)(of *)(the *)(Ohio-based *)(investment *)(firm *)(of *)(Reynolds, *)(DeWitt *)(and *)(Company *)(; *)(Brad *)(Freeman *)) |BT| (BOP (NNS *)(VBD *)(IN *)(JJS *)(CD *)(IN *)(NNP *)(POS *)(NN *)(: *)(NNP *)(NNP *)(CC *)(NNP *)(NNPS *)(, *)(VBZ *)(IN *)(DT *)(JJ *)(NN *)(NN *)(IN *)(NNP *)(NNP *)(CC *)(NNP *)(: *)(NNP *)(NNP *)) |ET| 
-0.025731807213551550345131957442391  |BT| (S (NP (CD Four)(JJ other)(NN committee)(NNS members))(VP (VBD raised)(NP (QP (IN at)(JJS least)(CD $100,000)))(PP (IN for)(NP (NP (NNP Bush)(POS 's))(NN campaign)))(: :)(NP (NP (NP (NNP Bill)(NNP DeWitt))(CC and)(NP (NNP Mercer)(NNP Reynolds)))(, ,)(NP (NP (NNS co-chairs))(PP (IN of)(NP (NP (DT the)(ADJP (JJ Ohio-based))(NN investment)(NN firm))(PP (IN of)(NP (NNP Reynolds,)(NNP DeWitt)(CC and)(NNP Company))))))(: ;)(NP (NP (NNP Brad)(NNP Freeman))(, ,)(NP (DT a)(NNP California)(NN investor)))(: ;)(CC and)(NP (NP (NNP Florida)(NN developer)(NNP Al)(NNP Hoffman))(, ,)(SBAR (WHNP (WP who))(S (VP (VBD was)(NP (NP (NP (NN finance)(NN chairman))(PP (IN for)(NP (NP (NNP Jeb)(NNP Bush)(POS 's))(JJ gubernatorial)(NN campaign))))(CC and)(NP (NP (NN chairman))(PP (IN of)(NP (PRP$ his)(JJ inaugural)(NN committee)))))))))))(. .)) |BT| (BOW (committee *)(members *)(raised *)(at *)(least *)($100,000 *)(for *)(Bush *)('s *)(campaign *)(: *)(Bill *)(DeWitt *)(and *)(Mercer *)(Reynolds *)(, *)(co-chairs *)(of *)(the *)(Ohio-based *)(investment *)(firm *)(of *)(Reynolds, *)(DeWitt *)(and *)(Company *)(; *)(Brad *)(Freeman *)(, *)(a *)(California *)(investor *)(; *)(and *)(Florida *)(developer *)(Al *)(Hoffman *)(, *)(who *)(was *)(finance *)(chairman *)(for *)(Jeb *)(Bush *)('s *)(gubernatorial *)(campaign *)(and *)(chairman *)(of *)(his *)(inaugural *)(committee *)) |BT| (BOP (NN *)(NNS *)(VBD *)(IN *)(JJS *)(CD *)(IN *)(NNP *)(POS *)(NN *)(: *)(NNP *)(NNP *)(CC *)(NNP *)(NNPS *)(, *)(VBZ *)(IN *)(DT *)(JJ *)(NN *)(NN *)(IN *)(NNP *)(NNP *)(CC *)(NNP *)(: *)(NNP *)(NNP *)(, *)(DT *)(NNP *)(NN *)(: *)(CC *)(NNP *)(NN *)(NNP *)(NNP *)(, *)(WP *)(VBD *)(NN *)(NN *)(IN *)(NNP *)(NNP *)(POS *)(JJ *)(NN *)(CC *)(NN *)(IN *)(PRP$ *)(JJ *)(NN *)) |ET| 
0.33333333333351461424953754431044  |BT| (S (NP (JJ Other)(NNS surrogates))(, ,)(PP (VBG including)(NP (NP (NNS members))(PP (IN of)(NP (NNP Congress)))))(, ,)(ADVP (RB also))(VP (MD will)(VP (VB be)(VP (VBN used))))) |BT| (BOW (surrogates *)(, *)(including *)(members *)) |BT| (BOP (NNS *)(, *)(VBG *)(NNS *)) |ET| 
-0.18689986033408051424586915345571  |BT| (S (NP (JJ Other)(NNS surrogates))(, ,)(PP (VBG including)(NP (NP (NNS members))(PP (IN of)(NP (NNP Congress)))))(, ,)(ADVP (RB also))(VP (MD will)(VP (VB be)(VP (VBN used))))) |BT| (BOW (surrogates *)(, *)(including *)(members *)(of *)(Congress *)) |BT| (BOP (NNS *)(, *)(VBG *)(NNS *)(IN *)(NNP *)) |ET| 
0.33333333333351461424953754431044  |BT| (S (NP (CD Four)(JJ other)(NN committee)(NNS members))(VP (VBD raised)(NP (QP (IN at)(JJS least)(CD $100,000)))(PP (IN for)(NP (NP (NNP Bush)(POS 's))(NN campaign)))(: :)(NP (NP (NP (NNP Bill)(NNP DeWitt))(CC and)(NP (NNP Mercer)(NNP Reynolds)))(, ,)(NP (NP (NNS co-chairs))(PP (IN of)(NP (NP (DT the)(ADJP (JJ Ohio-based))(NN investment)(NN firm))(PP (IN of)(NP (NNP Reynolds,)(NNP DeWitt)(CC and)(NNP Company))))))(: ;)(NP (NP (NNP Brad)(NNP Freeman))(, ,)(NP (DT a)(NNP California)(NN investor)))(: ;)(CC and)(NP (NP (NNP Florida)(NN developer)(NNP Al)(NNP Hoffman))(, ,)(SBAR (WHNP (WP who))(S (VP (VBD was)(NP (NP (NP (NN finance)(NN chairman))(PP (IN for)(NP (NP (NNP Jeb)(NNP Bush)(POS 's))(JJ gubernatorial)(NN campaign))))(CC and)(NP (NP (NN chairman))(PP (IN of)(NP (PRP$ his)(JJ inaugural)(NN committee)))))))))))(. .)) |BT| (BOW (members *)(raised *)(at *)(least *)($100,000 *)(for *)(Bush *)('s *)(campaign *)(: *)(Bill *)(DeWitt *)(and *)(Mercer *)(Reynolds *)(, *)(co-chairs *)(of *)(the *)(Ohio-based *)(investment *)(firm *)(of *)(Reynolds, *)(DeWitt *)(and *)(Company *)(; *)(Brad *)(Freeman *)(, *)(a *)(California *)(investor *)(; *)(and *)(Florida *)(developer *)(Al *)(Hoffman *)) |BT| (BOP (NNS *)(VBD *)(IN *)(JJS *)(CD *)(IN *)(NNP *)(POS *)(NN *)(: *)(NNP *)(NNP *)(CC *)(NNP *)(NNPS *)(, *)(VBZ *)(IN *)(DT *)(JJ *)(NN *)(NN *)(IN *)(NNP *)(NNP *)(CC *)(NNP *)(: *)(NNP *)(NNP *)(, *)(DT *)(NNP *)(NN *)(: *)(CC *)(NNP *)(NN *)(NNP *)(NNP *)) |ET| 
-0.02603843747164503660829204534366  |BT| (S (NP (CD Four)(JJ other)(NN committee)(NNS members))(VP (VBD raised)(NP (QP (IN at)(JJS least)(CD $100,000)))(PP (IN for)(NP (NP (NNP Bush)(POS 's))(NN campaign)))(: :)(NP (NP (NP (NNP Bill)(NNP DeWitt))(CC and)(NP (NNP Mercer)(NNP Reynolds)))(, ,)(NP (NP (NNS co-chairs))(PP (IN of)(NP (NP (DT the)(ADJP (JJ Ohio-based))(NN investment)(NN firm))(PP (IN of)(NP (NNP Reynolds,)(NNP DeWitt)(CC and)(NNP Company))))))(: ;)(NP (NP (NNP Brad)(NNP Freeman))(, ,)(NP (DT a)(NNP California)(NN investor)))(: ;)(CC and)(NP (NP (NNP Florida)(NN developer)(NNP Al)(NNP Hoffman))(, ,)(SBAR (WHNP (WP who))(S (VP (VBD was)(NP (NP (NP (NN finance)(NN chairman))(PP (IN for)(NP (NP (NNP Jeb)(NNP Bush)(POS 's))(JJ gubernatorial)(NN campaign))))(CC and)(NP (NP (NN chairman))(PP (IN of)(NP (PRP$ his)(JJ inaugural)(NN committee)))))))))))(. .)) |BT| (BOW (members *)(raised *)(at *)(least *)($100,000 *)(for *)(Bush *)('s *)(campaign *)(: *)(Bill *)(DeWitt *)(and *)(Mercer *)(Reynolds *)(, *)(co-chairs *)(of *)(the *)(Ohio-based *)(investment *)(firm *)(of *)(Reynolds, *)(DeWitt *)(and *)(Company *)(; *)(Brad *)(Freeman *)(, *)(a *)(California *)(investor *)(; *)(and *)(Florida *)(developer *)(Al *)(Hoffman *)(, *)(who *)(was *)(finance *)(chairman *)(for *)(Jeb *)(Bush *)('s *)(gubernatorial *)(campaign *)(and *)(chairman *)(of *)(his *)(inaugural *)(committee *)) |BT| (BOP (NNS *)(VBD *)(IN *)(JJS *)(CD *)(IN *)(NNP *)(POS *)(NN *)(: *)(NNP *)(NNP *)(CC *)(NNP *)(NNPS *)(, *)(VBZ *)(IN *)(DT *)(JJ *)(NN *)(NN *)(IN *)(NNP *)(NNP *)(CC *)(NNP *)(: *)(NNP *)(NNP *)(, *)(DT *)(NNP *)(NN *)(: *)(CC *)(NNP *)(NN *)(NNP *)(NNP *)(, *)(WP *)(VBD *)(NN *)(NN *)(IN *)(NNP *)(NNP *)(POS *)(JJ *)(NN *)(CC *)(NN *)(IN *)(PRP$ *)(JJ *)(NN *)) |ET| 
0.33333333333351461424953754431044  |BT| (NP (NP (NN anyone))(, ,)(NP (NP (RB even)(DT those))(SBAR (WHNP (WP who))(S (NP (NN don't))(VP (VBP subscribe)(PP (TO to)(NP (NNP AOL)))))))(, ,)) |BT| (BOW (anyone *)(, *)(even *)(those *)) |BT| (BOP (NN *)(, *)(RB *)(DT *)) |ET| 
-0.13752750517708944855144181929063  |BT| (NP (NP (NN anyone))(, ,)(NP (NP (RB even)(DT those))(SBAR (WHNP (WP who))(S (NP (NN don't))(VP (VBP subscribe)(PP (TO to)(NP (NNP AOL)))))))(, ,)) |BT| (BOW (anyone *)(, *)(even *)(those *)(who *)) |BT| (BOP (NN *)(, *)(RB *)(DT *)(WP *)) |ET| 
0.33333333333351461424953754431044  |BT| (NP (NP (QP (CD 6.4)(CD million))(JJ full-time)(NNS undergraduates))(: -)(NP (NP (CD 54)(NN percent))(VP (VBG attending)(NP (NP (NP (JJ four-year)(JJ public)(NNS institutions))(, ,)(NP (NP (CD 27)(NN percent))(PP (IN at)(NP (JJ four-year)(JJ private)(NNS schools)))))(, ,)(NP (NP (CD 17)(NN percent))(PP (IN at)(NP (JJ two-year)(NN community)(NNS colleges))))(CC and)(NP (NP (CD 1)(NN percent))(PP (IN at)(NP (JJ private)(JJ two-year)(NNS schools)))))))) |BT| (BOW (undergraduates *)(- *)(54 *)(percent *)(attending *)(four-year *)(public *)(institutions *)(, *)(27 *)(percent *)(at *)(four-year *)(private *)(schools *)(, *)(17 *)(percent *)(at *)(two-year *)(community *)(colleges *)(and *)(1 *)(percent *)) |BT| (BOP (NNS *)(IN *)(CD *)(JJ *)(NN *)(JJ *)(JJ *)(NNS *)(, *)(CD *)(JJ *)(IN *)(JJ *)(JJ *)(NNS *)(, *)(CD *)(JJ *)(IN *)(JJ *)(NN *)(NNS *)(CC *)(CD *)(NN *)) |ET| 
-0.017409207897992627633865225789123  |BT| (NP (NP (NP (JJ four-year)(JJ public)(NNS institutions))(, ,)(NP (NP (CD 27)(NN percent))(PP (IN at)(NP (JJ four-year)(JJ private)(NNS schools)))))(, ,)(NP (NP (CD 17)(NN percent))(PP (IN at)(NP (JJ two-year)(NN community)(NNS colleges))))(CC and)(NP (NP (CD 1)(NN percent))(PP (IN at)(NP (JJ private)(JJ two-year)(NNS schools))))) |BT| (BOW (colleges *)(and *)(1 *)(percent *)) |BT| (BOP (NNS *)(CC *)(CD *)(NN *)) |ET| 
0.33333333333351461424953754431044  |BT| (NP (NP (JJ Many))(PP (IN of)(NP (NP (NNP Germany)(POS 's))(NNS neighbors)))(, ,)(PP (VBG including)(NP (NNP France)(, ,)(NNP Italy)(CC and)(NNP Greece)))(, ,)) |BT| (BOW (Many *)(of *)(Germany *)('s *)(neighbors *)(, *)(including *)(France *)) |BT| (BOP (JJ *)(IN *)(NNP *)(POS *)(NNS *)(, *)(VBG *)(NNP *)) |ET| 
-0.2528158253651397457950622538192  |BT| (NP (NP (JJ Many))(PP (IN of)(NP (NP (NNP Germany)(POS 's))(NNS neighbors)))(, ,)(PP (VBG including)(NP (NNP France)(, ,)(NNP Italy)(CC and)(NNP Greece)))(, ,)) |BT| (BOW (neighbors *)(, *)(including *)(France *)(, *)(Italy *)) |BT| (BOP (NNS *)(, *)(VBG *)(NNP *)(, *)(NNP *)) |ET| 
0.33333333333351461424953754431044  |BT| (S (PP (IN Of)(NP (CD 1,944)(NNS donors)))(, ,)(NP (CD 19))(VP (VBP are)(PP (IN from)(NP (JJ outside)(NNP Texas))))(. .)) |BT| (BOW (donors *)(, *)(19 *)) |BT| (BOP (NNS *)(, *)(CD *)) |ET| 
-0.12642521203481926761469367193058  |BT| (S (PP (IN Of)(NP (CD 1,944)(NNS donors)))(, ,)(NP (CD 19))(VP (VBP are)(PP (IN from)(NP (JJ outside)(NNP Texas))))(. .)) |BT| (BOW (donors *)(, *)(19 *)(are *)(from *)(outside *)(Texas *)) |BT| (BOP (NNS *)(, *)(CD *)(VBP *)(IN *)(JJ *)(NNP *)) |ET| 
0.33333333333351461424953754431044  |BT| (NP (NP (JJ Many))(PP (IN of)(NP (NP (NNP Germany)(POS 's))(NNS neighbors)))(, ,)(PP (VBG including)(NP (NNP France)(, ,)(NNP Italy)(CC and)(NNP Greece)))(, ,)) |BT| (BOW (Many *)(of *)(Germany *)('s *)(neighbors *)(, *)(including *)(France *)(, *)(Italy *)(and *)(Greece *)) |BT| (BOP (JJ *)(IN *)(NNP *)(POS *)(NNS *)(, *)(VBG *)(NNP *)(, *)(NNP *)(CC *)(NNP *)) |ET| 
-0.19233544482386627505476894839376  |BT| (NP (NP (JJ Many))(PP (IN of)(NP (NP (NNP Germany)(POS 's))(NNS neighbors)))(, ,)(PP (VBG including)(NP (NNP France)(, ,)(NNP Italy)(CC and)(NNP Greece)))(, ,)) |BT| (BOW (neighbors *)(, *)(including *)(France *)(, *)(Italy *)(and *)(Greece *)) |BT| (BOP (NNS *)(, *)(VBG *)(NNP *)(, *)(NNP *)(CC *)(NNP *)) |ET| 
0.33333333333351461424953754431044  |BT| (NP (NP (DT The)(NNS protesters))(, ,)(SBAR (WHNP (DT many))(S (VP (VP (VBG carrying)(NP (NNS signs)))(CC or)(VP (VBG wearing)(NP (JJ red)(NNS headbands)(CC and)(NNS vests))(PP (IN with)(NP (NP (NP (NNS slogans))(PP (JJ such)(IN as)(NP (NN ``Fight))))('' '')(CC and)(NP (NP (NN ``Solidarity)('' ''))(VP (VBN printed)(PP (IN on)(NP (PRP them)))))))))))(, ,)) |BT| (BOW (protesters *)(, *)(many *)) |BT| (BOP (NNS *)(, *)(JJ *)) |ET| 
-0.12785419745210643838184694232041  |BT| (NP (NP (CD two)(NNS independents))(, ,)(NP (NP (CD one))(VP (VBN aligned)(PP (IN with)(NP (DT each)(NN party)))(, ,)(S (ADVP (RB effectively))(VP (VBG giving)(NP (DT the)(NNP GOP))(NP (NP (DT an)(NN edge))(PP (IN of)(NP (CD 221-212))))))))) |BT| (BOW (independents *)(, *)(one *)) |BT| (BOP (NNS *)(, *)(CD *)) |ET| 
0.33333333333351461424953754431044  |BT| (NP (NP (JJ Many))(PP (IN of)(NP (NP (NNP Germany)(POS 's))(NNS neighbors)))(, ,)(PP (VBG including)(NP (NNP France)(, ,)(NNP Italy)(CC and)(NNP Greece)))(, ,)) |BT| (BOW (Many *)(of *)(Germany *)('s *)(neighbors *)(, *)(including *)(France *)(, *)(Italy *)) |BT| (BOP (JJ *)(IN *)(NNP *)(POS *)(NNS *)(, *)(VBG *)(NNP *)(, *)(NNP *)) |ET| 
-0.054395956727489550019960518056905  |BT| (NP (NP (JJ Many))(PP (IN of)(NP (NP (NNP Germany)(POS 's))(NNS neighbors)))(, ,)(PP (VBG including)(NP (NNP France)(, ,)(NNP Italy)(CC and)(NNP Greece)))(, ,)) |BT| (BOW (Many *)(of *)(Germany *)('s *)(neighbors *)) |BT| (BOP (JJ *)(IN *)(NNP *)(POS *)(NNS *)) |ET| 
0.33333333333351461424953754431044  |BT| (NP (NP (JJS Most)(NNS candidates))(: -)(PP (VBG including)(NP (NP (DT those))(PP (IN from)(NP (NP (DT the)(NN country)(POS 's))(CD two)(JJS largest)(JJ political)(NNS parties)))))(: -)) |BT| (BOW (candidates *)(- *)(including *)(those *)) |BT| (BOP (NNS *)(, *)(VBG *)(DT *)) |ET| 
-0.19978660439231840650897709110723  |BT| (NP (NP (JJS Most)(NNS candidates))(: -)(PP (VBG including)(NP (NP (DT those))(PP (IN from)(NP (NP (DT the)(NN country)(POS 's))(CD two)(JJS largest)(JJ political)(NNS parties)))))(: -)) |BT| (BOW (candidates *)(- *)(including *)(those *)(from *)(the *)(country *)) |BT| (BOP (NNS *)(, *)(VBG *)(DT *)(IN *)(DT *)(NN *)) |ET| 
0.33333333333351461424953754431044  |BT| (NP (NP (NP (NNS Thousands))(PP (IN of)(NP (JJ uniformed)(NN police)(NNS officers))))(, ,)(NP (NP (DT some))(PP (IN with)(NP (NNS shields))))(, ,)) |BT| (BOW (officers *)(, *)(some *)) |BT| (BOP (NNS *)(, *)(DT *)) |ET| 
-0.086840249832758203973881450110639  |BT| (S (NP (NP (NP (NNS Thousands))(PP (IN of)(NP (JJ uniformed)(NN police)(NNS officers))))(, ,)(NP (NP (DT some))(PP (IN with)(NP (NNS shields))))(, ,))(VP (VBD stood)(PP (IN around)(NP (DT the)(NNS protesters)))(S (VP (TO to)(VP (VB guard)(PP (IN against)(NP (JJ possible)(NN violence)))))))) |BT| (BOW (officers *)(, *)(some *)(with *)(shields *)(, *)(stood *)(around *)(the *)(protesters *)) |BT| (BOP (NNS *)(, *)(DT *)(IN *)(NNS *)(, *)(VBN *)(IN *)(DT *)(NNS *)) |ET| 
0.33333333333351461424953754431044  |BT| (NP (NP (CD two)(JJ instant)(NN messaging)(NNS competitors))(: -)(NP (NP (NN iCAST))(CC and)(NP (NNP Tribal)(NNP Voice)))(: -)) |BT| (BOW (competitors *)(- *)(iCAST *)) |BT| (BOP (NNS *)(IN *)(NNP *)) |ET| 
-0.097286869651885460319462595180084  |BT| (NP (NP (CD two)(NNS coordinators))(: -)(NP (NP (NNP Miami)(JJ defensive)(NN coordinator)(NNP Greg)(NNP Schiano))(CC and)(NP (NNP Notre)(NNP Dame)(NN offensive)(NN coordinator)(NNP Kevin)(NNP Rogers)))) |BT| (BOW (coordinators *)(- *)(Miami *)) |BT| (BOP (NNS *)(IN *)(NNP *)) |ET| 
-0.01606479630916873846402381786902  |BT| (NP (NNS farms)(, ,)(NNS restaurants)(CC and)(NNS factories)) |BT| (BOW (farms *)(, *)(restaurants *)) |BT| (BOP (NNS *)(, *)(NNS *)) |ET| 
-0.11444583735293520354581175979547  |BT| (NP (NP (QP (CD 6.4)(CD million))(JJ full-time)(NNS undergraduates))(: -)(NP (NP (CD 54)(NN percent))(VP (VBG attending)(NP (NP (NP (JJ four-year)(JJ public)(NNS institutions))(, ,)(NP (NP (CD 27)(NN percent))(PP (IN at)(NP (JJ four-year)(JJ private)(NNS schools)))))(, ,)(NP (NP (CD 17)(NN percent))(PP (IN at)(NP (JJ two-year)(NN community)(NNS colleges))))(CC and)(NP (NP (CD 1)(NN percent))(PP (IN at)(NP (JJ private)(JJ two-year)(NNS schools)))))))) |BT| (BOW (undergraduates *)(- *)(54 *)(percent *)(attending *)(four-year *)(public *)(institutions *)(, *)(27 *)(percent *)(at *)(four-year *)(private *)(schools *)) |BT| (BOP (NNS *)(IN *)(CD *)(JJ *)(NN *)(JJ *)(JJ *)(NNS *)(, *)(CD *)(JJ *)(IN *)(JJ *)(JJ *)(NNS *)) |ET| 
-0.079669180376835208035046775876253  |BT| (NP (NP (QP (CD 6.4)(CD million))(JJ full-time)(NNS undergraduates))(: -)(NP (NP (CD 54)(NN percent))(VP (VBG attending)(NP (NP (NP (JJ four-year)(JJ public)(NNS institutions))(, ,)(NP (NP (CD 27)(NN percent))(PP (IN at)(NP (JJ four-year)(JJ private)(NNS schools)))))(, ,)(NP (NP (CD 17)(NN percent))(PP (IN at)(NP (JJ two-year)(NN community)(NNS colleges))))(CC and)(NP (NP (CD 1)(NN percent))(PP (IN at)(NP (JJ private)(JJ two-year)(NNS schools)))))))) |BT| (BOW (undergraduates *)(- *)(54 *)(percent *)(attending *)(four-year *)(public *)(institutions *)(, *)(27 *)(percent *)(at *)(four-year *)(private *)(schools *)(, *)(17 *)(percent *)(at *)(two-year *)(community *)(colleges *)) |BT| (BOP (NNS *)(IN *)(CD *)(JJ *)(NN *)(JJ *)(JJ *)(NNS *)(, *)(CD *)(JJ *)(IN *)(JJ *)(JJ *)(NNS *)(, *)(CD *)(JJ *)(IN *)(JJ *)(NN *)(NNS *)) |ET| 
0.33333333333351461424953754431044  |BT| (NP (NP (JJ instant)(VBG messaging)(NNS rivals))(PP (IN like)(NP (NNP Microsoft)(, ,)(NNP AT&AMP;T)(CC and)(NNP ExciteAtHome)))) |BT| (BOW (rivals *)(like *)(Microsoft *)(, *)(AT&AMP;T *)(and *)(ExciteAtHome *)) |BT| (BOP (NNS *)(IN *)(NNP *)(, *)(NNP *)(CC *)(NNP *)) |ET| 
-0.14751265978289565539149919004558  |BT| (NP (NNP Microsoft)(, ,)(NNP AT&AMP;T)(CC and)(NNP ExciteAtHome)) |BT| (BOW (Microsoft *)(, *)(AT&AMP;T *)(and *)(ExciteAtHome *)) |BT| (BOP (NNP *)(, *)(NNP *)(CC *)(NNP *)) |ET| 
-0.18585991224066689131433349757572  |BT| (NP (NP (NNS countries))(PP (IN like)(NP (NNP Chile)(CC and)(NNP Indonesia)))) |BT| (BOW (countries *)(like *)(Chile *)) |BT| (BOP (NNS *)(IN *)(NNP *)) |ET| 
0.33333333333351461424953754431044  |BT| (NP (NP (PRP$ their)(NNS counterparts))(PP (IN in)(NP (ADJP (RBR more)(JJ liberal))(NNS countries)))(, ,)(PP (VBG including)(NP (NNP Jordan)(, ,)(NNP Egypt)(CC and)(NNP Lebanon)))(, ,)) |BT| (BOW (countries *)(, *)(including *)(Jordan *)) |BT| (BOP (NNS *)(, *)(VBG *)(NNP *)) |ET| 
-0.14206708899378542310110162816272  |BT| (NP (NP (PRP$ their)(NNS counterparts))(PP (IN in)(NP (ADJP (RBR more)(JJ liberal))(NNS countries)))(, ,)(PP (VBG including)(NP (NNP Jordan)(, ,)(NNP Egypt)(CC and)(NNP Lebanon)))(, ,)) |BT| (BOW (counterparts *)(in *)(more *)(liberal *)(countries *)(, *)(including *)(Jordan *)(, *)(Egypt *)) |BT| (BOP (NNS *)(IN *)(JJR *)(JJ *)(NNS *)(, *)(VBG *)(NNP *)(, *)(NNP *)) |ET| 
0.33333333333351461424953754431044  |BT| (NP (NP (JJ instant)(VBG messaging)(NNS rivals))(PP (IN like)(NP (NNP Microsoft)(, ,)(NNP AT&AMP;T)(CC and)(NNP ExciteAtHome)))) |BT| (BOW (rivals *)(like *)(Microsoft *)) |BT| (BOP (NNS *)(IN *)(NNP *)) |ET| 
-0.080853680905670161083165226045821  |BT| (VP (VBD pointed)(PP (TO to)(NP (NP (DT the)(JJ recent)(NN demise))(PP (IN of)(NP (NP (CD two)(JJ instant)(NN messaging)(NNS competitors))(: -)(NP (NP (NN iCAST))(CC and)(NP (NNP Tribal)(NNP Voice)))(: -)))))(PP (IN as)(NP (NN evidence)))(SBAR (IN that)(S (NP (NP (NNP AOL)(POS 's))(NN dominance))(VP (MD could)(VP (VB prevent)(NP (NNS choices))(PP (IN in)(NP (DT the)(NN market)))))))) |BT| (BOW (competitors *)(- *)(iCAST *)(and *)(Tribal *)(Voice *)(- *)(as *)(evidence *)(that *)(AOL *)) |BT| (BOP (NNS *)(IN *)(NNP *)(CC *)(NNP *)(NNP *)(, *)(IN *)(NN *)(IN *)(NNP *)) |ET| 
-0.064990269035244213613466968126886  |BT| (S (PP (IN For)(NP (DT this)(NN reason)))(, ,)(NP (NP (JJ instant)(VBG messaging)(NNS rivals))(PP (IN like)(NP (NNP Microsoft)(, ,)(NNP AT&AMP;T)(CC and)(NNP ExciteAtHome))))(VP (VBP maintain)(SBAR (S (NP (PRP$ their)(NNS users))(VP (MD ought)(S (VP (TO to)(VP (VB be)(ADJP (JJ able)(S (VP (TO to)(VP (VB send)(NP (NNS messages))(PP (TO to)(NP (NN anyone)(RB else)))(, ,)(ADVP (RB regardless)(SBAR (WHPP (IN of)(WHNP (WDT what)(NN service)))(S (NP (PRP they))(VP (VBP happen)(S (VP (TO to)(VP (VB have)))))))))))))))))))(. .)) |BT| (BOW (rivals *)(like *)(Microsoft *)(, *)(AT&AMP;T *)(and *)(ExciteAtHome *)(maintain *)(their *)) |BT| (BOP (NNS *)(IN *)(NNP *)(, *)(NNP *)(CC *)(NNP *)(VB *)(PRP$ *)) |ET| 
-0.042018882324783263237932828815246  |BT| (S (NP (NP (DT The)(NNS protesters))(, ,)(SBAR (WHNP (DT many))(S (VP (VP (VBG carrying)(NP (NNS signs)))(CC or)(VP (VBG wearing)(NP (JJ red)(NNS headbands)(CC and)(NNS vests))(PP (IN with)(NP (NP (NP (NNS slogans))(PP (JJ such)(IN as)(NP (NN ``Fight))))('' '')(CC and)(NP (NP (NN ``Solidarity)('' ''))(VP (VBN printed)(PP (IN on)(NP (PRP them)))))))))))(, ,))(VP (VP (VBD chanted))(CC and)(VP (VBD pumped)(NP (PRP$ their)(NNS fists))(PP (IN in)(NP (DT the)(NN air)))))(. .)) |BT| (BOW (protesters *)(, *)(many *)(carrying *)(signs *)(or *)(wearing *)(red *)(headbands *)(and *)(vests *)(with *)(slogans *)(such *)(as *)(``Fight *)('' *)(and *)(``Solidarity *)('' *)(printed *)(on *)(them *)(, *)(chanted *)(and *)(pumped *)(their *)) |BT| (BOP (NNS *)(, *)(JJ *)(NN *)(NNS *)(CC *)(VBG *)(JJ *)(NNS *)(CC *)(NNS *)(IN *)(NNS *)(JJ *)(IN *)(NN *)('' *)(CC *)(NN *)('' *)(VBD *)(IN *)(PRP *)(, *)(VBD *)(CC *)(VBD *)(PRP$ *)) |ET| 
-0.029559441055208530990672244342932  |BT| (NP (NP (NNP Georgia)(POS 's))(JJS biggest)(NNS rivals)) |BT| (BOW (Georgia *)('s *)(biggest *)(rivals *)) |BT| (BOP (NNP *)(POS *)(JJS *)(NNS *)) |ET| 
-0.024815900932735904249604175220156  |BT| (NP (NP (NP (NNS Neighbors))(PP (IN of)(NP (CD one)(JJ available)(NN residence))))(: -)(NP (NP (DT a)(JJ five-bedroom)(NN spread)(NN worth))(NP (QP (CD $11.95)(CD million))))(: -)) |BT| (BOW (residence *)(- *)(a *)(five-bedroom *)(spread *)) |BT| (BOP (NN *)(IN *)(DT *)(JJ *)(NN *)) |ET| 
-0.067432370443232400591959674329701  |BT| (NP (NP (QP (CD 6.4)(CD million))(JJ full-time)(NNS undergraduates))(: -)(NP (NP (CD 54)(NN percent))(VP (VBG attending)(NP (NP (NP (JJ four-year)(JJ public)(NNS institutions))(, ,)(NP (NP (CD 27)(NN percent))(PP (IN at)(NP (JJ four-year)(JJ private)(NNS schools)))))(, ,)(NP (NP (CD 17)(NN percent))(PP (IN at)(NP (JJ two-year)(NN community)(NNS colleges))))(CC and)(NP (NP (CD 1)(NN percent))(PP (IN at)(NP (JJ private)(JJ two-year)(NNS schools)))))))) |BT| (BOW (undergraduates *)(- *)(54 *)(percent *)(attending *)(four-year *)(public *)(institutions *)(, *)(27 *)(percent *)(at *)(four-year *)(private *)(schools *)(, *)(17 *)(percent *)(at *)(two-year *)(community *)(colleges *)(and *)(1 *)(percent *)(at *)(private *)(two-year *)(schools *)) |BT| (BOP (NNS *)(IN *)(CD *)(JJ *)(NN *)(JJ *)(JJ *)(NNS *)(, *)(CD *)(JJ *)(IN *)(JJ *)(JJ *)(NNS *)(, *)(CD *)(JJ *)(IN *)(JJ *)(NN *)(NNS *)(CC *)(CD *)(NN *)(IN *)(JJ *)(JJ *)(NNS *)) |ET| 
-0.02613657725280237043019582188208  |BT| (S (NP (CD Four)(JJ other)(NN committee)(NNS members))(VP (VBD raised)(NP (QP (IN at)(JJS least)(CD $100,000)))(PP (IN for)(NP (NP (NNP Bush)(POS 's))(NN campaign)))(: :)(NP (NP (NP (NNP Bill)(NNP DeWitt))(CC and)(NP (NNP Mercer)(NNP Reynolds)))(, ,)(NP (NP (NNS co-chairs))(PP (IN of)(NP (NP (DT the)(ADJP (JJ Ohio-based))(NN investment)(NN firm))(PP (IN of)(NP (NNP Reynolds,)(NNP DeWitt)(CC and)(NNP Company))))))(: ;)(NP (NP (NNP Brad)(NNP Freeman))(, ,)(NP (DT a)(NNP California)(NN investor)))(: ;)(CC and)(NP (NP (NNP Florida)(NN developer)(NNP Al)(NNP Hoffman))(, ,)(SBAR (WHNP (WP who))(S (VP (VBD was)(NP (NP (NP (NN finance)(NN chairman))(PP (IN for)(NP (NP (NNP Jeb)(NNP Bush)(POS 's))(JJ gubernatorial)(NN campaign))))(CC and)(NP (NP (NN chairman))(PP (IN of)(NP (PRP$ his)(JJ inaugural)(NN committee)))))))))))(. .)) |BT| (BOW (committee *)(members *)(raised *)(at *)(least *)($100,000 *)(for *)(Bush *)('s *)(campaign *)(: *)(Bill *)(DeWitt *)(and *)(Mercer *)(Reynolds *)(, *)(co-chairs *)(of *)(the *)(Ohio-based *)(investment *)(firm *)(of *)(Reynolds, *)(DeWitt *)(and *)(Company *)(; *)(Brad *)(Freeman *)(, *)(a *)(California *)(investor *)(; *)(and *)(Florida *)(developer *)(Al *)(Hoffman *)(, *)(who *)(was *)(finance *)(chairman *)(for *)(Jeb *)(Bush *)('s *)(gubernatorial *)(campaign *)(and *)(chairman *)(of *)(his *)) |BT| (BOP (NN *)(NNS *)(VBD *)(IN *)(JJS *)(CD *)(IN *)(NNP *)(POS *)(NN *)(: *)(NNP *)(NNP *)(CC *)(NNP *)(NNPS *)(, *)(VBZ *)(IN *)(DT *)(JJ *)(NN *)(NN *)(IN *)(NNP *)(NNP *)(CC *)(NNP *)(: *)(NNP *)(NNP *)(, *)(DT *)(NNP *)(NN *)(: *)(CC *)(NNP *)(NN *)(NNP *)(NNP *)(, *)(WP *)(VBD *)(NN *)(NN *)(IN *)(NNP *)(NNP *)(POS *)(JJ *)(NN *)(CC *)(NN *)(IN *)(PRP$ *)) |ET| 
-0.073544913417757873386193523401744  |BT| (NP (NP (NP (JJ four-year)(JJ public)(NNS institutions))(, ,)(NP (NP (CD 27)(NN percent))(PP (IN at)(NP (JJ four-year)(JJ private)(NNS schools)))))(, ,)(NP (NP (CD 17)(NN percent))(PP (IN at)(NP (JJ two-year)(NN community)(NNS colleges))))(CC and)(NP (NP (CD 1)(NN percent))(PP (IN at)(NP (JJ private)(JJ two-year)(NNS schools))))) |BT| (BOW (schools *)(, *)(17 *)(percent *)) |BT| (BOP (NNS *)(, *)(CD *)(JJ *)) |ET| 
-0.026080305567545394168638139831273  |BT| (S (NP (CD Four)(JJ other)(NN committee)(NNS members))(VP (VBD raised)(NP (QP (IN at)(JJS least)(CD $100,000)))(PP (IN for)(NP (NP (NNP Bush)(POS 's))(NN campaign)))(: :)(NP (NP (NP (NNP Bill)(NNP DeWitt))(CC and)(NP (NNP Mercer)(NNP Reynolds)))(, ,)(NP (NP (NNS co-chairs))(PP (IN of)(NP (NP (DT the)(ADJP (JJ Ohio-based))(NN investment)(NN firm))(PP (IN of)(NP (NNP Reynolds,)(NNP DeWitt)(CC and)(NNP Company))))))(: ;)(NP (NP (NNP Brad)(NNP Freeman))(, ,)(NP (DT a)(NNP California)(NN investor)))(: ;)(CC and)(NP (NP (NNP Florida)(NN developer)(NNP Al)(NNP Hoffman))(, ,)(SBAR (WHNP (WP who))(S (VP (VBD was)(NP (NP (NP (NN finance)(NN chairman))(PP (IN for)(NP (NP (NNP Jeb)(NNP Bush)(POS 's))(JJ gubernatorial)(NN campaign))))(CC and)(NP (NP (NN chairman))(PP (IN of)(NP (PRP$ his)(JJ inaugural)(NN committee)))))))))))(. .)) |BT| (BOW (members *)(raised *)(at *)(least *)($100,000 *)(for *)(Bush *)('s *)(campaign *)(: *)(Bill *)(DeWitt *)(and *)(Mercer *)(Reynolds *)(, *)(co-chairs *)(of *)(the *)(Ohio-based *)(investment *)(firm *)(of *)(Reynolds, *)(DeWitt *)(and *)(Company *)(; *)(Brad *)(Freeman *)(, *)(a *)(California *)(investor *)(; *)(and *)(Florida *)(developer *)(Al *)(Hoffman *)(, *)(who *)(was *)(finance *)(chairman *)(for *)(Jeb *)(Bush *)('s *)(gubernatorial *)(campaign *)(and *)(chairman *)(of *)(his *)) |BT| (BOP (NNS *)(VBD *)(IN *)(JJS *)(CD *)(IN *)(NNP *)(POS *)(NN *)(: *)(NNP *)(NNP *)(CC *)(NNP *)(NNPS *)(, *)(VBZ *)(IN *)(DT *)(JJ *)(NN *)(NN *)(IN *)(NNP *)(NNP *)(CC *)(NNP *)(: *)(NNP *)(NNP *)(, *)(DT *)(NNP *)(NN *)(: *)(CC *)(NNP *)(NN *)(NNP *)(NNP *)(, *)(WP *)(VBD *)(NN *)(NN *)(IN *)(NNP *)(NNP *)(POS *)(JJ *)(NN *)(CC *)(NN *)(IN *)(PRP$ *)) |ET| 
-0.054125087935450177933915938410792  |BT| (NP (NP (NP (DT The)(NNP College)(NNP Board)(POS 's))(NNS figures)(NN concern))(NP (NP (DT the)(NNS costs))(PP (IN for)(NP (NP (QP (CD 6.4)(CD million))(JJ full-time)(NNS undergraduates))(: -)(NP (NP (CD 54)(NN percent))(VP (VBG attending)(NP (NP (NP (JJ four-year)(JJ public)(NNS institutions))(, ,)(NP (NP (CD 27)(NN percent))(PP (IN at)(NP (JJ four-year)(JJ private)(NNS schools)))))(, ,)(NP (NP (CD 17)(NN percent))(PP (IN at)(NP (JJ two-year)(NN community)(NNS colleges))))(CC and)(NP (NP (CD 1)(NN percent))(PP (IN at)(NP (JJ private)(JJ two-year)(NNS schools))))))))))(. .)) |BT| (BOW (College *)(Board *)('s *)(figures *)(concern *)(the *)(costs *)(for *)(6.4 *)(million *)(full-time *)(undergraduates *)(- *)(54 *)(percent *)) |BT| (BOP (NNP *)(NNP *)(POS *)(NNS *)(NN *)(DT *)(NNS *)(IN *)(CD *)(CD *)(JJ *)(NNS *)(IN *)(CD *)(JJ *)) |ET| 
-0.023648318052188418286752025210262  |BT| (NP (NP (NNS parts))(PP (IN of)(NP (NNP Yugoslavia)))) |BT| (BOW (parts *)(of *)(Yugoslavia *)) |BT| (BOP (NNS *)(IN *)(NNP *)) |ET| 
-0.057342529936711884863687060942539  |BT| (NP (NP (JJ deadly)(NN sarin)(NN nerve)(NN gas))(, ,)(SBAR (WHNP (WDT that))(S (VP (VBD were)(VP (VBN found)(PP (IN in)(NP (DT a)(NN scrap)(NN metal)(NN heap)))(PP (IN at)(NP (DT the)(NNP Rocky)(NNP Mountain)(NNP Arsenal)))))))) |BT| (BOW (gas *)(, *)(that *)) |BT| (BOP (NNS *)(, *)(WDT *)) |ET| 
-0.11268421270856775195934318389845  |BT| (NP (NP (PRP$ their)(NNS counterparts))(PP (IN in)(NP (ADJP (RBR more)(JJ liberal))(NNS countries)))(, ,)(PP (VBG including)(NP (NNP Jordan)(, ,)(NNP Egypt)(CC and)(NNP Lebanon)))(, ,)) |BT| (BOW (counterparts *)(in *)(more *)(liberal *)(countries *)(, *)(including *)(Jordan *)(, *)(Egypt *)(and *)(Lebanon *)) |BT| (BOP (NNS *)(IN *)(JJR *)(JJ *)(NNS *)(, *)(VBG *)(NNP *)(, *)(NNP *)(CC *)(NNP *)) |ET| 
-0.080487270633866833668967899484414  |BT| (NP (NP (DT the)(JJ big)(NNS rivals))(SBAR (S (NP (NNP ,'')(NNP Phillips))(VP (VBD said))))) |BT| (BOW (rivals *)(,'' *)(Phillips *)) |BT| (BOP (NNS *)(, *)(NNS *)) |ET| 
-0.036680178059670970336370032782725  |BT| (NP (NP (DT the)(JJ first)(NNS ladies))(PP (IN of)(NP (NP (NNP Bahrain)(, ,)(NNP Comoros)(, ,)(NNP Egypt)(, ,)(NNP Jordan)(, ,)(NNP Kuwait)(, ,)(NNP Lebanon)(, ,)(NNP Morocco))(, ,)(NP (DT the)(JJ Palestinian)(NNS territories))(, ,)(NP (NNP Sudan))(CC and)(NP (NNP Tunisia))))) |BT| (BOW (ladies *)(of *)(Bahrain *)(, *)(Comoros *)) |BT| (BOP (NNS *)(IN *)(NNP *)(, *)(NNP *)) |ET| 
-0.09225114610337588338939696086527  |BT| (NP (NP (PRP$ their)(NNS counterparts))(PP (IN in)(NP (ADJP (RBR more)(JJ liberal))(NNS countries)))(, ,)(PP (VBG including)(NP (NNP Jordan)(, ,)(NNP Egypt)(CC and)(NNP Lebanon)))(, ,)) |BT| (BOW (their *)(counterparts *)(in *)(more *)(liberal *)(countries *)(, *)(including *)(Jordan *)(, *)(Egypt *)(and *)(Lebanon *)) |BT| (BOP (PRP$ *)(NNS *)(IN *)(JJR *)(JJ *)(NNS *)(, *)(VBG *)(NNP *)(, *)(NNP *)(CC *)(NNP *)) |ET| 
-0.080817785745209799741495260150259  |BT| (S (NP (CD Four)(JJ other)(NN committee)(NNS members))(VP (VBD raised)(NP (QP (IN at)(JJS least)(CD $100,000)))(PP (IN for)(NP (NP (NNP Bush)(POS 's))(NN campaign)))(: :)(NP (NP (NP (NNP Bill)(NNP DeWitt))(CC and)(NP (NNP Mercer)(NNP Reynolds)))(, ,)(NP (NP (NNS co-chairs))(PP (IN of)(NP (NP (DT the)(ADJP (JJ Ohio-based))(NN investment)(NN firm))(PP (IN of)(NP (NNP Reynolds,)(NNP DeWitt)(CC and)(NNP Company))))))(: ;)(NP (NP (NNP Brad)(NNP Freeman))(, ,)(NP (DT a)(NNP California)(NN investor)))(: ;)(CC and)(NP (NP (NNP Florida)(NN developer)(NNP Al)(NNP Hoffman))(, ,)(SBAR (WHNP (WP who))(S (VP (VBD was)(NP (NP (NP (NN finance)(NN chairman))(PP (IN for)(NP (NP (NNP Jeb)(NNP Bush)(POS 's))(JJ gubernatorial)(NN campaign))))(CC and)(NP (NP (NN chairman))(PP (IN of)(NP (PRP$ his)(JJ inaugural)(NN committee)))))))))))(. .)) |BT| (BOW (members *)(raised *)(at *)(least *)($100,000 *)(for *)(Bush *)('s *)(campaign *)) |BT| (BOP (NNS *)(VBD *)(IN *)(JJS *)(CD *)(IN *)(NNP *)(POS *)(NN *)) |ET| 
-0.015662716776025056852894579151325  |BT| (S (PP (IN Among)(NP (PRP them)))(, ,)(VP (VB double)(NP (NP (NP (NNS losses))(PP (IN for)(NP (CD two)(NNS families))))(: -)(NP (NP (DT a)(NN father)(CC and)(NN son))(PP (IN in)(NP (CD one))))(, ,)(NP (NP (DT a)(NN mother)(CC and)(NN daughter))(PP (IN in)(NP (DT another))))))(. .)) |BT| (BOW (them *)(, *)(double *)(losses *)) |BT| (BOP (PRP *)(, *)(JJ *)(NNS *)) |ET| 
-0.060878800381276944320152466616491  |BT| (S (NP (CD Four)(JJ other)(NN committee)(NNS members))(VP (VBD raised)(NP (QP (IN at)(JJS least)(CD $100,000)))(PP (IN for)(NP (NP (NNP Bush)(POS 's))(NN campaign)))(: :)(NP (NP (NP (NNP Bill)(NNP DeWitt))(CC and)(NP (NNP Mercer)(NNP Reynolds)))(, ,)(NP (NP (NNS co-chairs))(PP (IN of)(NP (NP (DT the)(ADJP (JJ Ohio-based))(NN investment)(NN firm))(PP (IN of)(NP (NNP Reynolds,)(NNP DeWitt)(CC and)(NNP Company))))))(: ;)(NP (NP (NNP Brad)(NNP Freeman))(, ,)(NP (DT a)(NNP California)(NN investor)))(: ;)(CC and)(NP (NP (NNP Florida)(NN developer)(NNP Al)(NNP Hoffman))(, ,)(SBAR (WHNP (WP who))(S (VP (VBD was)(NP (NP (NP (NN finance)(NN chairman))(PP (IN for)(NP (NP (NNP Jeb)(NNP Bush)(POS 's))(JJ gubernatorial)(NN campaign))))(CC and)(NP (NP (NN chairman))(PP (IN of)(NP (PRP$ his)(JJ inaugural)(NN committee)))))))))))(. .)) |BT| (BOW (committee *)(members *)(raised *)(at *)(least *)($100,000 *)(for *)(Bush *)('s *)(campaign *)) |BT| (BOP (NN *)(NNS *)(VBD *)(IN *)(JJS *)(CD *)(IN *)(NNP *)(POS *)(NN *)) |ET| 
-0.036727092286999302173100545587658  |BT| (NP (NP (NN missile)(NN defense))(, ,)(NP (JJ nuclear)(NNS arms)(NNS cuts))(, ,)(NP (JJ global)(NN warming))(, ,)(NP (NN immigration))(CC and)(NP (NN trade))) |BT| (BOW (arms *)(cuts *)(, *)(global *)) |BT| (BOP (NNS *)(NNS *)(, *)(JJ *)) |ET| 
-0.026202688513987163615448494624616  |BT| (S (NP (CD Four)(JJ other)(NN committee)(NNS members))(VP (VBD raised)(NP (QP (IN at)(JJS least)(CD $100,000)))(PP (IN for)(NP (NP (NNP Bush)(POS 's))(NN campaign)))(: :)(NP (NP (NP (NNP Bill)(NNP DeWitt))(CC and)(NP (NNP Mercer)(NNP Reynolds)))(, ,)(NP (NP (NNS co-chairs))(PP (IN of)(NP (NP (DT the)(ADJP (JJ Ohio-based))(NN investment)(NN firm))(PP (IN of)(NP (NNP Reynolds,)(NNP DeWitt)(CC and)(NNP Company))))))(: ;)(NP (NP (NNP Brad)(NNP Freeman))(, ,)(NP (DT a)(NNP California)(NN investor)))(: ;)(CC and)(NP (NP (NNP Florida)(NN developer)(NNP Al)(NNP Hoffman))(, ,)(SBAR (WHNP (WP who))(S (VP (VBD was)(NP (NP (NP (NN finance)(NN chairman))(PP (IN for)(NP (NP (NNP Jeb)(NNP Bush)(POS 's))(JJ gubernatorial)(NN campaign))))(CC and)(NP (NP (NN chairman))(PP (IN of)(NP (PRP$ his)(JJ inaugural)(NN committee)))))))))))(. .)) |BT| (BOW (committee *)(members *)(raised *)(at *)(least *)($100,000 *)(for *)(Bush *)('s *)(campaign *)(: *)(Bill *)(DeWitt *)(and *)(Mercer *)(Reynolds *)(, *)(co-chairs *)(of *)(the *)(Ohio-based *)(investment *)(firm *)(of *)(Reynolds, *)(DeWitt *)(and *)(Company *)(; *)(Brad *)(Freeman *)(, *)(a *)(California *)(investor *)(; *)(and *)(Florida *)(developer *)(Al *)(Hoffman *)(, *)(who *)(was *)(finance *)(chairman *)(for *)(Jeb *)(Bush *)('s *)(gubernatorial *)(campaign *)(and *)(chairman *)) |BT| (BOP (NN *)(NNS *)(VBD *)(IN *)(JJS *)(CD *)(IN *)(NNP *)(POS *)(NN *)(: *)(NNP *)(NNP *)(CC *)(NNP *)(NNPS *)(, *)(VBZ *)(IN *)(DT *)(JJ *)(NN *)(NN *)(IN *)(NNP *)(NNP *)(CC *)(NNP *)(: *)(NNP *)(NNP *)(, *)(DT *)(NNP *)(NN *)(: *)(CC *)(NNP *)(NN *)(NNP *)(NNP *)(, *)(WP *)(VBD *)(NN *)(NN *)(IN *)(NNP *)(NNP *)(POS *)(JJ *)(NN *)(CC *)(NN *)) |ET| 
-0.061702232241528071066127836274973  |BT| (NP (NNP AT&AMP;T)(, ,)(NNP ExciteAtHome)(, ,)(NNP Microsoft)) |BT| (BOW (AT&AMP;T *)(, *)(ExciteAtHome *)(, *)(Microsoft *)) |BT| (BOP (NNP *)(, *)(NNP *)(, *)(NNP *)) |ET| 
-0.093193112655754167805710608263325  |BT| (NP (NP (JJS Most)(NNS candidates))(: -)(PP (VBG including)(NP (NP (DT those))(PP (IN from)(NP (NP (DT the)(NN country)(POS 's))(CD two)(JJS largest)(JJ political)(NNS parties)))))(: -)) |BT| (BOW (candidates *)(- *)(including *)(those *)(from *)(the *)(country *)('s *)(two *)(largest *)(political *)(parties *)) |BT| (BOP (NNS *)(, *)(VBG *)(DT *)(IN *)(DT *)(NN *)(POS *)(CD *)(JJS *)(JJ *)(NNS *)) |ET| 
-0.11006827395988996731723830180272  |BT| (NP (NP (PRP$ their)(NNS counterparts))(PP (IN in)(NP (ADJP (RBR more)(JJ liberal))(NNS countries)))(, ,)(PP (VBG including)(NP (NNP Jordan)(, ,)(NNP Egypt)(CC and)(NNP Lebanon)))(, ,)) |BT| (BOW (their *)(counterparts *)(in *)(more *)(liberal *)(countries *)(, *)(including *)(Jordan *)(, *)(Egypt *)) |BT| (BOP (PRP$ *)(NNS *)(IN *)(JJR *)(JJ *)(NNS *)(, *)(VBG *)(NNP *)(, *)(NNP *)) |ET| 
-0.047266292986658062225124865562975  |BT| (NP (NP (DT The)(NNS bodies))(PP (IN of)(NP (CD six)(NNS people)))) |BT| (BOW (bodies *)(of *)(six *)(people *)) |BT| (BOP (NNS *)(IN *)(CD *)(NNS *)) |ET| 
-0.047586239681733158435328334689984  |BT| (SINV (PP (IN Among)(NP (NP (DT those))(VP (VBN designated))))(VP (VBD were)(NP (JJ former)(NNP NFL)(NNS first-rounders)))(NP (NP (NNP Mike)(NNP Croel))(, ,)(NP (NP (NNP Alvin)(NNP Harper))(, ,)(NP (NNP Tommy)(NNP Maddox))(CC and)(NP (NNP Marcus)(NNP Nash))))(. .)) |BT| (BOW (those *)(designated *)(were *)(former *)(NFL *)(first-rounders *)(Mike *)(Croel *)) |BT| (BOP (DT *)(VBN *)(VBD *)(JJ *)(NNP *)(NNS *)(NNP *)(NNP *)) |ET| 
-0.026054237331271375838204207298077  |BT| (S (NP (CD Four)(JJ other)(NN committee)(NNS members))(VP (VBD raised)(NP (QP (IN at)(JJS least)(CD $100,000)))(PP (IN for)(NP (NP (NNP Bush)(POS 's))(NN campaign)))(: :)(NP (NP (NP (NNP Bill)(NNP DeWitt))(CC and)(NP (NNP Mercer)(NNP Reynolds)))(, ,)(NP (NP (NNS co-chairs))(PP (IN of)(NP (NP (DT the)(ADJP (JJ Ohio-based))(NN investment)(NN firm))(PP (IN of)(NP (NNP Reynolds,)(NNP DeWitt)(CC and)(NNP Company))))))(: ;)(NP (NP (NNP Brad)(NNP Freeman))(, ,)(NP (DT a)(NNP California)(NN investor)))(: ;)(CC and)(NP (NP (NNP Florida)(NN developer)(NNP Al)(NNP Hoffman))(, ,)(SBAR (WHNP (WP who))(S (VP (VBD was)(NP (NP (NP (NN finance)(NN chairman))(PP (IN for)(NP (NP (NNP Jeb)(NNP Bush)(POS 's))(JJ gubernatorial)(NN campaign))))(CC and)(NP (NP (NN chairman))(PP (IN of)(NP (PRP$ his)(JJ inaugural)(NN committee)))))))))))(. .)) |BT| (BOW (members *)(raised *)(at *)(least *)($100,000 *)(for *)(Bush *)('s *)(campaign *)(: *)(Bill *)(DeWitt *)(and *)(Mercer *)(Reynolds *)(, *)(co-chairs *)(of *)(the *)(Ohio-based *)(investment *)(firm *)(of *)(Reynolds, *)(DeWitt *)(and *)(Company *)(; *)(Brad *)(Freeman *)(, *)(a *)(California *)(investor *)(; *)(and *)(Florida *)(developer *)(Al *)(Hoffman *)(, *)(who *)(was *)(finance *)(chairman *)(for *)(Jeb *)(Bush *)('s *)(gubernatorial *)(campaign *)(and *)(chairman *)) |BT| (BOP (NNS *)(VBD *)(IN *)(JJS *)(CD *)(IN *)(NNP *)(POS *)(NN *)(: *)(NNP *)(NNP *)(CC *)(NNP *)(NNPS *)(, *)(VBZ *)(IN *)(DT *)(JJ *)(NN *)(NN *)(IN *)(NNP *)(NNP *)(CC *)(NNP *)(: *)(NNP *)(NNP *)(, *)(DT *)(NNP *)(NN *)(: *)(CC *)(NNP *)(NN *)(NNP *)(NNP *)(, *)(WP *)(VBD *)(NN *)(NN *)(IN *)(NNP *)(NNP *)(POS *)(JJ *)(NN *)(CC *)(NN *)) |ET| 
-0.045447768026415057140976472283  |BT| (NP (NNP Jordan)(, ,)(NNP Egypt)(CC and)(NNP Lebanon)) |BT| (BOW (Jordan *)(, *)(Egypt *)) |BT| (BOP (NNP *)(, *)(NNP *)) |ET| 
-0.078551710492678325503668190776807  |BT| (NP (NP (CD 54)(NN percent))(VP (VBG attending)(NP (NP (NP (JJ four-year)(JJ public)(NNS institutions))(, ,)(NP (NP (CD 27)(NN percent))(PP (IN at)(NP (JJ four-year)(JJ private)(NNS schools)))))(, ,)(NP (NP (CD 17)(NN percent))(PP (IN at)(NP (JJ two-year)(NN community)(NNS colleges))))(CC and)(NP (NP (CD 1)(NN percent))(PP (IN at)(NP (JJ private)(JJ two-year)(NNS schools))))))) |BT| (BOW (54 *)(percent *)(attending *)(four-year *)(public *)(institutions *)(, *)(27 *)(percent *)) |BT| (BOP (CD *)(JJ *)(NN *)(JJ *)(JJ *)(NNS *)(, *)(CD *)(JJ *)) |ET| 
-0.034434259798693557519388974696994  |BT| (S (NP (DT The)(NNP Gore)(NN campaign))(, ,)(PP (VBG according)(PP (TO to)(NP (NNS aides))))(, ,)(VP (VP (MD will)(VP (VB issue)(NP (JJ regular)(NN press)(NNS releases))(S (VP (VBG highlighting)(NP (NP (NNP Bush)(POS 's))(JJ tortured)(NN syntax))))))(CC and)(VP (MD will)(VP (VB feature)(NP (JJ recent)(NNS examples))(PP (IN on)(NP (PRP$ its)(NNP Web)(NN site)))(, ,)(PP (IN like)(NP (NP (PRP$ his)(JJ disjointed)(NN description))(PP (IN of)(NP (NP (PRP$ his)(NN tax)(NN plan))(PP (IN on)(NP (NNP Saturday))))))))))(. .)) |BT| (BOW (campaign *)(, *)(according *)(to *)(aides *)) |BT| (BOP (NN *)(, *)(VBG *)(TO *)(NNS *)) |ET| 
-0.0541115412767344677869019164973  |BT| (NP (NP (NNS commissions))(PP (IN with)(NP (JJ key)(NNS countries)))(, ,)(PP (VBG including)(NP (NP (CD one))(PP (IN with)(NP (JJ former)(NNP Russian)(NNP Prime)(NNP Minister)(NNP Viktor)(NNP Chernomyrdin)))))) |BT| (BOW (commissions *)(with *)(key *)(countries *)) |BT| (BOP (NNS *)(IN *)(JJ *)(NNS *)) |ET| 
-0.1002009258557002013834136278092  |BT| (NP (NP (NP (NNP Gore)(POS 's))(NNS surrogates))(, ,)(PP (VBG including)(NP (NP (PRP$ his)(JJ running)(NN mate))(, ,)(NP (NNP Sen.)(NNP Joseph)(NNP Lieberman))(, ,)(CC and)(NP (NP (NP (DT the)(NNP Democratic)(NNP National)(NNP Committee)(POS 's))(JJ national)(NN chairman))(, ,)(NP (NNP Joe)(NNP Andrew)))))(, ,)) |BT| (BOW (Gore *)('s *)(surrogates *)(, *)(including *)(his *)) |BT| (BOP (NNP *)(POS *)(NNS *)(, *)(VBG *)(PRP$ *)) |ET| 
-0.1357375908385198282068984099169  |BT| (NP (NP (PRP$ their)(NNS counterparts))(PP (IN in)(NP (ADJP (RBR more)(JJ liberal))(NNS countries)))(, ,)(PP (VBG including)(NP (NNP Jordan)(, ,)(NNP Egypt)(CC and)(NNP Lebanon)))(, ,)) |BT| (BOW (counterparts *)(in *)(more *)(liberal *)(countries *)(, *)(including *)(Jordan *)) |BT| (BOP (NNS *)(IN *)(JJR *)(JJ *)(NNS *)(, *)(VBG *)(NNP *)) |ET| 
-0.037470991268083252145881800743155  |BT| (S (NP (DT Some))(VP (VBD pointed)(PP (TO to)(NP (NP (DT the)(JJ recent)(NN demise))(PP (IN of)(NP (NP (CD two)(JJ instant)(NN messaging)(NNS competitors))(: -)(NP (NP (NN iCAST))(CC and)(NP (NNP Tribal)(NNP Voice)))(: -)))))(PP (IN as)(NP (NN evidence)))(SBAR (IN that)(S (NP (NP (NNP AOL)(POS 's))(NN dominance))(VP (MD could)(VP (VB prevent)(NP (NNS choices))(PP (IN in)(NP (DT the)(NN market))))))))(. .)) |BT| (BOW (Some *)(pointed *)(to *)(the *)(recent *)(demise *)(of *)(two *)(instant *)(messaging *)(competitors *)(- *)(iCAST *)) |BT| (BOP (DT *)(VBN *)(TO *)(DT *)(JJ *)(NN *)(IN *)(CD *)(JJ *)(VBG *)(NNS *)(IN *)(NNP *)) |ET| 
-0.052663365497664628434026923287092  |BT| (NP (NP (DT The)(NNP News)(NNP Sun)(CC and)(JJ other)(JJ northern)(NNP Illinois)(NNP Copley)(NNS newspapers))(, ,)(PP (VBG including)(NP (NP (NP (DT The)(NNP Courier)(NNP News))(PP (IN in)(NP (NNP Elgin))))(, ,)(NP (NP (DT The)(NNP Beacon)(NNP News))(PP (IN in)(NP (NNP Aurora))))(CC and)(NP (NP (DT The)(NNP Herald)(NNP News))(PP (IN in)(NP (NNP Joliet))))))) |BT| (BOW (Copley *)(newspapers *)(, *)(including *)(The *)(Courier *)(News *)(in *)(Elgin *)(, *)(The *)(Beacon *)(News *)) |BT| (BOP (NNP *)(NNS *)(, *)(VBG *)(DT *)(NNP *)(NNP *)(IN *)(NNP *)(, *)(DT *)(NNP *)(NNP *)) |ET| 
-0.038576101389272463015878145142779  |BT| (VP (VBD included)(NP (QP (JJR more)(IN than)(CD 150))(NNS delegates))(, ,)(S (VP (ADVP (RBS most))(VBG representing)(NP (NP (NNS unions))(CC and)(NP (JJ political)(NNS parties)))))) |BT| (BOW (delegates *)(, *)(most *)) |BT| (BOP (NNS *)(, *)(JJS *)) |ET| 
-0.026043005606612708996427940633112  |BT| (S (NP (CD Four)(JJ other)(NN committee)(NNS members))(VP (VBD raised)(NP (QP (IN at)(JJS least)(CD $100,000)))(PP (IN for)(NP (NP (NNP Bush)(POS 's))(NN campaign)))(: :)(NP (NP (NP (NNP Bill)(NNP DeWitt))(CC and)(NP (NNP Mercer)(NNP Reynolds)))(, ,)(NP (NP (NNS co-chairs))(PP (IN of)(NP (NP (DT the)(ADJP (JJ Ohio-based))(NN investment)(NN firm))(PP (IN of)(NP (NNP Reynolds,)(NNP DeWitt)(CC and)(NNP Company))))))(: ;)(NP (NP (NNP Brad)(NNP Freeman))(, ,)(NP (DT a)(NNP California)(NN investor)))(: ;)(CC and)(NP (NP (NNP Florida)(NN developer)(NNP Al)(NNP Hoffman))(, ,)(SBAR (WHNP (WP who))(S (VP (VBD was)(NP (NP (NP (NN finance)(NN chairman))(PP (IN for)(NP (NP (NNP Jeb)(NNP Bush)(POS 's))(JJ gubernatorial)(NN campaign))))(CC and)(NP (NP (NN chairman))(PP (IN of)(NP (PRP$ his)(JJ inaugural)(NN committee)))))))))))(. .)) |BT| (BOW (committee *)(members *)(raised *)(at *)(least *)($100,000 *)(for *)(Bush *)('s *)(campaign *)(: *)(Bill *)(DeWitt *)(and *)(Mercer *)(Reynolds *)(, *)(co-chairs *)(of *)(the *)(Ohio-based *)(investment *)(firm *)(of *)(Reynolds, *)(DeWitt *)(and *)(Company *)(; *)(Brad *)(Freeman *)(, *)(a *)(California *)(investor *)(; *)(and *)(Florida *)(developer *)(Al *)(Hoffman *)(, *)(who *)(was *)(finance *)(chairman *)(for *)(Jeb *)(Bush *)('s *)(gubernatorial *)(campaign *)) |BT| (BOP (NN *)(NNS *)(VBD *)(IN *)(JJS *)(CD *)(IN *)(NNP *)(POS *)(NN *)(: *)(NNP *)(NNP *)(CC *)(NNP *)(NNPS *)(, *)(VBZ *)(IN *)(DT *)(JJ *)(NN *)(NN *)(IN *)(NNP *)(NNP *)(CC *)(NNP *)(: *)(NNP *)(NNP *)(, *)(DT *)(NNP *)(NN *)(: *)(CC *)(NNP *)(NN *)(NNP *)(NNP *)(, *)(WP *)(VBD *)(NN *)(NN *)(IN *)(NNP *)(NNP *)(POS *)(JJ *)(NN *)) |ET| 
-0.024197164228818044545699095237978  |BT| (VP (VBN been)(ADJP (JJ active)(PP (IN in)(NP (NP (JJ foreign)(NNS affairs))(PP (IN as)(NP (NN vice)(NN president))))))(, ,)(S (VP (VBG serving)(PP (IN on)(NP (NP (NNS commissions))(PP (IN with)(NP (JJ key)(NNS countries)))(, ,)(PP (VBG including)(NP (NP (CD one))(PP (IN with)(NP (JJ former)(NNP Russian)(NNP Prime)(NNP Minister)(NNP Viktor)(NNP Chernomyrdin)))))))))) |BT| (BOW (president *)(, *)(serving *)(on *)(commissions *)) |BT| (BOP (NN *)(, *)(VBG *)(IN *)(NNS *)) |ET| 
-0.044007338794208296361976096022772  |BT| (NP (NP (CD One))(PP (IN of)(NP (DT those)(JJ difficult-to-dislodge)(NNS judges)))) |BT| (BOW (One *)(of *)(those *)(difficult-to-dislodge *)(judges *)) |BT| (BOP (CD *)(IN *)(DT *)(JJ *)(NNS *)) |ET| 
-0.062828295397897165885936487939034  |BT| (NP (NP (NP (NNP Gore)(POS 's))(NNS surrogates))(, ,)(PP (VBG including)(NP (NP (PRP$ his)(JJ running)(NN mate))(, ,)(NP (NNP Sen.)(NNP Joseph)(NNP Lieberman))(, ,)(CC and)(NP (NP (NP (DT the)(NNP Democratic)(NNP National)(NNP Committee)(POS 's))(JJ national)(NN chairman))(, ,)(NP (NNP Joe)(NNP Andrew)))))(, ,)) |BT| (BOW (Gore *)('s *)(surrogates *)(, *)(including *)(his *)(running *)(mate *)) |BT| (BOP (NNP *)(POS *)(NNS *)(, *)(VBG *)(PRP$ *)(NN *)(NN *)) |ET| 
-0.059094696590076233044808162730988  |BT| (NP (NP (CD six)(NNS ``bomblets))(VP (VBG ,'')(NP (QP (IN at)(JJS least)(PDT half)))(S (VP (VBG containing)(NP (NP (JJ deadly)(NN sarin)(NN nerve)(NN gas))(, ,)(SBAR (WHNP (WDT that))(S (VP (VBD were)(VP (VBN found)(PP (IN in)(NP (DT a)(NN scrap)(NN metal)(NN heap)))(PP (IN at)(NP (DT the)(NNP Rocky)(NNP Mountain)(NNP Arsenal)))))))))))) |BT| (BOW (``bomblets *)(,'' *)(at *)(least *)(half *)(containing *)(deadly *)(sarin *)(nerve *)(gas *)(, *)(that *)) |BT| (BOP (NNS *)(, *)(IN *)(JJS *)(NN *)(VBG *)(RB *)(VB *)(JJ *)(NNS *)(, *)(WDT *)) |ET| 
-0.047470188872609994645834774473769  |BT| (NP (NP (DT The)(NNP News)(NNP Sun)(CC and)(JJ other)(JJ northern)(NNP Illinois)(NNP Copley)(NNS newspapers))(, ,)(PP (VBG including)(NP (NP (NP (DT The)(NNP Courier)(NNP News))(PP (IN in)(NP (NNP Elgin))))(, ,)(NP (NP (DT The)(NNP Beacon)(NNP News))(PP (IN in)(NP (NNP Aurora))))(CC and)(NP (NP (DT The)(NNP Herald)(NNP News))(PP (IN in)(NP (NNP Joliet))))))) |BT| (BOW (Illinois *)(Copley *)(newspapers *)(, *)(including *)(The *)(Courier *)(News *)(in *)(Elgin *)(, *)(The *)(Beacon *)(News *)) |BT| (BOP (NNS *)(NNP *)(NNS *)(, *)(VBG *)(DT *)(NNP *)(NNP *)(IN *)(NNP *)(, *)(DT *)(NNP *)(NNP *)) |ET| 
-0.098991861582353166126857502149505  |BT| (NP (NP (PRP$ their)(NNS counterparts))(PP (IN in)(NP (ADJP (RBR more)(JJ liberal))(NNS countries)))(, ,)(PP (VBG including)(NP (NNP Jordan)(, ,)(NNP Egypt)(CC and)(NNP Lebanon)))(, ,)) |BT| (BOW (their *)(counterparts *)(in *)(more *)(liberal *)(countries *)(, *)(including *)(Jordan *)) |BT| (BOP (PRP$ *)(NNS *)(IN *)(JJR *)(JJ *)(NNS *)(, *)(VBG *)(NNP *)) |ET| 
-0.024033840362532789269867095072186  |BT| (NP (NP (NNP N.C)(NNP .,)(NNS debates))(: -)(NP (NP (NNP Jim)(NNP Lehrer))(PP (IN of)(NP (NNP PBS))))(: -)) |BT| (BOW (N.C *)(., *)(debates *)(- *)(Jim *)(Lehrer *)) |BT| (BOP (NNP *)(NNP *)(VBZ *)(DT *)(NNP *)(NNP *)) |ET| 
-0.045255537505960112543146323105248  |BT| (NP (NP (NNS cars))(, ,)(VP (VBN plastered)(PP (PP (IN with)(NP (NP (NNS candidates)(POS '))(NNS posters)))(CC and)(PP (IN with)(NP (NP (NNS horns))(VP (VBG blaring))))))) |BT| (BOW (cars *)(, *)(plastered *)(with *)(candidates *)) |BT| (BOP (NNS *)(, *)(VBN *)(IN *)(NNS *)) |ET| 
-0.049932375939708006917783222888829  |BT| (NP (NNP AOL)(NNS rivals)) |BT| (BOW (AOL *)(rivals *)) |BT| (BOP (NNP *)(NNS *)) |ET| 
-0.035172768002276047494270017068629  |BT| (S (S (NP (NNP Security)(NNS forces))(VP (VBN patrolled)(NP (NP (DT the)(NN city))(PP (IN in)(NP (JJ armored)(NNS vehicles))))))(, ,)(CC and)(S (NP (NNS officers))(VP (VBD carried)(PRT (RP out))(NP (JJ random)(NN identification)(NNS checks))(, ,)(S (VP (VBG looking)(PP (IN for)(NP (JJ separatist)(NNS leaders)))))))(. .)) |BT| (BOW (vehicles *)(, *)(and *)(officers *)) |BT| (BOP (NNS *)(, *)(CC *)(NNS *)) |ET| 
-0.025973826237295240954017216949978  |BT| (S (NP (CD Four)(JJ other)(NN committee)(NNS members))(VP (VBD raised)(NP (QP (IN at)(JJS least)(CD $100,000)))(PP (IN for)(NP (NP (NNP Bush)(POS 's))(NN campaign)))(: :)(NP (NP (NP (NNP Bill)(NNP DeWitt))(CC and)(NP (NNP Mercer)(NNP Reynolds)))(, ,)(NP (NP (NNS co-chairs))(PP (IN of)(NP (NP (DT the)(ADJP (JJ Ohio-based))(NN investment)(NN firm))(PP (IN of)(NP (NNP Reynolds,)(NNP DeWitt)(CC and)(NNP Company))))))(: ;)(NP (NP (NNP Brad)(NNP Freeman))(, ,)(NP (DT a)(NNP California)(NN investor)))(: ;)(CC and)(NP (NP (NNP Florida)(NN developer)(NNP Al)(NNP Hoffman))(, ,)(SBAR (WHNP (WP who))(S (VP (VBD was)(NP (NP (NP (NN finance)(NN chairman))(PP (IN for)(NP (NP (NNP Jeb)(NNP Bush)(POS 's))(JJ gubernatorial)(NN campaign))))(CC and)(NP (NP (NN chairman))(PP (IN of)(NP (PRP$ his)(JJ inaugural)(NN committee)))))))))))(. .)) |BT| (BOW (members *)(raised *)(at *)(least *)($100,000 *)(for *)(Bush *)('s *)(campaign *)(: *)(Bill *)(DeWitt *)(and *)(Mercer *)(Reynolds *)(, *)(co-chairs *)(of *)(the *)(Ohio-based *)(investment *)(firm *)(of *)(Reynolds, *)(DeWitt *)(and *)(Company *)(; *)(Brad *)(Freeman *)(, *)(a *)(California *)(investor *)(; *)(and *)(Florida *)(developer *)(Al *)(Hoffman *)(, *)(who *)(was *)(finance *)(chairman *)(for *)(Jeb *)(Bush *)('s *)(gubernatorial *)(campaign *)) |BT| (BOP (NNS *)(VBD *)(IN *)(JJS *)(CD *)(IN *)(NNP *)(POS *)(NN *)(: *)(NNP *)(NNP *)(CC *)(NNP *)(NNPS *)(, *)(VBZ *)(IN *)(DT *)(JJ *)(NN *)(NN *)(IN *)(NNP *)(NNP *)(CC *)(NNP *)(: *)(NNP *)(NNP *)(, *)(DT *)(NNP *)(NN *)(: *)(CC *)(NNP *)(NN *)(NNP *)(NNP *)(, *)(WP *)(VBD *)(NN *)(NN *)(IN *)(NNP *)(NNP *)(POS *)(JJ *)(NN *)) |ET| 
-0.043364071704343212787513550665608  |BT| (NP (NP (CD 54)(NN percent))(VP (VBG attending)(NP (NP (NP (JJ four-year)(JJ public)(NNS institutions))(, ,)(NP (NP (CD 27)(NN percent))(PP (IN at)(NP (JJ four-year)(JJ private)(NNS schools)))))(, ,)(NP (NP (CD 17)(NN percent))(PP (IN at)(NP (JJ two-year)(NN community)(NNS colleges))))(CC and)(NP (NP (CD 1)(NN percent))(PP (IN at)(NP (JJ private)(JJ two-year)(NNS schools))))))) |BT| (BOW (54 *)(percent *)(attending *)(four-year *)(public *)(institutions *)(, *)(27 *)(percent *)(at *)(four-year *)(private *)(schools *)(, *)(17 *)(percent *)) |BT| (BOP (CD *)(JJ *)(NN *)(JJ *)(JJ *)(NNS *)(, *)(CD *)(JJ *)(IN *)(JJ *)(JJ *)(NNS *)(, *)(CD *)(JJ *)) |ET| 
-0.026123102767840262333765011248943  |BT| (S (NP (CD Four)(JJ other)(NN committee)(NNS members))(VP (VBD raised)(NP (QP (IN at)(JJS least)(CD $100,000)))(PP (IN for)(NP (NP (NNP Bush)(POS 's))(NN campaign)))(: :)(NP (NP (NP (NNP Bill)(NNP DeWitt))(CC and)(NP (NNP Mercer)(NNP Reynolds)))(, ,)(NP (NP (NNS co-chairs))(PP (IN of)(NP (NP (DT the)(ADJP (JJ Ohio-based))(NN investment)(NN firm))(PP (IN of)(NP (NNP Reynolds,)(NNP DeWitt)(CC and)(NNP Company))))))(: ;)(NP (NP (NNP Brad)(NNP Freeman))(, ,)(NP (DT a)(NNP California)(NN investor)))(: ;)(CC and)(NP (NP (NNP Florida)(NN developer)(NNP Al)(NNP Hoffman))(, ,)(SBAR (WHNP (WP who))(S (VP (VBD was)(NP (NP (NP (NN finance)(NN chairman))(PP (IN for)(NP (NP (NNP Jeb)(NNP Bush)(POS 's))(JJ gubernatorial)(NN campaign))))(CC and)(NP (NP (NN chairman))(PP (IN of)(NP (PRP$ his)(JJ inaugural)(NN committee)))))))))))(. .)) |BT| (BOW (committee *)(members *)(raised *)(at *)(least *)($100,000 *)(for *)(Bush *)('s *)(campaign *)(: *)(Bill *)(DeWitt *)(and *)(Mercer *)(Reynolds *)(, *)(co-chairs *)(of *)(the *)(Ohio-based *)(investment *)(firm *)(of *)(Reynolds, *)(DeWitt *)(and *)(Company *)(; *)(Brad *)(Freeman *)(, *)(a *)(California *)(investor *)(; *)(and *)(Florida *)(developer *)(Al *)(Hoffman *)(, *)(who *)(was *)(finance *)(chairman *)(for *)(Jeb *)(Bush *)) |BT| (BOP (NN *)(NNS *)(VBD *)(IN *)(JJS *)(CD *)(IN *)(NNP *)(POS *)(NN *)(: *)(NNP *)(NNP *)(CC *)(NNP *)(NNPS *)(, *)(VBZ *)(IN *)(DT *)(JJ *)(NN *)(NN *)(IN *)(NNP *)(NNP *)(CC *)(NNP *)(: *)(NNP *)(NNP *)(, *)(DT *)(NNP *)(NN *)(: *)(CC *)(NNP *)(NN *)(NNP *)(NNP *)(, *)(WP *)(VBD *)(NN *)(NN *)(IN *)(NNP *)(NNP *)) |ET| 
-0.032680369001537055984041302281184  |BT| (NP (NP (NP (DT The)(NNP College)(NNP Board)(POS 's))(NNS figures)(NN concern))(NP (NP (DT the)(NNS costs))(PP (IN for)(NP (NP (QP (CD 6.4)(CD million))(JJ full-time)(NNS undergraduates))(: -)(NP (NP (CD 54)(NN percent))(VP (VBG attending)(NP (NP (NP (JJ four-year)(JJ public)(NNS institutions))(, ,)(NP (NP (CD 27)(NN percent))(PP (IN at)(NP (JJ four-year)(JJ private)(NNS schools)))))(, ,)(NP (NP (CD 17)(NN percent))(PP (IN at)(NP (JJ two-year)(NN community)(NNS colleges))))(CC and)(NP (NP (CD 1)(NN percent))(PP (IN at)(NP (JJ private)(JJ two-year)(NNS schools))))))))))(. .)) |BT| (BOW (College *)(Board *)('s *)(figures *)(concern *)(the *)(costs *)(for *)(6.4 *)(million *)(full-time *)(undergraduates *)(- *)(54 *)(percent *)(attending *)(four-year *)(public *)(institutions *)) |BT| (BOP (NNP *)(NNP *)(POS *)(NNS *)(NN *)(DT *)(NNS *)(IN *)(CD *)(CD *)(JJ *)(NNS *)(IN *)(CD *)(JJ *)(NN *)(JJ *)(JJ *)(NNS *)) |ET| 
-0.040881832279143340280747054293897  |BT| (S (NP (NP (DT The)(NNS protesters))(, ,)(SBAR (WHNP (DT many))(S (VP (VP (VBG carrying)(NP (NNS signs)))(CC or)(VP (VBG wearing)(NP (JJ red)(NNS headbands)(CC and)(NNS vests))(PP (IN with)(NP (NP (NP (NNS slogans))(PP (JJ such)(IN as)(NP (NN ``Fight))))('' '')(CC and)(NP (NP (NN ``Solidarity)('' ''))(VP (VBN printed)(PP (IN on)(NP (PRP them)))))))))))(, ,))(VP (VP (VBD chanted))(CC and)(VP (VBD pumped)(NP (PRP$ their)(NNS fists))(PP (IN in)(NP (DT the)(NN air)))))(. .)) |BT| (BOW (many *)(carrying *)(signs *)(or *)(wearing *)(red *)(headbands *)(and *)(vests *)(with *)(slogans *)(such *)(as *)(``Fight *)('' *)(and *)(``Solidarity *)('' *)(printed *)(on *)(them *)(, *)(chanted *)(and *)(pumped *)(their *)) |BT| (BOP (JJ *)(NN *)(NNS *)(CC *)(VBG *)(JJ *)(NNS *)(CC *)(NNS *)(IN *)(NNS *)(JJ *)(IN *)(NN *)('' *)(CC *)(NN *)('' *)(VBD *)(IN *)(PRP *)(, *)(VBD *)(CC *)(VBD *)(PRP$ *)) |ET| 
-0.046798742511111227071474161220976  |BT| (S (NP (CD Four)(JJ other)(NN committee)(NNS members))(VP (VBD raised)(NP (QP (IN at)(JJS least)(CD $100,000)))(PP (IN for)(NP (NP (NNP Bush)(POS 's))(NN campaign)))(: :)(NP (NP (NP (NNP Bill)(NNP DeWitt))(CC and)(NP (NNP Mercer)(NNP Reynolds)))(, ,)(NP (NP (NNS co-chairs))(PP (IN of)(NP (NP (DT the)(ADJP (JJ Ohio-based))(NN investment)(NN firm))(PP (IN of)(NP (NNP Reynolds,)(NNP DeWitt)(CC and)(NNP Company))))))(: ;)(NP (NP (NNP Brad)(NNP Freeman))(, ,)(NP (DT a)(NNP California)(NN investor)))(: ;)(CC and)(NP (NP (NNP Florida)(NN developer)(NNP Al)(NNP Hoffman))(, ,)(SBAR (WHNP (WP who))(S (VP (VBD was)(NP (NP (NP (NN finance)(NN chairman))(PP (IN for)(NP (NP (NNP Jeb)(NNP Bush)(POS 's))(JJ gubernatorial)(NN campaign))))(CC and)(NP (NP (NN chairman))(PP (IN of)(NP (PRP$ his)(JJ inaugural)(NN committee)))))))))))(. .)) |BT| (BOW (committee *)(members *)(raised *)(at *)(least *)($100,000 *)(for *)(Bush *)('s *)(campaign *)(: *)(Bill *)(DeWitt *)) |BT| (BOP (NN *)(NNS *)(VBD *)(IN *)(JJS *)(CD *)(IN *)(NNP *)(POS *)(NN *)(: *)(NNP *)(NNP *)) |ET| 
-0.044272134125543843863326287646487  |BT| (NP (NP (DT The)(NNP News)(NNP Sun)(CC and)(JJ other)(JJ northern)(NNP Illinois)(NNP Copley)(NNS newspapers))(, ,)(PP (VBG including)(NP (NP (NP (DT The)(NNP Courier)(NNP News))(PP (IN in)(NP (NNP Elgin))))(, ,)(NP (NP (DT The)(NNP Beacon)(NNP News))(PP (IN in)(NP (NNP Aurora))))(CC and)(NP (NP (DT The)(NNP Herald)(NNP News))(PP (IN in)(NP (NNP Joliet))))))) |BT| (BOW (newspapers *)(, *)(including *)(The *)(Courier *)(News *)(in *)(Elgin *)(, *)(The *)(Beacon *)(News *)(in *)(Aurora *)) |BT| (BOP (NNS *)(, *)(VBG *)(DT *)(NNP *)(NNP *)(IN *)(NNP *)(, *)(DT *)(NNP *)(NNP *)(IN *)(NNP *)) |ET| 
-0.026184081230647159033164683705763  |BT| (S (NP (CD Four)(JJ other)(NN committee)(NNS members))(VP (VBD raised)(NP (QP (IN at)(JJS least)(CD $100,000)))(PP (IN for)(NP (NP (NNP Bush)(POS 's))(NN campaign)))(: :)(NP (NP (NP (NNP Bill)(NNP DeWitt))(CC and)(NP (NNP Mercer)(NNP Reynolds)))(, ,)(NP (NP (NNS co-chairs))(PP (IN of)(NP (NP (DT the)(ADJP (JJ Ohio-based))(NN investment)(NN firm))(PP (IN of)(NP (NNP Reynolds,)(NNP DeWitt)(CC and)(NNP Company))))))(: ;)(NP (NP (NNP Brad)(NNP Freeman))(, ,)(NP (DT a)(NNP California)(NN investor)))(: ;)(CC and)(NP (NP (NNP Florida)(NN developer)(NNP Al)(NNP Hoffman))(, ,)(SBAR (WHNP (WP who))(S (VP (VBD was)(NP (NP (NP (NN finance)(NN chairman))(PP (IN for)(NP (NP (NNP Jeb)(NNP Bush)(POS 's))(JJ gubernatorial)(NN campaign))))(CC and)(NP (NP (NN chairman))(PP (IN of)(NP (PRP$ his)(JJ inaugural)(NN committee)))))))))))(. .)) |BT| (BOW (members *)(raised *)(at *)(least *)($100,000 *)(for *)(Bush *)('s *)(campaign *)(: *)(Bill *)(DeWitt *)(and *)(Mercer *)(Reynolds *)(, *)(co-chairs *)(of *)(the *)(Ohio-based *)(investment *)(firm *)(of *)(Reynolds, *)(DeWitt *)(and *)(Company *)(; *)(Brad *)(Freeman *)(, *)(a *)(California *)(investor *)(; *)(and *)(Florida *)(developer *)(Al *)(Hoffman *)(, *)(who *)(was *)(finance *)(chairman *)(for *)(Jeb *)(Bush *)) |BT| (BOP (NNS *)(VBD *)(IN *)(JJS *)(CD *)(IN *)(NNP *)(POS *)(NN *)(: *)(NNP *)(NNP *)(CC *)(NNP *)(NNPS *)(, *)(VBZ *)(IN *)(DT *)(JJ *)(NN *)(NN *)(IN *)(NNP *)(NNP *)(CC *)(NNP *)(: *)(NNP *)(NNP *)(, *)(DT *)(NNP *)(NN *)(: *)(CC *)(NNP *)(NN *)(NNP *)(NNP *)(, *)(WP *)(VBD *)(NN *)(NN *)(IN *)(NNP *)(NNP *)) |ET| 
-0.028458921679455625314281164150998  |BT| (NP (NP (JJ Many)(NN suspect)(NNS supporters))(PP (IN of)(NP (NNP Suharto)))(, ,)(SBAR (WHNP (WP who))(S (VP (VBD ruled)(PP (IN for)(NP (CD 32)(NNS years)))(PP (IN until)(NP (NP (PRP$ his)(NN ouster))(PP (IN in)(NP (CD 1998))))))))(, ,)) |BT| (BOW (supporters *)(of *)(Suharto *)) |BT| (BOP (NNS *)(IN *)(NNP *)) |ET| 
-0.055747895531969349214307385409484  |BT| (NP (NP (NP (NNP Gore)(POS 's))(NNS surrogates))(, ,)(PP (VBG including)(NP (NP (PRP$ his)(JJ running)(NN mate))(, ,)(NP (NNP Sen.)(NNP Joseph)(NNP Lieberman))(, ,)(CC and)(NP (NP (NP (DT the)(NNP Democratic)(NNP National)(NNP Committee)(POS 's))(JJ national)(NN chairman))(, ,)(NP (NNP Joe)(NNP Andrew)))))(, ,)) |BT| (BOW (Gore *)('s *)(surrogates *)(, *)(including *)(his *)(running *)(mate *)(, *)(Sen. *)) |BT| (BOP (NNP *)(POS *)(NNS *)(, *)(VBG *)(PRP$ *)(NN *)(NN *)(, *)(NNP *)) |ET| 
-0.084601205995769590550992234057048  |BT| (NP (NP (JJ Many))(PP (IN of)(NP (NP (NNP Germany)(POS 's))(NNS neighbors)))(, ,)(PP (VBG including)(NP (NNP France)(, ,)(NNP Italy)(CC and)(NNP Greece)))(, ,)) |BT| (BOW (Germany *)('s *)(neighbors *)(, *)(including *)(France *)) |BT| (BOP (NNP *)(POS *)(NNS *)(, *)(VBG *)(NNP *)) |ET| 
-0.039865565430931032553374393501144  |BT| (NP (NP (DT The)(NNP News)(NNP Sun)(CC and)(JJ other)(JJ northern)(NNP Illinois)(NNP Copley)(NNS newspapers))(, ,)(PP (VBG including)(NP (NP (NP (DT The)(NNP Courier)(NNP News))(PP (IN in)(NP (NNP Elgin))))(, ,)(NP (NP (DT The)(NNP Beacon)(NNP News))(PP (IN in)(NP (NNP Aurora))))(CC and)(NP (NP (DT The)(NNP Herald)(NNP News))(PP (IN in)(NP (NNP Joliet))))))) |BT| (BOW (The *)(News *)(Sun *)(and *)(other *)(northern *)(Illinois *)(Copley *)(newspapers *)(, *)(including *)(The *)(Courier *)(News *)) |BT| (BOP (DT *)(NNP *)(NNP *)(CC *)(JJ *)(JJ *)(NNS *)(NNP *)(NNS *)(, *)(VBG *)(DT *)(NNP *)(NNP *)) |ET| 
-0.067419790576693908179528591517737  |BT| (S (NP (NP (NP (NNS Thousands))(PP (IN of)(NP (JJ uniformed)(NN police)(NNS officers))))(, ,)(NP (NP (DT some))(PP (IN with)(NP (NNS shields))))(, ,))(VP (VBD stood)(PP (IN around)(NP (DT the)(NNS protesters)))(S (VP (TO to)(VP (VB guard)(PP (IN against)(NP (JJ possible)(NN violence)))))))) |BT| (BOW (some *)(with *)(shields *)(, *)(stood *)(around *)(the *)(protesters *)) |BT| (BOP (DT *)(IN *)(NNS *)(, *)(VBN *)(IN *)(DT *)(NNS *)) |ET| 
-0.047263765614936947834223701647716  |BT| (NP (NP (NNS parts))(PP (IN of)(NP (NNP Nebraska)(, ,)(NNP Iowa)(, ,)(NNP Minnesota)(, ,)(NNP Wisconsin)(, ,)(JJ northern)(NNP Missouri)(, ,)(NNP Illinois)(, ,)(NNP Indiana)(, ,)))) |BT| (BOW (parts *)(of *)(Nebraska *)(, *)(Iowa *)) |BT| (BOP (NNS *)(IN *)(NNP *)(, *)(NNP *)) |ET| 
-0.035015839722093371200184463987171  |BT| (NP (PRP$ its)(NNS competitors)) |BT| (BOW (its *)(competitors *)) |BT| (BOP (PRP$ *)(NNS *)) |ET| 
-0.023330780102210423032627062411848  |BT| (NP (NP (DT The)(NNP News)(NNP Sun)(CC and)(JJ other)(JJ northern)(NNP Illinois)(NNP Copley)(NNS newspapers))(, ,)(PP (VBG including)(NP (NP (NP (DT The)(NNP Courier)(NNP News))(PP (IN in)(NP (NNP Elgin))))(, ,)(NP (NP (DT The)(NNP Beacon)(NNP News))(PP (IN in)(NP (NNP Aurora))))(CC and)(NP (NP (DT The)(NNP Herald)(NNP News))(PP (IN in)(NP (NNP Joliet))))))) |BT| (BOW (The *)(News *)(Sun *)(and *)(other *)(northern *)(Illinois *)(Copley *)(newspapers *)(, *)(including *)(The *)(Courier *)(News *)(in *)(Elgin *)(, *)(The *)(Beacon *)(News *)) |BT| (BOP (DT *)(NNP *)(NNP *)(CC *)(JJ *)(JJ *)(NNS *)(NNP *)(NNS *)(, *)(VBG *)(DT *)(NNP *)(NNP *)(IN *)(NNP *)(, *)(DT *)(NNP *)(NNP *)) |ET| 
-0.033830612921610887788848032187161  |BT| (S (NP (CD eight)(NNS people))(VP (VBD were)(VP (VBN injured)(, ,)(ADVP (NP (NP (CD two))(PP (IN of)(NP (PRP them))))(RB severely))))) |BT| (BOW (people *)(were *)(injured *)(, *)(two *)) |BT| (BOP (NNS *)(VBD *)(JJ *)(, *)(CD *)) |ET| 
-0.055127172591434549231426132109846  |BT| (NP (NP (DT The)(NNP News)(NNP Sun)(CC and)(JJ other)(JJ northern)(NNP Illinois)(NNP Copley)(NNS newspapers))(, ,)(PP (VBG including)(NP (NP (NP (DT The)(NNP Courier)(NNP News))(PP (IN in)(NP (NNP Elgin))))(, ,)(NP (NP (DT The)(NNP Beacon)(NNP News))(PP (IN in)(NP (NNP Aurora))))(CC and)(NP (NP (DT The)(NNP Herald)(NNP News))(PP (IN in)(NP (NNP Joliet))))))) |BT| (BOW (Copley *)(newspapers *)(, *)(including *)(The *)(Courier *)(News *)(in *)(Elgin *)) |BT| (BOP (NNP *)(NNS *)(, *)(VBG *)(DT *)(NNP *)(NNP *)(IN *)(NNP *)) |ET| 
-0.024041560603996130901505168253607  |BT| (NP (NNPS Poles)(, ,)(NNP Hungarians)(, ,)(NNPS Czechs)) |BT| (BOW (Poles *)(, *)(Hungarians *)(, *)(Czechs *)) |BT| (BOP (NNS *)(, *)(NNPS *)(, *)(NNPS *)) |ET| 
-0.045164603758126073418388557456637  |BT| (S (PP (IN Of)(NP (NP (CD 1,400)(NNS contributors))(PP (TO to)(NP (PRP$ his)(NN campaign)))))(, ,)(NP (QP (JJR fewer)(IN than)(CD 20)))(VP (VBP are)(PP (IN from)(NP (NP (NN out))(PP (IN of)(NP (NNP Texas))))))) |BT| (BOW (contributors *)(to *)(his *)(campaign *)(, *)(fewer *)(than *)(20 *)(are *)(from *)(out *)(of *)(Texas *)) |BT| (BOP (NNS *)(TO *)(PRP$ *)(NN *)(, *)(JJR *)(IN *)(CD *)(VBP *)(IN *)(IN *)(IN *)(NNP *)) |ET| 
-0.027734429471337800066077505789508  |BT| (S (NP (NP (DT A)(NN majority))(PP (IN of)(NP (NNS students))))(VP (VBP need)(NP (NP (NNS grants)(CC or)(NNS loans))(: -)(CC or)(NP (DT both)))(: -)(CC but)(FRAG (S (NP (PRP$ their)(JJ exact)(NNS numbers))(VP (VBP are)(ADJP (JJ unknown))))))) |BT| (BOW (students *)(need *)(grants *)(or *)(loans *)(- *)(or *)(both *)(- *)(but *)(their *)) |BT| (BOP (NNS *)(VBP *)(NNS *)(CC *)(NNS *)(, *)(CC *)(DT *)(NNS *)(CC *)(PRP$ *)) |ET| 
-0.033273539353124964579322409008455  |BT| (S (PP (IN despite)(NP (NP (PRP$ his)(NN lack))(PP (IN of)(NP (NP (JJ direct)(JJ foreign)(NN policy)(NN experience))(, ,)(NP (NP (PRP$ his)(NN record))(PP (IN as)(NP (NNP Texas)(NN governor))))))))(, ,)(PP (VBG including)(NP (NP (NNS dealings))(PP (IN with)(NP (NNP neighbor)(NNP Mexico)))))(, ,)(VP (VBP show)(SBAR (S (NP (PRP he))(VP (MD 'll)(VP (VB inspire)(NP (NP (NP (DT the)(NN trust))(PP (IN of)(NP (NNS allies))))(CC and)(NP (NP (DT the)(NN respect))(PP (IN of)(NP (NNS adversaries))))))))))) |BT| (BOW (governor *)(, *)(including *)(dealings *)(with *)(neighbor *)) |BT| (BOP (NN *)(, *)(VBG *)(NNS *)(IN *)(NN *)) |ET| 
-0.034916240630322691040898774872403  |BT| (S (NP (CD Four)(JJ other)(NN committee)(NNS members))(VP (VBD raised)(NP (QP (IN at)(JJS least)(CD $100,000)))(PP (IN for)(NP (NP (NNP Bush)(POS 's))(NN campaign)))(: :)(NP (NP (NP (NNP Bill)(NNP DeWitt))(CC and)(NP (NNP Mercer)(NNP Reynolds)))(, ,)(NP (NP (NNS co-chairs))(PP (IN of)(NP (NP (DT the)(ADJP (JJ Ohio-based))(NN investment)(NN firm))(PP (IN of)(NP (NNP Reynolds,)(NNP DeWitt)(CC and)(NNP Company))))))(: ;)(NP (NP (NNP Brad)(NNP Freeman))(, ,)(NP (DT a)(NNP California)(NN investor)))(: ;)(CC and)(NP (NP (NNP Florida)(NN developer)(NNP Al)(NNP Hoffman))(, ,)(SBAR (WHNP (WP who))(S (VP (VBD was)(NP (NP (NP (NN finance)(NN chairman))(PP (IN for)(NP (NP (NNP Jeb)(NNP Bush)(POS 's))(JJ gubernatorial)(NN campaign))))(CC and)(NP (NP (NN chairman))(PP (IN of)(NP (PRP$ his)(JJ inaugural)(NN committee)))))))))))(. .)) |BT| (BOW (committee *)(members *)(raised *)(at *)(least *)($100,000 *)(for *)(Bush *)('s *)(campaign *)(: *)(Bill *)(DeWitt *)(and *)(Mercer *)(Reynolds *)(, *)(co-chairs *)) |BT| (BOP (NN *)(NNS *)(VBD *)(IN *)(JJS *)(CD *)(IN *)(NNP *)(POS *)(NN *)(: *)(NNP *)(NNP *)(CC *)(NNP *)(NNPS *)(, *)(VBZ *)) |ET| 
-0.037623130715650432431829131019185  |BT| (NP (DT The)(NNP Hague)(, ,)(NNPS Netherlands)) |BT| (BOW (The *)(Hague *)(, *)(Netherlands *)) |BT| (BOP (DT *)(NNP *)(, *)(NNS *)) |ET| 
-0.045122288831675239073604188888567  |BT| (NP (NP (CD 54)(NN percent))(VP (VBG attending)(NP (NP (NP (JJ four-year)(JJ public)(NNS institutions))(, ,)(NP (NP (CD 27)(NN percent))(PP (IN at)(NP (JJ four-year)(JJ private)(NNS schools)))))(, ,)(NP (NP (CD 17)(NN percent))(PP (IN at)(NP (JJ two-year)(NN community)(NNS colleges))))(CC and)(NP (NP (CD 1)(NN percent))(PP (IN at)(NP (JJ private)(JJ two-year)(NNS schools))))))) |BT| (BOW (54 *)(percent *)(attending *)(four-year *)(public *)(institutions *)(, *)(27 *)(percent *)(at *)(four-year *)(private *)(schools *)) |BT| (BOP (CD *)(JJ *)(NN *)(JJ *)(JJ *)(NNS *)(, *)(CD *)(JJ *)(IN *)(JJ *)(JJ *)(NNS *)) |ET| 
-0.062526766026789373786876069516438  |BT| (S (PP (IN For)(NP (DT this)(NN reason)))(, ,)(NP (NP (JJ instant)(VBG messaging)(NNS rivals))(PP (IN like)(NP (NNP Microsoft)(, ,)(NNP AT&AMP;T)(CC and)(NNP ExciteAtHome))))(VP (VBP maintain)(SBAR (S (NP (PRP$ their)(NNS users))(VP (MD ought)(S (VP (TO to)(VP (VB be)(ADJP (JJ able)(S (VP (TO to)(VP (VB send)(NP (NNS messages))(PP (TO to)(NP (NN anyone)(RB else)))(, ,)(ADVP (RB regardless)(SBAR (WHPP (IN of)(WHNP (WDT what)(NN service)))(S (NP (PRP they))(VP (VBP happen)(S (VP (TO to)(VP (VB have)))))))))))))))))))(. .)) |BT| (BOW (rivals *)(like *)(Microsoft *)(, *)(AT&AMP;T *)(and *)(ExciteAtHome *)(maintain *)(their *)(users *)) |BT| (BOP (NNS *)(IN *)(NNP *)(, *)(NNP *)(CC *)(NNP *)(VB *)(PRP$ *)(NNS *)) |ET| 
-0.026027420897221872214677418355677  |BT| (S (NP (CD Four)(JJ other)(NN committee)(NNS members))(VP (VBD raised)(NP (QP (IN at)(JJS least)(CD $100,000)))(PP (IN for)(NP (NP (NNP Bush)(POS 's))(NN campaign)))(: :)(NP (NP (NP (NNP Bill)(NNP DeWitt))(CC and)(NP (NNP Mercer)(NNP Reynolds)))(, ,)(NP (NP (NNS co-chairs))(PP (IN of)(NP (NP (DT the)(ADJP (JJ Ohio-based))(NN investment)(NN firm))(PP (IN of)(NP (NNP Reynolds,)(NNP DeWitt)(CC and)(NNP Company))))))(: ;)(NP (NP (NNP Brad)(NNP Freeman))(, ,)(NP (DT a)(NNP California)(NN investor)))(: ;)(CC and)(NP (NP (NNP Florida)(NN developer)(NNP Al)(NNP Hoffman))(, ,)(SBAR (WHNP (WP who))(S (VP (VBD was)(NP (NP (NP (NN finance)(NN chairman))(PP (IN for)(NP (NP (NNP Jeb)(NNP Bush)(POS 's))(JJ gubernatorial)(NN campaign))))(CC and)(NP (NP (NN chairman))(PP (IN of)(NP (PRP$ his)(JJ inaugural)(NN committee)))))))))))(. .)) |BT| (BOW (committee *)(members *)(raised *)(at *)(least *)($100,000 *)(for *)(Bush *)('s *)(campaign *)(: *)(Bill *)(DeWitt *)(and *)(Mercer *)(Reynolds *)(, *)(co-chairs *)(of *)(the *)(Ohio-based *)(investment *)(firm *)(of *)(Reynolds, *)(DeWitt *)(and *)(Company *)(; *)(Brad *)(Freeman *)(, *)(a *)(California *)(investor *)(; *)(and *)(Florida *)(developer *)(Al *)(Hoffman *)(, *)(who *)(was *)(finance *)(chairman *)) |BT| (BOP (NN *)(NNS *)(VBD *)(IN *)(JJS *)(CD *)(IN *)(NNP *)(POS *)(NN *)(: *)(NNP *)(NNP *)(CC *)(NNP *)(NNPS *)(, *)(VBZ *)(IN *)(DT *)(JJ *)(NN *)(NN *)(IN *)(NNP *)(NNP *)(CC *)(NNP *)(: *)(NNP *)(NNP *)(, *)(DT *)(NNP *)(NN *)(: *)(CC *)(NNP *)(NN *)(NNP *)(NNP *)(, *)(WP *)(VBD *)(NN *)(NN *)) |ET| 
-0.043507823425396101313378238728546  |BT| (NP (NP (NP (NNP Gore)(POS 's))(NNS surrogates))(, ,)(PP (VBG including)(NP (NP (PRP$ his)(JJ running)(NN mate))(, ,)(NP (NNP Sen.)(NNP Joseph)(NNP Lieberman))(, ,)(CC and)(NP (NP (NP (DT the)(NNP Democratic)(NNP National)(NNP Committee)(POS 's))(JJ national)(NN chairman))(, ,)(NP (NNP Joe)(NNP Andrew)))))(, ,)) |BT| (BOW (surrogates *)(, *)(including *)(his *)(running *)(mate *)(, *)(Sen. *)(Joseph *)(Lieberman *)) |BT| (BOP (NNS *)(, *)(VBG *)(PRP$ *)(NN *)(NN *)(, *)(NNP *)(NNP *)(NNP *)) |ET| 
-0.019001413371823698550411307905961  |BT| (VP (VBZ recalls)(S (NP (NNP Communist)(NNP Party))(ADJP (JJ congresses)))(, ,)(S (NP (RB not)(JJ Soviet)(NNS sports))(NP (NP (NNS victories)(CC and)(NNS achievements))(PP (IN in)(NP (NN space)))))(, ,)(SBAR (IN as)(S (NP (NNP Putin))(VP (VBD had)(VP (VBN said)))))) |BT| (BOW (congresses *)(, *)(not *)(Soviet *)) |BT| (BOP (NNS *)(, *)(RB *)(JJ *)) |ET| 
-0.02847955258810930603829980611863  |BT| (NP (NP (NP (DT The)(NNP Courier)(NNP News))(PP (IN in)(NP (NNP Elgin))))(, ,)(NP (NP (DT The)(NNP Beacon)(NNP News))(PP (IN in)(NP (NNP Aurora))))(CC and)(NP (NP (DT The)(NNP Herald)(NNP News))(PP (IN in)(NP (NNP Joliet))))) |BT| (BOW (Elgin *)(, *)(The *)(Beacon *)(News *)) |BT| (BOP (NNP *)(, *)(DT *)(NNP *)(NNP *)) |ET| 
-0.01564905226173832902825111546008  |BT| (SBAR (WHNP (WDT which))(S (VP (VBZ runs)(NP (NP (NP (DT the)(CD two)(JJ leading)(NN messaging)(NNS services))(PRN (: -)(NP (NNP ICQ)(CC and)(NNP AIM))(: -)))(PP (IN with)(NP (QP (CD 140)(CD million))(NNS users))))))) |BT| (BOW (which *)(runs *)(the *)(two *)(leading *)(messaging *)(services *)(- *)(ICQ *)(and *)(AIM *)(- *)(with *)(140 *)(million *)(users *)) |BT| (BOP (WDT *)(VBZ *)(DT *)(CD *)(VBG *)(VBG *)(NNS *)(IN *)(NNP *)(CC *)(NNP *)(, *)(IN *)(CD *)(CD *)(NNS *)) |ET| 
-0.022495191915484841899131041031978  |BT| (NP (NNP Bahrain)(, ,)(NNP Comoros)(, ,)(NNP Egypt)(, ,)(NNP Jordan)(, ,)(NNP Kuwait)(, ,)(NNP Lebanon)(, ,)(NNP Morocco)) |BT| (BOW (Egypt *)(, *)(Jordan *)(, *)(Kuwait *)(, *)(Lebanon *)) |BT| (BOP (NNP *)(, *)(NNP *)(, *)(NNP *)(, *)(NNP *)) |ET| 
-0.029980172016734512457913908178853  |BT| (NP (NP (CD 54)(NN percent))(VP (VBG attending)(NP (NP (NP (JJ four-year)(JJ public)(NNS institutions))(, ,)(NP (NP (CD 27)(NN percent))(PP (IN at)(NP (JJ four-year)(JJ private)(NNS schools)))))(, ,)(NP (NP (CD 17)(NN percent))(PP (IN at)(NP (JJ two-year)(NN community)(NNS colleges))))(CC and)(NP (NP (CD 1)(NN percent))(PP (IN at)(NP (JJ private)(JJ two-year)(NNS schools))))))) |BT| (BOW (54 *)(percent *)(attending *)(four-year *)(public *)(institutions *)(, *)(27 *)(percent *)(at *)(four-year *)(private *)(schools *)(, *)(17 *)(percent *)(at *)(two-year *)(community *)(colleges *)) |BT| (BOP (CD *)(JJ *)(NN *)(JJ *)(JJ *)(NNS *)(, *)(CD *)(JJ *)(IN *)(JJ *)(JJ *)(NNS *)(, *)(CD *)(JJ *)(IN *)(JJ *)(NN *)(NNS *)) |ET| 
-0.038555148563593544253080835915171  |BT| (NP (NP (NN anyone))(, ,)(NP (NP (RB even)(DT those))(SBAR (WHNP (WP who))(S (NP (NN don't))(VP (VBP subscribe)(PP (TO to)(NP (NNP AOL)))))))(, ,)) |BT| (BOW (anyone *)(, *)(even *)(those *)(who *)(don't *)(subscribe *)(to *)(AOL *)) |BT| (BOP (NN *)(, *)(RB *)(DT *)(WP *)(VBP *)(JJ *)(TO *)(NNP *)) |ET| 
-0.025408146634784144896057611617834  |BT| (NP (NP (NP (DT The)(NNP College)(NNP Board)(POS 's))(NNS figures)(NN concern))(NP (NP (DT the)(NNS costs))(PP (IN for)(NP (NP (QP (CD 6.4)(CD million))(JJ full-time)(NNS undergraduates))(: -)(NP (NP (CD 54)(NN percent))(VP (VBG attending)(NP (NP (NP (JJ four-year)(JJ public)(NNS institutions))(, ,)(NP (NP (CD 27)(NN percent))(PP (IN at)(NP (JJ four-year)(JJ private)(NNS schools)))))(, ,)(NP (NP (CD 17)(NN percent))(PP (IN at)(NP (JJ two-year)(NN community)(NNS colleges))))(CC and)(NP (NP (CD 1)(NN percent))(PP (IN at)(NP (JJ private)(JJ two-year)(NNS schools))))))))))(. .)) |BT| (BOW (College *)(Board *)('s *)(figures *)(concern *)(the *)(costs *)(for *)(6.4 *)(million *)(full-time *)(undergraduates *)(- *)(54 *)(percent *)(attending *)(four-year *)(public *)(institutions *)(, *)(27 *)(percent *)(at *)(four-year *)(private *)(schools *)) |BT| (BOP (NNP *)(NNP *)(POS *)(NNS *)(NN *)(DT *)(NNS *)(IN *)(CD *)(CD *)(JJ *)(NNS *)(IN *)(CD *)(JJ *)(NN *)(JJ *)(JJ *)(NNS *)(, *)(CD *)(JJ *)(IN *)(JJ *)(JJ *)(NNS *)) |ET| 
-0.026987799758440761399569396417064  |BT| (NP (NNS churches)(, ,)(NNS hospitals)(CC and)(NN nursing)(NNS homes)) |BT| (BOW (churches *)(, *)(hospitals *)(and *)(nursing *)(homes *)) |BT| (BOP (NNS *)(, *)(NNS *)(CC *)(VBG *)(NNS *)) |ET| 
-0.052647060495457143058928295431542  |BT| (NP (NP (DT The)(NNP News)(NNP Sun)(CC and)(JJ other)(JJ northern)(NNP Illinois)(NNP Copley)(NNS newspapers))(, ,)(PP (VBG including)(NP (NP (NP (DT The)(NNP Courier)(NNP News))(PP (IN in)(NP (NNP Elgin))))(, ,)(NP (NP (DT The)(NNP Beacon)(NNP News))(PP (IN in)(NP (NNP Aurora))))(CC and)(NP (NP (DT The)(NNP Herald)(NNP News))(PP (IN in)(NP (NNP Joliet))))))) |BT| (BOW (Illinois *)(Copley *)(newspapers *)(, *)(including *)(The *)(Courier *)(News *)(in *)(Elgin *)) |BT| (BOP (NNS *)(NNP *)(NNS *)(, *)(VBG *)(DT *)(NNP *)(NNP *)(IN *)(NNP *)) |ET| 
-0.039741344706446690704382262993022  |BT| (NP (NP (NP (JJ four-year)(JJ public)(NNS institutions))(, ,)(NP (NP (CD 27)(NN percent))(PP (IN at)(NP (JJ four-year)(JJ private)(NNS schools)))))(, ,)(NP (NP (CD 17)(NN percent))(PP (IN at)(NP (JJ two-year)(NN community)(NNS colleges))))(CC and)(NP (NP (CD 1)(NN percent))(PP (IN at)(NP (JJ private)(JJ two-year)(NNS schools))))) |BT| (BOW (institutions *)(, *)(27 *)(percent *)(at *)(four-year *)(private *)(schools *)(, *)(17 *)(percent *)) |BT| (BOP (NNS *)(, *)(CD *)(JJ *)(IN *)(JJ *)(JJ *)(NNS *)(, *)(CD *)(JJ *)) |ET| 
-0.053831079334458888097092454927406  |BT| (NP (NP (NNS commissions))(PP (IN with)(NP (JJ key)(NNS countries)))(, ,)(PP (VBG including)(NP (NP (CD one))(PP (IN with)(NP (JJ former)(NNP Russian)(NNP Prime)(NNP Minister)(NNP Viktor)(NNP Chernomyrdin)))))) |BT| (BOW (countries *)(, *)(including *)(one *)(with *)(former *)(Russian *)) |BT| (BOP (NNS *)(, *)(VBG *)(CD *)(IN *)(JJ *)(NNP *)) |ET| 
-0.043900145237849345913883070124939  |BT| (NP (NP (NP (DT The)(NNP College)(NNP Board)(POS 's))(NNS figures)(NN concern))(NP (NP (DT the)(NNS costs))(PP (IN for)(NP (NP (QP (CD 6.4)(CD million))(JJ full-time)(NNS undergraduates))(: -)(NP (NP (CD 54)(NN percent))(VP (VBG attending)(NP (NP (NP (JJ four-year)(JJ public)(NNS institutions))(, ,)(NP (NP (CD 27)(NN percent))(PP (IN at)(NP (JJ four-year)(JJ private)(NNS schools)))))(, ,)(NP (NP (CD 17)(NN percent))(PP (IN at)(NP (JJ two-year)(NN community)(NNS colleges))))(CC and)(NP (NP (CD 1)(NN percent))(PP (IN at)(NP (JJ private)(JJ two-year)(NNS schools))))))))))(. .)) |BT| (BOW (College *)(Board *)('s *)(figures *)(concern *)(the *)(costs *)(for *)(6.4 *)(million *)(full-time *)(undergraduates *)) |BT| (BOP (NNP *)(NNP *)(POS *)(NNS *)(NN *)(DT *)(NNS *)(IN *)(CD *)(CD *)(JJ *)(NNS *)) |ET| 
-0.039916956082933878480201173033493  |BT| (NP (NP (JJ Many))(PP (IN of)(NP (NP (NNP Germany)(POS 's))(NNS neighbors)))(, ,)(PP (VBG including)(NP (NNP France)(, ,)(NNP Italy)(CC and)(NNP Greece)))(, ,)) |BT| (BOW (Many *)(of *)(Germany *)) |BT| (BOP (JJ *)(IN *)(NNP *)) |ET| 
-0.024814381962434052530941386294216  |BT| (NP (NP (NP (NNS bans))(PP (IN about)(NP (NP (NNP Germany)(POS 's))(JJ other)(JJ far-right)(NNS parties))))(PRN (: -)(NP (NP (DT the)(NNPS Republicans))(CC and)(NP (NNP German)(NNPS Peoples)(NNP Union)))(: -))(SBAR (WHNP (DT both)(WHPP (IN of)(WHNP (WDT which))))(S (VP (VBP have)(VP (VBN had)(NP (NP (ADJP (RB far)(JJR more))(JJ electoral)(NN success))(PP (IN than)(NP (DT the)(ADJP (RB politically)(JJ insignificant))(NN NPD))))))))) |BT| (BOW (parties *)(- *)(the *)(Republicans *)) |BT| (BOP (NNS *)(IN *)(DT *)(NNPS *)) |ET| 
-0.065511482741391555140175739779806  |BT| (S (NP (CD Four)(JJ other)(NN committee)(NNS members))(VP (VBD raised)(NP (QP (IN at)(JJS least)(CD $100,000)))(PP (IN for)(NP (NP (NNP Bush)(POS 's))(NN campaign)))(: :)(NP (NP (NP (NNP Bill)(NNP DeWitt))(CC and)(NP (NNP Mercer)(NNP Reynolds)))(, ,)(NP (NP (NNS co-chairs))(PP (IN of)(NP (NP (DT the)(ADJP (JJ Ohio-based))(NN investment)(NN firm))(PP (IN of)(NP (NNP Reynolds,)(NNP DeWitt)(CC and)(NNP Company))))))(: ;)(NP (NP (NNP Brad)(NNP Freeman))(, ,)(NP (DT a)(NNP California)(NN investor)))(: ;)(CC and)(NP (NP (NNP Florida)(NN developer)(NNP Al)(NNP Hoffman))(, ,)(SBAR (WHNP (WP who))(S (VP (VBD was)(NP (NP (NP (NN finance)(NN chairman))(PP (IN for)(NP (NP (NNP Jeb)(NNP Bush)(POS 's))(JJ gubernatorial)(NN campaign))))(CC and)(NP (NP (NN chairman))(PP (IN of)(NP (PRP$ his)(JJ inaugural)(NN committee)))))))))))(. .)) |BT| (BOW (committee *)(members *)(raised *)(at *)(least *)($100,000 *)(for *)(Bush *)) |BT| (BOP (NN *)(NNS *)(VBD *)(IN *)(JJS *)(CD *)(IN *)(NNP *)) |ET| 
-0.016794637294187730880423714552308  |BT| (NP (NP (NNS citizens)(POS '))(NNS groups)(, ,)(JJ political)(NNS parties)(, ,)(NN sport)(NNS clubs)(, ,)(NNS students)(CC and)(NNS teachers)) |BT| (BOW (parties *)(, *)(sport *)(clubs *)(, *)(students *)) |BT| (BOP (NNS *)(, *)(JJ *)(NN *)(, *)(NNS *)) |ET| 
-0.029733838783479311224100527510927  |BT| (NP (NP (DT The)(NNP News)(NNP Sun)(CC and)(JJ other)(JJ northern)(NNP Illinois)(NNP Copley)(NNS newspapers))(, ,)(PP (VBG including)(NP (NP (NP (DT The)(NNP Courier)(NNP News))(PP (IN in)(NP (NNP Elgin))))(, ,)(NP (NP (DT The)(NNP Beacon)(NNP News))(PP (IN in)(NP (NNP Aurora))))(CC and)(NP (NP (DT The)(NNP Herald)(NNP News))(PP (IN in)(NP (NNP Joliet))))))) |BT| (BOW (Illinois *)(Copley *)(newspapers *)(, *)(including *)(The *)(Courier *)(News *)(in *)(Elgin *)(, *)(The *)(Beacon *)(News *)(in *)(Aurora *)) |BT| (BOP (NNS *)(NNP *)(NNS *)(, *)(VBG *)(DT *)(NNP *)(NNP *)(IN *)(NNP *)(, *)(DT *)(NNP *)(NNP *)(IN *)(NNP *)) |ET| 
