SVM-light Version V5.01-TK-1.2
5 # kernel type
3 # kernel parameter -d 
1 # kernel parameter -g 
1 # kernel parameter -s 
1 # kernel parameter -r 
empty# kernel parameter -u 
0.4 # kernel parameter -L 
1 # kernel parameter -T 
T # kernel parameter -C 
1 # kernel parameter -F 
1 # kernel parameter -S 
1.000000 # kernel parameter -D 
3 # kernel parameter -N 
S # kernel parameter -V 
S # kernel parameter -W 
0 # highest feature index 
16257 # number of training documents 
579 # number of support vectors plus 1 
1.0485035 # threshold b, each following line is a SV (starting with alpha*y)
-0.086851156530322062843119113040302  |BT| (NP (NP (JJ other)(JJ recent)(NNP Bush)(NNS visits))(PP (TO to)(NP (NP (DT the)(NN ranch))(PP (IN near)(NP (NNP Waco)(, ,)(NNP Texas)))))) |BT| (BOW (Bush *)(visits *)(to *)(the *)(ranch *)(near *)(Waco *)) |BT| (BOP (NNP *)(NNS *)(TO *)(DT *)(NN *)(IN *)(NNP *)) |ET| 
-0.011572940000617272168770277573913  |BT| (NP (NP (NNS Representatives))(PP (IN of)(NP (NP (NNP Rally))(PP (IN of)(NP (DT the)(NNPS Republicans)))))) |BT| (BOW (Representatives *)(of *)(Rally *)(of *)(the *)(Republicans *)) |BT| (BOP (NNS *)(IN *)(RB *)(IN *)(DT *)(NNPS *)) |ET| 
-0.024360378794697854637485434636801  |BT| (S (PP (IN In)(NP (DT the)(NN study)))(PRN (, ,)(S (NP (NNP Zhang)(CC and)(NNP Zhou))(VP (VBD described)(SBAR (S (NP (DT the)(NN feather)(CC and)(NN bone)(NN structure))(VP (VBD found)(PP (IN in)(NP (NP (DT a)(NN fossil))(PP (IN of)(NP (NP (DT a)(JJ starling-sized)(NN bird))(VP (VBN uncovered)(PP (IN in)(NP (JJ northern)(NNP China)))))))))))))(, ,))(NP (NP (DT the)(NN site))(PP (IN of)(NP (JJ many)(NN dinosaur)(NN fossil))))(VP (VBZ finds))(. .)) |BT| (BOW (China *)(, *)(the *)(site *)) |BT| (BOP (NNP *)(, *)(DT *)(NN *)) |ET| 
-0.015598072800351522188000430446664  |BT| (NP (NP (NN co-chairman))(PP (IN of)(NP (NP (DT the)(NNP RNC)(NN gala))(PP (IN at)(NP (NP (DT the)(NNP Republican)(NNP National)(NNP Convention))(PP (IN in)(NP (NNP Philadelphia)))))))(SBAR (WHNP (WDT that))(S (VP (VBD raised)(NP (DT a)(NN record))(NP (QP (CD $10.1)(CD million))))))) |BT| (BOW (co-chairman *)(of *)(the *)(RNC *)(gala *)) |BT| (BOP (NN *)(IN *)(DT *)(NNP *)(NN *)) |ET| 
-0.074269709156692578777558821911953  |BT| (S (NP (NP (NNS hundreds))(PP (IN of)(NP (NNPS Palestinians))))(VP (VBD converged)(PP (IN on)(NP (DT the)(NN square)))(PP (IN in)(NP (NP (NN front))(PP (IN of)(NP (DT the)(NN site)))))(, ,)(S (VP (VBG cheering)(NP (DT the)(NN withdrawal)))))) |BT| (BOW (Palestinians *)(converged *)(on *)(the *)(square *)(in *)(front *)(of *)(the *)(site *)) |BT| (BOP (NNPS *)(VBD *)(IN *)(DT *)(NN *)(IN *)(NN *)(IN *)(DT *)(NN *)) |ET| 
0.33333333333351461424953754431044  |BT| (NP (NP (NNP Conyers))(, ,)(ADVP (NP (QP (RB about)(CD 25))(NNS miles))(RB east)(PP (IN of)(NP (NNP Atlanta))))(, ,)) |BT| (BOW (Conyers *)(, *)(about *)(25 *)(miles *)(east *)(of *)(Atlanta *)) |BT| (BOP (NNS *)(, *)(IN *)(CD *)(NNS *)(RB *)(IN *)(NNP *)) |ET| 
0.33333333333351461424953754431044  |BT| (NP (NP (DT The)(NNS steps))(VP (VBG leading)(PRT (RP down))(PP (TO to)(NP (DT the)(NN tomb))))) |BT| (BOW (steps *)(leading *)(down *)(to *)(the *)(tomb *)) |BT| (BOP (NNS *)(VBG *)(RB *)(TO *)(DT *)(NN *)) |ET| 
0.33333333333351461424953754431044  |BT| (VP (VBD converged)(PP (IN on)(NP (DT the)(NN square)))(PP (IN in)(NP (NP (NN front))(PP (IN of)(NP (DT the)(NN site)))))(, ,)(S (VP (VBG cheering)(NP (DT the)(NN withdrawal))))) |BT| (BOW (square *)(in *)(front *)(of *)(the *)(site *)) |BT| (BOP (NN *)(IN *)(NN *)(IN *)(DT *)(NN *)) |ET| 
0.33333333333351461424953754431044  |BT| (NP (PRP$ its)(NNS suburbs)) |BT| (BOW (its *)(suburbs *)) |BT| (BOP (PRP$ *)(NNS *)) |ET| 
0.33333333333351461424953754431044  |BT| (VP (VBG inviting)(NP (CD 23)(NNS voters))(PP (TO to)(NP (DT the)(NNP Innsbrook)(NN resort)))(PP (IN outside)(NP (NNP St.)(NNP Louis)))(S (VP (TO to)(VP (VB help)(S (NP (PRP him))(VP (VB practice))))))) |BT| (BOW (Innsbrook *)(resort *)(outside *)(St. *)(Louis *)) |BT| (BOP (NN *)(VB *)(VB *)(NNP *)(NNP *)) |ET| 
-0.066266488917824634130582239777141  |BT| (VP (VBG inviting)(NP (CD 23)(NNS voters))(PP (TO to)(NP (DT the)(NNP Innsbrook)(NN resort)))(PP (IN outside)(NP (NNP St.)(NNP Louis)))(S (VP (TO to)(VP (VB help)(S (NP (PRP him))(VP (VB practice))))))) |BT| (BOW (voters *)(to *)(the *)(Innsbrook *)(resort *)) |BT| (BOP (NNS *)(TO *)(DT *)(NN *)(VB *)) |ET| 
0.33333333333351461424953754431044  |BT| (NP (NP (QP (RB about)(CD 30))(NNS youths))(VP (VBN gathered)(PP (IN in)(NP (NP (DT the)(JJ northern)(NN village))(PP (IN of)(NP (NNP Lanviara))))))(, ,)(PP (IN near)(NP (NNP Korhogo)))) |BT| (BOW (Lanviara *)(, *)(near *)(Korhogo *)) |BT| (BOP (NNP *)(, *)(IN *)(NNP *)) |ET| 
-0.03544104241649168041128348249913  |BT| (NP (NP (QP (RB about)(CD 30))(NNS youths))(VP (VBN gathered)(PP (IN in)(NP (NP (DT the)(JJ northern)(NN village))(PP (IN of)(NP (NNP Lanviara))))))(, ,)(PP (IN near)(NP (NNP Korhogo)))) |BT| (BOW (youths *)(gathered *)(in *)(the *)(northern *)(village *)(of *)(Lanviara *)) |BT| (BOP (NNS *)(VBN *)(IN *)(DT *)(JJ *)(NN *)(IN *)(NNP *)) |ET| 
0.33333333333351461424953754431044  |BT| (NP (NP (NNP Geneva))(, ,)(PP (IN near)(NP (DT the)(NNP Alabama)(JJ -Florida)(NN line)))(, ,)) |BT| (BOW (Geneva *)(, *)(near *)(the *)(Alabama *)(-Florida *)(line *)) |BT| (BOP (NNP *)(, *)(IN *)(DT *)(NNP *)(NNP *)(NN *)) |ET| 
-0.15253816136082012921981743147626  |BT| (NP (NP (NNP Geneva))(, ,)(PP (IN near)(NP (DT the)(NNP Alabama)(JJ -Florida)(NN line)))(, ,)) |BT| (BOW (Geneva *)(, *)(near *)(the *)(Alabama *)) |BT| (BOP (NNP *)(, *)(IN *)(DT *)(NNP *)) |ET| 
0.33333333333351461424953754431044  |BT| (NP (NN ``our)(JJ friendly)(NN neighbor)) |BT| (BOW (``our *)(friendly *)(neighbor *)) |BT| (BOP (PRP$ *)(JJ *)(NN *)) |ET| 
-0.035810053266750178913024882376703  |BT| (NP (PRP$ its)(NNP Oldsmobile)(NN division)) |BT| (BOW (its *)(Oldsmobile *)(division *)) |BT| (BOP (PRP$ *)(JJ *)(NN *)) |ET| 
0.33333333333351461424953754431044  |BT| (S (NP (NP (NP (NNS Thousands))(PP (IN of)(NP (JJ uniformed)(NN police)(NNS officers))))(, ,)(NP (NP (DT some))(PP (IN with)(NP (NNS shields))))(, ,))(VP (VBD stood)(PP (IN around)(NP (DT the)(NNS protesters)))(S (VP (TO to)(VP (VB guard)(PP (IN against)(NP (JJ possible)(NN violence)))))))) |BT| (BOW (officers *)(, *)(some *)(with *)(shields *)(, *)(stood *)(around *)(the *)(protesters *)) |BT| (BOP (NNS *)(, *)(DT *)(IN *)(NNS *)(, *)(VBN *)(IN *)(DT *)(NNS *)) |ET| 
-0.11113675561702029970234661959694  |BT| (S (NP (NP (NP (NNS Thousands))(PP (IN of)(NP (JJ uniformed)(NN police)(NNS officers))))(, ,)(NP (NP (DT some))(PP (IN with)(NP (NNS shields))))(, ,))(VP (VBD stood)(PP (IN around)(NP (DT the)(NNS protesters)))(S (VP (TO to)(VP (VB guard)(PP (IN against)(NP (JJ possible)(NN violence)))))))) |BT| (BOW (some *)(with *)(shields *)(, *)(stood *)(around *)(the *)(protesters *)) |BT| (BOP (DT *)(IN *)(NNS *)(, *)(VBN *)(IN *)(DT *)(NNS *)) |ET| 
0.33333333333351461424953754431044  |BT| (NP (NP (DT a)(NN hotel))(PP (IN near)(NP (NNP O'Hare)(NNP International)(NNP Airport)))) |BT| (BOW (hotel *)(near *)(O'Hare *)(International *)(Airport *)) |BT| (BOP (NN *)(IN *)(NNP *)(NNP *)(NNP *)) |ET| 
-0.11464987795609246634676026133093  |BT| (VP (VBG helping)(NP (NP (NP (NNP conduct)(NNP Saturday)(POS 's))(JJ first)(CD 10)(NNS rounds))(PP (IN of)(NP (DT the)(NN draft))))(PP (IN before)(NP (QP (RB about)(CD 100))(NNS fans)))(PP (IN at)(NP (NP (DT a)(NN hotel))(PP (IN near)(NP (NNP O'Hare)(NNP International)(NNP Airport)))))) |BT| (BOW (fans *)(at *)(a *)(hotel *)(near *)(O'Hare *)(International *)(Airport *)) |BT| (BOP (NNS *)(IN *)(DT *)(NN *)(IN *)(NNP *)(NNP *)(NNP *)) |ET| 
0.33333333333351461424953754431044  |BT| (SBAR (WHNP (WDT that))(S (VP (VBP separate)(NP (DT the)(NNP Mississippi)(NNP Sound))(PP (IN from)(NP (NP (DT the)(NNP Gulf))(PP (IN of)(NP (NNP Mexico)))))))) |BT| (BOW (that *)(separate *)(the *)(Mississippi *)(Sound *)) |BT| (BOP (WDT *)(VBP *)(DT *)(NNP *)(NN *)) |ET| 
-0.13995798452576174719652613021026  |BT| (NP (NP (DT the)(NN barrier)(NNS islands))(SBAR (WHNP (WDT that))(S (VP (VBP separate)(NP (DT the)(NNP Mississippi)(NNP Sound))(PP (IN from)(NP (NP (DT the)(NNP Gulf))(PP (IN of)(NP (NNP Mexico))))))))) |BT| (BOW (islands *)(that *)(separate *)(the *)(Mississippi *)(Sound *)) |BT| (BOP (NNS *)(WDT *)(VBP *)(DT *)(NNP *)(NN *)) |ET| 
0.33333333333351461424953754431044  |BT| (VP (VBN postmarked)(PP (IN in)(NP (NNP Shaw)(NNP Island)))(, ,)(PP (NP (CD 50)(NNS miles))(IN from)(SBAR (WHADVP (WRB where))(S (NP (PRP$ his)(NN wife))(VP (VBD mailed)(NP (PRP it))(PP (IN in)(NP (NNP Bellevue)))))))) |BT| (BOW (Shaw *)(Island *)(, *)(50 *)(miles *)(from *)(where *)) |BT| (BOP (NNP *)(NNP *)(, *)(CD *)(NNS *)(IN *)(WRB *)) |ET| 
-0.088563077161856296193320758902701  |BT| (VP (VBN postmarked)(PP (IN in)(NP (NNP Shaw)(NNP Island)))(, ,)(PP (NP (CD 50)(NNS miles))(IN from)(SBAR (WHADVP (WRB where))(S (NP (PRP$ his)(NN wife))(VP (VBD mailed)(NP (PRP it))(PP (IN in)(NP (NNP Bellevue)))))))) |BT| (BOW (Shaw *)(Island *)(, *)(50 *)(miles *)(from *)(where *)(his *)) |BT| (BOP (NNP *)(NNP *)(, *)(CD *)(NNS *)(IN *)(WRB *)(PRP$ *)) |ET| 
0.33333333333351461424953754431044  |BT| (NP (NP (DT the)(NNS passes))(PP (IN between)(NP (NP (DT the)(NN barrier)(NNS islands))(SBAR (WHNP (WDT that))(S (VP (VBP separate)(NP (DT the)(NNP Mississippi)(NNP Sound))(PP (IN from)(NP (NP (DT the)(NNP Gulf))(PP (IN of)(NP (NNP Mexico))))))))))) |BT| (BOW (passes *)(between *)(the *)(barrier *)(islands *)) |BT| (BOP (NNS *)(IN *)(DT *)(NN *)(NNS *)) |ET| 
-0.11459669404659594826867419214977  |BT| (NP (NP (DT the)(NNS passes))(PP (IN between)(NP (NP (DT the)(NN barrier)(NNS islands))(SBAR (WHNP (WDT that))(S (VP (VBP separate)(NP (DT the)(NNP Mississippi)(NNP Sound))(PP (IN from)(NP (NP (DT the)(NNP Gulf))(PP (IN of)(NP (NNP Mexico))))))))))) |BT| (BOW (passes *)(between *)(the *)(barrier *)(islands *)(that *)) |BT| (BOP (NNS *)(IN *)(DT *)(NN *)(NNS *)(WDT *)) |ET| 
0.33333333333351461424953754431044  |BT| (VP (VBN based)(PP (IN at)(NP (NNP Stansted)(NN airport)))(, ,)(ADVP (RB northeast)(PP (IN of)(NP (NP (NNP London))(, ,)(NP (NP (DT a)(JJ major)(NN base))(PP (IN for)(NP (NP (JJ low-fare)(NNS carriers))(VP (VBG operating)(PP (IN in)(NP (NNP Britain))))))))))) |BT| (BOW (Stansted *)(airport *)(, *)(northeast *)(of *)(London *)) |BT| (BOP (NNP *)(NN *)(, *)(RB *)(IN *)(NNP *)) |ET| 
-0.065413004861671425471669749640569  |BT| (VP (VBN based)(PP (IN at)(NP (NNP Stansted)(NN airport)))(, ,)(ADVP (RB northeast)(PP (IN of)(NP (NP (NNP London))(, ,)(NP (NP (DT a)(JJ major)(NN base))(PP (IN for)(NP (NP (JJ low-fare)(NNS carriers))(VP (VBG operating)(PP (IN in)(NP (NNP Britain))))))))))) |BT| (BOW (Stansted *)(airport *)(, *)(northeast *)(of *)(London *)(, *)(a *)(major *)(base *)) |BT| (BOP (NNP *)(NN *)(, *)(RB *)(IN *)(NNP *)(, *)(DT *)(JJ *)(NN *)) |ET| 
0.33333333333351461424953754431044  |BT| (S (NP (CD 47,000)(NNS cars))(VP (VP (VB drive)(PP (IN by)(NP (DT the)(NN site)))(ADVP (RB daily)))(CC and)(VP (VB ``because)(SBAR (S (NP (DT the)(NNS players))(VP (VBP have)(S (VP (TO to)(VP (VB drive)(PP (IN by)(NP (PRP it)))(NP (NP (DT every)(NN day))(SBAR (S (NP (PRP it))(VP (MD could)(VP (VB become)(NP (DT a)(NN hangout))(SBAR (IN for)(S (NP (PRP them))(VP (VBZ .'')))))))))))))))))) |BT| (BOW (cars *)(drive *)(by *)(the *)(site *)) |BT| (BOP (NNS *)(JJ *)(IN *)(DT *)(JJ *)) |ET| 
-0.063395921085964951346980456037272  |BT| (S (NP (PRP He))(VP (VBD said)(SBAR (IN that)(S (NP (CD 47,000)(NNS cars))(VP (VP (VB drive)(PP (IN by)(NP (DT the)(NN site)))(ADVP (RB daily)))(CC and)(VP (VB ``because)(SBAR (S (NP (DT the)(NNS players))(VP (VBP have)(S (VP (TO to)(VP (VB drive)(PP (IN by)(NP (PRP it)))(NP (NP (DT every)(NN day))(SBAR (S (NP (PRP it))(VP (MD could)(VP (VB become)(NP (DT a)(NN hangout))(SBAR (IN for)(S (NP (PRP them))(VP (VBZ .''))))))))))))))))))))) |BT| (BOW (He *)(said *)(that *)(47,000 *)(cars *)(drive *)(by *)(the *)(site *)) |BT| (BOP (PRP *)(VBD *)(IN *)(CD *)(NNS *)(JJ *)(IN *)(DT *)(JJ *)) |ET| 
0.33333333333351461424953754431044  |BT| (SBAR (WHNP (WDT that))(S (VP (VBP separate)(NP (DT the)(NNP Mississippi)(NNP Sound))(PP (IN from)(NP (NP (DT the)(NNP Gulf))(PP (IN of)(NP (NNP Mexico)))))))) |BT| (BOW (that *)(separate *)(the *)(Mississippi *)(Sound *)(from *)(the *)(Gulf *)(of *)(Mexico *)) |BT| (BOP (WDT *)(VBP *)(DT *)(NNP *)(NN *)(IN *)(DT *)(NNP *)(IN *)(NNP *)) |ET| 
-0.1515477070511618840065182212129  |BT| (VP (VBP separate)(NP (DT the)(NNP Mississippi)(NNP Sound))(PP (IN from)(NP (NP (DT the)(NNP Gulf))(PP (IN of)(NP (NNP Mexico)))))) |BT| (BOW (Mississippi *)(Sound *)(from *)(the *)(Gulf *)(of *)(Mexico *)) |BT| (BOP (NNP *)(NN *)(IN *)(DT *)(NNP *)(IN *)(NNP *)) |ET| 
0.33333333333351461424953754431044  |BT| (S (NP (DT the)(NNS players))(VP (VBP have)(S (VP (TO to)(VP (VB drive)(PP (IN by)(NP (PRP it)))(NP (NP (DT every)(NN day))(SBAR (S (NP (PRP it))(VP (MD could)(VP (VB become)(NP (DT a)(NN hangout))(SBAR (IN for)(S (NP (PRP them))(VP (VBZ .'')))))))))))))) |BT| (BOW (players *)(have *)(to *)(drive *)(by *)(it *)) |BT| (BOP (NNS *)(VBP *)(TO *)(VB *)(IN *)(PRP *)) |ET| 
-0.080803159269107152629096901819139  |BT| (S (NP (DT the)(NNS players))(VP (VBP have)(S (VP (TO to)(VP (VB drive)(PP (IN by)(NP (PRP it)))(NP (NP (DT every)(NN day))(SBAR (S (NP (PRP it))(VP (MD could)(VP (VB become)(NP (DT a)(NN hangout))(SBAR (IN for)(S (NP (PRP them))(VP (VBZ .'')))))))))))))) |BT| (BOW (players *)(have *)(to *)(drive *)(by *)(it *)(every *)(day *)(it *)) |BT| (BOP (NNS *)(VBP *)(TO *)(VB *)(IN *)(PRP *)(NN *)(NN *)(PRP *)) |ET| 
0.33333333333351461424953754431044  |BT| (VP (VBG listing)(NP (NP (DT an)(NN acre))(PP (IN of)(NP (NN land))))(PP (IN about)(NP (NP (DT a)(NN mile))(PP (IN from)(NP (NP (NP (DT the)(NNS Broncos)(POS '))(NN training)(NN camp))(PP (IN in)(NP (NNP Dove)(NNP Valley)))))))) |BT| (BOW (acre *)(of *)(land *)(about *)(a *)(mile *)(from *)(the *)(Broncos *)(' *)(training *)(camp *)) |BT| (BOP (NN *)(IN *)(NN *)(IN *)(DT *)(NN *)(IN *)(DT *)(NNPS *)(POS *)(NN *)(NN *)) |ET| 
-0.055400149935276032930886458416353  |BT| (VP (VBG listing)(NP (NP (DT an)(NN acre))(PP (IN of)(NP (NN land))))(PP (IN about)(NP (NP (DT a)(NN mile))(PP (IN from)(NP (NP (NP (DT the)(NNS Broncos)(POS '))(NN training)(NN camp))(PP (IN in)(NP (NNP Dove)(NNP Valley)))))))) |BT| (BOW (acre *)(of *)(land *)(about *)(a *)(mile *)(from *)(the *)(Broncos *)) |BT| (BOP (NN *)(IN *)(NN *)(IN *)(DT *)(NN *)(IN *)(DT *)(NNPS *)) |ET| 
0.33333333333351461424953754431044  |BT| (NP (NP (DT the)(JJ 27-square-mile)(NN arsenal)(NN northeast))(PP (IN of)(NP (NNP Denver)))) |BT| (BOW (arsenal *)(northeast *)(of *)(Denver *)) |BT| (BOP (JJ *)(NN *)(IN *)(NNP *)) |ET| 
-0.0035497516562753837245092203289687  |BT| (VP (VBN watched)(PRT (RP over))(PP (IN by)(NP (JJ uniformed)(NNS guards)))(PP (IN from)(NP (DT the)(NNP Border)(NNP Patrol)))) |BT| (BOW (guards *)(from *)(the *)(Border *)(Patrol *)) |BT| (BOP (NNS *)(IN *)(DT *)(NNP *)(NNP *)) |ET| 
0.33333333333351461424953754431044  |BT| (NP (NNP Odense)(PRN (, ,)(ADVP (NP (CD 105)(NNS miles))(RB west))(PP (IN of)(NP (DT the)(NN capital)))(, ,))(NNP Copenhagen)) |BT| (BOW (Odense *)(, *)(105 *)(miles *)(west *)(of *)(the *)(capital *)) |BT| (BOP (NN *)(, *)(CD *)(NNS *)(JJS *)(IN *)(DT *)(NN *)) |ET| 
-0.10561138235827896569851702679443  |BT| (NP (NNP Odense)(PRN (, ,)(ADVP (NP (CD 105)(NNS miles))(RB west))(PP (IN of)(NP (DT the)(NN capital)))(, ,))(NNP Copenhagen)) |BT| (BOW (Odense *)(, *)(105 *)(miles *)(west *)(of *)(the *)(capital *)(, *)(Copenhagen *)) |BT| (BOP (NN *)(, *)(CD *)(NNS *)(JJS *)(IN *)(DT *)(NN *)(, *)(NNP *)) |ET| 
0.33333333333351461424953754431044  |BT| (NP (NP (DT this)(NN beach)(NN resort))(PP (IN near)(NP (NNP Sarasota)))) |BT| (BOW (resort *)(near *)(Sarasota *)) |BT| (BOP (NN *)(IN *)(NNP *)) |ET| 
-0.33333333333351461424953754431044  |BT| (NP (NP (DT this)(NN beach)(NN resort))(PP (IN near)(NP (NNP Sarasota)))) |BT| (BOW (beach *)(resort *)(near *)(Sarasota *)) |BT| (BOP (JJ *)(NN *)(IN *)(NNP *)) |ET| 
0.33333333333351461424953754431044  |BT| (NP (NP (DT the)(VBN isolated)(JJ 1,600-acre)(NN ranch))(PP (IN about)(NP (NP (DT a)(JJ two-hour)(NN drive)(NN north))(PP (IN of)(NP (RB here)))(, ,)(SBAR (WHADVP (WRB where))(S (NP (PRP he))(VP (VBZ has)(VP (VBN spent)(NP (NP (RB much))(PP (IN of)(NP (PRP$ his)(NN time))))(PP (IN since)(NP (DT the)(NN election)))))))))) |BT| (BOW (ranch *)(about *)(a *)(two-hour *)(drive *)(north *)(of *)(here *)) |BT| (BOP (NN *)(IN *)(DT *)(JJ *)(JJ *)(NN *)(IN *)(RB *)) |ET| 
-0.089953252252934309818321878537972  |BT| (NP (NP (DT the)(VBN isolated)(JJ 1,600-acre)(NN ranch))(PP (IN about)(NP (NP (DT a)(JJ two-hour)(NN drive)(NN north))(PP (IN of)(NP (RB here)))(, ,)(SBAR (WHADVP (WRB where))(S (NP (PRP he))(VP (VBZ has)(VP (VBN spent)(NP (NP (RB much))(PP (IN of)(NP (PRP$ his)(NN time))))(PP (IN since)(NP (DT the)(NN election)))))))))) |BT| (BOW (ranch *)(about *)(a *)(two-hour *)(drive *)(north *)(of *)(here *)(, *)(where *)) |BT| (BOP (NN *)(IN *)(DT *)(JJ *)(JJ *)(NN *)(IN *)(RB *)(, *)(WRB *)) |ET| 
0.33333333333351461424953754431044  |BT| (NP (NP (PRP$ his)(NN country)(NN house)(NN southwest))(PP (IN of)(NP (NNP Santiago)))) |BT| (BOW (house *)(southwest *)(of *)(Santiago *)) |BT| (BOP (NN *)(JJS *)(IN *)(NNP *)) |ET| 
-0.12741456544530313510499297535716  |BT| (NP (NP (PRP$ his)(NN country)(NN house)(NN southwest))(PP (IN of)(NP (NNP Santiago)))) |BT| (BOW (country *)(house *)(southwest *)(of *)(Santiago *)) |BT| (BOP (NN *)(NN *)(JJS *)(IN *)(NNP *)) |ET| 
0.33333333333351461424953754431044  |BT| (SBAR (WHNP (WP who))(S (VP (VBZ has)(VP (VBN lived)(PP (IN near)(NP (NP (DT the)(NN site))(PP (IN since)(NP (CD 1978))))))))) |BT| (BOW (who *)(has *)(lived *)(near *)(the *)(site *)) |BT| (BOP (WP *)(VBZ *)(VBN *)(IN *)(DT *)(JJ *)) |ET| 
-0.012167493719714032873735476414367  |BT| (NP (NP (DT no)(NNS owners))(PP (IN in)(NP (RB there)))(PP (IN in)(SBAR (WHNP (WP who))(S (VP (VBP are)(VP (VBG going)(S (VP (TO to)(VP (VB disrupt)(NP (NP (DT the)(NN progress))(PP (IN of)(NP (DT the)(NN league))))))))))))) |BT| (BOW (owners *)(in *)(there *)(in *)(who *)) |BT| (BOP (NNS *)(IN *)(RB *)(IN *)(WP *)) |ET| 
0.33333333333351461424953754431044  |BT| (NP (NP (DT a)(NN park))(PP (IN in)(NP (NP (DT the)(NN shadow))(PP (IN of)(NP (DT an)(NN oil)(NN refinery)))))) |BT| (BOW (park *)(in *)(the *)(shadow *)(of *)(an *)(oil *)(refinery *)) |BT| (BOP (NN *)(IN *)(DT *)(NN *)(IN *)(DT *)(NN *)(NN *)) |ET| 
-0.18772423957057124410674475711858  |BT| (NP (NP (DT a)(NN mountain)(NN hamlet))(PP (IN near)(NP (NP (DT the)(NN city))(PP (IN of)(NP (NNP Aosta)))))) |BT| (BOW (hamlet *)(near *)(the *)(city *)) |BT| (BOP (NN *)(IN *)(DT *)(NN *)) |ET| 
0.33333333333351461424953754431044  |BT| (NP (NP (DT a)(JJ half-dozen)(NNS homes))(VP (VBN hit)(PP (IN near)(NP (NNP Newton))))) |BT| (BOW (homes *)(hit *)(near *)(Newton *)) |BT| (BOP (NNS *)(VBP *)(IN *)(NNP *)) |ET| 
-0.11962615595716327709929771572206  |BT| (S (NP (PRP he))(VP (VBN counted)(PP (IN about)(NP (NP (DT a)(JJ half-dozen)(NNS homes))(VP (VBN hit)(PP (IN near)(NP (NNP Newton)))))))) |BT| (BOW (he *)(counted *)(about *)(a *)(half-dozen *)(homes *)(hit *)(near *)(Newton *)) |BT| (BOP (PRP *)(VBD *)(IN *)(DT *)(JJ *)(NNS *)(VBP *)(IN *)(NNP *)) |ET| 
0.33333333333351461424953754431044  |BT| (NP (NP (DT a)(NN mountain)(NN hamlet))(PP (IN near)(NP (NP (DT the)(NN city))(PP (IN of)(NP (NNP Aosta)))))) |BT| (BOW (hamlet *)(near *)(the *)(city *)(of *)(Aosta *)) |BT| (BOP (NN *)(IN *)(DT *)(NN *)(IN *)(NNP *)) |ET| 
-0.06676516487670040855828546000339  |BT| (NP (NP (DT the)(NN city))(PP (IN of)(NP (NNP Aosta)))) |BT| (BOW (city *)(of *)(Aosta *)) |BT| (BOP (NN *)(IN *)(NNP *)) |ET| 
-0.050567265728169129290758831984931  |BT| (NP (PRP$ its)(NNS players)) |BT| (BOW (its *)(players *)) |BT| (BOP (PRP$ *)(NNS *)) |ET| 
0.33333333333351461424953754431044  |BT| (NP (NP (DT the)(NN ranch))(PP (IN near)(NP (NNP Waco)(, ,)(NNP Texas)))) |BT| (BOW (ranch *)(near *)(Waco *)) |BT| (BOP (NN *)(IN *)(NNP *)) |ET| 
-0.0073931048564747610732372784525523  |BT| (NP (NP (DT the)(NN heart))(PP (IN of)(NP (NNP Jerusalem)))) |BT| (BOW (heart *)(of *)(Jerusalem *)) |BT| (BOP (NN *)(IN *)(NNP *)) |ET| 
-0.21170346746516499614187978295377  |BT| (NP (NP (DT the)(NN ranch))(PP (IN near)(NP (NNP Waco)(, ,)(NNP Texas)))) |BT| (BOW (ranch *)(near *)(Waco *)(, *)(Texas *)) |BT| (BOP (NN *)(IN *)(NNP *)(, *)(NNP *)) |ET| 
-0.031702893873300760918532148480153  |BT| (NP (NP (DT the)(NN state))(PP (IN of)(NP (NNP Washington)))) |BT| (BOW (state *)(of *)(Washington *)) |BT| (BOP (NN *)(IN *)(NNP *)) |ET| 
-0.03006723401409115356552881337393  |BT| (NP (NP (DT the)(NN president))(PP (IN of)(NP (NNP Russia)))) |BT| (BOW (president *)(of *)(Russia *)) |BT| (BOP (NN *)(IN *)(NNP *)) |ET| 
-0.13293722643682284734190091057826  |BT| (NP (NP (NNP Jeff)(NNP Kanost))(, ,)(SBAR (WHNP (WP who))(S (VP (VBZ has)(VP (VBN lived)(PP (IN near)(NP (NP (DT the)(NN site))(PP (IN since)(NP (CD 1978)))))))))) |BT| (BOW (Jeff *)(Kanost *)(, *)(who *)(has *)(lived *)(near *)(the *)(site *)) |BT| (BOP (NNP *)(NNP *)(, *)(WP *)(VBZ *)(VBN *)(IN *)(DT *)(JJ *)) |ET| 
-0.048100577719457270065017695515053  |BT| (NP (NP (DT a)(JJ common)(NN area))(PP (IN at)(NP (NP (NNP Heritage)(NNP High)(NNP School))(PP (IN in)(NP (NP (NNP Conyers))(, ,)(ADVP (NP (QP (RB about)(CD 25))(NNS miles))(RB east)(PP (IN of)(NP (NNP Atlanta))))(, ,)))(NP (CD one)(NN month))))) |BT| (BOW (area *)(at *)(Heritage *)(High *)(School *)) |BT| (BOP (NN *)(IN *)(NNP *)(NNP *)(NNP *)) |ET| 
-0.023249470005349180679043996633482  |BT| (NP (DT a)(JJ recreational)(NN vehicle)(NN park)) |BT| (BOW (vehicle *)(park *)) |BT| (BOP (NN *)(NN *)) |ET| 
-0.030345718799767842921433214087301  |BT| (NP (NP (DT a)(NN government))(PP (IN of)(NP (NP (JJ Milosevic)(NNS cronies))(PP (VBG including)(NP (NP (NNP Serbian)(NNP President)(NNP Milan)(NNP Milutinovic))(: -)(PP (IN like)(NP (NP (NNP Milosevic))(, ,)(VP (VBN indicted)(PP (IN by)(NP (DT the)(NN tribunal))))))))))) |BT| (BOW (government *)(of *)(Milosevic *)) |BT| (BOP (NN *)(IN *)(NNP *)) |ET| 
-0.0033822364502481177053749838989916  |BT| (VP (VB stop)(ADVP (RB here))(ADVP (RB together))) |BT| (BOW (here *)(together *)) |BT| (BOP (RB *)(RB *)) |ET| 
-0.049519411379740682632721870959358  |BT| (NP (NP (NNP St.)(NNP Louis))(CC and)(NP (PRP$ its)(NNS suburbs))) |BT| (BOW (St. *)(Louis *)(and *)(its *)(suburbs *)) |BT| (BOP (NNP *)(NNP *)(CC *)(PRP$ *)(NNS *)) |ET| 
-0.046402878049301675422722013308885  |BT| (SBAR (WHNP (WDT that))(S (VP (MD would)(VP (VB have)(S (VP (TO to)(VP (VB be)(VP (VBN constructed)(PP (IN at)(NP (NP (DT the)(JJ 27-square-mile)(NN arsenal)(NN northeast))(PP (IN of)(NP (NNP Denver))))))))))))) |BT| (BOW (that *)(would *)(have *)(to *)(be *)(constructed *)(at *)(the *)(27-square-mile *)(arsenal *)(northeast *)(of *)(Denver *)) |BT| (BOP (WDT *)(MD *)(VB *)(TO *)(VB *)(VBN *)(IN *)(DT *)(JJ *)(JJ *)(NN *)(IN *)(NNP *)) |ET| 
-0.10356989254193632588041396047629  |BT| (NP (NP (DT a)(JJ crowded)(JJ outdoor)(NN market))(PP (IN in)(NP (NP (DT the)(NN heart))(PP (IN of)(NP (NNP Jerusalem)))))) |BT| (BOW (market *)(in *)(the *)(heart *)(of *)(Jerusalem *)) |BT| (BOP (NN *)(IN *)(DT *)(NN *)(IN *)(NNP *)) |ET| 
-0.0011750311625553888465745000502238  |BT| (NP (NP (NN security)(NNS forces))(PP (IN of)(S (VP (VBG preventing)(NP (JJ pro-independence)(NNS residents))(PP (IN from)(S (VP (VBG reaching)(NP (NP (DT the)(NN capital))(PP (IN for)(NP (NP (DT the)(NN rally))(, ,)(SBAR (WHNP (WDT which))(S (NP (JJ last)(NN year))(VP (VBD attracted)(NP (DT an)(VBN estimated)(CD 250,000)(NNS people))))))))))))))) |BT| (BOW (forces *)(of *)(preventing *)(pro-independence *)(residents *)) |BT| (BOP (NNS *)(IN *)(VBG *)(NN *)(NNS *)) |ET| 
-0.075474108220524915857652104023146  |BT| (S (NP (CD 47,000)(NNS cars))(VP (VP (VB drive)(PP (IN by)(NP (DT the)(NN site)))(ADVP (RB daily)))(CC and)(VP (VB ``because)(SBAR (S (NP (DT the)(NNS players))(VP (VBP have)(S (VP (TO to)(VP (VB drive)(PP (IN by)(NP (PRP it)))(NP (NP (DT every)(NN day))(SBAR (S (NP (PRP it))(VP (MD could)(VP (VB become)(NP (DT a)(NN hangout))(SBAR (IN for)(S (NP (PRP them))(VP (VBZ .'')))))))))))))))))) |BT| (BOW (cars *)(drive *)(by *)(the *)(site *)(daily *)(and *)(``because *)(the *)(players *)) |BT| (BOP (NNS *)(JJ *)(IN *)(DT *)(JJ *)(NNS *)(CC *)(VB *)(DT *)(NNS *)) |ET| 
-0.17197117422141752762776434337866  |BT| (NP (NP (QP (RB about)(CD 30))(NNS youths))(VP (VBN gathered)(PP (IN in)(NP (NP (DT the)(JJ northern)(NN village))(PP (IN of)(NP (NNP Lanviara))))))(, ,)(PP (IN near)(NP (NNP Korhogo)))) |BT| (BOW (village *)(of *)(Lanviara *)(, *)(near *)(Korhogo *)) |BT| (BOP (NN *)(IN *)(NNP *)(, *)(IN *)(NNP *)) |ET| 
-0.045585727773480577695863757980987  |BT| (NP (PRP$ your)(NNS homes)) |BT| (BOW (your *)(homes *)) |BT| (BOP (PRP$ *)(NNS *)) |ET| 
-0.050773073690447173555995163951593  |BT| (S (NP (NNP Go))(VP (VBZ is)(VP (VBN based)(PP (IN at)(NP (NNP Stansted)(NN airport)))(, ,)(ADVP (RB northeast)(PP (IN of)(NP (NP (NNP London))(, ,)(NP (NP (DT a)(JJ major)(NN base))(PP (IN for)(NP (NP (JJ low-fare)(NNS carriers))(VP (VBG operating)(PP (IN in)(NP (NNP Britain))))))))))))(. .)) |BT| (BOW (Go *)(is *)(based *)(at *)(Stansted *)(airport *)(, *)(northeast *)(of *)(London *)) |BT| (BOP (NNP *)(VBZ *)(VBN *)(IN *)(NNP *)(NN *)(, *)(RB *)(IN *)(NNP *)) |ET| 
-0.025894341491563038076817448995826  |BT| (S (NP (PRP he))(VP (VBD supported)(NP (NP (NN ``a)(NN humane)(NN way))('' '')(PP (IN of)(S (VP (VBG cracking)(PRT (RP down))(PP (IN on)(NP (NN migration)))(PP (IN from)(NP (NP (NN ``our)(JJ friendly)(NN neighbor))(PP (TO to)(NP (DT the)(JJ south)(NN .''))))))))))) |BT| (BOW (he *)(supported *)(``a *)(humane *)(way *)('' *)(of *)(cracking *)(down *)(on *)(migration *)(from *)(``our *)(friendly *)(neighbor *)) |BT| (BOP (PRP *)(VBD *)(DT *)(JJ *)(NN *)('' *)(IN *)(VBG *)(RB *)(IN *)(NN *)(IN *)(PRP$ *)(JJ *)(NN *)) |ET| 
-0.0090058426016972337180277463630773  |BT| (S (PP (IN Of)(NP (CD 1,944)(NNS donors)))(, ,)(NP (CD 19))(VP (VBP are)(PP (IN from)(NP (JJ outside)(NNP Texas))))(. .)) |BT| (BOW (19 *)(are *)(from *)(outside *)(Texas *)) |BT| (BOP (CD *)(VBP *)(IN *)(JJ *)(NNP *)) |ET| 
-0.027275664614938761182161286455994  |BT| (NP (NP (DT a)(NN population))(PP (IN of)(NP (QP (RB about)(CD 4.1)(CD million))(NNS people)))) |BT| (BOW (population *)(of *)(about *)(4.1 *)(million *)(people *)) |BT| (BOP (NN *)(IN *)(IN *)(CD *)(CD *)(NNS *)) |ET| 
-0.051243207008826140158586071038371  |BT| (VP (VP (VB drive)(PP (IN by)(NP (DT the)(NN site)))(ADVP (RB daily)))(CC and)(VP (VB ``because)(SBAR (S (NP (DT the)(NNS players))(VP (VBP have)(S (VP (TO to)(VP (VB drive)(PP (IN by)(NP (PRP it)))(NP (NP (DT every)(NN day))(SBAR (S (NP (PRP it))(VP (MD could)(VP (VB become)(NP (DT a)(NN hangout))(SBAR (IN for)(S (NP (PRP them))(VP (VBZ .''))))))))))))))))) |BT| (BOW (site *)(daily *)(and *)(``because *)(the *)(players *)(have *)(to *)(drive *)(by *)(it *)) |BT| (BOP (JJ *)(NNS *)(CC *)(VB *)(DT *)(NNS *)(VBP *)(TO *)(VB *)(IN *)(PRP *)) |ET| 
-0.047089461482444916473610874163569  |BT| (NP (NP (NP (DT the)(NNPS Kains)(POS '))(NN home))(PP (IN in)(NP (NNP Odense)(PRN (, ,)(ADVP (NP (CD 105)(NNS miles))(RB west))(PP (IN of)(NP (DT the)(NN capital)))(, ,))(NNP Copenhagen)))) |BT| (BOW (Kains *)(' *)(home *)(in *)(Odense *)(, *)(105 *)(miles *)(west *)(of *)(the *)(capital *)) |BT| (BOP (NNS *)(POS *)(NN *)(IN *)(NN *)(, *)(CD *)(NNS *)(JJS *)(IN *)(DT *)(NN *)) |ET| 
-0.1439248218051565331165875250008  |BT| (NP (NP (NNP Geneva))(, ,)(PP (IN near)(NP (DT the)(NNP Alabama)(JJ -Florida)(NN line)))(, ,)) |BT| (BOW (Geneva *)(, *)(near *)(the *)(Alabama *)(-Florida *)) |BT| (BOP (NNP *)(, *)(IN *)(DT *)(NNP *)(NNP *)) |ET| 
-0.027412683825353820199488552589173  |BT| (SBAR (WHNP (WP who))(S (VP (VBP own)(NP (DT this)(NN house))))) |BT| (BOW (who *)(own *)(this *)(house *)) |BT| (BOP (WP *)(VBP *)(DT *)(NN *)) |ET| 
-0.056449211288814131470825685710224  |BT| (VP (VBG inviting)(NP (CD 23)(NNS voters))(PP (TO to)(NP (DT the)(NNP Innsbrook)(NN resort)))(PP (IN outside)(NP (NNP St.)(NNP Louis)))(S (VP (TO to)(VP (VB help)(S (NP (PRP him))(VP (VB practice))))))) |BT| (BOW (Innsbrook *)(resort *)(outside *)(St. *)(Louis *)(to *)(help *)(him *)) |BT| (BOP (NN *)(VB *)(VB *)(NNP *)(NNP *)(TO *)(VB *)(PRP *)) |ET| 
-0.031819576300404828206325191786163  |BT| (VP (VB attack)(NP (NP (NNP Bush)(POS 's))(JJ environmental)(NN record))(PP (IN at)(NP (NP (DT a)(NN park))(PP (IN in)(NP (NP (DT the)(NN shadow))(PP (IN of)(NP (DT an)(NN oil)(NN refinery)))))))) |BT| (BOW (Bush *)('s *)(environmental *)(record *)(at *)(a *)(park *)(in *)(the *)(shadow *)(of *)(an *)(oil *)(refinery *)) |BT| (BOP (NNP *)(POS *)(JJ *)(NN *)(IN *)(DT *)(NN *)(IN *)(DT *)(NN *)(IN *)(DT *)(NN *)(NN *)) |ET| 
-0.020342408900871761928685899079028  |BT| (NP (PRP$ his)(NN wife)(NNP Claire)(NNP Parkhurst)) |BT| (BOW (wife *)(Claire *)(Parkhurst *)) |BT| (BOP (NN *)(IN *)(NNP *)) |ET| 
-0.10647132860320382419239138016565  |BT| (NP (NP (DT the)(NNS passes))(PP (IN between)(NP (NP (DT the)(NN barrier)(NNS islands))(SBAR (WHNP (WDT that))(S (VP (VBP separate)(NP (DT the)(NNP Mississippi)(NNP Sound))(PP (IN from)(NP (NP (DT the)(NNP Gulf))(PP (IN of)(NP (NNP Mexico))))))))))) |BT| (BOW (passes *)(between *)(the *)(barrier *)(islands *)(that *)(separate *)(the *)(Mississippi *)(Sound *)) |BT| (BOP (NNS *)(IN *)(DT *)(NN *)(NNS *)(WDT *)(VBP *)(DT *)(NNP *)(NN *)) |ET| 
-0.063101224597534477656068929718458  |BT| (NP (NP (DT the)(VBN isolated)(JJ 1,600-acre)(NN ranch))(PP (IN about)(NP (NP (DT a)(JJ two-hour)(NN drive)(NN north))(PP (IN of)(NP (RB here)))(, ,)(SBAR (WHADVP (WRB where))(S (NP (PRP he))(VP (VBZ has)(VP (VBN spent)(NP (NP (RB much))(PP (IN of)(NP (PRP$ his)(NN time))))(PP (IN since)(NP (DT the)(NN election)))))))))) |BT| (BOW (ranch *)(about *)(a *)(two-hour *)(drive *)(north *)(of *)(here *)(, *)(where *)(he *)) |BT| (BOP (NN *)(IN *)(DT *)(JJ *)(JJ *)(NN *)(IN *)(RB *)(, *)(WRB *)(PRP *)) |ET| 
-0.0069643008550507139176044546502453  |BT| (S (NP (NNS crowds))(VP (VP (VBG vandalizing)(NP (DT the)(NN tomb)))(, ,)(VP (VBG setting)(NP (NNS fires)))(CC and)(VP (VBG hammering)(PRT (RP away))(PP (IN at)(NP (DT the)(NN stone)(NNS buildings)))))) |BT| (BOW (crowds *)(vandalizing *)(the *)(tomb *)) |BT| (BOP (NNS *)(VBG *)(DT *)(NN *)) |ET| 
-0.076644602941915204730172206382122  |BT| (VP (VBN postmarked)(PP (IN in)(NP (NNP Shaw)(NNP Island)))(, ,)(PP (NP (CD 50)(NNS miles))(IN from)(SBAR (WHADVP (WRB where))(S (NP (PRP$ his)(NN wife))(VP (VBD mailed)(NP (PRP it))(PP (IN in)(NP (NNP Bellevue)))))))) |BT| (BOW (Shaw *)(Island *)(, *)(50 *)(miles *)(from *)(where *)(his *)(wife *)) |BT| (BOP (NNP *)(NNP *)(, *)(CD *)(NNS *)(IN *)(WRB *)(PRP$ *)(NN *)) |ET| 
-0.093228245459428871200202593172435  |BT| (NP (NP (DT the)(NN barrier)(NNS islands))(SBAR (WHNP (WDT that))(S (VP (VBP separate)(NP (DT the)(NNP Mississippi)(NNP Sound))(PP (IN from)(NP (NP (DT the)(NNP Gulf))(PP (IN of)(NP (NNP Mexico))))))))) |BT| (BOW (islands *)(that *)(separate *)(the *)(Mississippi *)(Sound *)(from *)(the *)(Gulf *)(of *)(Mexico *)) |BT| (BOP (NNS *)(WDT *)(VBP *)(DT *)(NNP *)(NN *)(IN *)(DT *)(NNP *)(IN *)(NNP *)) |ET| 
-0.028492096261261000422759792627403  |BT| (NP (PRP$ its)(JJ legal)(NN department)) |BT| (BOW (its *)(legal *)(department *)) |BT| (BOP (PRP$ *)(JJ *)(NN *)) |ET| 
-0.035214856225953355961522106554185  |BT| (VP (VBD came)(PP (TO to)(NP (DT the)(NN square)))(S (VP (TO to)(VP (VB plead)(PP (IN with)(NP (DT the)(NNS vandals)))(S (VP (TO to)(VP (VB stop)))))))) |BT| (BOW (square *)(to *)(plead *)(with *)(the *)(vandals *)) |BT| (BOP (NN *)(TO *)(VB *)(IN *)(DT *)(NNS *)) |ET| 
-0.067730669887878819368509653031651  |BT| (NP (NP (NNP Heritage)(NNP High)(NNP School))(PP (IN in)(NP (NP (NNP Conyers))(, ,)(ADVP (NP (QP (RB about)(CD 25))(NNS miles))(RB east)(PP (IN of)(NP (NNP Atlanta))))(, ,)))(NP (CD one)(NN month))) |BT| (BOW (Heritage *)(High *)(School *)(in *)(Conyers *)(, *)(about *)(25 *)(miles *)(east *)(of *)(Atlanta *)) |BT| (BOP (NNP *)(NNP *)(NNP *)(IN *)(NNS *)(, *)(IN *)(CD *)(NNS *)(RB *)(IN *)(NNP *)) |ET| 
-0.037921549444470598055900723011291  |BT| (NP (NP (NNS troops))(PP (IN from)(NP (DT the)(NN tomb)))) |BT| (BOW (troops *)(from *)(the *)(tomb *)) |BT| (BOP (NNS *)(IN *)(DT *)(NN *)) |ET| 
-0.074817947160286321639510731529299  |BT| (VP (VBG inviting)(NP (CD 23)(NNS voters))(PP (TO to)(NP (DT the)(NNP Innsbrook)(NN resort)))(PP (IN outside)(NP (NNP St.)(NNP Louis)))(S (VP (TO to)(VP (VB help)(S (NP (PRP him))(VP (VB practice))))))) |BT| (BOW (voters *)(to *)(the *)(Innsbrook *)(resort *)(outside *)(St. *)(Louis *)) |BT| (BOP (NNS *)(TO *)(DT *)(NN *)(VB *)(VB *)(NNP *)(NNP *)) |ET| 
-0.056595818356442242902382133706851  |BT| (NP (NP (DT a)(JJ strong)(NN supporter))(PP (IN of)(NP (NNP International)(NNP Monetary)(NNP Fund)(NN aid)))) |BT| (BOW (supporter *)(of *)(International *)(Monetary *)(Fund *)) |BT| (BOP (NN *)(IN *)(NNP *)(NNP *)(NNP *)) |ET| 
-0.038222846406354288317785972139973  |BT| (NP (PRP$ its)(JJ substantial)(NN customer)(NN base)) |BT| (BOW (its *)(substantial *)(customer *)) |BT| (BOP (PRP$ *)(JJ *)(NN *)) |ET| 
-0.065737613594060523292128550565394  |BT| (NP (NP (QP (RB about)(CD 30))(NNS youths))(VP (VBN gathered)(PP (IN in)(NP (NP (DT the)(JJ northern)(NN village))(PP (IN of)(NP (NNP Lanviara))))))(, ,)(PP (IN near)(NP (NNP Korhogo)))) |BT| (BOW (youths *)(gathered *)(in *)(the *)(northern *)(village *)(of *)(Lanviara *)(, *)(near *)(Korhogo *)) |BT| (BOP (NNS *)(VBN *)(IN *)(DT *)(JJ *)(NN *)(IN *)(NNP *)(, *)(IN *)(NNP *)) |ET| 
-0.019316808880070177739662895533002  |BT| (S (NP (DT The)(NNS candidates))(ADVP (RB also))(VP (VBP have)(NP (NP (NNS differences))(PP (IN on)(NP (NP (NN missile)(NN defense))(, ,)(NP (JJ nuclear)(NNS arms)(NNS cuts))(, ,)(NP (JJ global)(NN warming))(, ,)(NP (NN immigration))(CC and)(NP (NN trade))))))) |BT| (BOW (candidates *)(also *)(have *)(differences *)(on *)(missile *)) |BT| (BOP (NNS *)(RB *)(VBP *)(NNS *)(IN *)(JJ *)) |ET| 
-0.0089784021073546372432305773259031  |BT| (NP (NP (DT a)(JJ strategic)(NN plateau))(VP (VBN captured)(PP (IN by)(NP (NNP Israel)))(PP (IN in)(NP (CD 1967))))) |BT| (BOW (plateau *)(captured *)(by *)(Israel *)) |BT| (BOP (NN *)(VBN *)(IN *)(NNP *)) |ET| 
-0.046990881386445144951569119484702  |BT| (S (NP (CD 47,000)(NNS cars))(VP (VP (VB drive)(PP (IN by)(NP (DT the)(NN site)))(ADVP (RB daily)))(CC and)(VP (VB ``because)(SBAR (S (NP (DT the)(NNS players))(VP (VBP have)(S (VP (TO to)(VP (VB drive)(PP (IN by)(NP (PRP it)))(NP (NP (DT every)(NN day))(SBAR (S (NP (PRP it))(VP (MD could)(VP (VB become)(NP (DT a)(NN hangout))(SBAR (IN for)(S (NP (PRP them))(VP (VBZ .'')))))))))))))))))) |BT| (BOW (cars *)(drive *)(by *)(the *)(site *)(daily *)(and *)(``because *)(the *)(players *)(have *)(to *)(drive *)(by *)(it *)) |BT| (BOP (NNS *)(JJ *)(IN *)(DT *)(JJ *)(NNS *)(CC *)(VB *)(DT *)(NNS *)(VBP *)(TO *)(VB *)(IN *)(PRP *)) |ET| 
-0.040774016779794662601599242179873  |BT| (VP (VBN based)(PP (IN at)(NP (NNP Stansted)(NN airport)))(, ,)(ADVP (RB northeast)(PP (IN of)(NP (NP (NNP London))(, ,)(NP (NP (DT a)(JJ major)(NN base))(PP (IN for)(NP (NP (JJ low-fare)(NNS carriers))(VP (VBG operating)(PP (IN in)(NP (NNP Britain))))))))))) |BT| (BOW (Stansted *)(airport *)(, *)(northeast *)(of *)(London *)(, *)(a *)(major *)(base *)(for *)(low-fare *)(carriers *)) |BT| (BOP (NNP *)(NN *)(, *)(RB *)(IN *)(NNP *)(, *)(DT *)(JJ *)(NN *)(IN *)(JJ *)(NNS *)) |ET| 
-0.081899316159132137804554929516598  |BT| (NP (NP (PRP$ his)(NN country)(NN house)(NN southwest))(PP (IN of)(NP (NNP Santiago)))) |BT| (BOW (his *)(country *)(house *)(southwest *)(of *)(Santiago *)) |BT| (BOP (PRP$ *)(NN *)(NN *)(JJS *)(IN *)(NNP *)) |ET| 
-0.056131464374651669768656603309864  |BT| (NP (NNP Odense)(PRN (, ,)(ADVP (NP (CD 105)(NNS miles))(RB west))(PP (IN of)(NP (DT the)(NN capital)))(, ,))(NNP Copenhagen)) |BT| (BOW (capital *)(, *)(Copenhagen *)) |BT| (BOP (NN *)(, *)(NNP *)) |ET| 
-0.032018648549905909250767876983446  |BT| (NP (NP (DT a)(JJ two-hour)(NN drive)(NN north))(PP (IN of)(NP (RB here)))(, ,)(SBAR (WHADVP (WRB where))(S (NP (PRP he))(VP (VBZ has)(VP (VBN spent)(NP (NP (RB much))(PP (IN of)(NP (PRP$ his)(NN time))))(PP (IN since)(NP (DT the)(NN election)))))))) |BT| (BOW (here *)(, *)(where *)) |BT| (BOP (RB *)(, *)(WRB *)) |ET| 
-0.027235608047451065338862008502474  |BT| (NP (NP (CD one))(PP (IN of)(NP (NP (DT the)(VBG leading)(NNS proponents))(PP (IN of)(NP (DT a)(NN ban)))))) |BT| (BOW (one *)(of *)(the *)(leading *)(proponents *)) |BT| (BOP (CD *)(IN *)(DT *)(VBG *)(NNS *)) |ET| 
-0.033476740813647376526773769001011  |BT| (S (NP (NP (NNP Geneva))(, ,)(PP (IN near)(NP (DT the)(NNP Alabama)(JJ -Florida)(NN line)))(, ,))(VP (VBD said)(NP (NNP Mayor)(NNP Warren)(NNP Beck)))) |BT| (BOW (Geneva *)(, *)(near *)(the *)(Alabama *)(-Florida *)(line *)(, *)(said *)(Mayor *)) |BT| (BOP (NNP *)(, *)(IN *)(DT *)(NNP *)(NNP *)(NN *)(, *)(VBD *)(NNP *)) |ET| 
-0.058412959983355036697183493288321  |BT| (S (PP (IN At)(NP (NP (DT the)(NN church))(PP (IN of)(NP (NP (NNP San)(NNP Maurizio))(PP (IN in)(NP (NP (NNP Fenis))(, ,)(NP (NP (DT a)(NN mountain)(NN hamlet))(PP (IN near)(NP (NP (DT the)(NN city))(PP (IN of)(NP (NNP Aosta))))))))))))(, ,)(NP (NNS villagers))(VP (VBD paid)(NP (PRP$ their)(JJ final)(NNS respects))(PP (TO to)(NP (CD five)(JJ local)(NNS victims))))(. .)) |BT| (BOW (hamlet *)(near *)(the *)(city *)(of *)(Aosta *)(, *)(villagers *)) |BT| (BOP (NN *)(IN *)(DT *)(NN *)(IN *)(NNP *)(, *)(NNS *)) |ET| 
-0.033870886391128597614486039901749  |BT| (NP (NP (DT the)(NN site))(PP (TO to)(NP (NNP Joseph)))) |BT| (BOW (site *)(to *)(Joseph *)) |BT| (BOP (JJ *)(TO *)(NNP *)) |ET| 
-0.010435028670866586947285625797122  |BT| (NP (NP (DT the)(NNS Broncos)(POS '))(NN training)(NN camp)) |BT| (BOW (Broncos *)(' *)(training *)(camp *)) |BT| (BOP (NNPS *)(POS *)(NN *)(NN *)) |ET| 
-0.018696813404877443698381966896704  |BT| (NP (NP (DT a)(NN group))(PP (IN of)(NP (NP (NNS investors))(SBAR (WHNP (WDT that))(S (VP (VBP want)(NP (JJR more)(NN information)))))))) |BT| (BOW (group *)(of *)(investors *)) |BT| (BOP (NN *)(IN *)(NNS *)) |ET| 
-0.039323430201516289261842729274576  |BT| (VP (VBG listing)(NP (NP (DT an)(NN acre))(PP (IN of)(NP (NN land))))(PP (IN about)(NP (NP (DT a)(NN mile))(PP (IN from)(NP (NP (NP (DT the)(NNS Broncos)(POS '))(NN training)(NN camp))(PP (IN in)(NP (NNP Dove)(NNP Valley)))))))) |BT| (BOW (land *)(about *)(a *)(mile *)(from *)(the *)(Broncos *)(' *)(training *)(camp *)) |BT| (BOP (NN *)(IN *)(DT *)(NN *)(IN *)(DT *)(NNPS *)(POS *)(NN *)(NN *)) |ET| 
-0.018987914416183450383446285059108  |BT| (NP (NP (DT an)(NN attorney))(PP (IN for)(NP (NNP Copley)))) |BT| (BOW (attorney *)(for *)(Copley *)) |BT| (BOP (NN *)(IN *)(NNP *)) |ET| 
-0.061808836417642655514104177427726  |BT| (NP (NP (DT the)(NNS passes))(PP (IN between)(NP (NP (DT the)(NN barrier)(NNS islands))(SBAR (WHNP (WDT that))(S (VP (VBP separate)(NP (DT the)(NNP Mississippi)(NNP Sound))(PP (IN from)(NP (NP (DT the)(NNP Gulf))(PP (IN of)(NP (NNP Mexico))))))))))) |BT| (BOW (passes *)(between *)(the *)(barrier *)(islands *)(that *)(separate *)(the *)(Mississippi *)(Sound *)(from *)(the *)(Gulf *)(of *)(Mexico *)) |BT| (BOP (NNS *)(IN *)(DT *)(NN *)(NNS *)(WDT *)(VBP *)(DT *)(NNP *)(NN *)(IN *)(DT *)(NNP *)(IN *)(NNP *)) |ET| 
-0.019987844840130282453305454737347  |BT| (NP (NP (DT the)(NN state)(NN legislature))(PP (IN of)(NP (NP (NNP Serbia))(, ,)(NP (NP (NNP Yugoslavia)(POS 's))(JJ dominant)(NN republic))(, ,)(SBAR (WHADVP (WRB where))(S (NP (PRP they))(VP (VBP are)(VP (VBG allied)(PP (IN with)(NP (DT the)(JJ ultranationalist)(NNP Radical)(NNP Party)))))))))) |BT| (BOW (legislature *)(of *)(Serbia *)) |BT| (BOP (NN *)(IN *)(NNP *)) |ET| 
-0.010778895526922759040555632736869  |BT| (S (NP (NP (QP (RB About)(CD 40))(NN percent))(PP (IN of)(NP (DT the)(NNS contributors))))(VP (VBP live)(PP (IN in)(NP (DT the)(NN district))))(. .)) |BT| (BOW (percent *)(of *)(the *)(contributors *)(live *)(in *)(the *)(district *)) |BT| (BOP (NN *)(IN *)(DT *)(NNS *)(VBP *)(IN *)(DT *)(NN *)) |ET| 
-0.011539772362374169090148967597997  |BT| (VP (VBN driven)(PP (IN by)(NP (NP (DT an)(NN army))(PP (IN of)(NP (NNS lawyers)))))(PP (IN than)(NP (NP (DT an)(NN outrage))(VP (VBN led)(PP (IN by)(NP (NP (DT an)(NN army))(PP (IN with)(NP (NNS guns))))))))) |BT| (BOW (army *)(of *)(lawyers *)(than *)(an *)(outrage *)(led *)(by *)(an *)(army *)) |BT| (BOP (NN *)(IN *)(NNS *)(IN *)(DT *)(NN *)(VBN *)(IN *)(DT *)(NN *)) |ET| 
-0.011165773702530183697501087181081  |BT| (NP (NP (JJ different)(NNS businesses))(VP (VBG operating)(ADVP (RB separately))(PP (IN within)(NP (NNP Europe))))) |BT| (BOW (businesses *)(operating *)(separately *)(within *)(Europe *)) |BT| (BOP (NNS *)(VBG *)(RB *)(IN *)(NNP *)) |ET| 
-0.028384829473916781128473019180092  |BT| (S (NP (NNP Dale)(NNP County)(NNP Commissioner)(NNP Buddy)(NNP Stapleton))(VP (VBD said)(SBAR (S (NP (PRP he))(VP (VBN counted)(PP (IN about)(NP (NP (DT a)(JJ half-dozen)(NNS homes))(VP (VBN hit)(PP (IN near)(NP (NNP Newton))))))))))(. .)) |BT| (BOW (Buddy *)(Stapleton *)(said *)(he *)(counted *)(about *)(a *)(half-dozen *)(homes *)(hit *)(near *)(Newton *)) |BT| (BOP (NNP *)(NNP *)(VBD *)(PRP *)(VBD *)(IN *)(DT *)(JJ *)(NNS *)(VBP *)(IN *)(NNP *)) |ET| 
-0.049648909159339928154341947674766  |BT| (NP (NP (NNP Fenis))(, ,)(NP (NP (DT a)(NN mountain)(NN hamlet))(PP (IN near)(NP (NP (DT the)(NN city))(PP (IN of)(NP (NNP Aosta))))))) |BT| (BOW (Fenis *)(, *)(a *)(mountain *)(hamlet *)(near *)(the *)(city *)(of *)(Aosta *)) |BT| (BOP (NNP *)(, *)(DT *)(NN *)(NN *)(IN *)(DT *)(NN *)(IN *)(NNP *)) |ET| 
-0.044652401060549816447231563643072  |BT| (NP (NP (DT the)(NN barrier)(NNS islands))(SBAR (WHNP (WDT that))(S (VP (VBP separate)(NP (DT the)(NNP Mississippi)(NNP Sound))(PP (IN from)(NP (NP (DT the)(NNP Gulf))(PP (IN of)(NP (NNP Mexico))))))))) |BT| (BOW (islands *)(that *)) |BT| (BOP (NNS *)(WDT *)) |ET| 
-0.014560304240646354881349999743634  |BT| (NP (NP (DT the)(JJ first)(NNP XFL)(NN player))(VP (VBN selected)(: -)(PP (IN by)(NP (DT the)(NNP Xtreme))))) |BT| (BOW (player *)(selected *)(- *)(by *)(the *)(Xtreme *)) |BT| (BOP (NN *)(VBN *)(IN *)(IN *)(DT *)(NNP *)) |ET| 
-0.028332602655432782834399318971919  |BT| (NP (NP (DT a)(JJ vapor-tight)(NN building))(SBAR (WHNP (WDT that))(S (VP (MD would)(VP (VB have)(S (VP (TO to)(VP (VB be)(VP (VBN constructed)(PP (IN at)(NP (NP (DT the)(JJ 27-square-mile)(NN arsenal)(NN northeast))(PP (IN of)(NP (NNP Denver)))))))))))))) |BT| (BOW (building *)(that *)(would *)(have *)(to *)(be *)(constructed *)(at *)(the *)(27-square-mile *)(arsenal *)(northeast *)(of *)(Denver *)) |BT| (BOP (NN *)(WDT *)(MD *)(VB *)(TO *)(VB *)(VBN *)(IN *)(DT *)(JJ *)(JJ *)(NN *)(IN *)(NNP *)) |ET| 
-0.0088944653785128988121577719994093  |BT| (NP (NP (JJ Many)(NN suspect)(NNS supporters))(PP (IN of)(NP (NNP Suharto)))(, ,)(SBAR (WHNP (WP who))(S (VP (VBD ruled)(PP (IN for)(NP (CD 32)(NNS years)))(PP (IN until)(NP (NP (PRP$ his)(NN ouster))(PP (IN in)(NP (CD 1998))))))))(, ,)) |BT| (BOW (supporters *)(of *)(Suharto *)) |BT| (BOP (NNS *)(IN *)(NNP *)) |ET| 
-0.038525832122188671813312055292045  |BT| (S (NP (DT the)(NNS players))(VP (VBP have)(S (VP (TO to)(VP (VB drive)(PP (IN by)(NP (PRP it)))(NP (NP (DT every)(NN day))(SBAR (S (NP (PRP it))(VP (MD could)(VP (VB become)(NP (DT a)(NN hangout))(SBAR (IN for)(S (NP (PRP them))(VP (VBZ .'')))))))))))))) |BT| (BOW (players *)(have *)(to *)(drive *)(by *)(it *)(every *)(day *)(it *)(could *)(become *)(a *)(hangout *)) |BT| (BOP (NNS *)(VBP *)(TO *)(VB *)(IN *)(PRP *)(NN *)(NN *)(PRP *)(MD *)(VB *)(DT *)(NN *)) |ET| 
-0.021877524099349999336938665805974  |BT| (VP (VBN let)(NP (DT this)(JJ shrine)(NN fall))(PP (IN into)(NP (NP (DT the)(NNS hands))(PP (IN of)(NP (NP (DT the)(NN mob))(VP (VBG waiting)(PP (IN outside)(NP (NNP ,''))))))))) |BT| (BOW (shrine *)(fall *)(into *)(the *)(hands *)(of *)(the *)(mob *)) |BT| (BOP (NN *)(NN *)(IN *)(DT *)(NNS *)(IN *)(DT *)(NN *)) |ET| 
-0.0095885497106123120797382952673615  |BT| (S (NP (NNP Gore)(NNS aides))(VP (VBP do)(RB not)(VP (VB feel)(ADJP (VBN bound)(PP (IN by)(NP (NP (PRP$ their)(NN candidate)(POS 's))(NN pledge))))))) |BT| (BOW (aides *)(do *)(not *)(feel *)(bound *)(by *)(their *)) |BT| (BOP (VBZ *)(VBP *)(RB *)(VB *)(NN *)(IN *)(PRP$ *)) |ET| 
-0.020857507166308925788955619395892  |BT| (NP (NP (DT a)(NN native))(PP (IN of)(NP (NNP Burlington)(, ,)(NNP N.C.)(, ,)))) |BT| (BOW (native *)(of *)(Burlington *)) |BT| (BOP (JJ *)(IN *)(NNP *)) |ET| 
-0.015954535646158490153068143513337  |BT| (SBAR (WHNP (WP who))(S (VP (VBP have)(VP (VBN suffered)(PP (IN under)(NP (NP (DT the)(NN regime)(POS 's))(JJ brutal)(NNS policies))))))) |BT| (BOW (who *)(have *)(suffered *)(under *)(the *)(regime *)) |BT| (BOP (WP *)(VBP *)(VBN *)(IN *)(DT *)(NN *)) |ET| 
-0.029601518153420158796507166698575  |BT| (NP (PRP$ its)(NNS citizens)) |BT| (BOW (its *)(citizens *)) |BT| (BOP (PRP$ *)(NNS *)) |ET| 
-0.019253687757677186848104256000624  |BT| (VP (VBN dragged)(PP (TO to)(NP (PRP$ his)(NN death)))(PP (IN from)(NP (DT a)(NN pickup)(NN truck)))(PP (IN by)(NP (NP (CD three)(JJ white)(NNS men))(PP (IN in)(NP (CD 1998)))))) |BT| (BOW (truck *)(by *)(three *)(white *)(men *)) |BT| (BOP (NN *)(IN *)(CD *)(JJ *)(NNS *)) |ET| 
-0.045008970851632530696395662062059  |BT| (VP (VBG listing)(NP (NP (DT an)(NN acre))(PP (IN of)(NP (NN land))))(PP (IN about)(NP (NP (DT a)(NN mile))(PP (IN from)(NP (NP (NP (DT the)(NNS Broncos)(POS '))(NN training)(NN camp))(PP (IN in)(NP (NNP Dove)(NNP Valley)))))))) |BT| (BOW (land *)(about *)(a *)(mile *)(from *)(the *)(Broncos *)) |BT| (BOP (NN *)(IN *)(DT *)(NN *)(IN *)(DT *)(NNPS *)) |ET| 
-0.021460506145739480232670359782787  |BT| (VP (VBD threw)(NP (JJ Jewish)(NN prayer)(NNS books))(PP (IN from)(NP (DT the)(NN tomb)))(, ,)(S (VP (VBG burning)(CC and)(VBG tearing)(NP (PRP them))))) |BT| (BOW (Jewish *)(prayer *)(books *)(from *)(the *)(tomb *)) |BT| (BOP (JJ *)(NN *)(NNS *)(IN *)(DT *)(NN *)) |ET| 
-0.021900468201923567468369924426952  |BT| (NP (NP (NP (NNS Thousands))(PP (IN of)(NP (JJ uniformed)(NN police)(NNS officers))))(, ,)(NP (NP (DT some))(PP (IN with)(NP (NNS shields))))(, ,)) |BT| (BOW (officers *)(, *)(some *)) |BT| (BOP (NNS *)(, *)(DT *)) |ET| 
-0.0087643534899065587973066016047596  |BT| (S (NP (DT The)(NN arsenal))(VP (VBZ is)(VP (VBG being)(VP (VBN converted)(PP (IN into)(NP (DT a)(NN wildlife)(NN refuge))))))) |BT| (BOW (arsenal *)(is *)(being *)(converted *)(into *)(a *)(wildlife *)(refuge *)) |BT| (BOP (NN *)(VBZ *)(VBG *)(VBN *)(IN *)(DT *)(NN *)(NN *)) |ET| 
-0.033404429126478667189115157043489  |BT| (NP (NP (DT the)(VBN isolated)(JJ 1,600-acre)(NN ranch))(PP (IN about)(NP (NP (DT a)(JJ two-hour)(NN drive)(NN north))(PP (IN of)(NP (RB here)))(, ,)(SBAR (WHADVP (WRB where))(S (NP (PRP he))(VP (VBZ has)(VP (VBN spent)(NP (NP (RB much))(PP (IN of)(NP (PRP$ his)(NN time))))(PP (IN since)(NP (DT the)(NN election)))))))))) |BT| (BOW (ranch *)(about *)(a *)(two-hour *)(drive *)(north *)(of *)(here *)(, *)(where *)(he *)(has *)(spent *)(much *)(of *)(his *)) |BT| (BOP (NN *)(IN *)(DT *)(JJ *)(JJ *)(NN *)(IN *)(RB *)(, *)(WRB *)(PRP *)(VBZ *)(JJ *)(JJ *)(IN *)(PRP$ *)) |ET| 
-0.018085010184182948728137674265781  |BT| (NP (PRP$ His)(JJ leftist)(NN coalition)) |BT| (BOW (His *)(leftist *)(coalition *)) |BT| (BOP (PRP$ *)(JJ *)(NN *)) |ET| 
-0.049894781599488347012538724811748  |BT| (NP (NP (NNP Fenis))(, ,)(NP (NP (DT a)(NN mountain)(NN hamlet))(PP (IN near)(NP (NP (DT the)(NN city))(PP (IN of)(NP (NNP Aosta))))))) |BT| (BOW (Fenis *)(, *)(a *)(mountain *)(hamlet *)(near *)(the *)(city *)) |BT| (BOP (NNP *)(, *)(DT *)(NN *)(NN *)(IN *)(DT *)(NN *)) |ET| 
-0.014866399053687927994671369447133  |BT| (S (NP (DT This)(NN summer))(, ,)(PP (IN after)(S (ADVP (RB apparently))(VP (VBG riding)(S (NP (NN ocean)(NNS currents))(ADJP (JJ north))))))(, ,)(NP (PRP they))(VP (VBD concentrated)(NP (PRP themselves))(PP (IN in)(NP (NP (DT the)(NNS passes))(PP (IN between)(NP (NP (DT the)(NN barrier)(NNS islands))(SBAR (WHNP (WDT that))(S (VP (VBP separate)(NP (DT the)(NNP Mississippi)(NNP Sound))(PP (IN from)(NP (NP (DT the)(NNP Gulf))(PP (IN of)(NP (NNP Mexico)))))))))))))(. .)) |BT| (BOW (ocean *)(currents *)(north *)(, *)(they *)(concentrated *)(themselves *)(in *)(the *)(passes *)(between *)(the *)(barrier *)(islands *)) |BT| (BOP (JJ *)(NNS *)(RB *)(, *)(PRP *)(VBD *)(RB *)(IN *)(DT *)(NNS *)(IN *)(DT *)(NN *)(NNS *)) |ET| 
-0.031623753350144709339808457571053  |BT| (VP (VB elect)(NP (DT the)(JJ next)(NN lieutenant)(NN governor))(PP (IN if)(NP (NNP Gov)))) |BT| (BOW (governor *)(if *)(Gov *)) |BT| (BOP (NN *)(IN *)(NNP *)) |ET| 
-0.011104079217540963747667959182763  |BT| (S (NP (DT Each)(NN bomblet))(VP (VBZ holds)(NP (NP (CD 1.3)(NNS pounds))(PP (IN of)(NP (NP (NN sarin))(, ,)(VP (VBN designed)(S (VP (TO to)(VP (VB kill)(NP (NN everyone))(PP (IN within)(NP (CD 900)(NNS feet)))))))))))(. .)) |BT| (BOW (bomblet *)(holds *)(1.3 *)(pounds *)(of *)(sarin *)) |BT| (BOP (RB *)(VBZ *)(CD *)(NNS *)(IN *)(NN *)) |ET| 
-0.03963728826805511945563509357271  |BT| (NP (NP (JJ other)(JJ recent)(NNP Bush)(NNS visits))(PP (TO to)(NP (NP (DT the)(NN ranch))(PP (IN near)(NP (NNP Waco)(, ,)(NNP Texas)))))) |BT| (BOW (Bush *)(visits *)(to *)(the *)(ranch *)(near *)(Waco *)(, *)(Texas *)) |BT| (BOP (NNP *)(NNS *)(TO *)(DT *)(NN *)(IN *)(NNP *)(, *)(NNP *)) |ET| 
-0.040754481998951180843349106908136  |BT| (VP (VBN postmarked)(PP (IN in)(NP (NNP Shaw)(NNP Island)))(, ,)(PP (NP (CD 50)(NNS miles))(IN from)(SBAR (WHADVP (WRB where))(S (NP (PRP$ his)(NN wife))(VP (VBD mailed)(NP (PRP it))(PP (IN in)(NP (NNP Bellevue)))))))) |BT| (BOW (Shaw *)(Island *)(, *)(50 *)(miles *)(from *)(where *)(his *)(wife *)(mailed *)(it *)(in *)(Bellevue *)) |BT| (BOP (NNP *)(NNP *)(, *)(CD *)(NNS *)(IN *)(WRB *)(PRP$ *)(NN *)(VBD *)(PRP *)(IN *)(NNP *)) |ET| 
-0.023236417915470132522504087546622  |BT| (S (NP (NNP Dale)(NNP County)(NNP Commissioner)(NNP Buddy)(NNP Stapleton))(VP (VBD said)(SBAR (S (NP (PRP he))(VP (VBN counted)(PP (IN about)(NP (NP (DT a)(JJ half-dozen)(NNS homes))(VP (VBN hit)(PP (IN near)(NP (NNP Newton))))))))))(. .)) |BT| (BOW (Commissioner *)(Buddy *)(Stapleton *)(said *)(he *)(counted *)(about *)(a *)(half-dozen *)(homes *)(hit *)(near *)(Newton *)) |BT| (BOP (NNP *)(NNP *)(NNP *)(VBD *)(PRP *)(VBD *)(IN *)(DT *)(JJ *)(NNS *)(VBP *)(IN *)(NNP *)) |ET| 
-0.027992078171507395190076294966275  |BT| (NP (NP (NP (DT the)(NNPS Kains)(POS '))(NN home))(PP (IN in)(NP (NNP Odense)(PRN (, ,)(ADVP (NP (CD 105)(NNS miles))(RB west))(PP (IN of)(NP (DT the)(NN capital)))(, ,))(NNP Copenhagen)))) |BT| (BOW (Kains *)(' *)(home *)(in *)(Odense *)(, *)(105 *)(miles *)(west *)(of *)(the *)(capital *)(, *)(Copenhagen *)) |BT| (BOP (NNS *)(POS *)(NN *)(IN *)(NN *)(, *)(CD *)(NNS *)(JJS *)(IN *)(DT *)(NN *)(, *)(NNP *)) |ET| 
-0.021872364143124729124467719998393  |BT| (NP (NP (DT a)(NN computer)(NN consultant))(PP (IN in)(NP (NNP Tijuana)(, ,)(NNP Mexico)))) |BT| (BOW (consultant *)(in *)(Tijuana *)) |BT| (BOP (NN *)(IN *)(NNP *)) |ET| 
-0.018863098328378364448854043189385  |BT| (NP (NP (DT some)(NNS parts))(PP (IN of)(NP (DT the)(NNP Persian)(NNP Gulf)))) |BT| (BOW (parts *)(of *)(the *)(Persian *)(Gulf *)) |BT| (BOP (NNS *)(IN *)(DT *)(JJ *)(NNP *)) |ET| 
-0.020592550779828005386162814716045  |BT| (NP (NP (DT a)(NN plaintiff))(PP (IN against)(NP (NNP Pinochet)))(SBAR (WHADVP (WRB when))(S (NP (PRP he))(VP (VBD was)(VP (VBN stripped)(PP (IN of)(NP (PRP$ his)(JJ congressional)(NN immunity)))))))) |BT| (BOW (plaintiff *)(against *)(Pinochet *)) |BT| (BOP (NN *)(IN *)(NNP *)) |ET| 
-0.030357963829675295441834492748967  |BT| (NP (PRP$ its)(NNS soldiers)) |BT| (BOW (its *)(soldiers *)) |BT| (BOP (PRP$ *)(NNS *)) |ET| 
-0.0090507678539538116702090064791264  |BT| (VP (VBN sent)(NP (DT a)(NN suitcase))(PP (IN from)(NP (NP (DT the)(NNP Mediterranean)(NN island))(PP (IN of)(NP (NNP Malta)))))(S (VP (VBG carrying)(NP (DT an)(JJ explosives)(JJ -laden)(NN cassette)(NN recorder))))) |BT| (BOW (island *)(of *)(Malta *)(carrying *)(an *)(explosives *)) |BT| (BOP (NN *)(IN *)(NNP *)(VBG *)(DT *)(VBZ *)) |ET| 
-0.030557256707925823518978702963977  |BT| (NP (PRP$ its)(NNS weapons)) |BT| (BOW (its *)(weapons *)) |BT| (BOP (PRP$ *)(NNS *)) |ET| 
-0.02591658723062869110198569444492  |BT| (NP (NP (DT an)(NN acre))(PP (IN of)(NP (NN land)))) |BT| (BOW (acre *)(of *)(land *)) |BT| (BOP (NN *)(IN *)(NN *)) |ET| 
-0.026793752273888100240428755682842  |BT| (S (NP (CD 47,000)(NNS cars))(VP (VP (VB drive)(PP (IN by)(NP (DT the)(NN site)))(ADVP (RB daily)))(CC and)(VP (VB ``because)(SBAR (S (NP (DT the)(NNS players))(VP (VBP have)(S (VP (TO to)(VP (VB drive)(PP (IN by)(NP (PRP it)))(NP (NP (DT every)(NN day))(SBAR (S (NP (PRP it))(VP (MD could)(VP (VB become)(NP (DT a)(NN hangout))(SBAR (IN for)(S (NP (PRP them))(VP (VBZ .'')))))))))))))))))) |BT| (BOW (cars *)(drive *)(by *)(the *)(site *)(daily *)(and *)(``because *)(the *)(players *)(have *)(to *)(drive *)(by *)(it *)(every *)(day *)(it *)) |BT| (BOP (NNS *)(JJ *)(IN *)(DT *)(JJ *)(NNS *)(CC *)(VB *)(DT *)(NNS *)(VBP *)(TO *)(VB *)(IN *)(PRP *)(NN *)(NN *)(PRP *)) |ET| 
-0.014989314596117842698363986642107  |BT| (VP (VBD damaged)(PP (IN about)(NP (DT a)(JJ half-dozen)(NNS homes)))(PP (IN in)(NP (NNP Dale)(NNP County)))(, ,)(S (VP (VP (VBG destroying)(NP (DT a)(NN peanut)(NN mill))(PP (IN at)(NP (NNP Abbeville))))(CC and)(VP (VBG damaging)(NP (DT a)(JJ textile)(NN mill)))))) |BT| (BOW (homes *)(in *)(Dale *)(County *)) |BT| (BOP (NNS *)(IN *)(NNP *)(NNP *)) |ET| 
-0.017949567254949255756812931394961  |BT| (SBAR (WHNP (WDT which))(S (VP (VBD won)(ADVP (RB broke))(PP (IN from)(NP (NNP Indonesia)))(NP (JJ last)(NN year))))) |BT| (BOW (which *)(won *)(broke *)(from *)(Indonesia *)) |BT| (BOP (WDT *)(VBP *)(NN *)(IN *)(NNP *)) |ET| 
-0.017530917874208476470165862792783  |BT| (NP (NP (JJS Most))(PP (IN of)(NP (DT the)(JJ civilian)(NNS victims)))) |BT| (BOW (Most *)(of *)(the *)(civilian *)(victims *)) |BT| (BOP (JJS *)(IN *)(DT *)(JJ *)(NNS *)) |ET| 
-0.015559410190572789400853537244984  |BT| (NP (NP (JJ low-fare)(NNS carriers))(VP (VBG operating)(PP (IN in)(NP (NNP Britain))))) |BT| (BOW (carriers *)(operating *)(in *)(Britain *)) |BT| (BOP (NNS *)(VBG *)(IN *)(NNP *)) |ET| 
-0.018648991830967139027297463371724  |BT| (NP (NNP neighbor)(NNP Mexico)) |BT| (BOW (neighbor *)(Mexico *)) |BT| (BOP (NN *)(NNP *)) |ET| 
-0.014175678253766288081094693040995  |BT| (VP (VBD pulled)(NP (DT a)(NN gun))(PRT (RP out))(PP (IN of)(NP (PRP$ his)(NNS pants)))(NP (NNP Wednesday)(NN night))) |BT| (BOW (gun *)(out *)(of *)(his *)) |BT| (BOP (NN *)(IN *)(IN *)(PRP$ *)) |ET| 
-0.021448203184940433513316904168278  |BT| (S (S (NP (NP (DT The)(NN tomb)(POS 's))(NNS holiness))(VP (VBZ is)(ADJP (VBN disputed))(, ,)(SBAR (IN as)(S (NP (NN tradition))(VP (VBZ holds)(SBAR (IN that)(S (NP (NNP Joseph))(VP (VBD was)(ADVP (RB actually))(VP (VBN buried)(PP (IN in)(NP (NNP Egypt))))))))))))(: ;)(S (NP (NP (DT the)(NN connection))(PP (IN of)(NP (NP (DT the)(NN site))(PP (TO to)(NP (NNP Joseph))))))(VP (VBZ is)(NP (NP (DT a)(ADJP (RB relatively)(JJ recent))(JJ local)(JJ Arab)(NN tradition))(VP (ADVP (RB also))(VBN observed)(PP (IN by)(NP (DT some)(NNPS Jews)))))))(. .)) |BT| (BOW (Egypt *)(; *)(the *)(connection *)(of *)(the *)(site *)) |BT| (BOP (NN *)(: *)(DT *)(NN *)(IN *)(DT *)(JJ *)) |ET| 
-0.031347533076091532722173838010349  |BT| (NP (NP (DT an)(VBG unrelenting)(NN opponent))(PP (IN of)(NP (NNP Sen)))) |BT| (BOW (opponent *)(of *)(Sen *)) |BT| (BOP (NN *)(IN *)(NNP *)) |ET| 
-0.013665883864146247811399703664392  |BT| (S (NP (NP (NNP Terry)(NNP Shea))(, ,)(SBAR (WHNP (WP who))(S (VP (VBD failed)(S (VP (TO to)(VP (VB produce)(NP (NP (DT a)(VBG winning)(NN season))(PP (IN in)(NP (NP (JJ four-plus)(NNS years))(PP (IN at)(NP (NNP Rutgers))))))))))))(, ,))(VP (MD will)(VP (VB step)(PRT (RP down))(SBAR (IN as)(S (NP (NP (NN coach))(PP (IN at)(NP (NP (DT the)(NN end))(PP (IN of)(NP (NP (DT this)(NN season))(, ,)(NP (NP (DT a)(NN source)(NN close))(PP (TO to)(NP (DT the)(NN school)))))))))(VP (VBD told)(NP (DT The)(NNP Associated)(NNP Press))(NP (NNP Friday)))))))) |BT| (BOW (Rutgers *)(, *)(will *)(step *)(down *)(as *)(coach *)) |BT| (BOP (NNS *)(, *)(MD *)(VB *)(RB *)(IN *)(NN *)) |ET| 
-0.023763018528156022723951679154197  |BT| (NP (NP (DT the)(NN rest))(PP (IN of)(NP (DT the)(NNS advisers)))) |BT| (BOW (rest *)(of *)(the *)(advisers *)) |BT| (BOP (NN *)(IN *)(DT *)(NNS *)) |ET| 
-0.036947379445107078610455175748939  |BT| (NP (NP (NNP Jeff)(NNP Kanost))(, ,)(SBAR (WHNP (WP who))(S (VP (VBZ has)(VP (VBN lived)(PP (IN near)(NP (NP (DT the)(NN site))(PP (IN since)(NP (CD 1978)))))))))) |BT| (BOW (Jeff *)(Kanost *)(, *)(who *)) |BT| (BOP (NNP *)(NNP *)(, *)(WP *)) |ET| 
-0.025056767883434045290913516623732  |BT| (SBAR (WHNP (WDT that))(S (VP (MD would)(VP (VB have)(S (VP (TO to)(VP (VB be)(VP (VBN constructed)(PP (IN at)(NP (NP (DT the)(JJ 27-square-mile)(NN arsenal)(NN northeast))(PP (IN of)(NP (NNP Denver))))))))))))) |BT| (BOW (that *)(would *)(have *)(to *)(be *)(constructed *)(at *)(the *)(27-square-mile *)(arsenal *)) |BT| (BOP (WDT *)(MD *)(VB *)(TO *)(VB *)(VBN *)(IN *)(DT *)(JJ *)(JJ *)) |ET| 
-0.012013085715647719639576074257548  |BT| (ADVP (RB abroad)(PP (IN since)(S (VP (VBG becoming)(NP (NN president))(PP (IN in)(NP (NNP July))))))) |BT| (BOW (abroad *)(since *)(becoming *)(president *)) |BT| (BOP (RB *)(IN *)(VBG *)(NN *)) |ET| 
-0.027309496090455333272561944113477  |BT| (VP (VP (VB drive)(PP (IN by)(NP (DT the)(NN site)))(ADVP (RB daily)))(CC and)(VP (VB ``because)(SBAR (S (NP (DT the)(NNS players))(VP (VBP have)(S (VP (TO to)(VP (VB drive)(PP (IN by)(NP (PRP it)))(NP (NP (DT every)(NN day))(SBAR (S (NP (PRP it))(VP (MD could)(VP (VB become)(NP (DT a)(NN hangout))(SBAR (IN for)(S (NP (PRP them))(VP (VBZ .''))))))))))))))))) |BT| (BOW (site *)(daily *)(and *)(``because *)(the *)(players *)(have *)(to *)(drive *)(by *)(it *)(every *)(day *)(it *)) |BT| (BOP (JJ *)(NNS *)(CC *)(VB *)(DT *)(NNS *)(VBP *)(TO *)(VB *)(IN *)(PRP *)(NN *)(NN *)(PRP *)) |ET| 
-0.012029820196428890610729212085062  |BT| (NP (NP (DT this)(NN house))(SBAR (S (NP (NP (NNP ,'')(NNP Ronda)(NNP Needham))(, ,)(NP (DT a)(NN listing)(NN agent))(, ,))(VP (VBD told)(NP (DT The)(NNP Dallas)(NN Morning)(NN News)))))) |BT| (BOW (house *)(,'' *)(Ronda *)(Needham *)) |BT| (BOP (NN *)(IN *)(NNP *)(NNP *)) |ET| 
-0.0079549561805572488459858959686244  |BT| (NP (NP (DT the)(JJS largest)(JJ Jewish)(NN community))(PP (IN in)(NP (NP (DT the)(NNP Middle)(NNP East))(PP (IN outside)(NP (NNP Israel)))))) |BT| (BOW (community *)(in *)(the *)(Middle *)(East *)(outside *)(Israel *)) |BT| (BOP (NN *)(IN *)(DT *)(NNP *)(NNP *)(VBP *)(NNP *)) |ET| 
-0.028277761315402230590798637877015  |BT| (S (NP (DT the)(NNS players))(VP (VBP have)(S (VP (TO to)(VP (VB drive)(PP (IN by)(NP (PRP it)))(NP (NP (DT every)(NN day))(SBAR (S (NP (PRP it))(VP (MD could)(VP (VB become)(NP (DT a)(NN hangout))(SBAR (IN for)(S (NP (PRP them))(VP (VBZ .'')))))))))))))) |BT| (BOW (players *)(have *)(to *)(drive *)(by *)(it *)(every *)(day *)(it *)(could *)(become *)(a *)(hangout *)(for *)(them *)) |BT| (BOP (NNS *)(VBP *)(TO *)(VB *)(IN *)(PRP *)(NN *)(NN *)(PRP *)(MD *)(VB *)(DT *)(NN *)(IN *)(PRP *)) |ET| 
-0.022312476718315963492011988478225  |BT| (SBAR (WHADVP (WRB where))(S (NP (QP (RB about)(CD 30))(NNS students))(VP (MD would)(VP (VB study)(PP (IN during)(NP (DT the)(NN day))))))) |BT| (BOW (where *)(about *)(30 *)(students *)) |BT| (BOP (WRB *)(IN *)(CD *)(NNS *)) |ET| 
-0.01286658045752132363548358995331  |BT| (S (S (VP (VBG Putting)(PRT (RP together))(NP (NP (DT a)(NN government))(PP (IN with)(NP (QP (RB as)(JJ few))(JJ old))))))(VP (VBZ faces)(ADJP (RB as)(JJ possible)(PRN (, ,)(IN while)(S (VP (VBG placating)(NP (DT a)(JJ Milosevic)(NN wing)))))(SBAR (WHNP (WDT that))(S (ADVP (RB still))(VP (VBZ wields)(NP (JJ considerable)(NN power)))))))) |BT| (BOW (government *)(with *)(as *)(few *)(old *)(faces *)) |BT| (BOP (NN *)(IN *)(IN *)(JJ *)(JJ *)(NNS *)) |ET| 
-0.014034380781658025577618431611882  |BT| (S (S (VP (VB ``On)(NP (DT the)(NN telephone))))(, ,)(NP (PRP you))(VP (VBP can't)(VP (VB see)(SBAR (WHADVP (WRB when))(S (NP (NN somebody))(VP (VBZ is)(PP (IN near)(NP (DT the)(NN phone))))))))(. .)) |BT| (BOW (you *)(can't *)(see *)(when *)(somebody *)) |BT| (BOP (PRP *)(VBP *)(NN *)(WRB *)(RB *)) |ET| 
-0.011727496734983884965619616025378  |BT| (NP (NP (DT a)(NN majority))(PP (IN of)(NP (DT the)(CD 189)(NNP U.N.)(NN member)(NNS states)))) |BT| (BOW (majority *)(of *)(the *)(189 *)(U.N. *)) |BT| (BOP (NN *)(IN *)(DT *)(CD *)(NNP *)) |ET| 
-0.010930483613904159664875770374692  |BT| (NP (NP (DT The)(NNS bodies))(PP (IN of)(NP (CD six)(NNS people)))) |BT| (BOW (bodies *)(of *)(six *)(people *)) |BT| (BOP (NNS *)(IN *)(CD *)(NNS *)) |ET| 
-0.032889493439365841132016043957265  |BT| (VP (VBG inviting)(NP (CD 23)(NNS voters))(PP (TO to)(NP (DT the)(NNP Innsbrook)(NN resort)))(PP (IN outside)(NP (NNP St.)(NNP Louis)))(S (VP (TO to)(VP (VB help)(S (NP (PRP him))(VP (VB practice))))))) |BT| (BOW (voters *)(to *)(the *)(Innsbrook *)(resort *)(outside *)(St. *)(Louis *)(to *)(help *)(him *)) |BT| (BOP (NNS *)(TO *)(DT *)(NN *)(VB *)(VB *)(NNP *)(NNP *)(TO *)(VB *)(PRP *)) |ET| 
-0.025148431342842204883059054054684  |BT| (VP (VBG listing)(NP (NP (DT an)(NN acre))(PP (IN of)(NP (NN land))))(PP (IN about)(NP (NP (DT a)(NN mile))(PP (IN from)(NP (NP (NP (DT the)(NNS Broncos)(POS '))(NN training)(NN camp))(PP (IN in)(NP (NNP Dove)(NNP Valley)))))))) |BT| (BOW (acre *)(of *)(land *)(about *)(a *)(mile *)(from *)(the *)(Broncos *)(' *)(training *)(camp *)(in *)(Dove *)(Valley *)) |BT| (BOP (NN *)(IN *)(NN *)(IN *)(DT *)(NN *)(IN *)(DT *)(NNPS *)(POS *)(NN *)(NN *)(IN *)(NNP *)(NNP *)) |ET| 
-0.010307948576948012739395998949021  |BT| (S (PP (RB Even)(PP (IN with)(NP (PRP$ his)(JJ overall)(CD .200)(NN postseason)(NN average))))(, ,)(NP (NNS Bonds))(VP (VBZ has)(RB not)(ADVP (RB even))(VP (VBN hit)(NP (NP (PRP$ his)(NN weight))(, ,)(NP (CD 210)))))(. .)) |BT| (BOW (Bonds *)(has *)(not *)(even *)(hit *)(his *)) |BT| (BOP (NNP *)(VBZ *)(RB *)(RB *)(VB *)(PRP$ *)) |ET| 
-0.014777773552607471191366883545015  |BT| (SBAR (WHNP (WP who))(S (VP (VBD won)(NP (NP (DT the)(NN majority))(PP (IN of)(NP (NP (NNP Florida)(POS 's))(JJ presidential)(NNS votes))))))) |BT| (BOW (who *)(won *)(the *)(majority *)(of *)(Florida *)) |BT| (BOP (WP *)(VBP *)(DT *)(NN *)(IN *)(NNP *)) |ET| 
-0.029675145163158854477725157039458  |BT| (NP (PRP$ its)(NNS competitors)) |BT| (BOW (its *)(competitors *)) |BT| (BOP (PRP$ *)(NNS *)) |ET| 
-0.01443758254815445674079654736488  |BT| (VP (VBD bounced)(PP (IN against)(NP (DT the)(NN space)(NN station)))(, ,)(ADVP (RB then))(PP (IN against)(NP (DT the)(NN shuttle)(NN robot)(NN arm)))) |BT| (BOW (station *)(, *)(then *)(against *)(the *)(shuttle *)) |BT| (BOP (NN *)(, *)(RB *)(IN *)(DT *)(NN *)) |ET| 
-0.013336740291927421178663770717776  |BT| (VP (VBD overturned)(NP (NNS cars))(PP (IN in)(NP (NP (JJ several)(NNS areas))(PP (IN of)(NP (NNP Alabama)))))(PP (IN on)(NP (NNP Saturday)))) |BT| (BOW (cars *)(in *)(several *)(areas *)(of *)(Alabama *)) |BT| (BOP (NNS *)(IN *)(JJ *)(NNS *)(IN *)(NNP *)) |ET| 
-0.011070273661913324764194399563166  |BT| (S (NP (NP (DT The)(JJ <ORG-e6)(JJ type="NOM"><FAC-e25)(NN type="NOM">embassy<))(VP (VBN located)(PP (IN across)(NP (NP (NNP Jakarta)(POS 's))(JJ main)(NN park)))(PP (IN from)(NP (DT the)(JJ presidential)(NN palace)))))(, ,)(VP (VBD suspended)(NP (PRP$ its)(JJ public)(NNS functions))(PP (IN for)(ADVP (IN at)(JJS least)))(NP (DT a)(NN week))(PP (IN after)(NP (NP (DT a)(NN series))(PP (IN of)(NP (NNS protests)(CC and)(NNS threats))))))(. .)) |BT| (BOW (park *)(from *)(the *)(presidential *)) |BT| (BOP (NN *)(IN *)(DT *)(JJ *)) |ET| 
-0.010693113113490550908357690218509  |BT| (S (NP (NP (JJ such)(JJ prestigious)(NNS names))(PP (IN as)(NP (NNP Stan)(NNP Musial)(NNPS ['40s)(NNP ],)(NNP Ted)(NNP Williams)(NNPS ['50s)(NNP ],)(NNP Willie)(NNP Mays)(NNPS ['60s)(NNP ],)(NNP Pete)(NNP Rose)(NNP ['70s)(NNP ])(CC and)(NNP Mike)(NNP Schmidt)(NNS ['80s))))(ADJP (JJ ].))(PP (IN In)(NP (NP (CD 10)(NNS years))(PP (IN of)(NP (NNP MVP)(NN voting)))))(PP (IN in)(NP (DT the)(NNS '90s)))) |BT| (BOW (Mike *)(Schmidt *)(('80s *)(). *)(In *)(10 *)(years *)(of *)(MVP *)) |BT| (BOP (NNP *)(NNP *)(NNS *)(VBP *)(IN *)(CD *)(NNS *)(IN *)(NNP *)) |ET| 
-0.007983719429624395319544660765132  |BT| (S (NP (JJ Palestinian)(NN security)(NNS officials))(VP (VBD were)(VP (VBN left)(S (VP (VBG standing)(NP (NN guard))(SBAR (IN as)(S (NP (NP (NNS hundreds))(PP (IN of)(NP (NNPS Palestinians))))(VP (VBD converged)(PP (IN on)(NP (DT the)(NN square)))(PP (IN in)(NP (NP (NN front))(PP (IN of)(NP (DT the)(NN site)))))(, ,)(S (VP (VBG cheering)(NP (DT the)(NN withdrawal)))))))))))(. .)) |BT| (BOW (officials *)(were *)(left *)(standing *)(guard *)(as *)(hundreds *)(of *)(Palestinians *)(converged *)(on *)(the *)(square *)(in *)(front *)(of *)(the *)(site *)) |BT| (BOP (NNS *)(VBD *)(VBN *)(JJ *)(NN *)(IN *)(NNS *)(IN *)(NNPS *)(VBD *)(IN *)(DT *)(NN *)(IN *)(NN *)(IN *)(DT *)(NN *)) |ET| 
-0.023723910737594916531278954607842  |BT| (NP (NP (DT a)(JJ common)(NN area))(PP (IN at)(NP (NP (NNP Heritage)(NNP High)(NNP School))(PP (IN in)(NP (NP (NNP Conyers))(, ,)(ADVP (NP (QP (RB about)(CD 25))(NNS miles))(RB east)(PP (IN of)(NP (NNP Atlanta))))(, ,)))(NP (CD one)(NN month))))) |BT| (BOW (area *)(at *)(Heritage *)(High *)(School *)(in *)(Conyers *)(, *)(about *)(25 *)(miles *)(east *)(of *)(Atlanta *)) |BT| (BOP (NN *)(IN *)(NNP *)(NNP *)(NNP *)(IN *)(NNS *)(, *)(IN *)(CD *)(NNS *)(RB *)(IN *)(NNP *)) |ET| 
-0.034527797500197007773969914978807  |BT| (VP (VP (VB drive)(PP (IN by)(NP (DT the)(NN site)))(ADVP (RB daily)))(CC and)(VP (VB ``because)(SBAR (S (NP (DT the)(NNS players))(VP (VBP have)(S (VP (TO to)(VP (VB drive)(PP (IN by)(NP (PRP it)))(NP (NP (DT every)(NN day))(SBAR (S (NP (PRP it))(VP (MD could)(VP (VB become)(NP (DT a)(NN hangout))(SBAR (IN for)(S (NP (PRP them))(VP (VBZ .''))))))))))))))))) |BT| (BOW (site *)(daily *)(and *)(``because *)(the *)(players *)) |BT| (BOP (JJ *)(NNS *)(CC *)(VB *)(DT *)(NNS *)) |ET| 
-0.01849142086508620899665267245382  |BT| (NP (NNP Arizona)(NNP State)(JJ athletic)(NN director)(NNP Gene)(NNP Smith)) |BT| (BOW (director *)(Gene *)(Smith *)) |BT| (BOP (NN *)(IN *)(NNP *)) |ET| 
-0.013107771977702372886986914579666  |BT| (SBAR (WHNP (NP (WP$ whose)(NN bookstore))(PP (IN across)(NP (DT the)(NN street))))(S (VP (VBD was)(VP (VBN hit)(PP (IN by)(NP (NP (JJ stray)(NNS bullets))(PP (IN in)(NP (DT the)(NN fighting))))))))) |BT| (BOW (bookstore *)(across *)(the *)(street *)(was *)(hit *)(by *)(stray *)(bullets *)) |BT| (BOP (NN *)(IN *)(DT *)(NN *)(VBD *)(VBN *)(IN *)(JJ *)(NNS *)) |ET| 
-0.017852131589707713466008698333098  |BT| (NP (NP (RB much))(PP (IN of)(NP (NNP Europe)))) |BT| (BOW (much *)(of *)(Europe *)) |BT| (BOP (RB *)(IN *)(NNP *)) |ET| 
-0.016367716728264137399095901059809  |BT| (NP (PRP$ their)(JJ combined)(NN business)) |BT| (BOW (their *)(combined *)(business *)) |BT| (BOP (PRP$ *)(JJ *)(NN *)) |ET| 
-0.012243877492614926513758710768798  |BT| (NP (NP (DT the)(NN chairman))(PP (IN of)(NP (DT the)(NNP SEC)))) |BT| (BOW (chairman *)(of *)(the *)(SEC *)) |BT| (BOP (NN *)(IN *)(DT *)(NNP *)) |ET| 
-0.017178279187575324488124195454475  |BT| (S (NP (QP (JJR More)(IN than)(CD 835)))(VP (VBP are)(PP (IN from)(PP (IN outside)(NP (DT the)(NN district)))))(. .)) |BT| (BOW (835 *)(are *)(from *)(outside *)(the *)(district *)) |BT| (BOP (CD *)(VBP *)(IN *)(VB *)(DT *)(NN *)) |ET| 
-0.016292761415189278145776441419912  |BT| (NP (NP (DT the)(JJ doomed)(NN airliner))(PP (IN in)(NP (NNP London)))) |BT| (BOW (airliner *)(in *)(London *)) |BT| (BOP (NN *)(IN *)(NNP *)) |ET| 
-0.025156897675842872230678182177144  |BT| (VP (VBN based)(PP (IN at)(NP (NNP Stansted)(NN airport)))(, ,)(ADVP (RB northeast)(PP (IN of)(NP (NP (NNP London))(, ,)(NP (NP (DT a)(JJ major)(NN base))(PP (IN for)(NP (NP (JJ low-fare)(NNS carriers))(VP (VBG operating)(PP (IN in)(NP (NNP Britain))))))))))) |BT| (BOW (Stansted *)(airport *)(, *)(northeast *)(of *)(London *)(, *)(a *)(major *)(base *)(for *)(low-fare *)(carriers *)(operating *)(in *)(Britain *)) |BT| (BOP (NNP *)(NN *)(, *)(RB *)(IN *)(NNP *)(, *)(DT *)(JJ *)(NN *)(IN *)(JJ *)(NNS *)(VBG *)(IN *)(NNP *)) |ET| 
-0.01697672645151709902577863431361  |BT| (SBAR (WHNP (WP who))(S (VP (VBZ has)(VP (VBN tried)(S (VP (TO to)(VP (VB use)(NP (DT the)(NN election))(ADVP (RB here))(PP (IN as)(NP (NP (DT a)(NN demonstration))(PP (IN of)(NP (PRP$ his)(NN popularity)))))))))))) |BT| (BOW (who *)(has *)(tried *)(to *)(use *)(the *)(election *)(here *)) |BT| (BOP (WP *)(VBZ *)(VBN *)(TO *)(VB *)(DT *)(NN *)(RB *)) |ET| 
-0.010830474458719848221410764210759  |BT| (NP (NP (DT The)(NNP Record))(PP (IN of)(NP (NNP Hackensack)))) |BT| (BOW (Record *)(of *)(Hackensack *)) |BT| (BOP (NNP *)(IN *)(NNP *)) |ET| 
-0.012765566178581192260943488747671  |BT| (S (S (NP (DT The)(JJ harsh)(NN weather))(VP (MD may)(VP (VB have)(VP (VBN disoriented)(NP (NP (NP (DT the)(NN pilot))(, ,)(NP (NNP Richard)(NNP Campbell))(, ,))(PP (IN of)(NP (JJ <GPE-e10)(NNP type="NAM">Fort)(NAC (NNP Worth)(, ,)(NNP Texas))(NNP <))))(S (VP (VBG causing)(S (NP (PRP him))(VP (TO to)(VP (VB mistake)(NP (NP (DT a)(NN set))(PP (IN of)(NP (NN ground)(NNS lights))))(PP (IN for)(NP (NP (DT the)(NN center))(PP (IN of)(NP (DT the)(NN runway))))))))))))))(, ,)(NP (NN airport)(NNS officials))(VP (VBD said))(. .)) |BT| (BOW (center *)(of *)(the *)(runway *)(, *)(airport *)) |BT| (BOP (NN *)(IN *)(DT *)(NN *)(, *)(NN *)) |ET| 
-0.018991224673295985930776552663701  |BT| (S (NP (PRP he))(VP (VBD supported)(NP (NP (NN ``a)(NN humane)(NN way))('' '')(PP (IN of)(S (VP (VBG cracking)(PRT (RP down))(PP (IN on)(NP (NN migration)))(PP (IN from)(NP (NP (NN ``our)(JJ friendly)(NN neighbor))(PP (TO to)(NP (DT the)(JJ south)(NN .''))))))))))) |BT| (BOW (he *)(supported *)(``a *)(humane *)(way *)('' *)(of *)(cracking *)(down *)(on *)(migration *)(from *)(``our *)) |BT| (BOP (PRP *)(VBD *)(DT *)(JJ *)(NN *)('' *)(IN *)(VBG *)(RB *)(IN *)(NN *)(IN *)(PRP$ *)) |ET| 
-0.024374637704578271807376310675863  |BT| (VP (VBG listing)(NP (NP (DT an)(NN acre))(PP (IN of)(NP (NN land))))(PP (IN about)(NP (NP (DT a)(NN mile))(PP (IN from)(NP (NP (NP (DT the)(NNS Broncos)(POS '))(NN training)(NN camp))(PP (IN in)(NP (NNP Dove)(NNP Valley)))))))) |BT| (BOW (land *)(about *)(a *)(mile *)(from *)(the *)(Broncos *)(' *)(training *)(camp *)(in *)(Dove *)(Valley *)) |BT| (BOP (NN *)(IN *)(DT *)(NN *)(IN *)(DT *)(NNPS *)(POS *)(NN *)(NN *)(IN *)(NNP *)(NNP *)) |ET| 
-0.013705297091956655797240216543287  |BT| (S (NP (DT The)(NNP Duma))(ADVP (RB usually))(VP (VBZ hears)(NP (NNS speeches))(PP (IN by)(NP (NP (NN faction)(NNS leaders))(PP (IN before)(NP (DT a)(NN vote))))))) |BT| (BOW (Duma *)(usually *)(hears *)(speeches *)(by *)(faction *)(leaders *)) |BT| (BOP (NNP *)(RB *)(NNS *)(NNS *)(IN *)(NN *)(NNS *)) |ET| 
-0.024862501423529741184648145235769  |BT| (NP (NP (DT the)(NN regime))(PP (IN of)(NP (NNP Yugoslav)(NNP President)(NNP Slobodan)(NNP Milosevic)))) |BT| (BOW (regime *)(of *)(Yugoslav *)) |BT| (BOP (NN *)(IN *)(NNP *)) |ET| 
-0.012850312168148338154427534618662  |BT| (VP (VB prefer)(S (VP (TO to)(VP (VB dash)(PRT (RP off))(NP (JJ short)(JJ instant)(NN text)(NNS messages))(PP (TO to)(NP (NNS co-workers)(CC and)(NNS friends))))))(PP (IN with)(NP (NP (DT the)(NN service))(VP (VBN offered)(PP (IN by)(NP (NNP Microsoft)))(: -)(NP (NP (DT the)(NN one))(SBAR (S (NP (PRP he))(VP (VBZ finds)(S (NP (JJS easiest))(VP (TO to)(VP (VB use)))))))))))) |BT| (BOW (friends *)(with *)(the *)(service *)(offered *)(by *)(Microsoft *)) |BT| (BOP (NNS *)(IN *)(DT *)(NN *)(VBN *)(IN *)(NNP *)) |ET| 
-0.027274307330731502319043357829287  |BT| (NP (NP (NP (DT the)(NNPS Kains)(POS '))(NN home))(PP (IN in)(NP (NNP Odense)(PRN (, ,)(ADVP (NP (CD 105)(NNS miles))(RB west))(PP (IN of)(NP (DT the)(NN capital)))(, ,))(NNP Copenhagen)))) |BT| (BOW (Kains *)(' *)(home *)(in *)(Odense *)) |BT| (BOP (NNS *)(POS *)(NN *)(IN *)(NN *)) |ET| 
-0.018603087904007511999004975677963  |BT| (S (NP (DT the)(NN government)(NN ``deeply)(NN deplores)('' ''))(NP (NP (DT the)(NN trashing))(PP (IN of)(NP (DT the)(NN tomb))))) |BT| (BOW (government *)(``deeply *)(deplores *)('' *)(the *)(trashing *)(of *)(the *)(tomb *)) |BT| (BOP (NN *)(RB *)(VBZ *)('' *)(DT *)(NN *)(IN *)(DT *)(NN *)) |ET| 
-0.010753427973858746546920173159378  |BT| (S (NP (NP (JJ Right-wing)(NNS members))(PP (IN of)(NP (NP (NN congress))(, ,)(NP (NN defense)(NNS lawyers))(, ,)(NP (JJ retired)(NN army)(NNS generals))(CC and)(NP (NP (JJ other)(NNS backers))(PP (IN of)(NP (NNP Pinochet)))))))(VP (VBP want)(SBAR (S (NP (NNP Guzman))(VP (VBD ousted)(PP (IN from)(NP (DT the)(NN case)))(, ,)(S (VP (VBG claiming)(SBAR (S (NP (PRP he))(VP (VBZ has)(VP (VBN acted)(PP (IN in)(NP (NP (DT an)(ADJP (JJ arbitrary)(CC and)(JJ irregular))(NN manner))(SBAR (WHNP (WDT that))(S (VP (VBZ violates)(NP (NP (NNP Pinochet)(POS 's))(NNS rights)))))))))))))))))(. .)) |BT| (BOW (backers *)(of *)(Pinochet *)(want *)(Guzman *)) |BT| (BOP (NNS *)(IN *)(NNP *)(VBP *)(JJ *)) |ET| 
-0.014612685652640490518994198509972  |BT| (S (NP (NP (DT a)(NN site))(PP (IN for)(NP (DT a)(JJ potential)(NNS sports))))(VP (NN bar)(SBAR (IN because)(S (NP (PRP it))(VP (VBZ features)(NP (NP (DT the)(NN team)(POS 's))(NN name))))))) |BT| (BOW (site *)(for *)(a *)(potential *)(sports *)(bar *)) |BT| (BOP (NN *)(IN *)(DT *)(JJ *)(NNS *)(NN *)) |ET| 
-0.0081288496720493715053112993018658  |BT| (NP (NP (CD One)(JJ such)(NN competitor))(, ,)(NP (NN easyJet))(, ,)) |BT| (BOW (competitor *)(, *)(easyJet *)) |BT| (BOP (NN *)(, *)(RB *)) |ET| 
-0.023017065939522497741709372576224  |BT| (NP (NP (DT the)(NNP Mediterranean)(NN island))(PP (IN of)(NP (NNP Malta)))) |BT| (BOW (island *)(of *)(Malta *)) |BT| (BOP (NN *)(IN *)(NNP *)) |ET| 
-0.011791454752034668737592504328404  |BT| (VP (VBD vandalized)(NP (DT the)(NN tomb))(PP (IN with)(NP (PRP$ his)(NNS friends)))) |BT| (BOW (tomb *)(with *)(his *)(friends *)) |BT| (BOP (NN *)(IN *)(PRP$ *)(NNS *)) |ET| 
-0.021522640505925106496620813345544  |BT| (NP (NP (DT a)(NN company))(VP (VBN based)(PP (IN in)(NP (NP (DT the)(NN state))(PP (IN of)(NP (NNP Washington))))))) |BT| (BOW (company *)(based *)(in *)(the *)(state *)(of *)(Washington *)) |BT| (BOP (NN *)(VBN *)(IN *)(DT *)(NN *)(IN *)(NNP *)) |ET| 
-0.033400971839218751568978404975496  |BT| (NP (NP (DT The)(NN president))(PP (IN of)(NP (NNP Serbia)))) |BT| (BOW (president *)(of *)(Serbia *)) |BT| (BOP (NN *)(IN *)(NNP *)) |ET| 
-0.011572819809243142796795211779681  |BT| (VP (VB prevent)(NP (DT any)(NNPS Jews))(PP (IN from)(S (VP (VBG coming)(PRT (RP back))(PP (TO to)(NP (DT this)(NN place)(NN .''))))))) |BT| (BOW (Jews *)(from *)(coming *)(back *)(to *)(this *)(place *)) |BT| (BOP (NNS *)(IN *)(VBG *)(RB *)(TO *)(DT *)(NN *)) |ET| 
-0.010313334663522443976346742999795  |BT| (S (NP (NP (NNS seats))(NP (DT each)(NN nation)))(VP (VBZ has)(VP (PP (IN on)(NP (NP (NP (DT the)(NNP EU)(POS 's))(JJ executive)(NN body))(, ,)(NP (DT the)(NNP European)(NNP Commission))))))) |BT| (BOW (nation *)(has *)(on *)(the *)(EU *)) |BT| (BOP (NN *)(VBZ *)(IN *)(DT *)(NNP *)) |ET| 
-0.011519598834454613731081984440152  |BT| (S (NP (NP (DT The)(NNS fees))(, ,)(SBAR (WHNP (WDT which))(S (VP (VBP are)(RB not)(VP (VBN collected)(PP (IN by)(NP (DT the)(NN government)))))))(, ,))(VP (VBP are)(VP (VBN distributed)(PP (IN by)(NP (NNP GEMA)))(PP (TO to)(NP (NN copyright)(NNS owners)))(PP (IN through)(NP (NN recording)(NNS houses)(CC and)(NN music)(NNS distributors)))))(. .)) |BT| (BOW (government *)(, *)(are *)(distributed *)(by *)(GEMA *)) |BT| (BOP (NN *)(, *)(VBP *)(VBN *)(IN *)(NNP *)) |ET| 
-0.017428109198990657940919746238251  |BT| (S (NP (NP (NNS hundreds))(PP (IN of)(NP (NNPS Palestinians))))(VP (VBD converged)(PP (IN on)(NP (DT the)(NN square)))(PP (IN in)(NP (NP (NN front))(PP (IN of)(NP (DT the)(NN site)))))(, ,)(S (VP (VBG cheering)(NP (DT the)(NN withdrawal)))))) |BT| (BOW (Palestinians *)(converged *)(on *)(the *)(square *)) |BT| (BOP (NNPS *)(VBD *)(IN *)(DT *)(NN *)) |ET| 
-0.0078737187017885006123929514387783  |BT| (NP (NP (DT a)(NNP Tokyo)(NN subway)(NN attack))(PP (IN in)(NP (CD 1995)))(SBAR (WHNP (WDT that))(S (VP (VBD killed)(NP (CD 12)(NNS people)))))) |BT| (BOW (subway *)(attack *)(in *)(1995 *)(that *)(killed *)(12 *)(people *)) |BT| (BOP (NN *)(NN *)(IN *)(CD *)(IN *)(JJ *)(CD *)(NNS *)) |ET| 
-0.018991525397963601728967830695183  |BT| (NP (NP (DT the)(JJ northern)(NN city))(PP (IN of)(NP (NNP Korhogo)))) |BT| (BOW (city *)(of *)(Korhogo *)) |BT| (BOP (NN *)(IN *)(NNP *)) |ET| 
-0.012053472111962726387446309672669  |BT| (S (NP (PRP I))(VP (VBP am)(ADJP (RB physically)(RB here)(S (VP (TO to)(VP (VB show)(NP (PRP$ my)(NN support)(NN ,'')))))))) |BT| (BOW (I *)(am *)(physically *)(here *)) |BT| (BOP (PRP *)(VBP *)(RB *)(RB *)) |ET| 
-0.0077391426118550883661573180916093  |BT| (SBAR (WHNP (WP who))(S (VP (VBZ has)(VP (VBN been)(VP (VBN indicted)(PP (IN by)(NP (DT the)(JJ international)(NN war)(NNS crimes)(NN tribunal)))(PP (IN in)(NP (DT The)(NNP Hague)(, ,)(NNPS Netherlands)))))))) |BT| (BOW (who *)(has *)(been *)(indicted *)(by *)(the *)(international *)(war *)(crimes *)(tribunal *)) |BT| (BOP (WP *)(VBZ *)(VBN *)(VBN *)(IN *)(DT *)(JJ *)(NN *)(NNS *)(NN *)) |ET| 
-0.010137219526911619635334282918393  |BT| (S (ADVP (RB Instead))(, ,)(NP (NP (NP (NNP Bush))(CC and)(NP (PRP$ his)(NN wife)))(, ,)(NP (NNP Laura))(, ,))(VP (VBD were)(VP (VBN headed)(PRT (RP back))(NP (NNP Saturday))(PP (TO to)(NP (NP (DT the)(VBN isolated)(JJ 1,600-acre)(NN ranch))(PP (IN about)(NP (NP (DT a)(JJ two-hour)(NN drive)(NN north))(PP (IN of)(NP (RB here)))(, ,)(SBAR (WHADVP (WRB where))(S (NP (PRP he))(VP (VBZ has)(VP (VBN spent)(NP (NP (RB much))(PP (IN of)(NP (PRP$ his)(NN time))))(PP (IN since)(NP (DT the)(NN election)))))))))))))(. .)) |BT| (BOW (Laura *)(, *)(were *)(headed *)(back *)(Saturday *)(to *)(the *)(isolated *)(1,600-acre *)(ranch *)(about *)(a *)(two-hour *)(drive *)(north *)(of *)(here *)) |BT| (BOP (NNP *)(, *)(VBD *)(VBN *)(RB *)(NN *)(TO *)(DT *)(JJ *)(JJ *)(NN *)(IN *)(DT *)(JJ *)(JJ *)(NN *)(IN *)(RB *)) |ET| 
-0.01310139312584155529828322528374  |BT| (NP (NP (QP (IN at)(JJS least)(CD one)))(PP (IN of)(NP (NP (DT the)(NNS bomblets))(VP (VBN found))))) |BT| (BOW (one *)(of *)(the *)(bomblets *)) |BT| (BOP (CD *)(IN *)(DT *)(NNS *)) |ET| 
-0.012548814170470847656480017917602  |BT| (NP (NP (NN head))(PP (IN of)(NP (DT an)(NN umbrella)(NN group)))) |BT| (BOW (head *)(of *)(an *)(umbrella *)(group *)) |BT| (BOP (NN *)(IN *)(DT *)(NN *)(NN *)) |ET| 
-0.010518531247493516367352839324667  |BT| (VP (VBN named)(NP (NP (DT The)(NNP Sporting)(NNP News)(NN player))(PP (IN of)(NP (NP (DT the)(NN decade))(PP (IN for)(NP (DT the)(NNS 1990s))))))(PP (IN over)(NP (NNP Ken)(NNP Griffey)(NNP Jr)))) |BT| (BOW (player *)(of *)(the *)(decade *)(for *)(the *)(1990s *)(over *)(Ken *)(Griffey *)(Jr *)) |BT| (BOP (NN *)(IN *)(DT *)(NN *)(IN *)(DT *)(NNS *)(IN *)(NNP *)(NNP *)(NNP *)) |ET| 
-0.0087976958932174595395814264975343  |BT| (VP (VBD had)(S (VP (TO to)(VP (VB drift)(PP (IN with)(NP (JJ tidal)(NNS currents)))(PP (IN through)(NP (DT the)(JJ jellyfish-choked)(NNS passes))))))(S (VP (TO to)(VP (VB reach)(NP (NP (DT the)(NNS estuaries))(SBAR (WHNP (WDT that))(S (VP (VBP serve)(PP (IN as)(NP (NP (NNS nurseries))(PP (IN for)(NP (DT the)(NN baby)(NN fish))))))))))))) |BT| (BOW (passes *)(to *)(reach *)(the *)(estuaries *)(that *)) |BT| (BOP (NNS *)(TO *)(VB *)(DT *)(NNS *)(IN *)) |ET| 
-0.021299775240026394551584587588877  |BT| (NP (NP (NNP Heritage)(NNP High)(NNP School))(PP (IN in)(NP (NP (NNP Conyers))(, ,)(ADVP (NP (QP (RB about)(CD 25))(NNS miles))(RB east)(PP (IN of)(NP (NNP Atlanta))))(, ,)))(NP (CD one)(NN month))) |BT| (BOW (Heritage *)(High *)(School *)(in *)(Conyers *)) |BT| (BOP (NNP *)(NNP *)(NNP *)(IN *)(NNS *)) |ET| 
-0.0079733371627227402761439734035775  |BT| (S (NP (ADJP (ADJP (JJ ``Stay)(PP (PP (IN in)(NP (NP (PRP$ your)(NNS homes))(, ,)(NP (NN play)(NN soccer))(, ,)))(CC or)(PP (IN till)(NP (DT the)(NNS fields)))(, ,)))(CC but)(ADJP (JJ don't)))(NN vote)(NN ,'')(NN party)(NN representative)(NNP Lacina)(NNP Coulibaly))(VP (VBD told)(NP (NP (QP (RB about)(CD 30))(NNS youths))(VP (VBN gathered)(PP (IN in)(NP (NP (DT the)(JJ northern)(NN village))(PP (IN of)(NP (NNP Lanviara))))))(, ,)(PP (IN near)(NP (NNP Korhogo)))))(. .)) |BT| (BOW (Lacina *)(Coulibaly *)(told *)(about *)(30 *)(youths *)(gathered *)(in *)(the *)(northern *)(village *)(of *)(Lanviara *)(, *)(near *)(Korhogo *)) |BT| (BOP (NNP *)(NNP *)(VBD *)(IN *)(CD *)(NNS *)(VBN *)(IN *)(DT *)(JJ *)(NN *)(IN *)(NNP *)(, *)(IN *)(NNP *)) |ET| 
-0.0074183684444479990743870345681898  |BT| (S (NP (NNP Clinton))(VP (VBD spoke)(PP (IN with)(NP (NP (NNP Putin))(PP (IN about)(NP (NNP Yugoslavia)))))(NP (JJ last)(NN weekend)))) |BT| (BOW (Clinton *)(spoke *)(with *)(Putin *)(about *)(Yugoslavia *)) |BT| (BOP (NNP *)(NN *)(IN *)(NNP *)(IN *)(NNP *)) |ET| 
-0.015525968083622073909189076346138  |BT| (NP (NP (DT a)(NN policewoman))(VP (VBG posing)(PP (IN as)(NP (DT a)(NN prostitute))))) |BT| (BOW (policewoman *)(posing *)(as *)(a *)(prostitute *)) |BT| (BOP (JJ *)(NN *)(IN *)(DT *)(NN *)) |ET| 
-0.018380027129636652277744346406507  |BT| (S (NP (NP (NNP Geneva))(, ,)(PP (IN near)(NP (DT the)(NNP Alabama)(JJ -Florida)(NN line)))(, ,))(VP (VBD said)(NP (NNP Mayor)(NNP Warren)(NNP Beck)))) |BT| (BOW (Geneva *)(, *)(near *)(the *)(Alabama *)(-Florida *)(line *)(, *)(said *)(Mayor *)(Warren *)(Beck *)) |BT| (BOP (NNP *)(, *)(IN *)(DT *)(NNP *)(NNP *)(NN *)(, *)(VBD *)(NNP *)(NNP *)(NNP *)) |ET| 
-0.012325369473805872222449409036926  |BT| (VP (ADVP (RB once))(VBN famed)(PP (IN as)(NP (NP (DT an)(NN oasis))(PP (IN of)(NP (NN stability)))))(PP (IN amid)(NP (NP (DT the)(NN unrest))(SBAR (WHNP (WDT that))(S (VP (VBZ plagues)(NP (NP (RB much))(PP (IN of)(NP (NNP West)(NNP Africa)))))))))) |BT| (BOW (oasis *)(of *)(stability *)(amid *)(the *)(unrest *)(that *)(plagues *)(much *)(of *)(West *)(Africa *)) |BT| (BOP (NN *)(IN *)(NN *)(IN *)(DT *)(JJS *)(IN *)(VBZ *)(RB *)(IN *)(NNP *)(NNP *)) |ET| 
-0.012890428972319815589808733591326  |BT| (S (NP (CD 47,000)(NNS cars))(VP (VP (VB drive)(PP (IN by)(NP (DT the)(NN site)))(ADVP (RB daily)))(CC and)(VP (VB ``because)(SBAR (S (NP (DT the)(NNS players))(VP (VBP have)(S (VP (TO to)(VP (VB drive)(PP (IN by)(NP (PRP it)))(NP (NP (DT every)(NN day))(SBAR (S (NP (PRP it))(VP (MD could)(VP (VB become)(NP (DT a)(NN hangout))(SBAR (IN for)(S (NP (PRP them))(VP (VBZ .'')))))))))))))))))) |BT| (BOW (cars *)(drive *)(by *)(the *)(site *)(daily *)(and *)(``because *)(the *)(players *)(have *)(to *)(drive *)(by *)(it *)(every *)(day *)(it *)(could *)(become *)(a *)(hangout *)) |BT| (BOP (NNS *)(JJ *)(IN *)(DT *)(JJ *)(NNS *)(CC *)(VB *)(DT *)(NNS *)(VBP *)(TO *)(VB *)(IN *)(PRP *)(NN *)(NN *)(PRP *)(MD *)(VB *)(DT *)(NN *)) |ET| 
-0.0079623399353761555724551257640087  |BT| (VP (VBD opened)(NP (NN fire))(PP (IN with)(NP (NP (DT a)(JJ sawed-off)(NN rifle))(PP (IN on)(NP (NP (NNS hundreds))(PP (IN of)(NP (NP (NNS students))(PP (IN in)(NP (NP (DT a)(JJ common)(NN area))(PP (IN at)(NP (NP (NNP Heritage)(NNP High)(NNP School))(PP (IN in)(NP (NP (NNP Conyers))(, ,)(ADVP (NP (QP (RB about)(CD 25))(NNS miles))(RB east)(PP (IN of)(NP (NNP Atlanta))))(, ,)))(NP (CD one)(NN month))))))))))))(PP (IN after)(NP (NP (DT the)(NNP Columbine)(NNP High)(NN massacre))(PP (IN in)(NP (NNP Colorado)))))) |BT| (BOW (Conyers *)(, *)(about *)(25 *)(miles *)(east *)(of *)(Atlanta *)(, *)(one *)(month *)(after *)(the *)(Columbine *)(High *)) |BT| (BOP (NNS *)(, *)(IN *)(CD *)(NNS *)(RB *)(IN *)(NNP *)(, *)(CD *)(NN *)(IN *)(DT *)(NNP *)(NNP *)) |ET| 
-0.016060655638023862978869260587089  |BT| (S (NP (PRP He))(VP (VBD said)(SBAR (IN that)(S (NP (CD 47,000)(NNS cars))(VP (VP (VB drive)(PP (IN by)(NP (DT the)(NN site)))(ADVP (RB daily)))(CC and)(VP (VB ``because)(SBAR (S (NP (DT the)(NNS players))(VP (VBP have)(S (VP (TO to)(VP (VB drive)(PP (IN by)(NP (PRP it)))(NP (NP (DT every)(NN day))(SBAR (S (NP (PRP it))(VP (MD could)(VP (VB become)(NP (DT a)(NN hangout))(SBAR (IN for)(S (NP (PRP them))(VP (VBZ .''))))))))))))))))))))) |BT| (BOW (He *)(said *)(that *)(47,000 *)(cars *)(drive *)(by *)(the *)(site *)(daily *)(and *)(``because *)(the *)(players *)) |BT| (BOP (PRP *)(VBD *)(IN *)(CD *)(NNS *)(JJ *)(IN *)(DT *)(JJ *)(NNS *)(CC *)(VB *)(DT *)(NNS *)) |ET| 
-0.013380376093813997617765210179641  |BT| (S (NP (NNP Go))(VP (VBZ is)(VP (VBN based)(PP (IN at)(NP (NNP Stansted)(NN airport)))(, ,)(ADVP (RB northeast)(PP (IN of)(NP (NP (NNP London))(, ,)(NP (NP (DT a)(JJ major)(NN base))(PP (IN for)(NP (NP (JJ low-fare)(NNS carriers))(VP (VBG operating)(PP (IN in)(NP (NNP Britain))))))))))))(. .)) |BT| (BOW (Go *)(is *)(based *)(at *)(Stansted *)(airport *)(, *)(northeast *)(of *)(London *)(, *)(a *)(major *)(base *)) |BT| (BOP (NNP *)(VBZ *)(VBN *)(IN *)(NNP *)(NN *)(, *)(RB *)(IN *)(NNP *)(, *)(DT *)(JJ *)(NN *)) |ET| 
-0.011573909751091607592266008452953  |BT| (VP (VP (VB drive)(PP (IN by)(NP (DT the)(NN site)))(ADVP (RB daily)))(CC and)(VP (VB ``because)(SBAR (S (NP (DT the)(NNS players))(VP (VBP have)(S (VP (TO to)(VP (VB drive)(PP (IN by)(NP (PRP it)))(NP (NP (DT every)(NN day))(SBAR (S (NP (PRP it))(VP (MD could)(VP (VB become)(NP (DT a)(NN hangout))(SBAR (IN for)(S (NP (PRP them))(VP (VBZ .''))))))))))))))))) |BT| (BOW (site *)(daily *)(and *)(``because *)(the *)(players *)(have *)(to *)(drive *)(by *)(it *)(every *)(day *)(it *)(could *)(become *)(a *)(hangout *)) |BT| (BOP (JJ *)(NNS *)(CC *)(VB *)(DT *)(NNS *)(VBP *)(TO *)(VB *)(IN *)(PRP *)(NN *)(NN *)(PRP *)(MD *)(VB *)(DT *)(NN *)) |ET| 
-0.010840806323532929320019313479406  |BT| (SBAR (WHNP (WP who))(S (VP (VBP have)(NP (NP (ADJP (RB sharply)(JJ different))(NNS views))(PP (IN of)(NP (NP (NP (NP (NNP America)(POS 's))(NN role))(PP (IN in)(NP (DT the)(NN world))))(CC and)(NP (NP (DT a)(JJ wide)(NN gap))(PP (IN in)(NP (JJ foreign)(NN policy)(NN experience)))))))))) |BT| (BOW (who *)(have *)(sharply *)(different *)(views *)(of *)(America *)) |BT| (BOP (WP *)(VBP *)(RB *)(JJ *)(NNS *)(IN *)(NNP *)) |ET| 
-0.0097497841272715483895705546046884  |BT| (NP (NP (DT the)(JJ 2,000-mile)(NN frontier))(PP (IN between)(NP (NP (NNP Mexico))(CC and)(NP (DT the)(NNP United)(NNPS States))))) |BT| (BOW (frontier *)(between *)(Mexico *)) |BT| (BOP (NN *)(IN *)(NNP *)) |ET| 
-0.007169926544011273605860878888052  |BT| (NP (PRP$ our)(NNS martyrs)) |BT| (BOW (our *)(martyrs *)) |BT| (BOP (PRP$ *)(NNS *)) |ET| 
-0.0094586575733559465767319451856565  |BT| (NP (DT the)(NNP Alabama)(JJ -Florida)(NN line)) |BT| (BOW (-Florida *)(line *)) |BT| (BOP (NNP *)(NN *)) |ET| 
-0.010146301029360494869169251330732  |BT| (NP (NP (JJ Many))(PP (IN of)(NP (DT the)(NNS speakers)))) |BT| (BOW (Many *)(of *)(the *)(speakers *)) |BT| (BOP (JJ *)(IN *)(DT *)(NNS *)) |ET| 
-0.0064160779668178489348884241394444  |BT| (VP (VBD brought)(NP (JJ objective)(NN journalism))(PP (TO to)(NP (NN motorcycle)(NNS periodicals)))(PP (IN by)(NP (NP (NN offering)(NN road)(NNS tests))(CC and)(NP (NP (DT a)(ADJP (RBR more)(JJ critical))(NN eye))(PP (IN than)(NP (JJ other)(NN fan)(NN -oriented)(NNS magazines))))))) |BT| (BOW (periodicals *)(by *)(offering *)(road *)) |BT| (BOP (NNS *)(IN *)(VBG *)(NN *)) |ET| 
-0.010879983517472749735000014936759  |BT| (VP (VBZ closes)(NP (PRP$ its)(NNS doors))(PP (TO to)(NP (DT the)(NN public)))) |BT| (BOW (its *)(doors *)(to *)(the *)(public *)) |BT| (BOP (PRP$ *)(NNS *)(TO *)(DT *)(NN *)) |ET| 
-0.012280430882584396357071199190614  |BT| (NP (DT a)(NAC (NNP University)(PP (IN of)(NP (NNP Kansas))))(NN paleontologist)) |BT| (BOW (University *)(of *)(Kansas *)(paleontologist *)) |BT| (BOP (NNP *)(IN *)(NNP *)(NN *)) |ET| 
-0.012470744807150985558608091707811  |BT| (S (NP (DT This)(NN summer))(, ,)(PP (IN after)(S (ADVP (RB apparently))(VP (VBG riding)(S (NP (NN ocean)(NNS currents))(ADJP (JJ north))))))(, ,)(NP (PRP they))(VP (VBD concentrated)(NP (PRP themselves))(PP (IN in)(NP (NP (DT the)(NNS passes))(PP (IN between)(NP (NP (DT the)(NN barrier)(NNS islands))(SBAR (WHNP (WDT that))(S (VP (VBP separate)(NP (DT the)(NNP Mississippi)(NNP Sound))(PP (IN from)(NP (NP (DT the)(NNP Gulf))(PP (IN of)(NP (NNP Mexico)))))))))))))(. .)) |BT| (BOW (ocean *)(currents *)(north *)(, *)(they *)(concentrated *)(themselves *)(in *)(the *)(passes *)) |BT| (BOP (JJ *)(NNS *)(RB *)(, *)(PRP *)(VBD *)(RB *)(IN *)(DT *)(NNS *)) |ET| 
-0.01096658112274031746102842532764  |BT| (NP (NP (DT The)(NN court))(PP (IN of)(NP (NNS appeals)(NN panel)))) |BT| (BOW (court *)(of *)(appeals *)(panel *)) |BT| (BOP (NN *)(IN *)(NNS *)(NN *)) |ET| 
-0.013274549932844544736232350601313  |BT| (SBAR (WHNP (WP who))(S (VP (VBZ flies)(PP (IN from)(NP (NNP Hawaii)))))) |BT| (BOW (who *)(flies *)(from *)(Hawaii *)) |BT| (BOP (WP *)(NNS *)(IN *)(NNP *)) |ET| 
-0.0094149850017433232146624177971717  |BT| (NP (NP (DT A)(NN favorite))(PP (IN for)(NP (DT the)(NN leadership)))) |BT| (BOW (favorite *)(for *)(the *)(leadership *)) |BT| (BOP (JJ *)(IN *)(DT *)(NN *)) |ET| 
-0.01667597113427766661319928687135  |BT| (NP (NP (DT a)(NN farmer))(PP (IN in)(NP (NP (NNP Bamyan))(CC and)(NP (RB not)(DT a)(NN soldier))))) |BT| (BOW (farmer *)(in *)(Bamyan *)) |BT| (BOP (NN *)(IN *)(NNP *)) |ET| 
-0.006853192915460475792555072871437  |BT| (SBAR (WHNP (WDT which))(S (VP (VBP have)(VP (VBN been)(VP (VBG surviving)(PP (IN on)(NP (NN emergency)(NN bank)(NNS loans)))))))) |BT| (BOW (which *)(have *)(been *)(surviving *)(on *)(emergency *)(bank *)) |BT| (BOP (WDT *)(VBP *)(VBN *)(VBG *)(IN *)(NN *)(NN *)) |ET| 
-0.010415566669461199383883709401744  |BT| (S (NP (DT This)(NN summer))(, ,)(PP (IN after)(S (ADVP (RB apparently))(VP (VBG riding)(S (NP (NN ocean)(NNS currents))(ADJP (JJ north))))))(, ,)(NP (PRP they))(VP (VBD concentrated)(NP (PRP themselves))(PP (IN in)(NP (NP (DT the)(NNS passes))(PP (IN between)(NP (NP (DT the)(NN barrier)(NNS islands))(SBAR (WHNP (WDT that))(S (VP (VBP separate)(NP (DT the)(NNP Mississippi)(NNP Sound))(PP (IN from)(NP (NP (DT the)(NNP Gulf))(PP (IN of)(NP (NNP Mexico)))))))))))))(. .)) |BT| (BOW (ocean *)(currents *)(north *)(, *)(they *)(concentrated *)(themselves *)(in *)(the *)(passes *)(between *)(the *)(barrier *)(islands *)(that *)) |BT| (BOP (JJ *)(NNS *)(RB *)(, *)(PRP *)(VBD *)(RB *)(IN *)(DT *)(NNS *)(IN *)(DT *)(NN *)(NNS *)(WDT *)) |ET| 
-0.0088977949336048432760204462965703  |BT| (VP (VBD flew)(PP (TO to)(NP (NP (DT this)(NN beach)(NN resort))(PP (IN near)(NP (NNP Sarasota)))))(PP (IN for)(NP (NP (CD three)(NNS days))(PP (IN of)(NP (NP (NN preparation))(PP (IN for)(NP (NP (NNP Wednesday)(NN night)(POS 's))(NN debate)))))))(PP (IN with)(NP (NP (NNP Bush))(PP (IN in)(NP (NP (NNP Winston-Salem)(, ,)(NNP N.C.))(, ,)(NP (NP (DT the)(NN second))(PP (IN of)(NP (PRP$ their)(CD three)(JJ scheduled)(NNS encounters))))))))) |BT| (BOW (resort *)(near *)(Sarasota *)(for *)(three *)(days *)(of *)(preparation *)(for *)(Wednesday *)(night *)('s *)(debate *)(with *)(Bush *)) |BT| (BOP (NN *)(IN *)(NNP *)(IN *)(CD *)(NNS *)(IN *)(NN *)(IN *)(NNP *)(NNP *)(POS *)(NN *)(IN *)(NNP *)) |ET| 
-0.0099392217787289301178521583324255  |BT| (NP (NP (DT a)(JJ vapor-tight)(NN building))(SBAR (WHNP (WDT that))(S (VP (MD would)(VP (VB have)(S (VP (TO to)(VP (VB be)(VP (VBN constructed)(PP (IN at)(NP (NP (DT the)(JJ 27-square-mile)(NN arsenal)(NN northeast))(PP (IN of)(NP (NNP Denver)))))))))))))) |BT| (BOW (building *)(that *)(would *)(have *)(to *)(be *)(constructed *)(at *)(the *)(27-square-mile *)(arsenal *)) |BT| (BOP (NN *)(WDT *)(MD *)(VB *)(TO *)(VB *)(VBN *)(IN *)(DT *)(JJ *)(JJ *)) |ET| 
-0.015345273794583263321511523713525  |BT| (S (PP (IN Of)(NP (NP (CD 1,400)(NNS contributors))(PP (TO to)(NP (PRP$ his)(NN campaign)))))(, ,)(NP (QP (JJR fewer)(IN than)(CD 20)))(VP (VBP are)(PP (IN from)(NP (NP (NN out))(PP (IN of)(NP (NNP Texas))))))) |BT| (BOW (20 *)(are *)(from *)(out *)(of *)(Texas *)) |BT| (BOP (CD *)(VBP *)(IN *)(IN *)(IN *)(NNP *)) |ET| 
-0.013261851541147413185983694461356  |BT| (NP (PRP$ his)(NN country)(NN house)(NN southwest)) |BT| (BOW (country *)(house *)) |BT| (BOP (NN *)(NN *)) |ET| 
-0.0088980392967815090388139509514076  |BT| (NP (NP (DT the)(JJ special)(NN bodyguard))(PP (IN of)(NP (NP (DT the)(NN secretary-general))(PP (IN of)(NP (DT the)(NNS organizations)(NN .'')))))) |BT| (BOW (bodyguard *)(of *)(the *)(secretary-general *)(of *)(the *)(organizations *)) |BT| (BOP (NN *)(IN *)(DT *)(JJ *)(IN *)(DT *)(NNS *)) |ET| 
-0.0096631480844351167608374808537519  |BT| (NP (NP (JJ international)(JJ human)(NNS rights)(NNS groups))(PP (IN of)(S (VP (VBG mistreating)(NP (NP (NP (DT the)(NN minority))(NP (NNP Shiite)(NNPS Muslims)))(, ,)(NP (NP (DT a)(NN charge))(SBAR (S (NP (PRP they))(VP (VBP reject)))))))))) |BT| (BOW (groups *)(of *)(mistreating *)(the *)(minority *)(Shiite *)) |BT| (BOP (NNS *)(IN *)(VBG *)(DT *)(NN *)(NNP *)) |ET| 
-0.005931641706666758613597512095339  |BT| (NP (NP (DT The)(JJ vice-presidential)(NN debate))(PP (IN on)(NP (NNP Thursday)))(PP (IN between)(NP (NNP Sen)))(. .)) |BT| (BOW (vice-presidential *)(debate *)(on *)(Thursday *)(between *)(Sen *)) |BT| (BOP (JJ *)(NN *)(IN *)(NN *)(IN *)(NNP *)) |ET| 
-0.0099000365815037245920127162435165  |BT| (VP (VB assess)(NP (NP (DT the)(NN security)(NN situation))(PP (IN on)(NP (DT the)(NN island))))(PP (IN after)(NP (NP (DT the)(NNS deaths))(PP (IN of)(NP (CD three)(NN U.N)))))) |BT| (BOW (island *)(after *)(the *)(deaths *)(of *)(three *)(U.N *)) |BT| (BOP (NN *)(IN *)(DT *)(NNS *)(IN *)(CD *)(NNP *)) |ET| 
-0.010794365133309016813178971005982  |BT| (S (NP (PRP He))(VP (VBD said)(SBAR (IN that)(S (NP (CD 47,000)(NNS cars))(VP (VP (VB drive)(PP (IN by)(NP (DT the)(NN site)))(ADVP (RB daily)))(CC and)(VP (VB ``because)(SBAR (S (NP (DT the)(NNS players))(VP (VBP have)(S (VP (TO to)(VP (VB drive)(PP (IN by)(NP (PRP it)))(NP (NP (DT every)(NN day))(SBAR (S (NP (PRP it))(VP (MD could)(VP (VB become)(NP (DT a)(NN hangout))(SBAR (IN for)(S (NP (PRP them))(VP (VBZ .''))))))))))))))))))))) |BT| (BOW (He *)(said *)(that *)(47,000 *)(cars *)(drive *)(by *)(the *)(site *)(daily *)(and *)(``because *)(the *)(players *)(have *)(to *)(drive *)(by *)(it *)) |BT| (BOP (PRP *)(VBD *)(IN *)(CD *)(NNS *)(JJ *)(IN *)(DT *)(JJ *)(NNS *)(CC *)(VB *)(DT *)(NNS *)(VBP *)(TO *)(VB *)(IN *)(PRP *)) |ET| 
-0.0097550029575511447432756284570132  |BT| (NP (NP (DT A)(JJ 950-megawatt)(JJ electric)(NN power)(NN plant))(VP (VBG belonging)(PP (TO to)(NP (DT the)(NN firm))))) |BT| (BOW (plant *)(belonging *)(to *)(the *)(firm *)) |BT| (BOP (NN *)(VBG *)(TO *)(DT *)(NN *)) |ET| 
-0.010002069395425625120132906431536  |BT| (NP (NP (DT this)(JJ holy)(NN site))(, ,)(VP (VBN revered)(PP (IN by)(NP (NP (DT some))(PP (IN as)(NP (NP (DT the)(NN burial)(NN place))(PP (IN of)(NP (DT the)(JJ biblical)(NN patriarch))))))))) |BT| (BOW (site *)(, *)(revered *)(by *)(some *)(as *)(the *)(burial *)(place *)) |BT| (BOP (NN *)(, *)(VBN *)(IN *)(DT *)(IN *)(DT *)(JJ *)(NN *)) |ET| 
-0.0099869649556695617997892355788281  |BT| (S (NP (NP (NNP John)(NNP ``Jack'')(NNP Hanlon))(PP (IN of)(NP (NNP Coldwell)(NNP Banker)(NNP American)(NNP Spectrum))))(VP (VBZ is)(VP (VBG listing)(NP (NP (DT an)(NN acre))(PP (IN of)(NP (NN land))))(PP (IN about)(NP (NP (DT a)(NN mile))(PP (IN from)(NP (NP (NP (DT the)(NNS Broncos)(POS '))(NN training)(NN camp))(PP (IN in)(NP (NNP Dove)(NNP Valley)))))))))(. .)) |BT| (BOW (Coldwell *)(Banker *)(American *)(Spectrum *)(is *)(listing *)(an *)(acre *)(of *)(land *)) |BT| (BOP (NNP *)(NNP *)(NNP *)(NNP *)(VBZ *)(VBG *)(DT *)(NN *)(IN *)(NN *)) |ET| 
-0.0077712456639436660807418455476636  |BT| (NP (NP (RB Only)(JJ public)(JJ two-year)(NNS schools))(, ,)(NP (JJ chiefly)(NN community)(NNS colleges))(, ,)) |BT| (BOW (schools *)(, *)(chiefly *)(community *)(colleges *)) |BT| (BOP (NNS *)(, *)(RB *)(NN *)(NNS *)) |ET| 
-0.0075121091329350521761942793830258  |BT| (VP (VBN dealt)(PP (IN with)(NP (NP (DT the)(NN issue))(PP (IN of)(NP (NNP Iraq)))))(PP (IN in)(NP (DT the)(NNS talks)))(PP (IN with)(NP (NNP Mubarak)))) |BT| (BOW (Iraq *)(in *)(the *)(talks *)(with *)(Mubarak *)) |BT| (BOP (NNP *)(IN *)(DT *)(NNS *)(IN *)(NNP *)) |ET| 
-0.0076497877853819087196063364331167  |BT| (NP (NP (DT the)(NN family))(PP (IN of)(NP (JJ democratic)(NNS nations)(NNS .'')))) |BT| (BOW (family *)(of *)(democratic *)(nations *)) |BT| (BOP (NN *)(IN *)(JJ *)(NNS *)) |ET| 
-0.0066742709051120030841475205818369  |BT| (S (NP (NNS Prosecutors))(VP (VBP say)(NP (NP (DT the)(CD two)(NNS defendants))(, ,)(SBAR (WHNP (WP who))(S (VP (VBP are)(VP (VP (VBN alleged)(S (VP (TO to)(VP (VB be)(NP (JJ Libyan)(JJ secret)(NNS agents))))))(, ,)(VP (VBN sent)(NP (DT a)(NN suitcase))(PP (IN from)(NP (NP (DT the)(NNP Mediterranean)(NN island))(PP (IN of)(NP (NNP Malta)))))(S (VP (VBG carrying)(NP (DT an)(JJ explosives)(JJ -laden)(NN cassette)(NN recorder)))))(CC and)(VP (VBN routed)(NP (PRP it))(PP (IN through)(NP (NNP Frankfurt)(, ,)(NNP Germany)(, ,)))(PP (TO to)(NP (NP (DT the)(JJ doomed)(NN airliner))(PP (IN in)(NP (NNP London))))))))))))(. .)) |BT| (BOW (Prosecutors *)(say *)(the *)(two *)(defendants *)) |BT| (BOP (NNS *)(VBP *)(DT *)(CD *)(NNS *)) |ET| 
-0.010569433979249906463415697999153  |BT| (VP (VBD drove)(NP (QP (RB about)(CD 1)(CD million))(JJ illegal)(NNS immigrants))(ADVP (RB back))(PP (IN into)(NP (NNP Mexico)))) |BT| (BOW (immigrants *)(back *)(into *)(Mexico *)) |BT| (BOP (NNS *)(RB *)(IN *)(NNP *)) |ET| 
-0.0054354406867362665273235577956257  |BT| (NP (NP (JJ barbed)(NN wire))(, ,)(VP (VBN watched)(PRT (RP over))(PP (IN by)(NP (JJ uniformed)(NNS guards)))(PP (IN from)(NP (DT the)(NNP Border)(NNP Patrol))))) |BT| (BOW (wire *)(, *)(watched *)(over *)(by *)(uniformed *)(guards *)) |BT| (BOP (NN *)(, *)(VBD *)(IN *)(IN *)(JJ *)(NNS *)) |ET| 
-0.013357418731948414447607831334608  |BT| (S (NP (NNP Dale)(NNP County)(NNP Commissioner)(NNP Buddy)(NNP Stapleton))(VP (VBD said)(SBAR (S (NP (PRP he))(VP (VBN counted)(PP (IN about)(NP (NP (DT a)(JJ half-dozen)(NNS homes))(VP (VBN hit)(PP (IN near)(NP (NNP Newton))))))))))(. .)) |BT| (BOW (Dale *)(County *)(Commissioner *)(Buddy *)(Stapleton *)(said *)(he *)(counted *)(about *)(a *)(half-dozen *)(homes *)(hit *)(near *)(Newton *)) |BT| (BOP (NNP *)(NNP *)(NNP *)(NNP *)(NNP *)(VBD *)(PRP *)(VBD *)(IN *)(DT *)(JJ *)(NNS *)(VBP *)(IN *)(NNP *)) |ET| 
-0.012712182454956876681562150110949  |BT| (NP (NP (DT the)(NN president))(PP (IN of)(NP (NP (NP (NNP Tabasco)(POS 's))(JJ electoral)(NN institute))(PP (IN of)(S (VP (VP (VBG favoring)(NP (DT the)(NNP PRI)))(CC and)(VP (VBG pressuring)(NP (NN election)(NNS officials))(S (VP (TO to)(VP (VB close)(ADVP (NP (DT the)(JJ preliminary)(NNS results))(RB early))(S (VP (TO to)(VP (VB benefit)(NP (NNP Andrade))))))))))))))) |BT| (BOW (president *)(of *)(Tabasco *)) |BT| (BOP (NN *)(IN *)(NNP *)) |ET| 
-0.012644481598123922735932289640459  |BT| (S (NP (PRP he))(VP (VBN counted)(PP (IN about)(NP (NP (DT a)(JJ half-dozen)(NNS homes))(VP (VBN hit)(PP (IN near)(NP (NNP Newton)))))))) |BT| (BOW (he *)(counted *)(about *)(a *)(half-dozen *)(homes *)) |BT| (BOP (PRP *)(VBD *)(IN *)(DT *)(JJ *)(NNS *)) |ET| 
