SVM-light Version V5.01-TK-1.2
5 # kernel type
3 # kernel parameter -d 
1 # kernel parameter -g 
1 # kernel parameter -s 
1 # kernel parameter -r 
empty# kernel parameter -u 
0.4 # kernel parameter -L 
1 # kernel parameter -T 
T # kernel parameter -C 
1 # kernel parameter -F 
1 # kernel parameter -S 
1.000000 # kernel parameter -D 
3 # kernel parameter -N 
S # kernel parameter -V 
S # kernel parameter -W 
0 # highest feature index 
16257 # number of training documents 
568 # number of support vectors plus 1 
1.0449977 # threshold b, each following line is a SV (starting with alpha*y)
-0.047775739599172140081861925864359  |BT| (NP (NNP ``Coach)(NNP Koetter)) |BT| (BOW (``Coach *)(Koetter *)) |BT| (BOP (NNP *)(NNP *)) |ET| 
-0.16219049735624005426082305802993  |BT| (NP (NNP Police)(NNP Chief)(NNP James)(NNP Vohs)) |BT| (BOW (Chief *)(James *)(Vohs *)) |BT| (BOP (NNP *)(NNP *)(NNP *)) |ET| 
-0.14335440080526451467335391498636  |BT| (NP (NNP Vice)(NNP President)(NNP Al)(NNP Gore)(CC or)(NNP Texas)(NNP Gov)) |BT| (BOW (President *)(Al *)(Gore *)(or *)(Texas *)(Gov *)) |BT| (BOP (NNP *)(NNP *)(NNP *)(CC *)(NNP *)(NNP *)) |ET| 
-0.21200079788245762557608031784184  |BT| (NP (NNP Texas)(NNP [AP)) |BT| (BOW (Texas *)((AP *)) |BT| (BOP (NNP *)(NNP *)) |ET| 
-0.22830671041938099818935370421968  |BT| (NP (NNP Egyptian)(NNP President)(NNP Hosni)(NNP Mubarak)) |BT| (BOW (Egyptian *)(President *)(Hosni *)(Mubarak *)) |BT| (BOP (NNP *)(NNP *)(NNP *)(NNP *)) |ET| 
0.33333333333351461424953754431044  |BT| (NP (NP (NNP Syria)(POS 's))(NN president)) |BT| (BOW (Syria *)('s *)(president *)) |BT| (BOP (NNP *)(POS *)(NN *)) |ET| 
0.33333333333351461424953754431044  |BT| (NP (NNP Egyptian)(NNP President)(NNP Hosni)(NNP Mubarak)) |BT| (BOW (Egyptian *)(President *)) |BT| (BOP (NNP *)(NNP *)) |ET| 
0.33333333333351461424953754431044  |BT| (NP (JJ Egyptian)(NNP Foreign)(NNP Minister)(NNP Amr)(NNP Mussa)) |BT| (BOW (Egyptian *)(Foreign *)(Minister *)) |BT| (BOP (JJ *)(NNP *)(NNP *)) |ET| 
0.33333333333351461424953754431044  |BT| (NP (DT The)(JJ Syrian)(NN leader)(POS 's)) |BT| (BOW (Syrian *)(leader *)) |BT| (BOP (JJ *)(NN *)) |ET| 
0.33333333333351461424953754431044  |BT| (NP (DT The)(JJ late)(JJ Syrian)(NN president)) |BT| (BOW (Syrian *)(president *)) |BT| (BOP (JJ *)(NN *)) |ET| 
-0.097077382514424492843119196550106  |BT| (NP (NP (NNP Saturday)(POS 's))(JJ Egyptian)(NN delegation)) |BT| (BOW (Egyptian *)(delegation *)) |BT| (BOP (JJ *)(NN *)) |ET| 
0.33333333333351461424953754431044  |BT| (VP (VBD was)(ADJP (JJ honored))(NP (JJ last)(NN week))(PP (IN by)(NP (DT the)(NNP Pittsburgh)(JJ -based)(NNP Carnegie)(NNP Hero)(NNP Fund)(NNP Commission)))(, ,)(VP (VBN established)(PP (IN in)(NP (CD 1904)))(PP (IN by)(NP (NNP Andrew)(NNP Carnegie)))(S (VP (TO to)(VP (VB recognize)(NP (NP (NNS acts))(PP (IN of)(NP (NN heroism))))))))) |BT| (BOW (Carnegie *)(Hero *)(Fund *)(Commission *)(, *)(established *)(in *)(1904 *)(by *)(Andrew *)(Carnegie *)) |BT| (BOP (NNP *)(NNP *)(NNP *)(NNP *)(, *)(VBN *)(IN *)(CD *)(IN *)(NNP *)(NNP *)) |ET| 
-0.076290865632856919020809982612263  |BT| (NP (JJ Egyptian)(NNP Foreign)(NNP Minister)(NNP Amr)(NNP Mussa)) |BT| (BOW (Egyptian *)(Foreign *)(Minister *)(Amr *)(Mussa *)) |BT| (BOP (JJ *)(NNP *)(NNP *)(NNP *)(NNP *)) |ET| 
0.33333333333351461424953754431044  |BT| (NP (NP (NNP House))(PP (IN of)(NP (NNP Commons)(NN speaker)(NNP Michael)(NNP Martin)))) |BT| (BOW (House *)(of *)(Commons *)(speaker *)) |BT| (BOP (NNP *)(IN *)(NNPS *)(NN *)) |ET| 
-0.067637621232390476855300676106708  |BT| (NP (NP (NNP House))(PP (IN of)(NP (NNP Commons)(NN speaker)(NNP Michael)(NNP Martin)))) |BT| (BOW (House *)(of *)(Commons *)(speaker *)(Michael *)(Martin *)) |BT| (BOP (NNP *)(IN *)(NNPS *)(NN *)(NNP *)(NNP *)) |ET| 
0.33333333333351461424953754431044  |BT| (NP (NNP Bavaria)(NNP Interior)(NNP Minister)(NNP Guenther)(NNP Beckstein)) |BT| (BOW (Bavaria *)(Interior *)(Minister *)) |BT| (BOP (NNP *)(NNP *)(NNP *)) |ET| 
-0.18638007906748854658474101597676  |BT| (NP (NNP Bavaria)(NNP Interior)(NNP Minister)(NNP Guenther)(NNP Beckstein)) |BT| (BOW (Minister *)(Guenther *)(Beckstein *)) |BT| (BOP (NNP *)(NNP *)(NNP *)) |ET| 
0.33333333333351461424953754431044  |BT| (NP (NP (DT a)(NN fund)(NN shareholder)(NN advocacy)(NN group))(VP (VBN founded)(PP (IN by)(NP (NP (NNP Mercer)(NNP Bullard))(, ,)(NP (NP (DT a)(JJ former)(NN lawyer))(PP (IN for)(NP (NP (DT the)(NNP SEC)(POS 's))(NN enforcement)(NN division)))))))) |BT| (BOW (group *)(founded *)(by *)(Mercer *)(Bullard *)) |BT| (BOP (NN *)(VBD *)(IN *)(NNP *)(NNP *)) |ET| 
-0.060392464235454149101833820623142  |BT| (NP (NP (DT a)(NN fund)(NN shareholder)(NN advocacy)(NN group))(VP (VBN founded)(PP (IN by)(NP (NP (NNP Mercer)(NNP Bullard))(, ,)(NP (NP (DT a)(JJ former)(NN lawyer))(PP (IN for)(NP (NP (DT the)(NNP SEC)(POS 's))(NN enforcement)(NN division)))))))) |BT| (BOW (shareholder *)(advocacy *)(group *)(founded *)(by *)(Mercer *)(Bullard *)) |BT| (BOP (NN *)(NN *)(NN *)(VBD *)(IN *)(NNP *)(NNP *)) |ET| 
0.33333333333351461424953754431044  |BT| (NP (NNP Israeli)(NNP Prime)(NNP Minister)(NNP Ehud)(NNP Barak)) |BT| (BOW (Israeli *)(Prime *)(Minister *)) |BT| (BOP (NNP *)(NNP *)(NNP *)) |ET| 
-0.14325624414972634723675071199978  |BT| (NP (NNP Israeli)(NNP Prime)(NNP Minister)(NNP Ehud)(NNP Barak)) |BT| (BOW (Minister *)(Ehud *)(Barak *)) |BT| (BOP (NNP *)(NNP *)(NNP *)) |ET| 
0.33333333333351461424953754431044  |BT| (NP (PRP$ its)(NN coach)) |BT| (BOW (its *)(coach *)) |BT| (BOP (PRP$ *)(NN *)) |ET| 
-0.088317537077901950293146171588887  |BT| (NP (PRP$ its)(NN population)) |BT| (BOW (its *)(population *)) |BT| (BOP (PRP$ *)(NN *)) |ET| 
0.33333333333351461424953754431044  |BT| (NP (NNP Palestine)(NNP National)(NNP Council)(NNP Speaker)(NNP Salim)(NNP Zaanoun)) |BT| (BOW (Palestine *)(National *)(Council *)(Speaker *)) |BT| (BOP (NNP *)(NNP *)(NNP *)(NNP *)) |ET| 
-0.090828498743376312463126964757976  |BT| (NP (NNP Palestine)(NNP National)(NNP Council)(NNP Speaker)(NNP Salim)(NNP Zaanoun)) |BT| (BOW (Palestine *)(National *)(Council *)(Speaker *)(Salim *)(Zaanoun *)) |BT| (BOP (NNP *)(NNP *)(NNP *)(NNP *)(NNP *)(NNP *)) |ET| 
0.33333333333351461424953754431044  |BT| (NP (NN commission)(NN chairman)(NNP Ananta)(NNP Baharuddin)) |BT| (BOW (commission *)(chairman *)) |BT| (BOP (NN *)(NN *)) |ET| 
-0.1224951185672821935002119175806  |BT| (NP (NN commission)(NN chairman)(NNP Ananta)(NNP Baharuddin)) |BT| (BOW (commission *)(chairman *)(Ananta *)(Baharuddin *)) |BT| (BOP (NN *)(NN *)(NNP *)(NNP *)) |ET| 
0.33333333333351461424953754431044  |BT| (NP (NNP Social)(NNP Security)(NNP Commissioner)(NNP Kenneth)(NNP Apfel)) |BT| (BOW (Social *)(Security *)(Commissioner *)) |BT| (BOP (NNP *)(NNP *)(NNP *)) |ET| 
-0.17784907179382050679272708748613  |BT| (NP (NNP Social)(NNP Security)(NNP Commissioner)(NNP Kenneth)(NNP Apfel)) |BT| (BOW (Commissioner *)(Kenneth *)(Apfel *)) |BT| (BOP (NNP *)(NNP *)(NNP *)) |ET| 
0.33333333333351461424953754431044  |BT| (NP (DT the)(JJ former)(NNP West)(NNP Virginia)(NN governor)) |BT| (BOW (West *)(Virginia *)(governor *)) |BT| (BOP (NNP *)(NNP *)(NN *)) |ET| 
-0.23765325265752515471184835860186  |BT| (NP (NP (DT the)(NN governor)(POS 's))(NN mansion)) |BT| (BOW (governor *)('s *)(mansion *)) |BT| (BOP (NN *)(POS *)(NN *)) |ET| 
0.33333333333351461424953754431044  |BT| (NP (NNP El)(NNP Paso)(NNP Mayor)(NNP Carlos)(NNP Ramirez)) |BT| (BOW (El *)(Paso *)(Mayor *)) |BT| (BOP (NNP *)(NNP *)(NNP *)) |ET| 
-0.15530892313127081516554994777835  |BT| (NP (NNP El)(NNP Paso)(NNP Mayor)(NNP Carlos)(NNP Ramirez)) |BT| (BOW (Mayor *)(Carlos *)(Ramirez *)) |BT| (BOP (NNP *)(NNP *)(NNP *)) |ET| 
0.33333333333351461424953754431044  |BT| (NP (NP (DT the)(NN nation)(POS 's))(NN president)) |BT| (BOW (nation *)('s *)(president *)) |BT| (BOP (NN *)(POS *)(NN *)) |ET| 
-0.14357218407330374354557989136083  |BT| (S (NP (DT The)(JJ late)(JJ Syrian)(NN president))(ADVP (RB rarely))(VP (VBD traveled)(ADVP (RB abroad)))(. .)) |BT| (BOW (Syrian *)(president *)(rarely *)(traveled *)(abroad *)) |BT| (BOP (JJ *)(NN *)(RB *)(VBD *)(RB *)) |ET| 
0.33333333333351461424953754431044  |BT| (NP (NNP Federal)(NNP Reserve)(NNP Chairman)(NNP Alan)(NNP Greenspan)) |BT| (BOW (Federal *)(Reserve *)(Chairman *)) |BT| (BOP (NNP *)(NNP *)(NNP *)) |ET| 
-0.15478665421926185441492407335318  |BT| (NP (NNP Federal)(NNP Reserve)(NNP Chairman)(NNP Alan)(NNP Greenspan)) |BT| (BOW (Chairman *)(Alan *)(Greenspan *)) |BT| (BOP (NNP *)(NNP *)(NNP *)) |ET| 
0.33333333333351461424953754431044  |BT| (NP (NN Indonesian)(NNS leaders)) |BT| (BOW (Indonesian *)(leaders *)) |BT| (BOP (JJ *)(NNS *)) |ET| 
-0.11390261746092907035876606869351  |BT| (NP (NN Indonesian)(NNS lawmakers)) |BT| (BOW (Indonesian *)(lawmakers *)) |BT| (BOP (JJ *)(NNS *)) |ET| 
0.33333333333351461424953754431044  |BT| (NP (NNP Dale)(NNP County)(NNP Commissioner)(NNP Buddy)(NNP Stapleton)) |BT| (BOW (Dale *)(County *)(Commissioner *)) |BT| (BOP (NNP *)(NNP *)(NNP *)) |ET| 
-0.16590570969530787914791858383978  |BT| (NP (NNP Dale)(NNP County)(NNP Commissioner)(NNP Buddy)(NNP Stapleton)) |BT| (BOW (Commissioner *)(Buddy *)(Stapleton *)) |BT| (BOP (NNP *)(NNP *)(NNP *)) |ET| 
0.33333333333351461424953754431044  |BT| (NP (NP (NNP British)(NNP Airways)(POS '))(ADJP (RB recently)(JJ appointed))(NN chief)(NN executive)) |BT| (BOW (British *)(Airways *)(' *)(recently *)(appointed *)(chief *)(executive *)) |BT| (BOP (JJ *)(NNS *)(POS *)(RB *)(VBN *)(JJ *)(NN *)) |ET| 
-0.012718115614316131273264787182598  |BT| (NP (NNP Seminole)(CC and)(NNP Martin)(NNS counties)) |BT| (BOW (Martin *)(counties *)) |BT| (BOP (NNP *)(NNS *)) |ET| 
0.33333333333351461424953754431044  |BT| (NP (NNP Dallas)(NNPS Cowboys)(NN owner)(NNP Jerry)(NNP Jones)) |BT| (BOW (Dallas *)(Cowboys *)(owner *)(Jerry *)(Jones *)) |BT| (BOP (NNP *)(NNP *)(NN *)(NNP *)(NNP *)) |ET| 
-0.31022305746065043097203783872828  |BT| (NP (NNP Dallas)(NNPS Cowboys)(NN owner)(NNP Jerry)(NNP Jones)) |BT| (BOW (Dallas *)(Cowboys *)(owner *)) |BT| (BOP (NNP *)(NNP *)(NN *)) |ET| 
0.33333333333351461424953754431044  |BT| (NP (NP (NNP Gallup)(POS 's))(JJ executive)(NN editor)) |BT| (BOW (Gallup *)('s *)(executive *)(editor *)) |BT| (BOP (NNP *)(POS *)(NN *)(NN *)) |ET| 
-0.27401766606766936318351213230926  |BT| (NP (NP (DT the)(NNP EU)(POS 's))(JJ executive)(NN body)) |BT| (BOW (EU *)('s *)(executive *)(body *)) |BT| (BOP (NNP *)(POS *)(NN *)(NN *)) |ET| 
0.33333333333351461424953754431044  |BT| (NP (NNP Geneva)(NNP County)(NNP Emergency)(NNP Management)(NNP Agency)(NN director)(NNP Margaret)(NNP Mixon)) |BT| (BOW (Geneva *)(County *)(Emergency *)(Management *)(Agency *)(director *)) |BT| (BOP (NNP *)(NNP *)(NNP *)(NNP *)(NNP *)(NN *)) |ET| 
-0.16823404246153311758504855788487  |BT| (NP (NNP Geneva)(NNP County)(NNP Emergency)(NNP Management)(NNP Agency)(NN director)(NNP Margaret)(NNP Mixon)) |BT| (BOW (Geneva *)(County *)(Emergency *)(Management *)(Agency *)(director *)(Margaret *)(Mixon *)) |BT| (BOP (NNP *)(NNP *)(NNP *)(NNP *)(NNP *)(NN *)(NNP *)(NNP *)) |ET| 
0.33333333333351461424953754431044  |BT| (NP (NP (DT the)(NNP EU)(POS 's))(JJ current)(NN chairman)) |BT| (BOW (EU *)('s *)(current *)(chairman *)) |BT| (BOP (NNP *)(POS *)(JJ *)(NN *)) |ET| 
-0.016997814782746620970721451726604  |BT| (NP (NP (NNP Bush)(POS 's))(JJ chief)(NN strategist)) |BT| (BOW (Bush *)('s *)(chief *)(strategist *)) |BT| (BOP (NNP *)(POS *)(JJ *)(NN *)) |ET| 
0.33333333333351461424953754431044  |BT| (NP (NNP North)(NNP Rhine-Westphalia)(NN governor)(NNP Wolfgang)(NNP Clement)) |BT| (BOW (North *)(Rhine-Westphalia *)(governor *)) |BT| (BOP (NNP *)(NNP *)(NN *)) |ET| 
-0.14774868866624038532542328994168  |BT| (NP (NNP North)(NNP Rhine-Westphalia)(NN governor)(NNP Wolfgang)(NNP Clement)) |BT| (BOW (North *)(Rhine-Westphalia *)(governor *)(Wolfgang *)(Clement *)) |BT| (BOP (NNP *)(NNP *)(NN *)(NNP *)(NNP *)) |ET| 
0.33333333333351461424953754431044  |BT| (NP (NP (NNP ,'')(NNP Nokia)(POS 's))(NNP Chief)(NNP Executive)(NNP Jorma)(NNP Ollila)) |BT| (BOW (Nokia *)('s *)(Chief *)(Executive *)) |BT| (BOP (NNP *)(POS *)(NNP *)(NNP *)) |ET| 
-0.15014892706664856314446865326317  |BT| (NP (NP (NNP ,'')(NNP Nokia)(POS 's))(NNP Chief)(NNP Executive)(NNP Jorma)(NNP Ollila)) |BT| (BOW (Nokia *)('s *)(Chief *)(Executive *)(Jorma *)(Ollila *)) |BT| (BOP (NNP *)(POS *)(NNP *)(NNP *)(NNP *)(NNP *)) |ET| 
0.33333333333351461424953754431044  |BT| (NP (NNP Notre)(NNP Dame)(NN offensive)(NN coordinator)(NNP Kevin)(NNP Rogers)) |BT| (BOW (Notre *)(Dame *)(offensive *)(coordinator *)) |BT| (BOP (NNP *)(NNP *)(JJ *)(NN *)) |ET| 
-0.10033787594672881338109249327317  |BT| (NP (NNP Notre)(NNP Dame)(NN offensive)(NN coordinator)(NNP Kevin)(NNP Rogers)) |BT| (BOW (Notre *)(Dame *)(offensive *)(coordinator *)(Kevin *)(Rogers *)) |BT| (BOP (NNP *)(NNP *)(JJ *)(NN *)(NNP *)(NNPS *)) |ET| 
0.33333333333351461424953754431044  |BT| (NP (NP (DT the)(NN regime))(PP (IN of)(NP (NNP Yugoslav)(NNP President)(NNP Slobodan)(NNP Milosevic)))) |BT| (BOW (regime *)(of *)(Yugoslav *)(President *)(Slobodan *)(Milosevic *)) |BT| (BOP (NN *)(IN *)(NNP *)(NNP *)(NNP *)(NNP *)) |ET| 
-0.094454809778224874117213971658202  |BT| (NP (NP (DT the)(NN regime))(PP (IN of)(NP (NNP Yugoslav)(NNP President)(NNP Slobodan)(NNP Milosevic)))) |BT| (BOW (regime *)(of *)(Yugoslav *)(President *)) |BT| (BOP (NN *)(IN *)(NNP *)(NNP *)) |ET| 
0.33333333333351461424953754431044  |BT| (NP (NP (NNP Indonesia)(POS 's))(JJ first)(ADJP (RB democratically)(VBN chosen))(NN head)) |BT| (BOW (Indonesia *)('s *)(first *)(democratically *)(chosen *)(head *)) |BT| (BOP (NNP *)(POS *)(JJ *)(JJ *)(JJ *)(NN *)) |ET| 
-0.1613632708593375486572085719672  |BT| (NP (NNS women)(NNS leaders)) |BT| (BOW (women *)(leaders *)) |BT| (BOP (JJ *)(NNS *)) |ET| 
0.33333333333351461424953754431044  |BT| (NP (NNP General)(NNP Assembly)(NNP President)(NNP Harri)(NNP Holkeri)) |BT| (BOW (General *)(Assembly *)(President *)) |BT| (BOP (NNP *)(NNP *)(NNP *)) |ET| 
-0.17572251871407376655476184623694  |BT| (NP (NNP General)(NNP Assembly)(NNP President)(NNP Harri)(NNP Holkeri)) |BT| (BOW (President *)(Harri *)(Holkeri *)) |BT| (BOP (NNP *)(NNP *)(NNP *)) |ET| 
0.33333333333351461424953754431044  |BT| (NP (NNP MLS)(NNS owners)) |BT| (BOW (MLS *)(owners *)) |BT| (BOP (NNS *)(NNS *)) |ET| 
-0.035713436545452142967249642424576  |BT| (NP (NNP North)(NNP Rhine-Westphalia)(NN governor)(NNP Wolfgang)(NNP Clement)) |BT| (BOW (governor *)(Wolfgang *)(Clement *)) |BT| (BOP (NN *)(NNP *)(NNP *)) |ET| 
0.33333333333351461424953754431044  |BT| (NP (NNP College)(NNP Board)(NNP President)(NNP Gaston)(NNP Caperton)) |BT| (BOW (College *)(Board *)(President *)) |BT| (BOP (NNP *)(NNP *)(NNP *)) |ET| 
-0.17546171696861129207789531392336  |BT| (NP (NNP College)(NNP Board)(NNP President)(NNP Gaston)(NNP Caperton)) |BT| (BOW (President *)(Gaston *)(Caperton *)) |BT| (BOP (NNP *)(NNP *)(NNP *)) |ET| 
0.33333333333351461424953754431044  |BT| (NP (NN small-business)(NNS buyers)(CC and)(NNS sellers)) |BT| (BOW (small-business *)(buyers *)(and *)(sellers *)) |BT| (BOP (NN *)(NNS *)(CC *)(NNS *)) |ET| 
-0.060414341904250656867247926129494  |BT| (NP (NP (DT a)(JJ business-to-business)(NN marketplace))(PP (IN for)(NP (NN small-business)(NNS buyers)(CC and)(NNS sellers)))) |BT| (BOW (marketplace *)(for *)(small-business *)(buyers *)(and *)(sellers *)) |BT| (BOP (NN *)(IN *)(NN *)(NNS *)(CC *)(NNS *)) |ET| 
0.33333333333351461424953754431044  |BT| (NP (NNP Nablus)(NNP Gov)(. .)) |BT| (BOW (Nablus *)(Gov *)) |BT| (BOP (NNP *)(NNP *)) |ET| 
-0.33333333333351461424953754431044  |BT| (NP (JJ Republican)(NN nominee)(NNP Texas)(NNP Gov)) |BT| (BOW (Texas *)(Gov *)) |BT| (BOP (NNP *)(NNP *)) |ET| 
0.33333333333351461424953754431044  |BT| (NP (NP (DT the)(NN debate)(NN commission)(POS 's))(NN director)) |BT| (BOW (commission *)('s *)(director *)) |BT| (BOP (NN *)(POS *)(NN *)) |ET| 
-0.14108357813561811511249288741965  |BT| (NP (NP (DT The)(NN commission)(POS 's))(NN staff)) |BT| (BOW (commission *)('s *)(staff *)) |BT| (BOP (NN *)(POS *)(NN *)) |ET| 
0.33333333333351461424953754431044  |BT| (NP (NNP Texas)(NNP Gov)) |BT| (BOW (Texas *)(Gov *)) |BT| (BOP (NNP *)(NNP *)) |ET| 
-0.16374232907189606445186313976592  |BT| (NP (NNP President)(NNP Wahid)) |BT| (BOW (President *)(Wahid *)) |BT| (BOP (NNP *)(NNP *)) |ET| 
0.33333333333351461424953754431044  |BT| (NP (DT The)(NNP Texas)(NN governor)(CC and)(JJ Republican)(NN nominee)) |BT| (BOW (Texas *)(governor *)) |BT| (BOP (NNP *)(NN *)) |ET| 
-0.12408202252616623573189258422644  |BT| (NP (DT The)(NNP Texas)(NN governor)(CC and)(JJ Republican)(NN nominee)) |BT| (BOW (Republican *)(nominee *)) |BT| (BOP (NNP *)(NN *)) |ET| 
0.33333333333351461424953754431044  |BT| (NP (JJ new)(NNP Yugoslav)(NNP President)(NNP Vojislav)(NNP Kostunica)) |BT| (BOW (Yugoslav *)(President *)(Vojislav *)(Kostunica *)) |BT| (BOP (NNP *)(NNP *)(NNP *)(NNP *)) |ET| 
-0.33333333333351461424953754431044  |BT| (NP (JJ new)(NNP Yugoslav)(NNP President)(NNP Vojislav)(NNP Kostunica)) |BT| (BOW (Yugoslav *)(President *)) |BT| (BOP (NNP *)(NNP *)) |ET| 
0.33333333333351461424953754431044  |BT| (NP (JJ Palestinian)(NN leader)(NNP Yasser)(NNP Arafat)) |BT| (BOW (Palestinian *)(leader *)) |BT| (BOP (NNP *)(NN *)) |ET| 
-0.031917802263891181802080154739087  |BT| (NP (JJ Palestinian)(NN leader)(NNP Yasser)(NNP Arafat)) |BT| (BOW (Palestinian *)(leader *)(Yasser *)(Arafat *)) |BT| (BOP (NNP *)(NN *)(NNP *)(NNP *)) |ET| 
0.33333333333351461424953754431044  |BT| (NP (NNP Yugoslav)(NNP President)(NNP Slobodan)(NNP Milosevic)) |BT| (BOW (Yugoslav *)(President *)) |BT| (BOP (NNP *)(NNP *)) |ET| 
-0.10356262034896471235789761067281  |BT| (NP (NNP Yugoslav)(NNP President)(NNP Slobodan)(NNP Milosevic)) |BT| (BOW (Yugoslav *)(President *)(Slobodan *)(Milosevic *)) |BT| (BOP (NNP *)(NNP *)(NNP *)(NNP *)) |ET| 
0.33333333333351461424953754431044  |BT| (NP (NNP Miami)(JJ defensive)(NN coordinator)(NNP Greg)(NNP Schiano)) |BT| (BOW (Miami *)(defensive *)(coordinator *)) |BT| (BOP (NNP *)(JJ *)(NN *)) |ET| 
-0.11743371462513331471289035334848  |BT| (NP (NNP Miami)(JJ defensive)(NN coordinator)(NNP Greg)(NNP Schiano)) |BT| (BOW (Miami *)(defensive *)(coordinator *)(Greg *)(Schiano *)) |BT| (BOP (NNP *)(JJ *)(NN *)(NNP *)(NNP *)) |ET| 
0.33333333333351461424953754431044  |BT| (NP (NNP Russian)(NNP President)(NNP Vladimir)(NNP Putin)) |BT| (BOW (Russian *)(President *)) |BT| (BOP (NNP *)(NNP *)) |ET| 
-0.13899414782044877680888816939841  |BT| (NP (NNP Russian)(NNP President)(NNP Vladimir)(NNP Putin)) |BT| (BOW (Russian *)(President *)(Vladimir *)(Putin *)) |BT| (BOP (NNP *)(NNP *)(NNP *)(NNP *)) |ET| 
0.33333333333351461424953754431044  |BT| (NP (DT the)(JJ other)(CD 14)(NNP EU)(NNS leaders)) |BT| (BOW (EU *)(leaders *)) |BT| (BOP (NNP *)(NNS *)) |ET| 
-0.31050574622610793706911636036239  |BT| (NP (NNP MLS)(NNS players)) |BT| (BOW (MLS *)(players *)) |BT| (BOP (NNP *)(NNS *)) |ET| 
0.33333333333351461424953754431044  |BT| (NP (JJ former)(NNP Russian)(NNP Prime)(NNP Minister)(NNP Viktor)(NNP Chernomyrdin)) |BT| (BOW (Russian *)(Prime *)(Minister *)) |BT| (BOP (NNP *)(NNP *)(NNP *)) |ET| 
-0.1774445518524917775327054414447  |BT| (NP (JJ former)(NNP Russian)(NNP Prime)(NNP Minister)(NNP Viktor)(NNP Chernomyrdin)) |BT| (BOW (Russian *)(Prime *)(Minister *)(Viktor *)(Chernomyrdin *)) |BT| (BOP (NNP *)(NNP *)(NNP *)(NNP *)(NNP *)) |ET| 
0.33333333333351461424953754431044  |BT| (NP (NNP AOL)(NNS executives)) |BT| (BOW (AOL *)(executives *)) |BT| (BOP (NNP *)(NNS *)) |ET| 
-0.20367642150308673532066450206912  |BT| (NP (NNP AOL)(NNS rivals)) |BT| (BOW (AOL *)(rivals *)) |BT| (BOP (NNP *)(NNS *)) |ET| 
0.33333333333351461424953754431044  |BT| (NP (NNP French)(NNP President)(NNP Jacques)(NNP Chirac)) |BT| (BOW (French *)(President *)) |BT| (BOP (JJ *)(NNP *)) |ET| 
-0.066306108299127836103181721227884  |BT| (NP (DT the)(JJ 15-nation)(NN EU)(POS 's)) |BT| (BOW (15-nation *)(EU *)) |BT| (BOP (JJ *)(NNP *)) |ET| 
0.33333333333351461424953754431044  |BT| (NP (JJ outgoing)(NNP Tabasco)(NNP Gov.)(NNP Roberto)(NNP Madrazo)) |BT| (BOW (Tabasco *)(Gov. *)) |BT| (BOP (NNP *)(NNP *)) |ET| 
-0.071852196712494584285302323678479  |BT| (NP (NNP French)(NNP President)(NNP Jacques)(NNP Chirac)) |BT| (BOW (French *)(President *)(Jacques *)(Chirac *)) |BT| (BOP (JJ *)(NNP *)(NNP *)(NNP *)) |ET| 
0.33333333333351461424953754431044  |BT| (NP (NP (DT the)(NNP Taliban)(POS 's))(JJ supreme)(NN leader)) |BT| (BOW (Taliban *)('s *)(supreme *)(leader *)) |BT| (BOP (NNP *)(POS *)(NN *)(NN *)) |ET| 
-0.25541607236875668585085463746509  |BT| (NP (NN opposition)(NN leader)(NNP Zoran)(NNP Djindjic)) |BT| (BOW (opposition *)(leader *)) |BT| (BOP (NN *)(NN *)) |ET| 
0.33333333333351461424953754431044  |BT| (NP (NN comment)(NN ,'')(NNP Spanish)(NNP Foreign)(NNP Minister)(NNP Josep)(NNP Pique)) |BT| (BOW (Spanish *)(Foreign *)(Minister *)) |BT| (BOP (JJ *)(NNP *)(NNP *)) |ET| 
-0.11491408280887359383282131375381  |BT| (NP (NP (DT the)(NNP Taliban)(POS 's))(NNP Interior)(NNP Minister)(NNP Abdul)) |BT| (BOW (Taliban *)('s *)(Interior *)(Minister *)) |BT| (BOP (NNP *)(POS *)(NNP *)(NNP *)) |ET| 
0.33333333333351461424953754431044  |BT| (NP (NN airport)(NN manager)(NNP George)(NNP Larson)) |BT| (BOW (airport *)(manager *)) |BT| (BOP (NN *)(NN *)) |ET| 
-0.048892694510931367091188803897239  |BT| (NP (NP (JJ new)(JJ Serbian)(NN parliament))(CC and)(NP (NN president))) |BT| (BOW (Serbian *)(parliament *)(and *)(president *)) |BT| (BOP (JJ *)(NN *)(CC *)(NN *)) |ET| 
0.33333333333351461424953754431044  |BT| (NP (NNP Communist)(NNS leaders)(NNP Vladimir)(NNP Lenin)(CC and)(NNP Josef)(NNP Stalin)) |BT| (BOW (Communist *)(leaders *)) |BT| (BOP (NNP *)(NNS *)) |ET| 
-0.12685759076451663673879011184908  |BT| (NP (JJ Arab)(NNS leaders)) |BT| (BOW (Arab *)(leaders *)) |BT| (BOP (NNP *)(NNS *)) |ET| 
0.33333333333351461424953754431044  |BT| (NP (NP (NNP Indonesia)(POS 's))(JJ reformist-minded)(NNP President)(NNP Abdurrahman)(NNP Wahid)) |BT| (BOW (Indonesia *)('s *)(reformist-minded *)(President *)) |BT| (BOP (NNP *)(POS *)(JJ *)(NN *)) |ET| 
-0.093796402326344466282570522253081  |BT| (NP (NP (NNP Indonesia)(POS 's))(JJ legal)(NN system)) |BT| (BOW (Indonesia *)('s *)(legal *)(system *)) |BT| (BOP (NNP *)(POS *)(JJ *)(NN *)) |ET| 
0.33333333333351461424953754431044  |BT| (NP (NNP Chicago)(NNP Enforcers)(NN coach)(NNP Ron)(NNP Meyer)) |BT| (BOW (Chicago *)(Enforcers *)(coach *)) |BT| (BOP (NNP *)(NNP *)(NN *)) |ET| 
-0.17755634178567297754014475685835  |BT| (NP (NNP Chicago)(NNP Enforcers)(NN coach)(NNP Ron)(NNP Meyer)) |BT| (BOW (Chicago *)(Enforcers *)(coach *)(Ron *)(Meyer *)) |BT| (BOP (NNP *)(NNP *)(NN *)(NNP *)(NNP *)) |ET| 
0.33333333333351461424953754431044  |BT| (NP (NP (DT the)(NNP Democratic)(NNP National)(NNP Committee)(POS 's))(JJ national)(NN chairman)) |BT| (BOW (Democratic *)(National *)(Committee *)('s *)(national *)(chairman *)) |BT| (BOP (JJ *)(NNP *)(NNP *)(POS *)(JJ *)(NN *)) |ET| 
-0.097096620442452263866073280951241  |BT| (NP (NP (NNP Gore)(POS 's))(NN campaign)(NN chairman)) |BT| (BOW (Gore *)('s *)(campaign *)(chairman *)) |BT| (BOP (NNP *)(POS *)(NN *)(NN *)) |ET| 
0.33333333333351461424953754431044  |BT| (NP (NNP Duma)(NN speaker)(NNP Gennady)(NNP Seleznyov)) |BT| (BOW (Duma *)(speaker *)) |BT| (BOP (NNP *)(NN *)) |ET| 
-0.081296478812324879381634445962845  |BT| (NP (JJ oil-rich)(NNP Tabasco)(NN state)) |BT| (BOW (Tabasco *)(state *)) |BT| (BOP (NNP *)(NN *)) |ET| 
0.33333333333351461424953754431044  |BT| (NP (NP (NNP Yugoslavia)(POS 's))(ADJP (RB newly)(VBN elected))(NN president)) |BT| (BOW (Yugoslavia *)('s *)(newly *)(elected *)(president *)) |BT| (BOP (NNP *)(POS *)(NN *)(VBD *)(NN *)) |ET| 
-0.09801557712816075240702673454507  |BT| (NP (NP (NNP Belgrade)(POS 's))(ADJP (RB newly)(VBN installed))(NN government)) |BT| (BOW (Belgrade *)('s *)(newly *)(installed *)(government *)) |BT| (BOP (NNP *)(POS *)(JJ *)(JJ *)(NN *)) |ET| 
0.33333333333351461424953754431044  |BT| (NP (NNP Nielsen)(NNS executives)) |BT| (BOW (Nielsen *)(executives *)) |BT| (BOP (NNP *)(NNS *)) |ET| 
-0.11386967063022861157417509048173  |BT| (NP (NNP Kostunica)(NNS supporters)) |BT| (BOW (Kostunica *)(supporters *)) |BT| (BOP (NNP *)(NNS *)) |ET| 
-0.0041827190612101858985250046885085  |BT| (NP (NP (NNP Iran)(POS 's))(JJ only)(JJ Jewish)(NN legislator)) |BT| (BOW (Jewish *)(legislator *)) |BT| (BOP (JJ *)(NN *)) |ET| 
0.33333333333351461424953754431044  |BT| (NP (NNP Oklahoma)(NNP State)(JJ athletic)(NN director)(NNP Terry)(NNP Don)(NNP Phillips)) |BT| (BOW (Oklahoma *)(State *)(athletic *)(director *)) |BT| (BOP (NNP *)(NNP *)(JJ *)(NN *)) |ET| 
-0.16336747693532976954955415749282  |BT| (NP (NNP Oklahoma)(NNP State)(JJ athletic)(NN director)(NNP Terry)(NNP Don)(NNP Phillips)) |BT| (BOW (Oklahoma *)(State *)(athletic *)(director *)(Terry *)(Don *)(Phillips *)) |BT| (BOP (NNP *)(NNP *)(JJ *)(NN *)(NNP *)(NNP *)(NNPS *)) |ET| 
0.33333333333351461424953754431044  |BT| (NP (NNP Israeli)(NNP Prime)(NNP Minister)(NNP Ehud)(NNP Barak)(POS 's)) |BT| (BOW (Israeli *)(Prime *)(Minister *)) |BT| (BOP (NNP *)(NNP *)(NNP *)) |ET| 
-0.14364611691380360647407599117287  |BT| (NP (JJ outgoing)(NNP Tabasco)(NNP Gov.)(NNP Roberto)(NNP Madrazo)) |BT| (BOW (Gov. *)(Roberto *)(Madrazo *)) |BT| (BOP (NNP *)(NNP *)(NNP *)) |ET| 
0.33333333333351461424953754431044  |BT| (NP (JJ Rutgers)(JJ athletic)(NN director)(NNP Robert)(NNP E.)(NNP Mulcahy)) |BT| (BOW (Rutgers *)(athletic *)(director *)) |BT| (BOP (NNS *)(JJ *)(NN *)) |ET| 
-0.18978653760161329211442193809489  |BT| (NP (JJ Rutgers)(JJ athletic)(NN director)(NNP Robert)(NNP E.)(NNP Mulcahy)) |BT| (BOW (Rutgers *)(athletic *)(director *)(Robert *)(E. *)(Mulcahy *)) |BT| (BOP (NNS *)(JJ *)(NN *)(NNP *)(NNP *)(NNP *)) |ET| 
0.33333333333351461424953754431044  |BT| (NP (NNP Warren)(NN police)(NNP Chief)(NNP James)(NNP Vohs)) |BT| (BOW (police *)(Chief *)) |BT| (BOP (NNP *)(NNP *)) |ET| 
-0.26703447850943562436043521302054  |BT| (NP (NNP Warren)(NN police)(NNP Chief)(NNP James)(NNP Vohs)) |BT| (BOW (Warren *)(police *)) |BT| (BOP (NNP *)(NNP *)) |ET| 
0.33333333333351461424953754431044  |BT| (NP (NNP LA)(NNP Xtreme)(NN coach)(NNP Al)(NNP Luginbill)) |BT| (BOW (LA *)(Xtreme *)(coach *)) |BT| (BOP (NNP *)(NNP *)(NN *)) |ET| 
-0.042546802794032223538067682966357  |BT| (NP (NNP LA)(NNP Xtreme)(NN coach)(NNP Al)(NNP Luginbill)) |BT| (BOW (coach *)(Al *)(Luginbill *)) |BT| (BOP (NN *)(NNP *)(NNP *)) |ET| 
0.33333333333351461424953754431044  |BT| (NP (NNP Mexico)(NNP President)(NNP Vicente)(NNP Fox)) |BT| (BOW (Mexico *)(President *)) |BT| (BOP (NNP *)(NNP *)) |ET| 
-0.16250474059105152191406773454219  |BT| (NP (NNP Serbian)(NNP President)(NNP Milan)(NNP Milutinovic)) |BT| (BOW (Serbian *)(President *)) |BT| (BOP (JJ *)(NN *)) |ET| 
0.33333333333351461424953754431044  |BT| (NP (NNP Junta)(NN leader)(NNP Gen.)(NNP Robert)(NNP Guei)) |BT| (BOW (Junta *)(leader *)) |BT| (BOP (NNP *)(NN *)) |ET| 
-0.1157659811649714015624468288479  |BT| (NP (NNP Junta)(NN leader)(NNP Gen.)(NNP Robert)(NNP Guei)) |BT| (BOW (leader *)(Gen. *)) |BT| (BOP (NN *)(NNP *)) |ET| 
-0.067339460581755855583807601760782  |BT| (NP (DT The)(JJ Israeli)(NN army)) |BT| (BOW (Israeli *)(army *)) |BT| (BOP (NNP *)(NN *)) |ET| 
-0.33333333333351461424953754431044  |BT| (NP (NNP Russian)(NNP Foreign)(NNP Minister)(NNP Ivanov)) |BT| (BOW (Minister *)(Ivanov *)) |BT| (BOP (NNP *)(NNP *)) |ET| 
0.33333333333351461424953754431044  |BT| (NP (NP (JJ supporting)(NNP Yugoslavia)(POS 's))(ADJP (RB newly)(VBN elected))(NNS leaders)) |BT| (BOW (Yugoslavia *)('s *)(newly *)(elected *)(leaders *)) |BT| (BOP (NNP *)(POS *)(NN *)(VBD *)(NNS *)) |ET| 
-0.1013470449053678751338836150353  |BT| (NP (NP (NP (NNP Yugoslavia)(POS 's))(ADJP (RB newly)(VBN elected))(NN president))(CC and)(NP (DT the)(JJ victorious)(JJ pro-democracy)(NN coalition))) |BT| (BOW (Yugoslavia *)('s *)(newly *)(elected *)(president *)(and *)(the *)(victorious *)(pro-democracy *)(coalition *)) |BT| (BOP (NNP *)(POS *)(NN *)(VBD *)(NN *)(CC *)(DT *)(JJ *)(NN *)(NN *)) |ET| 
0.33333333333351461424953754431044  |BT| (NP (NNP Russian)(NNP Foreign)(NNP Minister)(NNP Ivanov)) |BT| (BOW (Russian *)(Foreign *)(Minister *)) |BT| (BOP (JJ *)(NNP *)(NNP *)) |ET| 
-0.33333333333351461424953754431044  |BT| (NP (NNP French)(NNP Foreign)(NNP Minister)(NNP Hubert)(NNP Vedrine)) |BT| (BOW (French *)(Foreign *)(Minister *)) |BT| (BOP (JJ *)(NNP *)(NNP *)) |ET| 
0.33333333333351461424953754431044  |BT| (NP (NNP Texas)(NNP Gov.)(NNP George)(NNP W.)(NNP Bush)) |BT| (BOW (Texas *)(Gov. *)) |BT| (BOP (NNP *)(NNP *)) |ET| 
-0.19876632228026466786552362009388  |BT| (NP (DT the)(NNP Texas)(NNP House)) |BT| (BOW (Texas *)(House *)) |BT| (BOP (NNP *)(NNP *)) |ET| 
0.33333333333351461424953754431044  |BT| (NP (ADJP (RB reasonably)(JJ optimistic))(NNP ,'')(NNP French)(NNP Prime)(NNP Minister)(NNP Lionel)(NNP Jospin)) |BT| (BOW (French *)(Prime *)(Minister *)) |BT| (BOP (JJ *)(NNP *)(NNP *)) |ET| 
-0.12563769568160426670644369551155  |BT| (NP (NNP George)(NNP W.)(NNP Bush)(CC and)(NNP Democratic)(NNP Vice)(NNP President)(NNP Al)(NNP Gore)) |BT| (BOW (Democratic *)(Vice *)(President *)) |BT| (BOP (JJ *)(NNP *)(NNP *)) |ET| 
0.33333333333351461424953754431044  |BT| (NP (DT the)(JJ former)(NNP Coca-Cola)(NN executive)) |BT| (BOW (Coca-Cola *)(executive *)) |BT| (BOP (NNP *)(NN *)) |ET| 
-0.063948185989844849586027919485787  |BT| (NP (DT an)(JJ Israeli)(NN border)(NN policeman)) |BT| (BOW (Israeli *)(border *)) |BT| (BOP (NNP *)(NN *)) |ET| 
0.33333333333351461424953754431044  |BT| (NP (NNP Vice)(NNP President)(NNP Al)(NNP Gore)(CC or)(NNP Texas)(NNP Gov)) |BT| (BOW (Texas *)(Gov *)) |BT| (BOP (NNP *)(NNP *)) |ET| 
-0.16282546876444539685202528289665  |BT| (NP (PRP$ his)(JJ central)(NNP Texas)(NN ranch)) |BT| (BOW (Texas *)(ranch *)) |BT| (BOP (NNP *)(NN *)) |ET| 
0.33333333333351461424953754431044  |BT| (NP (NN league)(NN president)(NNP Basil)(NNP DeVito)) |BT| (BOW (league *)(president *)) |BT| (BOP (NN *)(NN *)) |ET| 
-0.035784166191519542477017523651739  |BT| (NP (DT the)(NN league)(NN office)) |BT| (BOW (league *)(office *)) |BT| (BOP (NN *)(NN *)) |ET| 
0.33333333333351461424953754431044  |BT| (NP (NNP TCU)(NN coach)(NNP Dennis)(NNP Franchione)) |BT| (BOW (TCU *)(coach *)) |BT| (BOP (NNP *)(NN *)) |ET| 
-0.1726905624383935911048126854439  |BT| (NP (NNP TCU)(NN coach)(NNP Dennis)(NNP Franchione)) |BT| (BOW (TCU *)(coach *)(Dennis *)(Franchione *)) |BT| (BOP (NNP *)(NN *)(NNP *)(NNP *)) |ET| 
0.33333333333351461424953754431044  |BT| (NP (NNP Arizona)(NNP State)(JJ athletic)(NN director)(NNP Gene)(NNP Smith)) |BT| (BOW (Arizona *)(State *)(athletic *)(director *)) |BT| (BOP (NNP *)(NNP *)(JJ *)(NN *)) |ET| 
-0.18916050363519434918124773048476  |BT| (NP (NNP Arizona)(NNP State)(JJ athletic)(NN director)(NNP Gene)(NNP Smith)) |BT| (BOW (Arizona *)(State *)(athletic *)(director *)(Gene *)(Smith *)) |BT| (BOP (NNP *)(NNP *)(JJ *)(NN *)(IN *)(NNP *)) |ET| 
0.33333333333351461424953754431044  |BT| (NP (NNP MLS)(NNS owners)) |BT| (BOW (MLS *)(owners *)) |BT| (BOP (NNP *)(NNS *)) |ET| 
-0.067439381961108171847918413277512  |BT| (NP (NNP U.N.)(NNS arms)(NNS inspectors)) |BT| (BOW (arms *)(inspectors *)) |BT| (BOP (NNS *)(NNS *)) |ET| 
0.33333333333351461424953754431044  |BT| (NP (NNP Boise)(NNP State)(NN coach)(NNP Dirk)(NNP Koetter)) |BT| (BOW (Boise *)(State *)(coach *)) |BT| (BOP (NNP *)(NNP *)(NN *)) |ET| 
-0.1228784949013867339173700088395  |BT| (NP (DT a)(NNP College)(NNP Board)(NN spokesman)) |BT| (BOW (College *)(Board *)(spokesman *)) |BT| (BOP (NNP *)(NNP *)(NN *)) |ET| 
0.33333333333351461424953754431044  |BT| (NP (NNP Police)(NNP Chief)(NNP James)(NNP Vohs)) |BT| (BOW (Police *)(Chief *)) |BT| (BOP (NNP *)(NNP *)) |ET| 
-0.11750702927571396450012741752289  |BT| (NP (NNP State)(NNP Senate)(NNS candidates)) |BT| (BOW (State *)(Senate *)) |BT| (BOP (NNP *)(NNP *)) |ET| 
0.33333333333351461424953754431044  |BT| (NP (NN school)(NN president)(NNP Michael)(NNP Adams)) |BT| (BOW (school *)(president *)) |BT| (BOP (NN *)(NN *)) |ET| 
-0.15351704089951168086258803668898  |BT| (NP (NN school)(NN president)(NNP Michael)(NNP Adams)) |BT| (BOW (school *)(president *)(Michael *)(Adams *)) |BT| (BOP (NN *)(NN *)(NNP *)(NNP *)) |ET| 
0.33333333333351461424953754431044  |BT| (NP (NNP ,'')(NNP Swedish)(NNP Prime)(NNP Minister)(NNP Goeran)(NNP Persson)) |BT| (BOW (Swedish *)(Prime *)(Minister *)) |BT| (BOP (JJ *)(NNP *)(NNP *)) |ET| 
-0.14524514334636440260339895758079  |BT| (NP (NNP ,'')(NNP Swedish)(NNP Prime)(NNP Minister)(NNP Goeran)(NNP Persson)) |BT| (BOW (Swedish *)(Prime *)(Minister *)(Goeran *)(Persson *)) |BT| (BOP (JJ *)(NNP *)(NNP *)(NNP *)(NNP *)) |ET| 
-0.13872377796856327769603467459092  |BT| (NP (ADJP (RB reasonably)(JJ optimistic))(NNP ,'')(NNP French)(NNP Prime)(NNP Minister)(NNP Lionel)(NNP Jospin)) |BT| (BOW (French *)(Prime *)(Minister *)(Lionel *)(Jospin *)) |BT| (BOP (JJ *)(NNP *)(NNP *)(NNP *)(NNP *)) |ET| 
0.33333333333351461424953754431044  |BT| (NP (NNP Texas)(NN governor)) |BT| (BOW (Texas *)(governor *)) |BT| (BOP (NNP *)(NN *)) |ET| 
-0.058327629515141657390309148922825  |BT| (NP (DT the)(JJ first)(NNP XFL)(NN player)) |BT| (BOW (XFL *)(player *)) |BT| (BOP (NN *)(NN *)) |ET| 
0.33333333333351461424953754431044  |BT| (NP (NNP Missouri)(NNP Gov)) |BT| (BOW (Missouri *)(Gov *)) |BT| (BOP (NNP *)(NNP *)) |ET| 
-0.082342009194859094867169346798619  |BT| (NP (NNP Florida)(NN developer)(NNP Al)(NNP Hoffman)) |BT| (BOW (Florida *)(developer *)) |BT| (BOP (NNP *)(NN *)) |ET| 
0.33333333333351461424953754431044  |BT| (NP (NNP Egyptian)(NNP President)(NNP Hosni)(NNP Mubarak)) |BT| (BOW (Egyptian *)(President *)) |BT| (BOP (NNP *)(NNP *)) |ET| 
-0.096921136156612200385218613973848  |BT| (NP (NP (NNP Rod)(NNP Eddington))(, ,)(NP (NP (NNP British)(NNP Airways)(POS '))(ADJP (RB recently)(JJ appointed))(NN chief)(NN executive))) |BT| (BOW (Rod *)(Eddington *)(, *)(British *)(Airways *)(' *)(recently *)(appointed *)(chief *)(executive *)) |BT| (BOP (NNP *)(NNP *)(, *)(JJ *)(NNS *)(POS *)(RB *)(VBN *)(JJ *)(NN *)) |ET| 
0.33333333333351461424953754431044  |BT| (NP (NNP Texas)(NNP Gov)(. .)) |BT| (BOW (Texas *)(Gov *)) |BT| (BOP (NNP *)(NNP *)) |ET| 
-0.089407685719477728025772478304134  |BT| (NP (NNP U.S.)(NNP Ambassador)(NNP Richard)(NNP Holbrooke)) |BT| (BOW (U.S. *)(Ambassador *)) |BT| (BOP (NNP *)(NNP *)) |ET| 
-0.10477115231792044625080961850472  |BT| (NP (JJ Syrian)(NN -Israeli)(NN peace)(NNS negotiations)) |BT| (BOW (Syrian *)(-Israeli *)) |BT| (BOP (JJ *)(JJ *)) |ET| 
-0.12735306272768767699155034733849  |BT| (NP (JJ Republican)(NN nominee)(NNP Texas)(NNP Gov)) |BT| (BOW (nominee *)(Texas *)) |BT| (BOP (NNP *)(NNP *)) |ET| 
-0.1323697658952497913098511617136  |BT| (VP (VB elect)(NP (DT the)(JJ next)(NN lieutenant)(NN governor))(PP (IN if)(NP (NNP Gov)))) |BT| (BOW (governor *)(if *)(Gov *)) |BT| (BOP (NN *)(IN *)(NNP *)) |ET| 
-0.079100940089917318176482297076291  |BT| (NP (NNP Communist)(NNS leaders)(NNP Vladimir)(NNP Lenin)(CC and)(NNP Josef)(NNP Stalin)) |BT| (BOW (leaders *)(Vladimir *)(Lenin *)) |BT| (BOP (NNS *)(PRP$ *)(NNP *)) |ET| 
-0.17617643804050236999714229568781  |BT| (NP (NNP Security)(NNP Council)(JJ fact-finding)(NN team)) |BT| (BOW (Security *)(Council *)(fact-finding *)(team *)) |BT| (BOP (NNP *)(NNP *)(JJ *)(NN *)) |ET| 
-0.059069606881379778384744128061357  |BT| (S (NP (NNP MLS)(NNS owners))(VP (VBD claimed)(SBAR (IN that)(S (NP (PRP they))(VP (VBP have)(VP (VBN lost)(NP (NP (QP (CD $250)(CD million)))(PP (IN since)(NP (CD 1995)))(, ,)(ADVP (RB even)))(PP (IN without)(NP (NN competition))))))))(. .)) |BT| (BOW (MLS *)(owners *)(claimed *)(that *)(they *)) |BT| (BOP (NNS *)(NNS *)(VBD *)(IN *)(PRP *)) |ET| 
-0.11424303784776911052656345191281  |BT| (NP (NNP Indonesian)(NNP West)(NNP Timor)) |BT| (BOW (Indonesian *)(West *)(Timor *)) |BT| (BOP (JJ *)(NNP *)(NNP *)) |ET| 
-0.075302483215412760464424479778245  |BT| (S (NP (NNP Nixon))(VP (VBD was)(VP (VBN elected)(NP (NP (NN president))(PP (IN in)(NP (CD 1968))))))) |BT| (BOW (Nixon *)(was *)(elected *)(president *)) |BT| (BOP (NNP *)(VBD *)(VBN *)(NN *)) |ET| 
-0.13046804548690463243509896074102  |BT| (NP (NNP President)(NNP Carter)(CC and)(NNP Ronald)(NNP Reagan)) |BT| (BOW (President *)(Carter *)) |BT| (BOP (NNP *)(NNP *)) |ET| 
-0.098085709793621855823175792465918  |BT| (NP (NP (NNS backers))(PP (IN of)(NP (JJ former)(NN leader)(NNP Slobodan)(NNP Milosevic)))) |BT| (BOW (backers *)(of *)(former *)(leader *)) |BT| (BOP (NNS *)(IN *)(JJ *)(NN *)) |ET| 
-0.07890885562264640662455406072695  |BT| (NP (NNP Texas)(NNP Gov.)(NNP George)(NNP W.)(NNP Bush)) |BT| (BOW (Texas *)(Gov. *)(George *)(W. *)(Bush *)) |BT| (BOP (NNP *)(NNP *)(NNP *)(NNP *)(NNP *)) |ET| 
-0.089526788098372361845989075845864  |BT| (NP (NN league)(NN president)(NNP Basil)(NNP DeVito)) |BT| (BOW (president *)(Basil *)(DeVito *)) |BT| (BOP (NN *)(NNP *)(NNP *)) |ET| 
-0.08847848520160064844652936244529  |BT| (NP (NNP Tennessee)(NNS constituents)) |BT| (BOW (Tennessee *)(constituents *)) |BT| (BOP (NNP *)(NNS *)) |ET| 
-0.057370036652940763211017127787272  |BT| (NP (NP (PRP$ his)(JJ foreign)(NN policy)(NN debut))(PP (IN as)(NP (NP (NNP Syria)(POS 's))(NN president)))) |BT| (BOW (his *)(foreign *)(policy *)(debut *)(as *)(Syria *)('s *)(president *)) |BT| (BOP (PRP$ *)(JJ *)(NN *)(NN *)(IN *)(NNP *)(POS *)(NN *)) |ET| 
-0.083932568331206353073881132331735  |BT| (NP (NNP ,'')(NNP Swedish)(NNP Prime)(NNP Minister)(NNP Goeran)(NNP Persson)) |BT| (BOW (Minister *)(Goeran *)(Persson *)) |BT| (BOP (NNP *)(NNP *)(NNP *)) |ET| 
-0.087549996980585714778655415102548  |BT| (NP (JJ former)(NN chief)(NN executive)(NNP Bob)(NNP Ayling)) |BT| (BOW (executive *)(Bob *)(Ayling *)) |BT| (BOP (NN *)(NN *)(VBG *)) |ET| 
-0.090705854504104191371460785831005  |BT| (NP (JJ North)(JJ -South)(NNS divisions)) |BT| (BOW (North *)(-South *)) |BT| (BOP (NNP *)(NNP *)) |ET| 
-0.052494914057009664509756419192854  |BT| (S (PP (IN As)(NP (NP (DT the)(NNP EU)(POS 's))(JJ current)(NN chairman)))(, ,)(NP (PRP he))(VP (VBZ 's)(VP (VBN supposed)(S (VP (TO to)(VP (VB broker)(NP (DT a)(NN compromise)))))))(. .)) |BT| (BOW (EU *)('s *)(current *)(chairman *)(, *)(he *)) |BT| (BOP (NNP *)(POS *)(JJ *)(NN *)(, *)(PRP *)) |ET| 
-0.13577370455636073032223976042587  |BT| (NP (NNP Mexico)(NNP President)(NNP Vicente)(NNP Fox)) |BT| (BOW (President *)(Vicente *)(Fox *)) |BT| (BOP (NNP *)(NNP *)(NNP *)) |ET| 
-0.099692546005027429800726679332001  |BT| (NP (NP (NP (NNP Indonesia)(POS 's))(JJ first)(ADJP (RB democratically)(VBN chosen))(NN head))(PP (IN of)(NP (NP (NN state))(PP (IN in)(NP (CD four)(NNS decades)))))) |BT| (BOW (Indonesia *)('s *)(first *)(democratically *)(chosen *)(head *)(of *)(state *)) |BT| (BOP (NNP *)(POS *)(JJ *)(JJ *)(JJ *)(NN *)(IN *)(NN *)) |ET| 
-0.10141057637917511025094086107856  |BT| (NP (DT The)(JJ somber)(NNP Colorado)(NNP Avalanche)(NN goalie)) |BT| (BOW (Colorado *)(Avalanche *)(goalie *)) |BT| (BOP (NNP *)(NNP *)(NN *)) |ET| 
-0.059123267776097256087641795829768  |BT| (NP (NP (DT the)(JJ Arab)(NN world)(POS 's))(JJ first)(NNS ladies)) |BT| (BOW (world *)('s *)(first *)(ladies *)) |BT| (BOP (NN *)(POS *)(JJ *)(NNS *)) |ET| 
-0.13307904578180029808720519213239  |BT| (NP (NNP Israeli)(NNP Prime)(NNP Minister)(NNP Ehud)(NNP Barak)(POS 's)) |BT| (BOW (Israeli *)(Prime *)(Minister *)(Ehud *)(Barak *)) |BT| (BOP (NNP *)(NNP *)(NNP *)(NNP *)(NNP *)) |ET| 
-0.065656665593996882401839343401662  |BT| (NP (NP (DT the)(NN ruling)(NN party)(POS 's))(NN representative)) |BT| (BOW (party *)('s *)(representative *)) |BT| (BOP (NN *)(POS *)(NN *)) |ET| 
-0.091243923368681159602466834712686  |BT| (NP (NNP Patrick)(NNP ,'')(NN defenseman)(NNP Ray)(NNP Bourque)) |BT| (BOW (defenseman *)(Ray *)(Bourque *)) |BT| (BOP (JJ *)(NNP *)(NNP *)) |ET| 
-0.068957794571504013592111448360811  |BT| (NP (PRP$ Her)(NN family)) |BT| (BOW (Her *)(family *)) |BT| (BOP (NNP *)(NN *)) |ET| 
-0.091135898926263239627765244676993  |BT| (NP (NP (NNP North)(NNP Rhine-Westphalia)(POS 's))(NN capital)(NNP Duesseldorf)) |BT| (BOW (capital *)(Duesseldorf *)) |BT| (BOP (NN *)(NN *)) |ET| 
-0.072657003367797304282937886910076  |BT| (NP (DT the)(JJ principal)(NNP Yugoslav)(NN republic)) |BT| (BOW (Yugoslav *)(republic *)) |BT| (BOP (NNP *)(NN *)) |ET| 
-0.029798516954296173919747303671102  |BT| (NP (NNP BELGRADE)(, ,)(NNP Yugoslavia)(NNP [AP)(NNP ])) |BT| (BOW (Yugoslavia *)((AP *)) |BT| (BOP (NNP *)(NNP *)) |ET| 
-0.066632770110043926248266643597162  |BT| (NP (NNP NFL)(NN lawyer)(NNP David)(NNP Proper)) |BT| (BOW (NFL *)(lawyer *)) |BT| (BOP (NNP *)(NN *)) |ET| 
-0.097406057019316982792389580936288  |BT| (NP (NP (NP (DT the)(NNP Democratic)(NNP National)(NNP Committee)(POS 's))(JJ national)(NN chairman))(, ,)(NP (NNP Joe)(NNP Andrew))) |BT| (BOW (Democratic *)(National *)(Committee *)('s *)(national *)(chairman *)(, *)(Joe *)(Andrew *)) |BT| (BOP (JJ *)(NNP *)(NNP *)(POS *)(JJ *)(NN *)(, *)(NNP *)(NNP *)) |ET| 
-0.070927311751703317477257826340065  |BT| (NP (JJ Golan)(NN land)) |BT| (BOW (Golan *)(land *)) |BT| (BOP (NNP *)(NN *)) |ET| 
-0.068929833814355051524458417588903  |BT| (NP (DT an)(JJ alleged)(JJ Palestinian)(JJ terrorist)(NN base)(NNS months)) |BT| (BOW (terrorist *)(base *)) |BT| (BOP (NN *)(NN *)) |ET| 
-0.12130174607195096103673392917699  |BT| (NP (NN comment)(NN ,'')(NNP Spanish)(NNP Foreign)(NNP Minister)(NNP Josep)(NNP Pique)) |BT| (BOW (Minister *)(Josep *)(Pique *)) |BT| (BOP (NNP *)(NNP *)(NNP *)) |ET| 
-0.097192557456860423359401579546102  |BT| (NP (ADJP (JJ well-known))(JJ Egyptian)(NN actress)(NNP Madeha)(NNP Yusri)) |BT| (BOW (Egyptian *)(actress *)) |BT| (BOP (JJ *)(NN *)) |ET| 
-0.18940743862080830495209227137821  |BT| (NP (NNP Boise)(NNP State)(NN coach)(NNP Dirk)(NNP Koetter)) |BT| (BOW (Boise *)(State *)(coach *)(Dirk *)(Koetter *)) |BT| (BOP (NNP *)(NNP *)(NN *)(NNP *)(NNP *)) |ET| 
-0.097521006657388900618066429615283  |BT| (NP (DT The)(JJ Egyptian)(JJ -born)(NN Palestinian)) |BT| (BOW (Egyptian *)(-born *)(Palestinian *)) |BT| (BOP (JJ *)(JJ *)(JJ *)) |ET| 
-0.091043554015645775101539527440764  |BT| (NP (NN airport)(NN manager)(NNP George)(NNP Larson)) |BT| (BOW (airport *)(manager *)(George *)(Larson *)) |BT| (BOP (NN *)(NN *)(NNP *)(NNP *)) |ET| 
-0.083388818163037628505840359594004  |BT| (NP (NNP Army)(NNS officials)) |BT| (BOW (Army *)(officials *)) |BT| (BOP (NNP *)(NNS *)) |ET| 
-0.12646053985560790078324089336093  |BT| (NP (NP (NNP Indonesia)(POS 's))(JJ reformist-minded)(NNP President)(NNP Abdurrahman)(NNP Wahid)) |BT| (BOW (Indonesia *)('s *)(reformist-minded *)(President *)(Abdurrahman *)(Wahid *)) |BT| (BOP (NNP *)(POS *)(JJ *)(NN *)(NNP *)(NNP *)) |ET| 
-0.067134712128237683526066348349559  |BT| (NP (NNP Gelbard)(NN ``persona)(NN non)(NN grata)(NNS .'')) |BT| (BOW (Gelbard *)(``persona *)) |BT| (BOP (NNP *)(NNP *)) |ET| 
-0.048231250354140373093336791043839  |BT| (NP (NP (NN vice)(NN president))(PP (IN in)(NP (NP (NNP Eisenhower)(POS 's))(NN administration)))) |BT| (BOW (vice *)(president *)(in *)(Eisenhower *)('s *)(administration *)) |BT| (BOP (NN *)(NN *)(IN *)(NNP *)(POS *)(NN *)) |ET| 
-0.11308432804030613127999060907314  |BT| (NP (NNP Vice)(NNP President)(NNP Al)(NNP Gore)(CC or)(NNP Texas)(NNP Gov)) |BT| (BOW (Al *)(Gore *)(or *)(Texas *)(Gov *)) |BT| (BOP (NNP *)(NNP *)(CC *)(NNP *)(NNP *)) |ET| 
-0.080741382715488252408420066785766  |BT| (NP (NNP Phoenix)(NN radio)(NN station)(NNS KMVP)) |BT| (BOW (Phoenix *)(radio *)(station *)) |BT| (BOP (NNP *)(NNP *)(NN *)) |ET| 
-0.081762457326020068770766613397427  |BT| (NP (NNP ,'')(NN juror)(NNP Tina)(NNP Hart)) |BT| (BOW (juror *)(Tina *)(Hart *)) |BT| (BOP (JJ *)(NNP *)(NNP *)) |ET| 
-0.018220555357254086814577931363601  |BT| (NP (NP (DT the)(NN nation)(POS 's))(JJS highest)(NN court)) |BT| (BOW (nation *)('s *)(highest *)(court *)) |BT| (BOP (NN *)(POS *)(JJS *)(NN *)) |ET| 
-0.19113705305946343537826237479749  |BT| (NP (NNP Egyptian)(NNP President)(NNP Hosni)(NNP Mubarak)) |BT| (BOW (President *)(Hosni *)(Mubarak *)) |BT| (BOP (NNP *)(NNP *)(NNP *)) |ET| 
-0.1010652677407244404150787886465  |BT| (NP (NP (NNP Yugoslavia)(POS 's))(JJ prime)(NN minister)) |BT| (BOW (Yugoslavia *)('s *)(prime *)(minister *)) |BT| (BOP (NNP *)(POS *)(JJ *)(NN *)) |ET| 
-0.035315299571242610154886421014453  |BT| (NP (NN veteran)(NNP GOP)(NNP Rep)) |BT| (BOW (GOP *)(Rep *)) |BT| (BOP (NNP *)(NNP *)) |ET| 
-0.088479289843428565731642265745904  |BT| (NP (NP (NNP Indonesia)(POS 's))(JJ second-largest)(NN city)) |BT| (BOW (Indonesia *)('s *)(second-largest *)(city *)) |BT| (BOP (NNP *)(POS *)(JJ *)(NN *)) |ET| 
-0.13093247267739507866401993396721  |BT| (NP (NNP Duma)(NN speaker)(NNP Gennady)(NNP Seleznyov)) |BT| (BOW (Duma *)(speaker *)(Gennady *)(Seleznyov *)) |BT| (BOP (NNP *)(NN *)(NNP *)(NNP *)) |ET| 
-0.080631462760648670018426287242619  |BT| (NP (NP (NP (DT the)(NN debate)(NN commission)(POS 's))(NN director))(, ,)(NP (NNP Janet)(NNP Brown))(, ,)) |BT| (BOW (commission *)('s *)(director *)(, *)(Janet *)(Brown *)) |BT| (BOP (NN *)(POS *)(NN *)(, *)(NNP *)(NNP *)) |ET| 
-0.052230120933177318076623407705483  |BT| (SBAR (WHNP (WDT which))(S (ADVP (RB recently))(VP (VBD announced)(SBAR (S (NP (PRP$ its)(NN coach))(VP (MD would)(RB not)(VP (VB be)(VP (VBG returning)(NP (JJ next)(NN season)))))))))) |BT| (BOW (which *)(recently *)(announced *)(its *)(coach *)) |BT| (BOP (WDT *)(RB *)(VBD *)(PRP$ *)(NN *)) |ET| 
-0.07691054078280505634790387148314  |BT| (NP (NNP Chicago)(NN favorite)(NNP Dick)(NNP Butkus)) |BT| (BOW (favorite *)(Dick *)(Butkus *)) |BT| (BOP (JJ *)(NNP *)(NNP *)) |ET| 
-0.016642831853265767361182980721424  |BT| (NP (NP (DT the)(NNPS Mets)(POS '))(NNS pitchers)) |BT| (BOW (Mets *)(' *)(pitchers *)) |BT| (BOP (NNS *)(POS *)(NNS *)) |ET| 
-0.065193046285297553965598638114898  |BT| (NP (NP (NNP Indonesia)(POS 's))(JJ war-torn)(JJ Aceh)(NN province)) |BT| (BOW (Aceh *)(province *)) |BT| (BOP (NNP *)(NN *)) |ET| 
-0.069486146249067376468033785386069  |BT| (NP (JJ Israeli)(NN rocket)(NNS attacks)) |BT| (BOW (Israeli *)(rocket *)) |BT| (BOP (NNP *)(NN *)) |ET| 
-0.13719458892354213785935712621722  |BT| (NP (JJ Military)(NNS leaders)) |BT| (BOW (Military *)(leaders *)) |BT| (BOP (NNP *)(NNS *)) |ET| 
-0.058551623630665641795367548638751  |BT| (NP (DT The)(NNP BOJ)(NN board)) |BT| (BOW (BOJ *)(board *)) |BT| (BOP (NNP *)(NN *)) |ET| 
-0.096366485381216823724592757116625  |BT| (NP (NNP Communist)(NNS leaders)(NNP Vladimir)(NNP Lenin)(CC and)(NNP Josef)(NNP Stalin)) |BT| (BOW (Communist *)(leaders *)(Vladimir *)(Lenin *)) |BT| (BOP (NNP *)(NNS *)(PRP$ *)(NNP *)) |ET| 
-0.06089149022915249509502189084742  |BT| (NP (NNP GOP)(JJ national)(NN committeewoman)(NNP Julie)(NNP Finley)) |BT| (BOW (GOP *)(national *)(committeewoman *)) |BT| (BOP (NNP *)(JJ *)(NN *)) |ET| 
-0.037897133871024238360725178154098  |BT| (NP (NNP Shiite)(NNPS Muslims)) |BT| (BOW (Shiite *)(Muslims *)) |BT| (BOP (NNP *)(NNP *)) |ET| 
-0.050189605234381803877674599334568  |BT| (S (NP (NNP Lieberman))(VP (VBD kept)(NP (DT the)(NN pressure))(PP (IN on)(NP (NNP Texas)(NNP Gov))))(. .)) |BT| (BOW (Lieberman *)(kept *)(the *)(pressure *)(on *)(Texas *)(Gov *)) |BT| (BOP (NNP *)(VBD *)(DT *)(NN *)(IN *)(NNP *)(NNP *)) |ET| 
-0.056596340719040807987205710105627  |BT| (NP (NP (CD two)(NNS coordinators))(: -)(NP (NP (NNP Miami)(JJ defensive)(NN coordinator)(NNP Greg)(NNP Schiano))(CC and)(NP (NNP Notre)(NNP Dame)(NN offensive)(NN coordinator)(NNP Kevin)(NNP Rogers)))) |BT| (BOW (coordinators *)(- *)(Miami *)(defensive *)(coordinator *)) |BT| (BOP (NNS *)(IN *)(NNP *)(JJ *)(NN *)) |ET| 
-0.037403548288262519760927204970358  |BT| (NP (NP (NNP Germany)(POS 's))(JJ other)(JJ far-right)(NNS parties)) |BT| (BOW (Germany *)('s *)(other *)(far-right *)(parties *)) |BT| (BOP (NNP *)(POS *)(JJ *)(JJ *)(NNS *)) |ET| 
-0.069150024584262143045876314317866  |BT| (NP (JJ postwar)(NNP Franco)(JJ -German)(NN parity)) |BT| (BOW (Franco *)(-German *)) |BT| (BOP (NNP *)(NNP *)) |ET| 
-0.055786138050572711688523952489049  |BT| (VP (VBZ calls)(PP (TO to)(NP (NNP Mulcahy)(CC and)(NNP Rutgers)(NNS sports)))(SBAR (S (NP (NP (NN information)(NN director)(NNP John)(NNP Wooding))(PP (IN by)(NP (DT The)(NNP Associated)(NNP Press))))(VP (VBD were)(RB not)(VP (ADVP (RB immediately))(VBN returned)))))) |BT| (BOW (Rutgers *)(sports *)(information *)(director *)) |BT| (BOP (NNPS *)(NNS *)(NN *)(NN *)) |ET| 
-0.085104199444536121621496249645134  |BT| (NP (NP (CD one))(PP (IN with)(NP (JJ former)(NNP Russian)(NNP Prime)(NNP Minister)(NNP Viktor)(NNP Chernomyrdin)))) |BT| (BOW (one *)(with *)(former *)(Russian *)(Prime *)(Minister *)) |BT| (BOP (CD *)(IN *)(JJ *)(NNP *)(NNP *)(NNP *)) |ET| 
-0.065951873376093636536232622802345  |BT| (NP (DT the)(JJ radical)(JJ Islamic)(NN group)(NN Hamas)) |BT| (BOW (Islamic *)(group *)) |BT| (BOP (NNP *)(NN *)) |ET| 
-0.19915185277997107804459631097416  |BT| (NP (NNP Yugoslav)(NNP President)(NNP Slobodan)(NNP Milosevic)) |BT| (BOW (President *)(Slobodan *)(Milosevic *)) |BT| (BOP (NNP *)(NNP *)(NNP *)) |ET| 
-0.12665145264471272534834156431316  |BT| (NP (NNP Junta)(NN leader)(NNP Gen.)(NNP Robert)(NNP Guei)) |BT| (BOW (Junta *)(leader *)(Gen. *)) |BT| (BOP (NNP *)(NN *)(NNP *)) |ET| 
-0.17245838825343678957224824443983  |BT| (NP (NNP President)(NNP Clinton)(POS 's)) |BT| (BOW (President *)(Clinton *)) |BT| (BOP (NNP *)(NNP *)) |ET| 
-0.056172146221460828030558332102373  |BT| (VP (VBD told)(NP (PRP them))(SBAR (IN that)(S (NP (NN school)(NN president)(NNP Michael)(NNP Adams))(VP (VBD made)(NP (DT the)(NN decision)(S (VP (TO to)(VP (VB fire)(NP (NNP Donnan)))))))))) |BT| (BOW (them *)(that *)(school *)(president *)) |BT| (BOP (PRP *)(IN *)(NN *)(NN *)) |ET| 
-0.12028597347804007022809003046859  |BT| (NP (NNP President)(NNP Bush)) |BT| (BOW (President *)(Bush *)) |BT| (BOP (NNP *)(NNP *)) |ET| 
-0.027936368753677803811186208804429  |BT| (NP (JJ international)(JJ human)(NNS rights)(NNS groups)) |BT| (BOW (human *)(rights *)(groups *)) |BT| (BOP (JJ *)(NNS *)(NNS *)) |ET| 
-0.042718560739723056285388480546317  |BT| (NP (NN hospital)(NN spokeswoman)(NNP Rebecca)(NNP O'Grady)) |BT| (BOW (hospital *)(spokeswoman *)) |BT| (BOP (JJ *)(NN *)) |ET| 
-0.05737679102325193153388838140927  |BT| (NP (JJ German)(NN police)(NNS raids)) |BT| (BOW (German *)(police *)) |BT| (BOP (NNP *)(NN *)) |ET| 
-0.053977603691465828039675045602053  |BT| (NP (NP (NNP Syria)(POS 's))(NN government)(NN -run)(NNS media)) |BT| (BOW (Syria *)('s *)(government *)) |BT| (BOP (NNP *)(POS *)(NN *)) |ET| 
-0.062447700743487086216809700545127  |BT| (NP (NNP Deputy)(NNP Prime)(NNP Minister)(NNP Tareq)(NNP Aziz)) |BT| (BOW (Minister *)(Tareq *)(Aziz *)) |BT| (BOP (NNP *)(NNP *)(NNP *)) |ET| 
-0.038835118365182066946239558546949  |BT| (S (NP (DT Every)(NN president))(VP (VBZ has)(VP (VBN had)(NP (PRP$ his)(NN turn))(PP (IN under)(NP (NP (NNP Herblock)(POS 's))(NN pen)))))(. .)) |BT| (BOW (president *)(has *)(had *)(his *)) |BT| (BOP (NN *)(VBZ *)(VBN *)(PRP$ *)) |ET| 
-0.075307961278845869657061484758742  |BT| (NP (DT the)(NNP Miami)(NNP Fusion)(NN goalkeeper)(CC and)(NN player)(NN representative)) |BT| (BOW (Miami *)(Fusion *)(goalkeeper *)) |BT| (BOP (NNP *)(NNP *)(NN *)) |ET| 
-0.056402131195322384449308827925051  |BT| (NP (NP (DT the)(NNP EU)(POS 's))(JJ policy-setting)(NNS councils)) |BT| (BOW (EU *)('s *)(policy-setting *)(councils *)) |BT| (BOP (NNP *)(POS *)(JJ *)(NNS *)) |ET| 
-0.042358501651412618083103467370165  |BT| (NP (DT a)(JJ .357-caliber)(NNP Magnum)(NN revolver)) |BT| (BOW (Magnum *)(revolver *)) |BT| (BOP (NNP *)(NN *)) |ET| 
-0.035542745577248638366718580527959  |BT| (NP (PRP$ its)(NNP Oldsmobile)(NN division)) |BT| (BOW (Oldsmobile *)(division *)) |BT| (BOP (JJ *)(NN *)) |ET| 
-0.09202242349227882090012542448676  |BT| (NP (NP (NNP Israeli)(NNP Prime)(NNP Minister)(NNP Ehud)(NNP Barak))(CC and)(NP (JJ Palestinian)(NN leader)(NNP Yasser)(NNP Arafat))) |BT| (BOW (Israeli *)(Prime *)(Minister *)(Ehud *)(Barak *)(and *)(Palestinian *)(leader *)) |BT| (BOP (NNP *)(NNP *)(NNP *)(NNP *)(NNP *)(CC *)(NNP *)(NN *)) |ET| 
-0.053984765151064317834084249625448  |BT| (NP (DT A)(NN car)(NN bomb)) |BT| (BOW (car *)(bomb *)) |BT| (BOP (NN *)(NN *)) |ET| 
-0.040817951353024642391353893344785  |BT| (NP (JJ former)(NNP NFL)(NNS first-rounders)) |BT| (BOW (NFL *)(first-rounders *)) |BT| (BOP (NNP *)(NNS *)) |ET| 
-0.028592797232331879087041670572944  |BT| (S (NP (NNPS Americans))(VP (VBP elect)(NP (DT a)(JJ new)(NN president))(NP (NNP Nov)))) |BT| (BOW (Americans *)(elect *)(a *)(new *)(president *)) |BT| (BOP (NNPS *)(VB *)(DT *)(JJ *)(NN *)) |ET| 
-0.072987727476224728562215204874519  |BT| (NP (NNP Stars)(NN center)(NNP Mike)(NNP Modano)) |BT| (BOW (center *)(Mike *)(Modano *)) |BT| (BOP (JJ *)(NNP *)(NNP *)) |ET| 
-0.090688341176534292831235006815405  |BT| (NP (NP (PRP$ his)(NN nation)(POS 's))(NN bureaucracy)) |BT| (BOW (nation *)('s *)(bureaucracy *)) |BT| (BOP (NN *)(POS *)(NN *)) |ET| 
-0.14204464358127330547709732400108  |BT| (NP (NN league)(NN president)(NNP Basil)(NNP DeVito)) |BT| (BOW (league *)(president *)(Basil *)(DeVito *)) |BT| (BOP (NN *)(NN *)(NNP *)(NNP *)) |ET| 
-0.030185159363355897055303245224422  |BT| (NP (DT the)(NN motorcycle)(NN magazine)(NNP Cycle)(NNP World)) |BT| (BOW (motorcycle *)(magazine *)) |BT| (BOP (NN *)(NN *)) |ET| 
-0.039164746803876632208485375485907  |BT| (VP (VBD was)(ADJP (JJ honored))(NP (JJ last)(NN week))(PP (IN by)(NP (DT the)(NNP Pittsburgh)(JJ -based)(NNP Carnegie)(NNP Hero)(NNP Fund)(NNP Commission)))(, ,)(VP (VBN established)(PP (IN in)(NP (CD 1904)))(PP (IN by)(NP (NNP Andrew)(NNP Carnegie)))(S (VP (TO to)(VP (VB recognize)(NP (NP (NNS acts))(PP (IN of)(NP (NN heroism))))))))) |BT| (BOW (Pittsburgh *)(-based *)(Carnegie *)(Hero *)(Fund *)(Commission *)(, *)(established *)(in *)(1904 *)(by *)(Andrew *)(Carnegie *)) |BT| (BOP (NNP *)(JJ *)(NNP *)(NNP *)(NNP *)(NNP *)(, *)(VBN *)(IN *)(CD *)(IN *)(NNP *)(NNP *)) |ET| 
-0.036904194478104702936693826131886  |BT| (NP (DT a)(JJ large)(JJ blue-collar)(NNP Detroit)(NN suburb)) |BT| (BOW (Detroit *)(suburb *)) |BT| (BOP (NN *)(NN *)) |ET| 
-0.069646129480665577848874647770572  |BT| (NP (ADJP (JJ kindness)('' '')(PP (IN by)(NP (NP (DT the)(NNP Taliban)(POS 's))(JJ supreme)(NN leader))))(NNP Mullah)(NNP Mohammed)(NNP Omar)) |BT| (BOW (Taliban *)('s *)(supreme *)(leader *)(Mullah *)(Mohammed *)(Omar *)) |BT| (BOP (NNP *)(POS *)(NN *)(NN *)(NNP *)(NNP *)(NNP *)) |ET| 
-0.044219192178649668889534041227307  |BT| (NP (NP (NN college)(NN football)(POS 's))(JJS most)(JJ storied)(NNS programs)) |BT| (BOW (college *)(football *)('s *)(most *)(storied *)(programs *)) |BT| (BOP (NN *)(NN *)(POS *)(JJS *)(JJ *)(NNS *)) |ET| 
-0.046849413716527087137020401996779  |BT| (NP (QP (CD 137)(CD Shiite))(JJ Muslim)(NNS prisoners)) |BT| (BOW (Shiite *)(Muslim *)) |BT| (BOP (NNP *)(NNP *)) |ET| 
-0.066721266033466439249188795201917  |BT| (NP (NP (NNP Tabasco)(POS 's))(JJ electoral)(NN institute)) |BT| (BOW (Tabasco *)('s *)(electoral *)(institute *)) |BT| (BOP (NNP *)(POS *)(JJ *)(NN *)) |ET| 
-0.077433401085133204966304276695155  |BT| (NP (NNP Mexico)(NNP President)(NNP Vicente)(NNP Fox)) |BT| (BOW (Mexico *)(President *)(Vicente *)(Fox *)) |BT| (BOP (NNP *)(NNP *)(NNP *)(NNP *)) |ET| 
-0.067427955814234372122761840273597  |BT| (NP (NP (PRP$ his)(NN record))(PP (IN as)(NP (NNP Texas)(NN governor)))) |BT| (BOW (his *)(record *)(as *)(Texas *)(governor *)) |BT| (BOP (PRP$ *)(NN *)(IN *)(NNP *)(NN *)) |ET| 
-0.057119342042404513959397149847064  |BT| (NP (NP (NNP Yugoslavia)(POS 's))(JJR smaller)(NN republic)) |BT| (BOW (Yugoslavia *)('s *)(smaller *)(republic *)) |BT| (BOP (NNP *)(POS *)(NN *)(NN *)) |ET| 
-0.030596481399927689948103903816445  |BT| (NP (NNP President)(NNP Clinton)(CC and)(NNP Vice)(NNP President)(NNP Al)(NNP Gore)) |BT| (BOW (President *)(Clinton *)) |BT| (BOP (NNP *)(NNP *)) |ET| 
-0.071010017582203405206442425878777  |BT| (S (NP (DT the)(NN ambassador))(VP (VBD ,'')(SBAR (S (NP (NN commission)(NN chairman)(NNP Ananta)(NNP Baharuddin))(VP (VBD said)(PP (IN at)(NP (DT a)(NN committee)(NN hearing)))))))) |BT| (BOW (ambassador *)(,'' *)(commission *)(chairman *)) |BT| (BOP (JJ *)(NN *)(NN *)(NN *)) |ET| 
-0.055378290842587607478719746723073  |BT| (NP (NNP Steve)(NNP Horn)(, ,)(NN R)(JJ -Calif)(NNS .,)) |BT| (BOW (R *)(-Calif *)) |BT| (BOP (NNP *)(NNP *)) |ET| 
-0.070955208387527779478887168806978  |BT| (NP (NNP Texas)(NNP Gov.)(NNP George)(NNP W.)(NNP Bush)) |BT| (BOW (Gov. *)(George *)(W. *)(Bush *)) |BT| (BOP (NNP *)(NNP *)(NNP *)(NNP *)) |ET| 
-0.034218155112785211824366626842675  |BT| (NP (NP (DT the)(NNP U.S.)(NNS elections))(CC and)(NP (NP (NNP Israeli)(NNP Prime)(NNP Minister)(NNP Ehud)(NNP Barak)(POS 's))(JJ precarious)(NN situation))) |BT| (BOW (U.S. *)(elections *)(and *)(Israeli *)(Prime *)(Minister *)) |BT| (BOP (NNP *)(NNS *)(CC *)(NNP *)(NNP *)(NNP *)) |ET| 
-0.043502527283066548535739315184401  |BT| (NP (NNP Mr.)(NNP Milosevic)) |BT| (BOW (Mr. *)(Milosevic *)) |BT| (BOP (NNP *)(NNP *)) |ET| 
-0.054931653919545131437018881115364  |BT| (NP (NNP Hakkinen)(CC and)(NNP McLaren)(NNP teammate)(NNP David)(NNP Coulthard)) |BT| (BOW (McLaren *)(teammate *)) |BT| (BOP (NNP *)(NN *)) |ET| 
-0.054085874946565873355730502680672  |BT| (NP (NP (NN vice)(NN president))(PP (IN of)(NP (NP (NN government)(NNS affairs))(PP (IN for)(NP (NNP ExciteAtHome)))))) |BT| (BOW (president *)(of *)(government *)) |BT| (BOP (NN *)(IN *)(NN *)) |ET| 
-0.12215058184819160835843376844423  |BT| (NP (NNP French)(NNP President)(NNP Jacques)(NNP Chirac)) |BT| (BOW (President *)(Jacques *)(Chirac *)) |BT| (BOP (NNP *)(NNP *)(NNP *)) |ET| 
-0.068773378750152616700752616907266  |BT| (NP (NP (NP (NNP Yugoslavia)(POS 's))(ADJP (RB newly)(VBN elected))(NN president))(CC and)(NP (DT the)(JJ victorious)(JJ pro-democracy)(NN coalition))) |BT| (BOW (president *)(and *)(the *)(victorious *)(pro-democracy *)(coalition *)) |BT| (BOP (NN *)(CC *)(DT *)(JJ *)(NN *)(NN *)) |ET| 
-0.043812784966171205991436465865263  |BT| (NP (NP (DT the)(NN country)(POS 's))(VBN elected)(NNS lawmakers)) |BT| (BOW (country *)('s *)(elected *)(lawmakers *)) |BT| (BOP (NN *)(POS *)(VBD *)(NNS *)) |ET| 
-0.054229120410393752416133850147162  |BT| (NP (DT the)(NNP Alabama)(JJ -Florida)(NN line)) |BT| (BOW (Alabama *)(-Florida *)(line *)) |BT| (BOP (NNP *)(NNP *)(NN *)) |ET| 
-0.032721550556311554402988406309305  |BT| (S (NP (PRP he))(VP (VBD 'd)(VP (VBN finished)(S (VP (VBG seeing)(NP (DT the)(JJ other)(CD 14)(NNP EU)(NNS leaders))))))) |BT| (BOW (he *)('d *)(finished *)(seeing *)(the *)(other *)(14 *)(EU *)(leaders *)) |BT| (BOP (PRP *)(VBD *)(VBN *)(VBG *)(DT *)(JJ *)(CD *)(NNP *)(NNS *)) |ET| 
-0.040416943703504383533786636917284  |BT| (NP (DT a)(JJ congressional)(NN commission)) |BT| (BOW (congressional *)(commission *)) |BT| (BOP (JJ *)(NN *)) |ET| 
-0.032620337861297699078022560570389  |BT| (NP (CC either)(DT the)(JJ Syrian)(CC or)(JJ Palestinian)(NN peace)(NN track)) |BT| (BOW (Syrian *)(or *)(Palestinian *)) |BT| (BOP (JJ *)(CC *)(JJ *)) |ET| 
-0.043905705377004972111976144333312  |BT| (NP (NNP Division)(NNP I-AA)(NNP Marshall)) |BT| (BOW (I-AA *)(Marshall *)) |BT| (BOP (NNP *)(NNP *)) |ET| 
-0.032591649566046911046246492560385  |BT| (NP (JJ other)(NN fan)(NN -oriented)(NNS magazines)) |BT| (BOW (fan *)(-oriented *)(magazines *)) |BT| (BOP (JJ *)(JJ *)(NNS *)) |ET| 
-0.17156123888872029659147244728956  |BT| (NP (NNP LA)(NNP Xtreme)(NN coach)(NNP Al)(NNP Luginbill)) |BT| (BOW (LA *)(Xtreme *)(coach *)(Al *)(Luginbill *)) |BT| (BOP (NNP *)(NNP *)(NN *)(NNP *)(NNP *)) |ET| 
-0.049195432626371195239389777498218  |BT| (NP (NP (DT the)(NN league)(POS 's))(NNS coaches)) |BT| (BOW (league *)('s *)(coaches *)) |BT| (BOP (NN *)(POS *)(NNS *)) |ET| 
-0.042397440065678589082853733316369  |BT| (NP (NNP Boise)(NNP State)(NN coach)(NNP Dirk)(NNP Koetter)) |BT| (BOW (coach *)(Dirk *)(Koetter *)) |BT| (BOP (NN *)(NNP *)(NNP *)) |ET| 
-0.031435735593293691325644800826922  |BT| (NP (DT a)(JJ commercial)(JJ real)(NN estate)(NN agent)) |BT| (BOW (estate *)(agent *)) |BT| (BOP (NN *)(NN *)) |ET| 
-0.050376854092648429284118094528822  |BT| (NP (NP (NNP Norway)(POS 's))(NNP Foreign)(NNP Minister)(NNP Thorbjoern)(NNP Jagland)(CC and)(NNP Mladjan)(NNP Dinkic)) |BT| (BOW (Norway *)('s *)(Foreign *)(Minister *)) |BT| (BOP (NNP *)(POS *)(NNP *)(NNP *)) |ET| 
-0.038874054322526399585235878930689  |BT| (NP (DT The)(VBG ruling)(NNP Taliban)(NN militia)) |BT| (BOW (Taliban *)(militia *)) |BT| (BOP (JJ *)(NNS *)) |ET| 
-0.048414467166636651618283337938919  |BT| (NP (DT the)(JJ liberal)(NNP Yabloko)(NN faction)) |BT| (BOW (Yabloko *)(faction *)) |BT| (BOP (NNP *)(NN *)) |ET| 
-0.037048906081504795473335889255395  |BT| (NP (PRP$ its)(JJ public)(NNS functions)) |BT| (BOW (presidential *)(palace *)) |BT| (BOP (JJ *)(NN *)) |ET| 
-0.073992203166048112206176767813304  |BT| (NP (JJ incumbent)(NNP Democratic)(NNP Rep)) |BT| (BOW (Democratic *)(Rep *)) |BT| (BOP (NNP *)(NNP *)) |ET| 
-0.060062629643072303065043371361753  |BT| (NP (NNP U.S.)(NNS territories)) |BT| (BOW (U.S. *)(territories *)) |BT| (BOP (NNP *)(NNS *)) |ET| 
-0.074376650539846878018579445779324  |BT| (NP (NNP Palestine)(NNP National)(NNP Council)(NNP Speaker)(NNP Salim)(NNP Zaanoun)) |BT| (BOW (Speaker *)(Salim *)(Zaanoun *)) |BT| (BOP (NNP *)(NNP *)(NNP *)) |ET| 
-0.045011628645498971690308565030136  |BT| (S (NP (NN Indonesian)(NNS leaders))(VP (VBP criticize)(NP (PRP him))(ADVP (RB right)(RB back))(, ,)(S (VP (VBG calling)(NP (PRP him))(NP (DT an)(JJ interfering)(NN bully)))))(. .)) |BT| (BOW (Indonesian *)(leaders *)(criticize *)(him *)) |BT| (BOP (JJ *)(NNS *)(IN *)(PRP *)) |ET| 
-0.078248414896996548728580478382355  |BT| (NP (NNP Russian)(NNP Foreign)(NNP Minister)(NNP Ivanov)) |BT| (BOW (Russian *)(Foreign *)(Minister *)(Ivanov *)) |BT| (BOP (JJ *)(NNP *)(NNP *)(NNP *)) |ET| 
-0.03128781679215406064109572525922  |BT| (S (NP (NN ``We))(VP (VBP have)(NP (NP (DT a)(JJ strong)(NN interest))(PP (IN in)(NP (NP (JJ supporting)(NNP Yugoslavia)(POS 's))(ADJP (RB newly)(VBN elected))(NNS leaders))))(SBAR (IN as)(S (NP (PRP they))(VP (VBP work)(S (VP (TO to)(VP (VB build)(NP (NP (DT a)(ADJP (RB truly)(JJ democratic))(NN society))(SBAR (S (NP (NNP ,'')(NNP Clinton))(VP (VBD said))))))))))))(. .)) |BT| (BOW (``We *)(have *)(a *)(strong *)(interest *)(in *)(supporting *)(Yugoslavia *)('s *)(newly *)(elected *)(leaders *)) |BT| (BOP (RB *)(VBP *)(DT *)(JJ *)(NN *)(IN *)(VBG *)(NNP *)(POS *)(NN *)(VBD *)(NNS *)) |ET| 
-0.049451075506167077588948188804352  |BT| (NP (NNP Sunni)(NNP Muslim)) |BT| (BOW (Sunni *)(Muslim *)) |BT| (BOP (NNP *)(NNP *)) |ET| 
-0.031009795202519660484163921410072  |BT| (NP (NP (NNP Roy)(POS 's))(NN residence)) |BT| (BOW (Roy *)('s *)(residence *)) |BT| (BOP (NNP *)(POS *)(NN *)) |ET| 
-0.062107027243217545475761909301582  |BT| (NP (NNP Vice)(NNP President)(NNP Gore)) |BT| (BOW (President *)(Gore *)) |BT| (BOP (NNP *)(NNP *)) |ET| 
-0.077968964972254001244422738636786  |BT| (NP (NP (DT the)(NNP SEC)(POS 's))(NN enforcement)(NN division)) |BT| (BOW (SEC *)('s *)(enforcement *)(division *)) |BT| (BOP (NNP *)(POS *)(NN *)(NN *)) |ET| 
-0.068781227752524071172857134115475  |BT| (NP (NNP Oklahoma)(NNP State)(JJ athletic)(NN director)(NNP Terry)(NNP Don)(NNP Phillips)) |BT| (BOW (director *)(Terry *)(Don *)(Phillips *)) |BT| (BOP (NN *)(NNP *)(NNP *)(NNPS *)) |ET| 
-0.033163433345799291085409521429028  |BT| (NP (NP (DT the)(NNPS Giants)(POS '))(JJ spacious)(NN clubhouse)) |BT| (BOW (Giants *)(' *)(spacious *)(clubhouse *)) |BT| (BOP (NNS *)(POS *)(JJ *)(NN *)) |ET| 
-0.060170203950190563613187322289377  |BT| (NP (DT The)(NNP Texas)(NN governor)(CC and)(JJ Republican)(NN nominee)) |BT| (BOW (Texas *)(governor *)(and *)(Republican *)) |BT| (BOP (NNP *)(NN *)(CC *)(NNP *)) |ET| 
-0.042439128728210991081670755420419  |BT| (NP (NNP CBS)(NNP anchor)(NNP Dan)) |BT| (BOW (CBS *)(anchor *)) |BT| (BOP (NNP *)(NN *)) |ET| 
-0.050772510960803138302388504143892  |BT| (NP (NN agent)(NNP Scott)(NNP Boras)) |BT| (BOW (agent *)(Scott *)(Boras *)) |BT| (BOP (JJ *)(NNP *)(NNP *)) |ET| 
-0.034109603404325485043191434897381  |BT| (NP (PRP$ his)(NN grooming)(S (VP (TO to)(VP (VB become)(NP (NN president)))))) |BT| (BOW (his *)(grooming *)(to *)(become *)(president *)) |BT| (BOP (PRP$ *)(NN *)(TO *)(VB *)(NN *)) |ET| 
-0.079009447654645084679891908763238  |BT| (NP (ADJP (RB reasonably)(JJ optimistic))(NNP ,'')(NNP French)(NNP Prime)(NNP Minister)(NNP Lionel)(NNP Jospin)) |BT| (BOW (Minister *)(Lionel *)(Jospin *)) |BT| (BOP (NNP *)(NNP *)(NNP *)) |ET| 
-0.036619843374544311376261873647309  |BT| (NP (DT a)(NNP Tokyo)(NN subway)(NN attack)) |BT| (BOW (Tokyo *)(subway *)) |BT| (BOP (NNP *)(NN *)) |ET| 
-0.053663002450538649368283472540497  |BT| (NP (NNP Notre)(NNP Dame)(NN offensive)(NN coordinator)(NNP Kevin)(NNP Rogers)) |BT| (BOW (coordinator *)(Kevin *)(Rogers *)) |BT| (BOP (NN *)(NNP *)(NNPS *)) |ET| 
-0.042252106288055833738237510033287  |BT| (NP (NP (DT the)(NNP EU)(POS 's))(JJS biggest)(NN nation)) |BT| (BOW (EU *)('s *)(biggest *)(nation *)) |BT| (BOP (NNP *)(POS *)(JJS *)(NN *)) |ET| 
-0.051237501177011424147167417686433  |BT| (NP (DT The)(NN court)(NN panel)) |BT| (BOW (court *)(panel *)) |BT| (BOP (NN *)(NN *)) |ET| 
-0.010811711399235916786221167740223  |BT| (NP (CD 60)(NNP Washington)(NNS journalists)) |BT| (BOW (Washington *)(journalists *)) |BT| (BOP (NNP *)(NNS *)) |ET| 
-0.069930938173572404492617238247476  |BT| (NP (NP (NNP Yugoslavia)(POS 's))(JJ dominant)(NN republic)) |BT| (BOW (Yugoslavia *)('s *)(dominant *)(republic *)) |BT| (BOP (NNP *)(POS *)(JJ *)(NN *)) |ET| 
-0.041258824928297556378087307393798  |BT| (NP (DT the)(NNPS Lords)(NNP Baroness)(NNP Young)) |BT| (BOW (Baroness *)(Young *)) |BT| (BOP (NNP *)(NNP *)) |ET| 
-0.029741634724149774299251092202212  |BT| (NP (JJ Palestinian)(NN command)(NNS centers)) |BT| (BOW (Palestinian *)(command *)(centers *)) |BT| (BOP (JJ *)(NN *)(NNS *)) |ET| 
-0.044437795734881380127490047016181  |BT| (NP (JJ Ex-Maryland)(NN quarterback)(NNP Scott)(NNP Milanovich)) |BT| (BOW (Ex-Maryland *)(quarterback *)) |BT| (BOP (NNP *)(NNP *)) |ET| 
-0.036262492552361441644492856539728  |BT| (PP (PP (IN with)(NP (NNP Phillips)))(CC and)(PP (IN with)(NP (NNP Arizona)(NNP State)(JJ athletic)(NN director)(NNP Gene)(NNP Smith)))) |BT| (BOW (Phillips *)(and *)(with *)(Arizona *)(State *)(athletic *)(director *)) |BT| (BOP (NNS *)(CC *)(IN *)(NNP *)(NNP *)(JJ *)(NN *)) |ET| 
-0.038729744203411735348208111417989  |BT| (NP (DT the)(CD 189)(NNP U.N.)(NN member)(NNS states)) |BT| (BOW (U.N. *)(member *)) |BT| (BOP (NNP *)(NN *)) |ET| 
-0.035750718560909021392912876535775  |BT| (NP (NP (NNS doctors)(POS '))(NN office)) |BT| (BOW (doctors *)(' *)(office *)) |BT| (BOP (NNS *)(POS *)(NN *)) |ET| 
-0.046293816364763040738239396887366  |BT| (NP (NP (NNP Israeli)(NNP Prime)(NNP Minister)(NNP Ehud)(NNP Barak))(CC and)(NP (JJ Palestinian)(NN leader)(NNP Yasser)(NNP Arafat))) |BT| (BOW (Israeli *)(Prime *)(Minister *)(Ehud *)(Barak *)(and *)(Palestinian *)(leader *)(Yasser *)(Arafat *)) |BT| (BOP (NNP *)(NNP *)(NNP *)(NNP *)(NNP *)(CC *)(NNP *)(NN *)(NNP *)(NNP *)) |ET| 
-0.031022171725880530457342132422127  |BT| (NP (NP (DT the)(NN president))(PP (IN of)(NP (NP (NP (NNP Tabasco)(POS 's))(JJ electoral)(NN institute))(PP (IN of)(S (VP (VP (VBG favoring)(NP (DT the)(NNP PRI)))(CC and)(VP (VBG pressuring)(NP (NN election)(NNS officials))(S (VP (TO to)(VP (VB close)(ADVP (NP (DT the)(JJ preliminary)(NNS results))(RB early))(S (VP (TO to)(VP (VB benefit)(NP (NNP Andrade))))))))))))))) |BT| (BOW (president *)(of *)(Tabasco *)('s *)(electoral *)(institute *)) |BT| (BOP (NN *)(IN *)(NNP *)(POS *)(JJ *)(NN *)) |ET| 
-0.032951157813841183696901282473846  |BT| (S (NP (NNP Geneva)(NNP County)(NNP Emergency)(NNP Management)(NNP Agency)(NN director)(NNP Margaret)(NNP Mixon))(VP (VBD said)(SBAR (S (NP (CD eight)(NNS people))(VP (VBD were)(VP (VBN injured)(, ,)(ADVP (NP (NP (CD two))(PP (IN of)(NP (PRP them))))(RB severely)))))))(. .)) |BT| (BOW (director *)(Margaret *)(Mixon *)(said *)(eight *)(people *)) |BT| (BOP (NN *)(NNP *)(NNP *)(VBD *)(JJ *)(NNS *)) |ET| 
-0.084766891649329684232938575405569  |BT| (NP (JJ Egyptian)(NNP Foreign)(NNP Minister)(NNP Amr)(NNP Mussa)) |BT| (BOW (Minister *)(Amr *)(Mussa *)) |BT| (BOP (NNP *)(NNP *)(NNP *)) |ET| 
-0.037876582813763784440830306721182  |BT| (NP (PRP$ his)(NN country)(NN house)(NN southwest)) |BT| (BOW (country *)(house *)) |BT| (BOP (NN *)(NN *)) |ET| 
-0.03686612260004567404036990296845  |BT| (NP (NNP Former)(NNP President)(NNP Boris)(NNP Yeltsin)) |BT| (BOW (President *)(Boris *)(Yeltsin *)) |BT| (BOP (NNP *)(NNP *)(NNP *)) |ET| 
-0.026760604234007657337146568465869  |BT| (NP (DT The)(JJ dispirited)(NNP Bush)(NN camp)) |BT| (BOW (Bush *)(camp *)) |BT| (BOP (NNP *)(NN *)) |ET| 
-0.029773535069942326514169650408803  |BT| (NP (JJ Palestinian)(NNS civilians)(NNS .'')) |BT| (BOW (Palestinian *)(civilians *)) |BT| (BOP (JJ *)(NNS *)) |ET| 
-0.08756791505196195868343522761279  |BT| (NP (NN school)(NN president)(NNP Michael)(NNP Adams)) |BT| (BOW (president *)(Michael *)(Adams *)) |BT| (BOP (NN *)(NNP *)(NNP *)) |ET| 
-0.019417659620959662469807938123267  |BT| (NP (CD Two)(JJ Chinese)(NNS researchers)) |BT| (BOW (Chinese *)(researchers *)) |BT| (BOP (NNP *)(NNS *)) |ET| 
-0.02749101917787987597874277412302  |BT| (NP (NP (NNP Pinochet)(POS 's))(NN defense)) |BT| (BOW (Pinochet *)('s *)(defense *)) |BT| (BOP (NNP *)(POS *)(NN *)) |ET| 
-0.039941370045378316033790611072618  |BT| (NP (NP (NNP Brownsville)(POS 's))(NN shopping)(NN district)) |BT| (BOW (Brownsville *)('s *)(shopping *)(district *)) |BT| (BOP (NNP *)(POS *)(JJ *)(NN *)) |ET| 
-0.07872801877785209900828533591266  |BT| (NP (DT the)(NNP Texas)(NNP Senate)) |BT| (BOW (Texas *)(Senate *)) |BT| (BOP (NNP *)(NNP *)) |ET| 
-0.033190279901569509635184118678808  |BT| (NP (NP (DT The)(JJ disgraced)(NN autocrat)(POS 's))(NNP Socialist)(NNP Party)) |BT| (BOW (autocrat *)('s *)(Socialist *)(Party *)) |BT| (BOP (NN *)(POS *)(NN *)(NNP *)) |ET| 
-0.04567588882887527179654796327668  |BT| (NP (DT the)(NNP Dallas-Fort)(NNP Worth)(NN area)) |BT| (BOW (Dallas-Fort *)(Worth *)(area *)) |BT| (BOP (NNP *)(NNP *)(NN *)) |ET| 
-0.031178926516230272975027659754232  |BT| (NP (NP (NNP Lennon)(POS 's))(NN widow)) |BT| (BOW (Lennon *)('s *)(widow *)) |BT| (BOP (NNP *)(POS *)(NN *)) |ET| 
-0.030802667441717265783829304837127  |BT| (NP (DT a)(JJ longtime)(NNS Broncos)(NN fan)) |BT| (BOW (Broncos *)(fan *)) |BT| (BOP (NNP *)(NN *)) |ET| 
-0.022719802685142731490941514493898  |BT| (NP (JJ old)(JJ Russian)(CC and)(JJ Soviet)(NNS symbols)) |BT| (BOW (Russian *)(and *)(Soviet *)) |BT| (BOP (JJ *)(CC *)(JJ *)) |ET| 
-0.03568528106912514930026958381859  |BT| (NP (NP (NNP Arizona)(NNP State)(POS 's))(JJ top)(NN choice)) |BT| (BOW (Arizona *)(State *)('s *)(top *)(choice *)) |BT| (BOP (NNP *)(NNP *)(POS *)(JJ *)(NN *)) |ET| 
-0.031082199499496934724795949023246  |BT| (NP (NNP Deputy)(NNP Defense)(NNP Minister)(NNP Ephraim)(NNP Sneh)) |BT| (BOW (Minister *)(Ephraim *)(Sneh *)) |BT| (BOP (NNP *)(NNP *)(NNP *)) |ET| 
-0.033974481049094659712572763510252  |BT| (NP (DT the)(JJ Milosevic)(NN regime)) |BT| (BOW (Milosevic *)(regime *)) |BT| (BOP (NNP *)(NN *)) |ET| 
-0.039815087318395517290703367052629  |BT| (NP (NNP Secretary-General)(NNP Kofi)(NNP Annan)) |BT| (BOW (Secretary-General *)(Kofi *)(Annan *)) |BT| (BOP (JJ *)(NNP *)(NNP *)) |ET| 
-0.050463072748387682864290582074318  |BT| (S (NP (DT The)(JJ late)(JJ Syrian)(NN president))(ADVP (RB rarely))(VP (VBD traveled)(ADVP (RB abroad)))(. .)) |BT| (BOW (president *)(rarely *)(traveled *)(abroad *)) |BT| (BOP (NN *)(RB *)(VBD *)(RB *)) |ET| 
-0.045796247465440087509591648995411  |BT| (NP (NNP Mr.)(NNP July)) |BT| (BOW (Mr. *)(July *)) |BT| (BOP (NNP *)(NNP *)) |ET| 
-0.033844149293264833011640746462945  |BT| (NP (DT The)(JJ twin-engine)(NNP Hawker)(JJ corporate)(NN jet)) |BT| (BOW (Hawker *)(corporate *)(jet *)) |BT| (BOP (NNP *)(JJ *)(NN *)) |ET| 
-0.039325050271771244680962809070479  |BT| (NP (NP (DT a)(NN murder)(NN victim)(POS 's))(NN family)) |BT| (BOW (victim *)('s *)(family *)) |BT| (BOP (NN *)(POS *)(NN *)) |ET| 
-0.050719332570086983480450726347044  |BT| (NP (JJ Rutgers)(JJ athletic)(NN director)(NNP Robert)(NNP E.)(NNP Mulcahy)) |BT| (BOW (director *)(Robert *)(E. *)(Mulcahy *)) |BT| (BOP (NN *)(NNP *)(NNP *)(NNP *)) |ET| 
-0.0019045174331969597428249052484261  |BT| (SBAR (WHNP (WP who))(S (VP (VBD was)(NP (NP (NP (NN finance)(NN chairman))(PP (IN for)(NP (NP (NNP Jeb)(NNP Bush)(POS 's))(JJ gubernatorial)(NN campaign))))(CC and)(NP (NP (NN chairman))(PP (IN of)(NP (PRP$ his)(JJ inaugural)(NN committee)))))))) |BT| (BOW (who *)(was *)(finance *)(chairman *)) |BT| (BOP (WP *)(VBD *)(NN *)(NN *)) |ET| 
-0.095248894066205208597253317748255  |BT| (NP (NNP Police)(NNP Chief)(NNP James)(NNP Vohs)) |BT| (BOW (Police *)(Chief *)(James *)(Vohs *)) |BT| (BOP (NNP *)(NNP *)(NNP *)(NNP *)) |ET| 
-0.027716113347961607998870547930892  |BT| (SBAR (WHNP (WDT which))(S (VP (VBZ has)(VP (VBN been)(VP (VBN dominated)(PP (IN by)(NP (NP (DT the)(NN nation)(POS 's))(NN president)))(PP (IN since)(NP (DT the)(JJ early)(NNS 1930s)))))))) |BT| (BOW (which *)(has *)(been *)(dominated *)(by *)(the *)(nation *)('s *)(president *)) |BT| (BOP (WDT *)(VBZ *)(VBN *)(VBN *)(IN *)(DT *)(NN *)(POS *)(NN *)) |ET| 
-0.022990201251843995350343519135095  |BT| (VP (VBN distributed)(PP (IN by)(NP (NNP GEMA)))(PP (TO to)(NP (NN copyright)(NNS owners)))(PP (IN through)(NP (NN recording)(NNS houses)(CC and)(NN music)(NNS distributors)))) |BT| (BOW (owners *)(through *)(recording *)(houses *)) |BT| (BOP (NNS *)(IN *)(VBG *)(NNS *)) |ET| 
-0.03611900642317510123913137931595  |BT| (NP (NP (NNP Miami)(JJ defensive)(NN coordinator)(NNP Greg)(NNP Schiano))(CC and)(NP (NNP Notre)(NNP Dame)(NN offensive)(NN coordinator)(NNP Kevin)(NNP Rogers))) |BT| (BOW (Miami *)(defensive *)(coordinator *)(Greg *)(Schiano *)(and *)(Notre *)(Dame *)(offensive *)(coordinator *)) |BT| (BOP (NNP *)(JJ *)(NN *)(NNP *)(NNP *)(CC *)(NNP *)(NNP *)(JJ *)(NN *)) |ET| 
-0.14362713939785023975481692559697  |BT| (NP (DT the)(NN RV)(NNS owners)) |BT| (BOW (RV *)(owners *)) |BT| (BOP (NNP *)(NNS *)) |ET| 
-0.078932662869458755650065029385587  |BT| (NP (NNP Russian)(NNP President)(NNP Vladimir)(NNP Putin)) |BT| (BOW (President *)(Vladimir *)(Putin *)) |BT| (BOP (NNP *)(NNP *)(NNP *)) |ET| 
-0.032411297278509679231639495355921  |BT| (NP (DT the)(JJ Muslim)(JJ religious)(NNS leaders)) |BT| (BOW (Muslim *)(religious *)(leaders *)) |BT| (BOP (NNP *)(JJ *)(NNS *)) |ET| 
-0.031730607998959138582595329580727  |BT| (NP (NP (NNP Frank)(NNP Newport))(, ,)(NP (NP (NNP Gallup)(POS 's))(JJ executive)(NN editor))) |BT| (BOW (Frank *)(Newport *)(, *)(Gallup *)('s *)(executive *)(editor *)) |BT| (BOP (NNP *)(NNP *)(, *)(NNP *)(POS *)(NN *)(NN *)) |ET| 
-0.018732335365022136780543959844181  |BT| (NP (DT The)(NNP News)(NNP Sun)(CC and)(JJ other)(JJ northern)(NNP Illinois)(NNP Copley)(NNS newspapers)) |BT| (BOW (Copley *)(newspapers *)) |BT| (BOP (NNP *)(NNS *)) |ET| 
-0.039375469955268548039040155117618  |BT| (NP (NP (NNP Iran)(POS 's))(JJ 290-seat)(NN parliament)) |BT| (BOW (Iran *)('s *)(290-seat *)(parliament *)) |BT| (BOP (NNP *)(POS *)(JJ *)(NN *)) |ET| 
-0.026018636249359589768248568475428  |BT| (NP (CD Two)(JJ major)(NNP South)(JJ Korean)(NN labor)(NNS groups)) |BT| (BOW (South *)(Korean *)(labor *)(groups *)) |BT| (BOP (JJ *)(JJ *)(NN *)(NNS *)) |ET| 
-0.029584163955397695111582123672633  |BT| (S (NP (DT the)(NN vice)(NN president))(VP (VBD was)(PP (IN in)(NP (NNP Missouri))))) |BT| (BOW (president *)(was *)(in *)(Missouri *)) |BT| (BOP (NN *)(VBD *)(IN *)(NNP *)) |ET| 
-0.035866279407174947446712565124471  |BT| (NP (DT a)(NNP Division)(NNP IAA)(NN program)) |BT| (BOW (Division *)(IAA *)(program *)) |BT| (BOP (NNP *)(NNP *)(NN *)) |ET| 
-0.018733569257317762846160036360743  |BT| (S (NP (DT The)(JJ Russian)(, ,)(JJ Ukrainian)(CC and)(JJ Turkish)(NNS planes))(VP (VBD carried)(NP (NNS businessmen)(CC and)(NNS doctors)))(. .)) |BT| (BOW (Turkish *)(planes *)(carried *)(businessmen *)) |BT| (BOP (JJ *)(NNS *)(VBD *)(NNS *)) |ET| 
-0.038987366462417641366222653687146  |BT| (NP (NNP Washington)(NN state)(NN law)) |BT| (BOW (Washington *)(state *)) |BT| (BOP (NNP *)(NN *)) |ET| 
-0.034532516469081731003143431735225  |BT| (NP (NNP Republican)(NNP Sen)) |BT| (BOW (Republican *)(Sen *)) |BT| (BOP (NNP *)(NNP *)) |ET| 
-0.03546421692727415309054350700535  |BT| (NP (NP (DT The)(NN station)(POS 's))(JJ first)(JJ permanent)(NN crew)) |BT| (BOW (station *)('s *)(first *)(permanent *)(crew *)) |BT| (BOP (NN *)(POS *)(JJ *)(JJ *)(NN *)) |ET| 
-0.02363655210433640574407831991266  |BT| (FRAG (NP (NNP PHOENIX)(NNP [AP)(NNP ]))(: -)(S (NP (NP (NNP Boise)(NNP State)(NN coach)(NNP Dirk)(NNP Koetter))(, ,)(SBAR (WHNP (WP who))(S (ADVP (NP (RB just)(DT a)(NN day))(RBR earlier))(VP (VBD was)(ADVP (RB reportedly))(VP (VBN headed)(PP (IN for)(NP (NNP Oklahoma)(NNP State)))))))(, ,))(VP (VBZ has)(VP (VBN agreed)(PP (TO to)(NP (DT a)(NN contract)))(PP (TO to)(NP (NN coach)(NNP Arizona)(NNP State))))))(. .)) |BT| (BOW ((AP *)()*)(- *)(Boise *)(State *)(coach *)) |BT| (BOP (NNP *)(NNP *)(NNP *)(NNP *)(NNP *)(NN *)) |ET| 
-0.026260807095630573498867832427095  |BT| (NP (DT the)(JJ European)(NN aircraft)(NN consortium)) |BT| (BOW (aircraft *)(consortium *)) |BT| (BOP (NN *)(NN *)) |ET| 
-0.057623396129285783806572851517558  |BT| (NP (NNP Chicago)(NNP Enforcers)(NN coach)(NNP Ron)(NNP Meyer)) |BT| (BOW (coach *)(Ron *)(Meyer *)) |BT| (BOP (NN *)(NNP *)(NNP *)) |ET| 
-0.015990284540066714014105997421211  |BT| (NP (PRP$ its)(JJ neo-communist)(NNS allies)) |BT| (BOW (its *)(neo-communist *)(allies *)) |BT| (BOP (PRP$ *)(JJ *)(NNS *)) |ET| 
-0.028609578366510988317594765817375  |BT| (NP (NP (NNP Israeli)(NNP Prime)(NNP Minister)(NNP Ehud)(NNP Barak))(CC and)(NP (JJ Palestinian)(NN leader)(NNP Yasser)(NNP Arafat))) |BT| (BOW (Israeli *)(Prime *)(Minister *)(Ehud *)(Barak *)(and *)(Palestinian *)) |BT| (BOP (NNP *)(NNP *)(NNP *)(NNP *)(NNP *)(CC *)(NNP *)) |ET| 
-0.0051094729229940547693411545537856  |BT| (NP (PRP$ their)(NN candidate)(POS 's)) |BT| (BOW (their *)(candidate *)) |BT| (BOP (PRP$ *)(NN *)) |ET| 
-0.015402105014814962760660854712569  |BT| (NP (NP (DT the)(NN winner))(PP (IN of)(NP (NP (DT the)(JJ disputed)(NN governor)(POS 's))(NN race)))) |BT| (BOW (winner *)(of *)(the *)(disputed *)(governor *)) |BT| (BOP (NN *)(IN *)(DT *)(JJ *)(NN *)) |ET| 
-0.039653834127271782306056735478705  |BT| (NP (CD 15)(NNP EU)(NNS nations)) |BT| (BOW (EU *)(nations *)) |BT| (BOP (NN *)(NNS *)) |ET| 
-0.027292304470986811920640846551578  |BT| (NP (DT a)(JJ recreational)(NN vehicle)(NN park)) |BT| (BOW (vehicle *)(park *)) |BT| (BOP (NN *)(NN *)) |ET| 
-0.019438430356688241040785669611068  |BT| (NP (DT the)(NNP Suharto)(NN clan)) |BT| (BOW (Suharto *)(clan *)) |BT| (BOP (NNP *)(NN *)) |ET| 
-0.019309097649592626977366194296337  |BT| (S (NP (DT The)(NNP Duma))(ADVP (RB usually))(VP (VBZ hears)(NP (NNS speeches))(PP (IN by)(NP (NP (NN faction)(NNS leaders))(PP (IN before)(NP (DT a)(NN vote))))))) |BT| (BOW (Duma *)(usually *)(hears *)(speeches *)(by *)(faction *)(leaders *)) |BT| (BOP (NNP *)(RB *)(NNS *)(NNS *)(IN *)(NN *)(NNS *)) |ET| 
-0.02157076482216646606815402265056  |BT| (NP (NP (NNP Britain)(POS 's))(NNP Labor)(NN government)) |BT| (BOW (Labor *)(government *)) |BT| (BOP (NNP *)(NN *)) |ET| 
-0.036837636440204026000433401577538  |BT| (NP (NP (DT the)(NNP Arapahoe)(NNP County)(NN district)(NN attorney)(POS 's))(NN office)) |BT| (BOW (attorney *)('s *)(office *)) |BT| (BOP (NN *)(POS *)(NN *)) |ET| 
-0.020214669515785061576496062230035  |BT| (NP (JJ other)(JJ European)(NNS countries)) |BT| (BOW (European *)(countries *)) |BT| (BOP (JJ *)(NNS *)) |ET| 
-0.028734656203890075742979348660811  |BT| (NP (NP (DT this)(NN city)(POS 's))(JJ new)(NN Capitol)) |BT| (BOW (city *)('s *)(new *)(Capitol *)) |BT| (BOP (NN *)(POS *)(JJ *)(NN *)) |ET| 
-0.017306766112752610536906772153998  |BT| (NP (NP (NAC (NNP AUSTIN)(, ,)(NNP Texas))(NNP [AP)(NNP ]))(: -)(NP (NNP Gov))(. .)) |BT| (BOW (AUSTIN *)(, *)(Texas *)((AP *)()*)(- *)(Gov *)) |BT| (BOP (NNP *)(, *)(NNP *)(NNP *)(NNP *)(NNP *)(NNP *)) |ET| 
-0.02634506093524083963908211103444  |BT| (NP (NNP Embassy)(NN spokeswoman)(NNP Lela)(NNP Margiou)) |BT| (BOW (Embassy *)(spokeswoman *)) |BT| (BOP (JJ *)(NN *)) |ET| 
-0.023002804270376153716881617583567  |BT| (NP (JJ new)(NNP Yugoslav)(NNP President)(NNP Vojislav)(NNP Kostunica)) |BT| (BOW (President *)(Vojislav *)(Kostunica *)) |BT| (BOP (NNP *)(NNP *)(NNP *)) |ET| 
-0.022495747905346891171163292710844  |BT| (NP (NP (NNP Herblock)(POS 's))(NN assistant)) |BT| (BOW (Herblock *)('s *)(assistant *)) |BT| (BOP (NNP *)(POS *)(NN *)) |ET| 
-0.019534995956061115135460326541761  |BT| (NP (DT the)(NNP Alpine)(NN region)) |BT| (BOW (Alpine *)(region *)) |BT| (BOP (NNP *)(NN *)) |ET| 
-0.021789906392121995842847681501553  |BT| (NP (NNP Cheney)(NN chief)) |BT| (BOW (Cheney *)(chief *)) |BT| (BOP (NNP *)(JJ *)) |ET| 
-0.0311795184142285540518368947005  |BT| (NP (NP (NNP Afghanistan)(POS 's))(JJ central)(JJ Bamyan)(NN province)) |BT| (BOW (Bamyan *)(province *)) |BT| (BOP (NNP *)(NN *)) |ET| 
-0.0079083037248268706065346123068593  |BT| (NP (PRP$ His)(NN colleague)) |BT| (BOW (His *)(colleague *)) |BT| (BOP (PRP$ *)(NN *)) |ET| 
-0.020221978705477889476371800014931  |BT| (NP (NP (NNP northeastern)(NNP Nebraska)(POS 's))(NNP Cuming)(NNP County)) |BT| (BOW (Nebraska *)('s *)(Cuming *)(County *)) |BT| (BOP (NNP *)(POS *)(NNP *)(NNP *)) |ET| 
-0.021691547709045740782718425521125  |BT| (NP (NP (NNP Rod)(NNP Eddington))(, ,)(NP (NP (NNP British)(NNP Airways)(POS '))(ADJP (RB recently)(JJ appointed))(NN chief)(NN executive))) |BT| (BOW (Rod *)(Eddington *)(, *)(British *)(Airways *)) |BT| (BOP (NNP *)(NNP *)(, *)(JJ *)(NNS *)) |ET| 
-0.032909931325095287402149324407219  |BT| (NP (NP (NNP Japan)(POS 's))(JJ central)(NN bank)) |BT| (BOW (Japan *)('s *)(central *)(bank *)) |BT| (BOP (NNP *)(POS *)(JJ *)(NN *)) |ET| 
-0.023814918136421628358512236900424  |BT| (NP (NNP Gore)(NNS aides)) |BT| (BOW (Gore *)(aides *)) |BT| (BOP (NNP *)(NNS *)) |ET| 
-0.011627346642512820934500794578526  |BT| (SBAR (SBAR (WHNP (WP who))(S (VP (VBZ has)(NP (NP (JJR less)(JJ formal)(NN debate)(NN experience))(PP (IN than)(NP (DT the)(NN vice)(NN president)))))))(CC but)(SBAR (WHNP (NP (WP$ whose)(NN standing))(PP (IN in)(NP (JJ public)(NN opinion)(NNS polls))))(S (VP (VBD rose)(PP (IN after)(NP (DT the)(JJ first)(CD two)(NNS face-offs))))))) |BT| (BOW (president *)(but *)(whose *)) |BT| (BOP (NN *)(CC *)(WP$ *)) |ET| 
-0.059862962967888767862323362578536  |BT| (NP (JJ former)(NNP Russian)(NNP Prime)(NNP Minister)(NNP Viktor)(NNP Chernomyrdin)) |BT| (BOW (Minister *)(Viktor *)(Chernomyrdin *)) |BT| (BOP (NNP *)(NNP *)(NNP *)) |ET| 
-0.022934607902525289829798182950071  |BT| (NP (DT a)(JJ young)(JJ French)(NN designer)) |BT| (BOW (French *)(designer *)) |BT| (BOP (JJ *)(NN *)) |ET| 
-0.046259640142614369406892649294605  |BT| (NP (NNP Dale)(NNP County)(NNP Commissioner)(NNP Buddy)(NNP Stapleton)) |BT| (BOW (Dale *)(County *)(Commissioner *)(Buddy *)(Stapleton *)) |BT| (BOP (NNP *)(NNP *)(NNP *)(NNP *)(NNP *)) |ET| 
-0.02259133551545904061708114340945  |BT| (NP (DT a)(JJ great)(NN family)(NN man)(NN .'')) |BT| (BOW (family *)(man *)) |BT| (BOP (NN *)(NN *)) |ET| 
-0.048856372841783742011489977130623  |BT| (NP (NNP TCU)(NN coach)(NNP Dennis)(NNP Franchione)) |BT| (BOW (coach *)(Dennis *)(Franchione *)) |BT| (BOP (NN *)(NNP *)(NNP *)) |ET| 
-0.011008409410653136745183999778419  |BT| (NP (NN prison)(NNS employees)) |BT| (BOW (prison *)(employees *)) |BT| (BOP (NN *)(NNS *)) |ET| 
-0.031306298202676233199959199282603  |BT| (NP (DT the)(NNP Yugoslav)(NNP Parliament)) |BT| (BOW (Yugoslav *)(Parliament *)) |BT| (BOP (NNP *)(NNP *)) |ET| 
-0.02195399215894053984721168149008  |BT| (NP (NP (NNP Serbia)(POS 's))(NN police)) |BT| (BOW (Serbia *)('s *)(police *)) |BT| (BOP (NNP *)(POS *)(NN *)) |ET| 
-0.047164952587498143454780574757024  |BT| (NP (NN comment)(NN ,'')(NNP Spanish)(NNP Foreign)(NNP Minister)(NNP Josep)(NNP Pique)) |BT| (BOW (Spanish *)(Foreign *)(Minister *)(Josep *)(Pique *)) |BT| (BOP (JJ *)(NNP *)(NNP *)(NNP *)(NNP *)) |ET| 
-0.011175520787478854245478032680694  |BT| (NP (NP (PRP$ my)(NN position))(PP (IN as)(NP (NN governor)(NNS .'')))) |BT| (BOW (my *)(position *)(as *)(governor *)) |BT| (BOP (PRP$ *)(NN *)(IN *)(NN *)) |ET| 
-0.016967586009370559663178568143849  |BT| (NP (NP (DT the)(NN country)(POS 's))(JJ top)(JJ young)(NN coaching)(NNS prospects)) |BT| (BOW (country *)('s *)(top *)(young *)(coaching *)(prospects *)) |BT| (BOP (NN *)(POS *)(JJ *)(JJ *)(NN *)(NNS *)) |ET| 
-0.014276589543326259970634772855647  |BT| (NP (PRP$ its)(JJ profitable)(JJ cut-price)(NN subsidiary)) |BT| (BOW (its *)(profitable *)(cut-price *)(subsidiary *)) |BT| (BOP (PRP$ *)(JJ *)(NN *)(NN *)) |ET| 
-0.01573814899122297564226791166675  |BT| (NP (PRP$ its)(JJ affiliated)(NNS stations)) |BT| (BOW (its *)(affiliated *)(stations *)) |BT| (BOP (PRP$ *)(JJ *)(NNS *)) |ET| 
-0.013625600229773882077211055730004  |BT| (S (NP (NNP Bullock))(, ,)(SBAR (WHNP (WP who)(NNS stars))(S (PP (IN in)(NP (DT the)(JJ current)(NNS ``Miss)))(NP (NNP Congeniality)(NNP ,''))(VP (VBD was)(ADVP (IN aboard)(NP (DT the)(NN plane)))(PP (IN with)(NP (NP (CD two)(NN crew)(NNS members))(CC and)(NP (DT another)(NN person)))))))(, ,)(NP (NN airport)(NN manager)(NNP George)(NNP Larson))(VP (VBD said))(. .)) |BT| (BOW (person *)(, *)(airport *)(manager *)) |BT| (BOP (NN *)(, *)(NN *)(NN *)) |ET| 
-0.036133175721829127735595932335855  |BT| (NP (DT the)(JJ fashionable)(NNP Dallas)(NN suburb)) |BT| (BOW (Dallas *)(suburb *)) |BT| (BOP (NNP *)(NN *)) |ET| 
-0.019022507932229999055850910849585  |BT| (NP (NNP BANDA)(NNP ACEH)(, ,)(NNP Indonesia)(NNP [AP)(NNP ])) |BT| (BOW (Indonesia *)((AP *)) |BT| (BOP (NNP *)(NNP *)) |ET| 
-0.024996935253538035692777441454382  |BT| (NP (NP (NNP Miami)(JJ defensive)(NN coordinator)(NNP Greg)(NNP Schiano))(CC and)(NP (NNP Notre)(NNP Dame)(NN offensive)(NN coordinator)(NNP Kevin)(NNP Rogers))) |BT| (BOW (coordinator *)(Greg *)(Schiano *)(and *)(Notre *)(Dame *)(offensive *)(coordinator *)) |BT| (BOP (NN *)(NNP *)(NNP *)(CC *)(NNP *)(NNP *)(JJ *)(NN *)) |ET| 
-0.013245173035631774283160666527692  |BT| (NP (PRP$ her)(NN husband)) |BT| (BOW (her *)(husband *)) |BT| (BOP (PRP$ *)(NN *)) |ET| 
-0.013862217501054052010145412054953  |BT| (NP (NNP ABC)(NNP anchorman)(NNP Peter)(NNP Jennings)) |BT| (BOW (anchorman *)(Peter *)(Jennings *)) |BT| (BOP (VBD *)(NNP *)(NNS *)) |ET| 
-0.026408875114255478400160370711092  |BT| (NP (JJ Israeli)(NN government)(NN spokesman)(NNP Nahman)(NNP Shai)) |BT| (BOW (Israeli *)(government *)) |BT| (BOP (NNP *)(NN *)) |ET| 
-0.019509957040490549795563879342808  |BT| (NP (DT a)(JJ senior)(NNP Bush)(NN campaign)(NN official)) |BT| (BOW (campaign *)(official *)) |BT| (BOP (NN *)(NN *)) |ET| 
-0.015166112522382608346349641692541  |BT| (NP (JJ former)(NNP Vice)(NNP President)(NNP Dan)(NNP Quayle)) |BT| (BOW (President *)(Dan *)(Quayle *)) |BT| (BOP (NNP *)(NNP *)(NNP *)) |ET| 
-0.02241043793275575637946595008998  |BT| (VP (VBN declared)(NP (NP (DT the)(NN winner))(PP (IN of)(NP (NP (DT the)(JJ disputed)(NN governor)(POS 's))(NN race))))(PP (IN for)(NP (JJ oil-rich)(NNP Tabasco)(NN state)))) |BT| (BOW (governor *)('s *)(race *)(for *)(oil-rich *)(Tabasco *)) |BT| (BOP (NN *)(POS *)(NN *)(IN *)(JJ *)(NNP *)) |ET| 
-0.018957119367920913927116899344583  |BT| (NP (NP (RB almost)(NN anyone))(, ,)(ADVP (RB anytime)(CC and)(RB anywhere))(NP (NP (NNP ,'')(NNP Nokia)(POS 's))(NNP Chief)(NNP Executive)(NNP Jorma)(NNP Ollila))) |BT| (BOW (anywhere *)(,'' *)(Nokia *)('s *)(Chief *)(Executive *)) |BT| (BOP (RB *)(IN *)(NNP *)(POS *)(NNP *)(NNP *)) |ET| 
-0.019046375289755102661048979939551  |BT| (NP (DT the)(NNP Mediterranean)(NN island)) |BT| (BOW (Mediterranean *)(island *)) |BT| (BOP (NNP *)(NN *)) |ET| 
-0.017712039200994410953482471882126  |BT| (NP (CD two)(JJ Israeli)(NNS soldiers)) |BT| (BOW (Israeli *)(soldiers *)) |BT| (BOP (NNP *)(NNS *)) |ET| 
-0.025043238868975067901168074513407  |BT| (NP (NNP ,'')(NNP Bush)(NN spokesman)(NNP Dan)(NNP Bartlett)) |BT| (BOW (Bush *)(spokesman *)) |BT| (BOP (NNP *)(NN *)) |ET| 
-0.0099547891657646055130204132410654  |BT| (NP (NN industry)(NNS economists)) |BT| (BOW (industry *)(economists *)) |BT| (BOP (NN *)(NNS *)) |ET| 
-0.030760239049640852176947802831819  |BT| (NP (NNP Junta)(NN leader)(NNP Gen.)(NNP Robert)(NNP Guei)) |BT| (BOW (Junta *)(leader *)(Gen. *)(Robert *)(Guei *)) |BT| (BOP (NNP *)(NN *)(NNP *)(NNP *)(NNP *)) |ET| 
-0.010646841883440597356647039362088  |BT| (NP (JJ Iranian)(NNPS Jews)) |BT| (BOW (Iranian *)(Jews *)) |BT| (BOP (JJ *)(NNS *)) |ET| 
-0.01315806260491652474042822973388  |BT| (S (NP (NNP Georgia))(VP (VBD fired)(NP (NN football)(NN coach)(NNP Jim)(NNP Donnan)(NNP Monday))(PP (IN after)(NP (NP (DT a)(ADJP (JJ disappointing)(NP (CD 7-4)))(NN season))(SBAR (WHNP (WDT that))(S (VP (VBD started)(SBAR (IN with)(S (NP (DT the)(NNPS Bulldogs))(VP (VBD ranked)(INTJ (UH No)))))))))))) |BT| (BOW (Georgia *)(fired *)(football *)(coach *)) |BT| (BOP (NNP *)(VBD *)(NN *)(NN *)) |ET| 
-0.013869880942083936264941357308089  |BT| (NP (NP (NN director))(PP (IN of)(NP (DT the)(JJ gay)(NNS rights)(NN group)(NN Stonewall)))) |BT| (BOW (director *)(of *)(the *)(gay *)(rights *)(group *)) |BT| (BOP (NN *)(IN *)(DT *)(NN *)(NNS *)(NN *)) |ET| 
-0.022799272999061329092462813150632  |BT| (NP (DT the)(JJ German)(NN magazine)(NNP Das)(NNP Motorrad)) |BT| (BOW (German *)(magazine *)) |BT| (BOP (NNP *)(NN *)) |ET| 
-0.017277295440479546739798166754554  |BT| (NP (NP (NNS citizens)(POS '))(NNS groups)(, ,)(JJ political)(NNS parties)(, ,)(NN sport)(NNS clubs)(, ,)(NNS students)(CC and)(NNS teachers)) |BT| (BOW (citizens *)(' *)(groups *)) |BT| (BOP (NNS *)(POS *)(NNS *)) |ET| 
-0.01459547113428035294835360957677  |BT| (NP (NNP Communist)(NNS leaders)(NNP Vladimir)(NNP Lenin)(CC and)(NNP Josef)(NNP Stalin)) |BT| (BOW (Communist *)(leaders *)(Vladimir *)(Lenin *)(and *)(Josef *)(Stalin *)) |BT| (BOP (NNP *)(NNS *)(PRP$ *)(NNP *)(CC *)(NNP *)(NNP *)) |ET| 
-0.015485334146803531041314272442833  |BT| (NP (DT A)(JJ Palestinian)(NN terrorist)) |BT| (BOW (Palestinian *)(terrorist *)) |BT| (BOP (JJ *)(NN *)) |ET| 
-0.036234193114067628216368177618278  |BT| (NP (NNP minority)(NNP Shiite)(NNPS Muslims)) |BT| (BOW (Shiite *)(Muslims *)) |BT| (BOP (NNP *)(NNP *)) |ET| 
-0.023125279475569783527166833891897  |BT| (NP (DT The)(NNP Texas)(NN governor)(CC and)(JJ Republican)(NN nominee)) |BT| (BOW (Texas *)(governor *)(and *)(Republican *)(nominee *)) |BT| (BOP (NNP *)(NN *)(CC *)(NNP *)(NN *)) |ET| 
-0.016603510341672310379745880482005  |BT| (NP (DT a)(NNP California)(NN investor)) |BT| (BOW (California *)(investor *)) |BT| (BOP (NNP *)(NN *)) |ET| 
-0.01551037592645461773988024845039  |BT| (NP (DT the)(NN county)(NN jail)) |BT| (BOW (county *)(jail *)) |BT| (BOP (NN *)(NN *)) |ET| 
-0.027149179672228351822838021689677  |BT| (NP (NNP General)(NNP Assembly)(NNP President)(NNP Harri)(NNP Holkeri)) |BT| (BOW (General *)(Assembly *)(President *)(Harri *)(Holkeri *)) |BT| (BOP (NNP *)(NNP *)(NNP *)(NNP *)(NNP *)) |ET| 
-0.017659235443234555518188244604971  |BT| (S (NP (PRP he))(VP (VBD was)(NP (NP (NN vice)(NN president))(PP (IN in)(NP (NP (NNP Eisenhower)(POS 's))(NN administration)))))) |BT| (BOW (he *)(was *)(vice *)(president *)) |BT| (BOP (PRP *)(VBD *)(NN *)(NN *)) |ET| 
-0.012793183912373624205871536219092  |BT| (NP (NN fishery)(NNS scientists)) |BT| (BOW (fishery *)(scientists *)) |BT| (BOP (NN *)(NNS *)) |ET| 
-0.011460955130491105868895118646833  |BT| (NP (NP (NNP Mexico)(POS 's))(JJ embattled)(NN ruling)(NN party)) |BT| (BOW (Mexico *)('s *)(embattled *)(ruling *)(party *)) |BT| (BOP (NNP *)(POS *)(JJ *)(VBG *)(NN *)) |ET| 
-0.016213521012437365209635231622087  |BT| (NP (DT a)(NNP Rochester)(NN journalist)) |BT| (BOW (Rochester *)(journalist *)) |BT| (BOP (NNP *)(NN *)) |ET| 
-0.016368558739720873163037140329834  |BT| (NP (ADJP (ADJP (JJ ``Stay)(PP (PP (IN in)(NP (NP (PRP$ your)(NNS homes))(, ,)(NP (NN play)(NN soccer))(, ,)))(CC or)(PP (IN till)(NP (DT the)(NNS fields)))(, ,)))(CC but)(ADJP (JJ don't)))(NN vote)(NN ,'')(NN party)(NN representative)(NNP Lacina)(NNP Coulibaly)) |BT| (BOW (representative *)(Lacina *)(Coulibaly *)) |BT| (BOP (JJ *)(NNP *)(NNP *)) |ET| 
-0.011910609351981378892237906086393  |BT| (NP (DT this)(JJ sprawling)(NN southeast)(JJ Asian)(NN nation)) |BT| (BOW (southeast *)(Asian *)(nation *)) |BT| (BOP (RB *)(JJ *)(NN *)) |ET| 
-0.012382853365537238587990032101516  |BT| (NP (DT The)(JJ Russian)(, ,)(JJ Ukrainian)(CC and)(JJ Turkish)(NNS planes)) |BT| (BOW (Russian *)(, *)(Ukrainian *)) |BT| (BOP (JJ *)(, *)(JJ *)) |ET| 
-0.011821140433868688318641559931166  |BT| (NP (NP (CD One))(PP (IN of)(NP (NP (NN baseball)(POS 's))(JJS biggest)(JJ free-agent)(NNS prizes)))) |BT| (BOW (One *)(of *)(baseball *)('s *)(biggest *)(free-agent *)(prizes *)) |BT| (BOP (CD *)(IN *)(NN *)(POS *)(JJS *)(JJ *)(NNS *)) |ET| 
-0.013410250156043726846299968258336  |BT| (NP (NP (DT the)(NN sheriff)(POS 's))(NN department)) |BT| (BOW (sheriff *)('s *)(department *)) |BT| (BOP (NN *)(POS *)(NN *)) |ET| 
-0.010815447389670758068791478478943  |BT| (NP (PRP$ its)(JJ core)(JJ trans-Atlantic)(NNS flights)) |BT| (BOW (its *)(core *)(trans-Atlantic *)) |BT| (BOP (PRP$ *)(NN *)(JJ *)) |ET| 
-0.012284584342543425350413599517196  |BT| (NP (PRP$ our)(NN organization)) |BT| (BOW (our *)(organization *)) |BT| (BOP (PRP$ *)(NN *)) |ET| 
-0.0076056081011007629910647409587909  |BT| (S (NP (JJ Military)(NNS leaders))(VP (VBP accuse)(NP (PRP them))(PP (IN of)(S (VP (VBG interfering)(PP (IN in)(NP (NP (NNP Indonesia)(POS 's))(JJ internal)(NNS affairs)))))))(. .)) |BT| (BOW (leaders *)(accuse *)(them *)) |BT| (BOP (NNS *)(VB *)(PRP *)) |ET| 
-0.01113128883372049848787810333306  |BT| (NP (NNP Gov.)(NNP Jesse)(NNP Ventura)(POS 's)) |BT| (BOW (Gov. *)(Jesse *)(Ventura *)) |BT| (BOP (NNP *)(NNP *)(NNP *)) |ET| 
-0.021507572286629771107779873773325  |BT| (NP (NNP Arizona)(NNP State)(JJ athletic)(NN director)(NNP Gene)(NNP Smith)) |BT| (BOW (director *)(Gene *)(Smith *)) |BT| (BOP (NN *)(IN *)(NNP *)) |ET| 
-0.011317674612897860725313492480382  |BT| (S (NP (NP (JJS Most))(PP (IN of)(NP (DT the)(JJ civilian)(NNS victims))))(VP (VBD were)(VP (VBN shot)(PP (IN by)(NP (NN security)(NNS forces)))))(. .)) |BT| (BOW (victims *)(were *)(shot *)(by *)(security *)(forces *)) |BT| (BOP (NNS *)(VBD *)(VBN *)(IN *)(NN *)(NNS *)) |ET| 
-0.012812627059784587046920023567509  |BT| (NP (JJ several)(NNP Indonesian)(NNS regions)) |BT| (BOW (Indonesian *)(regions *)) |BT| (BOP (JJ *)(NNS *)) |ET| 
-0.0096493583003309044837658703386296  |BT| (NP (DT That)(NNP Gore)(JJ -Bush)(NN audience)) |BT| (BOW (-Bush *)(audience *)) |BT| (BOP (JJ *)(NN *)) |ET| 
-0.0056626149043392057930157434952889  |BT| (NP (PRP$ its)(NNS suburbs)) |BT| (BOW (its *)(suburbs *)) |BT| (BOP (PRP$ *)(NNS *)) |ET| 
-0.01946127751342019429614538239548  |BT| (NP (NP (NNP Indonesia)(POS 's))(NN government)) |BT| (BOW (Indonesia *)('s *)(government *)) |BT| (BOP (NNP *)(POS *)(NN *)) |ET| 
-0.009696552903036887230414642147025  |BT| (NP (NP (DT a)(NN fund)(NN shareholder)(NN advocacy)(NN group))(VP (VBN founded)(PP (IN by)(NP (NP (NNP Mercer)(NNP Bullard))(, ,)(NP (NP (DT a)(JJ former)(NN lawyer))(PP (IN for)(NP (NP (DT the)(NNP SEC)(POS 's))(NN enforcement)(NN division)))))))) |BT| (BOW (shareholder *)(advocacy *)(group *)(founded *)(by *)(Mercer *)(Bullard *)(, *)(a *)(former *)(lawyer *)) |BT| (BOP (NN *)(NN *)(NN *)(VBD *)(IN *)(NNP *)(NNP *)(, *)(DT *)(JJ *)(NN *)) |ET| 
-0.014614156352328211418978298752336  |BT| (NP (NN Company)(NNS officials)) |BT| (BOW (Company *)(officials *)) |BT| (BOP (NNP *)(NNS *)) |ET| 
-0.013588912135937991632061994096148  |BT| (NP (NN commission)(NN chairman)(NNP Ananta)(NNP Baharuddin)) |BT| (BOW (chairman *)(Ananta *)(Baharuddin *)) |BT| (BOP (NN *)(NNP *)(NNP *)) |ET| 
-0.022208727512836274470275910175587  |BT| (NP (NNP Federal)(NNP Reserve)(NNP Chairman)(NNP Alan)(NNP Greenspan)) |BT| (BOW (Federal *)(Reserve *)(Chairman *)(Alan *)(Greenspan *)) |BT| (BOP (NNP *)(NNP *)(NNP *)(NNP *)(NNP *)) |ET| 
-0.010673009119860743521002177658374  |BT| (S (NP (NNP ``I))(VP (VBD came)(PRT (RP away))(SBAR (S (NP (ADJP (RB reasonably)(JJ optimistic))(NNP ,'')(NNP French)(NNP Prime)(NNP Minister)(NNP Lionel)(NNP Jospin))(VP (VBD said)(PP (IN after)(NP (NP (CD one)(NN round))(PP (IN of)(NP (NNS talks)))))(NP (NNP Thursday))))))(. .)) |BT| (BOW (``I *)(came *)(away *)(reasonably *)(optimistic *)(,'' *)(French *)(Prime *)(Minister *)) |BT| (BOP (NNP *)(VBD *)(IN *)(RB *)(JJ *)(IN *)(JJ *)(NNP *)(NNP *)) |ET| 
-0.010159803276614901360042075850743  |BT| (NP (NP (NNP Britain)(POS 's))(JJ unofficial)(NN flag)(NN carrier)) |BT| (BOW (Britain *)('s *)(unofficial *)(flag *)(carrier *)) |BT| (BOP (NNP *)(POS *)(JJ *)(NN *)(NN *)) |ET| 
-0.013958686722242319433462398592383  |BT| (NP (DT a)(NN fund)(NN shareholder)(NN advocacy)(NN group)) |BT| (BOW (shareholder *)(advocacy *)(group *)) |BT| (BOP (NN *)(NN *)(NN *)) |ET| 
-0.013239911778836464112396598125088  |BT| (S (S (NP (JJ ``I)(NN don't))(VP (VBP want)(S (VP (TO to)(VP (VB speculate)(PP (IN about)(NP (NN failure))))))))(NP (NNP ,'')(NNP Swedish)(NNP Prime)(NNP Minister)(NNP Goeran)(NNP Persson))(VP (VBD told)(NP (NNS reporters))(PP (IN after)(NP (PRP$ his)(JJ 15-minute)(NN meeting)))(PP (IN with)(NP (NNP Chirac))))(. .)) |BT| (BOW (Swedish *)(Prime *)(Minister *)(Goeran *)(Persson *)(told *)(reporters *)) |BT| (BOP (JJ *)(NNP *)(NNP *)(NNP *)(NNP *)(VBD *)(NNS *)) |ET| 
-0.01517872651429863842253986661035  |BT| (S (NP (NNP Rush)(NNP Holt)(CC and)(NNP GOP))(VP (VBP challenger)(NP (NP (NNP Dick)(NNP Zimmer))(, ,)(SBAR (SBAR (WHNP (WP who))(S (ADVP (RB formerly))(VP (VBD held)(NP (DT the)(NN seat)))))(: ;)(CC and)(SBAR (IN in)(FRAG (NP (NP (NNP Florida)(POS 's))(NNP 22nd)(NNP District))))))(, ,)(SBAR (WHADVP (WRB where))(S (NP (NN veteran)(NNP GOP)(NNP Rep)))))(. .)) |BT| (BOW (GOP *)(challenger *)) |BT| (BOP (NNP *)(NN *)) |ET| 
-0.011789490266318924938104828470387  |BT| (NP (DT the)(NN airline)(NN industry)) |BT| (BOW (airline *)(industry *)) |BT| (BOP (NN *)(NN *)) |ET| 
-0.010625041641258770042099968122784  |BT| (NP (PRP$ my)(NN grandson)) |BT| (BOW (my *)(grandson *)) |BT| (BOP (PRP$ *)(NN *)) |ET| 
-0.038511759760710230493518935190878  |BT| (NP (JJ outgoing)(NNP Tabasco)(NNP Gov.)(NNP Roberto)(NNP Madrazo)) |BT| (BOW (Tabasco *)(Gov. *)(Roberto *)(Madrazo *)) |BT| (BOP (NNP *)(NNP *)(NNP *)(NNP *)) |ET| 
-0.0090402946987870307776757883289065  |BT| (NP (NP (NNP Chicago)(NNP Enforcers)(NN coach)(NNP Ron)(NNP Meyer))(, ,)(NP (NP (JJ former)(NN head)(NN coach))(PP (IN of)(NP (NP (DT the)(NNPS Patriots)(CC and)(NNPS Colts))(, ,)(SBAR (WHNP (WP who))(S (VP (VBD took)(NP (DT the)(NN job))(SBAR (WHADVP (WRB when))(S (NP (NNP Chicago)(NN favorite)(NNP Dick)(NNP Butkus))(VP (VBD resigned)(S (VP (TO to)(VP (VB take)(NP (NP (DT a)(NN job))(PP (IN in)(NP (DT the)(NN league)(NN office))))))))))))))))) |BT| (BOW (coach *)(Ron *)(Meyer *)(, *)(former *)(head *)(coach *)) |BT| (BOP (NN *)(NNP *)(NNP *)(, *)(JJ *)(NN *)(NN *)) |ET| 
-0.012190801090481467178205932100354  |BT| (NP (NP (DT The)(NN president))(PP (IN of)(NP (NNP Serbia)))) |BT| (BOW (president *)(of *)(Serbia *)) |BT| (BOP (NN *)(IN *)(NNP *)) |ET| 
