SVM-light Version V5.01-TK-1.2
5 # kernel type
3 # kernel parameter -d 
1 # kernel parameter -g 
1 # kernel parameter -s 
1 # kernel parameter -r 
empty# kernel parameter -u 
0.4 # kernel parameter -L 
1 # kernel parameter -T 
T # kernel parameter -C 
1 # kernel parameter -F 
1 # kernel parameter -S 
1.000000 # kernel parameter -D 
3 # kernel parameter -N 
S # kernel parameter -V 
S # kernel parameter -W 
0 # highest feature index 
16257 # number of training documents 
317 # number of support vectors plus 1 
1.1323043 # threshold b, each following line is a SV (starting with alpha*y)
-0.11503068335304711400368660179083  |BT| (NP (NP (NP (DT The)(NNP Courier)(NNP News))(PP (IN in)(NP (NNP Elgin))))(, ,)(NP (NP (DT The)(NNP Beacon)(NNP News))(PP (IN in)(NP (NNP Aurora))))(CC and)(NP (NP (DT The)(NNP Herald)(NNP News))(PP (IN in)(NP (NNP Joliet))))) |BT| (BOW (Aurora *)(and *)(The *)(Herald *)(News *)(in *)(Joliet *)) |BT| (BOP (NNP *)(CC *)(DT *)(NNP *)(NNP *)(IN *)(NNP *)) |ET| 
-0.041775957659498874630088494086522  |BT| (NP (NP (DT a)(NN farmer))(PP (IN in)(NP (NP (NNP Bamyan))(CC and)(NP (RB not)(DT a)(NN soldier))))) |BT| (BOW (farmer *)(in *)(Bamyan *)) |BT| (BOP (NN *)(IN *)(NNP *)) |ET| 
-0.029728428767586943110012853708213  |BT| (S (NP (NP (DT the)(NNP University))(PP (IN of)(NP (NNP Oklahoma))))(VP (VBD won)(NP (DT the)(NNP Orange)(NNP Bowl))(ADVP (RB there))(PP (IN in)(NP (CD 1980)(CC and)(CD 1981))))) |BT| (BOW (University *)(of *)(Oklahoma *)(won *)(the *)(Orange *)(Bowl *)(there *)) |BT| (BOP (NNP *)(IN *)(NNP *)(VBD *)(DT *)(NNP *)(NNP *)(RB *)) |ET| 
-0.098221902729795224074038628714334  |BT| (NP (NP (DT an)(JJ allied)(NN party))(PP (IN from)(NP (NP (NNP Montenegro))(, ,)(NP (NP (NNP Yugoslavia)(POS 's))(JJR smaller)(NN republic))))) |BT| (BOW (party *)(from *)(Montenegro *)(, *)(Yugoslavia *)) |BT| (BOP (NN *)(IN *)(NNP *)(, *)(NNP *)) |ET| 
-0.14309941740477863381109102647315  |BT| (VP (VBG blocking)(NP (NP (DT the)(NN sale))(PP (IN of)(NP (NP (DT The)(NNP News)(NNP Sun))(PP (IN in)(NP (NNP Waukegan))))))(PP (TO to)(NP (NNP Hollinger)(NNP International)))) |BT| (BOW (The *)(News *)(Sun *)(in *)(Waukegan *)(to *)(Hollinger *)(International *)) |BT| (BOP (DT *)(NNP *)(NNP *)(IN *)(NNP *)(TO *)(NNP *)(NNP *)) |ET| 
0.33333333333351461424953754431044  |BT| (VP (VBN indicted)(PP (IN by)(NP (DT the)(JJ international)(NN war)(NNS crimes)(NN tribunal)))(PP (IN in)(NP (DT The)(NNP Hague)(, ,)(NNPS Netherlands)))) |BT| (BOW (international *)(war *)(crimes *)(tribunal *)(in *)(The *)(Hague *)) |BT| (BOP (JJ *)(NN *)(NNS *)(NN *)(IN *)(DT *)(NNP *)) |ET| 
0.33333333333351461424953754431044  |BT| (NP (NP (DT an)(JJ allied)(NN party))(PP (IN from)(NP (NP (NNP Montenegro))(, ,)(NP (NP (NNP Yugoslavia)(POS 's))(JJR smaller)(NN republic))))) |BT| (BOW (party *)(from *)(Montenegro *)) |BT| (BOP (NN *)(IN *)(NNP *)) |ET| 
0.33333333333351461424953754431044  |BT| (NP (NP (DT A)(JJ human)(NNS rights)(NN group))(PP (IN in)(NP (NNP Yugoslavia)))) |BT| (BOW (group *)(in *)(Yugoslavia *)) |BT| (BOP (NN *)(IN *)(NNP *)) |ET| 
0.33333333333351461424953754431044  |BT| (NP (NP (DT the)(NNP Socialist)(NNP People's)(NNP Party))(PP (IN of)(NP (NP (NNP Montenegro))(, ,)(NP (DT the)(JJR smaller)(NNP Yugoslav)(NN republic))))) |BT| (BOW (Socialist *)(People's *)(Party *)(of *)(Montenegro *)) |BT| (BOP (NN *)(NNPS *)(NNP *)(IN *)(NNP *)) |ET| 
0.33333333333351461424953754431044  |BT| (S (S (NP (DT This)(NN pattern))(VP (VBZ follows)(NP (DT an)(ADJP (JJ old)(, ,)(JJ familiar))(NN trend))))(PRN (, ,)(SINV (VP (VBD said))(NP (NP (NNP Joni)(NNP Finney))(, ,)(NP (NP (DT a)(NN policy)(NN analyst))(PP (IN at)(NP (NP (DT the)(NNP National)(NNP Center))(PP (IN for)(NP (NNP Public)(NNP Policy)))))))))(CC and)(S (NP (NP (NNP Higher)(NNP Education))(PP (IN in)(NP (NNP San)(NNP Jose)(, ,)(NNP Calif.)(NNS ``Colleges)(CC and)(NNS universities))))(VP (VBP have)(NP (NP (DT a)(ADJP (RB very)(JJ difficult))(NN time))(VP (VBG controlling)(NP (PRP$ their)(NNS costs))(S (VP (VBG ,'')(SBAR (S (NP (PRP she))(VP (VBD said))))))))))(. .)) |BT| (BOW (National *)(Center *)(for *)(Public *)(Policy *)(and *)(Higher *)(Education *)(in *)(San *)(Jose *)) |BT| (BOP (NNP *)(NNP *)(IN *)(NNP *)(NNP *)(CC *)(NNP *)(NNP *)(IN *)(NNP *)(NNP *)) |ET| 
-0.08855701031286726532254505173114  |BT| (NP (NP (DT the)(JJ doomed)(NN airliner))(PP (IN in)(NP (NNP London)))) |BT| (BOW (airliner *)(in *)(London *)) |BT| (BOP (NN *)(IN *)(NNP *)) |ET| 
0.33333333333351461424953754431044  |BT| (NP (NP (DT a)(NN researcher))(PP (IN at)(NP (DT the)(NNP Dauphin)(NNP Island)(NNP Sea)(NNP Lab)))(PP (IN in)(NP (NNP Alabama)))) |BT| (BOW (Dauphin *)(Island *)(Sea *)(Lab *)(in *)(Alabama *)) |BT| (BOP (NNP *)(NNP *)(NNP *)(NNP *)(IN *)(NNP *)) |ET| 
-0.10404525431050587469528068140789  |BT| (NP (NP (DT a)(NN researcher))(PP (IN at)(NP (DT the)(NNP Dauphin)(NNP Island)(NNP Sea)(NNP Lab)))(PP (IN in)(NP (NNP Alabama)))) |BT| (BOW (researcher *)(at *)(the *)(Dauphin *)(Island *)(Sea *)(Lab *)(in *)(Alabama *)) |BT| (BOP (NN *)(IN *)(DT *)(NNP *)(NNP *)(NNP *)(NNP *)(IN *)(NNP *)) |ET| 
0.33333333333351461424953754431044  |BT| (NP (NP (JJ different)(NNS businesses))(VP (VBG operating)(ADVP (RB separately))(PP (IN within)(NP (NNP Europe))))) |BT| (BOW (businesses *)(operating *)(separately *)(within *)(Europe *)) |BT| (BOP (NNS *)(VBG *)(RB *)(IN *)(NNP *)) |ET| 
-0.070499477764563334147851492161863  |BT| (S (NP (NN ``We))(VP (VBP have)(NP (NP (DT a)(NN number))(PP (IN of)(NP (NP (JJ different)(NNS businesses))(VP (VBG operating)(ADVP (RB separately))(PP (IN within)(NP (NNP Europe))))))))(. .)) |BT| (BOW (``We *)(have *)(a *)(number *)(of *)(different *)(businesses *)(operating *)(separately *)(within *)(Europe *)) |BT| (BOP (RB *)(VBP *)(DT *)(NN *)(IN *)(JJ *)(NNS *)(VBG *)(RB *)(IN *)(NNP *)) |ET| 
0.33333333333351461424953754431044  |BT| (SINV (S (NP (PRP He))(VP (VBD served)(PP (IN in)(NP (CD 1954-56)))(PP (IN as)(NP (NP (DT a)(NN clerk))(PP (IN in)(NP (DT an)(NNP Army)(NNPS Reserves)(NN office)))))))(, ,)(VP (ADVP (RB then))(VBD took)(NP (DT a)(NN job))(PP (IN as)(NP (NP (NN art)(NN director))(PP (IN of)(NP (NNP Road)(CC &)(NNP Track))))))(NP (NP (NN magazine))(PP (IN in)(NP (NNP Newport)(NNP Beach))))(. .)) |BT| (BOW (Road *)(& *)(Track *)(magazine *)(in *)(Newport *)(Beach *)) |BT| (BOP (NNP *)(CC *)(NNP *)(NN *)(IN *)(NNP *)(NNP *)) |ET| 
-0.12077658990058803833989031772944  |BT| (SINV (S (NP (PRP He))(VP (VBD served)(PP (IN in)(NP (CD 1954-56)))(PP (IN as)(NP (NP (DT a)(NN clerk))(PP (IN in)(NP (DT an)(NNP Army)(NNPS Reserves)(NN office)))))))(, ,)(VP (ADVP (RB then))(VBD took)(NP (DT a)(NN job))(PP (IN as)(NP (NP (NN art)(NN director))(PP (IN of)(NP (NNP Road)(CC &)(NNP Track))))))(NP (NP (NN magazine))(PP (IN in)(NP (NNP Newport)(NNP Beach))))(. .)) |BT| (BOW (director *)(of *)(Road *)(& *)(Track *)(magazine *)(in *)(Newport *)(Beach *)) |BT| (BOP (NN *)(IN *)(NNP *)(CC *)(NNP *)(NN *)(IN *)(NNP *)(NNP *)) |ET| 
0.33333333333351461424953754431044  |BT| (NP (NP (DT a)(NN company))(VP (VBN based)(PP (IN in)(NP (NP (DT the)(NN state))(PP (IN of)(NP (NNP Washington))))))) |BT| (BOW (company *)(based *)(in *)(the *)(state *)) |BT| (BOP (NN *)(VBN *)(IN *)(DT *)(NN *)) |ET| 
-0.085781011739321025300064604834915  |BT| (NP (NP (DT a)(NN company))(VP (VBN based)(PP (IN in)(NP (NP (DT the)(NN state))(PP (IN of)(NP (NNP Washington))))))) |BT| (BOW (company *)(based *)(in *)(the *)(state *)(of *)(Washington *)) |BT| (BOP (NN *)(VBN *)(IN *)(DT *)(NN *)(IN *)(NNP *)) |ET| 
0.33333333333351461424953754431044  |BT| (NP (NP (DT The)(NNP Star-Ledger))(PP (IN of)(NP (NP (NNP Newark))(, ,)(NP (NNP Gannett)(NNP Newspapers))(CC and)(NP (NP (DT The)(NNP Record))(PP (IN of)(NP (NNP Hackensack))))))) |BT| (BOW (Star-Ledger *)(of *)(Newark *)) |BT| (BOP (NNP *)(IN *)(NNP *)) |ET| 
-0.021662599822476775318635944245216  |BT| (S (S (NP (DT This)(NN pattern))(VP (VBZ follows)(NP (DT an)(ADJP (JJ old)(, ,)(JJ familiar))(NN trend))))(PRN (, ,)(SINV (VP (VBD said))(NP (NP (NNP Joni)(NNP Finney))(, ,)(NP (NP (DT a)(NN policy)(NN analyst))(PP (IN at)(NP (NP (DT the)(NNP National)(NNP Center))(PP (IN for)(NP (NNP Public)(NNP Policy)))))))))(CC and)(S (NP (NP (NNP Higher)(NNP Education))(PP (IN in)(NP (NNP San)(NNP Jose)(, ,)(NNP Calif.)(NNS ``Colleges)(CC and)(NNS universities))))(VP (VBP have)(NP (NP (DT a)(ADJP (RB very)(JJ difficult))(NN time))(VP (VBG controlling)(NP (PRP$ their)(NNS costs))(S (VP (VBG ,'')(SBAR (S (NP (PRP she))(VP (VBD said))))))))))(. .)) |BT| (BOW (analyst *)(at *)(the *)(National *)(Center *)(for *)(Public *)(Policy *)(and *)(Higher *)(Education *)) |BT| (BOP (NN *)(IN *)(DT *)(NNP *)(NNP *)(IN *)(NNP *)(NNP *)(CC *)(NNP *)(NNP *)) |ET| 
0.33333333333351461424953754431044  |BT| (NP (NP (DT the)(NNP American)(NNP Museum))(PP (IN of)(NP (NP (JJ Natural)(NN History))(PP (IN in)(NP (NNP New)(NNP York)))))) |BT| (BOW (American *)(Museum *)(of *)(Natural *)(History *)(in *)(New *)(York *)) |BT| (BOP (JJ *)(NN *)(IN *)(JJ *)(JJ *)(IN *)(NNP *)(NNP *)) |ET| 
-0.063568537375736547390125963374885  |BT| (NP (NP (DT The)(NNP Star-Ledger))(PP (IN of)(NP (NP (NNP Newark))(, ,)(NP (NNP Gannett)(NNP Newspapers))(CC and)(NP (NP (DT The)(NNP Record))(PP (IN of)(NP (NNP Hackensack))))))) |BT| (BOW (Star-Ledger *)(of *)(Newark *)(, *)(Gannett *)(Newspapers *)(and *)(The *)(Record *)(of *)(Hackensack *)) |BT| (BOP (NNP *)(IN *)(NNP *)(, *)(NNP *)(NNPS *)(CC *)(DT *)(NNP *)(IN *)(NNP *)) |ET| 
0.33333333333351461424953754431044  |BT| (NP (NP (DT the)(JJS largest)(NN motorcycle)(NN magazine))(PP (IN in)(NP (NP (DT the)(NN world))(, ,)(NP (NNP Brown))(CC and)(NP (NNS others))))) |BT| (BOW (magazine *)(in *)(the *)(world *)) |BT| (BOP (NN *)(IN *)(DT *)(NN *)) |ET| 
-0.11213828094389033385169796019909  |BT| (NP (NP (DT the)(JJS largest)(NN motorcycle)(NN magazine))(PP (IN in)(NP (NP (DT the)(NN world))(, ,)(NP (NNP Brown))(CC and)(NP (NNS others))))) |BT| (BOW (motorcycle *)(magazine *)(in *)(the *)(world *)) |BT| (BOP (NN *)(NN *)(IN *)(DT *)(NN *)) |ET| 
0.33333333333351461424953754431044  |BT| (NP (NP (NNP DJB)(NNPS Associates)(NNP LLC))(PP (IN of)(NP (NNP Irvine)))) |BT| (BOW (DJB *)(Associates *)(LLC *)(of *)(Irvine *)) |BT| (BOP (NNP *)(NNPS *)(NNP *)(IN *)(NNP *)) |ET| 
-0.11087592552960072456169626775591  |BT| (NP (NP (NNP Don)(NNP Brown))(PP (IN of)(NP (NP (NNP DJB)(NNPS Associates)(NNP LLC))(PP (IN of)(NP (NNP Irvine)))))) |BT| (BOW (Don *)(Brown *)(of *)(DJB *)(Associates *)(LLC *)(of *)(Irvine *)) |BT| (BOP (NNP *)(NNP *)(IN *)(NNP *)(NNPS *)(NNP *)(IN *)(NNP *)) |ET| 
0.33333333333351461424953754431044  |BT| (NP (NP (JJ minor)(CC and)(JJ indoor)(NNS leagues))(PP (IN in)(NP (DT the)(NNP United)(NNPS States)))) |BT| (BOW (leagues *)(in *)(the *)(United *)(States *)) |BT| (BOP (NNS *)(IN *)(DT *)(NNP *)(NNPS *)) |ET| 
-0.073146537147983581306220912665594  |BT| (VP (VBD was)(ADJP (JJR busier))(PP (IN than)(NP (JJ usual)(NNP Saturday)))(PP (IN with)(NP (NP (DT the)(JJS largest)(NN movement))(PP (IN of)(NP (NNS planes)))))(SBAR (IN since)(S (NP (DT the)(NNP United)(NNPS States))(VP (VBD imposed)(NP (NNS sanctions))(PP (IN on)(NP (NNP Iraq)))(PP (IN in)(NP (CD 1990))))))) |BT| (BOW (planes *)(since *)(the *)(United *)(States *)) |BT| (BOP (NNS *)(IN *)(DT *)(NNP *)(NNPS *)) |ET| 
0.33333333333351461424953754431044  |BT| (NP (NP (NNP Rice)(NNP University))(PP (IN in)(NP (NNP Houston)))) |BT| (BOW (Rice *)(University *)(in *)(Houston *)) |BT| (BOP (NNP *)(NNP *)(IN *)(NNP *)) |ET| 
-0.16927174611974879492315437801153  |BT| (VP (VBD recruited)(PP (IN by)(NP (NNP NBC)))(PP (IN in)(NP (NNP Tampa)))) |BT| (BOW (NBC *)(in *)(Tampa *)) |BT| (BOP (NNP *)(IN *)(NNP *)) |ET| 
0.33333333333351461424953754431044  |BT| (NP (NP (DT The)(NNP Record))(PP (IN of)(NP (NNP Hackensack)))) |BT| (BOW (Record *)(of *)(Hackensack *)) |BT| (BOP (NNP *)(IN *)(NNP *)) |ET| 
-0.11148569354064262471037949353558  |BT| (NP (NP (NNP Bush))(PP (IN in)(NP (NP (NNP Winston-Salem)(, ,)(NNP N.C.))(, ,)(NP (NP (DT the)(NN second))(PP (IN of)(NP (PRP$ their)(CD three)(JJ scheduled)(NNS encounters))))))) |BT| (BOW (Bush *)(in *)(Winston-Salem *)) |BT| (BOP (NNP *)(IN *)(NNP *)) |ET| 
0.33333333333351461424953754431044  |BT| (S (NP (NNP Embassy))(VP (VP (PP (IN in)(NP (NNP Copenhagen)))(PP (IN on)(NP (NNP Monday))))(CC and)(VP (VBD were)(VP (VBN asked)(S (VP (TO to)(VP (VB put)(NP (DT the)(NNS envelopes))(PP (IN in)(NP (DT the)(NN mail)))))))))(. .)) |BT| (BOW (Embassy *)(in *)(Copenhagen *)) |BT| (BOP (JJ *)(IN *)(NNP *)) |ET| 
-0.03517565343923269305381751337336  |BT| (NP (NP (DT the)(NN librarian))(PP (IN of)(NP (NNP Congress)))) |BT| (BOW (librarian *)(of *)(Congress *)) |BT| (BOP (JJ *)(IN *)(NNP *)) |ET| 
0.33333333333351461424953754431044  |BT| (NP (NP (NN director))(PP (IN of)(NP (NP (DT the)(JJ fisheries)(NN section))(PP (IN of)(NP (DT the)(NNP Gulf)(NNP Coast)(NNP Research)(NNP Laboratory)))))(PP (IN in)(NP (NNP Mississippi)))) |BT| (BOW (Gulf *)(Coast *)(Research *)(Laboratory *)(in *)(Mississippi *)) |BT| (BOP (NNP *)(NNP *)(NNP *)(NNP *)(IN *)(NNP *)) |ET| 
-0.089015707734970861420009669018327  |BT| (NP (NP (NN director))(PP (IN of)(NP (NP (DT the)(JJ fisheries)(NN section))(PP (IN of)(NP (DT the)(NNP Gulf)(NNP Coast)(NNP Research)(NNP Laboratory)))))(PP (IN in)(NP (NNP Mississippi)))) |BT| (BOW (fisheries *)(section *)(of *)(the *)(Gulf *)(Coast *)(Research *)(Laboratory *)(in *)(Mississippi *)) |BT| (BOP (NNS *)(NN *)(IN *)(DT *)(NNP *)(NNP *)(NNP *)(NNP *)(IN *)(NNP *)) |ET| 
0.33333333333351461424953754431044  |BT| (VP (VBN gone)(PP (TO to)(NP (JJ professional)(NNS leagues)))(PP (IN in)(NP (NP (NNS dozens))(PP (IN of)(NP (JJ other)(NNS countries)))))) |BT| (BOW (leagues *)(in *)(dozens *)(of *)(other *)(countries *)) |BT| (BOP (NNS *)(IN *)(NNS *)(IN *)(JJ *)(NNS *)) |ET| 
-0.012494097839862267421140451517658  |BT| (NP (NP (NN aid)(NNS workers))(PP (IN in)(NP (NNP Indonesian)(NNP West)(NNP Timor)))(PP (IN in)(NP (NNP September)))(. .)) |BT| (BOW (workers *)(in *)(Indonesian *)) |BT| (BOP (NNS *)(IN *)(JJ *)) |ET| 
0.33333333333351461424953754431044  |BT| (NP (NP (DT The)(NNP News)(NNP Sun))(PP (IN in)(NP (NNP Waukegan)))) |BT| (BOW (The *)(News *)(Sun *)(in *)(Waukegan *)) |BT| (BOP (DT *)(NNP *)(NNP *)(IN *)(NNP *)) |ET| 
-0.11240056973420295416410397137952  |BT| (NP (NP (NP (DT The)(NNP Courier)(NNP News))(PP (IN in)(NP (NNP Elgin))))(, ,)(NP (NP (DT The)(NNP Beacon)(NNP News))(PP (IN in)(NP (NNP Aurora))))(CC and)(NP (NP (DT The)(NNP Herald)(NNP News))(PP (IN in)(NP (NNP Joliet))))) |BT| (BOW (The *)(Beacon *)(News *)(in *)(Aurora *)(and *)(The *)(Herald *)(News *)(in *)(Joliet *)) |BT| (BOP (DT *)(NNP *)(NNP *)(IN *)(NNP *)(CC *)(DT *)(NNP *)(NNP *)(IN *)(NNP *)) |ET| 
0.33333333333351461424953754431044  |BT| (NP (NP (DT the)(NNP Daily)(NNP Southtown))(PP (IN in)(NP (NNP Tinley)(NNP Park)))) |BT| (BOW (Daily *)(Southtown *)(in *)(Tinley *)(Park *)) |BT| (BOP (JJ *)(NN *)(IN *)(NNP *)(NNP *)) |ET| 
-0.078900361713077876713029468191962  |BT| (NP (NP (NNS Kids))(PP (IN in)(NP (NNP Houston)(NN don't)))) |BT| (BOW (Kids *)(in *)(Houston *)) |BT| (BOP (NNS *)(IN *)(NNP *)) |ET| 
0.33333333333351461424953754431044  |BT| (NP (NP (JJ low-fare)(NNS carriers))(VP (VBG operating)(PP (IN in)(NP (NNP Britain))))) |BT| (BOW (carriers *)(operating *)(in *)(Britain *)) |BT| (BOP (NNS *)(VBG *)(IN *)(NNP *)) |ET| 
-0.15246896002580398454817611764156  |BT| (NP (NP (DT a)(JJ major)(NN base))(PP (IN for)(NP (NP (JJ low-fare)(NNS carriers))(VP (VBG operating)(PP (IN in)(NP (NNP Britain))))))) |BT| (BOW (base *)(for *)(low-fare *)(carriers *)(operating *)(in *)(Britain *)) |BT| (BOP (NN *)(IN *)(JJ *)(NNS *)(VBG *)(IN *)(NNP *)) |ET| 
0.33333333333351461424953754431044  |BT| (NP (NP (JJ several)(NN TV)(CC and)(NN radio)(NNS stations))(PP (IN in)(NP (NNP Oklahoma)))) |BT| (BOW (stations *)(in *)(Oklahoma *)) |BT| (BOP (NNS *)(IN *)(NNP *)) |ET| 
-0.081466378377681447631175615242682  |BT| (NP (NP (DT The)(NNP Daily)(NNP Oklahoman))(CC and)(NP (NP (JJ several)(NN TV)(CC and)(NN radio)(NNS stations))(PP (IN in)(NP (NNP Oklahoma))))) |BT| (BOW (Daily *)(Oklahoman *)(and *)(several *)(TV *)(and *)(radio *)(stations *)(in *)(Oklahoma *)) |BT| (BOP (JJ *)(NNP *)(CC *)(JJ *)(NNS *)(CC *)(NN *)(NNS *)(IN *)(NNP *)) |ET| 
-0.11326599592807297389729370706846  |BT| (NP (NP (JJ new)(NNP Yugoslav)(NNP President)(NNP Vojislav)(NNP Kostunica))(PP (IN in)(NP (NNP Belgrade)))) |BT| (BOW (Yugoslav *)(President *)(Vojislav *)(Kostunica *)(in *)(Belgrade *)) |BT| (BOP (NNP *)(NNP *)(NNP *)(NNP *)(IN *)(NNP *)) |ET| 
0.33333333333351461424953754431044  |BT| (NP (NP (DT The)(NNP Beacon)(NNP News))(PP (IN in)(NP (NNP Aurora)))) |BT| (BOW (The *)(Beacon *)(News *)(in *)(Aurora *)) |BT| (BOP (DT *)(NNP *)(NNP *)(IN *)(NNP *)) |ET| 
-0.038693895247784410029723289881076  |BT| (NP (NP (DT the)(JJ sole)(JJ Jewish)(NN representative))(PP (IN in)(NP (NP (NNP Iran)(POS 's))(JJ 290-seat)(NN parliament)))) |BT| (BOW (representative *)(in *)(Iran *)) |BT| (BOP (NN *)(IN *)(NNP *)) |ET| 
0.33333333333351461424953754431044  |BT| (NP (NP (DT The)(NNP Herald)(NNP News))(PP (IN in)(NP (NNP Joliet)))) |BT| (BOW (The *)(Herald *)(News *)(in *)(Joliet *)) |BT| (BOP (DT *)(NNP *)(NNP *)(IN *)(NNP *)) |ET| 
-0.10924899864502156388024189936914  |BT| (NP (NP (NP (DT The)(NNP Courier)(NNP News))(PP (IN in)(NP (NNP Elgin))))(, ,)(NP (NP (DT The)(NNP Beacon)(NNP News))(PP (IN in)(NP (NNP Aurora))))(CC and)(NP (NP (DT The)(NNP Herald)(NNP News))(PP (IN in)(NP (NNP Joliet))))) |BT| (BOW (The *)(Beacon *)(News *)(in *)(Aurora *)(and *)(The *)(Herald *)(News *)) |BT| (BOP (DT *)(NNP *)(NNP *)(IN *)(NNP *)(CC *)(DT *)(NNP *)(NNP *)) |ET| 
-0.078619202970898166560331787877658  |BT| (VP (VB democrat)(PP (IN in)(NP (NNP Yugoslavia)))) |BT| (BOW (democrat *)(in *)(Yugoslavia *)) |BT| (BOP (VB *)(IN *)(NNP *)) |ET| 
-0.12308143149082431677676652270748  |BT| (VP (VBZ tribunal)(PP (IN in)(NP (DT The)(NNP Hague)))) |BT| (BOW (tribunal *)(in *)(The *)(Hague *)) |BT| (BOP (JJ *)(IN *)(DT *)(NNP *)) |ET| 
-0.089946226857639255403142897193902  |BT| (VP (VBN indicted)(PP (IN by)(NP (DT the)(JJ international)(NN war)(NNS crimes)(NN tribunal)))(PP (IN in)(NP (DT The)(NNP Hague)(, ,)(NNPS Netherlands)))) |BT| (BOW (international *)(war *)(crimes *)(tribunal *)(in *)(The *)(Hague *)(, *)(Netherlands *)) |BT| (BOP (JJ *)(NN *)(NNS *)(NN *)(IN *)(DT *)(NNP *)(, *)(NNS *)) |ET| 
0.33333333333351461424953754431044  |BT| (NP (NP (DT The)(NNP Courier)(NNP News))(PP (IN in)(NP (NNP Elgin)))) |BT| (BOW (The *)(Courier *)(News *)(in *)(Elgin *)) |BT| (BOP (DT *)(NNP *)(NNP *)(IN *)(NNP *)) |ET| 
-0.097486574820350599401841407143365  |BT| (NP (NP (NP (DT The)(NNP Courier)(NNP News))(PP (IN in)(NP (NNP Elgin))))(, ,)(NP (NP (DT The)(NNP Beacon)(NNP News))(PP (IN in)(NP (NNP Aurora))))(CC and)(NP (NP (DT The)(NNP Herald)(NNP News))(PP (IN in)(NP (NNP Joliet))))) |BT| (BOW (The *)(Courier *)(News *)(in *)(Elgin *)(, *)(The *)(Beacon *)(News *)(in *)(Aurora *)) |BT| (BOP (DT *)(NNP *)(NNP *)(IN *)(NNP *)(, *)(DT *)(NNP *)(NNP *)(IN *)(NNP *)) |ET| 
-0.098048919128520969912266025403369  |BT| (NP (NP (NP (DT The)(NNP Courier)(NNP News))(PP (IN in)(NP (NNP Elgin))))(, ,)(NP (NP (DT The)(NNP Beacon)(NNP News))(PP (IN in)(NP (NNP Aurora))))(CC and)(NP (NP (DT The)(NNP Herald)(NNP News))(PP (IN in)(NP (NNP Joliet))))) |BT| (BOW (The *)(Courier *)(News *)(in *)(Elgin *)(, *)(The *)(Beacon *)(News *)) |BT| (BOP (DT *)(NNP *)(NNP *)(IN *)(NNP *)(, *)(DT *)(NNP *)(NNP *)) |ET| 
-0.05313656727161979176354833498408  |BT| (NP (NP (PRP$ their)(JJ new)(NNP Pacific)(NNP Bell)(NNP Park))(PP (IN in)(NP (NNP San)(NNP Francisco)))) |BT| (BOW (Pacific *)(Bell *)(Park *)(in *)(San *)(Francisco *)) |BT| (BOP (NNP *)(NNP *)(NNP *)(IN *)(NNP *)(NNP *)) |ET| 
-0.025355663877167970710058142458365  |BT| (NP (JJ Arab)(NNS countries)) |BT| (BOW (Arab *)(countries *)) |BT| (BOP (NNP *)(NNS *)) |ET| 
-0.067872006149877442404694249944441  |BT| (NP (NP (DT a)(NN dinosaur)(NN expert))(PP (IN at)(NP (NP (DT the)(NNP American)(NNP Museum))(PP (IN of)(NP (NP (JJ Natural)(NN History))(PP (IN in)(NP (NNP New)(NNP York)))))))) |BT| (BOW (expert *)(at *)(the *)(American *)(Museum *)(of *)(Natural *)(History *)(in *)(New *)(York *)) |BT| (BOP (NN *)(IN *)(DT *)(JJ *)(NN *)(IN *)(JJ *)(JJ *)(IN *)(NNP *)(NNP *)) |ET| 
-0.030909434515915375912831208893294  |BT| (NP (NP (NNP Julie)(NNP Duncan))(PP (IN of)(NP (NNP Seattle)))(, ,)(SBAR (WHNP (WP who))(S (VP (VBD said)(SBAR (S (NP (PRP she))(VP (VBD suffered)(NP (NP (NN lung)(NNS problems))(CC and)(NP (NP (JJ chronic)(NNS infections))(VP (ADVP (RB apparently))(VBN related)(PP (TO to)(NP (JJ secondhand)(NN smoke))))))))))))) |BT| (BOW (Julie *)(Duncan *)(of *)(Seattle *)) |BT| (BOP (NNP *)(NNP *)(IN *)(NNP *)) |ET| 
-0.075616461806959467395472529460676  |BT| (NP (NP (NP (NN owner))(PP (IN of)(NP (DT the)(NNP Chicago)(NNP Sun-Times))))(CC and)(NP (NP (DT the)(NNP Daily)(NNP Southtown))(PP (IN in)(NP (NNP Tinley)(NNP Park))))) |BT| (BOW (Chicago *)(Sun-Times *)(and *)(the *)(Daily *)(Southtown *)(in *)(Tinley *)(Park *)) |BT| (BOP (NNP *)(NNPS *)(CC *)(DT *)(JJ *)(NN *)(IN *)(NNP *)(NNP *)) |ET| 
-0.042980393892117774168326604922186  |BT| (S (NP (DT the)(NNP United)(NNPS States))(ADVP (RB still))(VP (ADVP (RB strongly))(VBZ supports)(NP (NP (JJ democratic)(NNS reforms))(PP (IN in)(NP (NNP Indonesia)))))) |BT| (BOW (United *)(States *)(still *)(strongly *)(supports *)(democratic *)(reforms *)(in *)(Indonesia *)) |BT| (BOP (NNP *)(NNPS *)(RB *)(RB *)(NNS *)(JJ *)(NNS *)(IN *)(NNP *)) |ET| 
-0.071110259826222682599805580139218  |BT| (NP (NP (DT the)(NNP Socialist)(NNP People's)(NNP Party))(PP (IN of)(NP (NP (NNP Montenegro))(, ,)(NP (DT the)(JJR smaller)(NNP Yugoslav)(NN republic))))) |BT| (BOW (Socialist *)(People's *)(Party *)(of *)(Montenegro *)(, *)(the *)(smaller *)(Yugoslav *)) |BT| (BOP (NN *)(NNPS *)(NNP *)(IN *)(NNP *)(, *)(DT *)(NN *)(IN *)) |ET| 
-0.050622467035831855697303183205804  |BT| (VP (VBN jailed)(PP (IN in)(NP (NNP Sweden)))(PP (IN for)(NP (NP (NNS attacks))(PP (IN against)(NP (JJ Jewish)(CC and)(JJ American)(NNS targets)))))(PP (IN in)(NP (NNP Europe)))) |BT| (BOW (targets *)(in *)(Europe *)) |BT| (BOP (NNS *)(IN *)(NNP *)) |ET| 
-0.10033932725117007678239389178998  |BT| (NP (NP (PRP$ his)(NN residence))(PP (IN in)(NP (NNP Washington)))) |BT| (BOW (residence *)(in *)(Washington *)) |BT| (BOP (NN *)(IN *)(NNP *)) |ET| 
-0.062662550755606061247959814863862  |BT| (S (NP (NP (DT The)(NNP Star-Ledger))(PP (IN of)(NP (NP (NNP Newark))(, ,)(NP (NNP Gannett)(NNP Newspapers))(CC and)(NP (NP (DT The)(NNP Record))(PP (IN of)(NP (NNP Hackensack)))))))(VP (VBD reported)(NP (NNP Friday))(SBAR (IN that)(S (NP (NNP Shea))(VP (VBD agreed)(S (VP (TO to)(VP (VB resign))))))))(. .)) |BT| (BOW (Record *)(of *)(Hackensack *)(reported *)(Friday *)(that *)(Shea *)) |BT| (BOP (NNP *)(IN *)(NNP *)(VBD *)(NN *)(IN *)(NNP *)) |ET| 
-0.10586343066446388117007870732778  |BT| (NP (NP (DT A)(NN co-defendant))(PP (IN in)(NP (NP (NNP Tommy)(POS 's))(NN case)))) |BT| (BOW (co-defendant *)(in *)(Tommy *)) |BT| (BOP (JJ *)(IN *)(NNP *)) |ET| 
-0.063716942735928733254624489745765  |BT| (NP (NP (NNP Gary)(NNP Pinkel))(PP (IN of)(NP (NNP Toledo)))) |BT| (BOW (Gary *)(Pinkel *)(of *)(Toledo *)) |BT| (BOP (NNP *)(NNP *)(IN *)(NNP *)) |ET| 
-0.033651488649750746495747932840459  |BT| (NP (NP (JJ presidential)(NN race))(PP (IN between)(NP (JJ Republican)(NN nominee)(NNP Texas)(NNP Gov)))(. .)) |BT| (BOW (presidential *)(race *)(between *)(Republican *)(nominee *)) |BT| (BOP (JJ *)(NN *)(IN *)(NNP *)(NNP *)) |ET| 
-0.040202448462413588325947699786411  |BT| (NP (NP (DT no)(NNS owners))(PP (IN in)(NP (RB there)))(PP (IN in)(SBAR (WHNP (WP who))(S (VP (VBP are)(VP (VBG going)(S (VP (TO to)(VP (VB disrupt)(NP (NP (DT the)(NN progress))(PP (IN of)(NP (DT the)(NN league))))))))))))) |BT| (BOW (owners *)(in *)(there *)(in *)(who *)) |BT| (BOP (NNS *)(IN *)(RB *)(IN *)(WP *)) |ET| 
-0.091943872108564958511855991218908  |BT| (NP (NP (NNP Putin))(PP (IN about)(NP (NNP Yugoslavia)))) |BT| (BOW (Putin *)(about *)(Yugoslavia *)) |BT| (BOP (NNP *)(IN *)(NNP *)) |ET| 
-0.027030528641214478929866160683559  |BT| (NP (NP (DT the)(NN majority)(JJ Islamic)(NN sect))(PP (IN in)(NP (DT the)(NN country)))) |BT| (BOW (sect *)(in *)(the *)(country *)) |BT| (BOP (NN *)(IN *)(DT *)(NN *)) |ET| 
-0.049385768371533966814013183466159  |BT| (NP (NP (NP (DT A)(JJ human)(NNS rights)(NN group))(PP (IN in)(NP (NNP Yugoslavia))))(, ,)(NP (DT the)(NNP Humanitarian)(NNP Law)(NNP Fund))(, ,)) |BT| (BOW (group *)(in *)(Yugoslavia *)(, *)(the *)(Humanitarian *)(Law *)(Fund *)) |BT| (BOP (NN *)(IN *)(NNP *)(, *)(DT *)(NNP *)(NNP *)(NNP *)) |ET| 
-0.043310158973917309288559351898584  |BT| (NP (NP (JJ Other)(NNS companies))(VP (VBG selling)(NP (NN CD)(NNS burners))(PP (IN in)(NP (NNP Germany))))) |BT| (BOW (companies *)(selling *)(CD *)(burners *)(in *)(Germany *)) |BT| (BOP (NNS *)(VBG *)(NN *)(NNS *)(IN *)(NNP *)) |ET| 
-0.073388027533854524597778379302326  |BT| (NP (NP (NN professor))(PP (IN of)(NP (NP (JJ political)(NN science))(PP (IN at)(NP (NP (NNP Rice)(NNP University))(PP (IN in)(NP (NNP Houston)))))))) |BT| (BOW (professor *)(of *)(political *)(science *)(at *)(Rice *)(University *)(in *)(Houston *)) |BT| (BOP (NN *)(IN *)(JJ *)(NN *)(IN *)(NNP *)(NNP *)(IN *)(NNP *)) |ET| 
-0.080526826136820203738686529959523  |BT| (NP (NP (DT a)(NN security)(NN guard))(PP (IN in)(NP (NNP Hawaii)))) |BT| (BOW (guard *)(in *)(Hawaii *)) |BT| (BOP (NN *)(IN *)(NNP *)) |ET| 
-0.0098121911037068135913452593399597  |BT| (NP (NP (DT The)(NNP News)(NNP Sun)(CC and)(JJ other)(JJ northern)(NNP Illinois)(NNP Copley)(NNS newspapers))(, ,)(PP (VBG including)(NP (NP (NP (DT The)(NNP Courier)(NNP News))(PP (IN in)(NP (NNP Elgin))))(, ,)(NP (NP (DT The)(NNP Beacon)(NNP News))(PP (IN in)(NP (NNP Aurora))))(CC and)(NP (NP (DT The)(NNP Herald)(NNP News))(PP (IN in)(NP (NNP Joliet))))))) |BT| (BOW (Illinois *)(Copley *)(newspapers *)(, *)(including *)(The *)(Courier *)(News *)(in *)(Elgin *)) |BT| (BOP (NNS *)(NNP *)(NNS *)(, *)(VBG *)(DT *)(NNP *)(NNP *)(IN *)(NNP *)) |ET| 
-0.053503802608426881404213304449513  |BT| (NP (NP (DT the)(NNP Columbine)(NNP High)(NN massacre))(PP (IN in)(NP (NNP Colorado)))) |BT| (BOW (Columbine *)(High *)(massacre *)(in *)(Colorado *)) |BT| (BOP (NNP *)(NNP *)(NN *)(IN *)(NNP *)) |ET| 
-0.069095499237357277388937859541329  |BT| (NP (NP (NNP Newark))(, ,)(NP (NNP Gannett)(NNP Newspapers))(CC and)(NP (NP (DT The)(NNP Record))(PP (IN of)(NP (NNP Hackensack))))) |BT| (BOW (Gannett *)(Newspapers *)(and *)(The *)(Record *)(of *)(Hackensack *)) |BT| (BOP (NNP *)(NNPS *)(CC *)(DT *)(NNP *)(IN *)(NNP *)) |ET| 
-0.054653245184486345942254104102176  |BT| (VP (VBD overturned)(NP (NNS cars))(PP (IN in)(NP (NP (JJ several)(NNS areas))(PP (IN of)(NP (NNP Alabama)))))(PP (IN on)(NP (NNP Saturday)))) |BT| (BOW (cars *)(in *)(several *)(areas *)(of *)(Alabama *)) |BT| (BOP (NNS *)(IN *)(JJ *)(NNS *)(IN *)(NNP *)) |ET| 
-0.043129680984573717794638980649324  |BT| (NP (NP (NNP Centre)(NNP College))(PP (IN in)(NP (NNP Danville)(, ,)(NNP Ky)(NNP .,)))) |BT| (BOW (Centre *)(College *)(in *)(Danville *)) |BT| (BOP (JJ *)(NNP *)(IN *)(NNP *)) |ET| 
-0.060457979039448522806665664575121  |BT| (NP (NP (JJ Pinochet)(NNS supporters))(PP (IN in)(NP (NNP Congress)))) |BT| (BOW (Pinochet *)(supporters *)(in *)(Congress *)) |BT| (BOP (NNP *)(NNS *)(IN *)(NNP *)) |ET| 
-0.023209905232620686027500411796609  |BT| (VP (VP (VBN compiled)(NP (DT a)(NN chart))(S (VP (VBG noting)(SBAR (IN that)(S (NP (NNP MLS)(NNS players))(VP (VBD had)(VP (VBN come)(PP (IN from)))))))))(CC and)(VP (VBN gone)(PP (TO to)(NP (JJ professional)(NNS leagues)))(PP (IN in)(NP (NP (NNS dozens))(PP (IN of)(NP (JJ other)(NNS countries))))))) |BT| (BOW (players *)(had *)(come *)(from *)(and *)(gone *)(to *)(professional *)(leagues *)(in *)(dozens *)(of *)(other *)(countries *)) |BT| (BOP (NNS *)(VBD *)(VBN *)(IN *)(CC *)(NN *)(TO *)(JJ *)(NNS *)(IN *)(NNS *)(IN *)(JJ *)(NNS *)) |ET| 
-0.042602682349412897278018164115565  |BT| (S (NP (DT the)(NNP United)(NNPS States))(VP (VBZ does)(S (VP (VBG ,'')(SBAR (S (NP (DT The)(NNP Jakarta)(NNP Post))(VP (VBD said)(PP (IN in)(NP (DT an)(NN editorial)))(NP (NNP Monday))))))))) |BT| (BOW (United *)(States *)(does *)(,'' *)(The *)(Jakarta *)(Post *)) |BT| (BOP (NNP *)(NNPS *)(VBZ *)(RB *)(DT *)(NNP *)(NNP *)) |ET| 
-0.099289795392180982269714206722711  |BT| (NP (NP (NNP Don)(NNP Brown))(PP (IN of)(NP (NP (NNP DJB)(NNPS Associates)(NNP LLC))(PP (IN of)(NP (NNP Irvine)))))) |BT| (BOW (Don *)(Brown *)(of *)(DJB *)(Associates *)(LLC *)) |BT| (BOP (NNP *)(NNP *)(IN *)(NNP *)(NNPS *)(NNP *)) |ET| 
-0.041414523775099160163293277037155  |BT| (NP (NP (NP (DT the)(NNS Broncos)(POS '))(NN training)(NN camp))(PP (IN in)(NP (NNP Dove)(NNP Valley)))) |BT| (BOW (camp *)(in *)(Dove *)(Valley *)) |BT| (BOP (NN *)(IN *)(NNP *)(NNP *)) |ET| 
-0.032068538499719086154460256921084  |BT| (S (NP (NP (NNP Schools))(CC and)(NP (DT some)(NNS businesses)))(VP (VBD closed)(PP (IN in)(NP (NP (NNS parts))(PP (IN of)(NP (NNP Nebraska))))))(. .)) |BT| (BOW (businesses *)(closed *)(in *)(parts *)(of *)(Nebraska *)) |BT| (BOP (NNS *)(VBD *)(IN *)(NNS *)(IN *)(NNP *)) |ET| 
-0.061312815344964827213303237840591  |BT| (NP (NP (DT The)(NNP Star-Ledger))(PP (IN of)(NP (NP (NNP Newark))(, ,)(NP (NNP Gannett)(NNP Newspapers))(CC and)(NP (NP (DT The)(NNP Record))(PP (IN of)(NP (NNP Hackensack))))))) |BT| (BOW (Star-Ledger *)(of *)(Newark *)(, *)(Gannett *)(Newspapers *)) |BT| (BOP (NNP *)(IN *)(NNP *)(, *)(NNP *)(NNPS *)) |ET| 
-0.031604706296643844676275136862387  |BT| (VP (VB upgrade)(NP (PRP$ its)(NN network))(PP (IN in)(NP (DT the)(NNP United)(NNPS States)))) |BT| (BOW (its *)(network *)(in *)(the *)(United *)(States *)) |BT| (BOP (PRP$ *)(NN *)(IN *)(DT *)(NNP *)(NNPS *)) |ET| 
-0.046097990188018585222540224322074  |BT| (NP (NP (NNP Copley)(NNP Press)(NNP Inc.))(VP (VBG blocking)(NP (NP (DT the)(NN sale))(PP (IN of)(NP (NP (DT The)(NNP News)(NNP Sun))(PP (IN in)(NP (NNP Waukegan))))))(PP (TO to)(NP (NNP Hollinger)(NNP International))))) |BT| (BOW (Copley *)(Press *)(Inc. *)(blocking *)(the *)(sale *)(of *)(The *)(News *)(Sun *)(in *)(Waukegan *)) |BT| (BOP (NNP *)(NNPS *)(NNP *)(VBG *)(DT *)(NN *)(IN *)(DT *)(NNP *)(NNP *)(IN *)(NNP *)) |ET| 
-0.047432707582678666768938313680337  |BT| (NP (NP (DT the)(NNPS Mets))(PP (IN in)(NP (NNP San)(NNP Francisco)(NNP Wednesday)))) |BT| (BOW (Mets *)(in *)(San *)(Francisco *)) |BT| (BOP (NNPS *)(IN *)(NNP *)(NNP *)) |ET| 
-0.042528654439804115805490170032499  |BT| (VP (VBP separate)(NP (DT the)(NNP Mississippi)(NNP Sound))(PP (IN from)(NP (NP (DT the)(NNP Gulf))(PP (IN of)(NP (NNP Mexico)))))) |BT| (BOW (Mississippi *)(Sound *)(from *)(the *)(Gulf *)(of *)(Mexico *)) |BT| (BOP (NNP *)(NN *)(IN *)(DT *)(NNP *)(IN *)(NNP *)) |ET| 
-0.031540836204951468169088713011661  |BT| (NP (NP (NNS citizens))(PP (IN in)(NP (NNP Indonesia)))(S (VP (TO to)(VP (VB be)(ADJP (JJ wary)))))(. .)) |BT| (BOW (citizens *)(in *)(Indonesia *)) |BT| (BOP (NNS *)(IN *)(NNP *)) |ET| 
-0.061221766133056243486265657338663  |BT| (NP (NP (NN court)(NN ruling))(PP (IN in)(NP (NNP Duncan)))) |BT| (BOW (court *)(ruling *)(in *)(Duncan *)) |BT| (BOP (NN *)(VBG *)(IN *)(NNP *)) |ET| 
-0.037855268613577477965215223321138  |BT| (NP (NP (NNS workers))(VP (VBN stationed)(PP (IN in)(NP (NNP East)(NNP Timor))))) |BT| (BOW (workers *)(stationed *)(in *)(East *)(Timor *)) |BT| (BOP (NNS *)(VBN *)(IN *)(NNP *)(NNP *)) |ET| 
-0.056901463896605886105817262432538  |BT| (NP (NP (DT the)(NNP Socialist)(NNP People's)(NNP Party))(PP (IN of)(NP (NP (NNP Montenegro))(, ,)(NP (DT the)(JJR smaller)(NNP Yugoslav)(NN republic))))) |BT| (BOW (Socialist *)(People's *)(Party *)(of *)(Montenegro *)(, *)(the *)(smaller *)(Yugoslav *)(republic *)) |BT| (BOP (NN *)(NNPS *)(NNP *)(IN *)(NNP *)(, *)(DT *)(NN *)(IN *)(NN *)) |ET| 
-0.062600458793208746399727715470362  |BT| (NP (NP (NNP John)(NNP Parkhurst))(PP (IN of)(NP (NNP Hemet)))) |BT| (BOW (John *)(Parkhurst *)(of *)(Hemet *)) |BT| (BOP (NNP *)(NNP *)(IN *)(NNP *)) |ET| 
-0.027961249551956984110701043277913  |BT| (VP (VBD entered)(NP (DT a)(JJ PFLP-GC)(NN hide-out))(PP (IN in)(NP (NNP Neuss)(, ,)(NNP Germany)))) |BT| (BOW (hide-out *)(in *)(Neuss *)) |BT| (BOP (NN *)(IN *)(NNP *)) |ET| 
-0.029472452527418750711785122575748  |BT| (NP (DT The)(NNP Sporting)(NNP News)(NN player)) |BT| (BOW (Sporting *)(News *)(player *)) |BT| (BOP (JJ *)(NNP *)(NN *)) |ET| 
-0.040478526041687043490746589213813  |BT| (S (S (NP (DT This)(NN pattern))(VP (VBZ follows)(NP (DT an)(ADJP (JJ old)(, ,)(JJ familiar))(NN trend))))(PRN (, ,)(SINV (VP (VBD said))(NP (NP (NNP Joni)(NNP Finney))(, ,)(NP (NP (DT a)(NN policy)(NN analyst))(PP (IN at)(NP (NP (DT the)(NNP National)(NNP Center))(PP (IN for)(NP (NNP Public)(NNP Policy)))))))))(CC and)(S (NP (NP (NNP Higher)(NNP Education))(PP (IN in)(NP (NNP San)(NNP Jose)(, ,)(NNP Calif.)(NNS ``Colleges)(CC and)(NNS universities))))(VP (VBP have)(NP (NP (DT a)(ADJP (RB very)(JJ difficult))(NN time))(VP (VBG controlling)(NP (PRP$ their)(NNS costs))(S (VP (VBG ,'')(SBAR (S (NP (PRP she))(VP (VBD said))))))))))(. .)) |BT| (BOW (analyst *)(at *)(the *)(National *)(Center *)(for *)(Public *)(Policy *)(and *)(Higher *)(Education *)(in *)(San *)(Jose *)) |BT| (BOP (NN *)(IN *)(DT *)(NNP *)(NNP *)(IN *)(NNP *)(NNP *)(CC *)(NNP *)(NNP *)(IN *)(NNP *)(NNP *)) |ET| 
-0.036692188571873451952143341259216  |BT| (SBAR (WHNP (WP who))(S (VP (VBZ has)(VP (VBN been)(VP (VBN indicted)(PP (IN by)(NP (DT the)(JJ international)(NN war)(NNS crimes)(NN tribunal)))(PP (IN in)(NP (DT The)(NNP Hague)(, ,)(NNPS Netherlands)))))))) |BT| (BOW (who *)(has *)(been *)(indicted *)(by *)(the *)(international *)(war *)(crimes *)(tribunal *)(in *)(The *)(Hague *)) |BT| (BOP (WP *)(VBZ *)(VBN *)(VBN *)(IN *)(DT *)(JJ *)(NN *)(NNS *)(NN *)(IN *)(DT *)(NNP *)) |ET| 
-0.026507080587942061927764214601666  |BT| (NP (NP (JJ commercial)(CC and)(JJ recreational)(NNS fisheries))(PP (IN in)(NP (DT the)(JJ northern)(NNP Gulf)))) |BT| (BOW (fisheries *)(in *)(the *)(northern *)(Gulf *)) |BT| (BOP (NNS *)(IN *)(DT *)(JJ *)(NNP *)) |ET| 
-0.064605098124767390554978874206427  |BT| (NP (NP (CD 80,000)(NNPS Jews))(PP (IN in)(NP (NNP Iran)))) |BT| (BOW (Jews *)(in *)(Iran *)) |BT| (BOP (NNS *)(IN *)(NNP *)) |ET| 
-0.005509352636623965696061056007693  |BT| (NP (NP (DT the)(JJ fisheries)(NN section))(PP (IN of)(NP (DT the)(NNP Gulf)(NNP Coast)(NNP Research)(NNP Laboratory)))) |BT| (BOW (section *)(of *)(the *)(Gulf *)(Coast *)(Research *)(Laboratory *)) |BT| (BOP (NN *)(IN *)(DT *)(NNP *)(NNP *)(NNP *)(NNP *)) |ET| 
-0.025923930739223922936620425616638  |BT| (NP (NP (DT the)(NNS roads))(PP (IN in)(NP (NP (NNP northeastern)(NNP Nebraska)(POS 's))(NNP Cuming)(NNP County)))) |BT| (BOW (roads *)(in *)(northeastern *)(Nebraska *)) |BT| (BOP (NNS *)(IN *)(JJ *)(NNP *)) |ET| 
-0.036577113658591016431831377531125  |BT| (NP (NP (JJ ``We)(NN call))(PP (IN on)(NP (NNP Vicente)(NNP Fox)))(S (VP (TO to)(VP (VB comply)(PP (IN with)(NP (PRP$ his)(NN promise)(S (VP (TO to)(VP (VB guarantee)(NP (NN democracy))(PP (IN in)(NP (DT the)(JJ entire)(NN country)))))))))))) |BT| (BOW (``We *)(call *)(on *)(Vicente *)(Fox *)) |BT| (BOP (JJ *)(NN *)(IN *)(NNP *)(NNP *)) |ET| 
-0.0287810792871753019783742644222  |BT| (NP (NP (DT The)(NNP News)(NNP Sun)(CC and)(JJ other)(JJ northern)(NNP Illinois)(NNP Copley)(NNS newspapers))(, ,)(PP (VBG including)(NP (NP (NP (DT The)(NNP Courier)(NNP News))(PP (IN in)(NP (NNP Elgin))))(, ,)(NP (NP (DT The)(NNP Beacon)(NNP News))(PP (IN in)(NP (NNP Aurora))))(CC and)(NP (NP (DT The)(NNP Herald)(NNP News))(PP (IN in)(NP (NNP Joliet))))))) |BT| (BOW (newspapers *)(, *)(including *)(The *)(Courier *)(News *)(in *)(Elgin *)) |BT| (BOP (NNS *)(, *)(VBG *)(DT *)(NNP *)(NNP *)(IN *)(NNP *)) |ET| 
-0.042502710868042151148848972752603  |BT| (NP (NP (JJ interior)(NNS ministers)(NN meeting))(PP (IN in)(NP (NNP Berlin)))) |BT| (BOW (ministers *)(meeting *)(in *)(Berlin *)) |BT| (BOP (NNS *)(NN *)(IN *)(NNP *)) |ET| 
-0.071280346577615227854352042413666  |BT| (NP (NP (NP (DT The)(NNP Courier)(NNP News))(PP (IN in)(NP (NNP Elgin))))(, ,)(NP (NP (DT The)(NNP Beacon)(NNP News))(PP (IN in)(NP (NNP Aurora))))(CC and)(NP (NP (DT The)(NNP Herald)(NNP News))(PP (IN in)(NP (NNP Joliet))))) |BT| (BOW (Elgin *)(, *)(The *)(Beacon *)(News *)(in *)(Aurora *)) |BT| (BOP (NNP *)(, *)(DT *)(NNP *)(NNP *)(IN *)(NNP *)) |ET| 
-0.013786205328199629960295169439632  |BT| (NP (JJ Chinese)(NNS carriers)) |BT| (BOW (Chinese *)(carriers *)) |BT| (BOP (JJ *)(NNS *)) |ET| 
-0.055533477969251732186961589832208  |BT| (NP (NP (NNP Lebanon))(PP (IN via)(NP (NNP Jordan)))) |BT| (BOW (Lebanon *)(via *)(Jordan *)) |BT| (BOP (NNP *)(IN *)(NNP *)) |ET| 
-0.021698455796842576470684349487783  |BT| (VP (VB determine)(NP (NP (NP (DT the)(NN fate))(PP (IN of)(NP (DT the)(JJ Democratic)(NN Party))))(CC and)(PRN (, ,)(ADVP (RB largely))(, ,))(NP (DT the)(NNP Republican)(NNP Party)))(PP (IN in)(NP (NP (DT the)(NN state))(PP (IN of)(NP (NNP Texas)(NNP .'')))))) |BT| (BOW (Republican *)(Party *)(in *)(the *)(state *)(of *)(Texas *)) |BT| (BOP (NNP *)(NNP *)(IN *)(DT *)(NN *)(IN *)(NNP *)) |ET| 
-0.040902624405080710567883528483435  |BT| (S (S (NP (DT This)(NN pattern))(VP (VBZ follows)(NP (DT an)(ADJP (JJ old)(, ,)(JJ familiar))(NN trend))))(PRN (, ,)(SINV (VP (VBD said))(NP (NP (NNP Joni)(NNP Finney))(, ,)(NP (NP (DT a)(NN policy)(NN analyst))(PP (IN at)(NP (NP (DT the)(NNP National)(NNP Center))(PP (IN for)(NP (NNP Public)(NNP Policy)))))))))(CC and)(S (NP (NP (NNP Higher)(NNP Education))(PP (IN in)(NP (NNP San)(NNP Jose)(, ,)(NNP Calif.)(NNS ``Colleges)(CC and)(NNS universities))))(VP (VBP have)(NP (NP (DT a)(ADJP (RB very)(JJ difficult))(NN time))(VP (VBG controlling)(NP (PRP$ their)(NNS costs))(S (VP (VBG ,'')(SBAR (S (NP (PRP she))(VP (VBD said))))))))))(. .)) |BT| (BOW (National *)(Center *)(for *)(Public *)(Policy *)(and *)(Higher *)(Education *)(in *)(San *)(Jose *)(, *)(Calif. *)) |BT| (BOP (NNP *)(NNP *)(IN *)(NNP *)(NNP *)(CC *)(NNP *)(NNP *)(IN *)(NNP *)(NNP *)(, *)(NNP *)) |ET| 
-0.023416222220012331695082608007397  |BT| (VP (VBN wounded)(PP (IN in)(NP (NP (JJ ongoing)(NN violence))(PP (IN in)(NP (NP (DT the)(JJ Palestinian)(NNS territories))(PP (IN for)(NP (NN treatment)))))))(PP (IN in)(NP (JJ Iraqi)(NNS hospitals)))) |BT| (BOW (territories *)(for *)(treatment *)(in *)(Iraqi *)) |BT| (BOP (NNS *)(IN *)(NN *)(IN *)(NNP *)) |ET| 
-0.019404933719463585140019290520286  |BT| (NP (DT the)(NNP New)(NNP York)(NNP State)(NNP Parole)(NNP Board)) |BT| (BOW (New *)(York *)(State *)(Parole *)(Board *)) |BT| (BOP (NNP *)(NNP *)(NNP *)(NNP *)(NNP *)) |ET| 
-0.021822404331476259742306211819596  |BT| (NP (NP (JJ natural)(NN gas)(NNS wells))(PP (IN in)(NP (NN state)(NNS waters)))) |BT| (BOW (wells *)(in *)(state *)) |BT| (BOP (NNS *)(IN *)(NN *)) |ET| 
-0.038395995734383542297152303035546  |BT| (NP (NP (NNP Heritage)(NNP High)(NNP School))(PP (IN in)(NP (NP (NNP Conyers))(, ,)(ADVP (NP (QP (RB about)(CD 25))(NNS miles))(RB east)(PP (IN of)(NP (NNP Atlanta))))(, ,)))(NP (CD one)(NN month))) |BT| (BOW (Heritage *)(High *)(School *)(in *)(Conyers *)) |BT| (BOP (NNP *)(NNP *)(NNP *)(IN *)(NNS *)) |ET| 
-0.069272830921581873830916720180539  |BT| (NP (NP (DT the)(NN government))(PP (IN in)(NP (NNP Belgrade)))) |BT| (BOW (government *)(in *)(Belgrade *)) |BT| (BOP (NN *)(IN *)(NNP *)) |ET| 
-0.036835707060438704907312512659701  |BT| (NP (NP (NNP Queen)(NNP Rania))(PP (IN of)(NP (NP (NNP Jordan))(, ,)(NP (NP (NP (NNP Egypt)(POS 's))(NNP Suzanne)(NNP Mubarak))(CC and)(NP (NNS others)))))) |BT| (BOW (Rania *)(of *)(Jordan *)) |BT| (BOP (NNP *)(IN *)(NNP *)) |ET| 
-0.03323078217196659411847292631137  |BT| (NP (NP (DT an)(JJ allied)(NN party))(PP (IN from)(NP (NP (NNP Montenegro))(, ,)(NP (NP (NNP Yugoslavia)(POS 's))(JJR smaller)(NN republic))))) |BT| (BOW (party *)(from *)(Montenegro *)(, *)(Yugoslavia *)('s *)(smaller *)(republic *)) |BT| (BOP (NN *)(IN *)(NNP *)(, *)(NNP *)(POS *)(NN *)(NN *)) |ET| 
-0.034734886028435281446480331624116  |BT| (S (S (NP (DT This)(NN pattern))(VP (VBZ follows)(NP (DT an)(ADJP (JJ old)(, ,)(JJ familiar))(NN trend))))(PRN (, ,)(SINV (VP (VBD said))(NP (NP (NNP Joni)(NNP Finney))(, ,)(NP (NP (DT a)(NN policy)(NN analyst))(PP (IN at)(NP (NP (DT the)(NNP National)(NNP Center))(PP (IN for)(NP (NNP Public)(NNP Policy)))))))))(CC and)(S (NP (NP (NNP Higher)(NNP Education))(PP (IN in)(NP (NNP San)(NNP Jose)(, ,)(NNP Calif.)(NNS ``Colleges)(CC and)(NNS universities))))(VP (VBP have)(NP (NP (DT a)(ADJP (RB very)(JJ difficult))(NN time))(VP (VBG controlling)(NP (PRP$ their)(NNS costs))(S (VP (VBG ,'')(SBAR (S (NP (PRP she))(VP (VBD said))))))))))(. .)) |BT| (BOW (National *)(Center *)(for *)(Public *)(Policy *)(and *)(Higher *)(Education *)(in *)(San *)(Jose *)(, *)(Calif. *)(``Colleges *)) |BT| (BOP (NNP *)(NNP *)(IN *)(NNP *)(NNP *)(CC *)(NNP *)(NNP *)(IN *)(NNP *)(NNP *)(, *)(NNP *)(NNPS *)) |ET| 
-0.052253917186822797236178672619644  |BT| (SINV (S (NP (PRP He))(VP (VBD served)(PP (IN in)(NP (CD 1954-56)))(PP (IN as)(NP (NP (DT a)(NN clerk))(PP (IN in)(NP (DT an)(NNP Army)(NNPS Reserves)(NN office)))))))(, ,)(VP (ADVP (RB then))(VBD took)(NP (DT a)(NN job))(PP (IN as)(NP (NP (NN art)(NN director))(PP (IN of)(NP (NNP Road)(CC &)(NNP Track))))))(NP (NP (NN magazine))(PP (IN in)(NP (NNP Newport)(NNP Beach))))(. .)) |BT| (BOW (director *)(of *)(Road *)(& *)(Track *)(magazine *)) |BT| (BOP (NN *)(IN *)(NNP *)(CC *)(NNP *)(NN *)) |ET| 
-0.033620031019223985124799725099365  |BT| (NP (NP (NP (NN owner))(PP (IN of)(NP (DT the)(NNP Chicago)(NNP Sun-Times))))(CC and)(NP (NP (DT the)(NNP Daily)(NNP Southtown))(PP (IN in)(NP (NNP Tinley)(NNP Park))))) |BT| (BOW (owner *)(of *)(the *)(Chicago *)(Sun-Times *)(and *)(the *)(Daily *)(Southtown *)(in *)(Tinley *)(Park *)) |BT| (BOP (NN *)(IN *)(DT *)(NNP *)(NNPS *)(CC *)(DT *)(JJ *)(NN *)(IN *)(NNP *)(NNP *)) |ET| 
-0.033475531770232595796255026243671  |BT| (NP (NP (NN director))(PP (IN of)(NP (NP (DT the)(JJ fisheries)(NN section))(PP (IN of)(NP (DT the)(NNP Gulf)(NNP Coast)(NNP Research)(NNP Laboratory)))))(PP (IN in)(NP (NNP Mississippi)))) |BT| (BOW (director *)(of *)(the *)(fisheries *)(section *)(of *)(the *)(Gulf *)(Coast *)(Research *)(Laboratory *)(in *)(Mississippi *)) |BT| (BOP (NN *)(IN *)(DT *)(NNS *)(NN *)(IN *)(DT *)(NNP *)(NNP *)(NNP *)(NNP *)(IN *)(NNP *)) |ET| 
-0.021936633911250488782052059377747  |BT| (VP (VBZ brings)(NP (NP (NNP Britain))(PP (IN in)(NP (NN line))))(PP (IN with)(NP (ADJP (RBS most)(JJ other))(JJ European)(NN Union)(NNS nations)))) |BT| (BOW (Britain *)(in *)(line *)(with *)(most *)(other *)(European *)(Union *)) |BT| (BOP (NNP *)(IN *)(NN *)(IN *)(JJS *)(JJ *)(JJ *)(NNP *)) |ET| 
-0.024959454400045710809052934564534  |BT| (NP (NP (DT the)(NNP Arizona)(NNP Rattlers))(PP (IN of)(NP (DT the)(NNP Arena)(NNP Football)(NNP League)))) |BT| (BOW (Arizona *)(Rattlers *)(of *)(the *)(Arena *)(Football *)(League *)) |BT| (BOP (NNP *)(NNPS *)(IN *)(DT *)(NNP *)(NNP *)(NNP *)) |ET| 
-0.034326305332010163817724190948866  |BT| (VP (ADVP (RB also))(VBN seen)(ADVP (RB as)(JJ important)(PP (IN for)(NP (NNP Yugoslavia))))(PP (IN in)(NP (PRP$ its)(NNS efforts)))(S (VP (TO to)(VP (VB break)(PRT (RP out))(PP (IN of)(NP (NP (NP (DT a)(NN decade))(PP (IN of)(NP (NNS sanctions))))(CC and)(NP (NP (JJ international)(NN isolation))(VP (VBN meant)(S (VP (TO to)(VP (VB bring)(NP (NNP Milosevic))(PP (TO to)(NP (NN heel)))))))))))))) |BT| (BOW (Yugoslavia *)(in *)(its *)) |BT| (BOP (NNP *)(IN *)(PRP$ *)) |ET| 
-0.080179103938449930444321012146247  |BT| (NP (NP (DT a)(NN researcher))(PP (IN at)(NP (DT the)(NNP Dauphin)(NNP Island)(NNP Sea)(NNP Lab)))(PP (IN in)(NP (NNP Alabama)))) |BT| (BOW (researcher *)(at *)(the *)(Dauphin *)(Island *)(Sea *)(Lab *)) |BT| (BOP (NN *)(IN *)(DT *)(NNP *)(NNP *)(NNP *)(NNP *)) |ET| 
-0.077338176684627057966281427070498  |BT| (NP (NP (NN director))(PP (IN of)(NP (NP (DT the)(JJ fisheries)(NN section))(PP (IN of)(NP (DT the)(NNP Gulf)(NNP Coast)(NNP Research)(NNP Laboratory)))))(PP (IN in)(NP (NNP Mississippi)))) |BT| (BOW (section *)(of *)(the *)(Gulf *)(Coast *)(Research *)(Laboratory *)(in *)(Mississippi *)) |BT| (BOP (NN *)(IN *)(DT *)(NNP *)(NNP *)(NNP *)(NNP *)(IN *)(NNP *)) |ET| 
-0.031035853579016527831191396558097  |BT| (NP (NP (CD 24)(NNS Bulldogs))(PP (IN in)(NP (DT the)(NNP Oahu)(NNP Bowl)))(PP (IN against)(NP (NNP Virginia)))(. .)) |BT| (BOW (Bulldogs *)(in *)(the *)(Oahu *)(Bowl *)(against *)(Virginia *)) |BT| (BOP (NNS *)(IN *)(DT *)(NNP *)(NNP *)(IN *)(NNP *)) |ET| 
-0.04320438221470071504803911466297  |BT| (NP (NP (DT The)(NNP Star-Ledger))(PP (IN of)(NP (NP (NNP Newark))(, ,)(NP (NNP Gannett)(NNP Newspapers))(CC and)(NP (NP (DT The)(NNP Record))(PP (IN of)(NP (NNP Hackensack))))))) |BT| (BOW (Star-Ledger *)(of *)(Newark *)(, *)(Gannett *)(Newspapers *)(and *)(The *)(Record *)) |BT| (BOP (NNP *)(IN *)(NNP *)(, *)(NNP *)(NNPS *)(CC *)(DT *)(NNP *)) |ET| 
-0.014239557379921059798721927336373  |BT| (NP (NP (DT the)(JJS largest)(JJ Jewish)(NN community))(PP (IN in)(NP (NP (DT the)(NNP Middle)(NNP East))(PP (IN outside)(NP (NNP Israel)))))) |BT| (BOW (community *)(in *)(the *)(Middle *)(East *)) |BT| (BOP (NN *)(IN *)(DT *)(NNP *)(NNP *)) |ET| 
-0.022385216310452007298925636291642  |BT| (VP (VBD damaged)(PP (IN about)(NP (DT a)(JJ half-dozen)(NNS homes)))(PP (IN in)(NP (NNP Dale)(NNP County)))(, ,)(S (VP (VP (VBG destroying)(NP (DT a)(NN peanut)(NN mill))(PP (IN at)(NP (NNP Abbeville))))(CC and)(VP (VBG damaging)(NP (DT a)(JJ textile)(NN mill)))))) |BT| (BOW (homes *)(in *)(Dale *)(County *)) |BT| (BOP (NNS *)(IN *)(NNP *)(NNP *)) |ET| 
-0.042390980558995469684724355374783  |BT| (NP (NP (NP (DT The)(NNP Courier)(NNP News))(PP (IN in)(NP (NNP Elgin))))(, ,)(NP (NP (DT The)(NNP Beacon)(NNP News))(PP (IN in)(NP (NNP Aurora))))(CC and)(NP (NP (DT The)(NNP Herald)(NNP News))(PP (IN in)(NP (NNP Joliet))))) |BT| (BOW (Elgin *)(, *)(The *)(Beacon *)(News *)(in *)(Aurora *)(and *)(The *)(Herald *)(News *)(in *)(Joliet *)) |BT| (BOP (NNP *)(, *)(DT *)(NNP *)(NNP *)(IN *)(NNP *)(CC *)(DT *)(NNP *)(NNP *)(IN *)(NNP *)) |ET| 
-0.028752590296075807713149785627138  |BT| (S (NP (NNP Houston))(VP (VBZ has)(NP (NP (JJ ``the)(JJ dirtiest)(NN air))(PP (IN in)(NP (NNP America)(NNP .'')))))) |BT| (BOW (Houston *)(has *)(``the *)(dirtiest *)(air *)(in *)(America *)) |BT| (BOP (NNP *)(VBZ *)(RB *)(JJ *)(NN *)(IN *)(NNP *)) |ET| 
-0.032166498629016979093897532493429  |BT| (NP (NP (DT The)(NN president))(PP (IN of)(NP (NNP Serbia)))) |BT| (BOW (president *)(of *)(Serbia *)) |BT| (BOP (NN *)(IN *)(NNP *)) |ET| 
-0.032612638737176360970160260421835  |BT| (NP (NP (NP (DT The)(NNP Courier)(NNP News))(PP (IN in)(NP (NNP Elgin))))(, ,)(NP (NP (DT The)(NNP Beacon)(NNP News))(PP (IN in)(NP (NNP Aurora))))(CC and)(NP (NP (DT The)(NNP Herald)(NNP News))(PP (IN in)(NP (NNP Joliet))))) |BT| (BOW (The *)(Courier *)(News *)(in *)(Elgin *)(, *)(The *)(Beacon *)(News *)(in *)(Aurora *)(and *)(The *)(Herald *)(News *)) |BT| (BOP (DT *)(NNP *)(NNP *)(IN *)(NNP *)(, *)(DT *)(NNP *)(NNP *)(IN *)(NNP *)(CC *)(DT *)(NNP *)(NNP *)) |ET| 
-0.024008577190676325119333966995328  |BT| (NP (NP (NNP Egyptian)(NNP President)(NNP Hosni)(NNP Mubarak))(PP (IN in)(NP (NP (NNS talks))(PP (IN on)(NP (JJ Mideast)(NN peace)))))) |BT| (BOW (Hosni *)(Mubarak *)(in *)(talks *)(on *)(Mideast *)) |BT| (BOP (NNP *)(NNP *)(IN *)(NNS *)(IN *)(NNP *)) |ET| 
-0.026420657964939326528552854256304  |BT| (NP (NP (RB much))(PP (IN of)(NP (NNP Europe)))) |BT| (BOW (much *)(of *)(Europe *)) |BT| (BOP (RB *)(IN *)(NNP *)) |ET| 
-0.016595670865589631087777533480221  |BT| (NP (NP (DT a)(JJ Saudi)(NN researcher))(VP (VBN interested)(PP (IN in)(NP (NP (NNS women)(POS 's))(NNS issues))))) |BT| (BOW (Saudi *)(researcher *)(interested *)(in *)(women *)) |BT| (BOP (NNP *)(VB *)(JJ *)(IN *)(NNP *)) |ET| 
-0.02190476931619806527651306282678  |BT| (VP (VP (VBN compiled)(NP (DT a)(NN chart))(S (VP (VBG noting)(SBAR (IN that)(S (NP (NNP MLS)(NNS players))(VP (VBD had)(VP (VBN come)(PP (IN from)))))))))(CC and)(VP (VBN gone)(PP (TO to)(NP (JJ professional)(NNS leagues)))(PP (IN in)(NP (NP (NNS dozens))(PP (IN of)(NP (JJ other)(NNS countries))))))) |BT| (BOW (MLS *)(players *)(had *)(come *)(from *)(and *)(gone *)(to *)(professional *)(leagues *)(in *)(dozens *)(of *)(other *)(countries *)) |BT| (BOP (NNP *)(NNS *)(VBD *)(VBN *)(IN *)(CC *)(NN *)(TO *)(JJ *)(NNS *)(IN *)(NNS *)(IN *)(JJ *)(NNS *)) |ET| 
-0.033676164321039883664532510465506  |BT| (NP (NP (DT the)(NN church))(PP (IN of)(NP (NP (NNP San)(NNP Maurizio))(PP (IN in)(NP (NP (NNP Fenis))(, ,)(NP (NP (DT a)(NN mountain)(NN hamlet))(PP (IN near)(NP (NP (DT the)(NN city))(PP (IN of)(NP (NNP Aosta))))))))))) |BT| (BOW (church *)(of *)(San *)(Maurizio *)(in *)(Fenis *)) |BT| (BOP (NN *)(IN *)(NNP *)(NNP *)(IN *)(NNP *)) |ET| 
-0.021424379213932982779500235892556  |BT| (NP (NP (DT the)(NNP Bush)(JJ -Cheney)(NN transition)(NN headquarters))(PP (IN in)(NP (NNP McLean)(, ,)(NNP Va)(NNP .,)))) |BT| (BOW (headquarters *)(in *)(McLean *)) |BT| (BOP (NNS *)(IN *)(NNP *)) |ET| 
-0.057433701508627796328276815529534  |BT| (VP (VBN jailed)(PP (IN in)(NP (NNP Sweden)))(PP (IN for)(NP (NP (NNS attacks))(PP (IN against)(NP (JJ Jewish)(CC and)(JJ American)(NNS targets)))))(PP (IN in)(NP (NNP Europe)))) |BT| (BOW (American *)(targets *)(in *)(Europe *)) |BT| (BOP (JJ *)(NNS *)(IN *)(NNP *)) |ET| 
-0.021683879127093685923455268493854  |BT| (PP (PP (IN in)(NP (NNP Latin)(NNP America)))(, ,)(CC and)(PP (IN in)(NP (NP (JJ minor)(CC and)(JJ indoor)(NNS leagues))(PP (IN in)(NP (DT the)(NNP United)(NNPS States)))))) |BT| (BOW (Latin *)(America *)(, *)(and *)(in *)(minor *)(and *)(indoor *)(leagues *)(in *)(the *)(United *)(States *)) |BT| (BOP (NNP *)(NNP *)(, *)(CC *)(IN *)(NN *)(CC *)(NN *)(NNS *)(IN *)(DT *)(NNP *)(NNPS *)) |ET| 
-0.02632177113314572436397753563142  |BT| (NP (NP (NP (NNP Sunday)(POS 's))(JJ season-ending)(JJ Malaysian)(NNP Grand)(NNP Prix))(PP (IN with)(NP (NP (DT an)(JJ insurmountable)(JJ 12-point)(NN lead))(PP (IN over)(NP (JJ two-time)(VBG defending)(NN champion)(NNP Mika)(NNP Hakkinen)))))(PP (IN of)(NP (NNP McLaren)))) |BT| (BOW (Mika *)(Hakkinen *)(of *)(McLaren *)) |BT| (BOP (NNP *)(NNP *)(IN *)(NNP *)) |ET| 
-0.017943912069826907507152924381444  |BT| (S (NP (NP (DT the)(VBG messaging)(NNS services))(VP (VBN offered)(PP (IN by)(NP (NNP Yahoo!)(CC and)(NNP Microsoft)))))(VP (VBP are)(NP (NP (DT the)(JJS fastest)(NN growing))(PP (IN in)(NP (DT the)(NNP United)(NNPS States)))))) |BT| (BOW (Microsoft *)(are *)(the *)(fastest *)(growing *)(in *)(the *)(United *)(States *)) |BT| (BOP (NNP *)(VBP *)(DT *)(JJS *)(VBG *)(IN *)(DT *)(NNP *)(NNPS *)) |ET| 
-0.028354930238020950583610613193741  |BT| (NP (NP (DT a)(JJ terrorist)(NN attack))(PP (IN in)(NP (NNP Denmark)))) |BT| (BOW (terrorist *)(attack *)(in *)(Denmark *)) |BT| (BOP (JJ *)(NN *)(IN *)(NNP *)) |ET| 
-0.016391875031673084489591829537858  |BT| (S (SBAR (IN As)(S (NP (PRP he))(VP (VBD spoke))))(, ,)(NP (NNP Russian)(NNP Foreign)(NNP Minister)(NNP Ivanov))(VP (VBD was)(PP (IN in)(NP (NNP Yugoslavia)))(, ,)(S (VP (VP (VBG meeting)(PP (IN with)(NP (JJ ousted)(NN leader)(NNP Slobodan)(NNP Milosevic))))(CC and)(VP (VBG recognizing)(NP (NP (NN opposition)(NN leader)(NNP Vojislav)(NNP Kostunica))(PP (IN as)(NP (NP (NN winner))(PP (IN of)(NP (DT the)(NN Sept))))))))))(. .)) |BT| (BOW (Minister *)(Ivanov *)(was *)(in *)(Yugoslavia *)) |BT| (BOP (NNP *)(NNP *)(VBD *)(IN *)(NNP *)) |ET| 
-0.018175760304927950083975218831256  |BT| (NP (NP (JJ separatist)(NNS activists))(PP (IN in)(NP (NP (NNP Indonesia)(POS 's))(JJ war-torn)(JJ Aceh)(NN province)))) |BT| (BOW (activists *)(in *)(Indonesia *)) |BT| (BOP (NNS *)(IN *)(NNP *)) |ET| 
-0.022371344961804352780010418655365  |BT| (NP (DT a)(NAC (NNP University)(PP (IN of)(NP (NNP Kansas))))(NN paleontologist)) |BT| (BOW (University *)(of *)(Kansas *)(paleontologist *)) |BT| (BOP (NNP *)(IN *)(NNP *)(NN *)) |ET| 
-0.01775654013406720646561787191331  |BT| (NP (NP (DT a)(NN clerk))(PP (IN in)(NP (DT an)(NNP Army)(NNPS Reserves)(NN office)))) |BT| (BOW (clerk *)(in *)(an *)(Army *)(Reserves *)) |BT| (BOP (NN *)(IN *)(DT *)(NNP *)(NNPS *)) |ET| 
-0.022956749800346943485296336007195  |BT| (NP (NP (DT The)(NNP News)(NNP Sun)(CC and)(JJ other)(JJ northern)(NNP Illinois)(NNP Copley)(NNS newspapers))(, ,)(PP (VBG including)(NP (NP (NP (DT The)(NNP Courier)(NNP News))(PP (IN in)(NP (NNP Elgin))))(, ,)(NP (NP (DT The)(NNP Beacon)(NNP News))(PP (IN in)(NP (NNP Aurora))))(CC and)(NP (NP (DT The)(NNP Herald)(NNP News))(PP (IN in)(NP (NNP Joliet))))))) |BT| (BOW (Copley *)(newspapers *)(, *)(including *)(The *)(Courier *)(News *)(in *)(Elgin *)) |BT| (BOP (NNP *)(NNS *)(, *)(VBG *)(DT *)(NNP *)(NNP *)(IN *)(NNP *)) |ET| 
-0.024451662951566071474429620025148  |BT| (NP (NP (DT a)(JJ crowded)(JJ outdoor)(NN market))(PP (IN in)(NP (NP (DT the)(NN heart))(PP (IN of)(NP (NNP Jerusalem)))))) |BT| (BOW (market *)(in *)(the *)(heart *)) |BT| (BOP (NN *)(IN *)(DT *)(NN *)) |ET| 
-0.033115416428082508626395963347022  |BT| (NP (NP (DT a)(NN computer)(NN consultant))(PP (IN in)(NP (NNP Tijuana)(, ,)(NNP Mexico)))) |BT| (BOW (consultant *)(in *)(Tijuana *)) |BT| (BOP (NN *)(IN *)(NNP *)) |ET| 
-0.04356972753094788541883275456712  |BT| (NP (NP (JJ Pinochet)(NNS supporters))(PP (IN in)(NP (NNP Congress)))) |BT| (BOW (supporters *)(in *)(Congress *)) |BT| (BOP (NNS *)(IN *)(NNP *)) |ET| 
-0.022501273464535509472028707023128  |BT| (S (NP (NP (DT The)(NNP Daily)(NNP Oklahoman))(CC and)(NP (NP (JJ several)(NN TV)(CC and)(NN radio)(NNS stations))(PP (IN in)(NP (NNP Oklahoma)))))(VP (VBD had)(VP (VBN reported)(NP (NNP Thursday)(CC and)(NNP Friday))(SBAR (IN that)(S (NP (NNP Koetter))(VP (VBD had)(VP (VBN accepted)(NP (DT the)(NNP Oklahoma)(NNP State)(NN job))))))))(. .)) |BT| (BOW (stations *)(in *)(Oklahoma *)(had *)(reported *)(Thursday *)(and *)(Friday *)(that *)(Koetter *)) |BT| (BOP (NNS *)(IN *)(NNP *)(VBD *)(VBN *)(NN *)(CC *)(NN *)(IN *)(NNP *)) |ET| 
-0.026713931991234889096187288259898  |BT| (VP (VBD asked)(NP (NNP Dooley))(SBAR (IN if)(S (NP (NNP Donnan))(VP (MD could)(VP (VB coach)(NP (NP (DT the)(NN team))(PP (IN in)(NP (DT the)(NN bowl)(NN game))))))))) |BT| (BOW (Dooley *)(if *)(Donnan *)) |BT| (BOP (NNP *)(IN *)(NNP *)) |ET| 
-0.020165738557854393647739144057596  |BT| (NP (NP (NNP London))(, ,)(NP (NP (DT a)(JJ major)(NN base))(PP (IN for)(NP (NP (JJ low-fare)(NNS carriers))(VP (VBG operating)(PP (IN in)(NP (NNP Britain)))))))) |BT| (BOW (London *)(, *)(a *)(major *)(base *)(for *)(low-fare *)(carriers *)(operating *)(in *)(Britain *)) |BT| (BOP (NNP *)(, *)(DT *)(JJ *)(NN *)(IN *)(JJ *)(NNS *)(VBG *)(IN *)(NNP *)) |ET| 
-0.019012466838679197705941348317538  |BT| (NP (NP (DT the)(NNP Middle)(NNP East))(PP (IN outside)(NP (NNP Israel)))) |BT| (BOW (Middle *)(East *)(outside *)(Israel *)) |BT| (BOP (NNP *)(NNP *)(VBP *)(NNP *)) |ET| 
-0.019846556533072177985754791507134  |BT| (NP (NP (DT the)(NNP Mediterranean)(NN island))(PP (IN of)(NP (NNP Malta)))) |BT| (BOW (island *)(of *)(Malta *)) |BT| (BOP (NN *)(IN *)(NNP *)) |ET| 
-0.020446777307435534676294253131346  |BT| (VP (VB attack)(NP (NNS peacekeepers))(PP (IN in)(NP (NP (NNP East)(NNP Timor))(, ,)(NP (NP (DT the)(NN territory))(SBAR (WHNP (WDT that))(S (VP (VBD gained)(NP (NN independence))(PP (IN from)(NP (NNP Indonesia)))(NP (JJ last)(NN year))))))))) |BT| (BOW (peacekeepers *)(in *)(East *)(Timor *)) |BT| (BOP (NNS *)(IN *)(NNP *)(NNP *)) |ET| 
-0.024946749037281504973728729623872  |BT| (NP (NP (DT the)(JJ fashionable)(NNP Dallas)(NN suburb))(PP (IN of)(NP (NNP Highland)(NNP Park)))) |BT| (BOW (Dallas *)(suburb *)(of *)(Highland *)(Park *)) |BT| (BOP (NNP *)(NN *)(IN *)(NNP *)(NNP *)) |ET| 
-0.015964222626979600316854401853561  |BT| (NP (NP (CD 20)(NNPS Palestinians))(VP (VBN wounded)(PP (IN in)(NP (NP (JJ ongoing)(NN violence))(PP (IN in)(NP (NP (DT the)(JJ Palestinian)(NNS territories))(PP (IN for)(NP (NN treatment)))))))(PP (IN in)(NP (JJ Iraqi)(NNS hospitals))))) |BT| (BOW (Palestinians *)(wounded *)(in *)(ongoing *)(violence *)(in *)(the *)(Palestinian *)) |BT| (BOP (NNPS *)(VBD *)(IN *)(VBG *)(NN *)(IN *)(DT *)(JJ *)) |ET| 
-0.025491903931710954700484705881536  |BT| (NP (NP (NNP Copley)(NNP Press)(NNP Inc.))(VP (VBG blocking)(NP (NP (DT the)(NN sale))(PP (IN of)(NP (NP (DT The)(NNP News)(NNP Sun))(PP (IN in)(NP (NNP Waukegan))))))(PP (TO to)(NP (NNP Hollinger)(NNP International))))) |BT| (BOW (Copley *)(Press *)(Inc. *)(blocking *)(the *)(sale *)(of *)(The *)(News *)(Sun *)) |BT| (BOP (NNP *)(NNPS *)(NNP *)(VBG *)(DT *)(NN *)(IN *)(DT *)(NNP *)(NNP *)) |ET| 
-0.026449436864358265297791916736969  |BT| (NP (NP (NN consulate))(PP (IN in)(NP (NP (NNP Indonesia)(POS 's))(JJ second-largest)(NN city)))) |BT| (BOW (consulate *)(in *)(Indonesia *)) |BT| (BOP (NN *)(IN *)(NNP *)) |ET| 
-0.018015941374206683595060596303483  |BT| (S (NP (NN ``We))(VP (VBP have)(NP (NP (DT a)(NN number))(PP (IN of)(NP (NP (JJ different)(NNS businesses))(VP (VBG operating)(ADVP (RB separately))(PP (IN within)(NP (NNP Europe))))))))(. .)) |BT| (BOW (``We *)(have *)(a *)(number *)(of *)(different *)(businesses *)) |BT| (BOP (RB *)(VBP *)(DT *)(NN *)(IN *)(JJ *)(NNS *)) |ET| 
-0.032175061213852523822609441594977  |BT| (VP (VBD told)(NP (NNS investors))(PP (IN in)(NP (NNP London)))) |BT| (BOW (investors *)(in *)(London *)) |BT| (BOP (NNS *)(IN *)(NNP *)) |ET| 
-0.033038317443032427789262328587938  |BT| (NP (NP (DT any)(NN state))(PP (IN in)(NP (DT the)(NN country)))) |BT| (BOW (state *)(in *)(the *)(country *)) |BT| (BOP (NN *)(IN *)(DT *)(NN *)) |ET| 
-0.019257423100328924930879637145154  |BT| (NP (DT the)(NNP Wisconsin)(NNP Progressive)) |BT| (BOW (Wisconsin *)(Progressive *)) |BT| (BOP (NNP *)(NNP *)) |ET| 
-0.016220087199834049701552274314054  |BT| (S (NP (PRP they))(VP (VBD met)(PP (IN in)(NP (NNP Boston)(NNP ,'')(NNP Tom)(NNP Brokaw))))) |BT| (BOW (they *)(met *)(in *)(Boston *)) |BT| (BOP (PRP *)(RB *)(IN *)(NNP *)) |ET| 
-0.023245918722744507434185834426899  |BT| (NP (NP (DT the)(NNS leaders))(PP (IN of)(NP (NNP Europe)))) |BT| (BOW (leaders *)(of *)(Europe *)) |BT| (BOP (NNS *)(IN *)(NNP *)) |ET| 
-0.024827633018920679253138672493151  |BT| (NP (NP (NNP Valuable)(NNP Player))(PP (IN in)(NP (NP (DT the)(NNP National)(NNP League))(NP (DT this)(NN year))))) |BT| (BOW (Player *)(in *)(the *)(National *)(League *)) |BT| (BOP (NN *)(IN *)(DT *)(NNP *)(NNP *)) |ET| 
-0.015760369833906783670895990212557  |BT| (VP (VBG permitting)(NP (NP (DT the)(NN carrying))(PP (IN of)(NP (JJ concealed)(NNS weapons))))(PP (IN in)(NP (NNS churches)(, ,)(NNS hospitals)(CC and)(NN nursing)(NNS homes)))) |BT| (BOW (weapons *)(in *)(churches *)) |BT| (BOP (NNS *)(IN *)(NNS *)) |ET| 
-0.027446059945516056155501161128996  |BT| (VP (VBD attended)(NP (DT the)(NN event))(PP (IN in)(NP (NP (NNP Dortmund))(, ,)(NP (DT an)(JJ industrial)(NN center))))(PP (IN in)(NP (NP (NNP North)(NNP Rhine-Westphalia))(, ,)(NP (NP (NNP Germany)(POS 's))(ADJP (RBS most)(JJ populous))(NN state))))) |BT| (BOW (center *)(in *)(North *)(Rhine-Westphalia *)) |BT| (BOP (NN *)(IN *)(NNP *)(NNP *)) |ET| 
-0.018946570742069717557809482855191  |BT| (S (NP (NP (NNS workers))(VP (VBN stationed)(PP (IN in)(NP (NNP East)(NNP Timor)))))(VP (VBD were)(VP (VBN killed)(PP (IN in)(NP (NNP Indonesian)(NN -controlled)(NNP West)(NNP Timor)))))(. .)) |BT| (BOW (workers *)(stationed *)(in *)(East *)(Timor *)(were *)(killed *)(in *)(Indonesian *)) |BT| (BOP (NNS *)(VBN *)(IN *)(NNP *)(NNP *)(VBD *)(VBN *)(IN *)(JJ *)) |ET| 
-0.021383731644842637192871492857194  |BT| (NP (NP (DT an)(VBG unrelenting)(NN opponent))(PP (IN of)(NP (NNP Sen)))) |BT| (BOW (opponent *)(of *)(Sen *)) |BT| (BOP (NN *)(IN *)(NNP *)) |ET| 
-0.0074048747144208146991894992083871  |BT| (S (PP (IN with)(NP (DT the)(JJ American)(NNS people)))(NP (NNP ,'')(NNP Bush))(VP (VBD said)(PP (IN in)(NP (NNP Florida)))(, ,)(SBAR (WHADVP (WRB where))(S (NP (PRP he))(VP (VBD was)(VP (VBG campaigning))))))) |BT| (BOW (Bush *)(said *)(in *)(Florida *)) |BT| (BOP (NNP *)(VBD *)(IN *)(NNP *)) |ET| 
-0.024719764511319897853924842934248  |BT| (NP (NP (NNS Lawmakers))(PP (IN in)(NP (NP (DT the)(NNP House))(PP (IN of)(NP (NNPS Commons)))))) |BT| (BOW (Lawmakers *)(in *)(the *)(House *)(of *)(Commons *)) |BT| (BOP (NNS *)(IN *)(DT *)(NNP *)(IN *)(NNPS *)) |ET| 
-0.026336180259872166153911621222505  |BT| (NP (NP (NP (DT The)(NNP Courier)(NNP News))(PP (IN in)(NP (NNP Elgin))))(, ,)(NP (NP (DT The)(NNP Beacon)(NNP News))(PP (IN in)(NP (NNP Aurora))))(CC and)(NP (NP (DT The)(NNP Herald)(NNP News))(PP (IN in)(NP (NNP Joliet))))) |BT| (BOW (The *)(Courier *)(News *)(in *)(Elgin *)(, *)(The *)(Beacon *)(News *)(in *)(Aurora *)(and *)(The *)(Herald *)(News *)(in *)(Joliet *)) |BT| (BOP (DT *)(NNP *)(NNP *)(IN *)(NNP *)(, *)(DT *)(NNP *)(NNP *)(IN *)(NNP *)(CC *)(DT *)(NNP *)(NNP *)(IN *)(NNP *)) |ET| 
-0.029102853678028086509277372329052  |BT| (NP (NP (NP (DT The)(NNP Courier)(NNP News))(PP (IN in)(NP (NNP Elgin))))(, ,)(NP (NP (DT The)(NNP Beacon)(NNP News))(PP (IN in)(NP (NNP Aurora))))(CC and)(NP (NP (DT The)(NNP Herald)(NNP News))(PP (IN in)(NP (NNP Joliet))))) |BT| (BOW (Elgin *)(, *)(The *)(Beacon *)(News *)(in *)(Aurora *)(and *)(The *)(Herald *)(News *)) |BT| (BOP (NNP *)(, *)(DT *)(NNP *)(NNP *)(IN *)(NNP *)(CC *)(DT *)(NNP *)(NNP *)) |ET| 
-0.013268135620368669974622477525372  |BT| (S (NP (DT The)(NNP New)(NNP York))(VP (VBD -based)(SBAR (S (NP (NNP College)(NNP Board))(VP (VBZ is)(NP (NP (DT a)(JJ nonprofit)(NN organization))(SBAR (WHNP (WDT that))(S (VP (VP (VBZ administers)(NP (DT the)(NNPS SATs)))(CC and)(VP (VBZ promotes)(NP (JJR higher)(NN education)))))))))))(. .)) |BT| (BOW (New *)(York *)(-based *)(College *)(Board *)) |BT| (BOP (NNP *)(NNP *)(JJ *)(NNP *)(NNP *)) |ET| 
-0.014816606690345540675579627531988  |BT| (NP (NP (NP (NNP Jefferson)(POS 's))(NNS friends))(PP (IN in)(NP (NNP Congress)))) |BT| (BOW (Jefferson *)('s *)(friends *)(in *)(Congress *)) |BT| (BOP (NNP *)(POS *)(NNS *)(IN *)(NNP *)) |ET| 
-0.011252170702882252975585153365046  |BT| (NP (NP (NNP WASHINGTON)(NNP [AP)(NNP ]))(: -)(S (S (NP (DT The)(NNP U.S.)(NN economy))(VP (VBD slowed)(ADVP (RB sharply))(PP (TO to)(NP (NP (DT an)(JJ annual)(NN growth)(NN rate))(PP (IN of)(NP (QP (RB just)(CD 2.2))(NN percent)))))(PP (IN in)(NP (NP (DT the)(NN summer))(, ,)(NP (NP (DT the)(JJS weakest)(NN performance))(PP (IN in)(NP (CD four)(NNS years))))))))(, ,)(NP (DT the)(NN government))(VP (VBD said)(NP (NNP Thursday))))(. .)) |BT| (BOW ((AP *)()*)(- *)(The *)(U.S. *)) |BT| (BOP (NNP *)(NNP *)(IN *)(DT *)(NNP *)) |ET| 
-0.024168322195007824887413860892593  |BT| (VP (VBD found)(SBAR (IN that)(S (NP (NP (RB plenty))(PP (IN of)(NP (NN competition))))(VP (VBD existed))))(: -)(PP (IN in)(NP (NNP Europe)))(, ,)(PP (PP (IN in)(NP (NNP Latin)(NNP America)))(, ,)(CC and)(PP (IN in)(NP (NP (JJ minor)(CC and)(JJ indoor)(NNS leagues))(PP (IN in)(NP (DT the)(NNP United)(NNPS States))))))) |BT| (BOW (Europe *)(, *)(in *)(Latin *)(America *)) |BT| (BOP (NNP *)(, *)(IN *)(NNP *)(NNP *)) |ET| 
-0.011759511781875623542825692879887  |BT| (NP (NP (NN information)(NN director)(NNP John)(NNP Wooding))(PP (IN by)(NP (DT The)(NNP Associated)(NNP Press)))) |BT| (BOW (John *)(Wooding *)(by *)(The *)(Associated *)(Press *)) |BT| (BOP (NNP *)(NNP *)(IN *)(DT *)(JJ *)(NN *)) |ET| 
-0.014930804941638323515840092170492  |BT| (NP (NP (DT the)(JJ same))(PP (RB as)(IN in)(NP (DT the)(NNP Boston)(CC and)(NNP Winston-Salem)))) |BT| (BOW (same *)(as *)(in *)(the *)(Boston *)) |BT| (BOP (JJ *)(IN *)(IN *)(DT *)(NNP *)) |ET| 
-0.026654778049191314714949641029307  |BT| (NP (NP (NN aid)(NNS workers))(PP (IN in)(NP (NNP Indonesian)(NNP West)(NNP Timor)))(PP (IN in)(NP (NNP September)))(. .)) |BT| (BOW (workers *)(in *)(Indonesian *)(West *)(Timor *)) |BT| (BOP (NNS *)(IN *)(JJ *)(NNP *)(NNP *)) |ET| 
-0.0097632335317487106696177079356858  |BT| (NP (DT the)(JJ gay)(NNS rights)(NN group)(NN Stonewall)) |BT| (BOW (group *)(Stonewall *)) |BT| (BOP (NN *)(NNP *)) |ET| 
-0.014479541828185249832672276681933  |BT| (NP (NP (DT a)(NN dinosaur)(NN expert))(PP (IN at)(NP (NP (DT the)(NNP American)(NNP Museum))(PP (IN of)(NP (NP (JJ Natural)(NN History))(PP (IN in)(NP (NNP New)(NNP York)))))))) |BT| (BOW (expert *)(at *)(the *)(American *)(Museum *)(of *)(Natural *)(History *)) |BT| (BOP (NN *)(IN *)(DT *)(JJ *)(NN *)(IN *)(JJ *)(JJ *)) |ET| 
-0.014759078807729855351005276986598  |BT| (S (NP (NNP ,'')(NNP Melvin))(VP (VBD said)(PP (IN in)(NP (DT the)(NNP Fort)(NNP Worth)(NNP Star-Telegram)))(PP (IN on)(NP (NNP Monday))))) |BT| (BOW (Melvin *)(said *)(in *)(the *)(Fort *)(Worth *)(Star-Telegram *)) |BT| (BOP (NNP *)(VBD *)(IN *)(DT *)(NNP *)(NNP *)(NNP *)) |ET| 
-0.018797601299847532807518746267306  |BT| (NP (NP (NNS countries))(PP (IN in)(NP (DT the)(JJ Arab)(NN world)))) |BT| (BOW (countries *)(in *)(the *)(Arab *)) |BT| (BOP (NNS *)(IN *)(DT *)(NNP *)) |ET| 
-0.0077277017999136561610118434373362  |BT| (NP (DT The)(NNP News)(NNP Sun)(CC and)(JJ other)(JJ northern)(NNP Illinois)(NNP Copley)(NNS newspapers)) |BT| (BOW (The *)(News *)(Sun *)(and *)(other *)(northern *)(Illinois *)(Copley *)) |BT| (BOP (DT *)(NNP *)(NNP *)(CC *)(JJ *)(JJ *)(NNS *)(NNP *)) |ET| 
-0.012978733967051278574977857260819  |BT| (S (NP (NP (DT The)(NNP Star-Ledger))(PP (IN of)(NP (NP (NNP Newark))(, ,)(NP (NNP Gannett)(NNP Newspapers))(CC and)(NP (NP (DT The)(NNP Record))(PP (IN of)(NP (NNP Hackensack)))))))(VP (VBD reported)(NP (NNP Friday))(SBAR (IN that)(S (NP (NNP Shea))(VP (VBD agreed)(S (VP (TO to)(VP (VB resign))))))))(. .)) |BT| (BOW (Hackensack *)(reported *)(Friday *)(that *)(Shea *)) |BT| (BOP (NNP *)(VBD *)(NN *)(IN *)(NNP *)) |ET| 
-0.0098619903522105846482848079403993  |BT| (NP (DT the)(NNP Texas)(NNP Senate)) |BT| (BOW (Texas *)(Senate *)) |BT| (BOP (NNP *)(NNP *)) |ET| 
-0.012177205923381223887091984181552  |BT| (S (NP (NP (JJ Jewish)(NNS settlements))(PP (IN in)(NP (NN territory))))(VP (VP (VBN captured)(PP (IN in)(NP (DT the)(CD 1967)(JJ Mideast)(NN war)(NN ``are)(JJ illegal)(NNS ,''))))(CC and)(VP (NP (DT an)(NN obstacle))(PP (TO to)(NP (NN peace)))))) |BT| (BOW (settlements *)(in *)(territory *)(captured *)(in *)(the *)(1967 *)(Mideast *)) |BT| (BOP (NNS *)(IN *)(NN *)(VBN *)(IN *)(DT *)(CD *)(NNP *)) |ET| 
-0.015504389468164937737615360902055  |BT| (NP (NP (JJ Many))(PP (IN of)(NP (NP (NNP Germany)(POS 's))(NNS neighbors)))(, ,)(PP (VBG including)(NP (NNP France)(, ,)(NNP Italy)(CC and)(NNP Greece)))(, ,)) |BT| (BOW (Many *)(of *)(Germany *)) |BT| (BOP (JJ *)(IN *)(NNP *)) |ET| 
-0.020113045263122561467916682431678  |BT| (NP (NP (QP (RB about)(CD 15,000))(NNS workers))(PP (IN in)(NP (JJ central)(NNP Seoul)))) |BT| (BOW (workers *)(in *)(central *)(Seoul *)) |BT| (BOP (NNS *)(IN *)(JJ *)(NNP *)) |ET| 
-0.019793257484848277710787201044695  |BT| (VP (VB determine)(NP (NP (NP (DT the)(NN fate))(PP (IN of)(NP (DT the)(JJ Democratic)(NN Party))))(CC and)(PRN (, ,)(ADVP (RB largely))(, ,))(NP (DT the)(NNP Republican)(NNP Party)))(PP (IN in)(NP (NP (DT the)(NN state))(PP (IN of)(NP (NNP Texas)(NNP .'')))))) |BT| (BOW (Republican *)(Party *)(in *)(the *)(state *)) |BT| (BOP (NNP *)(NNP *)(IN *)(DT *)(NN *)) |ET| 
-0.022834231356096232334884632564354  |BT| (NP (NP (JJ several)(NNS areas))(PP (IN of)(NP (NNP Alabama)))) |BT| (BOW (areas *)(of *)(Alabama *)) |BT| (BOP (NNS *)(IN *)(NNP *)) |ET| 
-0.0094186445291860217132740018541881  |BT| (NP (NP (NNP Pinochet))(VP (VBG traveling)(ADVP (RB abroad)))) |BT| (BOW (Pinochet *)(traveling *)(abroad *)) |BT| (BOP (NNP *)(VBG *)(RB *)) |ET| 
-0.019422097131855567408997842449025  |BT| (NP (NP (DT the)(JJ fisheries)(NN section))(PP (IN of)(NP (DT the)(NNP Gulf)(NNP Coast)(NNP Research)(NNP Laboratory)))) |BT| (BOW (fisheries *)(section *)(of *)(the *)(Gulf *)(Coast *)(Research *)(Laboratory *)) |BT| (BOP (NNS *)(NN *)(IN *)(DT *)(NNP *)(NNP *)(NNP *)(NNP *)) |ET| 
-0.01201125437650854381466114517707  |BT| (NP (NP (DT the)(NN city))(PP (IN in)(NP (JJ armored)(NNS vehicles)))) |BT| (BOW (city *)(in *)(armored *)(vehicles *)) |BT| (BOP (NN *)(IN *)(JJ *)(NNS *)) |ET| 
-0.013282467291488873895044520168085  |BT| (S (CC But)(NP (NNP Hewlett-Packard))(VP (VBD dug)(PP (IN in)(NP (PRP$ its)(NNS heels)))(SBAR (WHADVP (WRB when))(S (NP (PRP it))(VP (VBD was)(VP (VBN ordered)(S (VP (TO to)(VP (VB pay)(NP (CD 30)(NNS marks))(NP (QP (CD [$12.90)(CD ])))(PP (IN for)(NP (NP (DT each)(NN CD)(NN burner))(VP (VBN sold)(PP (IN in)(NP (NNP Germany)))(PP (IN since)(NP (NNP February)(CD 1998))))))))))))))(. .)) |BT| (BOW (Hewlett-Packard *)(dug *)(in *)(its *)) |BT| (BOP (NNP *)(NN *)(IN *)(PRP$ *)) |ET| 
-0.010925365835483313858844667265657  |BT| (NP (NP (NNP Copley)(NNP Press)(NNP Inc.))(VP (VBG blocking)(NP (NP (DT the)(NN sale))(PP (IN of)(NP (NP (DT The)(NNP News)(NNP Sun))(PP (IN in)(NP (NNP Waukegan))))))(PP (TO to)(NP (NNP Hollinger)(NNP International))))) |BT| (BOW (Copley *)(Press *)(Inc. *)(blocking *)(the *)(sale *)(of *)(The *)(News *)(Sun *)(in *)(Waukegan *)(to *)(Hollinger *)(International *)) |BT| (BOP (NNP *)(NNPS *)(NNP *)(VBG *)(DT *)(NN *)(IN *)(DT *)(NNP *)(NNP *)(IN *)(NNP *)(TO *)(NNP *)(NNP *)) |ET| 
-0.015438971372238499690787705276307  |BT| (S (NP (NNP Gelbard))(VP (VBD arrived)(PP (IN in)(NP (NNP Jakarta)))(NP (JJ last)(NN year))(PP (IN after)(S (VP (VBG earning)(NP (DT a)(NN reputation))(PP (IN as)(NP (NP (DT a)(JJ tough)(NN talker))(PP (IN as)(NP (NP (NNP President)(NNP Clinton)(POS 's))(NN envoy)))))(PP (TO to)(NP (DT the)(NNPS Balkans)))))))(. .)) |BT| (BOW (Gelbard *)(arrived *)(in *)(Jakarta *)) |BT| (BOP (NNP *)(VBD *)(IN *)(NNP *)) |ET| 
-0.0180979752829669437996784608913  |BT| (NP (NP (DT the)(JJS largest)(JJ Jewish)(NN community))(PP (IN in)(NP (NP (DT the)(NNP Middle)(NNP East))(PP (IN outside)(NP (NNP Israel)))))) |BT| (BOW (Jewish *)(community *)(in *)(the *)(Middle *)(East *)) |BT| (BOP (JJ *)(NN *)(IN *)(DT *)(NNP *)(NNP *)) |ET| 
-0.012444861686995191407678618134014  |BT| (VP (VBN scattered)(PP (IN from)(NP (NNP Pennsylvania)))(PP (IN across)(NP (JJ upstate)(NNP New)(NNP York)))(PP (IN into)(NP (JJ northern)(NNP New)(NNP England)))) |BT| (BOW (upstate *)(New *)(York *)(into *)(northern *)(New *)(England *)) |BT| (BOP (VBP *)(NNP *)(NNP *)(IN *)(JJ *)(NNP *)(NNP *)) |ET| 
-0.019297306037516979287937957110444  |BT| (NP (NP (NP (DT The)(NNP Courier)(NNP News))(PP (IN in)(NP (NNP Elgin))))(, ,)(NP (NP (DT The)(NNP Beacon)(NNP News))(PP (IN in)(NP (NNP Aurora))))(CC and)(NP (NP (DT The)(NNP Herald)(NNP News))(PP (IN in)(NP (NNP Joliet))))) |BT| (BOW (Aurora *)(and *)(The *)(Herald *)(News *)) |BT| (BOP (NNP *)(CC *)(DT *)(NNP *)(NNP *)) |ET| 
-0.012006145808803849600598923075268  |BT| (S (S (NP (DT This)(NN pattern))(VP (VBZ follows)(NP (DT an)(ADJP (JJ old)(, ,)(JJ familiar))(NN trend))))(PRN (, ,)(SINV (VP (VBD said))(NP (NP (NNP Joni)(NNP Finney))(, ,)(NP (NP (DT a)(NN policy)(NN analyst))(PP (IN at)(NP (NP (DT the)(NNP National)(NNP Center))(PP (IN for)(NP (NNP Public)(NNP Policy)))))))))(CC and)(S (NP (NP (NNP Higher)(NNP Education))(PP (IN in)(NP (NNP San)(NNP Jose)(, ,)(NNP Calif.)(NNS ``Colleges)(CC and)(NNS universities))))(VP (VBP have)(NP (NP (DT a)(ADJP (RB very)(JJ difficult))(NN time))(VP (VBG controlling)(NP (PRP$ their)(NNS costs))(S (VP (VBG ,'')(SBAR (S (NP (PRP she))(VP (VBD said))))))))))(. .)) |BT| (BOW (National *)(Center *)(for *)(Public *)(Policy *)(and *)(Higher *)(Education *)(in *)(San *)(Jose *)(, *)(Calif. *)(``Colleges *)(and *)(universities *)) |BT| (BOP (NNP *)(NNP *)(IN *)(NNP *)(NNP *)(CC *)(NNP *)(NNP *)(IN *)(NNP *)(NNP *)(, *)(NNP *)(NNPS *)(CC *)(NNS *)) |ET| 
-0.014828320275963847996170130727478  |BT| (VP (VBD overturned)(NP (NNS cars))(PP (IN in)(NP (NP (JJ several)(NNS areas))(PP (IN of)(NP (NNP Alabama)))))(PP (IN on)(NP (NNP Saturday)))) |BT| (BOW (cars *)(in *)(several *)(areas *)) |BT| (BOP (NNS *)(IN *)(JJ *)(NNS *)) |ET| 
-0.010081675121246962134602398464267  |BT| (NP (DT the)(JJ German)(NN magazine)(NNP Das)(NNP Motorrad)) |BT| (BOW (German *)(magazine *)(Das *)(Motorrad *)) |BT| (BOP (NNP *)(NN *)(NNP *)(NNP *)) |ET| 
-0.011923142834935930578499352350264  |BT| (NP (NP (PRP$ his)(NN record))(PP (IN in)(NP (NNP Texas)))) |BT| (BOW (his *)(record *)(in *)(Texas *)) |BT| (BOP (PRP$ *)(NN *)(IN *)(NNP *)) |ET| 
-0.013582335579991222651585758285364  |BT| (NP (NP (DT the)(NNP RNC)(NN gala))(PP (IN at)(NP (NP (DT the)(NNP Republican)(NNP National)(NNP Convention))(PP (IN in)(NP (NNP Philadelphia)))))) |BT| (BOW (gala *)(at *)(the *)(Republican *)(National *)(Convention *)(in *)(Philadelphia *)) |BT| (BOP (NN *)(IN *)(DT *)(NNP *)(NNP *)(NNP *)(IN *)(NNP *)) |ET| 
-0.0061688197959676085296853997874678  |BT| (NP (NP (NNS women))(PP (IN in)(NP (NP (DT some)(NNS parts))(PP (IN of)(NP (DT the)(NNP Persian)(NNP Gulf)))))(, ,)(PP (JJ such)(IN as)(NP (JJ conservative)(NNP Saudi)(NNP Arabia)))(, ,)) |BT| (BOW (women *)(in *)(some *)(parts *)) |BT| (BOP (VBN *)(IN *)(DT *)(NNS *)) |ET| 
-0.013750242421383413599089706735867  |BT| (SINV (S (NP (NNP Cycle)(NNP World))(VP (VBD brought)(NP (JJ objective)(NN journalism))(PP (TO to)(NP (NN motorcycle)(NNS periodicals)))(PP (IN by)(NP (NP (NN offering)(NN road)(NNS tests))(CC and)(NP (NP (DT a)(ADJP (RBR more)(JJ critical))(NN eye))(PP (IN than)(NP (JJ other)(NN fan)(NN -oriented)(NNS magazines))))))))(, ,)(VP (VBD said)(NP (NN analyst)))(NP (NP (NNP Don)(NNP Brown))(PP (IN of)(NP (NP (NNP DJB)(NNPS Associates)(NNP LLC))(PP (IN of)(NP (NNP Irvine))))))(. .)) |BT| (BOW (analyst *)(Don *)(Brown *)(of *)(DJB *)(Associates *)(LLC *)(of *)(Irvine *)) |BT| (BOP (NN *)(NNP *)(NNP *)(IN *)(NNP *)(NNPS *)(NNP *)(IN *)(NNP *)) |ET| 
-0.012766560299102169828699970821617  |BT| (VP (VBN dealt)(PP (IN with)(NP (NP (DT the)(NN issue))(PP (IN of)(NP (NNP Iraq)))))(PP (IN in)(NP (DT the)(NNS talks)))(PP (IN with)(NP (NNP Mubarak)))) |BT| (BOW (Iraq *)(in *)(the *)(talks *)(with *)(Mubarak *)) |BT| (BOP (NNP *)(IN *)(DT *)(NNS *)(IN *)(NNP *)) |ET| 
-0.012431245671261708166110970807949  |BT| (S (S (NP (DT This)(NN pattern))(VP (VBZ follows)(NP (DT an)(ADJP (JJ old)(, ,)(JJ familiar))(NN trend))))(PRN (, ,)(SINV (VP (VBD said))(NP (NP (NNP Joni)(NNP Finney))(, ,)(NP (NP (DT a)(NN policy)(NN analyst))(PP (IN at)(NP (NP (DT the)(NNP National)(NNP Center))(PP (IN for)(NP (NNP Public)(NNP Policy)))))))))(CC and)(S (NP (NP (NNP Higher)(NNP Education))(PP (IN in)(NP (NNP San)(NNP Jose)(, ,)(NNP Calif.)(NNS ``Colleges)(CC and)(NNS universities))))(VP (VBP have)(NP (NP (DT a)(ADJP (RB very)(JJ difficult))(NN time))(VP (VBG controlling)(NP (PRP$ their)(NNS costs))(S (VP (VBG ,'')(SBAR (S (NP (PRP she))(VP (VBD said))))))))))(. .)) |BT| (BOW (analyst *)(at *)(the *)(National *)(Center *)(for *)(Public *)(Policy *)(and *)(Higher *)(Education *)(in *)(San *)(Jose *)(, *)(Calif. *)) |BT| (BOP (NN *)(IN *)(DT *)(NNP *)(NNP *)(IN *)(NNP *)(NNP *)(CC *)(NNP *)(NNP *)(IN *)(NNP *)(NNP *)(, *)(NNP *)) |ET| 
-0.015555278938721557591140509657635  |BT| (NP (NP (NN professor))(PP (IN of)(NP (NP (JJ political)(NN science))(PP (IN at)(NP (NP (NNP Rice)(NNP University))(PP (IN in)(NP (NNP Houston)))))))) |BT| (BOW (professor *)(of *)(political *)(science *)(at *)(Rice *)(University *)) |BT| (BOP (NN *)(IN *)(JJ *)(NN *)(IN *)(NNP *)(NNP *)) |ET| 
-0.0096269227631187101468235312040633  |BT| (NP (DT The)(NNP Dick)(NNP Cheney)(NNP -Joe)(NNP Lieberman)(NN debate)) |BT| (BOW (Dick *)(Cheney *)(-Joe *)(Lieberman *)) |BT| (BOP (NNP *)(NNP *)(NNP *)(NNP *)) |ET| 
-0.012558702437686239394842857564072  |BT| (VP (VBN wounded)(PP (IN in)(NP (NP (JJ ongoing)(NN violence))(PP (IN in)(NP (NP (DT the)(JJ Palestinian)(NNS territories))(PP (IN for)(NP (NN treatment)))))))(PP (IN in)(NP (JJ Iraqi)(NNS hospitals)))) |BT| (BOW (Palestinian *)(territories *)(for *)(treatment *)(in *)(Iraqi *)) |BT| (BOP (JJ *)(NNS *)(IN *)(NN *)(IN *)(NNP *)) |ET| 
-0.013928944290893819843435430527734  |BT| (NP (NP (NNP Newark))(, ,)(NP (NNP Gannett)(NNP Newspapers))(CC and)(NP (NP (DT The)(NNP Record))(PP (IN of)(NP (NNP Hackensack))))) |BT| (BOW (Newark *)(, *)(Gannett *)(Newspapers *)(and *)(The *)(Record *)(of *)(Hackensack *)) |BT| (BOP (NNP *)(, *)(NNP *)(NNPS *)(CC *)(DT *)(NNP *)(IN *)(NNP *)) |ET| 
-0.0064283533119486677837040033978155  |BT| (VP (VB show)(NP (PRP$ their)(NN heart)(CC and)(NN release)(NN government)(NNS prisoners))(PP (IN in)(NP (PRP$ their)(JJ jails)(NN .'')))) |BT| (BOW (prisoners *)(in *)(their *)) |BT| (BOP (NNS *)(IN *)(PRP$ *)) |ET| 
-0.019985713471021675224914559976241  |BT| (NP (NP (JJ new)(NNP Yugoslav)(NNP President)(NNP Vojislav)(NNP Kostunica))(PP (IN in)(NP (NNP Belgrade)))) |BT| (BOW (Vojislav *)(Kostunica *)(in *)(Belgrade *)) |BT| (BOP (NNP *)(NNP *)(IN *)(NNP *)) |ET| 
-0.0094910093757316783130706383531106  |BT| (NP (NP (NNS countries))(PP (IN in)(NP (DT the)(JJ Arab)(NN world)))) |BT| (BOW (countries *)(in *)(the *)(Arab *)(world *)) |BT| (BOP (NNS *)(IN *)(DT *)(NNP *)(NN *)) |ET| 
-0.013403006786799464417070382182828  |BT| (NP (NP (NP (NNP Jefferson)(POS 's))(NNS friends))(PP (IN in)(NP (NNP Congress)))) |BT| (BOW (friends *)(in *)(Congress *)) |BT| (BOP (NNS *)(IN *)(NNP *)) |ET| 
-0.014011473005134408506555665496762  |BT| (NP (NP (DT the)(NN quarterback))(SBAR (WHADVP (WRB when))(S (NP (NP (DT the)(NNP University))(PP (IN of)(NP (NNP Oklahoma))))(VP (VBD won)(NP (DT the)(NNP Orange)(NNP Bowl))(ADVP (RB there))(PP (IN in)(NP (CD 1980)(CC and)(CD 1981))))))) |BT| (BOW (quarterback *)(when *)(the *)(University *)(of *)(Oklahoma *)) |BT| (BOP (NN *)(WRB *)(DT *)(NNP *)(IN *)(NNP *)) |ET| 
-0.0071157437539878971854978573219341  |BT| (S (NP (NNP Joseph))(VP (VBD was)(ADVP (RB actually))(VP (VBN buried)(PP (IN in)(NP (NNP Egypt)))))) |BT| (BOW (Joseph *)(was *)(actually *)(buried *)(in *)(Egypt *)) |BT| (BOP (NNP *)(VBD *)(RB *)(VBN *)(IN *)(NN *)) |ET| 
-0.01008026415141928013030625521651  |BT| (S (S (NP (DT This)(NN pattern))(VP (VBZ follows)(NP (DT an)(ADJP (JJ old)(, ,)(JJ familiar))(NN trend))))(PRN (, ,)(SINV (VP (VBD said))(NP (NP (NNP Joni)(NNP Finney))(, ,)(NP (NP (DT a)(NN policy)(NN analyst))(PP (IN at)(NP (NP (DT the)(NNP National)(NNP Center))(PP (IN for)(NP (NNP Public)(NNP Policy)))))))))(CC and)(S (NP (NP (NNP Higher)(NNP Education))(PP (IN in)(NP (NNP San)(NNP Jose)(, ,)(NNP Calif.)(NNS ``Colleges)(CC and)(NNS universities))))(VP (VBP have)(NP (NP (DT a)(ADJP (RB very)(JJ difficult))(NN time))(VP (VBG controlling)(NP (PRP$ their)(NNS costs))(S (VP (VBG ,'')(SBAR (S (NP (PRP she))(VP (VBD said))))))))))(. .)) |BT| (BOW (analyst *)(at *)(the *)(National *)(Center *)(for *)(Public *)(Policy *)(and *)(Higher *)(Education *)(in *)(San *)(Jose *)(, *)(Calif. *)(``Colleges *)) |BT| (BOP (NN *)(IN *)(DT *)(NNP *)(NNP *)(IN *)(NNP *)(NNP *)(CC *)(NNP *)(NNP *)(IN *)(NNP *)(NNP *)(, *)(NNP *)(NNPS *)) |ET| 
-0.0097464926888015078476623642700361  |BT| (NP (NP (NN director))(PP (IN of)(NP (NP (DT the)(JJ fisheries)(NN section))(PP (IN of)(NP (DT the)(NNP Gulf)(NNP Coast)(NNP Research)(NNP Laboratory)))))(PP (IN in)(NP (NNP Mississippi)))) |BT| (BOW (director *)(of *)(the *)(fisheries *)(section *)(of *)(the *)(Gulf *)(Coast *)(Research *)(Laboratory *)) |BT| (BOP (NN *)(IN *)(DT *)(NNS *)(NN *)(IN *)(DT *)(NNP *)(NNP *)(NNP *)(NNP *)) |ET| 
-0.013334912187165003094602155897519  |BT| (VP (VBD started)(PP (IN with)(NP (NP (DT a)(JJ random)(NN sample))(PP (IN of)(NP (DT all)(JJ registered)(NNS voters)))))(PP (IN in)(NP (NP (NNP St.)(NNP Louis))(CC and)(NP (PRP$ its)(NNS suburbs))))) |BT| (BOW (voters *)(in *)(St. *)(Louis *)) |BT| (BOP (NNS *)(IN *)(NNP *)(NNP *)) |ET| 
-0.0094533312147942749614770718835643  |BT| (NP (NP (DT A)(JJ little)(NN mountain)(NN village))(PP (IN in)(NP (JJ northern)(NNP Italy)))(VP (VBN buried)(NP (NP (CD five)(NNS victims))(PP (IN of)(NP (NP (NP (JJ last)(NN week)(POS 's))(JJ devastating)(JJ high)(NN water))(CC and)(NP (NNS mudslides)))))(PP (IN on)(NP (NNP Sunday)))(, ,)(NP (NP (DT the)(NN day))(SBAR (S (NP (NP (DT a)(NN state))(PP (IN of)(NP (NN emergency))))(ADVP (RB finally))(VP (VBD ran)(PRT (RP out)))))))) |BT| (BOW (village *)(in *)(northern *)(Italy *)) |BT| (BOP (NN *)(IN *)(JJ *)(NNP *)) |ET| 
-0.0092900027292632022385410195397526  |BT| (NP (DT the)(JJ radical)(JJ Islamic)(NN group)(NN Hamas)) |BT| (BOW (Islamic *)(group *)(Hamas *)) |BT| (BOP (NNP *)(NN *)(NNP *)) |ET| 
-0.011500138623664429154969113255902  |BT| (S (NP (NP (NNP Schools))(CC and)(NP (DT some)(NNS businesses)))(VP (VBD closed)(PP (IN in)(NP (NP (NNS parts))(PP (IN of)(NP (NNP Nebraska))))))(. .)) |BT| (BOW (businesses *)(closed *)(in *)(parts *)) |BT| (BOP (NNS *)(VBD *)(IN *)(NNS *)) |ET| 
-0.01194289806130771278147584268936  |BT| (NP (NP (DT a)(NN native))(PP (IN of)(NP (NNP Burlington)(, ,)(NNP N.C.)(, ,)))) |BT| (BOW (native *)(of *)(Burlington *)) |BT| (BOP (JJ *)(IN *)(NNP *)) |ET| 
-0.010662560841156066421264725363471  |BT| (NP (NP (DT the)(NN state))(PP (IN of)(NP (NNP Washington)))) |BT| (BOW (state *)(of *)(Washington *)) |BT| (BOP (NN *)(IN *)(NNP *)) |ET| 
-0.0080599481607067299804292304088449  |BT| (S (NP (NNP President)(NNP Clinton)(CC and)(NNP Vice)(NNP President)(NNP Al)(NNP Gore))(VP (VBD were)(ADJP (JJ noncommittal)(PP (IN in)(NP (NNP August)(NNS meetings))))(PP (IN with)(NP (NNP Fox))))(. .)) |BT| (BOW (Al *)(Gore *)(were *)(noncommittal *)(in *)(August *)(meetings *)(with *)(Fox *)) |BT| (BOP (NNP *)(NNP *)(VBD *)(JJ *)(IN *)(NNP *)(NNS *)(IN *)(NNP *)) |ET| 
-0.0070713724969909512452215238909048  |BT| (NP (NP (NNP BA))(PP (IN of)(S (VP (ADVP (RB unfairly))(VBG subsidizing)(NP (NNP Go)))))) |BT| (BOW (BA *)(of *)(unfairly *)(subsidizing *)(Go *)) |BT| (BOP (NNP *)(IN *)(RB *)(JJ *)(NNP *)) |ET| 
-0.007390689444670724486674551201304  |BT| (NP (NP (DT the)(JJ senior)(NNP U.S.)(NN official))(VP (VBG overseeing)(NP (NP (NNS developments))(PP (IN in)(NP (DT the)(NNPS Balkans)))))) |BT| (BOW (U.S. *)(official *)(overseeing *)(developments *)(in *)(the *)(Balkans *)) |BT| (BOP (NNP *)(NN *)(VBG *)(NNS *)(IN *)(DT *)(NNPS *)) |ET| 
-0.0082089482435618848360503463368332  |BT| (VP (VBZ brings)(NP (NP (NNP Britain))(PP (IN in)(NP (NN line))))(PP (IN with)(NP (ADJP (RBS most)(JJ other))(JJ European)(NN Union)(NNS nations)))) |BT| (BOW (Britain *)(in *)(line *)(with *)(most *)(other *)(European *)(Union *)(nations *)) |BT| (BOP (NNP *)(IN *)(NN *)(IN *)(JJS *)(JJ *)(JJ *)(NNP *)(NNS *)) |ET| 
-0.0040752357455157844912108089374669  |BT| (S (NP (PRP he))(VP (VBD had)(VP (VBN ordered)(PP (IN from)(NP (NP (DT a)(NN company))(VP (VBN based)(PP (IN in)(NP (NP (DT the)(NN state))(PP (IN of)(NP (NNP Washington))))))))))) |BT| (BOW (he *)(had *)(ordered *)(from *)(a *)(company *)(based *)(in *)(the *)(state *)) |BT| (BOP (PRP *)(VBD *)(VBN *)(IN *)(DT *)(NN *)(VBN *)(IN *)(DT *)(NN *)) |ET| 
-0.006564517372860182581328913897778  |BT| (SBAR (WHNP (WP who))(S (VP (VBZ has)(VP (VBN been)(VP (VBN indicted)(PP (IN by)(NP (DT the)(JJ international)(NN war)(NNS crimes)(NN tribunal)))(PP (IN in)(NP (DT The)(NNP Hague)(, ,)(NNPS Netherlands)))))))) |BT| (BOW (who *)(has *)(been *)(indicted *)(by *)(the *)(international *)(war *)(crimes *)(tribunal *)(in *)(The *)(Hague *)(, *)(Netherlands *)) |BT| (BOP (WP *)(VBZ *)(VBN *)(VBN *)(IN *)(DT *)(JJ *)(NN *)(NNS *)(NN *)(IN *)(DT *)(NNP *)(, *)(NNS *)) |ET| 
-0.0086099485350489661505957172948911  |BT| (VP (VBP accuse)(NP (PRP them))(PP (IN of)(S (VP (VBG interfering)(PP (IN in)(NP (NP (NNP Indonesia)(POS 's))(JJ internal)(NNS affairs))))))) |BT| (BOW (them *)(of *)(interfering *)(in *)(Indonesia *)) |BT| (BOP (PRP *)(IN *)(NN *)(IN *)(NNP *)) |ET| 
-0.0083282495383331812260907511813457  |BT| (NP (NP (DT the)(JJS largest)(JJ Jewish)(NN community))(PP (IN in)(NP (NP (DT the)(NNP Middle)(NNP East))(PP (IN outside)(NP (NNP Israel)))))) |BT| (BOW (community *)(in *)(the *)(Middle *)(East *)(outside *)(Israel *)) |BT| (BOP (NN *)(IN *)(DT *)(NNP *)(NNP *)(VBP *)(NNP *)) |ET| 
-0.0041354152925248636313293459920715  |BT| (NP (NP (DT The)(NNP National)(NNP Action)(NNP Party)(POS 's))(NNP Vicente)(NNP Fox)) |BT| (BOW (National *)(Action *)(Party *)('s *)(Vicente *)(Fox *)) |BT| (BOP (NNP *)(NNP *)(NNP *)(POS *)(NNP *)(NNP *)) |ET| 
-0.0076990885406912875146834274175944  |BT| (NP (NP (DT The)(NNP Senate)(NN seat))(PP (IN in)(NP (DT the)(RB traditionally)(JJ Democratic)(NN region)))) |BT| (BOW (Senate *)(seat *)(in *)(the *)(traditionally *)(Democratic *)) |BT| (BOP (NNP *)(NN *)(IN *)(DT *)(RB *)(JJ *)) |ET| 
-0.0072332416707758763127489309852081  |BT| (S (NP (NP (DT A)(NN group))(PP (IN of)(NP (JJ undecided)(NNS voters))))(VP (VBD recruited)(PP (IN by)(NP (NNP NBC)))(PP (IN in)(NP (NNP Tampa))))) |BT| (BOW (voters *)(recruited *)(by *)(NBC *)(in *)(Tampa *)) |BT| (BOP (NNS *)(VBN *)(IN *)(NNP *)(IN *)(NNP *)) |ET| 
-0.0090201183814339908756396724243132  |BT| (NP (NP (PRP$ their)(JJ new)(NNP Pacific)(NNP Bell)(NNP Park))(PP (IN in)(NP (NNP San)(NNP Francisco)))) |BT| (BOW (their *)(new *)(Pacific *)(Bell *)(Park *)(in *)(San *)(Francisco *)) |BT| (BOP (PRP$ *)(JJ *)(NNP *)(NNP *)(NNP *)(IN *)(NNP *)(NNP *)) |ET| 
-0.00619503680132848719153138006277  |BT| (NP (NP (DT the)(NNP Organization))(PP (IN of)(NP (NP (NNP African)(NNP Unity))(, ,)(NP (DT the)(NNP European)(NNP Union))(CC and)(NP (NNS countries))))(PP (JJ such)(IN as)(NP (DT the)(NNP United)(NNPS States)(CC and)(NNP Canada)))) |BT| (BOW (countries *)(such *)(as *)(the *)(United *)(States *)) |BT| (BOP (NNS *)(JJ *)(IN *)(DT *)(NNP *)(NNPS *)) |ET| 
-0.008066121995439646391590216012446  |BT| (NP (NP (DT The)(NNP Daily)(NNP Oklahoman))(CC and)(NP (NP (JJ several)(NN TV)(CC and)(NN radio)(NNS stations))(PP (IN in)(NP (NNP Oklahoma))))) |BT| (BOW (Daily *)(Oklahoman *)(and *)(several *)(TV *)(and *)(radio *)(stations *)) |BT| (BOP (JJ *)(NNP *)(CC *)(JJ *)(NNS *)(CC *)(NN *)(NNS *)) |ET| 
-0.008960998816899703664495824284586  |BT| (NP (NP (NNP Newark))(, ,)(NP (NNP Gannett)(NNP Newspapers))(CC and)(NP (NP (DT The)(NNP Record))(PP (IN of)(NP (NNP Hackensack))))) |BT| (BOW (Gannett *)(Newspapers *)(and *)(The *)(Record *)) |BT| (BOP (NNP *)(NNPS *)(CC *)(DT *)(NNP *)) |ET| 
-0.0069682162228440090376291315976687  |BT| (S (ADVP (IN At)(JJS least))(NP (CD one)(NN person))(VP (VBD was)(VP (VBN killed)(PP (IN in)(NP (NNP Tuscaloosa)))))) |BT| (BOW (person *)(was *)(killed *)(in *)(Tuscaloosa *)) |BT| (BOP (NN *)(VBD *)(VBN *)(IN *)(NNP *)) |ET| 
-0.0054858305695492520781542111762974  |BT| (NP (NP (NNP Dr.)(NNP Monty)(NNP Graham))(, ,)(NP (NP (DT a)(NN researcher))(PP (IN at)(NP (DT the)(NNP Dauphin)(NNP Island)(NNP Sea)(NNP Lab)))(PP (IN in)(NP (NNP Alabama))))(, ,)) |BT| (BOW (Monty *)(Graham *)(, *)(a *)(researcher *)(at *)(the *)(Dauphin *)(Island *)(Sea *)(Lab *)(in *)(Alabama *)) |BT| (BOP (NNP *)(NNP *)(, *)(DT *)(NN *)(IN *)(DT *)(NNP *)(NNP *)(NNP *)(NNP *)(IN *)(NNP *)) |ET| 
-0.0087000115580149837285484082372022  |BT| (NP (NP (DT the)(JJS largest)(NN motorcycle)(NN magazine))(PP (IN in)(NP (NP (DT the)(NN world))(, ,)(NP (NNP Brown))(CC and)(NP (NNS others))))) |BT| (BOW (magazine *)(in *)(the *)(world *)(, *)(Brown *)) |BT| (BOP (NN *)(IN *)(DT *)(NN *)(, *)(NNP *)) |ET| 
-0.0053179164376060475416529982339853  |BT| (NP (NP (NNP Media)(NNP Metrix))(VP (VBG indicating)(SBAR (IN that)(S (NP (NP (DT the)(VBG messaging)(NNS services))(VP (VBN offered)(PP (IN by)(NP (NNP Yahoo!)(CC and)(NNP Microsoft)))))(VP (VBP are)(NP (NP (DT the)(JJS fastest)(NN growing))(PP (IN in)(NP (DT the)(NNP United)(NNPS States))))))))) |BT| (BOW (Media *)(Metrix *)(indicating *)(that *)(the *)(messaging *)(services *)(offered *)(by *)(Yahoo! *)) |BT| (BOP (NNP *)(NNP *)(VBG *)(IN *)(DT *)(VBG *)(NNS *)(VBN *)(IN *)(NNP *)) |ET| 
-0.0041277446300730796791000898338098  |BT| (NP (NP (JJ Jewish)(NNS settlements))(PP (IN in)(NP (NN territory)))) |BT| (BOW (Jewish *)(settlements *)(in *)(territory *)) |BT| (BOP (JJ *)(NNS *)(IN *)(NN *)) |ET| 
-0.0059127649159293020619809766458275  |BT| (NP (DT the)(NNP Texas)(NNP House)) |BT| (BOW (Texas *)(House *)) |BT| (BOP (NNP *)(NNP *)) |ET| 
-0.0045469563658749644410872470245977  |BT| (S (CC And)(PP (IN with)(NP (NP (NP (NNP Kostunica)(POS 's))(JJ 18-party)(NN opposition)(NN block))(PP (ADVP (JJ short))(IN of)(NP (DT an)(JJ absolute)(NN majority)))))(, ,)(NP (PRP it))(VP (VBZ appears)(VP (VBN compelled)(S (VP (TO to)(VP (VB deal)(PP (IN with)(NP (NP (DT the)(NNP Socialist)(NNP People's)(NNP Party))(PP (IN of)(NP (NP (NNP Montenegro))(, ,)(NP (DT the)(JJR smaller)(NNP Yugoslav)(NN republic)))))))))))(. .)) |BT| (BOW (it *)(appears *)(compelled *)(to *)(deal *)(with *)(the *)(Socialist *)(People's *)(Party *)(of *)(Montenegro *)) |BT| (BOP (PRP *)(VBZ *)(VBN *)(TO *)(VB *)(IN *)(DT *)(NN *)(NNPS *)(NNP *)(IN *)(NNP *)) |ET| 
-0.0040379208536266246454271566790339  |BT| (S (NP (NP (DT The)(NNP Daily)(NNP Oklahoman))(CC and)(NP (NP (JJ several)(NN TV)(CC and)(NN radio)(NNS stations))(PP (IN in)(NP (NNP Oklahoma)))))(VP (VBD had)(VP (VBN reported)(NP (NNP Thursday)(CC and)(NNP Friday))(SBAR (IN that)(S (NP (NNP Koetter))(VP (VBD had)(VP (VBN accepted)(NP (DT the)(NNP Oklahoma)(NNP State)(NN job))))))))(. .)) |BT| (BOW (stations *)(in *)(Oklahoma *)(had *)(reported *)(Thursday *)(and *)(Friday *)(that *)(Koetter *)(had *)(accepted *)(the *)(Oklahoma *)(State *)) |BT| (BOP (NNS *)(IN *)(NNP *)(VBD *)(VBN *)(NN *)(CC *)(NN *)(IN *)(NNP *)(VBD *)(VBN *)(DT *)(NNP *)(NNP *)) |ET| 
-0.006915755387692949784916862654427  |BT| (NP (NP (JJ other)(NNS backers))(PP (IN of)(NP (NNP Pinochet)))) |BT| (BOW (backers *)(of *)(Pinochet *)) |BT| (BOP (NNS *)(IN *)(NNP *)) |ET| 
-0.0049940787137150001798180376511027  |BT| (NP (NP (NNP Dr.)(NNP Monty)(NNP Graham))(, ,)(NP (NP (DT a)(NN researcher))(PP (IN at)(NP (DT the)(NNP Dauphin)(NNP Island)(NNP Sea)(NNP Lab)))(PP (IN in)(NP (NNP Alabama))))(, ,)) |BT| (BOW (Dr. *)(Monty *)(Graham *)(, *)(a *)(researcher *)(at *)(the *)(Dauphin *)(Island *)(Sea *)(Lab *)(in *)(Alabama *)) |BT| (BOP (NNP *)(NNP *)(NNP *)(, *)(DT *)(NN *)(IN *)(DT *)(NNP *)(NNP *)(NNP *)(NNP *)(IN *)(NNP *)) |ET| 
-0.0051176067342447728591992017754819  |BT| (S (PP (IN with)(NP (DT the)(JJ American)(NNS people)))(NP (NNP ,'')(NNP Bush))(VP (VBD said)(PP (IN in)(NP (NNP Florida)))(, ,)(SBAR (WHADVP (WRB where))(S (NP (PRP he))(VP (VBD was)(VP (VBG campaigning))))))) |BT| (BOW (American *)(people *)(,'' *)(Bush *)(said *)(in *)(Florida *)) |BT| (BOP (JJ *)(NNS *)(NNP *)(NNP *)(VBD *)(IN *)(NNP *)) |ET| 
-0.0054117880060242651296675830963068  |BT| (NP (NP (NNP Gary)(NNP Darnell))(PP (IN of)(NP (NNP Western)(NNP Michigan)))) |BT| (BOW (Gary *)(Darnell *)(of *)(Western *)(Michigan *)) |BT| (BOP (JJ *)(NNP *)(IN *)(NNP *)(NNP *)) |ET| 
-0.0044465573115599257153496282057858  |BT| (NP (NP (NNP Fox)(NNP News)(NNP Channel)(POS 's))(NNP Mort)(NNP Kondracke)) |BT| (BOW (Fox *)(News *)(Channel *)('s *)(Mort *)(Kondracke *)) |BT| (BOP (NNP *)(NNP *)(NNP *)(POS *)(NNP *)(NNP *)) |ET| 
-0.007199419566529989891745522356814  |BT| (NP (NP (NNP Egyptian)(NNP President)(NNP Hosni)(NNP Mubarak))(PP (IN in)(NP (NP (NNS talks))(PP (IN on)(NP (JJ Mideast)(NN peace)))))) |BT| (BOW (President *)(Hosni *)(Mubarak *)(in *)(talks *)(on *)(Mideast *)) |BT| (BOP (NNP *)(NNP *)(NNP *)(IN *)(NNS *)(IN *)(NNP *)) |ET| 
-0.0050822332178654672230067035343382  |BT| (VP (VBN watched)(PRT (RP over))(PP (IN by)(NP (JJ uniformed)(NNS guards)))(PP (IN from)(NP (DT the)(NNP Border)(NNP Patrol)))) |BT| (BOW (guards *)(from *)(the *)(Border *)(Patrol *)) |BT| (BOP (NNS *)(IN *)(DT *)(NNP *)(NNP *)) |ET| 
-0.0030179106227649042659688660705797  |BT| (NP (NNP Embassy)(NN spokeswoman)(NNP Lela)(NNP Margiou)) |BT| (BOW (Embassy *)(spokeswoman *)(Lela *)(Margiou *)) |BT| (BOP (JJ *)(NN *)(NNP *)(NNP *)) |ET| 
-0.0068881242704561390644002472072316  |BT| (VP (VBN wounded)(PP (IN in)(NP (NP (JJ ongoing)(NN violence))(PP (IN in)(NP (NP (DT the)(JJ Palestinian)(NNS territories))(PP (IN for)(NP (NN treatment)))))))(PP (IN in)(NP (JJ Iraqi)(NNS hospitals)))) |BT| (BOW (territories *)(for *)(treatment *)(in *)(Iraqi *)(hospitals *)) |BT| (BOP (NNS *)(IN *)(NN *)(IN *)(NNP *)(NNS *)) |ET| 
-0.0045462460484103394200983139228356  |BT| (NP (NP (DT the)(JJ same)(NN chemical))(VP (VBN used)(PP (IN in)(NP (NP (DT a)(NNP Tokyo)(NN subway)(NN attack))(PP (IN in)(NP (CD 1995)))(SBAR (WHNP (WDT that))(S (VP (VBD killed)(NP (CD 12)(NNS people))))))))) |BT| (BOW (chemical *)(used *)(in *)(a *)(Tokyo *)) |BT| (BOP (NN *)(VBN *)(IN *)(DT *)(NNP *)) |ET| 
-0.0061990953932945305759893983577058  |BT| (S (SBAR (IN As)(S (NP (PRP he))(VP (VBD spoke))))(, ,)(NP (NNP Russian)(NNP Foreign)(NNP Minister)(NNP Ivanov))(VP (VBD was)(PP (IN in)(NP (NNP Yugoslavia)))(, ,)(S (VP (VP (VBG meeting)(PP (IN with)(NP (JJ ousted)(NN leader)(NNP Slobodan)(NNP Milosevic))))(CC and)(VP (VBG recognizing)(NP (NP (NN opposition)(NN leader)(NNP Vojislav)(NNP Kostunica))(PP (IN as)(NP (NP (NN winner))(PP (IN of)(NP (DT the)(NN Sept))))))))))(. .)) |BT| (BOW (Ivanov *)(was *)(in *)(Yugoslavia *)) |BT| (BOP (NNP *)(VBD *)(IN *)(NNP *)) |ET| 
-0.0063348500382978366329833619374767  |BT| (NP (NP (DT a)(JJ Saudi)(NN researcher))(VP (VBN interested)(PP (IN in)(NP (NP (NNS women)(POS 's))(NNS issues))))) |BT| (BOW (researcher *)(interested *)(in *)(women *)) |BT| (BOP (VB *)(JJ *)(IN *)(NNP *)) |ET| 
-0.0046936650273340929651055830618134  |BT| (VP (VBG blocking)(NP (NP (DT the)(NN sale))(PP (IN of)(NP (NP (DT The)(NNP News)(NNP Sun))(PP (IN in)(NP (NNP Waukegan))))))(PP (TO to)(NP (NNP Hollinger)(NNP International)))) |BT| (BOW (Waukegan *)(to *)(Hollinger *)(International *)) |BT| (BOP (NNP *)(TO *)(NNP *)(NNP *)) |ET| 
-0.0075936411240696000124472675452125  |BT| (NP (NP (DT the)(NNP Bush)(JJ -Cheney)(NN transition)(NN headquarters))(PP (IN in)(NP (NNP McLean)(, ,)(NNP Va)(NNP .,)))) |BT| (BOW (-Cheney *)(transition *)(headquarters *)(in *)(McLean *)) |BT| (BOP (NNP *)(NN *)(NNS *)(IN *)(NNP *)) |ET| 
-0.0033356858276385823597331992118598  |BT| (SBAR (WHNP (WP who))(S (VP (VBZ has)(VP (VBN been)(VP (VBN indicted)(PP (IN by)(NP (DT the)(JJ international)(NN war)(NNS crimes)(NN tribunal)))(PP (IN in)(NP (DT The)(NNP Hague)(, ,)(NNPS Netherlands)))))))) |BT| (BOW (who *)(has *)(been *)(indicted *)(by *)(the *)(international *)(war *)(crimes *)(tribunal *)) |BT| (BOP (WP *)(VBZ *)(VBN *)(VBN *)(IN *)(DT *)(JJ *)(NN *)(NNS *)(NN *)) |ET| 
-0.0050494092540475411790001913914239  |BT| (NP (NP (JJ separatist)(NNS activists))(PP (IN in)(NP (NP (NNP Indonesia)(POS 's))(JJ war-torn)(JJ Aceh)(NN province)))) |BT| (BOW (activists *)(in *)(Indonesia *)('s *)(war-torn *)(Aceh *)) |BT| (BOP (NNS *)(IN *)(NNP *)(POS *)(JJ *)(NNP *)) |ET| 
-0.0036139648396954805742442573546214  |BT| (NP (NP (DT the)(JJ main)(NN island))(PP (IN of)(NP (NNP Java)))) |BT| (BOW (island *)(of *)(Java *)) |BT| (BOP (NN *)(IN *)(NNP *)) |ET| 
-0.0060061087879421989205175336223874  |BT| (NP (NP (DT the)(NNS roads))(PP (IN in)(NP (NP (NNP northeastern)(NNP Nebraska)(POS 's))(NNP Cuming)(NNP County)))) |BT| (BOW (roads *)(in *)(northeastern *)(Nebraska *)('s *)(Cuming *)(County *)) |BT| (BOP (NNS *)(IN *)(JJ *)(NNP *)(POS *)(NNP *)(NNP *)) |ET| 
-0.0031481630235919806290456612885009  |BT| (S (NP (NNP Communist)(NNP Party))(ADJP (JJ congresses))) |BT| (BOW (Communist *)(Party *)(congresses *)) |BT| (BOP (NNP *)(NNP *)(NNS *)) |ET| 
-0.0042336925858778400033610722630328  |BT| (NP (NP (CD 20)(NNPS Palestinians))(VP (VBN wounded)(PP (IN in)(NP (NP (JJ ongoing)(NN violence))(PP (IN in)(NP (NP (DT the)(JJ Palestinian)(NNS territories))(PP (IN for)(NP (NN treatment)))))))(PP (IN in)(NP (JJ Iraqi)(NNS hospitals))))) |BT| (BOW (Palestinians *)(wounded *)(in *)(ongoing *)(violence *)(in *)(the *)(Palestinian *)(territories *)) |BT| (BOP (NNPS *)(VBD *)(IN *)(VBG *)(NN *)(IN *)(DT *)(JJ *)(NNS *)) |ET| 
-0.0038568074159298039102483635076624  |BT| (VP (VBD praised)(NP (PRP$ their)(NN arrival))(PP (IN in)(NP (NNP Baghdad)))(, ,)(VP (VBG stressing)(NP (JJ Arab)(NN solidarity)))) |BT| (BOW (their *)(arrival *)(in *)(Baghdad *)) |BT| (BOP (PRP$ *)(NN *)(IN *)(NNP *)) |ET| 
-0.0038640104148305164794008348394527  |BT| (S (NP (PRP he))(VP (VBD had)(VP (VBN ordered)(PP (IN from)(NP (NP (DT a)(NN company))(VP (VBN based)(PP (IN in)(NP (NP (DT the)(NN state))(PP (IN of)(NP (NNP Washington))))))))))) |BT| (BOW (he *)(had *)(ordered *)(from *)(a *)(company *)(based *)(in *)(the *)(state *)(of *)(Washington *)) |BT| (BOP (PRP *)(VBD *)(VBN *)(IN *)(DT *)(NN *)(VBN *)(IN *)(DT *)(NN *)(IN *)(NNP *)) |ET| 
-0.0069603816872190089892757924872058  |BT| (NP (NP (NNP WASHINGTON)(NNP [AP)(NNP ]))(: -)(S (S (NP (DT The)(NNP U.S.)(NN economy))(VP (VBD slowed)(ADVP (RB sharply))(PP (TO to)(NP (NP (DT an)(JJ annual)(NN growth)(NN rate))(PP (IN of)(NP (QP (RB just)(CD 2.2))(NN percent)))))(PP (IN in)(NP (NP (DT the)(NN summer))(, ,)(NP (NP (DT the)(JJS weakest)(NN performance))(PP (IN in)(NP (CD four)(NNS years))))))))(, ,)(NP (DT the)(NN government))(VP (VBD said)(NP (NNP Thursday))))(. .)) |BT| (BOW (WASHINGTON *)((AP *)()*)(- *)(The *)(U.S. *)) |BT| (BOP (NNP *)(NNP *)(NNP *)(IN *)(DT *)(NNP *)) |ET| 
-0.0032193904631221612056002356894169  |BT| (S (NP (PRP he))(VP (MD will)(VP (VB remain)(PP (IN in)(NP (NNP Yugoslavia)))(PP (IN as)(NP (DT a)(JJ political)(NN force)))))) |BT| (BOW (he *)(will *)(remain *)(in *)(Yugoslavia *)) |BT| (BOP (PRP *)(MD *)(VB *)(IN *)(NNP *)) |ET| 
-0.0028084400144372384522384322735888  |BT| (NP (NP (DT a)(NN battlefield)(JJ tactical)(NN missile))(PP (IN in)(NP (NP (NNS clusters))(PP (IN of)(NP (CD 368)))))) |BT| (BOW (missile *)(in *)(clusters *)) |BT| (BOP (NN *)(IN *)(NNS *)) |ET| 
-0.0027230166763719532152521196621819  |BT| (NP (NP (DT the)(NNP Cincinnati)(NNP Reds)(CD [.167))(PP (IN in)(NP (QP (CD '90)(CD ],))(PRP$ his)(JJ overall)(NN average)))) |BT| (BOW (Cincinnati *)(Reds *)((.167 *)(in *)('90 *)(), *)(his *)) |BT| (BOP (NNP *)(NNPS *)(CD *)(IN *)(CD *)(IN *)(PRP$ *)) |ET| 
-0.0039414072155294979649120534759277  |BT| (NP (NP (JJ natural)(NN gas)(NNS wells))(PP (IN in)(NP (NN state)(NNS waters)))) |BT| (BOW (wells *)(in *)(state *)(waters *)) |BT| (BOP (NNS *)(IN *)(NN *)(NNS *)) |ET| 
-0.0043327191730765882843323666406832  |BT| (NP (DT The)(NNP News)(NNP Sun)(CC and)(JJ other)(JJ northern)(NNP Illinois)(NNP Copley)(NNS newspapers)) |BT| (BOW (The *)(News *)(Sun *)(and *)(other *)(northern *)(Illinois *)) |BT| (BOP (DT *)(NNP *)(NNP *)(CC *)(JJ *)(JJ *)(NNS *)) |ET| 
-0.0035872956689591778758896545298285  |BT| (NP (NP (NNP Bob)(NNP Stein))(, ,)(NP (NP (NN professor))(PP (IN of)(NP (NP (JJ political)(NN science))(PP (IN at)(NP (NP (NNP Rice)(NNP University))(PP (IN in)(NP (NNP Houston))))))))) |BT| (BOW (Bob *)(Stein *)(, *)(professor *)(of *)(political *)(science *)(at *)(Rice *)(University *)(in *)(Houston *)) |BT| (BOP (NNP *)(NNP *)(, *)(NN *)(IN *)(JJ *)(NN *)(IN *)(NNP *)(NNP *)(IN *)(NNP *)) |ET| 
-0.0040676420589064515506705355107897  |BT| (NP (NP (DT the)(JJS largest)(JJ Jewish)(NN community))(PP (IN in)(NP (NP (DT the)(NNP Middle)(NNP East))(PP (IN outside)(NP (NNP Israel)))))) |BT| (BOW (Jewish *)(community *)(in *)(the *)(Middle *)(East *)(outside *)(Israel *)) |BT| (BOP (JJ *)(NN *)(IN *)(DT *)(NNP *)(NNP *)(VBP *)(NNP *)) |ET| 
-0.002647830278591858238490530652598  |BT| (S (NP (NP (DT A)(NN group))(PP (IN of)(NP (JJ undecided)(NNS voters))))(VP (VBD recruited)(PP (IN by)(NP (NNP NBC)))(PP (IN in)(NP (NNP Tampa))))) |BT| (BOW (group *)(of *)(undecided *)(voters *)(recruited *)(by *)(NBC *)(in *)(Tampa *)) |BT| (BOP (NN *)(IN *)(JJ *)(NNS *)(VBN *)(IN *)(NNP *)(IN *)(NNP *)) |ET| 
