SVM-light Version V5.01-TK-1.2
5 # kernel type
3 # kernel parameter -d 
1 # kernel parameter -g 
1 # kernel parameter -s 
1 # kernel parameter -r 
empty# kernel parameter -u 
0.4 # kernel parameter -L 
1 # kernel parameter -T 
T # kernel parameter -C 
1 # kernel parameter -F 
1 # kernel parameter -S 
1.000000 # kernel parameter -D 
3 # kernel parameter -N 
S # kernel parameter -V 
S # kernel parameter -W 
0 # highest feature index 
16257 # number of training documents 
417 # number of support vectors plus 1 
1.0094766 # threshold b, each following line is a SV (starting with alpha*y)
-0.020376933670585042207568093886039  |BT| (NP (NNP CAIRO)(, ,)(NNP Egypt)(NNP [AP)(NNP ])) |BT| (BOW (CAIRO *)(, *)(Egypt *)) |BT| (BOP (NNP *)(, *)(NNP *)) |ET| 
-0.052724352908004132323149804051354  |BT| (NP (NP (DT an)(NN organization))(PP (IN of)(NP (CD 60)(NNP Washington)(NNS journalists)))) |BT| (BOW (organization *)(of *)(60 *)(Washington *)(journalists *)) |BT| (BOP (NN *)(IN *)(CD *)(NNP *)(NNS *)) |ET| 
-0.095662574010292697468393896542693  |BT| (NP (DT a)(JJ congressional)(NN commission)) |BT| (BOW (congressional *)(commission *)) |BT| (BOP (JJ *)(NN *)) |ET| 
-0.085505888427991394440397243670304  |BT| (NP (NP (DT Some)(NNS researchers))(SBAR (WHNP (WP who))(S (VP (VBP oppose)(NP (DT the)(NN idea))(SBAR (IN that)(S (NP (NNS birds))(VP (VBD evolved)(PP (IN from)(NP (NNS dinosaurs)))))))))) |BT| (BOW (researchers *)(who *)) |BT| (BOP (NNS *)(WP *)) |ET| 
-0.1005095943001900332669507065475  |BT| (NP (NP (NP (DT some))(PP (IN of)(NP (NP (DT the)(NN country)(POS 's))(JJS most)(JJ senior)(NNS politicians))))(CC and)(NP (NN underworld)(NNS figures))) |BT| (BOW (some *)(of *)(the *)(country *)('s *)(most *)(senior *)(politicians *)(and *)(underworld *)(figures *)) |BT| (BOP (DT *)(IN *)(DT *)(NN *)(POS *)(JJS *)(JJ *)(NNS *)(CC *)(JJ *)(NNS *)) |ET| 
0.33333333333351461424953754431044  |BT| (NP (JJ Palestinian)(NNS gunmen)) |BT| (BOW (Palestinian *)(gunmen *)) |BT| (BOP (JJ *)(NNS *)) |ET| 
0.33333333333351461424953754431044  |BT| (NP (DT a)(JJ Belgrade)(JJ political)(NN analyst)) |BT| (BOW (Belgrade *)(political *)(analyst *)) |BT| (BOP (JJ *)(JJ *)(NN *)) |ET| 
0.33333333333351461424953754431044  |BT| (NP (NP (NP (DT some))(PP (IN of)(NP (NP (DT the)(NN country)(POS 's))(JJS most)(JJ senior)(NNS politicians))))(CC and)(NP (NN underworld)(NNS figures))) |BT| (BOW (country *)('s *)(most *)(senior *)(politicians *)(and *)(underworld *)(figures *)) |BT| (BOP (NN *)(POS *)(JJS *)(JJ *)(NNS *)(CC *)(JJ *)(NNS *)) |ET| 
0.33333333333351461424953754431044  |BT| (NP (DT a)(JJ young)(JJ French)(NN designer)) |BT| (BOW (French *)(designer *)) |BT| (BOP (JJ *)(NN *)) |ET| 
0.33333333333351461424953754431044  |BT| (S (S (VP (VBN Born)(CC and)(VBN raised)(PP (IN in)(NP (NNP Chicago)))))(, ,)(NP (NP (NNP Herblock)(POS 's))(JJ first)(NP (JJ full-time)(NN cartoonist)(POS 's))(NN job))(VP (VBD was)(PP (IN on)(NP (DT the)(NNP Chicago)(NNP Daily)(NNP News))))(. .)) |BT| (BOW (Chicago *)(, *)(Herblock *)) |BT| (BOP (NNP *)(, *)(NNP *)) |ET| 
-0.11606773228089778404736875927483  |BT| (NP (JJ Palestinian)(NNS lawmakers)) |BT| (BOW (Palestinian *)(lawmakers *)) |BT| (BOP (JJ *)(NNS *)) |ET| 
0.33333333333351461424953754431044  |BT| (NP (NP (NNP Egypt)(POS 's))(NNP Suzanne)(NNP Mubarak)) |BT| (BOW (Egypt *)('s *)(Suzanne *)(Mubarak *)) |BT| (BOP (NNP *)(POS *)(NNP *)(NNP *)) |ET| 
-0.05742093021050365120316882894258  |BT| (NP (NP (NNP Herblock)(POS 's))(JJ first)(NP (JJ full-time)(NN cartoonist)(POS 's))(NN job)) |BT| (BOW (Herblock *)('s *)(first *)(full-time *)(cartoonist *)) |BT| (BOP (NNP *)(POS *)(JJ *)(JJ *)(NN *)) |ET| 
0.33333333333351461424953754431044  |BT| (S (NP (NP (DT This)(NN year))(PP (IN in)(NP (NNP Egypt))))(, ,)(PP (IN for)(NP (NN example)))(, ,)(NP (JJ avid)(NN campaigning))(VP (VBD helped)(S (NP (NNS women))(VP (VB reverse)(NP (NP (NNS laws))(SBAR (WHNP (WDT that))(S (VP (VBD prevented)(NP (PRP them))(PP (IN from)(S (VP (VP (VBG obtaining)(NP (NN divorce)))(CC and)(VP (VBG traveling)(ADVP (RB abroad))(PP (IN without)(NP (NP (PRP$ their)(NNS husbands)(POS '))(NN permission))))))))))))))(. .)) |BT| (BOW (Egypt *)(, *)(for *)(example *)(, *)(avid *)(campaigning *)(helped *)(women *)) |BT| (BOP (NNP *)(, *)(IN *)(NN *)(, *)(JJ *)(NN *)(VBD *)(VBN *)) |ET| 
-0.10844725485495361472221276244454  |BT| (S (NP (NP (DT This)(NN year))(PP (IN in)(NP (NNP Egypt))))(, ,)(PP (IN for)(NP (NN example)))(, ,)(NP (JJ avid)(NN campaigning))(VP (VBD helped)(S (NP (NNS women))(VP (VB reverse)(NP (NP (NNS laws))(SBAR (WHNP (WDT that))(S (VP (VBD prevented)(NP (PRP them))(PP (IN from)(S (VP (VP (VBG obtaining)(NP (NN divorce)))(CC and)(VP (VBG traveling)(ADVP (RB abroad))(PP (IN without)(NP (NP (PRP$ their)(NNS husbands)(POS '))(NN permission))))))))))))))(. .)) |BT| (BOW (Egypt *)(, *)(for *)(example *)(, *)(avid *)(campaigning *)(helped *)(women *)(reverse *)(laws *)(that *)(prevented *)(them *)) |BT| (BOP (NNP *)(, *)(IN *)(NN *)(, *)(JJ *)(NN *)(VBD *)(VBN *)(JJ *)(NNS *)(WDT *)(VBD *)(PRP *)) |ET| 
0.33333333333351461424953754431044  |BT| (NP (JJ American)(NNS tourists)) |BT| (BOW (American *)(tourists *)) |BT| (BOP (NNP *)(NNS *)) |ET| 
-0.033467277531011266344940224826132  |BT| (NP (NP (NP (NNP Egypt)(POS 's))(NNP Suzanne)(NNP Mubarak))(CC and)(NP (NNS others))) |BT| (BOW (Suzanne *)(Mubarak *)(and *)(others *)) |BT| (BOP (NNP *)(NNP *)(CC *)(NNS *)) |ET| 
0.33333333333351461424953754431044  |BT| (S (NP (NP (DT This)(NN year))(PP (IN in)(NP (NNP Egypt))))(, ,)(PP (IN for)(NP (NN example)))(, ,)(NP (JJ avid)(NN campaigning))(VP (VBD helped)(S (NP (NNS women))(VP (VB reverse)(NP (NP (NNS laws))(SBAR (WHNP (WDT that))(S (VP (VBD prevented)(NP (PRP them))(PP (IN from)(S (VP (VP (VBG obtaining)(NP (NN divorce)))(CC and)(VP (VBG traveling)(ADVP (RB abroad))(PP (IN without)(NP (NP (PRP$ their)(NNS husbands)(POS '))(NN permission))))))))))))))(. .)) |BT| (BOW (Egypt *)(, *)(for *)(example *)(, *)(avid *)(campaigning *)(helped *)(women *)(reverse *)(laws *)(that *)(prevented *)(them *)(from *)(obtaining *)(divorce *)(and *)(traveling *)(abroad *)(without *)(their *)(husbands *)) |BT| (BOP (NNP *)(, *)(IN *)(NN *)(, *)(JJ *)(NN *)(VBD *)(VBN *)(JJ *)(NNS *)(WDT *)(VBD *)(PRP *)(IN *)(VBG *)(NN *)(CC *)(VBG *)(RB *)(IN *)(PRP$ *)(NNS *)) |ET| 
-0.09889537092789962846595130940841  |BT| (NP (DT the)(JJ American)(NN public)) |BT| (BOW (American *)(public *)) |BT| (BOP (JJ *)(NN *)) |ET| 
0.33333333333351461424953754431044  |BT| (NP (DT the)(JJ German)(NN star)) |BT| (BOW (German *)(star *)) |BT| (BOP (NNP *)(NN *)) |ET| 
-0.06306414736046916935663375625154  |BT| (NP (JJ German)(NN police)(NNS raids)) |BT| (BOW (German *)(police *)) |BT| (BOP (NNP *)(NN *)) |ET| 
0.33333333333351461424953754431044  |BT| (NP (DT A)(JJ Palestinian)(NN terrorist)) |BT| (BOW (Palestinian *)(terrorist *)) |BT| (BOP (JJ *)(NN *)) |ET| 
-0.23823524501424869770360714937851  |BT| (NP (DT an)(JJ alleged)(JJ Palestinian)(JJ terrorist)(NN base)(NNS months)) |BT| (BOW (Palestinian *)(terrorist *)) |BT| (BOP (JJ *)(NN *)) |ET| 
0.33333333333351461424953754431044  |BT| (NP (NNP Florida)(NN developer)(NNP Al)(NNP Hoffman)) |BT| (BOW (Florida *)(developer *)) |BT| (BOP (NNP *)(NN *)) |ET| 
-0.1039477599942015828560215595644  |BT| (NP (NNP Florida)(NN developer)(NNP Al)(NNP Hoffman)) |BT| (BOW (Florida *)(developer *)(Al *)(Hoffman *)) |BT| (BOP (NNP *)(NN *)(NNP *)(NNP *)) |ET| 
0.33333333333351461424953754431044  |BT| (NP (DT an)(NNP Algerian)(NN asylum-seeker)) |BT| (BOW (Algerian *)(asylum-seeker *)) |BT| (BOP (JJ *)(NN *)) |ET| 
-0.079830923473014556157600907226879  |BT| (NP (DT a)(JJ Jewish)(NN seminary)) |BT| (BOW (Jewish *)(seminary *)) |BT| (BOP (JJ *)(NN *)) |ET| 
0.33333333333351461424953754431044  |BT| (NP (DT The)(JJ Chinese)(NNS researchers)) |BT| (BOW (Chinese *)(researchers *)) |BT| (BOP (JJ *)(NNS *)) |ET| 
-0.29636718585504329137592094411957  |BT| (NP (JJ Chinese)(NNS carriers)) |BT| (BOW (Chinese *)(carriers *)) |BT| (BOP (JJ *)(NNS *)) |ET| 
0.33333333333351461424953754431044  |BT| (NP (DT a)(JJ Saudi)(NN researcher)) |BT| (BOW (Saudi *)(researcher *)) |BT| (BOP (NNP *)(VB *)) |ET| 
-0.057521544020313175593628329806961  |BT| (NP (DT The)(ADJP (RB heavily)(JJ wooded))(NNP Senate)(NN district)) |BT| (BOW (Senate *)(district *)) |BT| (BOP (NNP *)(VB *)) |ET| 
0.33333333333351461424953754431044  |BT| (NP (NP (NNP Saturday)(POS 's))(JJ Egyptian)(NN delegation)) |BT| (BOW (Egyptian *)(delegation *)) |BT| (BOP (JJ *)(NN *)) |ET| 
-0.30384818298523386115306266219704  |BT| (NP (DT the)(JJ Egyptian)(NN army)) |BT| (BOW (Egyptian *)(army *)) |BT| (BOP (JJ *)(NN *)) |ET| 
0.33333333333351461424953754431044  |BT| (NP (JJ Iranian)(NNPS Jews)) |BT| (BOW (Iranian *)(Jews *)) |BT| (BOP (JJ *)(NNS *)) |ET| 
-0.023555573473948175633463364420095  |BT| (S (NP (NNS women))(VP (VB reverse)(NP (NP (NNS laws))(SBAR (WHNP (WDT that))(S (VP (VBD prevented)(NP (PRP them))(PP (IN from)(S (VP (VP (VBG obtaining)(NP (NN divorce)))(CC and)(VP (VBG traveling)(ADVP (RB abroad))(PP (IN without)(NP (NP (PRP$ their)(NNS husbands)(POS '))(NN permission))))))))))))) |BT| (BOW (women *)(reverse *)(laws *)(that *)(prevented *)(them *)) |BT| (BOP (VBN *)(JJ *)(NNS *)(WDT *)(VBD *)(PRP *)) |ET| 
0.33333333333351461424953754431044  |BT| (NP (ADJP (JJ well-known))(JJ Egyptian)(NN actress)(NNP Madeha)(NNP Yusri)) |BT| (BOW (Egyptian *)(actress *)) |BT| (BOP (JJ *)(NN *)) |ET| 
-0.19886329952056427949891315165587  |BT| (NP (ADJP (JJ well-known))(JJ Egyptian)(NN actress)(NNP Madeha)(NNP Yusri)) |BT| (BOW (Egyptian *)(actress *)(Madeha *)(Yusri *)) |BT| (BOP (JJ *)(NN *)(NNP *)(NNP *)) |ET| 
0.33333333333351461424953754431044  |BT| (S (NP (NNP Florida)(CC and)(NNP Pennsylvania))(PRN (: -)(PP (IN among)(NP (NP (DT the)(NN tossup)(NNS states))(PP (IN in)(NP (DT the)(JJ presidential)(NN race)))))(: -))(VP (VBP have)(NP (NP (DT a)(JJ large)(NN number))(PP (IN of)(NP (NP (JJR older)(NNS people))(, ,)(SBAR (WHNP (WP who))(S (VP (VBP tend)(S (VP (TO to)(VP (VB be)(NP (DT the)(ADJP (RBS most)(JJ likely)(S (VP (TO to))))(NN vote))))))))))))(. .)) |BT| (BOW (Florida *)(and *)(Pennsylvania *)(- *)(among *)(the *)(tossup *)(states *)(in *)(the *)(presidential *)(race *)(- *)(have *)(a *)(large *)(number *)(of *)(older *)(people *)) |BT| (BOP (NNP *)(CC *)(NNP *)(NNP *)(IN *)(DT *)(NN *)(NNS *)(IN *)(DT *)(JJ *)(NN *)(MD *)(VB *)(DT *)(JJ *)(NN *)(IN *)(NN *)(NNS *)) |ET| 
-0.025607174718314165001720184022815  |BT| (S (NP (NNP Florida)(CC and)(NNP Pennsylvania))(PRN (: -)(PP (IN among)(NP (NP (DT the)(NN tossup)(NNS states))(PP (IN in)(NP (DT the)(JJ presidential)(NN race)))))(: -))(VP (VBP have)(NP (NP (DT a)(JJ large)(NN number))(PP (IN of)(NP (NP (JJR older)(NNS people))(, ,)(SBAR (WHNP (WP who))(S (VP (VBP tend)(S (VP (TO to)(VP (VB be)(NP (DT the)(ADJP (RBS most)(JJ likely)(S (VP (TO to))))(NN vote))))))))))))(. .)) |BT| (BOW (presidential *)(race *)(- *)(have *)(a *)(large *)(number *)(of *)(older *)(people *)) |BT| (BOP (JJ *)(NN *)(MD *)(VB *)(DT *)(JJ *)(NN *)(IN *)(NN *)(NNS *)) |ET| 
0.33333333333351461424953754431044  |BT| (NP (DT a)(JJ dwindling)(NNP U.S.)(NN labor)(NN pool)) |BT| (BOW (U.S. *)(labor *)(pool *)) |BT| (BOP (NNP *)(NN *)(NN *)) |ET| 
-0.16796233196525045539004850070341  |BT| (NP (DT a)(NNP Gore)(NN spokesman)) |BT| (BOW (Gore *)(spokesman *)) |BT| (BOP (JJ *)(NN *)) |ET| 
0.33333333333351461424953754431044  |BT| (S (PP (IN In)(NP (ADJP (RB environmentally)(JJ conscious))(NNP Seattle)))(, ,)(PP (IN for)(NP (NN instance)))(, ,)(NP (CD one)(NN commercial))(VP (VP (VBZ describes)(NP (NP (DT the)(NN smog))(PP (IN in)(NP (NNP Houston)))))(CC and)(VP (VBZ implores)(S (NP (NNS viewers))(VP (TO to)(VP (VP (VB ``take)(NP (DT a)(JJ deep)(NN breath)))(CC and)(VP (VB imagine)(NP (NP (NNP Seattle))(PP (IN with)(NP (NP (NNP Bush)(POS 's))(ADJP (NNP Texas)(JJ -style))(JJ environmental)(NN regulation)(NNS .''))))))))))) |BT| (BOW (Seattle *)(, *)(for *)(instance *)(, *)(one *)(commercial *)(describes *)(the *)(smog *)(in *)(Houston *)(and *)(implores *)(viewers *)) |BT| (BOP (NN *)(, *)(IN *)(NN *)(, *)(CD *)(JJ *)(NN *)(DT *)(NN *)(IN *)(NNP *)(CC *)(VBZ *)(NNS *)) |ET| 
-0.031796181569877651762467962726078  |BT| (S (PP (IN In)(NP (ADJP (RB environmentally)(JJ conscious))(NNP Seattle)))(, ,)(PP (IN for)(NP (NN instance)))(, ,)(NP (CD one)(NN commercial))(VP (VP (VBZ describes)(NP (NP (DT the)(NN smog))(PP (IN in)(NP (NNP Houston)))))(CC and)(VP (VBZ implores)(S (NP (NNS viewers))(VP (TO to)(VP (VP (VB ``take)(NP (DT a)(JJ deep)(NN breath)))(CC and)(VP (VB imagine)(NP (NP (NNP Seattle))(PP (IN with)(NP (NP (NNP Bush)(POS 's))(ADJP (NNP Texas)(JJ -style))(JJ environmental)(NN regulation)(NNS .''))))))))))) |BT| (BOW (Seattle *)(, *)(for *)(instance *)(, *)(one *)(commercial *)(describes *)(the *)(smog *)(in *)(Houston *)) |BT| (BOP (NN *)(, *)(IN *)(NN *)(, *)(CD *)(JJ *)(NN *)(DT *)(NN *)(IN *)(NNP *)) |ET| 
0.33333333333351461424953754431044  |BT| (NP (DT The)(JJ Egyptian)(JJ -born)(NN Palestinian)) |BT| (BOW (Egyptian *)(-born *)(Palestinian *)) |BT| (BOP (JJ *)(JJ *)(JJ *)) |ET| 
-0.067673546959205882478372018340451  |BT| (NP (DT The)(VBG ruling)(NNP Taliban)(NN militia)) |BT| (BOW (Taliban *)(militia *)) |BT| (BOP (JJ *)(NNS *)) |ET| 
0.33333333333351461424953754431044  |BT| (NP (DT An)(NNP Alabama)(NN jury)) |BT| (BOW (Alabama *)(jury *)) |BT| (BOP (JJ *)(NN *)) |ET| 
-0.10790750902281114054215294117967  |BT| (NP (DT The)(JJ late)(JJ Syrian)(NN president)) |BT| (BOW (Syrian *)(president *)) |BT| (BOP (JJ *)(NN *)) |ET| 
0.33333333333351461424953754431044  |BT| (NP (JJ Mexican)(NNS workers)) |BT| (BOW (Mexican *)(workers *)) |BT| (BOP (NNP *)(NNS *)) |ET| 
-0.088138113300798126559243428346235  |BT| (NP (NNP U.S.)(NNS territories)) |BT| (BOW (U.S. *)(territories *)) |BT| (BOP (NNP *)(NNS *)) |ET| 
0.33333333333351461424953754431044  |BT| (NP (DT A)(JJ Danish)(NN couple)) |BT| (BOW (Danish *)(couple *)) |BT| (BOP (JJ *)(NN *)) |ET| 
-0.10191238807723448922537556882162  |BT| (NP (DT a)(JJ parliamentary)(NN committee)) |BT| (BOW (parliamentary *)(committee *)) |BT| (BOP (JJ *)(NN *)) |ET| 
0.33333333333351461424953754431044  |BT| (NP (NNP Tennessee)(NNS constituents)) |BT| (BOW (Tennessee *)(constituents *)) |BT| (BOP (NNP *)(NNS *)) |ET| 
-0.011372247805832420147753580863537  |BT| (S (NP (NN ambassador))(ADVP (RB sharply))(VP (VBZ criticizes)(NP (NP (NNP Indonesia)(POS 's))(NN reform)(NNS efforts)))(. .)) |BT| (BOW (ambassador *)(sharply *)(criticizes *)(Indonesia *)) |BT| (BOP (JJ *)(JJ *)(NNS *)(NNP *)) |ET| 
0.33333333333351461424953754431044  |BT| (NP (NP (DT the)(JJ Arab)(NN world)(POS 's))(JJ first)(NNS ladies)) |BT| (BOW (world *)('s *)(first *)(ladies *)) |BT| (BOP (NN *)(POS *)(JJ *)(NNS *)) |ET| 
-0.11920512568631139171948518651334  |BT| (NP (NP (DT the)(JJ Arab)(NN world)(POS 's))(JJ first)(NNS ladies)) |BT| (BOW (Arab *)(world *)('s *)(first *)(ladies *)) |BT| (BOP (NNP *)(NN *)(POS *)(JJ *)(NNS *)) |ET| 
0.33333333333351461424953754431044  |BT| (NP (CD 60)(NNP Washington)(NNS journalists)) |BT| (BOW (Washington *)(journalists *)) |BT| (BOP (NNP *)(NNS *)) |ET| 
-0.067098200522959797198474518609146  |BT| (NP (NN Company)(NNS officials)) |BT| (BOW (Company *)(officials *)) |BT| (BOP (NNP *)(NNS *)) |ET| 
0.33333333333351461424953754431044  |BT| (NP (NP (NP (DT the)(NN country)(POS 's))(NN minority)(JJ ethnic))(CC and)(NP (JJ religious)(NNS groups))) |BT| (BOW (country *)('s *)(minority *)(ethnic *)(and *)(religious *)(groups *)) |BT| (BOP (NN *)(POS *)(NN *)(JJ *)(CC *)(JJ *)(NNS *)) |ET| 
-0.066604390099712557082867192548292  |BT| (NP (NP (DT the)(NN country)(POS 's))(CD two)(JJS largest)(JJ political)(NNS parties)) |BT| (BOW (country *)('s *)(two *)(largest *)(political *)(parties *)) |BT| (BOP (NN *)(POS *)(CD *)(JJS *)(JJ *)(NNS *)) |ET| 
0.33333333333351461424953754431044  |BT| (NP (DT a)(NNP California)(NN investor)) |BT| (BOW (California *)(investor *)) |BT| (BOP (NNP *)(NN *)) |ET| 
-0.058027026938987397164382286973705  |BT| (NP (NNP Washington)(NN state)(NN law)) |BT| (BOW (Washington *)(state *)) |BT| (BOP (NNP *)(NN *)) |ET| 
0.33333333333351461424953754431044  |BT| (NP (NN area)(NNS voters)) |BT| (BOW (area *)(voters *)) |BT| (BOP (NN *)(NNS *)) |ET| 
-0.043704649793408670288563655503822  |BT| (NP (CD Two)(JJ major)(NNP South)(JJ Korean)(NN labor)(NNS groups)) |BT| (BOW (labor *)(groups *)) |BT| (BOP (NN *)(NNS *)) |ET| 
0.33333333333351461424953754431044  |BT| (NP (NP (DT the)(NN country)(POS 's))(JJ top)(JJ young)(NN coaching)(NNS prospects)) |BT| (BOW (country *)('s *)(top *)(young *)(coaching *)(prospects *)) |BT| (BOP (NN *)(POS *)(JJ *)(JJ *)(NN *)(NNS *)) |ET| 
-0.099698961747296255264672026896733  |BT| (NP (NP (CD one))(PP (IN of)(NP (NP (DT the)(NN country)(POS 's))(JJ top)(JJ young)(NN coaching)(NNS prospects)))) |BT| (BOW (one *)(of *)(the *)(country *)('s *)(top *)(young *)(coaching *)(prospects *)) |BT| (BOP (CD *)(IN *)(DT *)(NN *)(POS *)(JJ *)(JJ *)(NN *)(NNS *)) |ET| 
0.33333333333351461424953754431044  |BT| (NP (JJ Mexican)(NNS nationals)) |BT| (BOW (Mexican *)(nationals *)) |BT| (BOP (NNP *)(NNS *)) |ET| 
-0.069228895414024854693124666482618  |BT| (NP (JJ Western)(NNS governments)) |BT| (BOW (Western *)(governments *)) |BT| (BOP (NNP *)(NNS *)) |ET| 
0.33333333333351461424953754431044  |BT| (NP (NP (DT The)(NN country)(POS 's))(JJS best-known)(NN opposition)(NN candidate)) |BT| (BOW (country *)('s *)(best-known *)(opposition *)(candidate *)) |BT| (BOP (NN *)(POS *)(JJ *)(NN *)(NN *)) |ET| 
-0.027445690597625471696119348052889  |BT| (NP (NP (DT The)(NN commission)(POS 's))(NN staff)) |BT| (BOW (commission *)('s *)(staff *)) |BT| (BOP (NN *)(POS *)(NN *)) |ET| 
-0.031891232344611587790073059522911  |BT| (NP (NP (DT this)(NN city)(POS 's))(JJ new)(NN Capitol)) |BT| (BOW (city *)('s *)(new *)(Capitol *)) |BT| (BOP (NN *)(POS *)(JJ *)(NN *)) |ET| 
0.33333333333351461424953754431044  |BT| (NP (DT a)(NNP Rochester)(NN journalist)) |BT| (BOW (Rochester *)(journalist *)) |BT| (BOP (NNP *)(NN *)) |ET| 
-0.10228231853842553733535680748901  |BT| (NP (DT The)(NNP BOJ)(NN board)) |BT| (BOW (BOJ *)(board *)) |BT| (BOP (NNP *)(NN *)) |ET| 
0.33333333333351461424953754431044  |BT| (NP (DT the)(JJ Chinese)(NNS researchers)(POS ')) |BT| (BOW (Chinese *)(researchers *)) |BT| (BOP (JJ *)(NNS *)) |ET| 
-0.12052738244444483051154293207219  |BT| (NP (JJ American)(NNS motorcycles)) |BT| (BOW (American *)(motorcycles *)) |BT| (BOP (JJ *)(NNS *)) |ET| 
0.33333333333351461424953754431044  |BT| (NP (DT the)(JJ Egyptian)(NN delegation)) |BT| (BOW (Egyptian *)(delegation *)) |BT| (BOP (JJ *)(NN *)) |ET| 
-0.13282824506827101140871150164458  |BT| (NP (DT a)(JJ civilian)(NN area)(NN .'')) |BT| (BOW (civilian *)(area *)) |BT| (BOP (JJ *)(NN *)) |ET| 
0.33333333333351461424953754431044  |BT| (NP (CD 13)(NNP Iranian)(NNPS Jews)) |BT| (BOW (Iranian *)(Jews *)) |BT| (BOP (JJ *)(NNS *)) |ET| 
-0.092955754697627512861402010457823  |BT| (NP (JJ Palestinian)(NNS civilians)(NNS .'')) |BT| (BOW (Palestinian *)(civilians *)) |BT| (BOP (JJ *)(NNS *)) |ET| 
-0.099263600400059839867772382149269  |BT| (S (NP (DT The)(JJ Egyptian)(JJ -born)(NN Palestinian))(VP (VBD told)(NP (NNS judges))(SBAR (IN that)(S (NP (PRP he))(VP (VBN deserted)(NP (NP (DT the)(JJ Egyptian)(NN army))(PP (IN in)(NP (DT the)(NNS mid-1970s))))(, ,)(S (VP (VBG fleeing)(PP (TO to)(NP (NP (NNP Lebanon))(PP (IN via)(NP (NNP Jordan)))))(PP (IN with)(NP (DT a)(JJ false)(NN passport)))))))))(. .)) |BT| (BOW (Egyptian *)(-born *)(Palestinian *)(told *)(judges *)) |BT| (BOP (JJ *)(JJ *)(JJ *)(VBD *)(NNS *)) |ET| 
-0.075788879850859997011625068807916  |BT| (NP (DT a)(NN battlefield)(JJ tactical)(NN missile)) |BT| (BOW (battlefield *)(tactical *)(missile *)) |BT| (BOP (JJ *)(JJ *)(NN *)) |ET| 
-0.081031750007211966746467624034267  |BT| (VP (VP (VBD received)(NP (DT the)(JJ Egyptian)(NN delegation)))(CC and)(VP (VBD praised)(NP (PRP$ their)(NN arrival))(PP (IN in)(NP (NNP Baghdad)))(, ,)(VP (VBG stressing)(NP (JJ Arab)(NN solidarity))))) |BT| (BOW (Egyptian *)(delegation *)(and *)(praised *)(their *)) |BT| (BOP (JJ *)(NN *)(CC *)(VBD *)(PRP$ *)) |ET| 
0.33333333333351461424953754431044  |BT| (NP (CD Two)(JJ Chinese)(NNS researchers)) |BT| (BOW (Chinese *)(researchers *)) |BT| (BOP (NNP *)(NNS *)) |ET| 
-0.018183401599717007035561522343414  |BT| (NP (DT the)(JJ Iraqi)(NNS people)) |BT| (BOW (Iraqi *)(people *)) |BT| (BOP (NNP *)(NNS *)) |ET| 
-0.087744979268043796216680618726969  |BT| (NP (NP (NNP Braca)(NNP Grubacic))(, ,)(NP (DT a)(JJ Belgrade)(JJ political)(NN analyst))) |BT| (BOW (Braca *)(Grubacic *)(, *)(a *)(Belgrade *)(political *)(analyst *)) |BT| (BOP (NNP *)(NNP *)(, *)(DT *)(JJ *)(JJ *)(NN *)) |ET| 
-0.056266410172010103418749338288762  |BT| (NP (DT the)(NNP Suharto)(NN clan)) |BT| (BOW (Suharto *)(clan *)) |BT| (BOP (NNP *)(NN *)) |ET| 
-0.090071175788243820758971480699984  |BT| (VP (VP (VBN arrested)(S (NP (CD 13)(NNP Iranian)(NNPS Jews))))(CC and)(VP (ADVP (RB later))(VBN convicted)(NP (NP (CD 10))(PP (IN of)(NP (NP (VBG spying))(PP (IN for)(NP (NNP Israel)))))))) |BT| (BOW (Iranian *)(Jews *)(and *)(later *)(convicted *)(10 *)) |BT| (BOP (JJ *)(NNS *)(CC *)(RBR *)(JJ *)(CD *)) |ET| 
-0.083080227888522012458238918952702  |BT| (NP (CD four)(JJ Republican)(NNS stalwarts)) |BT| (BOW (Republican *)(stalwarts *)) |BT| (BOP (NNP *)(NNS *)) |ET| 
-0.0060036469713397547925959329973011  |BT| (NP (NP (NNP Kostunica)(POS 's))(JJ 18-party)(NN opposition)(NN block)) |BT| (BOW (opposition *)(block *)) |BT| (BOP (NN *)(NN *)) |ET| 
-0.07057110972682958949242504331778  |BT| (VP (VBD beckoned)(NP (NP (NNS thousands))(PP (IN of)(NP (JJ Mexican)(NNS nationals))))(S (VP (TO to)(VP (VB replenish)(NP (DT a)(JJ dwindling)(NNP U.S.)(NN labor)(NN pool)))))) |BT| (BOW (Mexican *)(nationals *)(to *)(replenish *)(a *)(dwindling *)(U.S. *)(labor *)(pool *)) |BT| (BOP (NNP *)(NNS *)(TO *)(VB *)(DT *)(VBG *)(NNP *)(NN *)(NN *)) |ET| 
-0.059717386199935440505015549206291  |BT| (NP (DT some)(JJ former)(NNP NFL)(JJ first-rounders)(NN while)) |BT| (BOW (NFL *)(first-rounders *)) |BT| (BOP (NNP *)(NNS *)) |ET| 
-0.030031834767820345805100501479501  |BT| (NP (NP (NP (NN intervention))(PP (IN in)(NP (NNP Vietnam)(, ,)(NNP Soviet)(CC and)(NNPS Chinese)(NNP oppression))))(, ,)(NP (JJ nuclear)(NNS weapons))(, ,)) |BT| (BOW (Chinese *)(oppression *)(, *)(nuclear *)) |BT| (BOP (JJ *)(NN *)(, *)(JJ *)) |ET| 
-0.04126766576877338721374144370202  |BT| (NP (JJ disabled)(NNS workers)(CC and)(NNS families)) |BT| (BOW (workers *)(and *)(families *)) |BT| (BOP (NNS *)(CC *)(NNS *)) |ET| 
-0.079600451318847548209944875452493  |BT| (NP (NP (DT the)(NN world)(POS 's))(ADJP (RBS most)(JJ populous))(JJ Muslim)(NN country)) |BT| (BOW (Muslim *)(country *)) |BT| (BOP (NNP *)(NN *)) |ET| 
-0.032534038873133289127004275087529  |BT| (NP (JJ several)(NNP Indonesian)(NNS regions)) |BT| (BOW (Indonesian *)(regions *)) |BT| (BOP (JJ *)(NNS *)) |ET| 
-0.040040672263696897026363785698777  |BT| (NP (DT a)(JJ senior)(NNP Bush)(NN campaign)(NN official)) |BT| (BOW (Bush *)(campaign *)(official *)) |BT| (BOP (NNP *)(NN *)(NN *)) |ET| 
-0.079860691060347016589915369877417  |BT| (NP (CD two)(JJ Israeli)(NNS soldiers)) |BT| (BOW (Israeli *)(soldiers *)) |BT| (BOP (NNP *)(NNS *)) |ET| 
-0.059583976130518266633995239089927  |BT| (NP (JJ presidential)(NN candidate)(NNP Joseph)(NNP Lieberman)) |BT| (BOW (presidential *)(candidate *)) |BT| (BOP (JJ *)(NN *)) |ET| 
-0.056381905604760529371333177550696  |BT| (NP (NP (DT a)(JJ Saudi)(NN researcher))(VP (VBN interested)(PP (IN in)(NP (NP (NNS women)(POS 's))(NNS issues))))) |BT| (BOW (Saudi *)(researcher *)(interested *)(in *)(women *)) |BT| (BOP (NNP *)(VB *)(JJ *)(IN *)(NNP *)) |ET| 
-0.036491281695424822306694778717429  |BT| (S (NP (NP (NNP Saturday)(POS 's))(JJ Egyptian)(NN delegation))(VP (VBD included)(NP (QP (JJR more)(IN than)(CD 150))(NNS delegates))(, ,)(S (VP (ADVP (RBS most))(VBG representing)(NP (NP (NNS unions))(CC and)(NP (JJ political)(NNS parties))))))(. .)) |BT| (BOW (Egyptian *)(delegation *)(included *)(more *)(than *)(150 *)(delegates *)(, *)(most *)) |BT| (BOP (JJ *)(NN *)(VBD *)(JJR *)(IN *)(CD *)(NNS *)(, *)(JJS *)) |ET| 
-0.089259868843501510848881252968567  |BT| (NP (NP (NP (DT The)(NN country)(POS 's))(JJS best-known)(NN opposition)(NN candidate))(, ,)(NP (NNP Alassane)(NNP Dramane)(NNP Ouattara))(, ,)) |BT| (BOW (country *)('s *)(best-known *)(opposition *)(candidate *)(, *)(Alassane *)(Dramane *)(Ouattara *)) |BT| (BOP (NN *)(POS *)(JJ *)(NN *)(NN *)(, *)(NNP *)(NNP *)(NNP *)) |ET| 
-0.086668208472504032480188129738963  |BT| (S (NP (NP (DT This)(NN year))(PP (IN in)(NP (NNP Egypt))))(, ,)(PP (IN for)(NP (NN example)))(, ,)(NP (JJ avid)(NN campaigning))(VP (VBD helped)(S (NP (NNS women))(VP (VB reverse)(NP (NP (NNS laws))(SBAR (WHNP (WDT that))(S (VP (VBD prevented)(NP (PRP them))(PP (IN from)(S (VP (VP (VBG obtaining)(NP (NN divorce)))(CC and)(VP (VBG traveling)(ADVP (RB abroad))(PP (IN without)(NP (NP (PRP$ their)(NNS husbands)(POS '))(NN permission))))))))))))))(. .)) |BT| (BOW (Egypt *)(, *)(for *)(example *)(, *)(avid *)(campaigning *)(helped *)(women *)(reverse *)(laws *)(that *)(prevented *)(them *)(from *)(obtaining *)(divorce *)(and *)(traveling *)(abroad *)(without *)(their *)) |BT| (BOP (NNP *)(, *)(IN *)(NN *)(, *)(JJ *)(NN *)(VBD *)(VBN *)(JJ *)(NNS *)(WDT *)(VBD *)(PRP *)(IN *)(VBG *)(NN *)(CC *)(VBG *)(RB *)(IN *)(PRP$ *)) |ET| 
-0.051262915919749074689093504275661  |BT| (NP (NNP Colorado)(NNS players)) |BT| (BOW (Colorado *)(players *)) |BT| (BOP (NNP *)(NNS *)) |ET| 
-0.064334334674901988426753973726591  |BT| (NP (DT the)(JJ Italian)(NN team)) |BT| (BOW (Italian *)(team *)) |BT| (BOP (JJ *)(NN *)) |ET| 
-0.043417396928984476611734777407037  |BT| (NP (CD 15)(NNP EU)(NNS nations)) |BT| (BOW (EU *)(nations *)) |BT| (BOP (NN *)(NNS *)) |ET| 
-0.048728113730986080676110816511937  |BT| (S (NP (PRP it))(VP (VP (VBN arrested)(S (NP (CD 13)(NNP Iranian)(NNPS Jews))))(CC and)(VP (ADVP (RB later))(VBN convicted)(NP (NP (CD 10))(PP (IN of)(NP (NP (VBG spying))(PP (IN for)(NP (NNP Israel))))))))) |BT| (BOW (it *)(arrested *)(13 *)(Iranian *)(Jews *)) |BT| (BOP (PRP *)(VBD *)(CD *)(JJ *)(NNS *)) |ET| 
-0.1048149167296923423009502585046  |BT| (S (S (VP (VBN Born)(CC and)(VBN raised)(PP (IN in)(NP (NNP Chicago)))))(, ,)(NP (NP (NNP Herblock)(POS 's))(JJ first)(NP (JJ full-time)(NN cartoonist)(POS 's))(NN job))(VP (VBD was)(PP (IN on)(NP (DT the)(NNP Chicago)(NNP Daily)(NNP News))))(. .)) |BT| (BOW (Chicago *)(, *)(Herblock *)('s *)(first *)(full-time *)(cartoonist *)) |BT| (BOP (NNP *)(, *)(NNP *)(POS *)(JJ *)(JJ *)(NN *)) |ET| 
-0.03925246652397699348435722299655  |BT| (NP (NNP MLS)(NNS owners)) |BT| (BOW (MLS *)(owners *)) |BT| (BOP (NNP *)(NNS *)) |ET| 
-0.10210970766369931173045415562228  |BT| (NP (DT a)(JJ PFLP-GC)(NN hide-out)) |BT| (BOW (PFLP-GC *)(hide-out *)) |BT| (BOP (JJ *)(NN *)) |ET| 
-0.056613125829351185203108798305038  |BT| (NP (DT the)(NNP Clinton)(NN administration)) |BT| (BOW (Clinton *)(administration *)) |BT| (BOP (NNP *)(NN *)) |ET| 
-0.10191868475967787166514000318784  |BT| (NP (DT a)(JJ military)(NN party)) |BT| (BOW (military *)(party *)) |BT| (BOP (JJ *)(NN *)) |ET| 
-0.01761240612427268995010543051194  |BT| (NP (NP (NNP Britain)(POS 's))(NNP Labor)(NN government)) |BT| (BOW (Labor *)(government *)) |BT| (BOP (NNP *)(NN *)) |ET| 
-0.16407906424215504270769372396899  |BT| (NP (DT The)(JJ Palestinian)(NN representative)) |BT| (BOW (Palestinian *)(representative *)) |BT| (BOP (JJ *)(NN *)) |ET| 
-0.026228015120139502869278658181429  |BT| (NP (NP (NNP ABC)(POS 's))(NNP Sam)(NNP Donaldson)) |BT| (BOW (ABC *)('s *)(Sam *)(Donaldson *)) |BT| (BOP (NNP *)(POS *)(NNP *)(NNP *)) |ET| 
-0.047162482362249492917616322529284  |BT| (NP (NP (DT a)(JJ young)(JJ French)(NN designer))(, ,)(VP (VBG showing)(PP (IN in)(NP (DT the)(NNP Petit)(NNPS Palais))))) |BT| (BOW (French *)(designer *)(, *)(showing *)(in *)(the *)(Petit *)(Palais *)) |BT| (BOP (JJ *)(NN *)(, *)(VBG *)(IN *)(DT *)(NNP *)(NNP *)) |ET| 
-0.056166374411523278808999748434871  |BT| (NP (JJ Islamic)(NNS militants)) |BT| (BOW (Islamic *)(militants *)) |BT| (BOP (JJ *)(NNS *)) |ET| 
-0.026419874757929173725301552622113  |BT| (NP (PRP$ our)(NN country)) |BT| (BOW (our *)(country *)) |BT| (BOP (PRP$ *)(NN *)) |ET| 
-0.025181275970644234618589507590514  |BT| (NP (DT the)(JJ 15-member)(NNP European)(NNP Union)) |BT| (BOW (15-member *)(European *)(Union *)) |BT| (BOP (JJ *)(JJ *)(NN *)) |ET| 
-0.059062402299120103643659263070731  |BT| (NP (JJ pro-Indonesian)(NNS militias)) |BT| (BOW (pro-Indonesian *)(militias *)) |BT| (BOP (JJ *)(NNS *)) |ET| 
-0.0680301074502809161037575336195  |BT| (S (NP (NP (NNP Larry)(NNP Martin))(, ,)(NP (DT a)(NAC (NNP University)(PP (IN of)(NP (NNP Kansas))))(NN paleontologist))(, ,))(VP (VBD said)(SBAR (S (NP (NP (DT the)(JJ Chinese)(NNS researchers)(POS '))(NN paper))(VP (VBZ ``is)(NP (DT the)(JJS strongest)(NN evidence))(ADVP (RB yet))(SBAR (SBAR (IN that)(S (NP (NN bird)(NNS feathers))(VP (VBD evolved)(PP (IN for)(NP (NN flight))))))(CC and)(SBAR (IN that)(S (NP (PRP they))(VP (VBD were)(VP (VBN derived)(PP (IN from)(NP (NNP scales)(NNP .''))))))))))))) |BT| (BOW (paleontologist *)(, *)(said *)(the *)(Chinese *)(researchers *)) |BT| (BOP (NN *)(, *)(VBD *)(DT *)(JJ *)(NNS *)) |ET| 
-0.08927946592188341912166293923292  |BT| (S (NP (NP (DT This)(NN year))(PP (IN in)(NP (NNP Egypt))))(, ,)(PP (IN for)(NP (NN example)))(, ,)(NP (JJ avid)(NN campaigning))(VP (VBD helped)(S (NP (NNS women))(VP (VB reverse)(NP (NP (NNS laws))(SBAR (WHNP (WDT that))(S (VP (VBD prevented)(NP (PRP them))(PP (IN from)(S (VP (VP (VBG obtaining)(NP (NN divorce)))(CC and)(VP (VBG traveling)(ADVP (RB abroad))(PP (IN without)(NP (NP (PRP$ their)(NNS husbands)(POS '))(NN permission))))))))))))))(. .)) |BT| (BOW (Egypt *)(, *)(for *)(example *)(, *)(avid *)(campaigning *)(helped *)(women *)(reverse *)(laws *)(that *)(prevented *)(them *)(from *)(obtaining *)(divorce *)(and *)(traveling *)(abroad *)) |BT| (BOP (NNP *)(, *)(IN *)(NN *)(, *)(JJ *)(NN *)(VBD *)(VBN *)(JJ *)(NNS *)(WDT *)(VBD *)(PRP *)(IN *)(VBG *)(NN *)(CC *)(VBG *)(RB *)) |ET| 
-0.02974617954210288447991494820144  |BT| (NP (NP (DT the)(NN league)(POS 's))(NNS coaches)) |BT| (BOW (league *)('s *)(coaches *)) |BT| (BOP (NN *)(POS *)(NNS *)) |ET| 
-0.032035789920401180896902815220528  |BT| (S (PP (IN In)(NP (ADJP (RB environmentally)(JJ conscious))(NNP Seattle)))(, ,)(PP (IN for)(NP (NN instance)))(, ,)(NP (CD one)(NN commercial))(VP (VP (VBZ describes)(NP (NP (DT the)(NN smog))(PP (IN in)(NP (NNP Houston)))))(CC and)(VP (VBZ implores)(S (NP (NNS viewers))(VP (TO to)(VP (VP (VB ``take)(NP (DT a)(JJ deep)(NN breath)))(CC and)(VP (VB imagine)(NP (NP (NNP Seattle))(PP (IN with)(NP (NP (NNP Bush)(POS 's))(ADJP (NNP Texas)(JJ -style))(JJ environmental)(NN regulation)(NNS .''))))))))))) |BT| (BOW (Seattle *)(, *)(for *)(instance *)(, *)(one *)(commercial *)(describes *)(the *)(smog *)(in *)(Houston *)(and *)(implores *)(viewers *)(to *)(``take *)(a *)(deep *)(breath *)(and *)(imagine *)(Seattle *)(with *)(Bush *)('s *)(Texas *)) |BT| (BOP (NN *)(, *)(IN *)(NN *)(, *)(CD *)(JJ *)(NN *)(DT *)(NN *)(IN *)(NNP *)(CC *)(VBZ *)(NNS *)(TO *)(VB *)(DT *)(JJ *)(NN *)(CC *)(JJ *)(NN *)(IN *)(NNP *)(POS *)(NNP *)) |ET| 
-0.049925377540299166467807623348563  |BT| (NP (NP (NNP Wahid)(POS 's))(JJ political)(NNS opponents)) |BT| (BOW (Wahid *)('s *)(political *)(opponents *)) |BT| (BOP (NNP *)(POS *)(JJ *)(NNS *)) |ET| 
-0.093448666128841770261992394353001  |BT| (NP (DT a)(JJ go-cart)(NN magazine)) |BT| (BOW (go-cart *)(magazine *)) |BT| (BOP (JJ *)(NN *)) |ET| 
-0.033821717709730858558714317041449  |BT| (NP (PRP$ his)(JJ Giant)(NNS teammates)) |BT| (BOW (Giant *)(teammates *)) |BT| (BOP (JJ *)(NNS *)) |ET| 
-0.06009145629134730881570902738531  |BT| (NP (NP (NNP Brad)(NNP Freeman))(, ,)(NP (DT a)(NNP California)(NN investor))) |BT| (BOW (Brad *)(Freeman *)(, *)(a *)(California *)(investor *)) |BT| (BOP (NNP *)(NNP *)(, *)(DT *)(NNP *)(NN *)) |ET| 
-0.076684789398374961222337731214793  |BT| (NP (JJ Few)(NNP Herblock)(NNS targets)) |BT| (BOW (Herblock *)(targets *)) |BT| (BOP (NNP *)(NNS *)) |ET| 
-0.04334560981669866031040783127537  |BT| (NP (NNP Embassy)(NN spokeswoman)(NNP Lela)(NNP Margiou)) |BT| (BOW (Embassy *)(spokeswoman *)) |BT| (BOP (JJ *)(NN *)) |ET| 
-0.069201256876478642321437462214817  |BT| (NP (JJ Dortmund)(NNS authorities)) |BT| (BOW (Dortmund *)(authorities *)) |BT| (BOP (NNP *)(NNS *)) |ET| 
-0.055454236862011743736111668567901  |BT| (NP (DT a)(JJ leading)(JJ European)(NN brand)(NN ,'')) |BT| (BOW (European *)(brand *)) |BT| (BOP (JJ *)(NN *)) |ET| 
-0.061214914285466104360011740936898  |BT| (NP (JJ Pinochet)(NNS supporters)) |BT| (BOW (Pinochet *)(supporters *)) |BT| (BOP (NNP *)(NNS *)) |ET| 
-0.038379057717235515179154958786967  |BT| (S (NP (JJ Iranian)(NNPS Jews))(VP (VP (VBP are)(VP (VBN allowed)(S (VP (TO to)(VP (VB practice)(NP (NP (NNS aspects))(PP (IN of)(NP (PRP$ their)(NN religion)))))))))(CC but)(VP (VBP are)(VP (VBN forbidden)(S (VP (TO to)(VP (VB teach)(NP (NNP Hebrew))))))))(. .)) |BT| (BOW (Iranian *)(Jews *)(are *)(allowed *)(to *)(practice *)(aspects *)(of *)(their *)) |BT| (BOP (JJ *)(NNS *)(VBP *)(VBN *)(TO *)(VB *)(NNS *)(IN *)(PRP$ *)) |ET| 
-0.066356731471279864487122779337369  |BT| (NP (DT a)(JJ Milosevic)(NN wing)) |BT| (BOW (Milosevic *)(wing *)) |BT| (BOP (NNP *)(NN *)) |ET| 
-0.051919924798606027771530335712669  |BT| (NP (JJ Egyptian)(NNP Foreign)(NNP Minister)(NNP Amr)(NNP Mussa)) |BT| (BOW (Egyptian *)(Foreign *)(Minister *)) |BT| (BOP (JJ *)(NNP *)(NNP *)) |ET| 
-0.037172002456272390524816273682518  |BT| (NP (NN border)(NNS states)) |BT| (BOW (border *)(states *)) |BT| (BOP (NN *)(NNS *)) |ET| 
-0.064174195031375017017616357861698  |BT| (NP (DT The)(NNP News)(NNP Sun)(CC and)(JJ other)(JJ northern)(NNP Illinois)(NNP Copley)(NNS newspapers)) |BT| (BOW (Copley *)(newspapers *)) |BT| (BOP (NNP *)(NNS *)) |ET| 
-0.038827349621416269720430847200987  |BT| (NP (NP (NP (DT the)(NN country)(POS 's))(JJ current)(JJ white-red-and-blue)(NN flag))(PP (IN as)(NP (NP (NNP Russia)(POS 's))(JJ official)(NN flag)))) |BT| (BOW (country *)('s *)(current *)(white-red-and-blue *)(flag *)(as *)(Russia *)) |BT| (BOP (NN *)(POS *)(JJ *)(JJ *)(NN *)(IN *)(NNP *)) |ET| 
-0.064959378061998279685340662581439  |BT| (NP (NNP U.N.)(NNS arms)(NNS inspectors)) |BT| (BOW (U.N. *)(arms *)) |BT| (BOP (NNP *)(NNS *)) |ET| 
-0.062267071766743134486610244948679  |BT| (NP (NP (DT the)(NN state)(POS 's))(JJ 100,000-strong)(NN police)(NN force)) |BT| (BOW (state *)('s *)(100,000-strong *)(police *)(force *)) |BT| (BOP (NN *)(POS *)(JJ *)(NN *)(NN *)) |ET| 
-0.055327132021484135004918414324493  |BT| (NP (NNP Seminole)(CC and)(NNP Martin)(NNS counties)) |BT| (BOW (Martin *)(counties *)) |BT| (BOP (NNP *)(NNS *)) |ET| 
-0.014253847184843015938326971081551  |BT| (NP (NP (DT A)(NN group))(PP (IN of)(NP (JJ undecided)(NNS voters)))) |BT| (BOW (group *)(of *)(undecided *)(voters *)) |BT| (BOP (NN *)(IN *)(JJ *)(NNS *)) |ET| 
-0.037894336060514483000005725443771  |BT| (NP (NNP Communist)(NNS leaders)(NNP Vladimir)(NNP Lenin)(CC and)(NNP Josef)(NNP Stalin)) |BT| (BOW (Communist *)(leaders *)) |BT| (BOP (NNP *)(NNS *)) |ET| 
-0.056086474757336787777539655053261  |BT| (NP (DT the)(NNP Alpine)(NN region)) |BT| (BOW (Alpine *)(region *)) |BT| (BOP (NNP *)(NN *)) |ET| 
-0.058877138675587505078912187173046  |BT| (NP (JJ pro-Gore)(NNS demonstrators)) |BT| (BOW (pro-Gore *)(demonstrators *)) |BT| (BOP (JJ *)(NNS *)) |ET| 
-0.056722172980923878105041779917883  |BT| (NP (DT the)(NNP Mediterranean)(NN island)) |BT| (BOW (Mediterranean *)(island *)) |BT| (BOP (NNP *)(NN *)) |ET| 
-0.062039583725118044310598008905799  |BT| (NP (NP (DT The)(NN station)(POS 's))(JJ first)(JJ permanent)(NN crew)) |BT| (BOW (station *)('s *)(first *)(permanent *)(crew *)) |BT| (BOP (NN *)(POS *)(JJ *)(JJ *)(NN *)) |ET| 
-0.02421125912757891157633949319461  |BT| (NP (DT the)(NNP Alabama)(JJ -Florida)(NN line)) |BT| (BOW (-Florida *)(line *)) |BT| (BOP (NNP *)(NN *)) |ET| 
-0.049162800392344579991643627181475  |BT| (NP (JJ Democratic)(NNS surrogates)) |BT| (BOW (Democratic *)(surrogates *)) |BT| (BOP (JJ *)(NNS *)) |ET| 
-0.03668096152053812453175396512961  |BT| (NP (DT A)(NN car)(NN bomb)) |BT| (BOW (car *)(bomb *)) |BT| (BOP (NN *)(NN *)) |ET| 
-0.027165293021855774213690892793238  |BT| (NP (NN Indonesian)(NNS leaders)) |BT| (BOW (Indonesian *)(leaders *)) |BT| (BOP (JJ *)(NNS *)) |ET| 
-0.052502340126627945748882808629787  |BT| (NP (NNP AOL)(NNS rivals)) |BT| (BOW (AOL *)(rivals *)) |BT| (BOP (NNP *)(NNS *)) |ET| 
-0.056344770639022073721591254980012  |BT| (NP (DT the)(JJ Republican)(JJ presidential)(NN nominee)) |BT| (BOW (presidential *)(nominee *)) |BT| (BOP (JJ *)(NN *)) |ET| 
-0.032802895291009992462250011158176  |BT| (VP (VB bring)(NP (JJ Mexican)(NNS wages))(PRT (RP up))(PP (TO to)(NP (NNP U.S.)(NNS standards)))) |BT| (BOW (Mexican *)(wages *)(up *)(to *)(U.S. *)) |BT| (BOP (NNP *)(VBZ *)(RB *)(TO *)(NNP *)) |ET| 
-0.052703005285986037620205024722964  |BT| (NP (NP (NNP Jordan))(, ,)(NP (NP (NP (NNP Egypt)(POS 's))(NNP Suzanne)(NNP Mubarak))(CC and)(NP (NNS others)))) |BT| (BOW (Jordan *)(, *)(Egypt *)) |BT| (BOP (NNP *)(, *)(NNP *)) |ET| 
-0.039655856654137067174303865613183  |BT| (NP (NP (NN college)(NN football)(POS 's))(JJS most)(JJ storied)(NNS programs)) |BT| (BOW (college *)(football *)('s *)(most *)(storied *)(programs *)) |BT| (BOP (NN *)(NN *)(POS *)(JJS *)(JJ *)(NNS *)) |ET| 
-0.05228434453076524768277977273101  |BT| (NP (NNP Nielsen)(NNS executives)) |BT| (BOW (Nielsen *)(executives *)) |BT| (BOP (NNP *)(NNS *)) |ET| 
-0.0075786647546293630511859973353239  |BT| (NP (NP (NNP Indonesia)(POS 's))(JJ legal)(NN system)) |BT| (BOW (Indonesia *)('s *)(legal *)(system *)) |BT| (BOP (NNP *)(POS *)(JJ *)(NN *)) |ET| 
-0.042531685795886023382372798096185  |BT| (NP (PRP$ its)(NNP Oldsmobile)(NN division)) |BT| (BOW (Oldsmobile *)(division *)) |BT| (BOP (JJ *)(NN *)) |ET| 
-0.042737316234599753705936109327013  |BT| (VP (VBD beckoned)(NP (NP (NNS thousands))(PP (IN of)(NP (JJ Mexican)(NNS nationals))))(S (VP (TO to)(VP (VB replenish)(NP (DT a)(JJ dwindling)(NNP U.S.)(NN labor)(NN pool)))))) |BT| (BOW (nationals *)(to *)(replenish *)(a *)(dwindling *)(U.S. *)(labor *)(pool *)) |BT| (BOP (NNS *)(TO *)(VB *)(DT *)(VBG *)(NNP *)(NN *)(NN *)) |ET| 
-0.038661784150919052682748855431782  |BT| (NP (NNP Serbian)(NNP President)(NNP Milan)(NNP Milutinovic)) |BT| (BOW (Serbian *)(President *)) |BT| (BOP (JJ *)(NN *)) |ET| 
-0.037008444239663353114710986346836  |BT| (NP (NP (JJ Liberal)(NNS politicians))(CC and)(NP (JJ many)(JJ leading)(JJ cultural)(NNS figures))) |BT| (BOW (politicians *)(and *)(many *)(leading *)(cultural *)(figures *)) |BT| (BOP (NNS *)(CC *)(JJ *)(JJ *)(JJ *)(NNS *)) |ET| 
-0.02966756838591807013405521331606  |BT| (NP (NP (DT a)(NN country))(SBAR (WHNP (WDT that))(S (VP (VP (VBZ has)(NP (NP (DT a)(NN history))(PP (IN of)(NP (NN reform)))))(CC and)(VP (JJ challenging)(NP (NN prejudice)(NNS ,''))))))) |BT| (BOW (country *)(that *)) |BT| (BOP (NN *)(WDT *)) |ET| 
-0.020709246621452830766640929027744  |BT| (NP (NP (DT the)(NNPS Giants)(POS '))(JJ spacious)(NN clubhouse)) |BT| (BOW (Giants *)(' *)(spacious *)(clubhouse *)) |BT| (BOP (NNS *)(POS *)(JJ *)(NN *)) |ET| 
-0.032526517077572460190371117505492  |BT| (NP (JJ Palestinian)(NN -Israeli)(NNS talks)) |BT| (BOW (Palestinian *)(-Israeli *)) |BT| (BOP (JJ *)(JJ *)) |ET| 
-0.033972118506593408648885912270998  |BT| (NP (NP (NN observer)(NNS groups))(CC and)(NP (NN opposition)(NNS parties))) |BT| (BOW (groups *)(and *)(opposition *)(parties *)) |BT| (BOP (NNS *)(CC *)(NN *)(NNS *)) |ET| 
-0.046182790875020557352925720806525  |BT| (NP (DT the)(JJ Arab)(NN world)(POS 's)) |BT| (BOW (Arab *)(world *)) |BT| (BOP (NNP *)(NN *)) |ET| 
-0.030195857420438745877255826144392  |BT| (S (S (VP (VBN Born)(CC and)(VBN raised)(PP (IN in)(NP (NNP Chicago)))))(, ,)(NP (NP (NNP Herblock)(POS 's))(JJ first)(NP (JJ full-time)(NN cartoonist)(POS 's))(NN job))(VP (VBD was)(PP (IN on)(NP (DT the)(NNP Chicago)(NNP Daily)(NNP News))))(. .)) |BT| (BOW (Chicago *)(, *)(Herblock *)('s *)(first *)(full-time *)(cartoonist *)('s *)(job *)(was *)(on *)(the *)(Chicago *)(Daily *)(News *)) |BT| (BOP (NNP *)(, *)(NNP *)(POS *)(JJ *)(JJ *)(NN *)(POS *)(NN *)(VBD *)(IN *)(DT *)(NNP *)(NNP *)(NNP *)) |ET| 
-0.041590553261977490639988985776654  |BT| (NP (DT a)(JJ .357-caliber)(NNP Magnum)(NN revolver)) |BT| (BOW (Magnum *)(revolver *)) |BT| (BOP (NNP *)(NN *)) |ET| 
-0.038851792222291535450207078383755  |BT| (NP (NP (NNP Florida)(POS 's))(NNP 22nd)(NNP District)) |BT| (BOW (Florida *)('s *)(22nd *)(District *)) |BT| (BOP (NNP *)(POS *)(JJ *)(NNP *)) |ET| 
-0.03217586047493554285425787497843  |BT| (S (PP (IN In)(NP (ADJP (RB environmentally)(JJ conscious))(NNP Seattle)))(, ,)(PP (IN for)(NP (NN instance)))(, ,)(NP (CD one)(NN commercial))(VP (VP (VBZ describes)(NP (NP (DT the)(NN smog))(PP (IN in)(NP (NNP Houston)))))(CC and)(VP (VBZ implores)(S (NP (NNS viewers))(VP (TO to)(VP (VP (VB ``take)(NP (DT a)(JJ deep)(NN breath)))(CC and)(VP (VB imagine)(NP (NP (NNP Seattle))(PP (IN with)(NP (NP (NNP Bush)(POS 's))(ADJP (NNP Texas)(JJ -style))(JJ environmental)(NN regulation)(NNS .''))))))))))) |BT| (BOW (Seattle *)(, *)(for *)(instance *)(, *)(one *)(commercial *)(describes *)(the *)(smog *)(in *)(Houston *)(and *)(implores *)(viewers *)(to *)(``take *)(a *)(deep *)(breath *)(and *)(imagine *)(Seattle *)) |BT| (BOP (NN *)(, *)(IN *)(NN *)(, *)(CD *)(JJ *)(NN *)(DT *)(NN *)(IN *)(NNP *)(CC *)(VBZ *)(NNS *)(TO *)(VB *)(DT *)(JJ *)(NN *)(CC *)(JJ *)(NN *)) |ET| 
-0.022396257801836894768543473333011  |BT| (NP (DT the)(JJ German)(NN market)(NN leader)) |BT| (BOW (German *)(market *)(leader *)) |BT| (BOP (NNP *)(NN *)(NN *)) |ET| 
-0.042542321739832807125925029367863  |BT| (NP (DT The)(JJ Russian)(, ,)(JJ Ukrainian)(CC and)(JJ Turkish)(NNS planes)) |BT| (BOW (Turkish *)(planes *)) |BT| (BOP (JJ *)(NNS *)) |ET| 
-0.039799423100160775945699498379327  |BT| (NP (DT a)(NNP Pennsylvania)(NN radio)(NN station)) |BT| (BOW (Pennsylvania *)(radio *)(station *)) |BT| (BOP (NNP *)(NN *)(NN *)) |ET| 
-0.037991513245199365345072806121607  |BT| (S (NP (NNP Koetter))(VP (VBZ is)(VP (VBN considered)(NP (NP (CD one))(PP (IN of)(NP (NP (DT the)(NN country)(POS 's))(JJ top)(JJ young)(NN coaching)(NNS prospects))))))(. .)) |BT| (BOW (Koetter *)(is *)(considered *)(one *)(of *)(the *)(country *)('s *)(top *)(young *)(coaching *)(prospects *)) |BT| (BOP (NNP *)(VBZ *)(VBN *)(CD *)(IN *)(DT *)(NN *)(POS *)(JJ *)(JJ *)(NN *)(NNS *)) |ET| 
-0.050886042213381811605277249555002  |BT| (NP (QP (CD 137)(CD Shiite))(JJ Muslim)(NNS prisoners)) |BT| (BOW (Muslim *)(prisoners *)) |BT| (BOP (NNP *)(NNS *)) |ET| 
-0.038591774556896850378873153886161  |BT| (NP (JJ Anti-Pinochet)(NN attorney)(NNP Alfonso)(NNP Insunza)) |BT| (BOW (Anti-Pinochet *)(attorney *)) |BT| (BOP (JJ *)(NN *)) |ET| 
-0.050731293442862798737102991708525  |BT| (NP (PRP$ his)(NNP Pirate)(NNS teammates)) |BT| (BOW (Pirate *)(teammates *)) |BT| (BOP (NNP *)(NNS *)) |ET| 
-0.042716978653869377979823696023232  |BT| (S (NP (NP (NNP Saturday)(POS 's))(JJ Egyptian)(NN delegation))(VP (VBD included)(NP (QP (JJR more)(IN than)(CD 150))(NNS delegates))(, ,)(S (VP (ADVP (RBS most))(VBG representing)(NP (NP (NNS unions))(CC and)(NP (JJ political)(NNS parties))))))(. .)) |BT| (BOW (Egyptian *)(delegation *)(included *)(more *)(than *)(150 *)(delegates *)) |BT| (BOP (JJ *)(NN *)(VBD *)(JJR *)(IN *)(CD *)(NNS *)) |ET| 
-0.064157459655464224579368703871296  |BT| (NP (JJ Iraqi)(NNS hospitals)) |BT| (BOW (Iraqi *)(hospitals *)) |BT| (BOP (NNP *)(NNS *)) |ET| 
-0.034975321618018764824320498973975  |BT| (NP (NP (NNP Florida)(POS 's))(JJ presidential)(NNS votes)) |BT| (BOW (Florida *)('s *)(presidential *)) |BT| (BOP (NNP *)(POS *)(JJ *)) |ET| 
-0.068743415365138629824492966235994  |BT| (NP (DT the)(JJ Palestinian)(NNS territories)) |BT| (BOW (Palestinian *)(territories *)) |BT| (BOP (JJ *)(NNS *)) |ET| 
-0.03310649658448183707548651000252  |BT| (NP (DT this)(JJ French)(NN resort)(NN city)) |BT| (BOW (French *)(resort *)(city *)) |BT| (BOP (JJ *)(NN *)(NN *)) |ET| 
-0.026663269426587442312293063650941  |BT| (NP (NP (CD 80,000)(NNPS Jews))(PP (IN in)(NP (NNP Iran)))) |BT| (BOW (Jews *)(in *)(Iran *)) |BT| (BOP (NNS *)(IN *)(NNP *)) |ET| 
-0.026564732517959727814416126534525  |BT| (NP (NP (DT the)(NN world)(POS 's))(JJS largest)(JJ pharmaceutical)(NN company)) |BT| (BOW (world *)('s *)(largest *)(pharmaceutical *)(company *)) |BT| (BOP (NN *)(POS *)(JJS *)(JJ *)(NN *)) |ET| 
-0.040382061059483984055695771075989  |BT| (S (NP (NNS researchers))(VP (VBD announced)(SBAR (IN that)(S (NP (NP (DT another)(JJ ancient)(JJ Chinese)(NN bird))(, ,)(VP (VBN called)(NP (NNP Microraptor)(NNS zhaoianus)))(, ,))(VP (VBD supported)(NP (NP (DT the)(NN dinosaur)(NN origin))(PP (IN of)(NP (NNS birds))))))))) |BT| (BOW (researchers *)(announced *)(that *)(another *)(ancient *)(Chinese *)) |BT| (BOP (NNS *)(VBD *)(IN *)(DT *)(NN *)(JJ *)) |ET| 
-0.04868380567897971633595233242886  |BT| (S (S (NP (NP (NNP Assad))(, ,)(PP (IN on)(NP (NP (PRP$ his)(JJ first)(NN trip))(ADVP (RB abroad)(PP (IN since)(S (VP (VBG becoming)(NP (NN president))(PP (IN in)(NP (NNP July)))))))))(, ,))(ADVP (RB also))(VP (VBN dealt)(PP (IN with)(NP (NP (DT the)(NN issue))(PP (IN of)(NP (NNP Iraq)))))(PP (IN in)(NP (DT the)(NNS talks)))(PP (IN with)(NP (NNP Mubarak)))))(, ,)(NP (JJ Egyptian)(NNP Foreign)(NNP Minister)(NNP Amr)(NNP Mussa))(VP (VBD said))(. .)) |BT| (BOW (Mubarak *)(, *)(Egyptian *)) |BT| (BOP (NNP *)(, *)(JJ *)) |ET| 
-0.044049922740881854166250519710957  |BT| (NP (DT the)(NNP Kostunica)(NN camp)) |BT| (BOW (Kostunica *)(camp *)) |BT| (BOP (NNP *)(NN *)) |ET| 
-0.021927045348770143884387096022692  |BT| (NP (NNP Alabama)(, ,)(NNP Mississippi)(CC and)(NNP Louisiana)) |BT| (BOW (Alabama *)(, *)(Mississippi *)) |BT| (BOP (NNP *)(, *)(NNP *)) |ET| 
-0.038186568208021215431458017519617  |BT| (NP (DT a)(JJ longtime)(NNS Broncos)(NN fan)) |BT| (BOW (Broncos *)(fan *)) |BT| (BOP (NNP *)(NN *)) |ET| 
-0.024202423808508288782803674621391  |BT| (NP (NP (DT a)(NN group))(PP (IN of)(NP (NN area)(NNS voters)))(SBAR (WHNP (WP who))(S (VP (VBP say)(SBAR (S (NP (PRP they))(VP (MD could)(VP (VB support)(NP (CC either)(NNP Gore)(CC or)(NNP Bush))(: -)(SBAR (IN though)(S (NP (PRP they))(VP (MD might)(VP (VB be)(VP (VBG leaning)(NP (NP (CD one)(NN way))(CC or)(NP (DT the)(JJ other)))))))))))))))) |BT| (BOW (area *)(voters *)(who *)) |BT| (BOP (NN *)(NNS *)(WP *)) |ET| 
-0.069894959637311071531939887790941  |BT| (NP (NP (NP (NNP Egypt)(POS 's))(NNP Suzanne)(NNP Mubarak))(CC and)(NP (NNS others))) |BT| (BOW (Egypt *)('s *)(Suzanne *)(Mubarak *)(and *)(others *)) |BT| (BOP (NNP *)(POS *)(NNP *)(NNP *)(CC *)(NNS *)) |ET| 
-0.052189770078616838644425257598414  |BT| (NP (DT the)(JJ British)(NN government)) |BT| (BOW (British *)(government *)) |BT| (BOP (JJ *)(NN *)) |ET| 
-0.055439968940267966845958369503933  |BT| (NP (NNP Florida)(NN developer)(NNP Al)(NNP Hoffman)) |BT| (BOW (developer *)(Al *)(Hoffman *)) |BT| (BOP (NN *)(NNP *)(NNP *)) |ET| 
-0.031029171808144424132835936802621  |BT| (NP (NNP four-term)(NNP Democratic)(NNP Rep)) |BT| (BOW (Democratic *)(Rep *)) |BT| (BOP (JJ *)(NN *)) |ET| 
-0.038868813448467230686755868873661  |BT| (NP (DT a)(NNP Tokyo)(NN subway)(NN attack)) |BT| (BOW (Tokyo *)(subway *)) |BT| (BOP (NNP *)(NN *)) |ET| 
-0.0084599630626986267040168243624976  |BT| (VP (VBD prevented)(NP (PRP them))(PP (IN from)(S (VP (VP (VBG obtaining)(NP (NN divorce)))(CC and)(VP (VBG traveling)(ADVP (RB abroad))(PP (IN without)(NP (NP (PRP$ their)(NNS husbands)(POS '))(NN permission)))))))) |BT| (BOW (them *)(from *)(obtaining *)(divorce *)(and *)(traveling *)(abroad *)) |BT| (BOP (PRP *)(IN *)(VBG *)(NN *)(CC *)(VBG *)(RB *)) |ET| 
-0.031203423677772595956625423241348  |BT| (NP (PRP$ his)(NN country)(NN house)(NN southwest)) |BT| (BOW (country *)(house *)) |BT| (BOP (NN *)(NN *)) |ET| 
-0.031066711391692654331553313795666  |BT| (S (PP (IN In)(NP (ADJP (RB environmentally)(JJ conscious))(NNP Seattle)))(, ,)(PP (IN for)(NP (NN instance)))(, ,)(NP (CD one)(NN commercial))(VP (VP (VBZ describes)(NP (NP (DT the)(NN smog))(PP (IN in)(NP (NNP Houston)))))(CC and)(VP (VBZ implores)(S (NP (NNS viewers))(VP (TO to)(VP (VP (VB ``take)(NP (DT a)(JJ deep)(NN breath)))(CC and)(VP (VB imagine)(NP (NP (NNP Seattle))(PP (IN with)(NP (NP (NNP Bush)(POS 's))(ADJP (NNP Texas)(JJ -style))(JJ environmental)(NN regulation)(NNS .''))))))))))) |BT| (BOW (Seattle *)(, *)(for *)(instance *)(, *)(one *)(commercial *)(describes *)(the *)(smog *)(in *)(Houston *)(and *)(implores *)(viewers *)(to *)(``take *)(a *)(deep *)(breath *)(and *)(imagine *)(Seattle *)(with *)(Bush *)) |BT| (BOP (NN *)(, *)(IN *)(NN *)(, *)(CD *)(JJ *)(NN *)(DT *)(NN *)(IN *)(NNP *)(CC *)(VBZ *)(NNS *)(TO *)(VB *)(DT *)(JJ *)(NN *)(CC *)(JJ *)(NN *)(IN *)(NNP *)) |ET| 
-0.025289298783745486898233423289639  |BT| (S (NP (NNP Florida)(CC and)(NNP Pennsylvania))(PRN (: -)(PP (IN among)(NP (NP (DT the)(NN tossup)(NNS states))(PP (IN in)(NP (DT the)(JJ presidential)(NN race)))))(: -))(VP (VBP have)(NP (NP (DT a)(JJ large)(NN number))(PP (IN of)(NP (NP (JJR older)(NNS people))(, ,)(SBAR (WHNP (WP who))(S (VP (VBP tend)(S (VP (TO to)(VP (VB be)(NP (DT the)(ADJP (RBS most)(JJ likely)(S (VP (TO to))))(NN vote))))))))))))(. .)) |BT| (BOW (Florida *)(and *)(Pennsylvania *)(- *)(among *)(the *)(tossup *)(states *)(in *)(the *)(presidential *)(race *)(- *)(have *)(a *)(large *)(number *)(of *)(older *)(people *)(, *)(who *)) |BT| (BOP (NNP *)(CC *)(NNP *)(NNP *)(IN *)(DT *)(NN *)(NNS *)(IN *)(DT *)(JJ *)(NN *)(MD *)(VB *)(DT *)(JJ *)(NN *)(IN *)(NN *)(NNS *)(, *)(WP *)) |ET| 
-0.020577349459692622496431724243848  |BT| (NP (NN prison)(NNS doctors)) |BT| (BOW (prison *)(doctors *)) |BT| (BOP (NN *)(NNS *)) |ET| 
-0.046031242518212479863937147683828  |BT| (NP (JJ Scottish)(NNS judges)) |BT| (BOW (Scottish *)(judges *)) |BT| (BOP (JJ *)(NNS *)) |ET| 
-0.078909625026150814752767814752588  |BT| (NP (CD Two)(JJ major)(NNP South)(JJ Korean)(NN labor)(NNS groups)) |BT| (BOW (South *)(Korean *)(labor *)) |BT| (BOP (JJ *)(JJ *)(NN *)) |ET| 
-0.066856925143700479674535586127604  |BT| (NP (DT the)(JJ American)(NNS people)) |BT| (BOW (American *)(people *)) |BT| (BOP (JJ *)(NNS *)) |ET| 
-0.031401636920173579825554810440735  |BT| (NP (NN industry)(NNS economists)) |BT| (BOW (industry *)(economists *)) |BT| (BOP (NN *)(NNS *)) |ET| 
-0.051432311956198038804810579449622  |BT| (NP (NP (DT the)(NN country)(POS 's))(VBN elected)(NNS lawmakers)) |BT| (BOW (country *)('s *)(elected *)(lawmakers *)) |BT| (BOP (NN *)(POS *)(VBD *)(NNS *)) |ET| 
-0.049828668888907357015227717056405  |BT| (NP (JJ nuclear)(NNS weapons)) |BT| (BOW (nuclear *)(weapons *)) |BT| (BOP (JJ *)(NNS *)) |ET| 
-0.022201398405363382410060424376752  |BT| (NP (NP (NNP Afghanistan)(POS 's))(JJ central)(JJ Bamyan)(NN province)) |BT| (BOW (Bamyan *)(province *)) |BT| (BOP (NNP *)(NN *)) |ET| 
-0.029419814167352620337680946249748  |BT| (NP (JJ other)(JJ European)(NNS countries)) |BT| (BOW (European *)(countries *)) |BT| (BOP (JJ *)(NNS *)) |ET| 
-0.044718390095302658349130098258684  |BT| (NP (DT the)(NN RV)(NNS owners)) |BT| (BOW (RV *)(owners *)) |BT| (BOP (NNP *)(NNS *)) |ET| 
-0.049878500260220039186354057392236  |BT| (NP (DT The)(JJ Syrian)(NN leader)(POS 's)) |BT| (BOW (Syrian *)(leader *)) |BT| (BOP (JJ *)(NN *)) |ET| 
-0.024462586924114772257699002011577  |BT| (NP (NNP Army)(NNS officials)) |BT| (BOW (Army *)(officials *)) |BT| (BOP (NNP *)(NNS *)) |ET| 
-0.040974258148488131026088154840181  |BT| (NP (NP (DT the)(NN world)(POS 's))(JJ fourth-biggest)(NN airline)) |BT| (BOW (world *)('s *)(fourth-biggest *)(airline *)) |BT| (BOP (NN *)(POS *)(JJ *)(NN *)) |ET| 
-0.022831245367256790962384727095014  |BT| (NP (NP (NNP COPENHAGEN)(, ,)(NNP Denmark)(NNP [AP)(NNP ]))(: -)(S (NP (DT A)(JJ Danish)(NN couple))(VP (VBD were)(VP (VBN surprised)(NP (DT this)(NN weekend))(SBAR (WHADVP (WRB when))(S (NP (CD two))(VP (VBP absentee)(NP (NNS ballots))(PP (IN from)(NP (DT the)(NNP U.S)))))))))(. .)) |BT| (BOW ((AP *)()*)(- *)(A *)(Danish *)(couple *)) |BT| (BOP (NNP *)(NNP *)(, *)(DT *)(JJ *)(NN *)) |ET| 
-0.02594372204415236818353385217506  |BT| (NP (NP (NNP NBC)(POS 's))(NNP Tim)(NNP Russert)) |BT| (BOW (NBC *)('s *)(Tim *)(Russert *)) |BT| (BOP (NNP *)(POS *)(NNP *)(NNP *)) |ET| 
-0.030979255809371504526428253711856  |BT| (NP (NP (DT a)(NN murder)(NN victim)(POS 's))(NN family)) |BT| (BOW (victim *)('s *)(family *)) |BT| (BOP (NN *)(POS *)(NN *)) |ET| 
-0.016247681891773856077687554488875  |BT| (NP (NP (NP (NNP Bill)(NNP DeWitt))(CC and)(NP (NNP Mercer)(NNP Reynolds)))(, ,)(NP (NP (NNS co-chairs))(PP (IN of)(NP (NP (DT the)(ADJP (JJ Ohio-based))(NN investment)(NN firm))(PP (IN of)(NP (NNP Reynolds,)(NNP DeWitt)(CC and)(NNP Company))))))(: ;)(NP (NP (NNP Brad)(NNP Freeman))(, ,)(NP (DT a)(NNP California)(NN investor)))(: ;)(CC and)(NP (NP (NNP Florida)(NN developer)(NNP Al)(NNP Hoffman))(, ,)(SBAR (WHNP (WP who))(S (VP (VBD was)(NP (NP (NP (NN finance)(NN chairman))(PP (IN for)(NP (NP (NNP Jeb)(NNP Bush)(POS 's))(JJ gubernatorial)(NN campaign))))(CC and)(NP (NP (NN chairman))(PP (IN of)(NP (PRP$ his)(JJ inaugural)(NN committee)))))))))) |BT| (BOW (California *)(investor *)(; *)(and *)(Florida *)(developer *)) |BT| (BOP (NNP *)(NN *)(: *)(CC *)(NNP *)(NN *)) |ET| 
-0.020091621588001373766019241884351  |BT| (NP (NNP Stars)(NN center)(NNP Mike)(NNP Modano)) |BT| (BOW (Stars *)(center *)) |BT| (BOP (NNS *)(JJ *)) |ET| 
-0.041985927747622366068558363849661  |BT| (VP (VBD beckoned)(NP (NP (NNS thousands))(PP (IN of)(NP (JJ Mexican)(NNS nationals))))(S (VP (TO to)(VP (VB replenish)(NP (DT a)(JJ dwindling)(NNP U.S.)(NN labor)(NN pool)))))) |BT| (BOW (Mexican *)(nationals *)(to *)(replenish *)(a *)(dwindling *)(U.S. *)) |BT| (BOP (NNP *)(NNS *)(TO *)(VB *)(DT *)(VBG *)(NNP *)) |ET| 
-0.048704597844415289942254787547427  |BT| (NP (JJ non-Muslim)(NNS families)) |BT| (BOW (non-Muslim *)(families *)) |BT| (BOP (JJ *)(NNS *)) |ET| 
-0.033824598751758597203753708981822  |BT| (NP (DT the)(JJ German)(NN magazine)(NNP Das)(NNP Motorrad)) |BT| (BOW (German *)(magazine *)) |BT| (BOP (NNP *)(NN *)) |ET| 
-0.036271434800917282115229056671524  |BT| (NP (NN hospital)(NN spokeswoman)(NNP Rebecca)(NNP O'Grady)) |BT| (BOW (hospital *)(spokeswoman *)) |BT| (BOP (JJ *)(NN *)) |ET| 
-0.047431943557085798346406591008417  |BT| (NP (JJ Arab)(NNS diplomats)) |BT| (BOW (Arab *)(diplomats *)) |BT| (BOP (NNP *)(NNS *)) |ET| 
-0.020019274434988586913730657101951  |BT| (SINV (S (S (ADVP (RB ``All))(NP (PRP$ my)(NNS feelings))(VP (VBP have)(VP (VBN been)(PP (IN with)(NP (NP (NNP Iraq))(CC and)(NP (DT the)(NNS people)))))))(, ,)(CC but)(S (NP (DT this)(NN time))(VP (VBZ is)(ADJP (JJ special))(SBAR (IN because)(S (NP (PRP I))(VP (VBP am)(ADJP (RB physically)(RB here)(S (VP (TO to)(VP (VB show)(NP (PRP$ my)(NN support)(NN ,''))))))))))))(VP (VBD said))(NP (ADJP (JJ well-known))(JJ Egyptian)(NN actress)(NNP Madeha)(NNP Yusri))(. .)) |BT| (BOW (my *)(support *)(,'' *)(said *)(well-known *)(Egyptian *)(actress *)) |BT| (BOP (PRP$ *)(NN *)(, *)(VBD *)(VBN *)(JJ *)(NN *)) |ET| 
-0.04180398141287294810908292674867  |BT| (NP (JJ Military)(NNS leaders)) |BT| (BOW (Military *)(leaders *)) |BT| (BOP (NNP *)(NNS *)) |ET| 
-0.024004742895173718925105887933569  |BT| (NP (NP (DT the)(NN nation)(POS 's))(JJS highest)(NN court)) |BT| (BOW (nation *)('s *)(highest *)(court *)) |BT| (BOP (NN *)(POS *)(JJS *)(NN *)) |ET| 
-0.031477873165714043146579115273198  |BT| (NP (JJ Jewish)(CC and)(JJ American)(NNS targets)) |BT| (BOW (American *)(targets *)) |BT| (BOP (JJ *)(NNS *)) |ET| 
-0.031127581963191201797069851409105  |BT| (NP (NP (NNP Indonesia)(POS 's))(JJ first)(ADJP (RB democratically)(VBN chosen))(NN head)) |BT| (BOW (Indonesia *)('s *)(first *)(democratically *)(chosen *)(head *)) |BT| (BOP (NNP *)(POS *)(JJ *)(JJ *)(JJ *)(NN *)) |ET| 
-0.02834374173428133927843397543711  |BT| (S (NP (JJ American)(NNS tourists))(VP (VBP leave)(NP (NP (DT the)(NN country))(PP (IN within)(NP (CD 48)(NNS hours)))))) |BT| (BOW (tourists *)(leave *)(the *)(country *)) |BT| (BOP (NNS *)(VBP *)(DT *)(NN *)) |ET| 
-0.037513303140756217024520680070054  |BT| (NP (NP (DT a)(JJ Saudi)(NN researcher))(VP (VBN interested)(PP (IN in)(NP (NP (NNS women)(POS 's))(NNS issues))))) |BT| (BOW (researcher *)(interested *)(in *)(women *)) |BT| (BOP (VB *)(JJ *)(IN *)(NNP *)) |ET| 
-0.029031938484796012550637200888559  |BT| (NP (NN state)(NN utility)(NN labor)(NNS unions)) |BT| (BOW (labor *)(unions *)) |BT| (BOP (NN *)(NNS *)) |ET| 
-0.017763562122397793391348486125025  |BT| (S (S (NP (NN Competition))(VP (VBZ has)(VP (VBN become)(S (ADJP (JJ intense)))(, ,)(S (ADJP (RB particularly)(PP (IN on)(NP (PRP$ its)(JJ core)(JJ trans-Atlantic)(NNS flights))))))))(, ,)(CC and)(S (NP (JJ former)(NN chief)(NN executive)(NNP Bob)(NNP Ayling))(VP (VBD resigned)(PP (IN in)(NP (NNP March)))(PP (IN after)(NP (DT a)(JJ troubled)(JJ four-year)(NN stint)))))(. .)) |BT| (BOW (trans-Atlantic *)(flights *)(, *)(and *)(former *)(chief *)(executive *)) |BT| (BOP (JJ *)(NNS *)(, *)(CC *)(JJ *)(JJ *)(NN *)) |ET| 
-0.02032676471116053734666806462883  |BT| (S (NP (NNS women))(VP (VB reverse)(NP (NP (NNS laws))(SBAR (WHNP (WDT that))(S (VP (VBD prevented)(NP (PRP them))(PP (IN from)(S (VP (VP (VBG obtaining)(NP (NN divorce)))(CC and)(VP (VBG traveling)(ADVP (RB abroad))(PP (IN without)(NP (NP (PRP$ their)(NNS husbands)(POS '))(NN permission))))))))))))) |BT| (BOW (women *)(reverse *)(laws *)(that *)(prevented *)(them *)(from *)(obtaining *)(divorce *)(and *)(traveling *)(abroad *)(without *)(their *)(husbands *)) |BT| (BOP (VBN *)(JJ *)(NNS *)(WDT *)(VBD *)(PRP *)(IN *)(VBG *)(NN *)(CC *)(VBG *)(RB *)(IN *)(PRP$ *)(NNS *)) |ET| 
-0.024188274566429655842991763847749  |BT| (NP (NP (NNP Britain)(POS 's))(JJ top)(NN law)(NN enforcement)(NN officer)) |BT| (BOW (Britain *)('s *)(top *)(law *)(enforcement *)(officer *)) |BT| (BOP (NNP *)(POS *)(JJ *)(NN *)(NN *)(NN *)) |ET| 
-0.027515873622802704961953779161377  |BT| (NP (DT That)(NNP Gore)(JJ -Bush)(NN audience)) |BT| (BOW (-Bush *)(audience *)) |BT| (BOP (JJ *)(NN *)) |ET| 
-0.011165682894130075225591625098787  |BT| (NP (NNP Kentucky)(CC and)(NNP Tennessee)) |BT| (BOW (Kentucky *)(and *)(Tennessee *)) |BT| (BOP (NNP *)(CC *)(NNP *)) |ET| 
-0.026566184718662233521513371670153  |BT| (NP (NP (NNP Iran)(POS 's))(JJ only)(JJ Jewish)(NN legislator)) |BT| (BOW (Jewish *)(legislator *)) |BT| (BOP (JJ *)(NN *)) |ET| 
-0.023184277278702238034302496316741  |BT| (NP (NNP TCU)(NN coach)(NNP Dennis)(NNP Franchione)) |BT| (BOW (TCU *)(coach *)) |BT| (BOP (NNP *)(NN *)) |ET| 
-0.019109585946756268981516768690199  |BT| (NP (NP (NNP Gallup)(POS 's))(JJ executive)(NN editor)) |BT| (BOW (Gallup *)('s *)(executive *)(editor *)) |BT| (BOP (NNP *)(POS *)(NN *)(NN *)) |ET| 
-0.017747273012574320966150409617512  |BT| (NP (NP (NNP British)(NNP Airways)(POS '))(ADJP (RB recently)(JJ appointed))(NN chief)(NN executive)) |BT| (BOW (British *)(Airways *)(' *)(recently *)(appointed *)(chief *)(executive *)) |BT| (BOP (JJ *)(NNS *)(POS *)(RB *)(VBN *)(JJ *)(NN *)) |ET| 
-0.017047391707441336694550670927129  |BT| (NP (DT the)(NNP Bush)(NN campaign)) |BT| (BOW (Bush *)(campaign *)) |BT| (BOP (NNP *)(NN *)) |ET| 
-0.02235294512177848219591780321025  |BT| (S (NP (NNP Florida)(CC and)(NNP Pennsylvania))(PRN (: -)(PP (IN among)(NP (NP (DT the)(NN tossup)(NNS states))(PP (IN in)(NP (DT the)(JJ presidential)(NN race)))))(: -))(VP (VBP have)(NP (NP (DT a)(JJ large)(NN number))(PP (IN of)(NP (NP (JJR older)(NNS people))(, ,)(SBAR (WHNP (WP who))(S (VP (VBP tend)(S (VP (TO to)(VP (VB be)(NP (DT the)(ADJP (RBS most)(JJ likely)(S (VP (TO to))))(NN vote))))))))))))(. .)) |BT| (BOW (presidential *)(race *)(- *)(have *)(a *)(large *)(number *)(of *)(older *)(people *)(, *)(who *)) |BT| (BOP (JJ *)(NN *)(MD *)(VB *)(DT *)(JJ *)(NN *)(IN *)(NN *)(NNS *)(, *)(WP *)) |ET| 
-0.022980296631858652955937571960021  |BT| (NP (JJ Golan)(NN land)) |BT| (BOW (Golan *)(land *)) |BT| (BOP (NNP *)(NN *)) |ET| 
-0.025096562598668843008242745895586  |BT| (NP (JJ international)(JJ human)(NNS rights)(NNS groups)) |BT| (BOW (human *)(rights *)(groups *)) |BT| (BOP (JJ *)(NNS *)(NNS *)) |ET| 
-0.020072014771592101844976951952049  |BT| (NP (NP (DT the)(NN world)(POS 's))(JJS biggest)(JJ mobile)(NN phone)(NN maker)) |BT| (BOW (world *)('s *)(biggest *)(mobile *)(phone *)(maker *)) |BT| (BOP (NN *)(POS *)(JJS *)(NN *)(NN *)(NN *)) |ET| 
-0.034805952970264820989232390502366  |BT| (NP (DT the)(JJ entire)(JJ Palestinian)(NNS people)(NN .'')) |BT| (BOW (Palestinian *)(people *)) |BT| (BOP (JJ *)(NNS *)) |ET| 
-0.031349337240069163890154868568061  |BT| (NP (NN fishery)(NNS scientists)) |BT| (BOW (fishery *)(scientists *)) |BT| (BOP (NN *)(NNS *)) |ET| 
-0.018134326721279160621325132751736  |BT| (NP (NP (NNP Belgrade)(POS 's))(ADJP (RB newly)(VBN installed))(NN government)) |BT| (BOW (Belgrade *)('s *)(newly *)(installed *)(government *)) |BT| (BOP (NNP *)(POS *)(JJ *)(JJ *)(NN *)) |ET| 
-0.018370872532558299439209292813757  |BT| (S (NP (NP (NNP Saturday)(POS 's))(JJ Egyptian)(NN delegation))(VP (VBD included)(NP (QP (JJR more)(IN than)(CD 150))(NNS delegates))(, ,)(S (VP (ADVP (RBS most))(VBG representing)(NP (NP (NNS unions))(CC and)(NP (JJ political)(NNS parties))))))(. .)) |BT| (BOW (Egyptian *)(delegation *)(included *)(more *)(than *)(150 *)(delegates *)(, *)(most *)(representing *)(unions *)) |BT| (BOP (JJ *)(NN *)(VBD *)(JJR *)(IN *)(CD *)(NNS *)(, *)(JJS *)(VBG *)(NNS *)) |ET| 
-0.035647689989932396237293232843513  |BT| (NP (JJ Arab)(NNS countries)) |BT| (BOW (Arab *)(countries *)) |BT| (BOP (NNP *)(NNS *)) |ET| 
-0.026303135566481339324695909454022  |BT| (NP (DT this)(NN beach)(NN resort)) |BT| (BOW (beach *)(resort *)) |BT| (BOP (JJ *)(NN *)) |ET| 
-0.027855575130704756520172438172267  |BT| (NP (NNP Kostunica)(NNS supporters)) |BT| (BOW (Kostunica *)(supporters *)) |BT| (BOP (NNP *)(NNS *)) |ET| 
-0.015000741581477978342507029196895  |BT| (NP (NP (DT The)(JJ disgraced)(NN autocrat)(POS 's))(NNP Socialist)(NNP Party)) |BT| (BOW (autocrat *)('s *)(Socialist *)(Party *)) |BT| (BOP (NN *)(POS *)(NN *)(NNP *)) |ET| 
-0.026726092251439181879391071561258  |BT| (NP (DT the)(JJ Japanese)(NNS makers)(NN .'')) |BT| (BOW (Japanese *)(makers *)) |BT| (BOP (JJ *)(NNS *)) |ET| 
-0.012723214037589454170062985838285  |BT| (NP (NP (NNP Yugoslavia)(POS 's))(JJ dominant)(NN republic)) |BT| (BOW (Yugoslavia *)('s *)(dominant *)(republic *)) |BT| (BOP (NNP *)(POS *)(JJ *)(NN *)) |ET| 
-0.025892590773567217277140173337102  |BT| (NP (DT the)(NNP Yugoslav)(NNS people)) |BT| (BOW (Yugoslav *)(people *)) |BT| (BOP (NNP *)(NNS *)) |ET| 
-0.020124125681412891042398882746056  |BT| (NP (JJ Palestinian)(NN command)(NNS centers)) |BT| (BOW (Palestinian *)(command *)(centers *)) |BT| (BOP (JJ *)(NN *)(NNS *)) |ET| 
-0.024557613240940263238387686328679  |BT| (NP (NNP AOL)(NNS executives)) |BT| (BOW (AOL *)(executives *)) |BT| (BOP (NNP *)(NNS *)) |ET| 
-0.021640565579554849051646669977345  |BT| (NP (NN motorcycle)(NNS periodicals)) |BT| (BOW (motorcycle *)(periodicals *)) |BT| (BOP (VB *)(NNS *)) |ET| 
-0.011556741157905552064288912106349  |BT| (S (NP (NP (DT The)(NN opposition)(NN alliance))(, ,)(SBAR (WHNP (WDT which))(S (VP (VP (VBZ controls)(NP (NP (QP (RB barely)(CD five))(NN percent))(PP (IN of)(NP (NNP Afghanistan)))))(CC and)(VP (VBZ is)(VP (VBG fighting)(NP (NP (DT a)(NN war))(PP (IN against)(NP (DT the)(JJ dominant)(NN Taliban)))))))))(, ,))(VP (VBZ is)(ADVP (RB mostly))(VP (VBN made)(PRT (RP up))(PP (IN of)(NP (NP (NP (DT the)(NN country)(POS 's))(NN minority)(JJ ethnic))(CC and)(NP (JJ religious)(NNS groups))))))(. .)) |BT| (BOW (Taliban *)(, *)(is *)(mostly *)(made *)(up *)(of *)(the *)(country *)('s *)(minority *)(ethnic *)(and *)(religious *)(groups *)) |BT| (BOP (NNP *)(, *)(VBZ *)(RB *)(VBN *)(RP *)(IN *)(DT *)(NN *)(POS *)(NN *)(JJ *)(CC *)(JJ *)(NNS *)) |ET| 
-0.0323105636834822435021763453733  |BT| (NP (NNS women)(NNS leaders)) |BT| (BOW (women *)(leaders *)) |BT| (BOP (JJ *)(NNS *)) |ET| 
-0.015317611549855305458356369285866  |BT| (NP (NP (NN Passenger)(NN traffic))(PP (IN on)(NP (JJ Chinese)(NNS carriers)))) |BT| (BOW (Passenger *)(traffic *)(on *)(Chinese *)) |BT| (BOP (JJR *)(NN *)(IN *)(JJ *)) |ET| 
-0.017048041724843837618763586760906  |BT| (NP (NP (DT the)(JJ German)(NN star))(SBAR (WHNP (WP who))(S (VP (VBD won)(NP (NNS titles))(PP (IN in)(NP (CD 1994)(CC and)(CD 1995)))(PP (IN with)(NP (NNP Benetton))))))) |BT| (BOW (star *)(who *)) |BT| (BOP (NN *)(WP *)) |ET| 
-0.022877591707030981577064565613  |BT| (NP (NNP Duma)(NN speaker)(NNP Gennady)(NNP Seleznyov)) |BT| (BOW (Duma *)(speaker *)) |BT| (BOP (NNP *)(NN *)) |ET| 
-0.011956968710495145466476962781144  |BT| (NP (NP (NNS citizens)(POS '))(NNS groups)(, ,)(JJ political)(NNS parties)(, ,)(NN sport)(NNS clubs)(, ,)(NNS students)(CC and)(NNS teachers)) |BT| (BOW (groups *)(, *)(political *)(parties *)(, *)(sport *)(clubs *)) |BT| (BOP (NNS *)(, *)(JJ *)(NNS *)(, *)(JJ *)(NN *)) |ET| 
-0.042517416422727757896460332176503  |BT| (NP (DT the)(NNP Indonesian)(NN state)) |BT| (BOW (Indonesian *)(state *)) |BT| (BOP (JJ *)(NN *)) |ET| 
-0.017990826129012184309008404170527  |BT| (S (NP (NP (QP (IN at)(JJS least)(CD six)))(PP (IN of)(NP (PRP them))))(NP (NNPS Jews))) |BT| (BOW (them *)(Jews *)) |BT| (BOP (PRP *)(NNP *)) |ET| 
-0.018426953323279659374689387618673  |BT| (NP (NNP Texas)(NN governor)) |BT| (BOW (Texas *)(governor *)) |BT| (BOP (NNP *)(NN *)) |ET| 
-0.021258300033241847581955141777144  |BT| (NP (JJ Jewish)(NNS settlements)) |BT| (BOW (Jewish *)(settlements *)) |BT| (BOP (JJ *)(NNS *)) |ET| 
-0.015235232223286560709896164667043  |BT| (NP (DT a)(NN fund)(NN shareholder)(NN advocacy)(NN group)) |BT| (BOW (shareholder *)(advocacy *)(group *)) |BT| (BOP (NN *)(NN *)(NN *)) |ET| 
-0.017309736849016432724823744138121  |BT| (NP (NNP Chicago)(NN favorite)(NNP Dick)(NNP Butkus)) |BT| (BOW (Chicago *)(favorite *)) |BT| (BOP (NNP *)(JJ *)) |ET| 
-0.018677614894968899705851583803451  |BT| (NAC (NNP Redmond)(, ,)(NNP Washington)) |BT| (BOW (Redmond *)(, *)(Washington *)) |BT| (BOP (NNP *)(, *)(NNP *)) |ET| 
-0.015615636798910046204036383699076  |BT| (NP (JJ Rutgers)(JJ athletic)(NN director)(NNP Robert)(NNP E.)(NNP Mulcahy)) |BT| (BOW (Rutgers *)(athletic *)(director *)) |BT| (BOP (NNS *)(JJ *)(NN *)) |ET| 
-0.025639718387402123112028817786268  |BT| (NP (PRP$ your)(NN country)) |BT| (BOW (your *)(country *)) |BT| (BOP (PRP$ *)(NN *)) |ET| 
-0.016539813002127947555441878080273  |BT| (S (NP (NNS viewers))(VP (TO to)(VP (VP (VB ``take)(NP (DT a)(JJ deep)(NN breath)))(CC and)(VP (VB imagine)(NP (NP (NNP Seattle))(PP (IN with)(NP (NP (NNP Bush)(POS 's))(ADJP (NNP Texas)(JJ -style))(JJ environmental)(NN regulation)(NNS .'')))))))) |BT| (BOW (viewers *)(to *)(``take *)(a *)(deep *)(breath *)(and *)(imagine *)(Seattle *)) |BT| (BOP (NNS *)(TO *)(VB *)(DT *)(JJ *)(NN *)(CC *)(JJ *)(NN *)) |ET| 
-0.018624413211184576155687864229549  |BT| (NP (NNP Egyptian)(NNP President)(NNP Hosni)(NNP Mubarak)) |BT| (BOW (Egyptian *)(President *)) |BT| (BOP (NNP *)(NNP *)) |ET| 
-0.016456331771239469247136710805535  |BT| (NP (NNP Alabama)(, ,)(NNP Georgia)(, ,)(CC and)(NNP northwestern)(NNP Florida)) |BT| (BOW (Alabama *)(, *)(Georgia *)) |BT| (BOP (NNP *)(, *)(NNP *)) |ET| 
-0.023992136039855879725557485926402  |BT| (NP (NN prison)(NNS employees)) |BT| (BOW (prison *)(employees *)) |BT| (BOP (NN *)(NNS *)) |ET| 
-0.023530498372738090778755193355209  |BT| (S (S (VP (VBN Born)(CC and)(VBN raised)(PP (IN in)(NP (NNP Chicago)))))(, ,)(NP (NP (NNP Herblock)(POS 's))(JJ first)(NP (JJ full-time)(NN cartoonist)(POS 's))(NN job))(VP (VBD was)(PP (IN on)(NP (DT the)(NNP Chicago)(NNP Daily)(NNP News))))(. .)) |BT| (BOW (Herblock *)('s *)(first *)(full-time *)(cartoonist *)('s *)(job *)(was *)(on *)(the *)(Chicago *)(Daily *)(News *)) |BT| (BOP (NNP *)(POS *)(JJ *)(JJ *)(NN *)(POS *)(NN *)(VBD *)(IN *)(DT *)(NNP *)(NNP *)(NNP *)) |ET| 
-0.021971479928747320725657132811648  |BT| (NP (JJ Democratic)(NN lawyer)(NNP David)(NNP Fisher)) |BT| (BOW (Democratic *)(lawyer *)) |BT| (BOP (JJ *)(NN *)) |ET| 
-0.012654068390821541015278661745924  |BT| (NP (PRP$ their)(NNS husbands)(POS ')) |BT| (BOW (their *)(husbands *)) |BT| (BOP (PRP$ *)(NNS *)) |ET| 
-0.015318692152558543995155559969135  |BT| (S (NP (NNP Florida)(CC and)(NNP Pennsylvania))(PRN (: -)(PP (IN among)(NP (NP (DT the)(NN tossup)(NNS states))(PP (IN in)(NP (DT the)(JJ presidential)(NN race)))))(: -))(VP (VBP have)(NP (NP (DT a)(JJ large)(NN number))(PP (IN of)(NP (NP (JJR older)(NNS people))(, ,)(SBAR (WHNP (WP who))(S (VP (VBP tend)(S (VP (TO to)(VP (VB be)(NP (DT the)(ADJP (RBS most)(JJ likely)(S (VP (TO to))))(NN vote))))))))))))(. .)) |BT| (BOW (states *)(in *)(the *)(presidential *)(race *)(- *)(have *)(a *)(large *)(number *)(of *)(older *)(people *)(, *)(who *)) |BT| (BOP (NNS *)(IN *)(DT *)(JJ *)(NN *)(MD *)(VB *)(DT *)(JJ *)(NN *)(IN *)(NN *)(NNS *)(, *)(WP *)) |ET| 
-0.01303836511874471339178516160473  |BT| (NP (NP (NNP Arizona)(NNP State)(POS 's))(JJ top)(NN choice)) |BT| (BOW (Arizona *)(State *)('s *)(top *)(choice *)) |BT| (BOP (NNP *)(NNP *)(POS *)(JJ *)(NN *)) |ET| 
-0.0072487090666584945777839443792345  |BT| (VP (VP (VB stop)(ADVP (RB here))(ADVP (RB together)))(CC and)(VP (VB prevent)(NP (DT any)(NNPS Jews))(PP (IN from)(S (VP (VBG coming)(PRT (RP back))(PP (TO to)(NP (DT this)(NN place)(NN .'')))))))) |BT| (BOW (together *)(and *)(prevent *)(any *)(Jews *)) |BT| (BOP (RB *)(CC *)(RB *)(DT *)(NNS *)) |ET| 
-0.012067785965784706692094374602675  |BT| (NP (JJ other)(NN fan)(NN -oriented)(NNS magazines)) |BT| (BOW (fan *)(-oriented *)(magazines *)) |BT| (BOP (JJ *)(JJ *)(NNS *)) |ET| 
-0.01687921821042893955056030108608  |BT| (NP (NP (DT a)(JJ major)(NN market))(PP (IN for)(NP (NP (DT the)(NN country)(POS 's))(NNS exports)))) |BT| (BOW (market *)(for *)(the *)(country *)) |BT| (BOP (NN *)(IN *)(DT *)(NN *)) |ET| 
-0.029342212027984999195284743223056  |BT| (NP (NNP MLS)(NNS players)) |BT| (BOW (MLS *)(players *)) |BT| (BOP (NNP *)(NNS *)) |ET| 
-0.015070020113429356128920133528482  |BT| (NP (NP (DT the)(NN city)(POS 's))(NN stock)(NN exchange)(NN building)) |BT| (BOW (city *)('s *)(stock *)(exchange *)(building *)) |BT| (BOP (NN *)(POS *)(NN *)(NN *)(NN *)) |ET| 
-0.019859246946331898797666326572653  |BT| (NP (NP (NNP Britain)(POS 's))(NNP High)(NNP Court)) |BT| (BOW (Britain *)('s *)(High *)(Court *)) |BT| (BOP (NNP *)(POS *)(NNP *)(NNP *)) |ET| 
-0.024293877823020879058724119659018  |BT| (NP (NP (DT a)(JJ dwindling)(NN band))(PP (IN of)(NP (JJ undecided)(NNS voters)))) |BT| (BOW (band *)(of *)(undecided *)(voters *)) |BT| (BOP (NN *)(IN *)(JJ *)(NNS *)) |ET| 
-0.018588681162794069151589226862598  |BT| (NP (PRP$ its)(JJ public)(NNS functions)) |BT| (BOW (presidential *)(palace *)) |BT| (BOP (JJ *)(NN *)) |ET| 
-0.011296826201109916310016956231266  |BT| (NP (DT the)(JJ fisheries)(NN section)) |BT| (BOW (fisheries *)(section *)) |BT| (BOP (NNS *)(NN *)) |ET| 
-0.016794710359249790526670054191527  |BT| (S (NP (NNS women))(VP (VB reverse)(NP (NP (NNS laws))(SBAR (WHNP (WDT that))(S (VP (VBD prevented)(NP (PRP them))(PP (IN from)(S (VP (VP (VBG obtaining)(NP (NN divorce)))(CC and)(VP (VBG traveling)(ADVP (RB abroad))(PP (IN without)(NP (NP (PRP$ their)(NNS husbands)(POS '))(NN permission))))))))))))) |BT| (BOW (women *)(reverse *)(laws *)(that *)(prevented *)(them *)(from *)(obtaining *)(divorce *)(and *)(traveling *)(abroad *)) |BT| (BOP (VBN *)(JJ *)(NNS *)(WDT *)(VBD *)(PRP *)(IN *)(VBG *)(NN *)(CC *)(VBG *)(RB *)) |ET| 
-0.025816641116668537225820045932778  |BT| (NP (DT The)(NNP Gore)(NN campaign)) |BT| (BOW (Gore *)(campaign *)) |BT| (BOP (NNP *)(NN *)) |ET| 
-0.014637410738110359295638396304184  |BT| (S (NP (NNS women))(VP (VB reverse)(NP (NP (NNS laws))(SBAR (WHNP (WDT that))(S (VP (VBD prevented)(NP (PRP them))(PP (IN from)(S (VP (VP (VBG obtaining)(NP (NN divorce)))(CC and)(VP (VBG traveling)(ADVP (RB abroad))(PP (IN without)(NP (NP (PRP$ their)(NNS husbands)(POS '))(NN permission))))))))))))) |BT| (BOW (women *)(reverse *)(laws *)(that *)(prevented *)(them *)(from *)(obtaining *)(divorce *)(and *)(traveling *)(abroad *)(without *)(their *)) |BT| (BOP (VBN *)(JJ *)(NNS *)(WDT *)(VBD *)(PRP *)(IN *)(VBG *)(NN *)(CC *)(VBG *)(RB *)(IN *)(PRP$ *)) |ET| 
-0.015072810517177487321660578345472  |BT| (NP (NP (NNP Tabasco)(POS 's))(JJ electoral)(NN institute)) |BT| (BOW (Tabasco *)('s *)(electoral *)(institute *)) |BT| (BOP (NNP *)(POS *)(JJ *)(NN *)) |ET| 
-0.019279127311279682654987510659339  |BT| (NP (NP (NNP Indonesia)(POS 's))(JJ war-torn)(JJ Aceh)(NN province)) |BT| (BOW (Aceh *)(province *)) |BT| (BOP (NNP *)(NN *)) |ET| 
-0.014187796529650086724272384230972  |BT| (S (NP (NP (NNP Saturday)(POS 's))(JJ Egyptian)(NN delegation))(VP (VBD included)(NP (QP (JJR more)(IN than)(CD 150))(NNS delegates))(, ,)(S (VP (ADVP (RBS most))(VBG representing)(NP (NP (NNS unions))(CC and)(NP (JJ political)(NNS parties))))))(. .)) |BT| (BOW (Egyptian *)(delegation *)(included *)(more *)(than *)(150 *)(delegates *)(, *)(most *)(representing *)(unions *)(and *)(political *)(parties *)) |BT| (BOP (JJ *)(NN *)(VBD *)(JJR *)(IN *)(CD *)(NNS *)(, *)(JJS *)(VBG *)(NNS *)(CC *)(JJ *)(NNS *)) |ET| 
-0.010918746249655534100164722133286  |BT| (NP (NP (DT an)(JJ open)(NN border))(, ,)(NP (NP (DT an)(JJ international)(NN boundary))(SBAR (WHNP (WDT that))(S (VP (VBZ ceases)(S (VP (TO to)(VP (VB be)(NP (DT a)(NN barrier)))))))))) |BT| (BOW (border *)(, *)(an *)(international *)(boundary *)) |BT| (BOP (NN *)(, *)(DT *)(JJ *)(NN *)) |ET| 
-0.015713601476581223054251879034382  |BT| (NP (JJ gay)(NNS men)) |BT| (BOW (gay *)(men *)) |BT| (BOP (NN *)(NNS *)) |ET| 
-0.012561272786735922998846426423825  |BT| (NP (NP (NNP Japan)(POS 's))(JJ central)(NN bank)) |BT| (BOW (Japan *)('s *)(central *)(bank *)) |BT| (BOP (NNP *)(POS *)(JJ *)(NN *)) |ET| 
-0.013887785342045145392519955862554  |BT| (NP (JJ Palestinian)(NN leader)(NNP Yasser)(NNP Arafat)) |BT| (BOW (Palestinian *)(leader *)) |BT| (BOP (NNP *)(NN *)) |ET| 
-0.012337585046694007906431522769708  |BT| (NP (NNP CBS)(NNP anchor)(NNP Dan)) |BT| (BOW (CBS *)(anchor *)) |BT| (BOP (NNP *)(NN *)) |ET| 
-0.014550922439185525608662530316906  |BT| (NP (NP (DT the)(NN sheriff)(POS 's))(NN department)) |BT| (BOW (sheriff *)('s *)(department *)) |BT| (BOP (NN *)(POS *)(NN *)) |ET| 
-0.0099545822313313880869145577889867  |BT| (NP (DT the)(JJ other)(CD 14)(NNP EU)(NNS leaders)) |BT| (BOW (EU *)(leaders *)) |BT| (BOP (NNP *)(NNS *)) |ET| 
-0.012372502771257620768352580853389  |BT| (NP (NP (NNS doctors)(POS '))(NN office)) |BT| (BOW (doctors *)(' *)(office *)) |BT| (BOP (NNS *)(POS *)(NN *)) |ET| 
-0.0096299526058649075055395627487087  |BT| (S (S (NP (DT A)(JJ new)(NN government))(VP (MD should)(VP (VB ``be)(ADJP (JJ able)(S (VP (TO to)(VP (VP (VB show)(PRT (RP up))(PP (IN in)(NP (NNP Brussels)(CC and)(NNP Washington))))(CC and)(VP (VB say)))))))))(: :)(S (NP (JJ `the)(NN country))(VP (VBZ has)(VP (VBN democratized))))(. ...)) |BT| (BOW (Washington *)(and *)(say *)(: *)(`the *)(country *)) |BT| (BOP (NNP *)(CC *)(VB *)(: *)(DT *)(NN *)) |ET| 
-0.020492615607910727448803811512335  |BT| (NP (ADJP (JJ well-known))(JJ Egyptian)(NN actress)(NNP Madeha)(NNP Yusri)) |BT| (BOW (actress *)(Madeha *)(Yusri *)) |BT| (BOP (NN *)(NNP *)(NNP *)) |ET| 
-0.018628180797856847689120129984985  |BT| (NP (NP (NNP Kostunica)(POS 's))(JJ 18-party)(NN opposition)(NN block)) |BT| (BOW (Kostunica *)('s *)(18-party *)(opposition *)(block *)) |BT| (BOP (NNP *)(POS *)(JJ *)(NN *)(NN *)) |ET| 
-0.011599053220312198833608086090408  |BT| (NP (NNP Vietnam)(, ,)(NNP Soviet)(CC and)(NNPS Chinese)(NNP oppression)) |BT| (BOW (Soviet *)(and *)(Chinese *)) |BT| (BOP (NNP *)(CC *)(JJ *)) |ET| 
-0.015408445350155763539645725757055  |BT| (NP (DT The)(NN opposition)(NN alliance)) |BT| (BOW (opposition *)(alliance *)) |BT| (BOP (NN *)(NN *)) |ET| 
-0.0084752742608691367109940983937122  |BT| (S (NP (DT Some))(VP (VBP have)(VP (VBN accused)(NP (PRP him))(PP (IN of)(S (VP (VBG orchestrating)(NP (NP (DT a)(NN spate))(PP (IN of)(NP (NP (NNS assassinations))(SBAR (WHPP (IN in)(WHNP (WDT which)))(S (NP (NP (NP (DT some))(PP (IN of)(NP (NP (DT the)(NN country)(POS 's))(JJS most)(JJ senior)(NNS politicians))))(CC and)(NP (NN underworld)(NNS figures)))(VP (VBP have)(VP (VBN died)))))))))))))(. .)) |BT| (BOW (Some *)(have *)(accused *)(him *)(of *)(orchestrating *)(a *)(spate *)(of *)(assassinations *)(in *)(which *)(some *)(of *)(the *)(country *)('s *)(most *)(senior *)(politicians *)(and *)(underworld *)(figures *)) |BT| (BOP (DT *)(VBP *)(VBN *)(PRP *)(IN *)(VBG *)(DT *)(NN *)(IN *)(NNS *)(IN *)(WDT *)(DT *)(IN *)(DT *)(NN *)(POS *)(JJS *)(JJ *)(NNS *)(CC *)(JJ *)(NNS *)) |ET| 
-0.0097617830437003432625386878385143  |BT| (NP (NP (NNP Germany)(POS 's))(JJ other)(JJ far-right)(NNS parties)) |BT| (BOW (Germany *)('s *)(other *)(far-right *)(parties *)) |BT| (BOP (NNP *)(POS *)(JJ *)(JJ *)(NNS *)) |ET| 
-0.015791453912912124801781743599349  |BT| (NP (NNP Minnesota)(, ,)(NNP California)(CC and)(NNP Michigan)) |BT| (BOW (Minnesota *)(, *)(California *)) |BT| (BOP (NNP *)(, *)(NNP *)) |ET| 
-0.011359787405949150693174054538304  |BT| (NP (NP (NNP Syria)(POS 's))(NN government)(NN -run)(NNS media)) |BT| (BOW (government *)(-run *)(media *)) |BT| (BOP (NN *)(JJ *)(NN *)) |ET| 
-0.011123294936755590348043121196042  |BT| (NP (NP (NN aid)(NNS workers))(PP (IN in)(NP (NNP Indonesian)(NNP West)(NNP Timor)))(PP (IN in)(NP (NNP September)))(. .)) |BT| (BOW (workers *)(in *)(Indonesian *)) |BT| (BOP (NNS *)(IN *)(JJ *)) |ET| 
-0.0098986784566465289142422889767658  |BT| (NP (JJ Jewish)(NN west)(NNS Jerusalem)) |BT| (BOW (Jewish *)(west *)(Jerusalem *)) |BT| (BOP (JJ *)(JJ *)(NN *)) |ET| 
-0.01416110517605324858880777583181  |BT| (NP (JJ Israeli)(NNS officials)) |BT| (BOW (Israeli *)(officials *)) |BT| (BOP (NNP *)(NNS *)) |ET| 
-0.0083561115944377935271791812965603  |BT| (NP (PRP$ his)(NN country)(NN house)(NN southwest)) |BT| (BOW (his *)(country *)(house *)) |BT| (BOP (PRP$ *)(NN *)(NN *)) |ET| 
-0.0094099109218254515379920022155602  |BT| (NP (NP (NNP northeastern)(NNP Nebraska)(POS 's))(NNP Cuming)(NNP County)) |BT| (BOW (Nebraska *)('s *)(Cuming *)(County *)) |BT| (BOP (NNP *)(POS *)(NNP *)(NNP *)) |ET| 
-0.012380326004076383852869902568727  |BT| (NP (NP (NNS citizens)(POS '))(NNS groups)(, ,)(JJ political)(NNS parties)(, ,)(NN sport)(NNS clubs)(, ,)(NNS students)(CC and)(NNS teachers)) |BT| (BOW (groups *)(, *)(political *)(parties *)) |BT| (BOP (NNS *)(, *)(JJ *)(NNS *)) |ET| 
-0.0098240188786936043230380022350801  |BT| (NP (NP (NNP Herblock)(POS 's))(NN assistant)) |BT| (BOW (Herblock *)('s *)(assistant *)) |BT| (BOP (NNP *)(POS *)(NN *)) |ET| 
-0.0090001552390132043279802331881001  |BT| (NP (NP (DT a)(JJ new)(NNS media)(NN analyst))(PP (IN at)(NP (NN research)(NN group)(NNP Gartner)))) |BT| (BOW (analyst *)(at *)(research *)(group *)) |BT| (BOP (NN *)(IN *)(NN *)(NN *)) |ET| 
-0.0095767379448738285813158555015434  |BT| (NP (DT the)(JJ central)(NNP Javanese)(NN city)) |BT| (BOW (Javanese *)(city *)) |BT| (BOP (JJ *)(NN *)) |ET| 
-0.0087201322931150723749560427222605  |BT| (NP (NNP Hakkinen)(CC and)(NNP McLaren)(NNP teammate)(NNP David)(NNP Coulthard)) |BT| (BOW (McLaren *)(teammate *)) |BT| (BOP (NNP *)(NN *)) |ET| 
-0.010413551374617160266700111037608  |BT| (NP (DT the)(NN majority)(JJ Islamic)(NN sect)) |BT| (BOW (Islamic *)(sect *)) |BT| (BOP (JJ *)(NN *)) |ET| 
-0.0083650137780349638483290419799232  |BT| (VP (VP (VBZ describes)(NP (NP (DT the)(NN smog))(PP (IN in)(NP (NNP Houston)))))(CC and)(VP (VBZ implores)(S (NP (NNS viewers))(VP (TO to)(VP (VP (VB ``take)(NP (DT a)(JJ deep)(NN breath)))(CC and)(VP (VB imagine)(NP (NP (NNP Seattle))(PP (IN with)(NP (NP (NNP Bush)(POS 's))(ADJP (NNP Texas)(JJ -style))(JJ environmental)(NN regulation)(NNS .'')))))))))) |BT| (BOW (Houston *)(and *)(implores *)(viewers *)) |BT| (BOP (NNP *)(CC *)(VBZ *)(NNS *)) |ET| 
-0.015933648467637707979438488337109  |BT| (NP (DT a)(JJ senior)(NNP Bush)(NN campaign)(NN official)) |BT| (BOW (Bush *)(campaign *)) |BT| (BOP (NNP *)(NN *)) |ET| 
-0.0074067871861678898776082391464115  |BT| (VP (VBN accused)(NP (PRP him))(PP (IN of)(S (VP (VBG orchestrating)(NP (NP (DT a)(NN spate))(PP (IN of)(NP (NP (NNS assassinations))(SBAR (WHPP (IN in)(WHNP (WDT which)))(S (NP (NP (NP (DT some))(PP (IN of)(NP (NP (DT the)(NN country)(POS 's))(JJS most)(JJ senior)(NNS politicians))))(CC and)(NP (NN underworld)(NNS figures)))(VP (VBP have)(VP (VBN died)))))))))))) |BT| (BOW (him *)(of *)(orchestrating *)(a *)(spate *)(of *)(assassinations *)(in *)(which *)(some *)(of *)(the *)(country *)('s *)(most *)(senior *)(politicians *)(and *)(underworld *)(figures *)) |BT| (BOP (PRP *)(IN *)(VBG *)(DT *)(NN *)(IN *)(NNS *)(IN *)(WDT *)(DT *)(IN *)(DT *)(NN *)(POS *)(JJS *)(JJ *)(NNS *)(CC *)(JJ *)(NNS *)) |ET| 
-0.0086685083543321557464356175159992  |BT| (NP (DT a)(NN spacewalker)(S (VP (TO to)(VP (VB rescue)(NP (DT an)(JJ incapacitated)(NN colleague)))))) |BT| (BOW (spacewalker *)(to *)(rescue *)(an *)(incapacitated *)(colleague *)) |BT| (BOP (NN *)(TO *)(VB *)(DT *)(JJ *)(NN *)) |ET| 
-0.01168275943263886833267672926695  |BT| (S (NP (NNP Florida)(CC and)(NNP Pennsylvania))(PRN (: -)(PP (IN among)(NP (NP (DT the)(NN tossup)(NNS states))(PP (IN in)(NP (DT the)(JJ presidential)(NN race)))))(: -))(VP (VBP have)(NP (NP (DT a)(JJ large)(NN number))(PP (IN of)(NP (NP (JJR older)(NNS people))(, ,)(SBAR (WHNP (WP who))(S (VP (VBP tend)(S (VP (TO to)(VP (VB be)(NP (DT the)(ADJP (RBS most)(JJ likely)(S (VP (TO to))))(NN vote))))))))))))(. .)) |BT| (BOW (states *)(in *)(the *)(presidential *)(race *)(- *)(have *)(a *)(large *)(number *)(of *)(older *)(people *)) |BT| (BOP (NNS *)(IN *)(DT *)(JJ *)(NN *)(MD *)(VB *)(DT *)(JJ *)(NN *)(IN *)(NN *)(NNS *)) |ET| 
-0.012441860700096687986082599763904  |BT| (NP (DT the)(JJ senior)(NNP U.S.)(NN official)) |BT| (BOW (U.S. *)(official *)) |BT| (BOP (NNP *)(NN *)) |ET| 
-0.011446836605934224834202339593503  |BT| (NP (NNP State)(CC and)(NNP Army)(NNS officials)) |BT| (BOW (Army *)(officials *)) |BT| (BOP (NNP *)(NNS *)) |ET| 
-0.013811769873836476918427251803223  |BT| (NP (NP (NP (NNP Bill)(NNP DeWitt))(CC and)(NP (NNP Mercer)(NNP Reynolds)))(, ,)(NP (NP (NNS co-chairs))(PP (IN of)(NP (NP (DT the)(ADJP (JJ Ohio-based))(NN investment)(NN firm))(PP (IN of)(NP (NNP Reynolds,)(NNP DeWitt)(CC and)(NNP Company))))))(: ;)(NP (NP (NNP Brad)(NNP Freeman))(, ,)(NP (DT a)(NNP California)(NN investor)))(: ;)(CC and)(NP (NP (NNP Florida)(NN developer)(NNP Al)(NNP Hoffman))(, ,)(SBAR (WHNP (WP who))(S (VP (VBD was)(NP (NP (NP (NN finance)(NN chairman))(PP (IN for)(NP (NP (NNP Jeb)(NNP Bush)(POS 's))(JJ gubernatorial)(NN campaign))))(CC and)(NP (NP (NN chairman))(PP (IN of)(NP (PRP$ his)(JJ inaugural)(NN committee)))))))))) |BT| (BOW (investor *)(; *)(and *)(Florida *)(developer *)) |BT| (BOP (NN *)(: *)(CC *)(NNP *)(NN *)) |ET| 
-0.011607855831455782952277289155063  |BT| (S (NP (DT The)(JJ Egyptian)(JJ -born)(NN Palestinian))(VP (VBD told)(NP (NNS judges))(SBAR (IN that)(S (NP (PRP he))(VP (VBN deserted)(NP (NP (DT the)(JJ Egyptian)(NN army))(PP (IN in)(NP (DT the)(NNS mid-1970s))))(, ,)(S (VP (VBG fleeing)(PP (TO to)(NP (NP (NNP Lebanon))(PP (IN via)(NP (NNP Jordan)))))(PP (IN with)(NP (DT a)(JJ false)(NN passport)))))))))(. .)) |BT| (BOW (Egyptian *)(-born *)(Palestinian *)(told *)(judges *)(that *)(he *)) |BT| (BOP (JJ *)(JJ *)(JJ *)(VBD *)(NNS *)(IN *)(PRP *)) |ET| 
-0.008161017325453970641668810515057  |BT| (NP (NNP Georgia)(NNP Tech)(, ,)(NNP Florida)(, ,)(NNP Auburn)(CC and)(NNP Tennessee)) |BT| (BOW (Florida *)(, *)(Auburn *)) |BT| (BOP (NNP *)(, *)(NNP *)) |ET| 
-0.011039735823845800780085291137311  |BT| (NP (DT a)(JJ Jewish)(JJ civilian)) |BT| (BOW (Jewish *)(civilian *)) |BT| (BOP (JJ *)(NN *)) |ET| 
-0.013453823811964010087605103649366  |BT| (NP (NP (NNP Braca)(NNP Grubacic))(, ,)(NP (DT a)(JJ Belgrade)(JJ political)(NN analyst))) |BT| (BOW (Braca *)(Grubacic *)(, *)(a *)(Belgrade *)) |BT| (BOP (NNP *)(NNP *)(, *)(DT *)(JJ *)) |ET| 
-0.01257675366481618775549300437433  |BT| (NP (NP (NNP Yugoslavia)(POS 's))(JJ prime)(NN minister)) |BT| (BOW (Yugoslavia *)('s *)(prime *)(minister *)) |BT| (BOP (NNP *)(POS *)(JJ *)(NN *)) |ET| 
-0.0065878828844386002477895303286459  |BT| (NP (NP (NNP Gaspard)(NNP Yurkievitch))(, ,)(NP (NP (DT a)(JJ young)(JJ French)(NN designer))(, ,)(VP (VBG showing)(PP (IN in)(NP (DT the)(NNP Petit)(NNPS Palais)))))(, ,)) |BT| (BOW (Gaspard *)(Yurkievitch *)(, *)(a *)(young *)(French *)) |BT| (BOP (NNP *)(NNP *)(, *)(DT *)(JJ *)(JJ *)) |ET| 
-0.0063506268004761183901263343898336  |BT| (NP (NP (DT A)(NN plane))(VP (VBG carrying)(NP (NP (NN actress))(SBAR (S (NP (NP (NNP Sandra)(NNP Bullock))(CC and)(NP (CD three)(JJ other)(NNS people)))(VP (VP (VBD missed)(NP (DT a)(NN runway)))(CC and)(VP (VBD crashed)(PP (IN at)(NP (DT the)(NNP Jackson)(NNP Hole)(NNP Airport)))(NP (JJ early)(NNP Wednesday))))))))) |BT| (BOW (plane *)(carrying *)(actress *)) |BT| (BOP (NN *)(VBG *)(NN *)) |ET| 
-0.005072551744200218606928309839077  |BT| (NP (JJ old)(JJ Russian)(CC and)(JJ Soviet)(NNS symbols)) |BT| (BOW (Russian *)(and *)(Soviet *)) |BT| (BOP (JJ *)(CC *)(JJ *)) |ET| 
-0.0064781687429478910025815174833497  |BT| (NP (DT the)(JJ sole)(JJ Jewish)(NN representative)) |BT| (BOW (Jewish *)(representative *)) |BT| (BOP (JJ *)(NN *)) |ET| 
-0.0060267355014129147389168039694596  |BT| (NP (NNP Gore)(NNS aides)) |BT| (BOW (Gore *)(aides *)) |BT| (BOP (NNP *)(NNS *)) |ET| 
-0.0057575002420768867789080402985746  |BT| (S (NP (NNS Economists))(VP (VBP say)(SBAR (S (NP (NP (DT an)(JJ unfettered)(NN flow))(PP (IN of)(NP (JJ Mexican)(NNS workers))))(VP (MD could)(VP (VP (VB drive)(NP (NNS wages))(PRT (RP down)))(CC and)(VP (VB strain)(NP (JJ social)(NNS services))(PP (PP (TO to)(NP (DT the)(JJ breaking)(NN point)))(, ,)(RB particularly)(PP (IN in)(NP (NN border)(NNS states))))))))))(. .)) |BT| (BOW (Economists *)(say *)(an *)(unfettered *)(flow *)(of *)(Mexican *)(workers *)) |BT| (BOP (NNS *)(VBP *)(DT *)(JJ *)(NN *)(IN *)(NNP *)(NNS *)) |ET| 
-0.010108865164214783996521340725394  |BT| (NP (DT the)(JJ Milosevic)(NN regime)) |BT| (BOW (Milosevic *)(regime *)) |BT| (BOP (NNP *)(NN *)) |ET| 
-0.006409814967724867910969788198372  |BT| (NP (NP (DT The)(NNP 59-year-old)(NNP Cheney)(POS 's))(JJ examining)(NN physician)) |BT| (BOW (Cheney *)('s *)(examining *)(physician *)) |BT| (BOP (NNP *)(POS *)(VBG *)(JJ *)) |ET| 
-0.0054981738544418153405435312208738  |BT| (NP (NP (DT a)(NNP Rochester)(NN journalist))(SBAR (WHNP (WP who))(S (VP (VBD wrote)(SBAR (S (NP (DT the)(CD 1992)(NN book))(VP (VBP ``Let)(S (NP (PRP Me))(VP (VB Take)(NP (PRP You))(ADVP (RB Down))(: :)(PP (IN Inside)(NP (NP (DT the)(NNP Mind))(PP (IN of)(NP (NP (NNP Mark)(NNP David)(NNP Chapman))(, ,)(NP (NP (DT the)(NN Man))(SBAR (WHNP (WP Who))(S (NP (NNP Killed)(NNP John)(NNP Lennon)('' ''))(VP (VBD [Villard)(NP (NNP Books)(NNP ].))))))))))))))))))) |BT| (BOW (Rochester *)(journalist *)(who *)) |BT| (BOP (NNP *)(NN *)(WP *)) |ET| 
-0.017636323665359675966213259812321  |BT| (NP (JJ former)(NNP NFL)(NNS first-rounders)) |BT| (BOW (NFL *)(first-rounders *)) |BT| (BOP (NNP *)(NNS *)) |ET| 
-0.0065367985685802487694218143587932  |BT| (NP (NP (DT A)(NN detective))(CC and)(NP (DT a)(NN drug)(NN suspect))) |BT| (BOW (detective *)(and *)(a *)(drug *)(suspect *)) |BT| (BOP (NN *)(CC *)(DT *)(JJ *)(NN *)) |ET| 
-0.0054378846999908097073483936867433  |BT| (NP (DT a)(NN chemist)(CC and)(NN contributor)) |BT| (BOW (chemist *)(and *)(contributor *)) |BT| (BOP (NN *)(CC *)(NN *)) |ET| 
-0.0063232264775971280118538331294076  |BT| (NP (PRP$ his)(JJ political)(NNS allies)) |BT| (BOW (his *)(political *)(allies *)) |BT| (BOP (PRP$ *)(JJ *)(NNS *)) |ET| 
-0.0041553351619298961594495267490856  |BT| (NP (NP (CD 55)(NNS victims))(SBAR (WHNP (WP$ whose)(NX (NNS bodies)))(S (VP (VBD were)(VP (VBN recovered)))))) |BT| (BOW (victims *)(whose *)(bodies *)) |BT| (BOP (NNS *)(WP$ *)(NNS *)) |ET| 
-0.008981301848520232070094415632866  |BT| (NP (NP (DT the)(NN governor)(POS 's))(NN mansion)) |BT| (BOW (governor *)('s *)(mansion *)) |BT| (BOP (NN *)(POS *)(NN *)) |ET| 
-0.0099976588318596865817555752187218  |BT| (NP (NNP Bush)(NNS officials)) |BT| (BOW (Bush *)(officials *)) |BT| (BOP (NNP *)(NNS *)) |ET| 
-0.0072898007324850855326303644687869  |BT| (NP (DT a)(JJ large)(JJ blue-collar)(NNP Detroit)(NN suburb)) |BT| (BOW (Detroit *)(suburb *)) |BT| (BOP (NN *)(NN *)) |ET| 
-0.0061898915895212359636334831236582  |BT| (NP (NP (NNP German)(POS 's))(JJ main)(NN licensing)(NN group)) |BT| (BOW (German *)('s *)(main *)(licensing *)(group *)) |BT| (BOP (NNP *)(POS *)(NN *)(VBG *)(NN *)) |ET| 
-0.010039516207401722597269966286149  |BT| (NP (NP (DT the)(NN world)(POS 's))(ADJP (RBS most)(JJ populous))(JJ Muslim)(NN country)) |BT| (BOW (world *)('s *)(most *)(populous *)(Muslim *)(country *)) |BT| (BOP (NN *)(POS *)(JJS *)(JJ *)(NNP *)(NN *)) |ET| 
-0.0039920017441704928190526757703083  |BT| (S (NP (NP (DT The)(NN opposition)(NN alliance))(, ,)(SBAR (WHNP (WDT which))(S (VP (VP (VBZ controls)(NP (NP (QP (RB barely)(CD five))(NN percent))(PP (IN of)(NP (NNP Afghanistan)))))(CC and)(VP (VBZ is)(VP (VBG fighting)(NP (NP (DT a)(NN war))(PP (IN against)(NP (DT the)(JJ dominant)(NN Taliban)))))))))(, ,))(VP (VBZ is)(ADVP (RB mostly))(VP (VBN made)(PRT (RP up))(PP (IN of)(NP (NP (NP (DT the)(NN country)(POS 's))(NN minority)(JJ ethnic))(CC and)(NP (JJ religious)(NNS groups))))))(. .)) |BT| (BOW (opposition *)(alliance *)(, *)(which *)(controls *)(barely *)(five *)(percent *)(of *)(Afghanistan *)(and *)(is *)(fighting *)(a *)(war *)(against *)(the *)(dominant *)(Taliban *)(, *)(is *)(mostly *)(made *)(up *)(of *)(the *)(country *)('s *)(minority *)(ethnic *)(and *)(religious *)(groups *)) |BT| (BOP (NN *)(NN *)(, *)(WDT *)(VBZ *)(RB *)(CD *)(NN *)(IN *)(NNP *)(CC *)(VBZ *)(VBG *)(DT *)(NN *)(IN *)(DT *)(JJ *)(NNP *)(, *)(VBZ *)(RB *)(VBN *)(RP *)(IN *)(DT *)(NN *)(POS *)(NN *)(JJ *)(CC *)(JJ *)(NNS *)) |ET| 
-0.008353298434317925694192474850297  |BT| (NP (NP (NNP Iran)(POS 's))(JJ 290-seat)(NN parliament)) |BT| (BOW (Iran *)('s *)(290-seat *)(parliament *)) |BT| (BOP (NNP *)(POS *)(JJ *)(NN *)) |ET| 
-0.0061642933696749221267330298701381  |BT| (NP (NP (NP (NN intervention))(PP (IN in)(NP (NNP Vietnam)(, ,)(NNP Soviet)(CC and)(NNPS Chinese)(NNP oppression))))(, ,)(NP (JJ nuclear)(NNS weapons))(, ,)) |BT| (BOW (Chinese *)(oppression *)(, *)(nuclear *)(weapons *)) |BT| (BOP (JJ *)(NN *)(, *)(JJ *)(NNS *)) |ET| 
-0.0051127064645389479549675293412747  |BT| (NP (DT a)(NN runway)(CC and)(NN taxiway)) |BT| (BOW (runway *)(and *)(taxiway *)) |BT| (BOP (NN *)(CC *)(NN *)) |ET| 
-0.0034192407392215043611394253986191  |BT| (S (NP (NP (DT The)(NN opposition)(NN alliance))(, ,)(SBAR (WHNP (WDT which))(S (VP (VP (VBZ controls)(NP (NP (QP (RB barely)(CD five))(NN percent))(PP (IN of)(NP (NNP Afghanistan)))))(CC and)(VP (VBZ is)(VP (VBG fighting)(NP (NP (DT a)(NN war))(PP (IN against)(NP (DT the)(JJ dominant)(NN Taliban)))))))))(, ,))(VP (VBZ is)(ADVP (RB mostly))(VP (VBN made)(PRT (RP up))(PP (IN of)(NP (NP (NP (DT the)(NN country)(POS 's))(NN minority)(JJ ethnic))(CC and)(NP (JJ religious)(NNS groups))))))(. .)) |BT| (BOW (alliance *)(, *)(which *)(controls *)(barely *)(five *)(percent *)(of *)(Afghanistan *)(and *)(is *)(fighting *)(a *)(war *)(against *)(the *)(dominant *)(Taliban *)(, *)(is *)(mostly *)(made *)(up *)(of *)(the *)(country *)('s *)(minority *)(ethnic *)(and *)(religious *)(groups *)) |BT| (BOP (NN *)(, *)(WDT *)(VBZ *)(RB *)(CD *)(NN *)(IN *)(NNP *)(CC *)(VBZ *)(VBG *)(DT *)(NN *)(IN *)(DT *)(JJ *)(NNP *)(, *)(VBZ *)(RB *)(VBN *)(RP *)(IN *)(DT *)(NN *)(POS *)(NN *)(JJ *)(CC *)(JJ *)(NNS *)) |ET| 
-0.005710651697207094756869594220916  |BT| (NP (NP (DT a)(NN group))(PP (IN of)(NP (NN area)(NNS voters)))(SBAR (WHNP (WP who))(S (VP (VBP say)(SBAR (S (NP (PRP they))(VP (MD could)(VP (VB support)(NP (CC either)(NNP Gore)(CC or)(NNP Bush))(: -)(SBAR (IN though)(S (NP (PRP they))(VP (MD might)(VP (VB be)(VP (VBG leaning)(NP (NP (CD one)(NN way))(CC or)(NP (DT the)(JJ other)))))))))))))))) |BT| (BOW (group *)(of *)(area *)(voters *)) |BT| (BOP (NN *)(IN *)(NN *)(NNS *)) |ET| 
-0.0050827969833116869516342894996797  |BT| (NP (NP (NNP Daniel)(POS 's))(NN den)(NN ,'')) |BT| (BOW (Daniel *)('s *)(den *)) |BT| (BOP (NNP *)(POS *)(JJ *)) |ET| 
-0.005752103034548679619253341854801  |BT| (VP (VBD prevented)(NP (PRP them))(PP (IN from)(S (VP (VP (VBG obtaining)(NP (NN divorce)))(CC and)(VP (VBG traveling)(ADVP (RB abroad))(PP (IN without)(NP (NP (PRP$ their)(NNS husbands)(POS '))(NN permission)))))))) |BT| (BOW (them *)(from *)(obtaining *)(divorce *)(and *)(traveling *)(abroad *)(without *)(their *)(husbands *)) |BT| (BOP (PRP *)(IN *)(VBG *)(NN *)(CC *)(VBG *)(RB *)(IN *)(PRP$ *)(NNS *)) |ET| 
-0.0039474493216555828212221967987716  |BT| (NP (JJ Indonesian)(NNS officials)) |BT| (BOW (Indonesian *)(officials *)) |BT| (BOP (JJ *)(NNS *)) |ET| 
-0.0041252956938627035818334398697971  |BT| (NP (PRP$ his)(JJ central)(NNP Texas)(NN ranch)) |BT| (BOW (Texas *)(ranch *)) |BT| (BOP (NNP *)(NN *)) |ET| 
-0.0036955822198139936032856844860817  |BT| (NP (NP (NNPS Communists))(CC and)(NP (JJ other)(NNS hard-liners))) |BT| (BOW (Communists *)(and *)(other *)(hard-liners *)) |BT| (BOP (NNS *)(CC *)(JJ *)(NNS *)) |ET| 
-0.0030593269472413732457116708474132  |BT| (S (NP (NP (DT The)(NN rally)(POS 's))(NNS organizers))(VP (VBD accused)(NP (NP (NN security)(NNS forces))(PP (IN of)(S (VP (VBG preventing)(NP (JJ pro-independence)(NNS residents))(PP (IN from)(S (VP (VBG reaching)(NP (NP (DT the)(NN capital))(PP (IN for)(NP (NP (DT the)(NN rally))(, ,)(SBAR (WHNP (WDT which))(S (NP (JJ last)(NN year))(VP (VBD attracted)(NP (DT an)(VBN estimated)(CD 250,000)(NNS people))))))))))))))))(. .)) |BT| (BOW (organizers *)(accused *)(security *)(forces *)) |BT| (BOP (NNS *)(VBN *)(JJ *)(NNS *)) |ET| 
-0.0025498538896369677547726340094414  |BT| (NP (NP (NNP Ivorians))(CC and)(NP (JJ foreign)(NNS investors))) |BT| (BOW (Ivorians *)(and *)(foreign *)(investors *)) |BT| (BOP (NNPS *)(CC *)(JJ *)(NNS *)) |ET| 
-0.0080713709164883518099031789461151  |BT| (NP (NN Indonesian)(NNS lawmakers)) |BT| (BOW (Indonesian *)(lawmakers *)) |BT| (BOP (JJ *)(NNS *)) |ET| 
-0.0061366101740766652167247130478245  |BT| (NP (NP (DT the)(JJ German)(NN star))(SBAR (WHNP (WP who))(S (VP (VBD won)(NP (NNS titles))(PP (IN in)(NP (CD 1994)(CC and)(CD 1995)))(PP (IN with)(NP (NNP Benetton))))))) |BT| (BOW (German *)(star *)(who *)) |BT| (BOP (NNP *)(NN *)(WP *)) |ET| 
-0.0032301816706630233182184763762734  |BT| (NP (NP (DT the)(NN union))(VP (VBG representing)(NP (JJ editorial)(NNS workers))(PP (IN at)(NP (NP (DT the)(NN paper))(, ,)(SBAR (WHNP (WDT which))(S (VP (VBZ claims)(SBAR (S (NP (DT the)(NN sale))(VP (MD would)(RB not)(VP (VB require)(S (NP (NNP Hollinger))(VP (TO to)(VP (VB honor)(NP (NP (DT a)(JJ collective-bargaining)(NN agreement))(VP (VBN reached)(PP (IN between)(NP (NP (DT the)(NN paper))(CC and)(NP (NNS employees)))))))))))))))))))) |BT| (BOW (union *)(representing *)(editorial *)(workers *)) |BT| (BOP (NN *)(VBG *)(JJ *)(NNS *)) |ET| 
-0.002624867251803574431240351216843  |BT| (VP (VP (VBN arrested)(S (NP (CD 13)(NNP Iranian)(NNPS Jews))))(CC and)(VP (ADVP (RB later))(VBN convicted)(NP (NP (CD 10))(PP (IN of)(NP (NP (VBG spying))(PP (IN for)(NP (NNP Israel)))))))) |BT| (BOW (Jews *)(and *)(later *)(convicted *)(10 *)) |BT| (BOP (NNS *)(CC *)(RBR *)(JJ *)(CD *)) |ET| 
-0.0032657601374952950276653318439912  |BT| (NP (NNP Junta)(NN leader)(NNP Gen.)(NNP Robert)(NNP Guei)) |BT| (BOW (Junta *)(leader *)) |BT| (BOP (NNP *)(NN *)) |ET| 
-0.0038354196609699333676835042439279  |BT| (SINV (S (S (ADVP (RB ``All))(NP (PRP$ my)(NNS feelings))(VP (VBP have)(VP (VBN been)(PP (IN with)(NP (NP (NNP Iraq))(CC and)(NP (DT the)(NNS people)))))))(, ,)(CC but)(S (NP (DT this)(NN time))(VP (VBZ is)(ADJP (JJ special))(SBAR (IN because)(S (NP (PRP I))(VP (VBP am)(ADJP (RB physically)(RB here)(S (VP (TO to)(VP (VB show)(NP (PRP$ my)(NN support)(NN ,''))))))))))))(VP (VBD said))(NP (ADJP (JJ well-known))(JJ Egyptian)(NN actress)(NNP Madeha)(NNP Yusri))(. .)) |BT| (BOW (my *)(support *)(,'' *)(said *)(well-known *)(Egyptian *)) |BT| (BOP (PRP$ *)(NN *)(, *)(VBD *)(VBN *)(JJ *)) |ET| 
-0.0058076560742287113014992172566053  |BT| (NP (NP (NNP Brad)(NNP Freeman))(, ,)(NP (DT a)(NNP California)(NN investor))) |BT| (BOW (Brad *)(Freeman *)(, *)(a *)(California *)) |BT| (BOP (NNP *)(NNP *)(, *)(DT *)(NNP *)) |ET| 
-0.0017377716551613786415131368556786  |BT| (NP (NP (NNP Solomon)(POS 's))(NNS lawyers)) |BT| (BOW (Solomon *)('s *)(lawyers *)) |BT| (BOP (NNP *)(POS *)(NNS *)) |ET| 
-0.0029803911572660090126274390343042  |BT| (NP (NP (PRP$ its)(JJ bloated)(NNS businesses))(CC and)(NP (JJ inefficient)(JJ financial)(NN sector))) |BT| (BOW (its *)(bloated *)(businesses *)(and *)(inefficient *)(financial *)(sector *)) |BT| (BOP (PRP$ *)(JJ *)(NNS *)(CC *)(JJ *)(JJ *)(NN *)) |ET| 
-0.0031443670635534410641442892853092  |BT| (NP (NNP French)(NNP President)(NNP Jacques)(NNP Chirac)) |BT| (BOW (French *)(President *)) |BT| (BOP (JJ *)(NNP *)) |ET| 
-0.0044989753851961793162939073909001  |BT| (NP (NN police)(NNS headquarters)) |BT| (BOW (police *)(headquarters *)) |BT| (BOP (NN *)(NNS *)) |ET| 
-0.0044171195491423944842757087769769  |BT| (NP (NP (NNP Gaspard)(NNP Yurkievitch))(, ,)(NP (NP (DT a)(JJ young)(JJ French)(NN designer))(, ,)(VP (VBG showing)(PP (IN in)(NP (DT the)(NNP Petit)(NNPS Palais)))))(, ,)) |BT| (BOW (Gaspard *)(Yurkievitch *)(, *)(a *)(young *)(French *)(designer *)) |BT| (BOP (NNP *)(NNP *)(, *)(DT *)(JJ *)(JJ *)(NN *)) |ET| 
-0.0023175754497275491416985460091382  |BT| (NP (NP (NNP Social)(NNP Security)(NNS benefits))(VP (VBN paid)(PP (TO to)(NP (JJ disabled)(NNS workers)(CC and)(NNS families))))(SBAR (WP$ whose)(S (NP (NNS breadwinners))(VP (VBP have)(VP (VBN died)))))) |BT| (BOW (workers *)(and *)(families *)(whose *)) |BT| (BOP (NNS *)(CC *)(NNS *)(WP$ *)) |ET| 
-0.0031974083600074532096613211251679  |BT| (NP (NP (DT a)(JJ young)(JJ French)(NN designer))(, ,)(VP (VBG showing)(PP (IN in)(NP (DT the)(NNP Petit)(NNPS Palais))))) |BT| (BOW (designer *)(, *)(showing *)(in *)(the *)(Petit *)(Palais *)) |BT| (BOP (NN *)(, *)(VBG *)(IN *)(DT *)(NNP *)(NNP *)) |ET| 
-0.0022755988301042307832278144275051  |BT| (VP (VP (VB help)(NP (NN show)(NNS Rodriguez))(PP (IN around)(NP (DT the)(NNP Dallas-Fort)(NNP Worth)(NN area))))(CC and)(VP (VB tell)(NP (PRP him))(SBAR (WHADVP (WRB why))(S (NP (PRP it))(VP (MD would)(VP (VB be)(NP (DT a)(JJ great)(NN place)(S (VP (TO to)(VP (VB play))))))))))) |BT| (BOW (area *)(and *)(tell *)(him *)) |BT| (BOP (NN *)(CC *)(NN *)(PRP *)) |ET| 
-0.0021525488531985992324280232423916  |BT| (NP (NP (NNP ,'')(NNP Nokia)(POS 's))(NNP Chief)(NNP Executive)(NNP Jorma)(NNP Ollila)) |BT| (BOW (Nokia *)('s *)(Chief *)(Executive *)) |BT| (BOP (NNP *)(POS *)(NNP *)(NNP *)) |ET| 
-0.0031084486450672658627847333434602  |BT| (NP (PRP$ Her)(NN family)) |BT| (BOW (Her *)(family *)) |BT| (BOP (NNP *)(NN *)) |ET| 
